{"net":{"layers":[{"out_depth":1,"out_sx":28,"out_sy":28,"layer_type":"input"},{"sx":5,"sy":5,"stride":1,"in_depth":1,"out_depth":8,"out_sx":28,"out_sy":28,"layer_type":"conv","l1_decay_mul":0,"l2_decay_mul":1,"pad":2,"filters":[{"sx":5,"sy":5,"depth":1,"w":{"0":0.026396728227028633,"1":0.09944771894196634,"2":0.3064579094947719,"3":-0.0022132492996184286,"4":0.2128102903803872,"5":-0.568196377794721,"6":-0.37244709198274606,"7":-0.33992468504540363,"8":-0.4917235539370031,"9":0.031869174131970116,"10":0.1657033270786047,"11":-0.005955078751324854,"12":-0.2443653385983255,"13":0.11521186973744461,"14":0.019403417821073368,"15":0.28650339851125983,"16":0.001157755748138214,"17":0.08378420168465135,"18":-0.11417354020636335,"19":-0.09084584015609846,"20":-0.1123555735406484,"21":0.40754099738102434,"22":-0.009644966410159673,"23":0.061544287544761885,"24":-0.06627702572499951}},{"sx":5,"sy":5,"depth":1,"w":{"0":-0.2297731223043502,"1":-0.8060415669191419,"2":-0.4877476639349496,"3":-0.4082054072725782,"4":-0.0650523098844889,"5":-0.3070424285178882,"6":-0.3630415607562525,"7":0.08468500157554698,"8":-0.27254176007423536,"9":0.22801474320129184,"10":-0.2083126163445374,"11":-0.31118608720198687,"12":-0.5204377375082727,"13":0.07709038731394399,"14":-0.03944526642726071,"15":-0.0669997921656793,"16":0.4231236538930734,"17":-0.1810337977940112,"18":0.35979713402700686,"19":0.4399187795096952,"20":-0.06375977488782388,"21":0.2773244563998938,"22":0.6137138507848557,"23":0.3306622966452998,"24":0.30345421460406585}},{"sx":5,"sy":5,"depth":1,"w":{"0":-0.25620695715922964,"1":-0.014715795200375166,"2":0.27730745889361225,"3":0.22948468050935894,"4":0.012667266250661068,"5":-0.3530792880642952,"6":0.0021747960705590257,"7":-0.4962435051533971,"8":-0.14565017837187563,"9":-0.3140448485529727,"10":-0.2886106018341456,"11":-0.5783118301129712,"12":-0.11104777491487444,"13":-0.30897194392124017,"14":-0.15199030170617858,"15":-0.39168587290438955,"16":-0.25534418728972746,"17":-0.10370539187279026,"18":-0.4068646145456425,"19":-0.14799769320447068,"20":-0.1294404504945037,"21":-0.12241706263611965,"22":0.25114358772999956,"23":0.2083831745793238,"24":0.5370482162389267}},{"sx":5,"sy":5,"depth":1,"w":{"0":0.09580393954230577,"1":0.3475689166227712,"2":0.37428937869096873,"3":0.3961989973904114,"4":0.182615715371939,"5":-0.16223761057299912,"6":0.13567753954668343,"7":0.6608703333310919,"8":0.4590529750507649,"9":0.13454037953565295,"10":-0.19583704317097372,"11":-0.07897836788582134,"12":0.35788955191864363,"13":0.05406927115420749,"14":-0.08988415226911674,"15":-0.3999630529510542,"16":0.21371742350388565,"17":-0.06227598977773582,"18":0.009046106790640508,"19":0.0032018783203086715,"20":-0.21679485674318655,"21":-0.02022242699479398,"22":0.1024094783593954,"23":-0.12617574073611487,"24":-0.0985882095536952}},{"sx":5,"sy":5,"depth":1,"w":{"0":-0.22630607085408674,"1":-0.4621473922207225,"2":-0.25932685659151883,"3":-0.14881610604508747,"4":0.027232535063587183,"5":0.01855400710304354,"6":0.4022509379226458,"7":0.384483453758961,"8":0.19144181611322122,"9":0.025860866936678533,"10":0.3205828968877094,"11":0.6728279480729333,"12":0.6540796706835671,"13":0.20425616862611476,"14":0.45994040536291403,"15":-0.08727689965552385,"16":-0.02332177210932803,"17":0.09306510088506541,"18":-0.2967946156469664,"19":-0.2714419149546699,"20":-0.030768424502879383,"21":-0.0605540256461594,"22":-0.6934977984348574,"23":-0.4214991682457729,"24":-0.41104498810769086}},{"sx":5,"sy":5,"depth":1,"w":{"0":-0.2622486577067417,"1":0.16071463582501955,"2":-0.036629290085769754,"3":-0.08783500197181704,"4":0.01838059871042002,"5":0.35940417257324164,"6":-0.09378172740423962,"7":0.04994200417958701,"8":0.09367299806035471,"9":0.09655696981909855,"10":-0.2522390483187198,"11":-0.01574610243202255,"12":-0.1130364254524847,"13":0.04496666069066537,"14":0.3912772947736202,"15":0.2093435648649487,"16":0.38260525484082036,"17":0.027357655869152193,"18":0.22712633090451434,"19":-0.13941975828224953,"20":-0.46471232636133214,"21":-0.3315942338879919,"22":-0.3323299123076141,"23":-0.534458113473616,"24":-0.14337002411840716}},{"sx":5,"sy":5,"depth":1,"w":{"0":0.2847445788882998,"1":-0.030003303905399747,"2":0.08281725778543866,"3":0.05157381073354246,"4":-0.08453036485568645,"5":-0.16380566225479481,"6":-0.010804022191059305,"7":-0.045586034355184234,"8":-0.028180239653161188,"9":-0.10558113065914679,"10":-0.10731508389508398,"11":0.5302492787123814,"12":0.2676330318878313,"13":0.40709552196034215,"14":-0.4694860865990537,"15":0.16990323226532536,"16":-0.0568987533027724,"17":0.05970736933263969,"18":0.3763079331956444,"19":-0.06588834172051605,"20":-0.12299078642389871,"21":-0.03057556919828528,"22":0.07129037857620608,"23":-0.17172742432226695,"24":-0.0068448557884401295}},{"sx":5,"sy":5,"depth":1,"w":{"0":-0.20545787549262934,"1":0.2814351705810078,"2":0.1977594155950481,"3":-0.3102970432046248,"4":-0.2644646494635969,"5":-0.02178628477393197,"6":0.08118495518336977,"7":0.2693512282104097,"8":-0.3822072195867616,"9":-0.24678526034121115,"10":0.4741086698203002,"11":0.47459248924636055,"12":0.3111848435189647,"13":-0.15287549258554986,"14":-0.1540494288022972,"15":0.009723137811066252,"16":0.192596111724104,"17":-0.012225857277509654,"18":0.1370381495598606,"19":0.1608165562620696,"20":0.15082444774900236,"21":0.00559836625587788,"22":0.453192701026006,"23":0.12657559986437647,"24":0.07179986862571099}}],"biases":{"sx":1,"sy":1,"depth":8,"w":{"0":0.06035261438359297,"1":0.0023698237248445868,"2":0.13187664336357754,"3":-0.016060061148858978,"4":0.007911835219383743,"5":0.06445010125419111,"6":-0.06876561291763376,"7":-0.11343055235019998}}},{"out_depth":8,"out_sx":28,"out_sy":28,"layer_type":"relu"},{"sx":2,"sy":2,"stride":2,"in_depth":8,"out_depth":8,"out_sx":14,"out_sy":14,"layer_type":"pool","pad":0},{"sx":5,"sy":5,"stride":1,"in_depth":8,"out_depth":16,"out_sx":14,"out_sy":14,"layer_type":"conv","l1_decay_mul":0,"l2_decay_mul":1,"pad":2,"filters":[{"sx":5,"sy":5,"depth":8,"w":{"0":0.14351891721027787,"1":0.08051147095939698,"2":-0.011238279428049436,"3":-0.0208873157467454,"4":0.08867151287934755,"5":0.03796766364620269,"6":0.06844861932551606,"7":0.08490346549407649,"8":0.097508807640765,"9":0.022702291486683648,"10":-0.0000459302672620897,"11":-0.030281883847700045,"12":-0.037929315674594816,"13":-0.030574137315269343,"14":0.06414108547771828,"15":-0.012473441069713608,"16":0.122587972736441,"17":0.13590132376887595,"18":-0.109134620291353,"19":-0.04098337754484497,"20":0.034825744681729935,"21":0.08760869506428931,"22":0.06787664597835986,"23":-0.0528965505834446,"24":-0.18168495499703388,"25":0.01587843048849452,"26":-0.02509294665731919,"27":0.05494441899235779,"28":0.12828275773202918,"29":0.15339968639822163,"30":0.04970169182177549,"31":-0.03565524738947028,"32":-0.059141115807453105,"33":0.08435610277451955,"34":-0.06991724706009583,"35":0.11458024603589377,"36":0.11699931866598846,"37":0.1468818061105473,"38":-0.018064210364223714,"39":0.052456470799329594,"40":-0.02510335652462222,"41":-0.05209915476077273,"42":-0.014965844392846579,"43":-0.0031349072519519304,"44":0.03574580444029639,"45":0.050531242068882015,"46":-0.04927178394958863,"47":0.027863801239084763,"48":-0.06580350628223565,"49":-0.028753142099560865,"50":0.022933795857529898,"51":-0.024061312968865857,"52":0.08360530971114744,"53":-0.028829871382882056,"54":-0.014273884940269824,"55":0.0705029245897314,"56":-0.08687306579710215,"57":-0.10310120594622572,"58":0.1536642958015429,"59":0.022647042188755375,"60":0.07702099540617864,"61":0.05130604378513726,"62":0.07592936279158542,"63":-0.01709800689966856,"64":-0.14873751279829583,"65":-0.07935079593715617,"66":0.04187663096110653,"67":0.15903593784712547,"68":0.23419549261519415,"69":0.031704891392363155,"70":0.060625543792739864,"71":-0.07121351087642774,"72":-0.1709476514350281,"73":0.010886524044136064,"74":-0.09553584667666021,"75":-0.11729883813227417,"76":0.045759647445654514,"77":0.00562320480237294,"78":-0.07841681460763099,"79":0.08254677473175413,"80":-0.0032789290106796914,"81":0.010869155308388926,"82":0.03228584640095994,"83":-0.011533049726488243,"84":-0.005098523320278006,"85":-0.08785783194069859,"86":-0.24226865794872796,"87":-0.0914544401565815,"88":0.042449729709873575,"89":0.011915187238302906,"90":0.13727842468732707,"91":-0.03678090765991351,"92":-0.040804635353553054,"93":-0.11157763808844597,"94":-0.0942940146954657,"95":-0.09457295168919848,"96":0.008241841269004346,"97":-0.1533897674986424,"98":-0.08448711767326582,"99":-0.02611224728172459,"100":-0.22102529688287517,"101":-0.13027840674161012,"102":-0.107244343219092,"103":-0.1328801586427827,"104":-0.024665497646655803,"105":-0.02503590680245926,"106":-0.0052938013590406825,"107":0.02833844110313774,"108":-0.15463263703058283,"109":-0.05560728291855851,"110":-0.1930309654051678,"111":-0.22890443016081694,"112":-0.07585209913490928,"113":-0.021251147761226583,"114":-0.09401852729960586,"115":-0.1791531618363184,"116":0.01482443878567112,"117":-0.07775659909142653,"118":-0.15680324319680286,"119":-0.10270346045798388,"120":-0.018420287118469835,"121":0.07873179479620734,"122":0.12535013678374057,"123":-0.16317034824203547,"124":-0.2222024691535615,"125":-0.09913423749850353,"126":-0.0088125159041956,"127":-0.018101082038984986,"128":-0.12899338622233472,"129":0.14882541748798633,"130":0.04448775157359537,"131":-0.12043055269891764,"132":-0.23450051073466088,"133":-0.07660792799767163,"134":-0.09021279401841902,"135":0.005106576330899014,"136":0.03698570803355965,"137":0.1379777395205411,"138":0.07118096972348666,"139":-0.22535368953193236,"140":-0.21132244317517085,"141":0.008949622780031741,"142":0.005229570790895369,"143":0.05526506286461579,"144":-0.09004140318375717,"145":0.06916530776617305,"146":-0.006279840662500753,"147":-0.06145532178266395,"148":-0.21955400050280938,"149":0.07393328942174003,"150":-0.10408600502804227,"151":-0.03190079684704172,"152":0.009393652498641035,"153":0.003583171482378766,"154":0.0185305646707816,"155":-0.12753801647698396,"156":-0.22089522464535538,"157":-0.18350067195985664,"158":-0.13354292254893063,"159":-0.09188136502795358,"160":0.10779045755524844,"161":0.2237820205407951,"162":-0.16858103875490185,"163":-0.050760709075609034,"164":0.13487202608787208,"165":0.0018862681228435875,"166":0.11361347172124264,"167":-0.014060988245191208,"168":-0.054781840544837264,"169":0.18424579772330732,"170":0.02922999943905126,"171":-0.14592100558891194,"172":0.2045408043039839,"173":0.1951550983305369,"174":-0.057867987014193226,"175":0.07856471163956116,"176":0.049961273808234855,"177":0.0288476752332452,"178":-0.16715680758131687,"179":-0.039148718295213325,"180":0.09401866287233347,"181":0.23092522021193262,"182":0.02670405446819642,"183":0.10926474215923217,"184":0.07083146733361366,"185":0.024251910853127407,"186":-0.2645409277602485,"187":-0.15685596145998543,"188":0.06640723028170181,"189":-0.0538524984853913,"190":0.12232279241774112,"191":0.023664512734817934,"192":0.07506425955285095,"193":0.07287774902467596,"194":-0.06518800653211088,"195":-0.054412664726531765,"196":-0.08159847962403786,"197":0.034174242154669986,"198":0.0021822255638149846,"199":-0.1040726694466173}},{"sx":5,"sy":5,"depth":8,"w":{"0":-0.03580647185751884,"1":-0.127349105004097,"2":-0.282493511130145,"3":-0.12952334042001853,"4":0.17340094227924457,"5":-0.03897455208500939,"6":0.26231192373656165,"7":0.17525583770434866,"8":0.1354905118838616,"9":-0.08519180252455807,"10":-0.20283167995970214,"11":-0.3413413163593835,"12":-0.014628895010084308,"13":-0.1572116917996228,"14":0.002130224375133973,"15":0.15106747779512975,"16":0.15665169439547974,"17":-0.039704012420624546,"18":-0.19089144884415743,"19":-0.18544027387972,"20":0.03290725167451579,"21":-0.18097706037892033,"22":-0.15544439436658564,"23":-0.12337093475757513,"24":-0.02129704429563466,"25":-0.06992574161490697,"26":-0.08651560016841367,"27":-0.012801010727298605,"28":-0.09081665220677715,"29":-0.1508511865054466,"30":-0.08157778597833854,"31":-0.05488094260356663,"32":-0.07884822457785297,"33":-0.09956847242015904,"34":-0.1381205484931694,"35":0.05485308301617102,"36":-0.011047102587214658,"37":-0.16414956991865176,"38":-0.013922432466278716,"39":-0.1142754278660153,"40":-0.01005642784549682,"41":-0.282196502155405,"42":0.03868490509410828,"43":0.12977085402358107,"44":-0.06309509597312835,"45":-0.079176429643907,"46":0.11844204721019405,"47":-0.05231291000957719,"48":0.14404618124064514,"49":-0.14921471049605486,"50":-0.332634628368518,"51":0.061025656163923185,"52":-0.06963409026399842,"53":-0.25932858298441713,"54":0.19723405071528996,"55":0.05622353146034576,"56":0.09732521528968911,"57":-0.24190455528730473,"58":-0.13823301393666482,"59":-0.0277006404924684,"60":0.13579611474976752,"61":-0.20848985774497447,"62":-0.011391344384273283,"63":0.12133686946345107,"64":-0.0336051333350212,"65":-0.1604061259337867,"66":0.01068288135892584,"67":0.039263621047276556,"68":-0.09830134726609167,"69":-0.14897061787588012,"70":-0.14623398246343872,"71":-0.007344946764817628,"72":-0.09511574402246134,"73":-0.13785309042066826,"74":0.014233547010469921,"75":0.0002907226488518946,"76":-0.06228766531557976,"77":0.03482598580923649,"78":-0.10211562412890336,"79":-0.1844026127606359,"80":-0.008399851452606834,"81":0.15194669264490462,"82":-0.07537194111239111,"83":0.03886876397357847,"84":-0.17097376929814992,"85":0.011459926337970439,"86":-0.036272489661477274,"87":-0.08831025014601192,"88":-0.089902312223124,"89":-0.05603329845872231,"90":-0.07442848649009456,"91":0.18430726993137816,"92":0.09434232063395774,"93":-0.28217597857818466,"94":0.3425308530764578,"95":0.13453833534538648,"96":-0.11201971538562336,"97":-0.22968428910304756,"98":-0.07623889089013067,"99":0.07609761449846615,"100":0.07712704887141214,"101":-0.17332481603425381,"102":0.20306456850959628,"103":0.19040484988126236,"104":-0.10071198981639905,"105":-0.09605215984407818,"106":0.021231622703630562,"107":-0.020095293692297605,"108":-0.17042508037404053,"109":-0.015754099928779335,"110":-0.07577160035404014,"111":-0.0585491648449471,"112":-0.2049673226553523,"113":0.05441105711377051,"114":0.10583454318818004,"115":-0.12444322876133376,"116":-0.10158293381049611,"117":-0.2157034610962923,"118":0.009760129986657935,"119":-0.15498501626496497,"120":0.028303574700185512,"121":0.2109536248415228,"122":0.027195052174682797,"123":0.10357248863388811,"124":0.148407324303029,"125":0.08604907002104896,"126":0.1393846338710331,"127":-0.06493816033586132,"128":-0.25012623619518065,"129":-0.2935216682071892,"130":-0.10183610188504384,"131":0.3050021950173418,"132":0.17432192648678543,"133":0.20932122234060677,"134":0.17920579194555009,"135":0.1279677127758565,"136":-0.2333075952751626,"137":-0.2613400480238971,"138":-0.11068041880635097,"139":0.02253998196702491,"140":-0.023305848061962404,"141":-0.08620352141383254,"142":0.09387091179889123,"143":0.2215500831860194,"144":-0.18230249936479992,"145":-0.0931035851554501,"146":-0.18897373700053188,"147":-0.2245145842951921,"148":-0.09471004175707744,"149":0.048657266429602275,"150":-0.034941998747766795,"151":-0.12045284685083305,"152":-0.007633650948891539,"153":-0.008243322650186749,"154":0.00998247184298074,"155":-0.15253264888710122,"156":-0.12920032340615736,"157":-0.07092826854041552,"158":-0.14966372839506484,"159":-0.14939885096390484,"160":-0.11783471562140477,"161":-0.08390517037274814,"162":-0.13951219546144195,"163":0.23017473315429657,"164":0.2252029396858182,"165":0.03087574532570271,"166":0.026037580629734193,"167":-0.0341427968257566,"168":-0.2997814983135337,"169":-0.14162964161179628,"170":-0.22675881130831127,"171":0.04191948232977623,"172":0.13294025812921265,"173":-0.036296814700400915,"174":-0.23304074537580355,"175":0.004388993689236113,"176":-0.2745142847174566,"177":-0.14736960126667994,"178":0.03241681630187244,"179":-0.3597942125892321,"180":-0.3908882746729377,"181":0.1390059797204569,"182":-0.07457245318889433,"183":-0.21483296407991154,"184":-0.19293112114103547,"185":0.037720447106265466,"186":0.14768686572803488,"187":-0.2043512949137292,"188":-0.18466431372425582,"189":-0.038862113468543596,"190":-0.17859798759781895,"191":-0.2876866229910788,"192":-0.005013104338938372,"193":-0.02357486783477908,"194":0.0531347677740426,"195":-0.14323098517402225,"196":-0.05379128032339442,"197":-0.039714682713025994,"198":-0.08689255472750808,"199":-0.0980940764960223}},{"sx":5,"sy":5,"depth":8,"w":{"0":-0.04755625002743105,"1":0.017465945591537954,"2":0.06975519099861069,"3":-0.12865065044217514,"4":-0.0032593848617315695,"5":0.03814176409303298,"6":0.05556540201524598,"7":0.052523951666369494,"8":-0.13721130221388214,"9":-0.20203582020230998,"10":-0.051861345577374034,"11":-0.10230642308202784,"12":0.07750009797579058,"13":0.0642841990270791,"14":-0.11881895367972994,"15":-0.05162377279305777,"16":0.00011258666428653815,"17":0.0037397717135092836,"18":0.023001349283320507,"19":-0.007844108043709181,"20":-0.04855502510268419,"21":0.07917836794589361,"22":-0.040611625537281704,"23":-0.13557970543960896,"24":-0.0806977930409848,"25":-0.07124830399040603,"26":-0.013050711372444622,"27":-0.013168987202153312,"28":0.1278098712333344,"29":0.07866476267612303,"30":-0.015510208613957037,"31":0.002227753862702486,"32":-0.10662740212932424,"33":-0.0014400057456193974,"34":-0.030099360153332366,"35":0.23864058441071392,"36":0.12495209760005843,"37":0.06946647807916771,"38":0.04494939902200795,"39":-0.06673571611671655,"40":0.021059471211834026,"41":-0.047754370487950414,"42":-0.07820185493974556,"43":-0.08853331985666144,"44":0.12122209499508274,"45":0.07122883394944152,"46":-0.005894665504927071,"47":0.02294639575879236,"48":-0.030380090770466425,"49":-0.02259913690300537,"50":0.07741353601155758,"51":-0.0998896478730589,"52":-0.06386810327491453,"53":0.0038247695685283732,"54":-0.0644150753562925,"55":-0.14229870411057077,"56":0.0931733596851225,"57":0.07644218208079258,"58":0.2702168287152552,"59":-0.018413829722721032,"60":-0.18649311471883384,"61":-0.09831400868810329,"62":0.0029714301129694083,"63":0.053416663668187925,"64":0.18371935444539886,"65":-0.0013871949656879801,"66":0.08333374283388653,"67":-0.030756054405966463,"68":-0.03685318752278615,"69":0.07988642257989581,"70":0.03431289921113095,"71":0.08032928667190956,"72":-0.028952188751914486,"73":-0.022200452881709406,"74":0.04753072109692963,"75":-0.011330601627630558,"76":0.09666874557895198,"77":-0.13690068899627794,"78":-0.010685825189825039,"79":0.0956977268945327,"80":0.039708392592529056,"81":-0.17849811725396575,"82":0.0338351808106344,"83":-0.037125650876915946,"84":-0.001733540805537361,"85":-0.014223464583557673,"86":-0.05810212921162587,"87":-0.05708145564424746,"88":0.00012601468998664082,"89":0.17616335145839038,"90":0.10105557746158614,"91":-0.22173077794687582,"92":-0.06779988395968299,"93":-0.13017684584005051,"94":-0.19908090624900288,"95":-0.05735889772922492,"96":0.11467121457033928,"97":0.0618779872283066,"98":0.00009624684567256522,"99":0.07478250129047743,"100":0.043606093914836656,"101":-0.05424417945712963,"102":0.1500916517763939,"103":-0.10674535203997296,"104":0.011350316891614295,"105":0.03072897597180087,"106":-0.08886421549447979,"107":-0.08481116605764318,"108":0.17411648906308572,"109":-0.16090799217225513,"110":-0.05535904921022698,"111":0.04054519952384479,"112":-0.07358619194616381,"113":-0.13246282647086438,"114":-0.0908734396418963,"115":-0.18681038243846917,"116":-0.05923850542369701,"117":0.0016982834017718832,"118":-0.1338284336167432,"119":-0.12284729057407585,"120":-0.04206651720501185,"121":-0.030569851091312345,"122":0.045299792668415655,"123":-0.1325357802979454,"124":-0.2163686396329388,"125":-0.12229010405840096,"126":0.09581848578576012,"127":-0.0667756119033869,"128":-0.008263497299210127,"129":0.20456939216637104,"130":0.14616558542213268,"131":-0.014905630276010672,"132":-0.09903956329422121,"133":-0.16570307682033553,"134":0.06739888618790177,"135":-0.17603100802140284,"136":-0.09685090832443041,"137":-0.10069997072016328,"138":0.0426850201112389,"139":0.14674229471629358,"140":0.12148171812939826,"141":-0.1595656937375872,"142":0.06437491269395207,"143":0.15997865264346126,"144":-0.09440499134038467,"145":-0.2653083784584949,"146":-0.06782629027502153,"147":-0.07371452664742371,"148":0.22622065936105415,"149":-0.03520853130292474,"150":-0.06086074901861596,"151":-0.07352810361252735,"152":0.01491379452640985,"153":-0.18900768118772873,"154":-0.07728307026760173,"155":-0.1009987184738806,"156":-0.21721320005449934,"157":-0.04888601628270662,"158":-0.09521947719328064,"159":-0.10814212217550852,"160":0.02745697962054243,"161":0.11969263602891689,"162":0.08057439402158705,"163":-0.1943631013381987,"164":-0.11181226096724516,"165":-0.2268821893711635,"166":-0.12970017482795673,"167":0.00693445802533587,"168":-0.060849069947600344,"169":0.20948072326012607,"170":0.02564549472674332,"171":0.09715900706609572,"172":0.031567054401450495,"173":0.032951299127984335,"174":0.01993396257290677,"175":0.06023386001556644,"176":-0.20406517932146154,"177":-0.2213301898609393,"178":-0.0008549873255088622,"179":0.15683933011736467,"180":0.19543743493511148,"181":-0.2488157500843701,"182":-0.05119604240640027,"183":0.0693662163851869,"184":-0.041819730308754605,"185":-0.02635423236903443,"186":0.006637754340523414,"187":-0.2103739015723419,"188":-0.05541012276716115,"189":0.005063318661736285,"190":-0.1519380652768555,"191":0.025005900583196475,"192":0.02475193935792097,"193":-0.11559167894682593,"194":-0.01768993746831638,"195":-0.29736257817658085,"196":-0.16657632628441574,"197":-0.02476734190493366,"198":-0.23475929800764456,"199":-0.14835925973538994}},{"sx":5,"sy":5,"depth":8,"w":{"0":-0.0383445061301458,"1":-0.03136187701173423,"2":0.12980228198888827,"3":-0.1727831024420155,"4":-0.1452808825622004,"5":-0.011035647883806335,"6":-0.12403405506458783,"7":-0.22910570399221117,"8":-0.05021856994860946,"9":0.35437666399390483,"10":-0.009319793061955578,"11":-0.11294162693390751,"12":-0.27369858405802927,"13":-0.13430330463050005,"14":-0.08160408834007464,"15":-0.16419598524852264,"16":0.08035414721181187,"17":0.10601142710776436,"18":0.07576776801004553,"19":0.11136547782296902,"20":-0.06532237830828491,"21":-0.07343339527277956,"22":-0.0721456013624085,"23":-0.03465403656851706,"24":-0.12850930953326256,"25":0.0348621969735428,"26":0.01471867972221832,"27":0.03173421909597138,"28":-0.04751065869834124,"29":-0.11649499437321992,"30":0.035865228777802495,"31":0.08377758356178082,"32":0.010240804541009453,"33":-0.10235631329917987,"34":-0.029054924145357167,"35":-0.009434819844157389,"36":0.03331062776918056,"37":0.011088910206328384,"38":-0.004304317666905514,"39":0.06823256253374466,"40":-0.014210502583146243,"41":0.16499751082495492,"42":0.07640233428647748,"43":-0.2086721545095798,"44":-0.3669594053163073,"45":0.07291616850167414,"46":-0.22276060890661006,"47":-0.05940803287647455,"48":-0.021093200739386,"49":0.23668978018269918,"50":-0.018148096512218416,"51":-0.009015212634570733,"52":-0.2612644188085774,"53":-0.10764625212293695,"54":-0.06771581293567083,"55":-0.04776498139888352,"56":-0.12435834522317364,"57":0.24443362059265158,"58":0.03242597113327479,"59":0.06989493819860594,"60":-0.01662452424265238,"61":0.03029743740015065,"62":0.13847827306690866,"63":-0.002687382374088545,"64":-0.0913709512767636,"65":-0.07978115725970446,"66":-0.09735124438837432,"67":0.04017458794218971,"68":0.019975214889276022,"69":-0.04298350422744613,"70":0.07271854699124554,"71":-0.01642229493427632,"72":0.09123348131898168,"73":-0.0051439448136237145,"74":-0.022212505734195958,"75":0.023230802638427073,"76":-0.10482938294086946,"77":-0.09957317777823702,"78":0.10431176944649068,"79":-0.04565916623819729,"80":0.04165780495401296,"81":0.06379306427525115,"82":0.021948225432603427,"83":-0.13340211836728008,"84":-0.09641888702311849,"85":0.0217402672551316,"86":-0.1334902542021896,"87":-0.02803158196919615,"88":-0.021501510097250685,"89":0.06368496766781054,"90":0.0186382754310294,"91":0.2592972802285568,"92":0.08706253487327786,"93":-0.025468482266680154,"94":0.12479288176270974,"95":-0.009793318271706208,"96":-0.17954596642237663,"97":0.004229982977919905,"98":0.015070691456471497,"99":0.08268210839864275,"100":0.14321813907614322,"101":-0.009618027953593152,"102":0.10561708011513427,"103":-0.10937686138337482,"104":-0.2080341177538559,"105":-0.17354611769018957,"106":-0.054586352738978244,"107":-0.05563340995049208,"108":0.08439031623608043,"109":-0.07541641927099856,"110":0.013283621210926275,"111":0.08413215440868703,"112":-0.21159071873468815,"113":-0.0913291247834631,"114":-0.052283419160273424,"115":-0.1226516871624973,"116":-0.15036848894655358,"117":0.11431613015008486,"118":-0.1529388662002902,"119":-0.23701329913113356,"120":-0.1432336127704463,"121":0.1820120414828528,"122":0.022211800959828866,"123":0.08437515416899298,"124":-0.06371587757842512,"125":0.16155130439108248,"126":0.030625230704662484,"127":-0.12477983223685085,"128":-0.09751079860557638,"129":-0.03733651746223117,"130":-0.04359466678715084,"131":0.13803008506667294,"132":0.05559138009289576,"133":-0.04510998357501722,"134":0.09405919686377595,"135":0.03642750646393747,"136":-0.1218497701343147,"137":-0.14178700268578132,"138":-0.024843856460607775,"139":0.1615397256053844,"140":0.058484763464650265,"141":0.16201259527942163,"142":-0.021067675277887072,"143":0.11795663530064134,"144":-0.17514455796486408,"145":-0.03403358619889477,"146":-0.0007571887407037049,"147":-0.21000333150849265,"148":-0.23146286528506635,"149":-0.03387353874673556,"150":-0.0894207620676082,"151":0.02287771628094879,"152":-0.1520424968835439,"153":0.03861498982460651,"154":0.0634913903856062,"155":-0.1306286500954745,"156":-0.2889682330984179,"157":0.08296841065197944,"158":-0.30893122197178646,"159":-0.20606404025426756,"160":-0.03256209777390136,"161":0.02724343059442806,"162":-0.058102366272954176,"163":0.011514074808589955,"164":-0.08017209663963468,"165":0.043341820876236184,"166":0.09860361500246215,"167":-0.08594358775853073,"168":-0.09457029727573295,"169":0.009982428669548711,"170":-0.10505562740321349,"171":0.019443008332274754,"172":0.058721327598586184,"173":-0.03652211716952519,"174":-0.018636957534261922,"175":0.04473508717790286,"176":-0.04384190852678889,"177":-0.20969103204693568,"178":-0.03386322206249431,"179":-0.14606141326076996,"180":-0.17214317393330347,"181":0.007842391869023198,"182":-0.09465413944575601,"183":-0.042491628883879085,"184":0.05434867003197408,"185":-0.04500539261819176,"186":0.05008090673555953,"187":-0.20273718142569494,"188":-0.06603332007603238,"189":-0.06408904061753527,"190":-0.22196507518525985,"191":-0.200287311533802,"192":-0.0843266719847804,"193":0.0010224934643325518,"194":-0.01908861042960031,"195":-0.29793951473636227,"196":-0.32553609621581564,"197":-0.005841478608513673,"198":-0.30855589383772075,"199":-0.30716821039451747}},{"sx":5,"sy":5,"depth":8,"w":{"0":0.02676453501461503,"1":-0.06593030033548725,"2":0.15628620893634082,"3":0.03539637104213098,"4":-0.03053514957606633,"5":0.015671428257401195,"6":-0.025472194731334125,"7":-0.019544225837368978,"8":0.09846503621785031,"9":-0.15392573694292658,"10":0.09347426662976886,"11":0.17046974301035508,"12":-0.1098201448241908,"13":0.046252968460941714,"14":-0.0017247658858769363,"15":-0.1563179298628779,"16":-0.09285664686575423,"17":-0.13926178435635408,"18":0.007977543150462212,"19":0.22985684972831544,"20":-0.057121596805798765,"21":-0.04700405423223755,"22":0.055752162685322806,"23":-0.0763656807603368,"24":-0.056851084295526495,"25":-0.2512486296244731,"26":-0.12489611354976846,"27":0.16182225672737335,"28":-0.04239718275900678,"29":0.02333339313627994,"30":0.08245109365889422,"31":0.08065058276276339,"32":0.0028312084719007,"33":0.024214247352893327,"34":0.07339916085476915,"35":0.21237282428233026,"36":-0.08467531633386571,"37":0.12964011483517154,"38":0.12924782146738195,"39":0.22570957919137796,"40":-0.05359806925137293,"41":-0.20532641212641045,"42":-0.010292452147908986,"43":-0.19406285826361042,"44":0.027165890931041013,"45":-0.09314489733384451,"46":0.0006564379161368273,"47":0.09958502728630647,"48":-0.044945266321646964,"49":0.19188913759231555,"50":-0.040311946302263084,"51":-0.2867037214249368,"52":-0.25750925653389306,"53":-0.11014213540256407,"54":-0.20541074400971515,"55":-0.045440778912880696,"56":0.054703713107794,"57":-0.05277891822996134,"58":-0.10525320006453352,"59":-0.21917356148541992,"60":-0.019096216985731673,"61":-0.027874780954211895,"62":0.05043434802726267,"63":-0.15433917187638982,"64":0.12543921116322615,"65":-0.08282025866035682,"66":-0.03898555687148593,"67":0.033889050960037456,"68":-0.01911616315452476,"69":-0.028343346986139942,"70":-0.0010200508519437883,"71":-0.13847437382400965,"72":-0.0777930997002978,"73":-0.13179012410501786,"74":-0.12377691702527163,"75":0.17426486327096674,"76":0.008127097059595956,"77":0.12382314043564678,"78":-0.13400337131564843,"79":0.06520925609652739,"80":-0.12255007925415314,"81":0.019551962118449333,"82":0.08851150038138249,"83":-0.25578306329103495,"84":-0.15301786967913888,"85":-0.16096234406272164,"86":-0.12311150022210209,"87":-0.011370610569211934,"88":-0.014876218689925703,"89":0.08655367413758285,"90":-0.05296319844138486,"91":-0.08126021472418521,"92":-0.15974696882090378,"93":-0.13277213441777697,"94":-0.10746860504275503,"95":-0.10901036445068069,"96":-0.13460053650076417,"97":0.09537583485094207,"98":0.036689005133018426,"99":-0.050013542198022926,"100":0.05574198962927428,"101":-0.09099886701799795,"102":-0.013838120553577676,"103":-0.054666777841371035,"104":-0.09968395102710474,"105":-0.06493720113381075,"106":-0.08253285070553386,"107":0.0010013468031582176,"108":0.13567098070400252,"109":-0.11403061565624406,"110":-0.0516481814416526,"111":-0.04238030505738469,"112":0.12964848182771735,"113":-0.049545711347600004,"114":-0.03790909002096704,"115":-0.05432754830839186,"116":-0.021926884681125417,"117":-0.06983217954804645,"118":-0.11472106059435284,"119":-0.1910358032458245,"120":-0.1076182910019595,"121":0.16730155577422723,"122":0.07406514723743783,"123":-0.1742600435208009,"124":-0.08503406609202716,"125":-0.13586669283082914,"126":-0.18087609017715278,"127":0.01366282103946991,"128":0.012616055742600803,"129":0.265743357243057,"130":-0.01808819383724447,"131":0.07865594670444455,"132":0.019449408319263648,"133":-0.1276254328569554,"134":0.042958657681924736,"135":-0.032481531352743176,"136":-0.09169756463531091,"137":0.17051923208338318,"138":-0.002189424414686481,"139":-0.12874025301389838,"140":0.020935843691235263,"141":-0.06724721452457039,"142":-0.03866650398218911,"143":0.12757343947815106,"144":0.03731386618589567,"145":0.0473994855348053,"146":-0.11397646314681494,"147":-0.2182554104827605,"148":-0.10309032534912686,"149":0.026612859971051957,"150":-0.0883842538115846,"151":-0.009305186956806764,"152":-0.013363753848812873,"153":0.06394106680150821,"154":-0.07101932261501702,"155":-0.2723653570069985,"156":-0.18808394288035485,"157":-0.15391789385115717,"158":-0.09720883138369399,"159":-0.12416823389730157,"160":0.12193953685322956,"161":0.13346058981656328,"162":-0.0726981130343704,"163":-0.018323928248602427,"164":0.07671829583180986,"165":-0.05689053716711411,"166":0.08609696367969216,"167":0.08483962601633137,"168":-0.056064789333591394,"169":-0.01535210240072943,"170":-0.1684299820548244,"171":0.013643693630600478,"172":0.1683078879309746,"173":0.14602061791397875,"174":0.14142725335014197,"175":0.030812934672972286,"176":-0.12013546862513362,"177":0.022318493473468606,"178":-0.050338294632019304,"179":-0.050128896911935596,"180":0.1818546002115043,"181":0.2226752742292249,"182":0.02360739887600694,"183":0.027541415397342266,"184":-0.07151031583374952,"185":0.09731075772564522,"186":-0.14545533521221965,"187":-0.05049160012821852,"188":0.0746308727321543,"189":0.044665872623186456,"190":0.18561386510316732,"191":0.12764816732150414,"192":0.11503293427721062,"193":0.1002583593542339,"194":0.07253123517950857,"195":-0.15779201164789053,"196":0.06564407661274604,"197":-0.02415480466186823,"198":0.17918793739624542,"199":0.12587174503083884}},{"sx":5,"sy":5,"depth":8,"w":{"0":0.013804829317886734,"1":0.0416388111630143,"2":-0.16575548036062893,"3":0.02466069694076241,"4":-0.15514713528550164,"5":-0.12267637800909123,"6":0.03679190868202954,"7":0.07712512325836147,"8":-0.021617523900550103,"9":-0.11481585414350072,"10":-0.16038502295862325,"11":-0.006990985794383982,"12":-0.008079918059776614,"13":-0.09433967229358084,"14":-0.018200759139260114,"15":0.010674549463189636,"16":-0.077508079079828,"17":-0.08351873046221583,"18":0.1030352179434486,"19":-0.21961575829529487,"20":-0.01795343724332941,"21":0.08929445307162552,"22":-0.06995274751657891,"23":0.050199755372407465,"24":0.1210758892597041,"25":0.061115594545089934,"26":-0.013705796110177642,"27":-0.009604168844931876,"28":-0.05763084121964785,"29":0.11448298410692041,"30":-0.011168650261931968,"31":-0.02437261624199246,"32":-0.007532281401343014,"33":-0.012921464476812283,"34":0.011935810892763417,"35":-0.03580651231362705,"36":0.044621354947709545,"37":0.06514849407254786,"38":0.023333163181729327,"39":-0.0431354136295826,"40":-0.10672233480085346,"41":0.02165098873454695,"42":-0.1461902348287887,"43":0.047849157078869185,"44":-0.0437910982079687,"45":-0.040592948220167825,"46":0.10674037875039577,"47":0.09035454413039998,"48":-0.06600366832921614,"49":-0.1606661667754254,"50":-0.1542581900694028,"51":-0.08686894980732553,"52":0.20607700737073606,"53":-0.09363813092169392,"54":0.06205750229078452,"55":0.05266493891397203,"56":-0.02971921180852175,"57":0.010995456577413949,"58":0.022873928336824948,"59":-0.1688708072646252,"60":0.04101031834486336,"61":-0.15583664975695105,"62":-0.01126639992106812,"63":0.08432464023067604,"64":-0.09838612948255218,"65":-0.1441910994762041,"66":0.035319944126108546,"67":-0.10064489981844522,"68":0.11517477745700547,"69":0.05514610141518862,"70":-0.0007732830762055134,"71":0.020167336411983004,"72":0.06392156707098982,"73":0.08054133213039495,"74":-0.0926371949715866,"75":-0.008510588273857147,"76":0.02323946848578946,"77":-0.05386083615354761,"78":-0.015185804722379785,"79":0.0154125917272781,"80":-0.07701922196609375,"81":-0.033241914343454255,"82":-0.09355231899794735,"83":0.041662345612433975,"84":-0.0024127215728436974,"85":-0.24264195964869753,"86":0.21677223242033275,"87":0.05479473282058062,"88":0.008377329281116746,"89":-0.09461626810207335,"90":0.008178918995838455,"91":0.021909901175768867,"92":0.06820309809504504,"93":-0.19298466718613666,"94":0.10437472115278633,"95":0.1884312258490188,"96":0.03987639572724468,"97":-0.10263120417695087,"98":-0.14971788709919032,"99":-0.20936233575833163,"100":0.032501676720416664,"101":-0.0017925203196206608,"102":0.055273292493974335,"103":-0.07948327514408891,"104":0.05422919442116605,"105":-0.15432034127381844,"106":0.05537970083422749,"107":-0.13687196097312254,"108":-0.10306663142263567,"109":0.07921017387425344,"110":-0.1171618446770417,"111":0.027283083918299554,"112":0.09686709859346733,"113":0.1706991855846065,"114":-0.040485955445355014,"115":-0.018069623476060982,"116":-0.24329940222686347,"117":0.013206081591101319,"118":-0.10860498678713722,"119":-0.002463469626208405,"120":-0.08650034527256426,"121":-0.23382835544575312,"122":-0.06100890782751422,"123":0.1295695779021037,"124":-0.11223714933794329,"125":-0.17166960473106382,"126":0.12286629063627591,"127":0.08544784603279323,"128":-0.1945572797412289,"129":-0.13572348476905244,"130":-0.0700535759333377,"131":0.12325203146035271,"132":0.09687770816589159,"133":-0.20450998251876817,"134":0.037784432021052396,"135":0.19883790768768536,"136":-0.16696577295762105,"137":-0.13129935429139522,"138":0.14637017373929878,"139":-0.23514489069109115,"140":-0.014362625454105167,"141":-0.07758865622608521,"142":-0.01684283374779996,"143":-0.13361497035142794,"144":0.05313806606903581,"145":0.06593396216411956,"146":0.07860199362990683,"147":-0.08259232981376038,"148":-0.1260731203737472,"149":-0.08621976101026088,"150":-0.1831166849664522,"151":-0.04467255250800865,"152":0.023525520039629683,"153":0.06488258486331841,"154":-0.022960565431738533,"155":0.06286302129643792,"156":-0.0010410621744121062,"157":-0.04169522059503435,"158":0.05147210861038976,"159":-0.15627821273973352,"160":-0.07189655818445798,"161":-0.04977961494099638,"162":-0.1470341089248041,"163":0.24161650126784404,"164":0.08628035103397204,"165":-0.1406341046900183,"166":0.1427586099686281,"167":0.28313440927185046,"168":-0.17009992420441145,"169":-0.2652418464642973,"170":-0.10211042760681115,"171":-0.044387293926871546,"172":-0.09789356228822374,"173":-0.09401703978484871,"174":0.08986011998677652,"175":0.24751590851959782,"176":-0.30271565968544756,"177":-0.0509500451306186,"178":0.19760717275489392,"179":-0.2244887080518419,"180":-0.18375529735583052,"181":-0.13553571301569783,"182":-0.05164440979075525,"183":0.07462042542105475,"184":-0.07485992552501641,"185":0.14339776638931837,"186":-0.010492562992106451,"187":-0.014096176944777862,"188":-0.2070846881109461,"189":0.04010929332795515,"190":-0.07174482417027095,"191":-0.15428215289752875,"192":0.0005485403774282055,"193":0.04570262635171616,"194":-0.12841059628155355,"195":0.03925763942612093,"196":0.06971828396756825,"197":-0.1851415144947027,"198":0.09230380757919136,"199":0.026736698685970246}},{"sx":5,"sy":5,"depth":8,"w":{"0":0.12114645188059163,"1":-0.03563436158787717,"2":0.07856157271109344,"3":-0.026509788648805002,"4":-0.1664719158295983,"5":-0.16060937742908182,"6":0.07033138080377282,"7":-0.009537775808183564,"8":-0.04625326858540281,"9":-0.21567438404396685,"10":0.062402427436635065,"11":-0.04431515200996422,"12":-0.13788451582627254,"13":0.09394474617271999,"14":-0.09878660425337335,"15":-0.11454397869148547,"16":-0.09007691720956941,"17":0.015997764459140522,"18":0.03058176573043076,"19":-0.03781687123168412,"20":-0.1171188736315136,"21":0.15595103866129692,"22":-0.09735694960297564,"23":-0.2194859270663199,"24":-0.04803432107063343,"25":0.07583038464073925,"26":-0.021715002774305905,"27":-0.06528235891611298,"28":0.09418244412188874,"29":0.24339664809987804,"30":0.016225111687483435,"31":-0.013510385425880867,"32":-0.15993781055123185,"33":0.19087405072983718,"34":0.12934351421010826,"35":0.05744830676760602,"36":0.12305198317977714,"37":0.23589620702517425,"38":0.05688642571140718,"39":-0.016561865688686978,"40":0.16878304622121365,"41":0.03631522549768416,"42":0.14664862567045966,"43":-0.09917992631812635,"44":0.07935716459821736,"45":-0.04306944487272159,"46":-0.0003342102341240986,"47":0.042097505525013304,"48":-0.019940787917502787,"49":0.20668499468912874,"50":0.052274843367976706,"51":-0.22835369484724055,"52":-0.05624880106761106,"53":-0.14157821019875552,"54":-0.012543895920242448,"55":-0.02269141633476805,"56":0.1315000003724661,"57":-0.02522984076154489,"58":-0.05216072244198214,"59":-0.21744972245473093,"60":-0.14815268926356315,"61":-0.09128298139037405,"62":-0.22115852597753194,"63":-0.10005328632632382,"64":-0.0976270706458982,"65":-0.1507434206423457,"66":0.10349501724776734,"67":-0.04973626358449476,"68":-0.13037736257595137,"69":0.27555322407229704,"70":-0.288551851763604,"71":-0.21821848163965504,"72":-0.1235960901131199,"73":-0.10668890477612128,"74":-0.04384878497840349,"75":0.20061416321742376,"76":0.26071260748408226,"77":0.19694826561970705,"78":-0.043037376553700726,"79":-0.1299695643723327,"80":-0.14204943158211827,"81":-0.1492563756882175,"82":0.06616742050219662,"83":-0.017577544745043073,"84":0.14085131634735093,"85":-0.045450882562031544,"86":-0.0491146732081613,"87":0.1550423909567412,"88":-0.0021230734470137538,"89":0.018849993582529142,"90":0.07282127753379725,"91":-0.10438611569271018,"92":-0.05520640433654683,"93":-0.0507024556946254,"94":0.08390090317043805,"95":0.011771321834351424,"96":0.13684729453928196,"97":0.15986397509052316,"98":-0.19104873002437736,"99":-0.1593423593882083,"100":0.016259472888823318,"101":0.003347850852018254,"102":0.12437258791736451,"103":-0.019594021281849942,"104":0.13358144996215487,"105":0.05786329417137843,"106":0.12829862025874977,"107":-0.2488654361611303,"108":-0.15979337972002486,"109":-0.07687146005703903,"110":-0.03800342352907353,"111":-0.10758372077231318,"112":0.05179157742845717,"113":0.019819304457236127,"114":0.009461799382049932,"115":-0.016025666162939673,"116":-0.21257336835119076,"117":-0.2735084554723857,"118":-0.23529694875480303,"119":-0.011756083797145852,"120":-0.02253316136531566,"121":-0.04379310090778754,"122":-0.2519284894610209,"123":0.12904623050743225,"124":-0.16596421450438922,"125":-0.06652724226445496,"126":-0.005872795658999357,"127":0.0351474510062657,"128":-0.09761345819024012,"129":-0.0570169199449386,"130":-0.01455855074565471,"131":0.16860068653422555,"132":0.012339376560219665,"133":0.03240998371884964,"134":0.01595222820535293,"135":0.33114463669129673,"136":-0.013649134313231165,"137":0.0046607233712369495,"138":-0.04381725093515132,"139":-0.05909312248612863,"140":-0.056062637995285665,"141":-0.06766655058543553,"142":0.06751459442931701,"143":0.09268957409973859,"144":0.025200024466687714,"145":-0.037758839279995245,"146":0.07002596822508422,"147":-0.05216684243438928,"148":-0.021021987738333366,"149":-0.038721325821170854,"150":0.0815912731016899,"151":0.12616697084069572,"152":-0.05328775481687427,"153":0.13685730659191178,"154":-0.050349268074021666,"155":-0.1590443210637374,"156":-0.052661848095194044,"157":-0.014199695259585629,"158":-0.06671136452482636,"159":0.13051876804388918,"160":0.034888643417296486,"161":-0.07768325133980816,"162":-0.0776160803396559,"163":-0.03252407975443865,"164":-0.2851346392343918,"165":0.038346052188645396,"166":-0.04723945045185128,"167":-0.021035550263278226,"168":0.03823305700188796,"169":-0.1265701993287138,"170":-0.04271013539176236,"171":0.04742728695483513,"172":-0.17875128742123506,"173":0.010163881786152101,"174":0.08473611891075637,"175":0.07183112417401895,"176":0.05626343123628114,"177":-0.3254069002695865,"178":-0.22468262734858394,"179":0.03851808879313991,"180":0.06683639712316833,"181":-0.015676419080687183,"182":0.12731291726266517,"183":0.13074943158663968,"184":0.008823058538680746,"185":-0.1466184914339144,"186":-0.1510522676264144,"187":0.013749114598541763,"188":-0.007945602436113842,"189":0.05133088489440264,"190":0.04792967136284542,"191":0.0315473729156761,"192":0.12395657430852267,"193":-0.14296471044938527,"194":0.003511344492491487,"195":0.06278835127704531,"196":0.11435316018370126,"197":-0.08138863461434004,"198":0.0532379385851936,"199":0.12060069348529064}},{"sx":5,"sy":5,"depth":8,"w":{"0":-0.07894000137663369,"1":-0.09890679819099975,"2":-0.10301556711684914,"3":0.08920323709000023,"4":0.10683002178872779,"5":0.09630757097897862,"6":-0.052486810053291845,"7":-0.10101116984329722,"8":-0.10332765831798346,"9":-0.06153493440162132,"10":0.028954380211179853,"11":0.01769382686453738,"12":0.043722533924687154,"13":0.02910765101329558,"14":-0.016317885191823322,"15":-0.006223355087619821,"16":-0.06779155309961758,"17":-0.03812263706040785,"18":-0.009843236950354984,"19":0.05798698132390603,"20":0.07721075075052837,"21":0.03873497436491207,"22":0.14803732203236175,"23":-0.10240388039275782,"24":-0.004938537609661656,"25":-0.1296145291366852,"26":-0.11852062897036127,"27":0.10920336736095629,"28":-0.022339941264302113,"29":0.0807369768953419,"30":0.030463162553649257,"31":0.14559420062999667,"32":0.01855693541692178,"33":-0.12457264695333989,"34":-0.21926035913001912,"35":0.03704030780393188,"36":-0.03525959836557948,"37":-0.02960708508661494,"38":0.13259820249639656,"39":0.06628313095767009,"40":0.025970936885077452,"41":-0.06040665510392672,"42":0.12472491619508133,"43":-0.022956192855064218,"44":-0.1573484190375062,"45":-0.09044440844448566,"46":-0.2171014576183592,"47":-0.1344592511038416,"48":0.038006310781853625,"49":-0.21909141012950373,"50":-0.016858723992493423,"51":0.12252659645049323,"52":-0.0946828444824506,"53":-0.1261718455202662,"54":-0.07495426905378505,"55":-0.05253370761620964,"56":0.05058586665595279,"57":-0.1534768372592837,"58":-0.00903793941365817,"59":0.07662969097504391,"60":0.07622636094759663,"61":0.07893033757012985,"62":-0.15215967132245203,"63":-0.13180285533198366,"64":0.15037960315095594,"65":-0.20238779131039875,"66":0.02767839138001373,"67":0.16253876799487763,"68":0.13387625973183911,"69":0.01785199124707556,"70":-0.060800623015058224,"71":-0.17509314393339537,"72":0.027930100600592547,"73":-0.14525688639308362,"74":-0.2043614133224971,"75":0.24215132756003596,"76":-0.019596086699466084,"77":-0.04393363751642082,"78":-0.08566758086652736,"79":-0.14233599030942556,"80":-0.03425769643195344,"81":0.04636364809126931,"82":0.14168165519719475,"83":-0.36130211545136276,"84":-0.047040653416639155,"85":-0.08458903723657892,"86":-0.13458546261581988,"87":-0.034807518448700045,"88":0.08266675722217329,"89":0.07732686996463935,"90":0.2758683575560974,"91":-0.17449584126871429,"92":-0.17691483979646402,"93":-0.10501606583060791,"94":-0.139761103792852,"95":-0.06785613235843992,"96":0.03820813550006432,"97":0.24967887854998158,"98":0.27456131033183223,"99":-0.1119419794468448,"100":-0.16398885991793932,"101":-0.15561645322747775,"102":-0.2458657869140559,"103":-0.16095445914048392,"104":0.10005128293281874,"105":0.06116736672877234,"106":0.26354919635599106,"107":-0.14767238285822032,"108":-0.30246529596430854,"109":-0.19293662660912747,"110":-0.2164887968294963,"111":-0.1529084599311244,"112":0.09168539386197605,"113":0.0731580414235675,"114":0.041627441870403105,"115":0.0011514287384816564,"116":-0.11331257016378682,"117":-0.2703304220058894,"118":0.030643323316104913,"119":-0.056279562911565294,"120":-0.15069802592268997,"121":0.18151134403763927,"122":0.16497944047950192,"123":-0.1335931756386952,"124":-0.024515435221112287,"125":-0.08369787513945073,"126":-0.0019391437352372569,"127":0.0798200450565213,"128":-0.08733976350287027,"129":0.14504223524919432,"130":0.1187226446696193,"131":-0.27463415951876624,"132":-0.019929371924621773,"133":-0.10644928970063483,"134":-0.11977261067040917,"135":0.04728521478055267,"136":0.0032735151149083336,"137":0.2016782799578676,"138":0.14802226367090626,"139":-0.2718226117264844,"140":0.022337426393291324,"141":-0.020875804429379356,"142":-0.012640503609743363,"143":-0.11323544530783201,"144":0.045625228883624934,"145":0.2538904423150401,"146":0.0001696806120550843,"147":-0.120007064655503,"148":0.10072728343751511,"149":0.0191007842843635,"150":0.10377818874955386,"151":-0.005670893746201894,"152":0.04790262894203939,"153":0.2504429055997469,"154":-0.11216293102770876,"155":-0.02862078635961199,"156":0.2250522001523671,"157":0.013509553285581533,"158":0.12948890421020343,"159":0.07748470794060128,"160":-0.0816834153494591,"161":0.019180441418341264,"162":-0.07722342272125245,"163":-0.134288413955143,"164":-0.08108592723555579,"165":0.011759822380479273,"166":-0.02775851441141063,"167":0.20188184899448838,"168":0.04492603886927099,"169":-0.003757336242610012,"170":0.029102443632279252,"171":0.0443043768366072,"172":0.16029986354261952,"173":0.07423230906494793,"174":0.15461417757623044,"175":-0.06222097559536772,"176":-0.01933309234162475,"177":-0.10132433809289426,"178":-0.2551713539450814,"179":0.08492056739819112,"180":0.12918178591794566,"181":0.08651671224034378,"182":0.10103392330623966,"183":-0.06469511378780833,"184":-0.1465391874161401,"185":-0.16681977471378534,"186":-0.16850605848916822,"187":-0.07452017163593483,"188":0.15934727843026464,"189":0.08971229055849149,"190":0.08186221977307898,"191":0.029195657427843868,"192":-0.014381073965544191,"193":-0.12549708970001244,"194":-0.00939375372194276,"195":0.11353679628329472,"196":-0.00614955130620834,"197":-0.05624677683279936,"198":0.026125679348176056,"199":-0.045490205506717375}},{"sx":5,"sy":5,"depth":8,"w":{"0":-0.004219323645696576,"1":-0.1476437613226607,"2":0.03694804254446371,"3":-0.09318346543319904,"4":-0.061723448196218424,"5":-0.06909450503584376,"6":0.0755874912174715,"7":0.01028433599955283,"8":-0.05770435020383152,"9":-0.18310453111895963,"10":-0.07035463494151419,"11":-0.21312253022120728,"12":-0.09892736836126491,"13":0.09070000117788446,"14":-0.19235700153847746,"15":-0.09397408546871716,"16":-0.027455737199146624,"17":0.0835377874561209,"18":0.28702553035374584,"19":0.04223940298397089,"20":-0.1294798441109874,"21":-0.023716941010863055,"22":-0.05864265636968482,"23":-0.17913213868079594,"24":-0.06320205408971238,"25":0.12957156477557005,"26":0.23703241822181606,"27":0.1374820009174989,"28":-0.06893159010968228,"29":-0.06391525814319582,"30":-0.020050061360835085,"31":-0.008304868604695356,"32":-0.05530976455293515,"33":0.004948202606893589,"34":0.027190066040865917,"35":0.1770518043295651,"36":0.0300732223059335,"37":0.010271830465628034,"38":0.05370415816361585,"39":0.07783822985787021,"40":-0.23203316891776313,"41":-0.08341904871829559,"42":0.016431917794082557,"43":-0.11986225564250248,"44":0.13034761192723282,"45":-0.05381733920435945,"46":0.04625638083969219,"47":0.0017714931702436706,"48":-0.006526445443164325,"49":0.06851442148671635,"50":-0.014482388802963864,"51":-0.30904881125643213,"52":-0.16253276028675398,"53":-0.06717930049308533,"54":-0.18052244957769617,"55":0.124902453840464,"56":0.1244192197355586,"57":0.18415695350805503,"58":0.1724666852415969,"59":-0.16521008665882747,"60":-0.06398656316826294,"61":0.01853508571421824,"62":-0.04420336290095161,"63":-0.16180866944317643,"64":-0.10881244259769074,"65":0.12787747389987253,"66":0.00958468602463656,"67":0.11563237659619553,"68":0.03854957677107101,"69":-0.08367880978077864,"70":0.2168561282229927,"71":0.12677475754786943,"72":-0.12139825552039726,"73":-0.07968538026000527,"74":-0.06965244134323195,"75":0.03870796987191984,"76":0.07016688063649064,"77":-0.15676123464823494,"78":0.14937137721451166,"79":0.11643762926323221,"80":-0.048650132087901574,"81":0.04720404072683152,"82":0.02488959461930013,"83":-0.17538647110451822,"84":-0.19099209875509776,"85":-0.09305469108146262,"86":-0.0940777215729283,"87":-0.0612056675224633,"88":-0.11268570120416754,"89":0.03597979702995214,"90":0.018283823037236975,"91":-0.13986620196616012,"92":-0.15778330390524842,"93":-0.14533379595002763,"94":0.02061407845051664,"95":-0.06778625267828908,"96":-0.03828290682544559,"97":0.10754112055534398,"98":-0.13653628705212917,"99":0.016382240275028763,"100":0.003508780659984368,"101":-0.1055010563127173,"102":-0.05544116792626502,"103":-0.08030138927124149,"104":-0.12110332311198393,"105":-0.06192119273422218,"106":-0.18327198611813333,"107":0.17721396395906758,"108":-0.03691402226218244,"109":-0.10337406358789923,"110":0.06905520694511111,"111":0.14595131559349636,"112":-0.1690507259866574,"113":-0.04878441069536275,"114":-0.20933243632896184,"115":-0.009125518316354659,"116":-0.01947652935395458,"117":0.028246916046798676,"118":-0.006066595765763379,"119":0.03505503587424771,"120":-0.047655706700030186,"121":0.07584656812744209,"122":-0.031596884639149565,"123":-0.08437242232942561,"124":-0.13710229541655988,"125":-0.06702921404330583,"126":-0.15391124552007776,"127":-0.08298283811614156,"128":-0.03739023867663769,"129":0.1056721780497976,"130":-0.01070927397579771,"131":-0.018572426182475354,"132":-0.14684558889448218,"133":-0.2217217193359718,"134":0.02941712014917023,"135":0.022610166548860063,"136":0.03857396765044581,"137":0.029289189158094964,"138":-0.16609584518115994,"139":-0.013255557483913492,"140":-0.0715740320846849,"141":0.05799070537443199,"142":-0.013557431598576652,"143":-0.014253596415815563,"144":-0.13681873337496664,"145":-0.21504095433308398,"146":-0.2745206235593073,"147":0.006178461317583317,"148":0.059588922716025894,"149":-0.11911309984064597,"150":0.03019365687557612,"151":0.02301381702027799,"152":-0.022765136999667344,"153":-0.19085588714097174,"154":-0.2053786055716377,"155":-0.08986800621784517,"156":0.01360291148876454,"157":-0.027443464467931375,"158":0.1834926075224181,"159":0.07586278734953489,"160":0.010708794103816578,"161":-0.07319743988516776,"162":-0.21280492554850106,"163":-0.0858518506491893,"164":-0.1593761283110478,"165":0.003390178517945216,"166":0.01918943587237078,"167":-0.03655042128688686,"168":-0.1410459312280346,"169":-0.13371323133861887,"170":-0.16452230653289665,"171":0.033103404827035054,"172":0.09974668314168997,"173":-0.0778807564949669,"174":0.055660380843424215,"175":-0.034077979422962236,"176":-0.09328402083965946,"177":-0.03450343114203375,"178":-0.04484759759946121,"179":-0.023014357215096554,"180":0.060424781959256546,"181":0.07014163471502338,"182":0.08146850617594187,"183":-0.05122429936957033,"184":-0.13497066880638017,"185":-0.08680255383180903,"186":0.01504586545569192,"187":-0.002487022815737856,"188":0.011056397773403429,"189":0.15592548576593854,"190":0.07226289443772943,"191":-0.008087123960973872,"192":0.01867377130593907,"193":-0.09988754907002444,"194":0.045438303346860595,"195":-0.11834575971997799,"196":0.16043516241013245,"197":0.07647026243236962,"198":-0.11355363065175261,"199":0.04266170036029427}},{"sx":5,"sy":5,"depth":8,"w":{"0":0.11116729313182688,"1":0.023819524048823686,"2":0.10292968608070402,"3":-0.17194146142898,"4":-0.04218492441720139,"5":-0.0534445017351127,"6":0.10731093049702582,"7":-0.06083465925588565,"8":0.07910935737682866,"9":-0.09758580491485261,"10":-0.023502839579902464,"11":0.2068120490503482,"12":-0.11873895673662521,"13":0.055238186620442206,"14":-0.0003677521934944175,"15":-0.11305199786543967,"16":0.0016921767396495821,"17":-0.07255439530637811,"18":0.001026956728256854,"19":0.24729970363461543,"20":-0.18089804023843561,"21":-0.014881089015585058,"22":-0.025333935769098793,"23":-0.046891054807242934,"24":-0.12985870681465905,"25":-0.09931417431117731,"26":-0.11758341021788474,"27":0.0008284899555619354,"28":-0.144522209780141,"29":-0.115450936143238,"30":0.03786810814163151,"31":0.2290803547233729,"32":-0.1436310100524656,"33":0.00557576236232861,"34":-0.11607158006993583,"35":-0.008930477040981415,"36":0.04494414034467876,"37":-0.2699168697763114,"38":0.13849397663260046,"39":-0.06674912189455294,"40":0.056277535893832054,"41":0.06949261322611232,"42":0.054272275423177606,"43":-0.16401995213471635,"44":0.006186724566948727,"45":-0.10423744232167245,"46":-0.0037467800221435486,"47":-0.10062076823039164,"48":0.00022793917591949363,"49":-0.04623378694633546,"50":-0.0804827580460908,"51":-0.07283202556500551,"52":0.09091703923945228,"53":-0.03337162223567197,"54":0.017560103098051304,"55":0.043364259566926654,"56":-0.07054490695821752,"57":-0.04528096385326409,"58":0.023951941316365844,"59":0.07666698494561347,"60":-0.15182922458177564,"61":0.10558665277608344,"62":-0.05666389506233137,"63":-0.1171331952999257,"64":-0.11374736056716918,"65":-0.132201876081536,"66":-0.05220166614125513,"67":0.1342159441343908,"68":-0.0001616729994214713,"69":-0.05812414193891807,"70":0.0801599666248258,"71":0.01149162861605771,"72":-0.08770456665341603,"73":-0.051854755284868645,"74":-0.2922948003964376,"75":0.15123916936567353,"76":0.043543413347386234,"77":0.0034575913267489065,"78":0.04010367193547122,"79":0.17213176753902085,"80":0.029022667814417005,"81":0.11921379145330009,"82":-0.050112382589476194,"83":0.15999710248470234,"84":0.0790340271872153,"85":-0.0699451758650981,"86":-0.010987672399035137,"87":0.03788214025333751,"88":-0.1801547822567873,"89":0.09869213155124086,"90":0.030705112000735384,"91":0.01764093393208021,"92":0.05116484640215462,"93":-0.0477241120044609,"94":-0.0247955897299541,"95":-0.10574913646032624,"96":0.08937285916724153,"97":0.07130935040651586,"98":-0.04957885466437578,"99":-0.08502213290587232,"100":-0.049435040779276816,"101":-0.07559385848891632,"102":-0.2386624094841838,"103":-0.0020484151001475912,"104":-0.12593213561209793,"105":-0.08634858591650245,"106":-0.3371698225386622,"107":0.2817538688765304,"108":-0.182937091636716,"109":-0.12690266360069963,"110":-0.04508970307711385,"111":-0.004546792103503204,"112":-0.16953040801514987,"113":-0.2092856081163441,"114":-0.29582903317710746,"115":0.039082475555729385,"116":0.07842927448938394,"117":-0.09210251671335554,"118":0.09065475163207586,"119":0.25186656243428135,"120":-0.06481929631113358,"121":0.025768911443167182,"122":-0.15744459457856771,"123":-0.03621367353144054,"124":0.14727904669577815,"125":0.07866104775470947,"126":0.08008419939025659,"127":0.0431829443612631,"128":-0.007463314195609225,"129":-0.15891842017255753,"130":0.16497717694312136,"131":-0.09760578925226154,"132":-0.03159268998731144,"133":-0.10342087136468753,"134":0.00916785362085251,"135":-0.012484499257618466,"136":0.09005602105098467,"137":0.1744540269243993,"138":-0.17239176490921213,"139":-0.07544791943799958,"140":-0.17683118736425626,"141":0.00890644372954673,"142":-0.11874736184830711,"143":-0.11671465220705247,"144":-0.09024533784581618,"145":-0.1379401828361766,"146":-0.3824340054212628,"147":0.2593831821647327,"148":-0.02208789548255593,"149":-0.05140567677906321,"150":0.20444405315962794,"151":0.1493333459650677,"152":-0.13586453070480664,"153":-0.2828015452825007,"154":-0.2616483397749934,"155":0.15160153151061775,"156":0.029389194877726347,"157":-0.17307841203547816,"158":0.07447073969076885,"159":0.24169284470588212,"160":-0.15013682130406886,"161":-0.1841571295362445,"162":0.048066117942176266,"163":0.05856901433890696,"164":0.10425388540374271,"165":-0.18460594316212145,"166":-0.05726234722808963,"167":-0.09754354020475693,"168":-0.06541781847360469,"169":-0.00040168393425017495,"170":-0.13295450499773295,"171":-0.302778176590574,"172":-0.08987229487830276,"173":-0.09894992760264834,"174":-0.15094856013882518,"175":0.005936245838425663,"176":0.09846556237289525,"177":0.3086382682699881,"178":-0.26096640474867644,"179":0.060097799791677106,"180":-0.10568332662199506,"181":0.05894628332638847,"182":0.1567028361845564,"183":-0.0958742592052488,"184":-0.10406811608977366,"185":-0.11139048786352426,"186":-0.24365584081672198,"187":0.19012418520059546,"188":0.044428677880619744,"189":-0.0207477994854691,"190":0.18947400609331075,"191":0.20645250020205283,"192":-0.11953359133660907,"193":-0.20800563801475588,"194":-0.1402357536280746,"195":-0.06333103718083803,"196":0.02711920258639077,"197":0.005998317518280022,"198":0.16160599251334512,"199":0.11824759304947956}},{"sx":5,"sy":5,"depth":8,"w":{"0":0.09220589079226407,"1":-0.35701007928518597,"2":0.10658303176689163,"3":0.5780949918197047,"4":0.08943138073536205,"5":0.07874175383390601,"6":-0.043807057247495625,"7":-0.07708551306132436,"8":0.2832732158679516,"9":-0.1749628131760933,"10":0.057081967440884236,"11":0.44845800413686243,"12":0.08007910815745516,"13":0.03817845575517391,"14":-0.014996220417549973,"15":-0.08512051623910237,"16":0.06748609966676201,"17":-0.3286849611893765,"18":-0.06983867754020417,"19":0.39223219140188514,"20":0.04195390754989458,"21":-0.03311071847275327,"22":0.07831305358127026,"23":-0.17429682784060352,"24":-0.08920953991480136,"25":-0.298658485366687,"26":0.021086303673142254,"27":0.21269578963393676,"28":-0.068964254663727,"29":-0.10967643666783247,"30":0.07381063992271542,"31":-0.20594684184285206,"32":-0.23398144199220502,"33":-0.12420276091218027,"34":-0.029206600686899137,"35":0.09341467948838124,"36":-0.17318629546961772,"37":-0.1021778681054079,"38":-0.14913386867766332,"39":-0.12158787837479884,"40":0.034199301953188134,"41":-0.014973339379879859,"42":0.01768288141369724,"43":-0.2494090909520994,"44":-0.31657672688371075,"45":0.09403494497986926,"46":-0.15026201222607843,"47":-0.2572453188770748,"48":0.0032649532763654905,"49":-0.0193478278914966,"50":0.15349589636574767,"51":-0.10102075704213155,"52":-0.09964482342671409,"53":-0.0922427369905218,"54":-0.16948906473916361,"55":-0.14333782888071647,"56":-0.027417006450237764,"57":0.10326881411653446,"58":0.17912282844597976,"59":-0.16143117106491733,"60":-0.06337571585279286,"61":-0.1347605074697069,"62":-0.1768554049301282,"63":-0.12410360897292809,"64":-0.03516253718897731,"65":0.24604105123278117,"66":0.12212714861661082,"67":-0.1841134092092645,"68":-0.04084385208157508,"69":-0.002820295271976784,"70":-0.00884188355040111,"71":-0.14162377142499435,"72":0.06784382344988955,"73":0.22823639898813486,"74":0.19750086938316655,"75":-0.08775890510682752,"76":0.01687945146298542,"77":0.0548064521538623,"78":-0.030382985936537522,"79":0.05124480626719565,"80":-0.040171430638274094,"81":0.11459707333929621,"82":0.02473638322164547,"83":-0.24642632690063573,"84":-0.07806285646781992,"85":-0.07032483368241257,"86":-0.007381402770438062,"87":-0.12182297808678705,"88":-0.21522036395123878,"89":0.1311957946032358,"90":0.19382987396301135,"91":-0.17558677213573323,"92":-0.11356208432757288,"93":-0.19376469809675786,"94":-0.31993987146618824,"95":-0.1353512714464161,"96":-0.04055255755918469,"97":0.09544610574224091,"98":-0.01527418570993427,"99":-0.1897983408202079,"100":-0.023521341339026846,"101":-0.09570717987385169,"102":0.013283359768792856,"103":-0.06070709411253067,"104":-0.15147026962892166,"105":0.14568670012681967,"106":-0.06555962266215018,"107":0.0471298042439936,"108":0.04072865131945995,"109":0.11977979227733702,"110":0.034049662296406324,"111":0.032154982760926765,"112":-0.13012867981213444,"113":-0.02300937740073453,"114":0.053367657982981126,"115":-0.044853027173451576,"116":0.16809025350490708,"117":0.10735842668270147,"118":-0.029045313626423257,"119":-0.02014375528337022,"120":-0.015555538824994906,"121":0.04493210840127691,"122":-0.019827727946441272,"123":0.052943496014465755,"124":-0.1275631749909374,"125":-0.12726120043816075,"126":-0.08208912962860947,"127":-0.022936172690903894,"128":0.06848503463108639,"129":0.08922809922923472,"130":0.016280108902347035,"131":-0.14414422786602535,"132":-0.11808191042619497,"133":-0.010153739390833387,"134":0.13815514144575125,"135":0.015982306389995538,"136":-0.15878084918962815,"137":-0.024741618139519785,"138":0.020647055843951382,"139":-0.018321708102637366,"140":0.024047099619296776,"141":0.01847544670829508,"142":-0.05223385113001535,"143":0.030615667457400964,"144":-0.0037101194904843333,"145":-0.08283577330367493,"146":-0.022345061895537845,"147":0.14093054707640437,"148":-0.012778706205155406,"149":-0.11250578012672954,"150":-0.11730166854426353,"151":0.0194712252120953,"152":0.2015677285217203,"153":-0.20146925224926804,"154":0.0600242858530567,"155":0.030137445240518083,"156":0.0294152794165315,"157":0.09748560601655884,"158":-0.10905128788028094,"159":0.0344171178803106,"160":-0.1306090234520495,"161":0.12395755851816338,"162":0.06609849165831665,"163":-0.11212790826329153,"164":-0.07744584666751633,"165":-0.036247838086590184,"166":0.028594656145212893,"167":-0.11518325397747302,"168":-0.08467589391566203,"169":0.018360919222888177,"170":-0.018663609644510106,"171":0.04800983723415686,"172":0.031834395784236365,"173":-0.0273126282217056,"174":0.05239186326221431,"175":0.0888428409066004,"176":-0.10728614204676973,"177":-0.007413144902434513,"178":-0.10185567923740872,"179":-0.06877505502294878,"180":0.10245422932508468,"181":-0.0022944242626242455,"182":-0.05996337043771008,"183":0.06756990072225832,"184":0.1288520055157811,"185":0.04830702599712476,"186":-0.002556493077349792,"187":-0.04545985347208788,"188":-0.16261746137338343,"189":-0.06601567671390568,"190":0.03558835976427415,"191":0.07347861094422861,"192":0.08182769433818374,"193":0.04286997916013438,"194":-0.0038562772315056323,"195":-0.12698556031402844,"196":-0.12801536616462317,"197":0.008145660594237313,"198":-0.13160901833840918,"199":-0.08078671948942208}},{"sx":5,"sy":5,"depth":8,"w":{"0":-0.08153321734942383,"1":0.011871710778859793,"2":0.13802275940409,"3":-0.09687240102475375,"4":-0.1111772621401676,"5":0.1758126049345921,"6":-0.0947898064764597,"7":-0.09986322482218982,"8":0.013443952184823645,"9":0.023414301167807905,"10":0.02909667015929409,"11":-0.01791577587967933,"12":-0.04990529858552947,"13":-0.0695559621797433,"14":0.012474803882368237,"15":0.1201400246167547,"16":-0.014250125100363487,"17":-0.0391687819156197,"18":-0.03801765467246751,"19":0.044352602508550096,"20":0.01806703874983572,"21":-0.10987448746410189,"22":0.08266206995329099,"23":0.10270818334079432,"24":-0.10586891699747557,"25":-0.24291147465724186,"26":-0.025231265753845863,"27":-0.07362098312285147,"28":-0.05896842145496564,"29":0.007013660980116765,"30":0.058719032314689605,"31":0.005449522969595266,"32":-0.014185672777198833,"33":-0.0015302823569956524,"34":-0.036526395972125564,"35":-0.09638912850651987,"36":-0.2702113760505413,"37":-0.07162995035768745,"38":-0.013088513912226422,"39":-0.15092456104570293,"40":0.03211565030828781,"41":0.1359606249096349,"42":-0.010024807789863964,"43":0.01199719404134398,"44":-0.12146206361235007,"45":-0.04008149821644701,"46":0.039039634553952096,"47":-0.1847207764490511,"48":-0.12255392783305799,"49":-0.012282688853650005,"50":-0.07708675623666433,"51":0.10718254539004869,"52":-0.1186316483464961,"53":-0.04414773181458137,"54":0.11034026859780326,"55":0.02973214382991842,"56":0.0024683062975791536,"57":-0.04112338969232827,"58":-0.0522602157028775,"59":0.10038178928541022,"60":-0.0013533037856221207,"61":-0.026773701442879303,"62":0.04924989024843856,"63":0.14276416452995372,"64":0.005979765470938589,"65":-0.13416430035190813,"66":0.09126942031465428,"67":-0.05512084367793508,"68":-0.14587039947509836,"69":-0.11600431082992974,"70":0.17217868428540198,"71":-0.08043066846056582,"72":0.012412864933507866,"73":-0.03924082329029153,"74":-0.009562553714235296,"75":-0.07706010856116992,"76":0.03739222874980157,"77":0.07120184635474482,"78":-0.06535801460939011,"79":-0.0893259749348317,"80":0.05443902118125164,"81":0.02787261543373879,"82":-0.1306481833741789,"83":0.016738071359005995,"84":-0.09203400247407648,"85":-0.04230840565982723,"86":-0.019432121345173976,"87":0.007848578159347159,"88":-0.14410626891155878,"89":-0.09412203362239471,"90":-0.09329825224217166,"91":0.15229016622966068,"92":-0.04939551392621033,"93":-0.015528705733619344,"94":0.04543544354896373,"95":0.11378307332647551,"96":-0.13704831077348897,"97":-0.04517081458025476,"98":-0.02095294542911205,"99":-0.07105410847324355,"100":-0.07444197941950544,"101":-0.07704157423268325,"102":0.07367057721491184,"103":0.11554681555869295,"104":0.013328231557390935,"105":-0.18035187373201136,"106":-0.11449846464858252,"107":-0.11943322101608626,"108":-0.03348150104833859,"109":0.01907479283260649,"110":-0.00694397164130331,"111":-0.16113904132586682,"112":-0.04740845655339215,"113":-0.11099952674354573,"114":-0.15918944229400322,"115":0.0010757254232549227,"116":-0.03349133664065323,"117":0.03892061625478602,"118":-0.02083895047612142,"119":0.019346963432653266,"120":-0.13562652742686987,"121":0.053239533811160734,"122":-0.036924927927356924,"123":0.03874965975743513,"124":0.003652568453507642,"125":0.055245719108384085,"126":0.021293827480539526,"127":-0.03928853370118731,"128":-0.03792154688483746,"129":0.014001615941720296,"130":-0.08870619126390225,"131":-0.04174865291691612,"132":-0.0743451765085258,"133":-0.032283021591241294,"134":-0.014203009558939623,"135":-0.023295096277248288,"136":-0.045077372912513416,"137":-0.2582798641429585,"138":-0.1555487171952113,"139":0.04544385995130312,"140":-0.15218391597147182,"141":0.0034719605510354088,"142":0.011803950221903463,"143":0.10226296724453066,"144":-0.08344158808989938,"145":-0.03670590755487448,"146":-0.114734829906962,"147":-0.05153018303940689,"148":-0.11804850846935655,"149":-0.07877172613330578,"150":0.09789452476700646,"151":0.045634287400171704,"152":-0.22530359496606264,"153":0.05250169846194998,"154":0.00802382120103114,"155":0.05562602582713189,"156":-0.06983469369781226,"157":-0.033337267609716295,"158":-0.06148431937963032,"159":-0.038699100389863496,"160":-0.015503242326091885,"161":-0.041438523920281904,"162":0.007071426793771733,"163":-0.04350839000335472,"164":-0.20260637575817197,"165":0.09945396940056297,"166":-0.04180015533246034,"167":0.06561586262003324,"168":-0.024094551309961073,"169":-0.08634626538393567,"170":-0.1341876690981868,"171":0.06676317077135512,"172":0.05214811655065319,"173":0.12373636559205378,"174":0.023527542224182844,"175":0.003681723511836906,"176":-0.06618324064804838,"177":-0.1529906566695679,"178":-0.1266348691691871,"179":0.010662360736724098,"180":-0.00834955530670871,"181":0.23084950644685412,"182":0.11948261379469644,"183":0.051087626411866,"184":0.07620355199889822,"185":-0.10372700247781007,"186":-0.21123884558766332,"187":0.11076678293245065,"188":0.11915428950217576,"189":0.13670311076190186,"190":0.12676805142750602,"191":0.07835384998848485,"192":-0.11543630400460178,"193":0.011074563987366294,"194":-0.08520917513534317,"195":-0.0921578336150109,"196":0.2587200084348698,"197":0.05598862179788934,"198":0.08612182345988534,"199":-0.021642093879535123}},{"sx":5,"sy":5,"depth":8,"w":{"0":-0.01632274987836568,"1":-0.02798887736230671,"2":-0.027637175910293996,"3":-0.16397302595313268,"4":-0.16922636831389495,"5":0.07057689015595921,"6":-0.0367473002071339,"7":-0.18702979741251485,"8":-0.08501107914566378,"9":0.09956206529318856,"10":0.02948980167665828,"11":-0.04826670011480255,"12":-0.04548715851916661,"13":0.15350220511417165,"14":0.0036393347029405687,"15":-0.2775029229093655,"16":-0.1607248762123513,"17":0.10855572710128555,"18":-0.04043504660307505,"19":0.08267578681334027,"20":-0.0564430418185435,"21":-0.08341637288630502,"22":-0.04201794399650361,"23":-0.03999358774988425,"24":-0.07715288440510626,"25":-0.03955838646095721,"26":-0.019754506073835904,"27":-0.022743640834289543,"28":-0.07051872565373973,"29":-0.021342175461768274,"30":0.016759831638981378,"31":-0.03004590160412813,"32":-0.14316090157049208,"33":-0.12182477597672407,"34":-0.009138619751059708,"35":0.0029381464788181045,"36":0.10495877973367833,"37":-0.059496347454916845,"38":-0.06243620965798179,"39":-0.10775905260909566,"40":-0.1466643593080522,"41":0.0034677755714328335,"42":0.008320095283290599,"43":-0.2972707772929098,"44":-0.16883633727057054,"45":-0.024201587158370192,"46":-0.09114491325666015,"47":-0.0740377603301209,"48":0.12770606791123074,"49":0.15447230938412218,"50":0.09804726694237494,"51":-0.16365400928684912,"52":-0.1844534542290519,"53":-0.06874602739813537,"54":0.00800628925467151,"55":-0.03384554738631144,"56":-0.009847456466179313,"57":0.03505478161922349,"58":-0.057269154531666554,"59":0.16659620622036372,"60":0.10315942193145303,"61":-0.09018878087857057,"62":0.047019932846562765,"63":0.0041663952575383065,"64":-0.047418716021806376,"65":-0.07760943214703979,"66":-0.05965470666509737,"67":-0.01697803302480772,"68":0.1602340141271207,"69":-0.12257085070730098,"70":0.17565242215409257,"71":0.12055132900171454,"72":0.020200400526302113,"73":-0.20167676904311155,"74":-0.005245230324406812,"75":0.05817635560646338,"76":-0.1749337093963717,"77":0.014365744399256284,"78":0.011454830763295626,"79":-0.2067118424332627,"80":-0.005985081045281655,"81":0.08176172312643504,"82":0.03508716732371311,"83":-0.25191512556190127,"84":-0.1822488054753148,"85":0.021881337408806018,"86":-0.22627187083782818,"87":-0.11492224730483255,"88":-0.05234090845858001,"89":0.11597160890679334,"90":-0.19525011450350835,"91":0.19450463404211135,"92":-0.17156143466253027,"93":-0.038995878820753116,"94":-0.09831502817986394,"95":-0.12707339261955447,"96":-0.14449913571353087,"97":-0.06821131761937226,"98":-0.17749511142864807,"99":0.2136688546071293,"100":0.2666741659848816,"101":-0.2239583569668958,"102":0.10890357739823296,"103":0.14313517346307236,"104":-0.17351507335081826,"105":-0.26257587635208957,"106":-0.029323273511758875,"107":0.012772327841532986,"108":-0.016082332737301343,"109":-0.03249708263095285,"110":-0.05178614437762241,"111":0.17898035756629377,"112":-0.15820157831214282,"113":-0.10515466869164797,"114":0.060466869462721555,"115":-0.18763293302021894,"116":-0.1443226136911091,"117":0.07435002543608643,"118":0.00344066579609966,"119":-0.061402875395138175,"120":0.06939112665725893,"121":0.06643987250784145,"122":0.12727085123774123,"123":-0.26184923567222174,"124":-0.18667787130003913,"125":0.029591352251487343,"126":0.051673733841825886,"127":-0.07835932423640876,"128":-0.022089967295424073,"129":0.04286544518486196,"130":-0.14877640974493192,"131":0.14220134835967277,"132":-0.09128172024291643,"133":-0.05937894625738463,"134":0.06309567373069236,"135":0.030173044769471094,"136":-0.16136955411049192,"137":-0.13609826318751966,"138":-0.16734129859702349,"139":0.08157345206881376,"140":0.09336411233157445,"141":-0.09087004074761984,"142":-0.059478430445982985,"143":0.09553982001074432,"144":-0.13850641623270915,"145":0.027745617950096498,"146":-0.047613570673511046,"147":-0.11069770164387427,"148":-0.1832080719736588,"149":0.09121174722060038,"150":-0.0026167411613501456,"151":-0.0413389389620871,"152":-0.011231204364646587,"153":-0.017498012830465804,"154":-0.04438065858171241,"155":-0.2670574055492791,"156":-0.16596107058974802,"157":0.05057256183141655,"158":0.0244152939356949,"159":-0.15232984236981678,"160":-0.043666836766722686,"161":0.16684357344394599,"162":-0.18434373842246254,"163":-0.07323785362342465,"164":0.05792090520196676,"165":0.0416880874794638,"166":-0.014535888453568414,"167":-0.12288652289301183,"168":-0.09198391889898277,"169":-0.029936889710344892,"170":-0.25686462835430335,"171":0.18128094971577982,"172":0.026703795216689783,"173":0.14993993399080122,"174":-0.029728709233952336,"175":0.006516949599133286,"176":-0.10911849468696315,"177":-0.11938737455091446,"178":-0.030920485767147263,"179":0.15301854693032768,"180":0.16062706564483725,"181":0.20991762367082126,"182":0.11381009822109349,"183":0.09378897868897342,"184":0.005496708758089999,"185":-0.18422380909198968,"186":-0.07797824637745408,"187":-0.050575635942435956,"188":0.13297224012794223,"189":0.21134198124626577,"190":-0.03691455157402035,"191":-0.011431983904543324,"192":0.004603426439824436,"193":-0.029761268046791096,"194":-0.08946581001313399,"195":-0.12908818333304783,"196":0.09850263880415439,"197":0.15311979437841894,"198":-0.019969840528043143,"199":0.1683159492810461}},{"sx":5,"sy":5,"depth":8,"w":{"0":-0.08712402167843368,"1":-0.15853786091254451,"2":-0.06152238499896055,"3":-0.020145260865062905,"4":0.0027808039245573943,"5":-0.10721267490835143,"6":-0.03072851775292732,"7":-0.021900035471783905,"8":-0.10032511142649139,"9":-0.1252489493011853,"10":-0.1964840500430733,"11":0.1174723434137559,"12":0.050654721353479246,"13":-0.012080140233423771,"14":0.12220494912116055,"15":0.12331129072495484,"16":-0.24583517355995618,"17":-0.3242304751370313,"18":-0.05289905707619116,"19":0.032800970646876974,"20":0.10629193420911622,"21":-0.008366083851260813,"22":0.0024752561916477336,"23":0.04066912529702042,"24":-0.15669100850223097,"25":0.020955019624432865,"26":0.1907526854722452,"27":-0.1970010612573462,"28":-0.09929155124922494,"29":-0.051568138470574544,"30":0.0037480436968376565,"31":-0.043741898481185704,"32":0.00306472468975433,"33":0.15789590462825265,"34":0.10724179841495081,"35":-0.1897232458806863,"36":-0.04869223125508937,"37":-0.06869597565789454,"38":0.04619662110397152,"39":-0.19416804230920706,"40":0.04455815913319018,"41":-0.24024312887395774,"42":0.08162824663804209,"43":0.11874761549330752,"44":-0.05039611993840371,"45":0.08593394173937359,"46":-0.003920536832404237,"47":0.014377266478212627,"48":-0.1653212891825187,"49":-0.24461404479687635,"50":-0.0010106212310101999,"51":0.018830361081089694,"52":-0.09164972434547511,"53":-0.06421180676924809,"54":-0.02456131796292678,"55":0.02296418423891041,"56":-0.13484860817830957,"57":0.20018180088520066,"58":0.12918680514887168,"59":0.003898996123584776,"60":-0.12289259087961463,"61":-0.24658005987122256,"62":0.0329003680117115,"63":0.04319855973202399,"64":0.05363947971006832,"65":0.16003328957833282,"66":0.12333016116930257,"67":-0.08674716290095084,"68":-0.1680606893891028,"69":-0.16514098668185956,"70":-0.01675886651907308,"71":0.02178530664965274,"72":-0.0011310428177203117,"73":0.056142420792382214,"74":0.19096265950192354,"75":-0.13233702169867695,"76":0.05883335302072901,"77":-0.12449892657109327,"78":0.04511956338120354,"79":-0.02586691044975189,"80":-0.03456538957842476,"81":-0.12273451410227962,"82":0.03979094948255906,"83":-0.10119953556908877,"84":-0.04955093534690711,"85":0.034113732196939583,"86":-0.13217368075651179,"87":0.04129552394806708,"88":0.015343027514125264,"89":0.07839420260213999,"90":0.10986716634511418,"91":-0.09719406929597178,"92":-0.14363168848225302,"93":-0.24163200400368942,"94":-0.06409388777251657,"95":-0.08125483939044369,"96":0.06912219788777854,"97":0.18796589403068747,"98":-0.07250530309090183,"99":-0.06358550137721786,"100":0.020246445436549233,"101":-0.1842387668031972,"102":-0.0544181629588272,"103":0.09047339377256666,"104":-0.04970420803799649,"105":0.0321312058458927,"106":-0.09369653211492615,"107":-0.029711042713377312,"108":0.06455043491798436,"109":-0.13558167424645282,"110":0.0696406419958281,"111":-0.059490059668623266,"112":-0.04734124241422089,"113":-0.041612583932574866,"114":-0.10672401637068388,"115":0.09457293915437238,"116":0.06974103215854228,"117":-0.09924287627774565,"118":0.03965651665437663,"119":0.0666469090343641,"120":0.021907484863133684,"121":0.10351769591889994,"122":0.06967505408044426,"123":-0.1917707496016678,"124":-0.06543254394640884,"125":0.04949879125653329,"126":-0.10616358445160874,"127":-0.15005632213789083,"128":-0.08109003072452522,"129":0.04887738359275202,"130":0.04436400296837266,"131":-0.034508809116802146,"132":-0.2574330210189482,"133":-0.23878092406071155,"134":-0.08230068035646457,"135":-0.08554689081429308,"136":-0.0042431863301288075,"137":0.10748515860862727,"138":-0.03276650527913564,"139":0.07873765050515238,"140":0.0291080230078543,"141":-0.21314739769024915,"142":0.08541489392652366,"143":0.1377225074455436,"144":-0.08060592176226457,"145":-0.16707082651730423,"146":-0.23706111403984123,"147":0.018300945042432175,"148":0.038975577961072434,"149":-0.08272639154959287,"150":0.11950959120933462,"151":0.10104041134993177,"152":-0.13321319186495148,"153":-0.04381931782568136,"154":-0.12783726128685588,"155":0.026364280001627285,"156":-0.17968156615000944,"157":-0.09407425777001215,"158":-0.02277805519742073,"159":0.11093518598530855,"160":-0.06811452496353766,"161":-0.16593768643003753,"162":-0.08554148577434707,"163":-0.2616505917515622,"164":-0.20376483115273916,"165":0.007962835659410061,"166":-0.022563251683620635,"167":-0.17002588693115497,"168":-0.15682933765426338,"169":0.08304967786349088,"170":-0.2585870570085251,"171":0.025138643349109646,"172":-0.14229593543216876,"173":0.014738153361656714,"174":0.10430374521912499,"175":-0.1226972129987228,"176":-0.08706362594481697,"177":-0.0022153428550990267,"178":-0.2620013941739929,"179":0.2733917314422518,"180":-0.19790446763071887,"181":-0.16907599497961912,"182":0.19677061397690834,"183":0.3895244717460739,"184":0.10453437901670988,"185":-0.07719218911075305,"186":-0.20941147743528382,"187":-0.028437592272444905,"188":-0.16395255824688618,"189":0.06288903555573515,"190":0.15108182086609448,"191":0.3531058985040897,"192":-0.04259811661179268,"193":0.06265629362283638,"194":-0.11026856818403398,"195":-0.010205876521787114,"196":0.05938484773659153,"197":0.10210516566012702,"198":0.12666386693673992,"199":-0.005861443867131554}},{"sx":5,"sy":5,"depth":8,"w":{"0":-0.24902125359241156,"1":0.056412414552378436,"2":0.050339000760824724,"3":-0.22609556230940842,"4":-0.08576025483204662,"5":-0.123624594688627,"6":0.013153021735264996,"7":0.07160938242113896,"8":-0.12904678109883824,"9":0.11708927155208163,"10":-0.1500187438402743,"11":-0.015644181518799767,"12":-0.027993083839679335,"13":-0.1450216637582899,"14":0.06862578513965926,"15":0.032548095510026354,"16":-0.07165640252979935,"17":-0.062397313155672776,"18":-0.07995941117761274,"19":-0.045082201231836455,"20":-0.13293832740486478,"21":-0.13496951164201237,"22":-0.03458965546905515,"23":-0.0676371862278058,"24":-0.04762035201429182,"25":-0.1780126184494325,"26":-0.15221348882968186,"27":0.07374469310672883,"28":-0.10607877915818935,"29":-0.12579896378355468,"30":-0.16490051718168477,"31":0.0109364384654398,"32":-0.14610930206280168,"33":-0.1619340264970315,"34":-0.0512864016768149,"35":-0.09527276876304862,"36":-0.08925257979741201,"37":0.029589571325049604,"38":-0.12431597818408038,"39":0.13189746413200867,"40":-0.07285211930214357,"41":0.14035149894386592,"42":-0.051547895339836586,"43":-0.12738466024959588,"44":0.06158848111158362,"45":-0.1384998494025463,"46":0.041403385938000206,"47":0.0425572947070673,"48":-0.03604019488801801,"49":-0.053034142495819135,"50":0.043387322396294656,"51":-0.10201425591523051,"52":-0.05889537826636062,"53":0.024844184473072944,"54":-0.01138062024432894,"55":0.05038139425227738,"56":-0.10231156033148749,"57":-0.11080866990979153,"58":-0.07841537131596847,"59":-0.0872557978100331,"60":-0.04904748803788821,"61":0.009537579121246621,"62":-0.08127094583223611,"63":0.035708646342051856,"64":-0.005569430489134855,"65":-0.02381084685030951,"66":-0.011713324973726116,"67":-0.010588446652642044,"68":-0.1332725921971061,"69":-0.0237694130736063,"70":-0.01620997263448133,"71":0.06322609679819956,"72":-0.0033947217554585454,"73":0.08181380176381797,"74":0.1393419138052783,"75":-0.2841872137822671,"76":-0.3451495173662583,"77":-0.12264276769663744,"78":-0.20843719138842984,"79":0.06286002377422324,"80":0.020137665122424177,"81":0.0006741779170170226,"82":-0.10562984211914042,"83":-0.06583579428029622,"84":-0.06124271750604996,"85":-0.08880649980763351,"86":0.1023280753704683,"87":0.04183711829235304,"88":0.08910227955966517,"89":0.22699319002336182,"90":0.06336063208669575,"91":-0.1226408661598734,"92":-0.013249033040010006,"93":0.07360699738065855,"94":0.048213251127954895,"95":-0.02297709211246738,"96":-0.0068368309128939335,"97":0.1806331588115995,"98":0.07246411332346459,"99":-0.11585878892483714,"100":-0.13663682701053573,"101":0.07169095846668908,"102":0.07563257254357608,"103":0.002668005049150079,"104":-0.04186163174202072,"105":0.17975851606378587,"106":-0.09833667206719283,"107":-0.05233794054540802,"108":-0.1664785983236608,"109":0.1180591794214794,"110":0.004972050488510528,"111":0.04415796690256222,"112":0.10895393800670294,"113":0.3960890515659678,"114":-0.016045266752268507,"115":-0.17406551159609912,"116":-0.019368549586264373,"117":0.14190677605106958,"118":-0.02565263862789411,"119":0.146691449530013,"120":-0.12934032739722337,"121":-0.009542065682254462,"122":-0.11458358167049382,"123":0.023320971691353703,"124":0.1669378669463968,"125":0.09774034635260108,"126":0.04756883960288595,"127":-0.07020162303903271,"128":0.009215861797153028,"129":-0.055956130540642725,"130":-0.08890738461985943,"131":0.09491939540647754,"132":0.1733405917731315,"133":0.14135974106321142,"134":0.037793604004130066,"135":-0.06614896594328434,"136":-0.17603968229829017,"137":-0.10469436429932592,"138":-0.16028376194000094,"139":0.10948667850507617,"140":0.3277633090264603,"141":0.30914444295886856,"142":0.09938925559111758,"143":0.03214665971124903,"144":0.0425944157415394,"145":-0.18767989380685807,"146":-0.2520702531710807,"147":0.05435483797059672,"148":0.35727786621042584,"149":0.1638157236372625,"150":0.11574716472192835,"151":0.17087842569257738,"152":-0.046681358129517445,"153":-0.10136340553475048,"154":-0.0649212539940582,"155":0.15919638147960458,"156":0.19470331714112898,"157":0.09290093184987736,"158":0.08354184346656728,"159":0.025127096008172988,"160":-0.0804317306447114,"161":-0.12200246170698589,"162":-0.09892315482016407,"163":0.033552194650279074,"164":0.04315135349010889,"165":-0.028347221235429047,"166":-0.03404521790150755,"167":-0.025322368974741386,"168":-0.15503119543280677,"169":-0.27913034691473204,"170":0.009732929853401137,"171":0.03720999248623956,"172":0.0924488686371368,"173":0.013849301615896065,"174":-0.21506985417898555,"175":-0.25636006404126627,"176":0.18198459856842966,"177":-0.17582950074630774,"178":-0.03861332146646681,"179":0.05910292770029125,"180":0.0770851483785086,"181":-0.18116372670423736,"182":-0.18527246492562105,"183":-0.37978436052396913,"184":0.11257007328798709,"185":-0.16756757552727805,"186":-0.0653708149926118,"187":0.06667638079106446,"188":-0.16110880153103388,"189":-0.026455235130083195,"190":-0.10723088051703338,"191":-0.31035536944993786,"192":0.1837617610570662,"193":-0.16593555789351522,"194":-0.07921779603423676,"195":0.2539900749413136,"196":-0.12178903505283041,"197":0.06959018283364599,"198":0.07415784352800486,"199":-0.12487762055657621}},{"sx":5,"sy":5,"depth":8,"w":{"0":0.012284036803984466,"1":0.13203273070978166,"2":0.03347099711299994,"3":-0.026429119241985755,"4":-0.01767714276998002,"5":0.0520141798422678,"6":0.07936280505105597,"7":0.10558375041393,"8":-0.06377385160644118,"9":-0.005396737910617445,"10":-0.017110232337045478,"11":-0.11719784678938121,"12":-0.10147472043422909,"13":-0.10279511613706342,"14":0.17652916736301988,"15":0.044368373376662835,"16":0.03231529101400887,"17":-0.03669408733818834,"18":-0.16290400335163283,"19":-0.04692991379992627,"20":0.08088005498715835,"21":-0.07761934149165248,"22":-0.019734786075514953,"23":0.2072826251828376,"24":-0.03634394782902424,"25":-0.01954486162071461,"26":-0.08422719982455405,"27":-0.10838290044519855,"28":-0.08871977816226534,"29":0.03403267681411796,"30":0.029504167255548563,"31":-0.01693638770438431,"32":-0.04317558130838391,"33":-0.09947633803500039,"34":-0.0800707085425192,"35":0.011854866096379695,"36":0.11248421199597608,"37":0.07428372294199752,"38":0.03306255231102218,"39":-0.0753622596024136,"40":0.08160037727874053,"41":-0.04216668189299147,"42":-0.002938562545515666,"43":0.12472086957578384,"44":-0.1551019925948749,"45":-0.04467672258454587,"46":0.08513649654138478,"47":0.017843051664795957,"48":-0.19638795553390906,"49":0.03525574475122398,"50":0.023054631452964915,"51":-0.03349678670030342,"52":-0.13925477216997148,"53":0.03926208098702936,"54":0.07880334186550234,"55":0.0628401660014258,"56":-0.10068638221276643,"57":0.05423369945766294,"58":-0.006387837417807129,"59":0.12479360661477659,"60":-0.2130014558720439,"61":-0.1428507798603174,"62":0.16973459021475282,"63":0.24952533393533233,"64":0.026112031896354373,"65":-0.14673815749561595,"66":-0.05816559118727604,"67":-0.2505215000576502,"68":-0.05598777049763062,"69":-0.00016019380100211803,"70":-0.010449540858312803,"71":0.04855025613648152,"72":0.06083043694260372,"73":-0.12602367038808537,"74":0.003549490704421643,"75":-0.10037106930697261,"76":-0.11101570202525497,"77":-0.021910719246486385,"78":-0.11547822304742365,"79":0.0634799066826963,"80":-0.009484424223674782,"81":-0.16920345440955092,"82":-0.134320092492799,"83":0.006159569217824493,"84":-0.06971446125440006,"85":0.147266562288697,"86":-0.08800931315683864,"87":-0.164399062180724,"88":-0.06555311070108448,"89":-0.22896532642628953,"90":-0.04440317297759686,"91":0.11419635156580597,"92":0.01242243757318582,"93":0.07823764585955725,"94":0.07120688344668764,"95":0.11124776346682168,"96":-0.14365642866424333,"97":-0.1826936147163769,"98":-0.14008721209143124,"99":0.13483722174104726,"100":-0.03201680112981572,"101":0.08490050417799233,"102":0.24574441159741192,"103":0.2434124987943581,"104":0.2128955190025487,"105":-0.11959766222573058,"106":0.017025743653331146,"107":-0.060524009926113856,"108":0.010284945871797119,"109":-0.03814319999313501,"110":0.11356714557749717,"111":0.3098001084914321,"112":0.116461386067409,"113":0.06690857088709827,"114":-0.021280816514987432,"115":-0.24662701208966847,"116":0.008420087049408422,"117":-0.02482412188548661,"118":-0.13016627726969066,"119":0.07273833882717479,"120":0.09971554051147112,"121":-0.14643838803625317,"122":-0.021507019186723274,"123":-0.16378611548901878,"124":-0.15923709103817255,"125":-0.001025303202106466,"126":-0.09177007278693136,"127":-0.011171533874818375,"128":0.14236442456231438,"129":-0.4222475951977712,"130":0.03115650285926006,"131":0.005630022134913332,"132":-0.1957176541576378,"133":0.10464363203205046,"134":-0.1430441107824856,"135":-0.11182017121671642,"136":0.033249069593826855,"137":-0.17084365116558975,"138":0.016335287155048166,"139":0.2466491648872954,"140":-0.002351054108785465,"141":-0.005656165637060683,"142":-0.007595571062111629,"143":0.04238390452602882,"144":-0.16833178953741365,"145":-0.10639662317490588,"146":-0.013008491076425484,"147":0.23886984197009375,"148":0.08057811214557375,"149":0.04033673497491764,"150":0.17433487142640114,"151":0.11487055736184038,"152":0.2354468197433465,"153":0.020083587381030027,"154":-0.01685704701164955,"155":-0.037307511113029615,"156":0.1431708522730193,"157":0.06985156479773205,"158":0.24848702978939963,"159":0.09833612480293635,"160":-0.14137319636098242,"161":-0.07764491215568448,"162":-0.05729899705651543,"163":-0.12100999991793358,"164":-0.06793038853509062,"165":-0.13587716463692268,"166":-0.13272240644648958,"167":-0.11882466067158218,"168":-0.09992225940399305,"169":-0.0023602781538699406,"170":0.13308552610351193,"171":-0.2021323699579663,"172":-0.1721775007686162,"173":-0.12427761437690299,"174":-0.12079872843777253,"175":-0.2614052967416256,"176":0.06552265053191737,"177":-0.05051745007247159,"178":0.25214923618325213,"179":0.03723085011368718,"180":-0.03495493339046854,"181":-0.07338748695978976,"182":-0.1523537101510477,"183":-0.1880396187014607,"184":0.101612003582087,"185":-0.13380470591273164,"186":0.06997354416945764,"187":0.26909801739952927,"188":0.05290741114158274,"189":0.06239200502987029,"190":0.019927237352817612,"191":-0.06675446241948085,"192":-0.0725251298884532,"193":-0.0035507848821204296,"194":0.025260357410399958,"195":0.11938543360428165,"196":0.046265431884733435,"197":-0.027372215150366988,"198":0.14425613107977256,"199":-0.017826875642467033}}],"biases":{"sx":1,"sy":1,"depth":16,"w":{"0":0.007797754721030153,"1":0.06999998148342682,"2":0.07920959453889569,"3":0.07210273744613387,"4":-0.009172188692790571,"5":0.04529525865710021,"6":0.03800349166729151,"7":-0.01809968326362493,"8":0.04824755143968281,"9":0.0421951967797555,"10":0.06602278443319627,"11":0.05001587550238501,"12":0.06228404674959161,"13":0.0454767859270827,"14":0.013318802294376748,"15":0.051255154379389996}}},{"out_depth":16,"out_sx":14,"out_sy":14,"layer_type":"relu"},{"sx":3,"sy":3,"stride":3,"in_depth":16,"out_depth":16,"out_sx":4,"out_sy":4,"layer_type":"pool","pad":0},{"out_depth":10,"out_sx":1,"out_sy":1,"layer_type":"fc","num_inputs":256,"l1_decay_mul":0,"l2_decay_mul":1,"filters":[{"sx":1,"sy":1,"depth":256,"w":{"0":0.015588351990430198,"1":0.13327864063316128,"2":-0.029444194360769917,"3":-0.03983802945502129,"4":-0.03186142251776717,"5":-0.09273985606467096,"6":-0.10973956518626318,"7":-0.03380831062200344,"8":0.026506309248777216,"9":0.0033046211217846572,"10":-0.024227241456033125,"11":0.009621665569280756,"12":0.019242095822202498,"13":-0.010982940527031764,"14":-0.09602874203405815,"15":-0.03280225389650001,"16":-0.07592713791031935,"17":-0.05666826474931528,"18":-0.02418461196007464,"19":-0.05077651091237925,"20":-0.018696917873080022,"21":-0.08391893258755044,"22":-0.023574033483342013,"23":-0.17573240065420523,"24":-0.03307744096451723,"25":0.03307696731341507,"26":-0.1330567643694182,"27":-0.16729986399387978,"28":-0.09307241359032765,"29":-0.004040968629242473,"30":-0.02348756926694542,"31":-0.191910926588458,"32":-0.0002788700228189568,"33":-0.12046258214758775,"34":0.01050623267671755,"35":-0.12862420695467375,"36":0.037655021392139866,"37":-0.051380712133826,"38":0.003063506956990008,"39":0.010836526588475013,"40":0.04703047615116366,"41":0.0653857083715495,"42":0.11259681343305153,"43":0.029419592514963785,"44":-0.17960886759880415,"45":0.04541059594425151,"46":-0.11101523951590755,"47":0.055384165620104744,"48":0.05202596544693223,"49":-0.257549305005004,"50":-0.04708988696586821,"51":-0.08539660026332266,"52":-0.034598151080570676,"53":-0.04059942178419201,"54":0.07808580132301764,"55":-0.04511356692207334,"56":-0.06368067646327762,"57":-0.021736944074637565,"58":0.008894234534588341,"59":0.033487318833823575,"60":0.005349275020540795,"61":0.03287799502915232,"62":-0.1444587687965819,"63":-0.1014982776095361,"64":0.07794236689245775,"65":0.0026142421979918865,"66":-0.11582623723077068,"67":-0.015773568726051814,"68":0.07636368365459625,"69":-0.051719973984847845,"70":-0.09731822865631301,"71":-0.07269926793152527,"72":-0.1563958005249637,"73":0.052275447298502,"74":-0.060392990964808504,"75":-0.006222690837521556,"76":-0.07538316744317335,"77":0.023476186812297874,"78":-0.019466397893172838,"79":-0.034461046127646264,"80":0.024323698040284277,"81":0.04455487135983032,"82":0.13335837921396923,"83":0.011927479388674242,"84":-0.11937721158787148,"85":0.07234172132991534,"86":-0.11517325619301579,"87":-0.013456560554494835,"88":0.04203184421524281,"89":0.041127008863193065,"90":-0.018842799929035703,"91":0.04617148587454168,"92":-0.009393157231385327,"93":0.043775346932195626,"94":-0.12117601773024572,"95":-0.11098803429209358,"96":-0.06405289556023896,"97":0.0026105763026361517,"98":-0.04861614006435338,"99":-0.12661155452420156,"100":-0.025304872181228392,"101":-0.026596986708772655,"102":-0.034747067824337216,"103":-0.195112524693243,"104":0.034602900689108665,"105":-0.07542151225057891,"106":-0.07394771233517357,"107":-0.09838818707197661,"108":-0.001031253200689597,"109":0.01590735485471639,"110":0.035800620419600616,"111":0.04627525113115889,"112":-0.26319384014811453,"113":-0.06358085234481639,"114":-0.22474248830922977,"115":-0.1441025486816518,"116":-0.13992127606557736,"117":-0.030600976711022725,"118":0.07017792426064683,"119":-0.1916778326723943,"120":-0.06503681710556188,"121":-0.0041555324089590515,"122":-0.23419489993859988,"123":0.018411373309046797,"124":-0.2503423108131931,"125":0.03515980452850101,"126":-0.08119785579476238,"127":0.21688448309850555,"128":-0.03729701073247351,"129":-0.0989935137711946,"130":-0.017607657827663877,"131":-0.10125822892690424,"132":-0.11353635995375312,"133":0.05293008383404835,"134":-0.1796716330221383,"135":-0.09553832433365304,"136":-0.08478021321820715,"137":0.014767850152469484,"138":0.020249018583448124,"139":-0.01310916883204268,"140":-0.017609380402108982,"141":0.029845826709344297,"142":-0.058464256894967315,"143":-0.016405315728880956,"144":-0.06087782344307407,"145":0.18582367708878456,"146":-0.04981993351234987,"147":0.18479851711575018,"148":-0.054165638758939524,"149":0.06016022158817138,"150":-0.039554437564989005,"151":-0.28392131089152045,"152":0.04600567509912714,"153":-0.03539725016989386,"154":-0.07457508809737547,"155":0.039928157922007906,"156":0.20065202879806884,"157":-0.010948419387529593,"158":0.008939971166822044,"159":-0.0816082052181399,"160":-0.015379661550863257,"161":-0.0407079034561873,"162":0.04271584380570835,"163":-0.002584329772682816,"164":-0.0037339242555118964,"165":0.03292313637710215,"166":-0.03469428372990393,"167":-0.05145801260305367,"168":-0.16977963244792174,"169":0.10905840561689727,"170":-0.051417878287149964,"171":-0.01856902149630121,"172":-0.231002758159815,"173":-0.15010232509113697,"174":-0.10820452625529453,"175":-0.1637050808837208,"176":-0.10812850982536196,"177":-0.037236007632709546,"178":0.05103118784712383,"179":0.06423693751590871,"180":0.16244312237272518,"181":-0.05674398439245446,"182":-0.15952573080660715,"183":0.18969281079296285,"184":0.17027773794702902,"185":0.16524300356160537,"186":-0.0918474432607143,"187":-0.014707031786586439,"188":0.19264743012413754,"189":0.05663199810784356,"190":-0.016980350532025696,"191":0.0013035878503702548,"192":-0.0927429400068676,"193":-0.07725991623566573,"194":-0.017535084475573663,"195":-0.05053306100349162,"196":-0.012379521103827545,"197":-0.049104492762094984,"198":-0.20202041480439387,"199":-0.028302448362264383,"200":-0.0307865034312073,"201":0.12035972808401213,"202":-0.06372791510321744,"203":-0.08946404153650354,"204":-0.023725153264626674,"205":-0.003948124406023858,"206":-0.06270147249411977,"207":0.016718717275664575,"208":-0.04301426858764675,"209":0.13007126734781446,"210":-0.05699434725163643,"211":-0.17335340438822786,"212":-0.060708478744476074,"213":-0.10623422306324971,"214":0.12433095986697634,"215":-0.1388752713925572,"216":0.05367938977162284,"217":0.035518760933453096,"218":-0.07086703444183436,"219":0.25679007871926796,"220":-0.060639805735998295,"221":-0.12499282429960179,"222":0.1865761175024908,"223":0.14665000252500104,"224":-0.009918130365298303,"225":-0.011776142027578438,"226":-0.08302427521119185,"227":-0.03783970667266394,"228":-0.003475412892241082,"229":-0.16906691734082177,"230":0.13808084315612934,"231":-0.18521765307810137,"232":0.028070811443835733,"233":-0.18924346811568826,"234":-0.24000305526850363,"235":-0.07753511400357213,"236":-0.09270164072568997,"237":-0.18010651320882742,"238":-0.07749788818784145,"239":-0.07480082323000567,"240":0.10432998779003666,"241":-0.08089345683868185,"242":0.0064562755090631745,"243":0.09208945433373801,"244":0.08564786953014268,"245":-0.11211117401258525,"246":-0.006525088116061839,"247":0.0844029630339648,"248":0.05577645457819959,"249":-0.05582200736239486,"250":-0.02500816598044669,"251":0.02652873299210984,"252":0.186657084908443,"253":-0.0842131297762913,"254":-0.030717743148790225,"255":-0.10005903654837321}},{"sx":1,"sy":1,"depth":256,"w":{"0":0.0044772484046388655,"1":0.06428153710144807,"2":-0.01598883835668107,"3":0.007479128103526859,"4":-0.02101522445300416,"5":0.06661749897308852,"6":-0.10773146512485826,"7":0.04006765926502793,"8":-0.0005769738589966564,"9":-0.030727182762511816,"10":-0.04298789422701531,"11":0.06500161021643368,"12":0.06527271126186257,"13":-0.06579577816377447,"14":-0.016548377094771548,"15":0.07733857568451834,"16":-0.11883550954604667,"17":0.02533927671606787,"18":-0.17084667998279915,"19":0.04335537264110324,"20":0.026948082831270054,"21":-0.06740617519640893,"22":-0.016861513146238436,"23":-0.04204662160234304,"24":0.047694839027734276,"25":-0.0013885187289550465,"26":-0.03450968489783442,"27":0.018239593179452507,"28":0.04433027239844617,"29":-0.09262591199318994,"30":-0.06639957973666051,"31":0.03034153074122072,"32":-0.09700582588735103,"33":0.12111169146864226,"34":-0.08740530063042573,"35":0.13624412706761502,"36":-0.10474045750896695,"37":0.17789084648981865,"38":0.0826846754496504,"39":-0.1642423140844376,"40":0.006838605146857417,"41":0.019293053010988093,"42":-0.03426996985925288,"43":-0.007075105935249029,"44":0.1284550501908486,"45":0.061399628625716275,"46":-0.32066254798648336,"47":-0.0351152769903641,"48":-0.06006761491075051,"49":0.13594609706883934,"50":0.06586344667947802,"51":-0.021095388172626066,"52":-0.11880000099421485,"53":0.11864923728580465,"54":-0.0438791776421883,"55":-0.09826817236445465,"56":0.06731264873252356,"57":0.07765633428733895,"58":0.04667652266051682,"59":-0.0775640012550965,"60":-0.138148573070168,"61":0.07739092751831043,"62":0.03706458797858002,"63":0.038060946643614216,"64":-0.1547640491002501,"65":0.10553800655760125,"66":0.12429702894756345,"67":-0.0957290873681764,"68":-0.051105848862446575,"69":-0.09964239085077946,"70":0.035591061816761034,"71":-0.10569657895969362,"72":-0.09343513051636192,"73":-0.1584725878690987,"74":-0.09586496443501272,"75":0.07542203149444777,"76":0.09590108717426521,"77":-0.00006635379613526713,"78":-0.1321844463633103,"79":-0.15937082555699003,"80":0.01457790856341163,"81":-0.1541597571304993,"82":-0.16056705255702605,"83":-0.08668155946185924,"84":-0.09566825325636423,"85":0.00860690265264209,"86":-0.1174848457897809,"87":0.02778114547331477,"88":-0.22062000730042905,"89":-0.00547357441478431,