{"net":{"layers":[{"out_depth":1,"out_sx":28,"out_sy":28,"layer_type":"input"},{"sx":5,"sy":5,"stride":1,"in_depth":1,"out_depth":8,"out_sx":28,"out_sy":28,"layer_type":"conv","l1_decay_mul":0,"l2_decay_mul":1,"pad":2,"filters":[{"sx":5,"sy":5,"depth":1,"w":{"0":0.18270892489976415,"1":-0.502989080388501,"2":-0.684167324208046,"3":-0.043868308188748296,"4":0.4685376187353652,"5":-0.18450789067832304,"6":-0.48861819233155773,"7":-0.5985441931382572,"8":0.35070485331807266,"9":0.6563424331739377,"10":-0.3079633375689712,"11":-0.3291236877119521,"12":-0.4840250981582159,"13":0.30101005463164304,"14":0.25068978459765623,"15":-0.32833853560992393,"16":-0.3007339875679397,"17":-0.43172751876761695,"18":0.2480374729765044,"19":0.36833169149272227,"20":-0.35853315633185273,"21":-0.35895458002519587,"22":-0.7041005035502937,"23":0.02474317176521132,"24":0.6096187569383259}},{"sx":5,"sy":5,"depth":1,"w":{"0":-0.38428786200471227,"1":-0.8751468484538137,"2":0.42230239282456383,"3":0.878213297939924,"4":0.2784424496285547,"5":-0.31456114908508753,"6":0.04397624499680332,"7":1.0230318893146464,"8":0.35701273024839514,"9":-0.5363866874699723,"10":0.05551627224335843,"11":-0.0012904543055108257,"12":0.44020041969101814,"13":-0.33865509946387967,"14":-0.7756265640606314,"15":0.12452580552845995,"16":0.20066328969780137,"17":0.031305925367365754,"18":-0.32745848275446543,"19":-0.14358088084109083,"20":-0.13656476754078278,"21":-0.03972886386189691,"22":0.08273109518101934,"23":-0.25439255773502895,"24":0.1706468840525461}},{"sx":5,"sy":5,"depth":1,"w":{"0":-0.2919466749138137,"1":-0.07893110570840912,"2":0.30711211659378546,"3":0.15086508418638586,"4":0.025145339832630946,"5":0.45394150109783993,"6":0.36117221327577076,"7":0.4481162347374855,"8":0.7759274515712817,"9":0.6440843223158289,"10":0.01860800061554337,"11":0.08018549792930613,"12":0.5540352964722314,"13":0.6100811956324674,"14":0.6551207640011981,"15":-0.23946767640859584,"16":-0.5777752668691923,"17":-0.6355664668524283,"18":-0.1259500940319814,"19":0.371442330167102,"20":-0.11354034681997952,"21":-0.5266830922450385,"22":-1.3173202006994869,"23":-0.675893768992343,"24":-0.28859662256672675}},{"sx":5,"sy":5,"depth":1,"w":{"0":-0.030593987130023946,"1":-0.21612781012153345,"2":-0.7003984778635085,"3":-0.7692400926539106,"4":-0.3979645913390801,"5":0.0709029628557982,"6":-0.176882944121445,"7":-0.7130124959774212,"8":-0.927069165754939,"9":-0.6938624669807198,"10":0.11359868801921338,"11":0.07241736772065317,"12":-0.16696410662151517,"13":-0.4838221437010775,"14":-0.3453312159911675,"15":0.3143233780307737,"16":0.5572193430673019,"17":0.4247399623873895,"18":0.22985358774270084,"19":0.2637116779227009,"20":0.49068587243044737,"21":0.3881672095799992,"22":0.6778074537675381,"23":1.2464187410664314,"24":0.9564521171407092}},{"sx":5,"sy":5,"depth":1,"w":{"0":-0.29557928865718286,"1":0.17309210253916668,"2":0.3552857762473677,"3":0.3528843618334404,"4":0.7637988102381884,"5":-0.22098321841325427,"6":-0.06561981064054358,"7":0.4479399742788465,"8":0.944809950388481,"9":0.7781130995025283,"10":-0.3649424588717451,"11":-0.47252103986470706,"12":-0.3494534922632617,"13":-0.1130399620129497,"14":-0.1199028770773763,"15":-0.4815777862369389,"16":-0.5085295320069965,"17":-0.5607391314052028,"18":-0.7118298313056177,"19":-0.8262890089089675,"20":-0.2532166729152412,"21":-0.41930501337152476,"22":-0.5954046657057578,"23":-0.6462203426327099,"24":-0.28459805956639983}},{"sx":5,"sy":5,"depth":1,"w":{"0":0.01192600121587559,"1":0.22376207446839366,"2":-0.03047875083816537,"3":-0.06820800697240004,"4":-0.0910905783426788,"5":-0.027504667551335345,"6":0.7714159265435171,"7":0.7482747303771167,"8":0.288700968988485,"9":-0.25031188601475407,"10":-0.3255732824639799,"11":0.08507928363900413,"12":0.2608584542510751,"13":0.3982297610502309,"14":-0.020056473998372324,"15":-0.5264046722505538,"16":-0.35487089154200074,"17":-0.21646031206359367,"18":0.3199185553051408,"19":0.27101066996146606,"20":-0.05388626081827867,"21":0.028496236265658302,"22":-0.2762155266645928,"23":-0.24683636245045926,"24":-0.28962777690181907}},{"sx":5,"sy":5,"depth":1,"w":{"0":-0.2038782995631134,"1":-0.3458575026713072,"2":-0.15243385980644014,"3":-0.027509843009223347,"4":0.6813296160887663,"5":-0.5431900473017092,"6":-0.7604304623041829,"7":-0.17505203019710272,"8":0.22747854162587625,"9":0.8482690714979376,"10":-0.6861116069517031,"11":-0.5324167746050237,"12":-0.05952298133538806,"13":0.32974066990129547,"14":0.6743520302935705,"15":-0.5881924577235256,"16":-0.07291956648616403,"17":0.22851805050849586,"18":0.44614049084733837,"19":0.4912167636778297,"20":0.18190549926095856,"21":0.2684869100569559,"22":0.13485146555327698,"23":0.18120114774851684,"24":0.04318185583722576}},{"sx":5,"sy":5,"depth":1,"w":{"0":1.033115466094973,"1":0.1509010293841238,"2":-0.6638206416311591,"3":0.04545936721047255,"4":-0.09989880740594914,"5":0.9184361629652215,"6":-0.10701659475362883,"7":-0.9569943659225206,"8":-0.2237494342006771,"9":-0.13542786605203927,"10":0.6020247176871775,"11":0.34504427314759234,"12":-0.5576521315355124,"13":-0.4020640669456797,"14":-0.2810961162325695,"15":0.16672718532636044,"16":0.3240368363337809,"17":-0.27305331769645874,"18":-0.3640392470139981,"19":-0.43129238655501223,"20":0.10919475470320918,"21":0.408250677101105,"22":0.4621478046875833,"23":0.1971709050042608,"24":0.044790112036036424}}],"biases":{"sx":1,"sy":1,"depth":8,"w":{"0":0.1388980843241555,"1":-0.007993783392974275,"2":0.1274185844316666,"3":0.007707462066949008,"4":0.3457485731526647,"5":0.0699265526145371,"6":-0.07716677118625392,"7":0.000766397985182457}}},{"out_depth":8,"out_sx":28,"out_sy":28,"layer_type":"relu"},{"sx":2,"sy":2,"stride":2,"in_depth":8,"out_depth":8,"out_sx":14,"out_sy":14,"layer_type":"pool","pad":0},{"sx":5,"sy":5,"stride":1,"in_depth":8,"out_depth":16,"out_sx":14,"out_sy":14,"layer_type":"conv","l1_decay_mul":0,"l2_decay_mul":1,"pad":2,"filters":[{"sx":5,"sy":5,"depth":8,"w":{"0":0.06753904310926072,"1":0.14196556877491637,"2":-0.10456092748727173,"3":-0.09600549769342419,"4":0.1318117063277316,"5":0.0033420739223043233,"6":-0.05180049160660069,"7":-0.007526377544525265,"8":-0.02603049714750581,"9":-0.026462952014034206,"10":0.13470698954479013,"11":0.04790943766153193,"12":0.10489764783469924,"13":0.06972797833605834,"14":0.15552632568439473,"15":-0.1027994902320019,"16":-0.05285388594201852,"17":0.12064857057846055,"18":0.3470707855665329,"19":-0.07273615016339657,"20":0.058227826132243816,"21":0.35066977710889025,"22":-0.07218761452443818,"23":0.03396572023143337,"24":-0.08733486087458783,"25":-0.02552926163538445,"26":0.19304322934281468,"27":-0.06204241011757207,"28":-0.03212655494607627,"29":0.08598825392929782,"30":-0.18742063065484707,"31":0.1244708370549084,"32":0.053361467316347465,"33":0.08490024187108018,"34":-0.02365946113362471,"35":-0.21863437336649408,"36":0.12890445930045788,"37":-0.05531946877614037,"38":-0.022864673246387156,"39":-0.15155807170415592,"40":-0.0922255217002776,"41":0.08315692777139802,"42":-0.1694365597726655,"43":-0.4357477842475581,"44":-0.19020391242703127,"45":-0.01791182011368951,"46":0.04691175457799718,"47":0.1495124443465963,"48":-0.21470540521615022,"49":0.4472447037956639,"50":0.16096536307963097,"51":-0.5727460637198449,"52":-0.14698260381036354,"53":0.11715912612923732,"54":-0.02696433555631534,"55":-0.1529283039578371,"56":-0.009748835427093356,"57":0.1968915988791764,"58":0.26464919415682836,"59":-0.3750233324910466,"60":0.09904170410512209,"61":0.14705218027294048,"62":-0.18896710738032613,"63":0.16169416558353777,"64":-0.03098524071850307,"65":-0.21279559966739844,"66":-0.2085988830037712,"67":-0.09504646822455821,"68":0.16791918533310582,"69":-0.035819154236266915,"70":-0.23959867775223956,"71":0.16106119435978114,"72":-0.005224581005476585,"73":-0.08360835904139403,"74":-0.04244434266506406,"75":-0.16279121436100566,"76":-0.03177245309602218,"77":-0.09130890725955963,"78":-0.04842862312809782,"79":-0.19701941578354246,"80":0.06748295594710056,"81":0.36352498549159806,"82":0.022151676171902866,"83":-0.35254601736971414,"84":0.012593599321622719,"85":0.002292313913142352,"86":-0.24374530515353982,"87":0.03513276872629495,"88":0.10424794883718363,"89":0.07642929382345996,"90":-0.053703908081273705,"91":0.09863494679050075,"92":-0.10895096642940177,"93":0.04563957165014112,"94":-0.37640317986382726,"95":0.2514192982770436,"96":0.10202542934911063,"97":-0.10712660987817685,"98":-0.19911945677510087,"99":0.015050245003974822,"100":-0.08979391671663779,"101":-0.09011766468452331,"102":-0.1236218754398242,"103":0.10848499152524695,"104":-0.11298400761823606,"105":-0.11563079575325495,"106":-0.13693907246593293,"107":0.004983699094851874,"108":0.11038445713857531,"109":-0.1553254453859637,"110":-0.23303662553289944,"111":-0.14759722612239223,"112":0.1350722927535235,"113":-0.1047937434312161,"114":0.132734043363512,"115":-0.19964487710631498,"116":0.3022616837753421,"117":-0.1280551470433946,"118":0.11277678815117433,"119":-0.20788855031551887,"120":0.01758890437608038,"121":-0.028469971865146347,"122":0.034512811992742386,"123":0.438937287617768,"124":-0.08870009722287935,"125":0.028240855443852467,"126":-0.169043083536361,"127":0.09344495569754352,"128":0.035104162371147475,"129":-0.085359870141836,"130":-0.031372351333732854,"131":0.6150214948626685,"132":-0.08404542909979507,"133":-0.20899901096660842,"134":-0.12309474098892843,"135":-0.02793210517545699,"136":-0.014429713387627226,"137":-0.1750615218570617,"138":-0.04123397988480714,"139":0.1660620008156671,"140":0.037160268873168534,"141":-0.016486738979752523,"142":-0.15725099522959504,"143":-0.025405052295441363,"144":-0.062195526622564425,"145":-0.17636718890334405,"146":-0.0035738393496647374,"147":0.18673095834841544,"148":0.023659495835689024,"149":0.01594545650952684,"150":-0.22110390318608206,"151":0.13311720151825732,"152":-0.0815118609998433,"153":-0.0807370515440944,"154":-0.014978672881405112,"155":-0.001176434422903632,"156":0.1358253549799648,"157":-0.1282892912627726,"158":-0.15680257419621557,"159":-0.07000880679816733,"160":-0.2392957895150152,"161":0.010338032601593739,"162":0.3449388429465061,"163":0.004338819665835895,"164":0.25984471823573796,"165":0.11418578563840953,"166":0.12397588838672023,"167":-0.14989328224484194,"168":-0.005743186711233807,"169":0.23343291071113345,"170":0.14033370474255327,"171":0.04943069928603843,"172":-0.054700446479901604,"173":0.012954997981363523,"174":-0.06534026600055357,"175":-0.2693011593813825,"176":-0.1164495063843566,"177":-0.1033338287555693,"178":0.015178120954204143,"179":0.19004876211884958,"180":0.07322697379615889,"181":-0.05507708300427667,"182":-0.02342692595563566,"183":0.05825282228111251,"184":-0.0675102936076731,"185":-0.35100837028243126,"186":0.13659930007602333,"187":0.26559757359579417,"188":0.07365589319785723,"189":0.061531686561167705,"190":-0.10453958508612304,"191":0.07316969364066651,"192":-0.20117495285734988,"193":0.018249247545578284,"194":-0.22576663663812602,"195":0.535875654335993,"196":0.1028667651168892,"197":-0.053796625587361036,"198":-0.3260604809334211,"199":-0.004157245537756887}},{"sx":5,"sy":5,"depth":8,"w":{"0":0.23493109482626706,"1":0.042364634124765974,"2":-0.10881606357762645,"3":0.0014545082507119369,"4":0.25051575749318394,"5":-0.10582711686213754,"6":0.009076474127989967,"7":-0.03217313785514056,"8":-0.034212705611741265,"9":0.16062873245203124,"10":0.2758166507926966,"11":-0.0895037170900988,"12":0.2834642813971736,"13":0.20609194098895753,"14":-0.005199503560065814,"15":-0.08336727823377962,"16":-0.12308152129480346,"17":-0.06872075583828219,"18":0.1745755794895136,"19":-0.22969255471731512,"20":0.20015049212726121,"21":0.11439597622959645,"22":-0.10008365154792649,"23":0.1382044789564679,"24":-0.10169575215658211,"25":-0.008911415592799243,"26":0.3482429933094414,"27":0.03864621220635772,"28":-0.032631073770951154,"29":0.16692929737884138,"30":-0.1397937888823847,"31":-0.05297382504960281,"32":0.07047455256229174,"33":0.1833924121855442,"34":0.24414359770371866,"35":0.19877248583053278,"36":-0.011471313265746512,"37":0.09613886745090615,"38":-0.0707117807169112,"39":0.00473805829966454,"40":-0.18253816711992346,"41":0.029309650758406764,"42":-0.23634968737613976,"43":0.11894287433225534,"44":-0.16276938641842859,"45":-0.12263248185388288,"46":-0.0329270050703217,"47":-0.2592870982394351,"48":-0.09545053718449713,"49":0.10191190638579437,"50":-0.15245962217330142,"51":-0.02272726970076103,"52":0.07511472430099324,"53":-0.1132962483862881,"54":-0.10926828035189545,"55":-0.15359867965245208,"56":-0.21251632440214285,"57":-0.09110532140329597,"58":-0.15571719582578725,"59":0.01039263525082966,"60":0.02436966551360879,"61":-0.17096699119132058,"62":-0.20991933598575294,"63":-0.013800838991956596,"64":-0.2568208432695363,"65":-0.15805647876938456,"66":0.26393546931223777,"67":-0.23395659647012784,"68":0.26910000282365704,"69":-0.05093104323597884,"70":-0.14966106039841678,"71":-0.23978582050532152,"72":0.15917480554172306,"73":0.03138439706133568,"74":0.42339360829431877,"75":-0.44934580281542974,"76":0.15627385780265324,"77":0.19748029824089708,"78":0.2113275500788025,"79":-0.11913351844070964,"80":-0.17905841415612506,"81":0.0681389586193465,"82":-0.3017978943688718,"83":0.17760834890173302,"84":-0.12250736923828219,"85":-0.03267536513420999,"86":-0.22102700511615067,"87":-0.009279354206138596,"88":-0.012005312243268423,"89":-0.02134713208039691,"90":-0.1549490680639418,"91":0.21259879487921637,"92":-0.05537455918643448,"93":-0.14454263072351092,"94":-0.3093213765194657,"95":-0.08190255739861228,"96":-0.09120774585145215,"97":-0.05442362749260658,"98":-0.1747225660157857,"99":0.08188717459556565,"100":0.016483274761584874,"101":-0.10410167507005103,"102":-0.26904076580174563,"103":-0.015085422764442026,"104":-0.0591369846896639,"105":-0.021793556126642827,"106":-0.24696843144774033,"107":0.16828347495852086,"108":0.023962567702461298,"109":-0.15475446768063267,"110":-0.3755860293728377,"111":-0.18034208684688255,"112":0.00548273390314968,"113":-0.09842888011676479,"114":-0.14669379767347862,"115":-0.04006039420237424,"116":-0.06551465482424224,"117":-0.24289177378532806,"118":-0.06651204737656623,"119":-0.18130038897437473,"120":-0.1542304812027916,"121":-0.2548860635606418,"122":0.32785068421992214,"123":-0.0909018530691771,"124":-0.0032967280508974252,"125":0.13447400095926676,"126":-0.2225569044474703,"127":-0.1246442905706684,"128":0.08052065313111877,"129":-0.03485477515182276,"130":0.2162643630663295,"131":0.2189489575397924,"132":-0.05759589916989457,"133":0.16323773701483868,"134":-0.16712230959122645,"135":-0.09831262221729237,"136":0.24458860107708866,"137":0.03308302102104542,"138":0.057681384185483034,"139":0.028724851089667196,"140":-0.16163547002136394,"141":0.024029207796682054,"142":0.10695864973308902,"143":0.2128807811120502,"144":0.016594593901224263,"145":-0.19109146384181916,"146":-0.039488964986993294,"147":0.2390959641681791,"148":-0.23565403760486076,"149":-0.11767443970426736,"150":0.18506989191181664,"151":-0.03168103985458423,"152":-0.10254504678338659,"153":0.060295699345911856,"154":-0.16601492920173533,"155":0.3308842832687492,"156":-0.13504027848437503,"157":0.06292602057808885,"158":-0.02327166919464664,"159":0.019908582191071757,"160":0.09491513720894441,"161":0.13311746347797868,"162":-0.13148373856325435,"163":0.34980977468374236,"164":0.06584702615391443,"165":0.00264788159570553,"166":-0.022875113919270714,"167":0.14941261886355106,"168":-0.023599024001028632,"169":0.15052899709433856,"170":-0.10144156475775669,"171":-0.013841556577158439,"172":-0.33446774835963106,"173":0.15803569626110991,"174":0.1523094620352807,"175":-0.0467204638863354,"176":0.08931089973735079,"177":-0.0841990368964857,"178":-0.19311808972003022,"179":-0.1273341609025541,"180":-0.10162548816954745,"181":-0.2304625978264549,"182":0.42193581745989805,"183":0.10408143440528987,"184":-0.10439146135828119,"185":-0.08982874106013851,"186":0.08329860738830329,"187":-0.053705596161136765,"188":0.24546690153721307,"189":0.05680693883236958,"190":0.23863279046101282,"191":-0.006249765392778576,"192":-0.2476822052946771,"193":0.13772294255474868,"194":0.27468007479430334,"195":-0.22584697459910885,"196":0.4485808820218592,"197":0.08187619294584676,"198":-0.0930531474774734,"199":-0.3488758463931084}},{"sx":5,"sy":5,"depth":8,"w":{"0":0.038471732148232456,"1":-0.001040784400806366,"2":-0.2672168598910139,"3":0.1879820918902606,"4":-0.03646300310044316,"5":-0.10637413621769912,"6":0.2188535021309612,"7":-0.15588829513394056,"8":0.14524195358985567,"9":0.09397489930256224,"10":-0.29826000236945244,"11":0.05514229328475716,"12":-0.11935873769667746,"13":-0.23842871109289832,"14":0.03801795917983702,"15":0.023928881502539964,"16":-0.10501324494440344,"17":0.16348224094668865,"18":-0.14609195146587597,"19":0.16256559421845623,"20":-0.1717211444319878,"21":-0.14544297287529104,"22":-0.19343938464458715,"23":0.07054374197989377,"24":-0.029141590301917392,"25":0.15217184271326065,"26":0.04363455227361469,"27":0.1544079248900884,"28":-0.24390417975199455,"29":-0.069309952262082,"30":0.04502388114405949,"31":0.01052197958234486,"32":-0.05313512400713473,"33":-0.2711687270760809,"34":0.03537001310193237,"35":0.36345308754719896,"36":-0.056201279597118715,"37":-0.07008109594698045,"38":-0.08903479637894277,"39":0.20610536114695738,"40":-0.08628827009865093,"41":-0.0612749029772239,"42":-0.2631357033983428,"43":-0.010122034721923514,"44":-0.08111801887536288,"45":0.062177906426004056,"46":-0.07822817501372772,"47":-0.05520328698367684,"48":-0.08155454611417774,"49":0.11326032389457485,"50":-0.33462453912994516,"51":0.02672903446057111,"52":-0.1336667930565,"53":-0.05950826328335355,"54":-0.5428835326208112,"55":-0.15024184546888866,"56":-0.22179255953688046,"57":-0.026694385210548295,"58":-0.22061209364889275,"59":0.06187753589194507,"60":-0.07426989687628553,"61":-0.22163067784314347,"62":-0.30997926690909916,"63":-0.07378162061645309,"64":-0.02761893787620111,"65":0.027196099613641098,"66":-0.14807473903096174,"67":0.07813334613105484,"68":0.1802744233588205,"69":-0.11828563302168364,"70":-0.17210341506470775,"71":-0.24350361018497801,"72":-0.0971301407732802,"73":0.12033313713882504,"74":0.32436048347184304,"75":-0.2243679061894039,"76":0.4425811813310016,"77":-0.019384544202244842,"78":-0.09105992314019068,"79":0.16505454360056793,"80":0.22491309661971567,"81":0.1493602810816948,"82":0.03421864036046018,"83":0.27901248793122185,"84":-0.025213984616509536,"85":-0.11342151197600893,"86":-0.15750984736612908,"87":-0.009505323470804298,"88":0.00897535738671898,"89":0.04650443255738872,"90":-0.03608807315735583,"91":0.35308713441810274,"92":0.19534768668438046,"93":0.05495615943670608,"94":0.019848600701112884,"95":0.09795652588113957,"96":-0.18289901454335097,"97":0.09380329883353543,"98":0.17862991863076605,"99":0.3619161045521686,"100":0.19426006399737333,"101":0.11193673807272017,"102":0.05755828763495774,"103":-0.10166413919264126,"104":-0.02806342256150557,"105":0.11527829049028658,"106":0.07388211922530268,"107":0.20515813562255492,"108":0.22367868472785135,"109":0.006237186776064141,"110":-0.2817983378542297,"111":-0.01681467573159899,"112":-0.07656072160016768,"113":0.14614429336037285,"114":-0.510889571656098,"115":0.41921480917609966,"116":-0.02441685311603654,"117":-0.2245401232593074,"118":-0.2399174946535713,"119":0.3441795527625661,"120":-0.013461315256574733,"121":-0.47952935929794904,"122":0.4317835080897349,"123":-0.06314228527908275,"124":0.03884534553284707,"125":0.12182952316503222,"126":-0.3892685872161041,"127":0.11397826971416009,"128":-0.015112485286435056,"129":0.05283292256877074,"130":0.5131940848160912,"131":-0.05115679949333852,"132":0.07617548046628403,"133":0.3573637686153157,"134":0.15532788787011761,"135":-0.1858534026719593,"136":-0.0624548755461404,"137":-0.14475208952910104,"138":0.43557115134728086,"139":0.023358316636874227,"140":-0.3053050963654415,"141":0.1910356508383758,"142":-0.051674280577934634,"143":0.38010894852605986,"144":-0.02339575780705045,"145":-0.20604459494005517,"146":0.14301131144588353,"147":-0.04835565518590869,"148":-0.007726005868996997,"149":0.11698497556772111,"150":0.10193344004962424,"151":-0.020087108390226677,"152":0.118237069909097,"153":0.06036894161308237,"154":0.30383861539020923,"155":0.1689100114812793,"156":-0.15747660356593043,"157":0.21434019093786197,"158":0.3335675987430573,"159":0.2571199823333975,"160":0.07102636469594294,"161":-0.26087926092507463,"162":-0.3095994483259591,"163":0.14734053907280606,"164":-0.11390174415166511,"165":0.03237482428306457,"166":-0.20040402176425376,"167":-0.047661948189935736,"168":-0.03396147169656911,"169":0.1370903009860527,"170":-0.20227486324164795,"171":0.0037582795231574997,"172":0.1562186816430139,"173":-0.06873387381603697,"174":-0.19050838484976718,"175":-0.26524172758954967,"176":-0.12117006166391074,"177":-0.09334735454220593,"178":-0.06834578029102678,"179":-0.17105045656130946,"180":0.0716711504835839,"181":0.10897075917106974,"182":-0.201916746531251,"183":-0.090408538225595,"184":-0.08154400220918409,"185":-0.05092065137090666,"186":-0.10373074793106787,"187":-0.10429156516438678,"188":0.1841896431933176,"189":0.036446376455246246,"190":-0.5973703884241417,"191":-0.11103331029507017,"192":0.13295190930821169,"193":-0.008600214637264124,"194":0.051905369192626886,"195":0.05658847098165907,"196":0.08254672142835098,"197":0.13662216895244894,"198":-0.08786283873740659,"199":0.13829043119860915}},{"sx":5,"sy":5,"depth":8,"w":{"0":0.17712808705077282,"1":0.20627044684309634,"2":-0.1718788534422914,"3":0.17403973690195618,"4":-0.11284817678017126,"5":0.08617171678548428,"6":0.08978434576753222,"7":0.1069788453529464,"8":-0.140441895873625,"9":0.2518513700324603,"10":-0.10256256600346904,"11":-0.2964772081343026,"12":-0.2576579235096089,"13":-0.09506794524700724,"14":-0.27570551253957265,"15":0.11589204601830753,"16":-0.08629239045876404,"17":0.21929240017059823,"18":0.17911151651271728,"19":-0.1949496590031164,"20":0.0022898327661337904,"21":0.054810010499378954,"22":-0.24553350022476314,"23":-0.33499755913496443,"24":-0.044945709248346725,"25":0.11116186581477594,"26":0.0025270815111872397,"27":0.31029253057721023,"28":-0.19160799553876962,"29":0.2760324433177064,"30":-0.013155627899856246,"31":0.24142846390746023,"32":-0.031915076117211456,"33":-0.1434689440090833,"34":-0.27275292637618903,"35":-0.060730699751235295,"36":-0.16288447431393047,"37":0.04109954973114292,"38":-0.0331869707350709,"39":0.20954549311502,"40":0.3211569997548712,"41":0.1866579195477353,"42":0.12155433531744038,"43":0.0890685185321027,"44":-0.07229941131456154,"45":0.3943913581153538,"46":-0.2959069348555837,"47":0.07995388507739658,"48":-0.10038959694398628,"49":0.20657705464279244,"50":-0.2524630890708913,"51":0.3453740323834747,"52":-0.15330326177097237,"53":0.026791216449840307,"54":-0.3110710034367718,"55":0.46163655275369364,"56":-0.05579510377101648,"57":0.19296158132730576,"58":-0.08507890477804995,"59":0.10254169541561534,"60":0.012218163210968582,"61":0.06463981539416828,"62":0.07912584515299798,"63":-0.05423674705345017,"64":0.09080583190546593,"65":0.023820222933615007,"66":0.13765302679681712,"67":0.10943827721907595,"68":-0.3197839528093584,"69":0.13631657320808932,"70":0.44977264125665073,"71":-0.018704083420195743,"72":0.01095446872127603,"73":0.23103197525736713,"74":-0.05989892882520604,"75":0.05399204119275767,"76":-0.07101341105899214,"77":0.2740470198328981,"78":0.166861256415771,"79":0.0795604928980626,"80":0.27886543922688495,"81":-0.07586110649166498,"82":0.16930457752824002,"83":-0.20873525325194603,"84":0.20852503661185504,"85":0.16426529106702756,"86":-0.038166334616036385,"87":-0.17693247693315173,"88":-0.18837363513141994,"89":-0.14913558922593292,"90":0.3345490558306748,"91":0.37243208316439924,"92":0.2658066197144279,"93":0.2557821814507541,"94":-0.2549975019903315,"95":-0.08352053434127162,"96":-0.14735657602762176,"97":0.4567203564944598,"98":0.010997344188501335,"99":0.055258836268939605,"100":-0.02298682927157846,"101":0.01759943024130888,"102":0.15593362968983868,"103":-0.10321551038000444,"104":0.0860308064336964,"105":0.3742459101741781,"106":0.11889197137477352,"107":-0.18848364707083065,"108":-0.034998705277473174,"109":-0.05928839031167123,"110":0.29133704184730425,"111":-0.055296436797148046,"112":0.15133230192166572,"113":0.24530983724377892,"114":-0.21107595542098703,"115":-0.07346404231271318,"116":0.08211521222908333,"117":0.08186359243710044,"118":0.17895610685985444,"119":0.2039809559972564,"120":-0.09963337355045043,"121":-0.05496233118321293,"122":-0.04047577412770237,"123":-0.4098285234374577,"124":0.19051930737498526,"125":0.02113872472236254,"126":0.024711395092578334,"127":-0.25617104874020225,"128":-0.0944096573896343,"129":-0.04252443669352357,"130":0.1957962880999379,"131":-0.26412436217933777,"132":0.4203502360782108,"133":0.13714663600160787,"134":-0.3062120812779904,"135":-0.19329052624895532,"136":-0.1892830514534726,"137":0.06237380879925134,"138":-0.11194359287218082,"139":-0.27139795203929473,"140":-0.003456448025744986,"141":0.19833188245744496,"142":-0.2766529170613515,"143":-0.0828866851310311,"144":0.22237741576738335,"145":0.05407319997244567,"146":-0.1369054511747888,"147":-0.2767007213519667,"148":-0.3670770767759834,"149":-0.17356673998038863,"150":0.10220022004190608,"151":-0.11411770120736206,"152":-0.015548527461481202,"153":-0.11336498847689318,"154":-0.2673441448927492,"155":-0.04480765360756961,"156":-0.19989362982558173,"157":-0.12138729627656937,"158":-0.0012726651697780606,"159":0.07646202135399581,"160":-0.18588882357206132,"161":0.05591026643835732,"162":0.15174356798701644,"163":-0.04192368333452952,"164":0.012897075793066148,"165":-0.09942913238350319,"166":-0.17333957827468305,"167":-0.0432998460219433,"168":0.0529277476987441,"169":0.15920852481755882,"170":-0.06224760581250783,"171":-0.043492063985351034,"172":0.1853765119681976,"173":0.06867448578594165,"174":0.1112993227489392,"175":-0.06412252448940364,"176":-0.08312832011311169,"177":-0.029943649700116,"178":-0.21672202260405737,"179":-0.10291861228466734,"180":-0.20549697102046197,"181":-0.06008661729300265,"182":-0.012655864607409492,"183":-0.21727446617330065,"184":0.1202784104301143,"185":-0.13864680097128815,"186":-0.20439382973097459,"187":0.040391850405786967,"188":-0.2613404836466704,"189":-0.25124962750106505,"190":-0.009317913525936526,"191":0.013030267139337137,"192":-0.15428465949614115,"193":-0.05818970647088728,"194":-0.1489556808283715,"195":-0.06075684097350408,"196":-0.25332319674769793,"197":-0.18664003413953065,"198":-0.037739803362242086,"199":-0.1836971736784149}},{"sx":5,"sy":5,"depth":8,"w":{"0":0.29314841760487614,"1":-0.08602003034009609,"2":0.005294703893783823,"3":-0.11756135797051144,"4":0.05310929825578528,"5":0.1159917219409156,"6":0.15522423409369576,"7":-0.021680433784143974,"8":0.06074046795953639,"9":0.09610710286405036,"10":0.05917186888595213,"11":-0.04257962798570801,"12":-0.11167138700722273,"13":0.10349854443925235,"14":-0.08247750090935765,"15":0.19892657756264778,"16":-0.06659537455584676,"17":-0.09045022300749284,"18":-0.03574119224065069,"19":-0.1138974016386304,"20":-0.2118874816720952,"21":-0.14062918696821872,"22":-0.2806775411288443,"23":0.1577136668529661,"24":0.49020484324509817,"25":-0.10426140143334317,"26":-0.20598017254152257,"27":-0.15523609690502416,"28":-0.11657586659870017,"29":-0.2027618354525987,"30":0.3188002160992447,"31":0.05389660552200317,"32":0.43474806299067437,"33":0.055038077872632915,"34":-0.003764092353545347,"35":-0.06870813828814504,"36":0.013036362396507559,"37":0.02765694727591541,"38":0.3239573434957344,"39":-0.17873120578694693,"40":0.027457243062169078,"41":0.17987763029487797,"42":0.01144795300375,"43":-0.10730465042532707,"44":0.20945582364221013,"45":0.01886102239018167,"46":0.15610240246314228,"47":-0.09040626002011293,"48":-0.12407585664298554,"49":-0.04355593962190343,"50":0.03312581996917569,"51":-0.10784741603539212,"52":-0.08629139071249912,"53":-0.15981353858156336,"54":-0.006604478746030804,"55":0.19615158185928333,"56":0.009039514900419269,"57":-0.3578073877256685,"58":-0.3375103805415395,"59":-0.013626763638687818,"60":-0.14335333296769462,"61":-0.17715071339553562,"62":-0.02835243218464975,"63":0.14689312196440663,"64":0.17022275661435957,"65":-0.059521275372434373,"66":-0.20239721197069147,"67":-0.1449368295950515,"68":-0.07945878611616021,"69":-0.23107280369440447,"70":0.19407557078834975,"71":-0.07204277926061485,"72":0.24874078227653873,"73":0.14173352594287528,"74":0.1828371838549828,"75":-0.2512374407501814,"76":-0.017208663952884964,"77":-0.15582152645319292,"78":0.23714625386414317,"79":-0.07293203066355716,"80":0.07788417258773968,"81":0.435190570909019,"82":0.023775355393184417,"83":0.17744381949420607,"84":0.12745277744893685,"85":0.02697056470413501,"86":0.22873843736905736,"87":-0.07938002129224675,"88":-0.12644016256626123,"89":0.02960663141140403,"90":-0.11929497150994108,"91":-0.0833978405380996,"92":-0.15574469018339135,"93":-0.24207931856850912,"94":-0.06336853712941279,"95":0.14601379320321856,"96":0.08270050460284645,"97":-0.22885179902824632,"98":-0.285481171921764,"99":-0.01736789584591318,"100":-0.06601637693222617,"101":-0.13880208815632,"102":0.11908143422413897,"103":0.14160738709525064,"104":-0.11617715544258064,"105":-0.01487079383015038,"106":0.02585662565380583,"107":-0.10598299501351653,"108":-0.10286467356207636,"109":-0.17091379417658842,"110":0.2018642261232123,"111":-0.17235805071770924,"112":0.15805361328663672,"113":0.06312814124801042,"114":-0.08311925379491954,"115":0.04146075997963939,"116":-0.3007653165343532,"117":0.03795830470916688,"118":0.12549901429258867,"119":-0.0010518020760397337,"120":0.04999401781068491,"121":0.0325626043604813,"122":-0.16727850225490687,"123":0.13432308334248338,"124":-0.1717631473120499,"125":-0.02287559499359081,"126":0.10077816649021376,"127":-0.1924688671875079,"128":-0.11098135791252958,"129":-0.026586769927550925,"130":-0.2262158635350697,"131":0.21054288427726986,"132":-0.2130852766185807,"133":-0.07424066985123616,"134":0.2089369966193002,"135":0.23113916644811233,"136":-0.010367942214902347,"137":-0.0073974424346817565,"138":-0.051756734244105776,"139":0.18253423852767545,"140":-0.14850527451259296,"141":-0.1505583765500362,"142":0.20430365131924727,"143":0.0914511701282559,"144":-0.1799278017222204,"145":0.024242467564104322,"146":-0.19485639586160972,"147":-0.034490832594681005,"148":-0.17746419060279756,"149":-0.07686251902462082,"150":0.026497760139518385,"151":-0.14897577839997422,"152":0.09641623917154654,"153":-0.3264746198667614,"154":0.045264329553371216,"155":-0.13832995845435472,"156":0.021613042110710867,"157":-0.09820462762554678,"158":0.09645762616191157,"159":-0.15476935555837498,"160":-0.07495572828908825,"161":-0.1880110086686849,"162":-0.1230133740240866,"163":0.20680127675769056,"164":-0.04829118488534166,"165":0.009774770551432381,"166":0.18139151086888125,"167":-0.21761617065558259,"168":-0.19964122528125502,"169":0.29110507708831684,"170":-0.13781080384474986,"171":-0.022208660672501362,"172":0.06923497593003196,"173":-0.10658724144553261,"174":0.14867198112985908,"175":-0.2162575051214681,"176":-0.15890310156999982,"177":-0.004464646470485911,"178":0.1391901357348752,"179":-0.08062062272599073,"180":0.010582523228326911,"181":0.11648383182331393,"182":-0.041582802635432195,"183":-0.020566518814740316,"184":-0.14038530801695,"185":-0.03683177732320183,"186":0.08128475965614851,"187":-0.3685818712019523,"188":-0.24669851263465278,"189":0.10186065311716985,"190":0.048335938246796877,"191":-0.28246818687077463,"192":0.1130467264950725,"193":-0.1570793700317319,"194":-0.003332717667722052,"195":-0.2647967422830567,"196":-0.030449326707807884,"197":-0.20485806959007155,"198":0.03764256050719118,"199":-0.0362348181407993}},{"sx":5,"sy":5,"depth":8,"w":{"0":-0.038580055076582805,"1":0.09461414161253086,"2":-0.040068210183708826,"3":0.3060197502697658,"4":0.17512273927093122,"5":-0.12131940546396373,"6":-0.24326844899191186,"7":0.17760215807899457,"8":-0.0326454218672058,"9":-0.002668639824819366,"10":0.26019355876545197,"11":0.06192896395595528,"12":0.35343730227223746,"13":-0.0014767185307490059,"14":-0.11846664837951972,"15":-0.06844363288653853,"16":0.01905219086181409,"17":0.06549403661915083,"18":0.22652931326406614,"19":-0.1808096575488101,"20":0.32135364564227836,"21":0.10385766107202402,"22":-0.12327130974149471,"23":-0.1632999068735107,"24":-0.015761402189492516,"25":-0.022579420698332756,"26":0.006272235615808657,"27":-0.1636709233309201,"28":0.1497685728108279,"29":0.04126487324311659,"30":-0.18779942708271316,"31":-0.062210532690955056,"32":-0.07798404002571925,"33":0.06464869004243598,"34":-0.1688556747787435,"35":-0.04437698500487041,"36":0.13397462066445331,"37":-0.023857385175875927,"38":-0.2286444314624563,"39":0.008853424007929805,"40":-0.00873907360259257,"41":-0.021075472420020936,"42":-0.1371114438061476,"43":0.3070055803161253,"44":-0.0008362053193044897,"45":0.07552214356830833,"46":-0.13559048144387323,"47":0.2578530428759995,"48":-0.09936979282437429,"49":-0.22556433808443074,"50":-0.20686093886662416,"51":0.3962382474364661,"52":0.02735504646544772,"53":-0.19712248712239963,"54":-0.20583147568527424,"55":0.2713240460907878,"56":0.010709620508423267,"57":-0.14274614052373547,"58":-0.30578269826754145,"59":0.13141463308393386,"60":0.03366766094352109,"61":-0.1332427502686488,"62":-0.2127054399186276,"63":-0.07572073839622175,"64":0.022069072631725542,"65":-0.12057717687256826,"66":-0.2056835978573136,"67":-0.12118572801787215,"68":-0.02225639610859149,"69":-0.11620541819266397,"70":-0.009441216059041696,"71":-0.20095761846671395,"72":-0.053821755833595566,"73":-0.13410124808347812,"74":-0.1693331983205072,"75":-0.15895803147429372,"76":-0.09704850681207933,"77":-0.13642751942986106,"78":-0.24176908099803396,"79":-0.09150693543702287,"80":0.07864701636879276,"81":0.036802866194347535,"82":-0.18020940645752537,"83":-0.08758707485537226,"84":-0.08353609384469216,"85":0.11033357345735251,"86":0.13873605924542262,"87":0.03784559168547234,"88":-0.028463647791406445,"89":0.026209591457281904,"90":-0.2321588794602525,"91":0.11059625854579772,"92":-0.14549172094022167,"93":0.14500411838026814,"94":-0.29884897126529597,"95":0.284147580243988,"96":-0.02101593722291295,"97":-0.273169773551637,"98":-0.08180859797168794,"99":-0.23460919757363063,"100":0.0048969541108103,"101":-0.0952978742087776,"102":-0.11647913560829842,"103":0.30835678801753946,"104":0.05460652364511676,"105":-0.14724756453990664,"106":-0.058632344228486497,"107":-0.19421029747285903,"108":-0.04489156187602413,"109":-0.039028413410662904,"110":-0.06361031410444626,"111":-0.14208455869163156,"112":0.11746113830243837,"113":0.04205107755902467,"114":-0.13622556953351075,"115":0.060025699829634925,"116":-0.043619678453665926,"117":-0.044071150280606784,"118":-0.03709737839895827,"119":-0.05924474523237679,"120":0.089016772589912,"121":0.41370160369314046,"122":-0.034269944097664914,"123":-0.28143518274570833,"124":-0.1520782041669295,"125":0.08625413003841964,"126":0.0881384281627151,"127":-0.21293511088846148,"128":0.03216472837294582,"129":0.07215633696210384,"130":-0.08646544001749028,"131":-0.2658516116670843,"132":-0.14923063239762066,"133":0.037694644197812745,"134":0.10357384042252757,"135":0.16098530217922624,"136":0.16142235780997735,"137":-0.1641114444483895,"138":-0.09542209798803382,"139":-0.18858515509854343,"140":-0.04040064101698,"141":-0.055868721230488104,"142":-0.031140133588194008,"143":0.0752646268648874,"144":0.05339946587662302,"145":-0.07577021216418012,"146":-0.19919356415461692,"147":-0.1250858243793552,"148":-0.038050260617340466,"149":-0.05243093916137424,"150":-0.13404295961308865,"151":-0.1405582835379764,"152":0.03765841356254589,"153":-0.08220643746866216,"154":-0.18509069625395544,"155":-0.004455741482014755,"156":-0.0607633254483763,"157":-0.15420174838271536,"158":0.25258955860909627,"159":-0.18010244361203046,"160":0.0875786409145475,"161":0.1978909552355352,"162":0.14704401663912262,"163":-0.18409009552728772,"164":-0.16462316107870192,"165":0.19237606881392327,"166":-0.24037221059274724,"167":0.1509600463687039,"168":0.11680226254194667,"169":0.036480321195007256,"170":-0.0026871033399763385,"171":0.014698581833183191,"172":-0.036820204673170584,"173":-0.045108777975044784,"174":-0.021597548762214907,"175":0.13259310750852848,"176":0.09309482485875181,"177":0.03558494646840557,"178":-0.08534509990795841,"179":0.15411010357897337,"180":0.03886400374614122,"181":-0.01839977357202759,"182":0.26197970797786896,"183":0.18049444879940524,"184":0.13838270115141457,"185":-0.06391652381425122,"186":-0.2274276131224975,"187":0.4124203726985489,"188":-0.1440475346240966,"189":-0.024352337184630386,"190":0.24566975577464653,"191":0.011927911388535602,"192":0.02951162580753803,"193":0.03292902945241077,"194":0.007068512969049399,"195":0.126425913882412,"196":0.0003734056168622031,"197":0.02844436195227965,"198":0.3922511361964667,"199":0.002905733563642734}},{"sx":5,"sy":5,"depth":8,"w":{"0":-0.10317420145677812,"1":-0.13029025916494896,"2":-0.12131578435500101,"3":0.16360485632421315,"4":0.15256536494103667,"5":-0.13396182884602542,"6":0.05770612959295279,"7":-0.06714292906990274,"8":-0.0929922695066184,"9":-0.09479507541258235,"10":0.22720605991780102,"11":-0.10688805120986167,"12":0.18216839907686724,"13":0.04414072618506129,"14":0.042270464463876535,"15":-0.26532303374051197,"16":-0.03442577255225804,"17":-0.07039907286292693,"18":0.088992625325713,"19":0.03194246939294654,"20":-0.08077911785830773,"21":0.13926138390947765,"22":0.14451076346390682,"23":-0.06131054478296036,"24":-0.14558055033624562,"25":-0.13324105281061444,"26":-0.19103476762626653,"27":0.1556283247460356,"28":-0.1884064444306448,"29":-0.05793194665315229,"30":-0.10789997971004756,"31":0.11102896787643544,"32":-0.013742845759148699,"33":-0.01239127505616999,"34":-0.11016814100870667,"35":0.17533176747231344,"36":-0.014074251435491,"37":-0.08980026150191896,"38":-0.08176657970806384,"39":-0.011678087004173552,"40":-0.07750091701162286,"41":-0.022741832057516446,"42":-0.06456856226231844,"43":-0.18826775215393587,"44":-0.052126844458547233,"45":-0.05938191708251356,"46":-0.0651009542331773,"47":-0.11522941319246661,"48":0.0105221761488358,"49":-0.02685205920028005,"50":0.04309982110184449,"51":-0.08869192897881706,"52":0.10803248922391337,"53":-0.03202230094361525,"54":-0.026113542478908576,"55":-0.11732422090319383,"56":0.1902618034804679,"57":-0.2171831289337441,"58":0.27164034123773373,"59":-0.24854638840669915,"60":-0.17674338126265837,"61":0.11868006431938885,"62":0.34518561671783,"63":-0.16775060803181494,"64":-0.061086266620170235,"65":0.1027550369567729,"66":-0.25809195260827106,"67":-0.11481693761092192,"68":-0.19233315617062113,"69":0.09355658165280618,"70":-0.13697331378797786,"71":0.002733713499073429,"72":-0.0011932649011739123,"73":0.009750062481538908,"74":-0.12292776647688572,"75":0.10845684580294096,"76":0.00044605962286254513,"77":-0.0512300947399892,"78":-0.16624095598081065,"79":0.3907173226520434,"80":-0.19125886531423322,"81":-0.10465014899752319,"82":-0.020871485554861062,"83":0.06313092573822929,"84":0.009704580128872984,"85":-0.03464971681347899,"86":-0.16200012705987665,"87":0.14145304388742871,"88":-0.04476502445513435,"89":-0.010883092297362965,"90":-0.08039739882572719,"91":0.044379274635861866,"92":-0.09792328787489732,"93":-0.003501393944696902,"94":0.07057186402643413,"95":-0.0642566338924686,"96":0.15703670535730704,"97":-0.07360764822035505,"98":0.06309367355328338,"99":-0.04228221319084179,"100":-0.18488507963672118,"101":-0.0934612655279283,"102":0.3945136623355759,"103":-0.1375057430390834,"104":-0.15169515534790562,"105":0.450137391037531,"106":0.0406218713953868,"107":-0.14121311925150778,"108":-0.1270580797127637,"109":-0.046278126238379694,"110":0.16875863718083123,"111":-0.15878339685081308,"112":-0.11038351012401479,"113":-0.024624119477322997,"114":-0.09571724338105084,"115":0.07219785114473051,"116":-0.19892320702023722,"117":-0.07538895079934387,"118":-0.16718253750194823,"119":0.35416449021978536,"120":-0.3446643176259622,"121":-0.055773113841436135,"122":-0.17158897813070895,"123":0.22971523810988068,"124":0.03558355799476089,"125":-0.053947795571254675,"126":-0.12974292287892855,"127":0.0358006341474176,"128":-0.16109557392873064,"129":-0.009899933702818301,"130":0.04854189743489142,"131":-0.05917373527681125,"132":0.013469338298848204,"133":-0.11674534546010187,"134":0.052986137575199044,"135":-0.08169073368292377,"136":0.0770358029333821,"137":0.27442768218660646,"138":-0.02867703998413031,"139":-0.213849730130571,"140":-0.056636847349069555,"141":0.0018260692105764224,"142":0.25794804815443456,"143":-0.11255101602406124,"144":-0.13313320873439788,"145":0.17011164336163448,"146":0.12427660260674014,"147":-0.1565926225772806,"148":-0.0254062171217291,"149":0.023830204822055348,"150":-0.13427684685263136,"151":0.22099606059822455,"152":-0.05298730655032695,"153":-0.17679063345156287,"154":0.2657891907953328,"155":-0.26926431598857775,"156":0.055214469190247896,"157":-0.0012998432281521428,"158":-0.15334219706200328,"159":-0.03804399561735643,"160":-0.14586415051217175,"161":0.2129316292368078,"162":-0.14990269336127804,"163":0.032467347651991774,"164":-0.21375718948745623,"165":-0.07434229527622563,"166":-0.28159553421154515,"167":-0.10854451269638585,"168":-0.03137852753869479,"169":-0.09844871160380904,"170":-0.0698006167289522,"171":-0.10607120672649613,"172":-0.1708336373922183,"173":-0.07068000661976022,"174":0.15621995345058307,"175":-0.025455793917470333,"176":-0.02785204403062039,"177":0.34226611289264397,"178":-0.08168154348862859,"179":-0.052280716479908784,"180":-0.09024955606454019,"181":0.0035320260093013246,"182":-0.10123695047221479,"183":0.12354204366836358,"184":-0.10027483015328081,"185":-0.19744671592874471,"186":-0.0455311079156127,"187":0.1671420711298648,"188":0.146024855273623,"189":-0.029280839201423752,"190":-0.22475342800021625,"191":0.4623930330340125,"192":-0.20531945106452884,"193":-0.013973548508418967,"194":0.22823450131183576,"195":-0.06929828964240455,"196":0.269344919425697,"197":0.09285944801884533,"198":-0.07749008982430051,"199":-0.16767406183193592}},{"sx":5,"sy":5,"depth":8,"w":{"0":0.2005009650364825,"1":-0.22268247056790158,"2":-0.015299918939235607,"3":0.053924049127907776,"4":0.05819639124721627,"5":-0.11170843667756211,"6":0.03397269446536306,"7":0.17723283339740556,"8":-0.10456693936906737,"9":0.23022825056998347,"10":-0.1730698098566344,"11":-0.12426582799822036,"12":0.020648719954258238,"13":0.07189920623951758,"14":0.048977479724470446,"15":-0.06785813523673667,"16":0.2671267432017222,"17":0.26678158997323265,"18":-0.04346558915113259,"19":-0.1412279043623812,"20":0.07709814338203493,"21":-0.2967572012007098,"22":0.2559147676567295,"23":0.07810887460092336,"24":-0.08891528112465234,"25":-0.04503383532162214,"26":-0.16031695001413246,"27":-0.0037506428029479167,"28":-0.08332966539621488,"29":0.02152011431331381,"30":0.3417435588530443,"31":-0.132172941882408,"32":-0.05450596243092884,"33":-0.09211305612165421,"34":-0.10845392894353016,"35":-0.0682793272207178,"36":0.0678634096265818,"37":0.09733013305802143,"38":0.20495729084951775,"39":-0.39083440722053675,"40":0.09268554224421435,"41":-0.07965270427527611,"42":0.17344886528340966,"43":0.45312959012899134,"44":-0.06254979817087282,"45":0.08271343592663202,"46":0.015899038505575527,"47":-0.08631530997736564,"48":-0.0021932017476811155,"49":0.3240549485023722,"50":0.00814348288944483,"51":0.06372163688898161,"52":0.05974733821674297,"53":-0.052322015641972745,"54":-0.24797368873034703,"55":0.03273969849525814,"56":0.4358494592564599,"57":0.041977491829257134,"58":0.12846521702215868,"59":-0.03774602455047633,"60":0.01208049174401925,"61":-0.20024690921524183,"62":0.27954704691238186,"63":0.01011046404420732,"64":0.14003036664877608,"65":0.3367361931785176,"66":0.036242133479779455,"67":-0.33895830137251665,"68":-0.1665584856057527,"69":0.03258447564671155,"70":0.30914830501999957,"71":-0.009365558671604567,"72":-0.02516677933222297,"73":0.07508174242389093,"74":0.2617608675379558,"75":-0.10201971816206898,"76":-0.15978783159349932,"77":-0.08512438459096051,"78":0.07437298781503197,"79":-0.38053660395201844,"80":-0.006969164119892275,"81":-0.03155383555599358,"82":0.2513144144041112,"83":-0.5541674994753663,"84":0.2893037558595995,"85":0.17904945533807123,"86":-0.12377248595036942,"87":-0.24343673561750326,"88":0.14112731903356132,"89":-0.04469496541270155,"90":0.10893644509139205,"91":-0.312278381670576,"92":0.013557345255262098,"93":0.17673475008275752,"94":-0.06677428413718935,"95":0.0699379540803087,"96":0.18507032637812534,"97":-0.0009317843255493383,"98":0.12601980511942787,"99":-0.3854792587687212,"100":0.2871861821663275,"101":-0.03203785866497883,"102":-0.02610428392365945,"103":0.11362387990792192,"104":-0.0010245079604529709,"105":-0.019738939180335504,"106":0.271933021628984,"107":-0.2589501305978153,"108":0.16490984985756174,"109":-0.0013742922325847848,"110":0.0026573008854384166,"111":-0.07412822334971218,"112":0.025372663800620858,"113":-0.2764094821638344,"114":0.04457633428732066,"115":-0.43483998143451746,"116":0.022633521967732245,"117":-0.15398765207759207,"118":0.023978637997383034,"119":-0.1352220944408013,"120":-0.023593072302469487,"121":-0.13244434765282734,"122":-0.2460966731605157,"123":0.15936389461807737,"124":-0.006657678265178005,"125":-0.26516419475816744,"126":-0.17108324051827373,"127":0.07815036393395085,"128":-0.03753641025318939,"129":-0.36755472143833584,"130":-0.10738828918943814,"131":0.14190019411321284,"132":0.27370115866685546,"133":-0.10376137538797069,"134":-0.16693366473927096,"135":-0.014446461014634846,"136":0.022439403633969995,"137":-0.14233809341367934,"138":0.056438535495536936,"139":0.32223797341250393,"140":0.31580019559540135,"141":0.13103509689540996,"142":-0.2704266820175472,"143":0.0400276264625003,"144":-0.1707744443472657,"145":-0.14168427384366575,"146":0.17760179818568744,"147":0.007310040691775699,"148":0.1911881620714302,"149":0.02064544369423615,"150":-0.013284349745115215,"151":-0.12415855717621502,"152":-0.3196299812848251,"153":-0.020071599805944966,"154":0.04525295431718678,"155":-0.3047344779886465,"156":0.08665191046096825,"157":0.011242977926806211,"158":-0.12625364734333708,"159":-0.22000330640026278,"160":0.1843297501411466,"161":-0.08652846020653161,"162":-0.36263766582346757,"163":0.34881272685248615,"164":-0.19704359110356237,"165":-0.30258073270792474,"166":-0.007655624925325465,"167":-0.17598563935318812,"168":0.027232738706964736,"169":-0.10884139925983048,"170":-0.27295921691750974,"171":0.14373724511737146,"172":-0.07921262819273901,"173":-0.2949102604146782,"174":0.24166359232286813,"175":-0.25401733851520997,"176":-0.16606769526033116,"177":-0.05953339687426027,"178":-0.217143650278088,"179":0.40843097625549163,"180":-0.07978903333226525,"181":-0.2661241375922823,"182":-0.1514078435062148,"183":-0.33073411814390397,"184":-0.21914670078754983,"185":-0.06051344531340001,"186":-0.21684230799533574,"187":0.5806174149965416,"188":-0.1224500771905636,"189":-0.29710224217475656,"190":-0.10355605475929419,"191":-0.17967992099997263,"192":-0.14684226817365684,"193":-0.2187791911041706,"194":-0.2546879068902599,"195":0.43522883722625666,"196":-0.1625376737300625,"197":-0.19760337406403647,"198":0.10159951520859452,"199":-0.055692805091890646}},{"sx":5,"sy":5,"depth":8,"w":{"0":0.25119305902059563,"1":0.047331613742720643,"2":0.015943918031934224,"3":-0.3310674431373737,"4":-0.15179909606387246,"5":-0.0744379693948401,"6":0.033317005161436944,"7":0.1452846897980667,"8":-0.0370932973411685,"9":-0.1490661219572821,"10":-0.1872038367067261,"11":-0.22540911295976745,"12":-0.15446308424610658,"13":0.040210400489551205,"14":0.1326833976610272,"15":0.09286188216137824,"16":0.20933759909048769,"17":-0.12036319387984865,"18":-0.30184637941213127,"19":0.03265695993460893,"20":-0.05620681814983688,"21":-0.04244634804873288,"22":0.030175283999950456,"23":0.019672159400594254,"24":0.2059125426713711,"25":0.16475668077739916,"26":-0.22997521721767356,"27":-0.06109684499658,"28":-0.010134126121018815,"29":-0.1405155385628681,"30":-0.11490938630828681,"31":0.09609795379287481,"32":-0.05599662588554975,"33":0.1915558574325519,"34":-0.08280523601058724,"35":0.14249874263698198,"36":0.041884272566359286,"37":-0.11064972450633973,"38":-0.13028579779575944,"39":-0.021969027619897948,"40":0.08689388133039824,"41":-0.20207498508768856,"42":-0.08288954841306702,"43":-0.14897681196201246,"44":-0.2028991665823864,"45":-0.06868331116546254,"46":0.13240603408211116,"47":0.08230580551856516,"48":-0.05399025133872392,"49":0.0871600177214517,"50":-0.21565097661275578,"51":0.08797961919978148,"52":-0.1420083360501818,"53":-0.14849831639081917,"54":0.04607709564925025,"55":-0.12918258066697091,"56":0.07510914432881695,"57":-0.019579359552035082,"58":-0.21830590756763926,"59":-0.03598436088066451,"60":-0.029618667954471815,"61":-0.1655890383974878,"62":0.2015734104473781,"63":0.06926006201555049,"64":-0.027186930040536853,"65":0.03311414846759635,"66":-0.19233347566665013,"67":0.24681349388605398,"68":-0.13189169466192027,"69":-0.02193213144916365,"70":0.19040352584433798,"71":-0.01251154886134537,"72":-0.0685855022110511,"73":0.03582992547451837,"74":-0.11850823522072845,"75":0.6397640365806899,"76":-0.2201624151953065,"77":-0.013742429368966975,"78":0.08401556605664547,"79":0.0072043875967584044,"80":0.07022012428466606,"81":-0.0027789852583098924,"82":-0.010958590293942657,"83":0.07579792009384809,"84":0.12716229516310895,"85":-0.00424276086469617,"86":0.07613588758260333,"87":-0.05585691238109424,"88":-0.18152161647044304,"89":0.07861272754702205,"90":-0.3259047005249093,"91":0.31610839176140226,"92":-0.14390015237554302,"93":0.06649756296081195,"94":0.022992238140393816,"95":-0.1993639305214249,"96":-0.18334989118807662,"97":-0.005670179717781552,"98":-0.28094959298236905,"99":0.4882280695012246,"100":-0.18535248691340578,"101":-0.1272407861533393,"102":0.08952686103988404,"103":0.11131017877823104,"104":-0.03333148315033782,"105":0.06646072046515292,"106":0.09981936531063933,"107":0.2992662240318615,"108":-0.03667206282547141,"109":-0.19062261575975017,"110":0.16217872542595152,"111":-0.24439114178588914,"112":-0.06380829644400575,"113":0.15083241256618868,"114":0.14468006910540404,"115":-0.05438481334212663,"116":0.286931394281976,"117":0.01979063955016383,"118":-0.17524584529380818,"119":-0.09683574304414415,"120":0.11248588047235271,"121":-0.0038406148367382564,"122":-0.0794307014140405,"123":-0.12269376365837634,"124":-0.16438541868892034,"125":0.06969859629369234,"126":0.11243688086372915,"127":-0.12024111496763865,"128":-0.1472526081590448,"129":0.11017666122187127,"130":-0.03110797480845379,"131":-0.20408732791304596,"132":-0.39436798174316195,"133":-0.0990667517336186,"134":0.2513419520299393,"135":-0.15823697843979767,"136":0.009263186788168587,"137":0.28251498936731034,"138":-0.18630793735127815,"139":-0.24162075425687052,"140":-0.22348869938917715,"141":-0.06288530884903776,"142":0.007965053004692605,"143":0.00642671557239727,"144":-0.06226342150927474,"145":0.1032048478765997,"146":-0.25678425274633326,"147":-0.18180535544779555,"148":-0.1778553263119919,"149":-0.08539759125113883,"150":-0.2661485843601219,"151":0.2167465390436387,"152":-0.10481695181090975,"153":-0.17164769859186574,"154":0.019736196836113183,"155":-0.005163960708344308,"156":0.047656242853795244,"157":-0.03144029133143596,"158":-0.062084002311884365,"159":0.12622153358922336,"160":0.08301189497198928,"161":-0.08806303970938396,"162":-0.06772031354488496,"163":-0.40081436352771793,"164":-0.20682917423016467,"165":-0.11313492454153007,"166":0.19904997516761028,"167":-0.13462721649517898,"168":-0.2373183109421183,"169":0.22066702994540796,"170":0.051519481824412225,"171":-0.22662675205546534,"172":-0.1966492592165728,"173":0.1559347910069442,"174":0.08132894403327341,"175":-0.07873256185210607,"176":0.017880705912946437,"177":-0.2867620614513195,"178":0.2427236318340566,"179":0.18361836945179022,"180":-0.23015570517239503,"181":0.07487592063858207,"182":0.07050718721966273,"183":0.19592989443750364,"184":-0.12219326752961267,"185":-0.10763836359010076,"186":0.00988448371996752,"187":0.015537882921060408,"188":-0.04062229387676603,"189":-0.08612605940931206,"190":-0.07305262559421645,"191":0.1438691638515863,"192":-0.2346734245435236,"193":-0.011761083164088248,"194":0.22265844366899046,"195":-0.0866562299816083,"196":-0.04854370991324791,"197":0.030083947109642382,"198":-0.34975720560232537,"199":-0.2295292277354859}},{"sx":5,"sy":5,"depth":8,"w":{"0":0.07456048438879638,"1":-0.12665499421831408,"2":-0.08781035694502158,"3":-0.1827264456944321,"4":-0.18324761644437104,"5":0.060081514801525626,"6":0.15896429688943714,"7":-0.09982754160366254,"8":0.11333328826828377,"9":-0.09522987966664281,"10":-0.018073321826306596,"11":-0.12995617028989512,"12":0.03648529225334988,"13":0.01144786261898252,"14":0.05039301830167985,"15":0.22225800729227443,"16":0.05024524057793271,"17":-0.2170215011997603,"18":0.346860881696077,"19":-0.041749267375213145,"20":0.06404561635521519,"21":0.08244483592792325,"22":-0.08519476645178116,"23":-0.1107883106582659,"24":-0.10352740754809542,"25":-0.06912143769079979,"26":0.4986778669872054,"27":-0.1901230945471342,"28":0.16348335098523067,"29":0.20757504751836736,"30":-0.06492704454861042,"31":-0.17027508255953777,"32":-0.11347209221399991,"33":0.030650653230725515,"34":0.21736167405760173,"35":-0.016359083841543897,"36":0.08063459575670444,"37":0.1685828524649042,"38":-0.14723477404020466,"39":-0.049697648522586256,"40":0.12042255019051941,"41":-0.024472450475122122,"42":-0.04109446338480752,"43":-0.004750448996811744,"44":-0.045648054616184104,"45":-0.017488732751664963,"46":0.0267509424171087,"47":-0.04833239260397831,"48":-0.008402543123779473,"49":0.08189884925639512,"50":-0.21654211795466888,"51":0.23231998226801764,"52":-0.03197483796517053,"53":0.06872892010025643,"54":-0.03892229394093951,"55":0.04304306933663372,"56":-0.05537107870523629,"57":0.03214675476821519,"58":-0.018912103010938333,"59":0.23687621708272433,"60":0.05590686199899085,"61":-0.028709704875654784,"62":-0.2286349309045517,"63":0.18612463724058395,"64":-0.0739720510730063,"65":-0.15160552288870915,"66":0.147311553266244,"67":-0.03110518498745962,"68":0.1917567603886283,"69":0.06454870774595219,"70":-0.061624460664804113,"71":-0.16485095778694528,"72":0.18010598521789586,"73":-0.22899041514606588,"74":0.21705409809299894,"75":-0.3460927300344767,"76":0.19403376519845758,"77":0.038721683170168386,"78":0.03365669455554104,"79":-0.23913260204909995,"80":0.016164991495746635,"81":-0.17223144224629247,"82":0.14911596167529417,"83":-0.08697227124690725,"84":0.1746740918963233,"85":-0.0166770387284317,"86":0.11360630365524892,"87":0.034362595307116536,"88":-0.07841756399630376,"89":-0.06790277132917169,"90":0.1501916961405015,"91":-0.044322014574508566,"92":0.026642925397506612,"93":0.14429491965355903,"94":-0.09441314691015384,"95":0.0663497149047026,"96":0.023561125854629193,"97":-0.1743416047169182,"98":-0.17749586801396525,"99":0.055424929205956555,"100":-0.017070072017629296,"101":0.002600260299648574,"102":-0.09498700676656194,"103":0.1966864059671995,"104":0.25152130857813987,"105":-0.03481222325144047,"106":-0.23625741593596666,"107":0.14701927374282991,"108":0.04465188027963905,"109":-0.10144788385145333,"110":0.07131580891358509,"111":0.19967420940794323,"112":0.13619556987459105,"113":-0.016035381446311343,"114":-0.12853421993304423,"115":-0.11339559179233756,"116":0.1570829397479246,"117":-0.017894300278644762,"118":0.1114629454773329,"119":-0.2364236437842929,"120":-0.024506243295859508,"121":-0.08627005300295279,"122":0.05262313465074416,"123":-0.1565170338872397,"124":0.05515468893077539,"125":-0.07734997351456928,"126":-0.07333888037288501,"127":-0.09533388731661027,"128":-0.006575363910539283,"129":-0.03165612814640602,"130":-0.04590283216763864,"131":-0.1372330527702355,"132":0.10946771860181993,"133":0.10442333887499446,"134":-0.006204742909150291,"135":-0.01399050727416303,"136":0.10108717395599545,"137":-0.03358921034388874,"138":-0.190929641418785,"139":0.11798974598779848,"140":-0.19949500891286528,"141":-0.052834229958979906,"142":-0.04094446847464402,"143":0.12409280483811072,"144":0.13355408592197965,"145":-0.0180400582212537,"146":-0.2725424749695135,"147":0.0032306526364662565,"148":-0.1105473655095616,"149":-0.09329172606122693,"150":0.284903071411125,"151":0.16183645337241476,"152":-0.03626362629288184,"153":0.17131330755907054,"154":-0.1145300148002807,"155":-0.2082066000986154,"156":-0.0214965120813148,"157":-0.15466395165300115,"158":0.1258200971014921,"159":0.027520082520394867,"160":0.2038380584676915,"161":-0.1800340465271273,"162":-0.0860715593183335,"163":-0.06795870843092842,"164":-0.2064872339260763,"165":-0.09085095469762297,"166":-0.07747864489365477,"167":-0.10315981771254362,"168":0.21659539189203536,"169":-0.008056585764287576,"170":-0.22733235228446155,"171":-0.0580717395600988,"172":-0.17947953643956635,"173":-0.03716855903743324,"174":0.08026655686475777,"175":-0.2570561244442042,"176":0.10247740023010168,"177":0.06839682526754844,"178":-0.24973761295502858,"179":-0.0715025459004816,"180":-0.12636591577290723,"181":-0.07503447541095407,"182":0.21390055214267029,"183":-0.17097628016539299,"184":0.1493570306598498,"185":0.1707656314286238,"186":-0.19469071776556496,"187":-0.1283304573491531,"188":-0.21966588578038643,"189":-0.034366100560252126,"190":0.08960856069739599,"191":0.0995233077805002,"192":0.11240311435034901,"193":0.14011953365026666,"194":-0.17240377810320054,"195":-0.264315313290453,"196":-0.10129345225219064,"197":-0.08258595965686258,"198":-0.08816272720374527,"199":0.13240510396492536}},{"sx":5,"sy":5,"depth":8,"w":{"0":0.0391765942451633,"1":-0.017743031114687828,"2":-0.05841549677989982,"3":0.22647074259526875,"4":-0.08399130757793583,"5":-0.060071537325006426,"6":-0.022604305282233086,"7":0.12503745872596408,"8":-0.14048682008060637,"9":-0.09311883288395391,"10":-0.18117337464764563,"11":0.22051003303010233,"12":-0.22827455315467915,"13":-0.10446315679473096,"14":0.020993696721949597,"15":-0.03835637262104553,"16":-0.0234941683926293,"17":0.04342245728755044,"18":-0.15631314324866127,"19":0.04548190527882471,"20":-0.1373836498321147,"21":-0.14722942991343632,"22":0.23562598087537875,"23":-0.16651088906945638,"24":0.03476956085790081,"25":0.2634125785285092,"26":0.012149582289180354,"27":-0.21521449576496965,"28":-0.0317349298696956,"29":-0.16253637089707587,"30":0.17839608664906628,"31":-0.0688471730881559,"32":-0.11311342172005763,"33":0.20609312479034989,"34":0.19384484259809973,"35":-0.21355302221511488,"36":-0.025836960412870924,"37":0.11753401337867338,"38":0.06848627720995513,"39":-0.07970499841414481,"40":0.12072666457207373,"41":0.07153536508521392,"42":0.02158826220094271,"43":0.04222052805515184,"44":-0.026732728163318807,"45":0.05850864640610186,"46":0.25041416551406503,"47":0.13789909148354196,"48":0.06829726639106412,"49":-0.02067292466056018,"50":-0.06193039355233209,"51":-0.09784086706662176,"52":-0.15508010389300356,"53":-0.05029767160390057,"54":0.14564479423357027,"55":-0.044499596272774396,"56":0.0004645383448159935,"57":0.3260564316652015,"58":0.16548452674700667,"59":-0.34512565642818865,"60":-0.24024900265886792,"61":-0.014150498685293472,"62":0.19767210143166566,"63":-0.16175610953601754,"64":0.053639098007462686,"65":0.21602560102779167,"66":0.054960937501302654,"67":-0.1890876805688831,"68":-0.26544709781359044,"69":0.05441092117216918,"70":-0.23608791135946602,"71":0.10244100899844129,"72":-0.12661936248818137,"73":0.07649717116617816,"74":0.2613757343910067,"75":-0.24636515642313978,"76":-0.04111300658527543,"77":-0.0194643167507331,"78":-0.057426133503453936,"79":0.03963242391139762,"80":0.1879043566477905,"81":-0.014012267285002674,"82":-0.23830130626974244,"83":0.07803454090610341,"84":0.017484911678401775,"85":-0.1425659997886796,"86":0.2132366780628518,"87":0.14421387362828456,"88":0.21024211946697258,"89":-0.00703052849595442,"90":-0.22795644279851454,"91":-0.06281772428401414,"92":-0.18247187053716363,"93":-0.05810378775776646,"94":0.36638039881839746,"95":-0.057517088783505636,"96":0.11034897640928838,"97":-0.047158906528251915,"98":-0.19575986937991507,"99":-0.005720280033083744,"100":-0.017079061221735584,"101":-0.07850330373180137,"102":0.008500103464156215,"103":0.03646649060907668,"104":-0.04443149748624028,"105":0.1356728879539099,"106":0.059794216250656854,"107":0.4911890652398978,"108":0.15036436292458752,"109":0.09876473381186192,"110":-0.09153725957760034,"111":0.12414217008460941,"112":-0.1946708365592709,"113":0.16055166285078437,"114":0.027312283510373063,"115":0.3030461533153858,"116":0.08766422730696954,"117":0.12192069867820586,"118":-0.1986064572134642,"119":0.22827892673158282,"120":0.008698962318656533,"121":-0.006587223661520446,"122":-0.31245891490365035,"123":-0.02551831297443106,"124":-0.21982082602692762,"125":-0.041304624654889724,"126":0.1761429042687879,"127":-0.1067655420544006,"128":-0.05793223475865144,"129":-0.24775887091240698,"130":-0.0238268896372492,"131":-0.04854303909474999,"132":-0.11778454485652402,"133":-0.06428567936024762,"134":0.04217331111797631,"135":-0.12413934833475969,"136":-0.12446761048045554,"137":0.031438518221385124,"138":0.22816392608956357,"139":0.26152584680315255,"140":0.0684505757021532,"141":0.14958014787271054,"142":-0.02475172033065121,"143":-0.30067001607126176,"144":-0.1873559272992431,"145":0.022058210888782976,"146":0.34646521954078613,"147":0.20262203446104998,"148":0.3815409373452352,"149":0.09139187028451859,"150":-0.11389243418063208,"151":0.019251694250823348,"152":-0.20198878888993008,"153":-0.18195526417804464,"154":0.005412896097130073,"155":0.024390232934594375,"156":-0.20241702266612707,"157":0.1850447204927391,"158":-0.07529386293613735,"159":0.18951187135863282,"160":-0.06905741026817871,"161":0.10598695546741121,"162":-0.04772308665500664,"163":-0.01101039234912914,"164":-0.29739965212395175,"165":0.008237705378963258,"166":0.0987720043767827,"167":-0.16259569213662675,"168":-0.03335295286917762,"169":0.0478998209607314,"170":0.19394181655418746,"171":-0.07422855938049856,"172":-0.26528369370244254,"173":-0.024618744419976392,"174":-0.1826200281683402,"175":0.11324536283441758,"176":-0.10374391738677603,"177":-0.018395901516344904,"178":-0.04261454403575545,"179":0.04087852771330484,"180":-0.04103731831930193,"181":0.04128261565482957,"182":-0.4563021385472203,"183":-0.0012685763718978465,"184":-0.07222489922028537,"185":-0.2239183691860139,"186":-0.04016311073736364,"187":-0.03544845829965403,"188":-0.136061727295441,"189":-0.1059479093841093,"190":-0.1381864376610635,"191":0.0015545725599961189,"192":-0.13234395010320396,"193":0.12123488241010415,"194":0.05701400500801236,"195":-0.29186253592550354,"196":-0.15175866192638632,"197":0.15898689964358967,"198":-0.13675014094260782,"199":-0.10005674269670393}},{"sx":5,"sy":5,"depth":8,"w":{"0":0.06876346044095188,"1":0.05504622566057214,"2":-0.021377682886811234,"3":-0.21575729379609218,"4":-0.17855550247074412,"5":0.1316614984809701,"6":-0.2587202364361952,"7":0.09823164444757916,"8":0.1586506775558009,"9":0.3453982926556002,"10":-0.20932699039916017,"11":0.040577188982651016,"12":0.07881387984484217,"13":-0.13157345680928426,"14":0.18361580982527625,"15":0.14527814362910307,"16":0.019136136324229832,"17":0.04029223446548227,"18":-0.06105457949355453,"19":0.20309562363959488,"20":0.1653214720474583,"21":0.07359744628108239,"22":0.009228842105254093,"23":0.09516024353122465,"24":-0.29760818700840536,"25":0.08694036137365646,"26":0.16730992436747738,"27":0.13934133361893167,"28":0.03962265090832144,"29":0.071540918801523,"30":0.08685104800973417,"31":0.023362442416127217,"32":-0.10001024926424011,"33":0.05956416786249748,"34":0.13985354028208846,"35":0.2627175773409222,"36":0.14921356065853048,"37":0.11253761552825442,"38":0.06404704786962752,"39":0.1082353725687736,"40":0.13319227303689646,"41":0.12284999417621013,"42":-0.02488004472449016,"43":0.009825181247485097,"44":0.2747926676769534,"45":0.15464067513358842,"46":-0.13610329150002062,"47":-0.20370331102658132,"48":0.04036365446800135,"49":-0.0858040666096355,"50":0.23553303192065023,"51":0.11059744221398252,"52":0.13881970486703418,"53":0.07993504356491776,"54":0.15442915048698544,"55":-0.04739163870268003,"56":-0.038200757810786856,"57":0.1429233136692046,"58":0.1839081447555462,"59":-0.06325908352028449,"60":0.2541732959870248,"61":0.032712482547291775,"62":0.14718440279597134,"63":-0.07449231735889304,"64":-0.17034311270223554,"65":0.1320491062898718,"66":0.38551006320550607,"67":-0.04289004481242156,"68":0.10547805908955882,"69":0.05073975095544359,"70":-0.19878088880776904,"71":-0.18823856810626907,"72":-0.29200763662132706,"73":-0.07060559517881494,"74":0.032268552200977775,"75":0.1885708908274652,"76":-0.06037285414151415,"77":0.09781563656402828,"78":-0.15075277167806903,"79":0.08692766737027335,"80":0.06914119074583701,"81":0.022683250397299428,"82":0.021057901447049856,"83":-0.1285565796010706,"84":0.32075436298435517,"85":-0.16103920052174825,"86":-0.06344114958330015,"87":-0.058818903401701386,"88":-0.083535845507679,"89":0.21340465330215475,"90":0.34152061383690036,"91":-0.3191560806291721,"92":0.6611555705602282,"93":0.14413635125894472,"94":-0.09566901412377556,"95":-0.13341366399933433,"96":-0.04447790974155493,"97":0.3676852537920856,"98":0.1895975136032827,"99":0.1367422820611565,"100":0.21172811998982435,"101":0.28387642990768314,"102":-0.2648624682466781,"103":0.051152297113969694,"104":0.1524842823176686,"105":-0.013250513522211458,"106":-0.3378072936936667,"107":0.18651410535828766,"108":-0.4172299451760494,"109":-0.08595120369514458,"110":0.045332106394240936,"111":0.04097819510441007,"112":-0.0819122989970226,"113":-0.041583286225012256,"114":-0.2842349580788601,"115":-0.0361022298674946,"116":-0.12873581818016885,"117":-0.10877482649347404,"118":0.446181759328288,"119":-0.03848636188299486,"120":-0.016516224204387805,"121":-0.048360514612421204,"122":-0.10591404253400528,"123":0.19045180389532385,"124":0.007118339697578598,"125":-0.014224728331328335,"126":-0.09221670683266894,"127":0.027655878313932476,"128":0.012761043438595568,"129":0.003456464465951519,"130":-0.2893263979482962,"131":0.28455384226905167,"132":0.02722538752006074,"133":-0.23236231676720176,"134":-0.10537922001733674,"135":0.09995937289932055,"136":-0.23979678482746267,"137":-0.20625299042412365,"138":-0.3717531825743787,"139":0.1578779021411015,"140":-0.1404374212695512,"141":-0.054808794057568784,"142":0.10158471456828126,"143":-0.30353321471044314,"144":-0.05386543407752702,"145":-0.1273036532065826,"146":-0.5916083396502807,"147":-0.06588372299059649,"148":-0.16761733401018697,"149":-0.09359434739521134,"150":0.25887807161440873,"151":-0.519187681259835,"152":-0.16109121793850525,"153":0.2448953398126402,"154":-0.08231992011295242,"155":-0.4737601587829586,"156":-0.16704806295685865,"157":-0.14040828188394763,"158":0.30979100384835306,"159":-0.2951041945326374,"160":0.05098515983885324,"161":-0.16946613781818898,"162":-0.199178963006528,"163":-0.07004234341931759,"164":-0.005058597864250165,"165":-0.022720909707442477,"166":-0.1327599482584117,"167":0.09804216308446079,"168":0.10411559200673202,"169":-0.0338688871550921,"170":-0.09593901874446537,"171":0.26090092960995415,"172":-0.02639056572355541,"173":0.07689082187060976,"174":0.053407099635034753,"175":0.10671711823174455,"176":-0.12462033948736125,"177":0.20342739536288282,"178":0.07444539454672965,"179":0.08623786721269816,"180":-0.020378845191861204,"181":-0.05398785658249162,"182":0.1604118181817046,"183":-0.19381105434225246,"184":-0.3828406001866385,"185":0.3363202126847919,"186":0.11708097155460787,"187":-0.24806274981917534,"188":-0.2505902398111904,"189":0.014698456573313265,"190":-0.02502279676085015,"191":-0.1967375289330638,"192":-0.09656829839983044,"193":-0.10989111027926671,"194":0.06389924784148511,"195":-0.24678910446047744,"196":-0.09296164235751801,"197":-0.04325677961850683,"198":-0.10126105682018237,"199":-0.09774417553075623}},{"sx":5,"sy":5,"depth":8,"w":{"0":0.18312551593387572,"1":-0.053736890834654535,"2":-0.09063698570714548,"3":0.11945345724861968,"4":0.12569609803709697,"5":-0.1767069563321939,"6":0.04454566602745125,"7":0.0048097706219024485,"8":0.029322384394781686,"9":0.10587366488647819,"10":0.003808580650628262,"11":0.2418733432079592,"12":0.21041436855756207,"13":0.026703054657650965,"14":0.061115948426451135,"15":-0.004213817893079444,"16":-0.4369010811333424,"17":0.080880935766131,"18":0.09210048199752213,"19":0.0017466876707462357,"20":0.06241244947911536,"21":0.02103032824346551,"22":0.11684168605582246,"23":-0.3167139444952951,"24":-0.12892379233132162,"25":-0.22066454989717157,"26":0.000429035859093714,"27":-0.19086375890644475,"28":-0.18538108595516636,"29":-0.040322916750334,"30":0.1337945209412789,"31":-0.2060198318592488,"32":0.050112219891832,"33":0.08797318530105938,"34":-0.25473077306785646,"35":-0.13660299748817353,"36":-0.12845411987939498,"37":0.081804742470528,"38":0.0354652282716062,"39":-0.008153574069321452,"40":0.10857803804791426,"41":0.0007460765511556189,"42":-0.03166765839232134,"43":-0.05277423685296487,"44":0.13405525091229242,"45":-0.06971040656418924,"46":0.02719655822495907,"47":-0.00506550822440989,"48":-0.11189113144596773,"49":0.06766368589569627,"50":-0.04244322938768921,"51":-0.06227524466605686,"52":0.133926898146759,"53":-0.016007651180554455,"54":-0.2397388151125535,"55":-0.08132615989368189,"56":-0.33483474140325703,"57":-0.04569934453396716,"58":0.056757545678226655,"59":0.0020183848930751883,"60":0.15526200852352393,"61":-0.08949529254581765,"62":-0.13229876912021168,"63":-0.24080864132540067,"64":0.07560485957324907,"65":-0.12623730116087586,"66":0.14629149211652,"67":-0.26007629437102997,"68":-0.08838900757636793,"69":0.012034432503747867,"70":0.07443246295486945,"71":-0.2585761430266938,"72":0.045363724315403475,"73":0.029136012602477782,"74":-0.11958660130645758,"75":-0.44021474994633675,"76":-0.13732022994398652,"77":0.14469106800509582,"78":-0.057190928354887025,"79":0.05191674544543596,"80":-0.0474060515884176,"81":0.07438288645865684,"82":0.10287142109627515,"83":-0.04302203873624088,"84":-0.0018690171133640655,"85":-0.008349114076300757,"86":-0.09707218645432542,"87":0.02003036235779222,"88":-0.18556678015150266,"89":-0.08747918356488651,"90":-0.035094520247296104,"91":-0.12850224623317827,"92":0.08066934829731348,"93":-0.01219296197097846,"94":-0.1356073848445191,"95":-0.1573782302044354,"96":0.0033928144961749875,"97":-0.1454089890535298,"98":-0.10226373793594465,"99":-0.02264541726100871,"100":0.04375903176235246,"101":-0.09151411366334417,"102":0.2422471872656581,"103":-0.33255194431896107,"104":0.1382091394568525,"105":0.012883250729182486,"106":0.06809629126152622,"107":-0.1648671350119602,"108":-0.0780184193874238,"109":0.09443375209477956,"110":0.12163736092579845,"111":-0.3197930382494708,"112":0.028741171357193094,"113":0.2030023270763719,"114":-0.16314086278628245,"115":-0.1184803677588561,"116":-0.13551600630230282,"117":0.19856558605949762,"118":0.09432742386162228,"119":0.23355012118729404,"120":0.04301370009382133,"121":-0.13655708475099546,"122":-0.043409774248992394,"123":-0.07357095820367231,"124":-0.046212955399841125,"125":-0.1304182932416466,"126":0.022787723706022636,"127":-0.06737094401315372,"128":-0.019446528337841877,"129":-0.05297714725386807,"130":-0.021960810386099077,"131":-0.06313974182909297,"132":-0.0867174889241593,"133":-0.09090008872223139,"134":0.09745388527169294,"135":-0.16021604143907905,"136":0.15897655188739265,"137":-0.10446158507059682,"138":-0.00413333739415986,"139":-0.1678907177356762,"140":-0.17313980357539138,"141":-0.07554495781733911,"142":0.1973731073974896,"143":-0.1608653263394577,"144":0.32303767309120784,"145":0.3041473498785767,"146":-0.05197817494932188,"147":-0.2566923065145183,"148":-0.05728756416889475,"149":0.01737954282347809,"150":0.15006611735239594,"151":-0.14169983803929537,"152":-0.007051068622950211,"153":0.23771266856401832,"154":-0.06636098906218373,"155":0.16105020807283735,"156":-0.045082298106074774,"157":-0.03652829970530078,"158":-0.004341927042216282,"159":0.521921940231587,"160":0.023377555367469008,"161":-0.12916231001464418,"162":-0.14598674173392454,"163":0.0473111497966112,"164":0.09179807894621801,"165":-0.09625319880674586,"166":0.1179853266959044,"167":0.08938517400556535,"168":0.10866100998646588,"169":0.006784640875159163,"170":0.06990846182700601,"171":-0.04951208816327727,"172":0.07300558154713832,"173":0.021308119010159433,"174":0.22033644957961546,"175":-0.1352462626687249,"176":0.15344757944133766,"177":0.024729692197726024,"178":-0.10770681010224234,"179":-0.1383133775486356,"180":-0.05393339275915444,"181":0.14475382403222845,"182":0.3112236369744669,"183":-0.0014897336344658542,"184":0.1760811527295462,"185":0.23064306172864538,"186":-0.09719445250213363,"187":-0.2626246933597857,"188":-0.05182457402447174,"189":-0.041622653314884316,"190":-0.01689515780262123,"191":0.046840237424124576,"192":0.07850108280383153,"193":0.035149161181433616,"194":-0.19292766680322204,"195":0.20912191350300746,"196":-0.03083462299825185,"197":-0.12875309621042166,"198":-0.07913593427571777,"199":0.45044864211217894}},{"sx":5,"sy":5,"depth":8,"w":{"0":-0.10942369279564843,"1":0.04892342654193795,"2":0.38314216983021676,"3":0.060975632208460646,"4":-0.020746680533650214,"5":0.26990292560146073,"6":0.1587982491391996,"7":0.022621496331532567,"8":0.06993203081085876,"9":-0.06600707349041098,"10":0.21774778638345324,"11":-0.08385992936744693,"12":0.05102663298786765,"13":0.13216437622296143,"14":0.1839109670216501,"15":-0.04558252483779368,"16":-0.09783001240895987,"17":-0.07059742778872952,"18":0.11679564665168192,"19":-0.09677605221695144,"20":0.14168134443594751,"21":0.2946159676971997,"22":-0.11443015368602628,"23":0.04844227135073226,"24":-0.2344876615177755,"25":-0.00884451067658611,"26":0.30478648144993353,"27":-0.1983830786720852,"28":0.10127754484598796,"29":0.049412739400402285,"30":-0.22124337575902725,"31":-0.04770362675404147,"32":0.0026948171100248585,"33":0.002994877585477027,"34":0.3255921183086073,"35":-0.17629064511086107,"36":0.07851586890865668,"37":0.19515429663355124,"38":0.0050160667933326205,"39":-0.11915840796973684,"40":0.05153118011526578,"41":-0.10571681755787193,"42":0.10951596667882837,"43":-0.018409735927458856,"44":0.01514639370277416,"45":0.09306243286514079,"46":0.11039139930183682,"47":-0.10135763195869178,"48":0.04063544536931094,"49":0.07125244814221152,"50":0.07015064012118033,"51":-0.2220234095131119,"52":0.14516902855098743,"53":-0.03903563401122518,"54":0.09758916765478662,"55":-0.11560144484276857,"56":-0.08797055860094895,"57":0.2326421507381012,"58":0.10712466105831282,"59":-0.28760031140045106,"60":0.16820630675484086,"61":0.10746178442795716,"62":-0.15379764977188332,"63":-0.05489732642350714,"64":0.030516845975614312,"65":0.1455478731892246,"66":-0.04830670526082936,"67":-0.2162657832315234,"68":0.1187648540326815,"69":-0.08103988393140965,"70":-0.18199020818763287,"71":-0.06532752009843008,"72":-0.17478566050640446,"73":0.021429109301387514,"74":-0.07759855370154416,"75":0.11858446277244793,"76":0.015174043319168514,"77":0.03154314907679187,"78":-0.11480128031131885,"79":-0.21751048247068996,"80":0.03311414754811251,"81":-0.00975540418495493,"82":0.06275247960708978,"83":-0.15271042546653105,"84":0.17133411138211876,"85":0.06548574999913066,"86":0.2658722245340375,"87":-0.15540171244498877,"88":-0.08606080933687492,"89":0.026953536534919893,"90":-0.13190473759715626,"91":-0.18082615043591102,"92":-0.025634742331653203,"93":0.03531067728204749,"94":-0.25795801610039015,"95":0.037533756469046414,"96":0.028348562737532522,"97":0.11074676572509316,"98":-0.1863101019182717,"99":-0.13660542531480985,"100":-0.14629405021754216,"101":-0.19450464175531712,"102":-0.07206582807452726,"103":-0.03629964872269115,"104":0.17068435955450842,"105":-0.06355004370875264,"106":-0.11520289780833477,"107":-0.06650595492917805,"108":-0.2131483072327099,"109":-0.04190267278929142,"110":0.0814650831353761,"111":-0.026170162048475748,"112":-0.09731510401786084,"113":0.028750585804028155,"114":0.10712077912238074,"115":0.18604770878765084,"116":0.1119396272691686,"117":0.074741356641297,"118":0.1174372326469124,"119":-0.06626690480293791,"120":0.047222177251429756,"121":0.0027385132663752905,"122":-0.08554478775665636,"123":-0.18978658216668737,"124":0.05573030815231656,"125":-0.025534011246652166,"126":0.12932146090592647,"127":-0.07597667860009773,"128":-0.09061818214328732,"129":0.043262253446583764,"130":-0.060208008000029116,"131":-0.19345165824548854,"132":-0.12047700609569859,"133":0.00857527130346359,"134":-0.1665362145932427,"135":-0.012618957680160066,"136":0.08044672589741854,"137":-0.13369748971835693,"138":-0.08911335079356272,"139":-0.362558448329222,"140":-0.1924952871799437,"141":-0.08802096151976951,"142":0.030426943976775037,"143":0.020330530530707967,"144":0.19714790731282,"145":0.1429342862984995,"146":0.01686878607170435,"147":-0.35061256925557455,"148":0.11718809550230574,"149":0.03862673110521143,"150":0.01755717841103335,"151":-0.10411068205371754,"152":0.006085473262927987,"153":0.22158247045003615,"154":0.18018774255327089,"155":-0.048118009876008734,"156":0.46337729160600416,"157":0.054854304789671716,"158":-0.08166611887414006,"159":-0.0448460352745648,"160":0.14295440919153332,"161":0.0476713230127672,"162":-0.1432277031224071,"163":-0.0363092149286598,"164":-0.26120181118024627,"165":-0.02337674864524234,"166":0.07231714590274875,"167":-0.02981277281755263,"168":0.07470027605236336,"169":0.06577422163614449,"170":-0.24045129994697578,"171":0.0011834953394137232,"172":-0.15294024626572567,"173":-0.12995486840228063,"174":0.02658009641189208,"175":0.042534761002173564,"176":0.06447515096280858,"177":-0.10989260445361983,"178":-0.2619016063991395,"179":-0.04489296763209942,"180":-0.08052747119464804,"181":-0.14431684853880478,"182":-0.058459531228639415,"183":0.08018681521543647,"184":-0.03986897084114542,"185":0.002799181010794049,"186":-0.15493110500188767,"187":-0.028104531458056827,"188":0.03457205357540309,"189":-0.08130245036039466,"190":-0.10368556030818939,"191":-0.08656987327755912,"192":-0.07694880842669717,"193":-0.06546631654846341,"194":-0.1264919309176563,"195":-0.026936914769550593,"196":-0.008553868049231462,"197":-0.07910276530817457,"198":-0.20515252860149585,"199":-0.10510361977149944}},{"sx":5,"sy":5,"depth":8,"w":{"0":0.0001016993304008657,"1":-0.0011927418956282135,"2":0.004536782018681086,"3":-0.020892940464785348,"4":0.012522655725469818,"5":0.01603804155399488,"6":-0.0039051703849124434,"7":0.003166041800294066,"8":-0.031167863385263114,"9":0.0016403909183019259,"10":-0.008549982561493329,"11":-0.026578230832598894,"12":0.010915698966617003,"13":0.0027068727265897197,"14":-0.04790852837004555,"15":0.0010365488528478806,"16":0.019935569738128305,"17":-0.023149674691844514,"18":0.00502183220302217,"19":-0.03473855804617219,"20":0.008395876162446615,"21":-0.007235122372961772,"22":-0.0002588462990051213,"23":0.0007942014775143872,"24":0.017120822355397056,"25":0.01546832595562908,"26":0.02822377495636806,"27":-0.007714809786241661,"28":0.028634570468357434,"29":0.008772599522029812,"30":0.01182552928679938,"31":-0.02142216503168642,"32":0.013857605089642051,"33":0.005624563893792097,"34":0.04362353492940981,"35":0.007580249103994235,"36":0.035191158980505434,"37":0.016892504409253675,"38":-0.011452774359355988,"39":0.021315715379923987,"40":-0.006402108805581878,"41":0.005072812676981066,"42":-0.015363110176946615,"43":0.008333581261551693,"44":-0.028083754171792787,"45":-0.013112075419850447,"46":-0.002756763098062613,"47":0.0072415036735834675,"48":-0.00340275169134841,"49":-0.026015400847747713,"50":-0.017809228887062243,"51":-0.041125096362651756,"52":-0.024395521615162712,"53":-0.013934780476695762,"54":-0.019160165735136615,"55":-0.01769170759221437,"56":0.014275615004656995,"57":-0.016062188524149063,"58":-0.028855481020714814,"59":-0.02239206529947666,"60":-0.009235474162026348,"61":-0.019711675239602083,"62":0.0015251507148758216,"63":-0.015656867657391174,"64":0.0018071757776385133,"65":0.015727302287142808,"66":-0.012457849166712675,"67":-0.010072335527025699,"68":0.009552504172178237,"69":-0.01785266924918162,"70":-0.0061529576599901005,"71":-0.02244540337887041,"72":-0.0019215598019794355,"73":0.010198335111000304,"74":-0.021940644291126313,"75":-0.005496082007132492,"76":0.015409198931897832,"77":-0.0070732951040797555,"78":-0.027394744266513615,"79":0.0001822722734971348,"80":-0.006299508545723273,"81":-0.03446307688465563,"82":0.002238771700211474,"83":0.040630951492547335,"84":-0.017980963969671686,"85":-0.031883455169574075,"86":0.00821102656843931,"87":0.05648730104189919,"88":0.0018209698613267605,"89":-0.00560895661097568,"90":-0.011392153884378767,"91":-0.05522796927809975,"92":0.018510950844494,"93":-0.002613814304413247,"94":-0.01587845493815165,"95":-0.02671330662282823,"96":-0.004346898852606445,"97":-0.013809794555596909,"98":-0.009289884914090999,"99":-0.019000399689651976,"100":0.00356764349641871,"101":-0.009385549589656235,"102":-0.01330765902004768,"103":-0.014843516097250509,"104":-0.014098590126882204,"105":-0.01040862795706277,"106":-0.015870873523780343,"107":-0.027097017029710853,"108":-0.010832738774872749,"109":-0.003734580329108412,"110":-0.014070297778808355,"111":-0.021024138276609552,"112":-0.0004214904799510742,"113":-0.015868685419888142,"114":-0.014926763835399119,"115":-0.028823026486703537,"116":-0.006735191062944572,"117":-0.00804551374567166,"118":-0.0218108825590998,"119":-0.0011493374525324142,"120":0.0025793634862042118,"121":-0.025881004092443056,"122":0.0011481569770010068,"123":0.008823340757629809,"124":-0.008409411972266589,"125":-0.03779642484379533,"126":0.0032681543492305977,"127":0.1069324482522687,"128":-0.005581244792817652,"129":-0.003660414633706011,"130":-0.013921929115360705,"131":-0.07563642294217711,"132":0.014728040322974577,"133":-0.003331827379273724,"134":-0.023582973657992244,"135":-0.09353292181151525,"136":-0.004405762915372186,"137":-0.019179431662932768,"138":-0.006294673410582263,"139":-0.01358896341555844,"140":-0.005174964742820186,"141":-0.003621451167500962,"142":-0.016228307000741807,"143":-0.007515702066368635,"144":-0.008544065277434341,"145":-0.0019308090795307222,"146":-0.012253608725519586,"147":-0.018271943489897132,"148":-0.0052813855418318975,"149":-0.012528207780860907,"150":-0.017752926962823684,"151":-0.022294535499247817,"152":-0.005106537024907346,"153":-0.01228199681757687,"154":-0.027365127149892917,"155":-0.02788643801056051,"156":-0.009582947929856256,"157":-0.014058132013215284,"158":-0.024522116434747387,"159":-0.0035570387996638943,"160":0.008063168146936873,"161":-0.032419878002033824,"162":-0.021981500388661434,"163":0.013812280089245373,"164":-0.0010067565411833006,"165":-0.06548858943249135,"166":-0.002249181866693236,"167":0.07759445158769424,"168":0.005259628585239364,"169":-0.011680864544208467,"170":-0.015152446687590063,"171":-0.08298065396053372,"172":0.020365567950862685,"173":-0.0044158043155121535,"174":-0.02190041233915428,"175":-0.10430441571321791,"176":0.001225702590454837,"177":-0.013559438532767717,"178":0.0001059268851542404,"179":-0.03735091981166325,"180":0.012740918629918573,"181":-0.003660077136185918,"182":-0.024782309136383705,"183":-0.02133297941615468,"184":0.00007402815802508994,"185":-0.009367736364920567,"186":0.001316109356173692,"187":-0.020073175040174022,"188":0.004670948014544016,"189":-0.00061634485978737,"190":-0.02342524526136067,"191":-0.023124885275435388,"192":-0.005836255575944217,"193":-0.027710741539654523,"194":-0.006893862651720518,"195":-0.012081935152205429,"196":-0.011250780314195996,"197":-0.0025722100868626973,"198":-0.03623273197983133,"199":0.0021046163638757734}},{"sx":5,"sy":5,"depth":8,"w":{"0":0.07672042233034965,"1":0.04813941185969257,"2":0.0644376019416905,"3":-0.3896920682747712,"4":-0.11432089621014187,"5":0.01439914212967312,"6":0.33427653472520535,"7":-0.2644698342803476,"8":0.014651085533685599,"9":-0.0445101975815242,"10":-0.23237588729716774,"11":-0.30984158965582725,"12":0.034047772750467845,"13":0.049223264011624975,"14":-0.043321775468390944,"15":-0.1916659517382313,"16":-0.07580584157046082,"17":0.13633763288435638,"18":0.19408023878188196,"19":-0.12314950199306197,"20":0.13097676062059826,"21":-0.01612575364003061,"22":0.16666820103914934,"23":0.12792016424903901,"24":-0.1669143016426966,"25":0.12489959939176422,"26":-0.10812049229123044,"27":-0.09731898130568946,"28":-0.1197100334383307,"29":0.16852463604376042,"30":-0.17160149794277074,"31":-0.05963545798234211,"32":0.3017990929299524,"33":-0.08920172735727072,"34":0.005094619411964157,"35":-0.2609867927513993,"36":-0.19463637875625722,"37":-0.2907116347669185,"38":0.7370283232023087,"39":0.25593080143974195,"40":0.26819905715807085,"41":0.1681555481290423,"42":0.14259336484942609,"43":-0.3013825256145836,"44":-0.22915606443041486,"45":-0.009982243220575473,"46":0.3356911978413702,"47":-0.12434050310930625,"48":0.1121725047624009,"49":-0.05156027040736511,"50":-0.03193472336374464,"51":-0.20161086640261466,"52":-0.04317055162095806,"53":0.17428086574987187,"54":-0.016701753499216654,"55":-0.11829643845457621,"56":-0.033686055193728526,"57":-0.13195699407603267,"58":-0.12154701531851513,"59":-0.035461987231331156,"60":-0.08532032035661527,"61":-0.0447951090074097,"62":-0.1275396894270068,"63":0.13957978522887907,"64":-0.046573865310671286,"65":-0.02164753928569235,"66":-0.23020020624906276,"67":0.22289931079910325,"68":0.22128552591399134,"69":0.04621127645389447,"70":-0.2915560596348661,"71":-0.02738656969443381,"72":0.23380500747702251,"73":0.09537626026189308,"74":0.40201086343121906,"75":-0.03401904398952705,"76":0.3437262260759355,"77":-0.08016246943115653,"78":0.12270091972474466,"79":0.04016972034112859,"80":0.3550009921675508,"81":-0.03876073346083627,"82":0.049821761876305465,"83":-0.40322813732633633,"84":-0.1832749998876237,"85":-0.13206543142284305,"86":0.24484910654313033,"87":0.08830707196696701,"88":0.18926062263836702,"89":-0.30596622900948617,"90":-0.042720112941373345,"91":-0.22964711468463694,"92":0.0696064232612634,"93":0.13888904604289692,"94":0.0010082850601311087,"95":-0.09346514158682685,"96":-0.022205050398934306,"97":-0.17479275025282143,"98":-0.01496655359917536,"99":-0.012167140312107283,"100":0.2177494174921245,"101":-0.034004674590890176,"102":-0.11318147636321679,"103":0.18176876585918736,"104":-0.14549143048737018,"105":-0.17238930991621113,"106":-0.0082454439051163,"107":0.32523615495105773,"108":0.08431802403302105,"109":0.06791451414860808,"110":-0.3477899481476497,"111":0.12982281209847596,"112":0.0039883887815745185,"113":-0.31271585720589123,"114":0.3029186998306545,"115":-0.01592437077305191,"116":0.15613425838955927,"117":-0.1556541757704582,"118":-0.062151759603210725,"119":-0.05290593234593154,"120":0.1767080019666576,"121":-0.1472987924700101,"122":0.3657865784430113,"123":-0.20408210577730343,"124":0.009673812042363903,"125":-0.050276214677577716,"126":0.28291014954300847,"127":-0.03599735587572288,"128":0.24107479794328823,"129":-0.21096502066105044,"130":0.2688951671390924,"131":0.14152159153462893,"132":0.0860143982835469,"133":0.18327183535331998,"134":0.06909444396519833,"135":-0.08662380880814059,"136":-0.08031092860937528,"137":0.04561256180447774,"138":-0.2117013932850233,"139":0.14001255387379555,"140":0.1081346624149386,"141":-0.19017781843224246,"142":-0.2931864895487961,"143":0.12503101716568327,"144":-0.1954995232042847,"145":-0.12661483649020347,"146":-0.09769845876059546,"147":0.2055388963110738,"148":0.09069989437049474,"149":-0.04094177062160218,"150":-0.31440488589129645,"151":0.22970694008359213,"152":-0.16048015062533647,"153":-0.30005690865738627,"154":-0.16182905926032665,"155":0.05882013047489471,"156":-0.09279198088544023,"157":-0.0652147343130687,"158":-0.16919303613800557,"159":-0.0436481484412146,"160":-0.02988349127379612,"161":-0.12166055067653608,"162":0.039900117091046954,"163":-0.23027450646058012,"164":0.19321441662074607,"165":-0.039622382145922376,"166":0.09357123625069623,"167":-0.12755737148964744,"168":0.07414164573965532,"169":-0.15963484987251753,"170":0.12186625488447156,"171":-0.17425621403487637,"172":0.5279334408254599,"173":0.18684159819167714,"174":-0.05691213554301848,"175":-0.36900554018286824,"176":-0.01916807550173021,"177":-0.10143103076154869,"178":0.12588055192394565,"179":-0.045076985786287,"180":0.08573953999894343,"181":0.2659312335069773,"182":-0.09594077676983268,"183":0.33625444510849684,"184":-0.09951754164373436,"185":-0.2288897806523571,"186":0.08994412347045055,"187":0.16946435840649757,"188":-0.13865702602836427,"189":0.25930406475140205,"190":-0.178060067761144,"191":0.004379653073734333,"192":-0.15125394308439197,"193":-0.06768097301956909,"194":0.04068819306742388,"195":-0.12115098966882332,"196":-0.199063793143765,"197":0.03725227293122629,"198":-0.33078392055785016,"199":0.0419894871041589}}],"biases":{"sx":1,"sy":1,"depth":16,"w":{"0":-0.09678675370882517,"1":-0.19681063410168903,"2":-0.3947394920040321,"3":-0.09763525438489086,"4":-0.11322406966995785,"5":0.16121786532205576,"6":-0.4501788900933295,"7":-0.3440591714702842,"8":-0.39353107211717814,"9":-0.0706592413025985,"10":-0.31485697828593034,"11":-0.02872002383830251,"12":-0.15217241400963588,"13":-0.12586363475792003,"14":0.0291099820947512,"15":-0.12126023870759922}}},{"out_depth":16,"out_sx":14,"out_sy":14,"layer_type":"relu"},{"sx":3,"sy":3,"stride":3,"in_depth":16,"out_depth":16,"out_sx":4,"out_sy":4,"layer_type":"pool","pad":0},{"out_depth":10,"out_sx":1,"out_sy":1,"layer_type":"fc","num_inputs":256,"l1_decay_mul":0,"l2_decay_mul":1,"filters":[{"sx":1,"sy":1,"depth":256,"w":{"0":-0.046659438956626616,"1":-0.0694369638957084,"2":-0.1125343541840754,"3":-0.018279996955586263,"4":-0.018636975378442916,"5":-0.11522321297406243,"6":-0.006172018860438039,"7":-0.007043071194430536,"8":-0.010303421014108204,"9":0.002569789967110176,"10":0.004187636779415063,"11":-0.03293484679762045,"12":-0.03933543829642657,"13":-0.040519156669496924,"14":-0.018766733889561897,"15":-0.03312153915565842,"16":-0.07499078556821547,"17":-0.1863909803184365,"18":-0.22416338911379413,"19":-0.024870503740166472,"20":-0.11249843584642166,"21":-0.16416152356074845,"22":-0.037954640901913916,"23":-0.04145600292493684,"24":-0.051014134339935936,"25":-0.06755770378607609,"26":-0.06362761335572811,"27":-0.19977361468476382,"28":-0.12877004870816258,"29":-0.006032540948416311,"30":0.0010236686090719844,"31":-0.09652914196444165,"32":-0.18652116562109988,"33":-0.31573800048327133,"34":-0.20782493876029354,"35":-0.020454655518054386,"36":-0.2626089581000463,"37":-0.29917092733540807,"38":-0.056912393641709365,"39":-0.0615951642290334,"40":-0.15623397505218337,"41":0.01707836250154076,"42":-0.15495207174763576,"43":0.025753872594786224,"44":-0.11389550361624291,"45":0.010170820084919081,"46":-0.008162545761656677,"47":-0.11056043043593407,"48":-0.32649811637576565,"49":-0.22939986000121393,"50":-0.05991309422697657,"51":0.01635038616965209,"52":-0.18979609875079945,"53":-0.11504396874644593,"54":0.021157336091984284,"55":-0.12990584101924033,"56":0.022126557196502285,"57":0.0011969829862803739,"58":0.06224005560962029,"59":-0.00755160657844947,"60":0.03135249253096941,"61":-0.01221333815503519,"62":-0.0289642200994119,"63":-0.060636267486026484,"64":-0.12938825016205702,"65":-0.17828251916637078,"66":-0.15300440972712714,"67":-0.06269308591067697,"68":-0.10019193321544867,"69":-0.020844778250306027,"70":0.021848819016737204,"71":-0.12835500381659667,"72":0.026378719664636566,"73":-0.09454252032973527,"74":-0.02128863411528558,"75":0.003665838659016847,"76":0.023533787433135975,"77":-0.05680724128801746,"78":-0.016206924947156327,"79":-0.14685711266572887,"80":-0.059703559361198054,"81":-0.2011644560417367,"82":-0.33174536037619684,"83":-0.10043387475506378,"84":-0.07706846838178551,"85":-0.035288997104783525,"86":-0.2640883051169552,"87":-0.15589195702194897,"88":-0.0727219557527419,"89":0.0428287465204287,"90":-0.18959633352269067,"91":-0.10437989252700627,"92":-0.298802603948215,"93":-0.036600442824096746,"94":-0.0023745337348551362,"95":-0.05866518444843506,"96":-0.36876316030058964,"97":-0.20910864336283158,"98":-0.14199996907193985,"99":-0.29296355124909984,"100":0.021420820078545684,"101":-0.25306849799303055,"102":-0.287247496009843,"103":-0.22308105174671672,"104":-0.30572964105624434,"105":-0.029605841511170405,"106":-0.2882710727220907,"107":-0.6074445961244479,"108":-0.33609922475899906,"109":0.01333315967459071,"110":0.01400219369149935,"111":-0.21388741468237973,"112":-0.3916991772415385,"113":-0.08588894315874535,"114":-0.07145361381151412,"115":0.06820758507448813,"116":-0.2765365411372823,"117":-0.3131572696345421,"118":-0.03247654573982734,"119":-0.4188814933772616,"120":-0.1464790124474866,"121":0.0664769241091357,"122":-0.20704772363242435,"123":-0.08682660021354065,"124":-0.005761147077554542,"125":-0.061250526827071786,"126":-0.0179024950859201,"127":0.08871298891927455,"128":-0.13415522155609202,"129":-0.37121490267761736,"130":-0.15181079954073048,"131":-0.12949878658908176,"132":0.028808460159966538,"133":-0.17790112669776065,"134":-0.0539915857618955,"135":-0.21891684700125957,"136":0.058104579443796316,"137":-0.08560907209810961,"138":0.033005603944520984,"139":-0.07290276809632333,"140":0.0038458979919154235,"141":-0.10283072631386972,"142":0.0011954771465488058,"143":-0.15507508570481296,"144":-0.10002150464197201,"145":-0.3019427787976774,"146":-0.2888384341071374,"147":-0.1964357178031608,"148":-0.2124953339627815,"149":-0.24223393787922676,"150":-0.3065885123453995,"151":-0.3202198060911276,"152":-0.2450687494423272,"153":-0.2724440329944969,"154":0.03832145094467059,"155":-0.34387927171953925,"156":-0.2097772076759001,"157":-0.08587231301726153,"158":-0.000896894841095831,"159":-0.30651492556524046,"160":-0.24833855173383934,"161":-0.2150507249965902,"162":-0.46748934409886483,"163":-0.32318627415873763,"164":-0.06480531468688706,"165":-0.14211590025910395,"166":-0.40045545592055615,"167":-0.1894851753650588,"168":-0.40795046578260874,"169":-0.03076189146412222,"170":-0.3661535745239563,"171":-0.45189226472728006,"172":-0.15106278890395217,"173":-0.1552718373224971,"174":0.032879057006956924,"175":-0.2314531493100969,"176":-0.43930969967606426,"177":-0.2054926385494665,"178":-0.2953044867074304,"179":-0.10994064341742413,"180":-0.20751906433042314,"181":-0.24340261258253815,"182":0.02514907206175824,"183":-0.13959250598105968,"184":-0.03354991401583637,"185":-0.12545750969722771,"186":0.07451896278085915,"187":-0.07152955865465184,"188":0.045185910154285254,"189":-0.1750786025114619,"190":-0.00927105559935891,"191":0.010961528405825306,"192":-0.07261296221945804,"193":-0.2935246035719316,"194":-0.1562883024378661,"195":-0.23984292142911273,"196":-0.03625639838888952,"197":-0.1061449058316312,"198":-0.00417617358925948,"199":-0.12164602925424778,"200":-0.11320356664691421,"201":-0.1626914962607471,"202":-0.06401323088218672,"203":-0.1326194169830712,"204":-0.023912708383958196,"205":-0.11590057715029618,"206":-0.033246208105180065,"207":-0.20354800487608982,"208":-0.02776808763114469,"209":-0.29917934138194746,"210":-0.1939655038758602,"211":-0.33843162754297546,"212":-0.29484933101948857,"213":0.02320091418286911,"214":-0.15629215916803577,"215":-0.40140460820303714,"216":-0.055220923214654605,"217":-0.12935082444499632,"218":-0.29761090295017056,"219":-0.5011020170965398,"220":-0.1202873371059864,"221":-0.1233129625168645,"222":-0.008801784901514662,"223":-0.09759757183206402,"224":-0.26032653331063804,"225":-0.12539967191447754,"226":-0.08331885896556895,"227":-0.13711346659971563,"228":-0.09566999119929771,"229":-0.03384723806621277,"230":-0.4329365956326149,"231":-0.1204695157822647,"232":-0.08673512130357208,"233":-0.040811922613962194,"234":-0.28227547555596133,"235":-0.20972659075535818,"236":-0.218528249798575,"237":-0.03369490914285041,"238":-0.0100540681450839,"239":-0.37577266147960436,"240":-0.18898317974977116,"241":0.006928913069015093,"242":-0.23465390385389084,"243":-0.37352395992105114,"244":-0.08007451455562276,"245":-0.2711449930747987,"246":-0.13373545543193194,"247":0.13237109279053644,"248":-0.07252083550229807,"249":-0.04701385919811176,"250":0.04138165881328662,"251":0.034189926001435174,"252":-0.003387027931196418,"253":0.009033780523786764,"254":-0.04470607988115591,"255":-0.23632025575605067}},{"sx":1,"sy":1,"depth":256,"w":{"0":-0.05490888217131757,"1":-0.10011602470391882,"2":-0.013585230659080329,"3":-0.013048197557750954,"4":0.020759196089562372,"5":-0.12304232555576854,"6":-0.01553839983078632,"7":-0.04313672040648239,"8":-0.022995641113044953,"9":-0.009370530965370114,"10":0.0038140029991899794,"11":-0.005575734129239844,"12":-0.004653424129207459,"13":0.006551362928960466,"14":-0.003767735350490659,"15":-0.06386287016273287,"16":-0.17818728750529692,"17":-0.39732496304949405,"18":-0.15254712233609685,"19":0.03429399625725771,"20":-0.05462637535126777,"21":-0.23105648821418487,"22":-0.09497908471544195,"23":-0.21219920905602338,"24":0.001543731330396627,"25":-0.04210950591785413,"26":-0.11713282893872314,"27":-0.03745695033865874,"28":-0.03663131503795623,"29":-0.019590322894521426,"30":0.006722330775451146,"31":0.02228217714067059,"32":-0.39372350301236014,"33":-0.2159879204115068,"34":-0.2736680743357836,"35":-0.11006601173269479,"36":-0.06935075881840896,"37":-0.014785409726107748,"38":-0.2475776063563546,"39":-0.3186508739319266,"40":-0.1700405319245022,"41":-0.014518974251021138,"42":-0.22613553496350697,"43":-0.08503920809342155,"44":0.1607969555638283,"45":-0.0026275888119314385,"46":0.018242001647298486,"47":-0.17930706689320203,"48":-0.5243833269586261,"49":-0.2827976135083437,"50":-0.2391166828167935,"51":-0.04695227938214484,"52":-0.07021809838820338,"53":-0.25283816011072513,"54":0.07334639357823627,"55":-0.19267457958815906,"56":-0.03644500751656379,"57":-0.02759572425509956,"58":-0.05294956397699819,"59":-0.04238783916959157,"60":0.03512942230251842,"61":0.0004919443893767387,"62":-0.0687092718376063,"63":-0.014674002591148509,"64":0.0018418627126437085,"65":0.03117422665491665,"66":-0.11766438531173334,"67":-0.08576772893967659,"68":-0.048570569923708985,"69":-0.16593011680054012,"70":-0.08280779005736925,"71":-0.07469189531384383,"72":-0.06887499539392072,"73":0.029434280427739844,"74":-0.06456255007459104,"75":-0.1264992276249684,"76":-0.045985616061538816,"77":-0.05682292494655448,"78":-0.010409302971782353,"79":-0.005744108366660603,"80":0.04613898695519841,"81":-0.2917158064527881,"82":-0.1527021919151355,"83":0.03406960707043413,"84":0.12486332187969489,"85":0.007853003585178169,"86":-0.2349135021508927,"87":-0.2648573029613652,"88":-0.3522597030943871,"89":-0.11008594698247823,"90":-0.276962251818643,"91":-0.09617413747970853,"92":-0.5156161556020654,"93":-0.18481166646770697,"94":0.025506199151884252,"95":0.08104039530274579,"96":-0.4104182673692793,"97":0.07520949021640744,"98":-0.28066732500112734,"99":-0.3187041193717427,"100":-0.012842998410819827,"101":0.0786014283390806,"102":-0.17241440538205546,"103":-0.09907792074401774,