{"net":{"layers":[{"out_depth":1,"out_sx":28,"out_sy":28,"layer_type":"input"},{"sx":5,"sy":5,"stride":1,"in_depth":1,"out_depth":8,"out_sx":28,"out_sy":28,"layer_type":"conv","l1_decay_mul":0,"l2_decay_mul":1,"pad":2,"filters":[{"sx":5,"sy":5,"depth":1,"w":{"0":0.3619586045530703,"1":0.1255161272713269,"2":0.27482491679900584,"3":-0.4924432466816859,"4":-0.10256122785511702,"5":0.37970153178021204,"6":0.18787065025266791,"7":-0.09078431638194899,"8":-0.6490289808211835,"9":-0.255961055593847,"10":0.20853350448523553,"11":0.37184986882529336,"12":0.24171872943064004,"13":-0.11957862327229277,"14":-0.20101898391858658,"15":0.1983603494711303,"16":0.27930801297830143,"17":-0.023854019511726273,"18":-0.49148693625790074,"19":-0.45527441035086713,"20":0.24278007184742742,"21":0.32801443501232413,"22":-0.016107747651433958,"23":-0.07404574875663447,"24":-0.08235421699645339}},{"sx":5,"sy":5,"depth":1,"w":{"0":0.05663094736514883,"1":0.040889714651684866,"2":0.12106577507381994,"3":-0.07649748770605601,"4":-0.05411212664701743,"5":-0.30032646530038304,"6":-0.37992479431021736,"7":-0.31773173180774866,"8":-0.1355086104630877,"9":-0.0983120877937022,"10":-0.3044364446475295,"11":-0.4945237221014013,"12":-0.4951927420295227,"13":-0.02121529394190926,"14":0.29231803275834106,"15":-0.36673830823594433,"16":-0.33179942278736446,"17":0.0717338153856739,"18":0.5577856400620294,"19":0.2910960858082543,"20":-0.22413947114038796,"21":0.04417170177771699,"22":0.17331007300084966,"23":1.0279969932672646,"24":0.2953335047417482}},{"sx":5,"sy":5,"depth":1,"w":{"0":0.042149659309016596,"1":0.3922228912505901,"2":0.42709073840310835,"3":0.4242118530541804,"4":0.33816970110895594,"5":0.24947356185063693,"6":0.5826886295653527,"7":0.44444964052405084,"8":0.16152701656842644,"9":-0.044161410385008266,"10":-0.211156966608169,"11":-0.41056958492256274,"12":-0.4496427066425982,"13":-0.14005025059086984,"14":-0.3223325895473483,"15":-0.3726691977894402,"16":-0.3368512932356612,"17":-0.3519339912989275,"18":-0.037024770100119356,"19":0.025070449455919845,"20":-0.062092530963163695,"21":-0.34530098757809385,"22":0.061213112595541685,"23":-0.10111958729818271,"24":-0.12936598994928122}},{"sx":5,"sy":5,"depth":1,"w":{"0":-0.41346098402340214,"1":-0.4977226998283457,"2":-0.3354646545811828,"3":0.20768119732589954,"4":0.32197861583893606,"5":-0.053122840179900016,"6":-0.3420110707592846,"7":-0.5327618769420063,"8":-0.24610057694281112,"9":0.2195507792700262,"10":0.7302159980641351,"11":0.1499899607134778,"12":0.058667735956636075,"13":-0.22907280391871387,"14":-0.5696382752085103,"15":0.10030700667591065,"16":-0.015859126209596768,"17":0.16128260314284174,"18":-0.05163296286156572,"19":-0.2442834781957496,"20":0.27303448562294735,"21":0.3037282883681152,"22":0.2634694781064808,"23":0.48832184735915807,"24":0.07490847774357398}},{"sx":5,"sy":5,"depth":1,"w":{"0":-0.48386389469919583,"1":-0.041350976087076795,"2":0.22090763485479675,"3":0.13468179978207773,"4":0.13421608615762023,"5":-0.1889060618090048,"6":0.29961746749751916,"7":0.3435665066586598,"8":0.029172189055031893,"9":-0.16120410565469181,"10":0.04212848474675921,"11":0.20227963551290726,"12":0.16608566771759187,"13":-0.06580237009694904,"14":-0.6743531007620284,"15":0.26291949720727764,"16":-0.14409057339470152,"17":0.365467506120046,"18":-0.12753550931712704,"19":-0.2544663202366261,"20":-0.12879075566985448,"21":0.18318414582882328,"22":0.038324816004450826,"23":-0.24911428603374633,"24":-0.7148919606639667}},{"sx":5,"sy":5,"depth":1,"w":{"0":-0.12899183836980904,"1":0.029025846119014532,"2":-0.2754521243034496,"3":-0.43262120148898076,"4":-0.8497121329143573,"5":0.25877939233215763,"6":0.08942012329582334,"7":0.2130162587478777,"8":-0.2535378603931708,"9":-0.5458626203459039,"10":0.15738293055228786,"11":0.3992227509922449,"12":0.47023271381605836,"13":0.47729604211597965,"14":0.00473746892569241,"15":-0.3110945212646246,"16":-0.00949941262316513,"17":0.06649726054346014,"18":0.5665458609963606,"19":0.33872427724476645,"20":-0.19878900502965374,"21":-0.04461443265628034,"22":0.4021986167125266,"23":0.1464952193125706,"24":-0.06878011249146686}},{"sx":5,"sy":5,"depth":1,"w":{"0":0.06285657825157373,"1":0.005436416677799391,"2":0.3006757760622194,"3":0.08248599186603925,"4":0.49766530074070714,"5":-0.21223226379098276,"6":-0.4184440352311496,"7":-0.6781574933337295,"8":0.08763640391308157,"9":0.6447683698788742,"10":-0.44945392146043883,"11":-0.18261967199473916,"12":-0.803493266733641,"13":-0.08900321116190191,"14":0.8461803542039499,"15":-0.09385407797282232,"16":-0.2247249576518066,"17":-0.3780497389782734,"18":-0.03808654186445795,"19":0.4131249314197564,"20":-0.007359688722282432,"21":-0.36731333553676637,"22":-0.2499446423938292,"23":-0.09879862127072012,"24":0.09496350070804827}},{"sx":5,"sy":5,"depth":1,"w":{"0":-0.3430185825695653,"1":-0.5700335421534276,"2":-0.5160766038569862,"3":-0.45958055570800416,"4":-0.5483390795669656,"5":0.1428929148849571,"6":-0.2967110659867059,"7":-0.24085804195230348,"8":-0.19807080420209022,"9":-0.5933887017273575,"10":-0.31351380283132196,"11":0.11139255423464244,"12":-0.2554340220910444,"13":0.060744865080248664,"14":-0.06812261776752711,"15":-0.2368680198268754,"16":0.28146203238972867,"17":-0.05808355460175207,"18":0.031103117213988514,"19":0.21473540544889777,"20":0.10764847292173409,"21":0.0848987244006352,"22":0.3461339718697351,"23":0.44788597728809587,"24":0.38586688288433213}}],"biases":{"sx":1,"sy":1,"depth":8,"w":{"0":-0.007804020669994458,"1":-0.0863168405847835,"2":0.03812122970372186,"3":0.086932304410536,"4":-0.09356709668771061,"5":0.041349893067504084,"6":-0.06138078538377507,"7":0.295867442980353}}},{"out_depth":8,"out_sx":28,"out_sy":28,"layer_type":"relu"},{"sx":2,"sy":2,"stride":2,"in_depth":8,"out_depth":8,"out_sx":14,"out_sy":14,"layer_type":"pool","pad":0},{"sx":5,"sy":5,"stride":1,"in_depth":8,"out_depth":16,"out_sx":14,"out_sy":14,"layer_type":"conv","l1_decay_mul":0,"l2_decay_mul":1,"pad":2,"filters":[{"sx":5,"sy":5,"depth":8,"w":{"0":0.16116758294746614,"1":0.08865355959203287,"2":-0.16292151720049053,"3":0.07521909689670604,"4":-0.01771451506292399,"5":-0.13148715560838428,"6":0.11941216065099797,"7":0.17936735288623215,"8":0.03799874119143486,"9":0.08489213621490922,"10":-0.1864047555900595,"11":0.11857873923600479,"12":0.04485088991850356,"13":0.0035430787504666995,"14":0.02728947609557979,"15":-0.02021297976511103,"16":0.130299072690523,"17":0.0602904917915698,"18":-0.28333469835878644,"19":0.04729115548892782,"20":0.13429979260517286,"21":-0.13206517009517055,"22":0.09245763616160341,"23":-0.07348300726697081,"24":0.0977078030245946,"25":-0.09997711688095723,"26":-0.004888616275304337,"27":-0.19002609048889235,"28":0.12715716701898877,"29":-0.1607128324265384,"30":-0.04408017645686184,"31":-0.06547551492562612,"32":0.09438141471211428,"33":-0.09089454085987522,"34":-0.21249554095182027,"35":-0.08851931108007609,"36":-0.08477801504697544,"37":0.029273353289058255,"38":0.09090219538331087,"39":-0.08598723886557079,"40":-0.1793436305215388,"41":-0.07719642233421474,"42":-0.026807669524322588,"43":0.2692011219690609,"44":-0.052983536772986284,"45":-0.05019127507713736,"46":-0.2790615387614931,"47":0.2139382777425594,"48":-0.2389781221517854,"49":0.08901355999986761,"50":-0.16240858163372549,"51":-0.059171444816124755,"52":-0.11810099913121817,"53":-0.16303279984770394,"54":-0.11975821227465581,"55":-0.10610919141966912,"56":0.0006287907985310222,"57":-0.0008120278386947223,"58":-0.14892496568589786,"59":0.0949529766799455,"60":-0.10867594947834898,"61":-0.07140643193457191,"62":-0.13329855197077997,"63":-0.08803568685769131,"64":-0.17713378639527386,"65":-0.017605934078061547,"66":-0.09001329464449467,"67":-0.057460522812808355,"68":-0.14889258905538214,"69":-0.00020159085253888812,"70":-0.1242544870416647,"71":-0.014340452305840357,"72":-0.119419840316491,"73":0.11728496188470636,"74":-0.059399291545782426,"75":-0.015468616800088378,"76":-0.006425856695464945,"77":0.015728934016539964,"78":-0.016817385963771286,"79":0.21183717608854222,"80":0.14765850901344615,"81":-0.02352718261315154,"82":0.15929218838420195,"83":0.10212749442106775,"84":-0.19270531800843038,"85":0.26271282621744957,"86":-0.10487953439356017,"87":-0.006010155684954653,"88":-0.14952053929576348,"89":0.07353931739431774,"90":-0.06642265103433471,"91":-0.06891594734021776,"92":0.05866106536212169,"93":0.11684832616532713,"94":-0.06451981718590369,"95":-0.03523841775266818,"96":-0.029013507795445714,"97":0.13547451730240573,"98":-0.3877978765876655,"99":0.09021797875749862,"100":-0.1075161826137157,"101":0.18795739775188713,"102":-0.0550575541553077,"103":0.016655815454160176,"104":-0.13799727767940037,"105":-0.06081278009872875,"106":-0.3204349941024135,"107":0.10312867286338932,"108":-0.07122348491631197,"109":-0.045977786467232946,"110":-0.022056758623909194,"111":0.0689918894557696,"112":0.10095236854245138,"113":0.2344650691550277,"114":0.10237574090068594,"115":0.03723724073266593,"116":-0.041397836361082296,"117":0.0918769940137162,"118":0.1532993871998715,"119":0.1170307410249377,"120":-0.03599952385827564,"121":-0.2242882528306228,"122":0.12515378545450628,"123":-0.03420774449855196,"124":-0.22230071052106293,"125":0.05818013179785618,"126":0.214470687378038,"127":-0.19681053820829017,"128":0.03227244042647862,"129":-0.09076778950280816,"130":0.11015658440750536,"131":-0.19621500132162806,"132":-0.05449293719869754,"133":0.18429872593156052,"134":0.2955179669578438,"135":-0.21918192076082144,"136":0.16857765731835042,"137":-0.18171558057752543,"138":0.21633983909249774,"139":-0.12842898738594782,"140":0.14927450055828675,"141":0.08298222071250422,"142":-0.08273553825361224,"143":-0.25232230723516,"144":0.10065129085405848,"145":0.054575525879972026,"146":0.13907300624779317,"147":-0.10694646441929324,"148":0.0389355057815222,"149":0.1228962362281945,"150":0.018210088799466357,"151":-0.10845996571930568,"152":0.04004663970092385,"153":-0.15920442710567032,"154":0.29360740880281755,"155":0.06551094145368651,"156":0.07595768679697348,"157":-0.04401698222734614,"158":-0.07609753276283154,"159":-0.16114896739505616,"160":0.055448658629783654,"161":-0.17460950077784296,"162":0.19007949648458036,"163":-0.009549731344929117,"164":0.04781925452798749,"165":-0.3033939610882312,"166":-0.1679648396907389,"167":0.057612730167404175,"168":-0.06244010811186858,"169":0.03654611255538526,"170":-0.05084648035550186,"171":0.05920370130379803,"172":0.013546472528725166,"173":-0.38639524211863363,"174":0.03562338997528138,"175":0.004084245321339498,"176":-0.1313395891276655,"177":0.06391965204291417,"178":0.18286177746133503,"179":-0.12254914296629445,"180":0.16448797053731598,"181":-0.2480390128075976,"182":-0.05728831445092922,"183":-0.019894550070885385,"184":-0.028670521825855208,"185":-0.1191837440650272,"186":0.29990891460712327,"187":-0.18366311446250883,"188":-0.012161082409718417,"189":-0.08624487812617003,"190":-0.22045851417625323,"191":0.043822155524069935,"192":-0.1709011449199983,"193":0.05081650189196756,"194":0.20990873556720127,"195":-0.1283963329712472,"196":-0.10414606364233497,"197":-0.19047739296795585,"198":-0.21444132368319319,"199":-0.01473934604747865}},{"sx":5,"sy":5,"depth":8,"w":{"0":-0.25590218407872056,"1":0.12357739747260908,"2":0.09331451378380719,"3":0.14756988608526173,"4":-0.21542879985639032,"5":0.02248713001251275,"6":-0.1534281885981958,"7":0.04874730348526979,"8":-0.06096630987447949,"9":-0.027582035801669735,"10":0.008784737376676982,"11":-0.11812865275979456,"12":-0.031281108673666014,"13":-0.002163746140871633,"14":-0.12411654218269147,"15":0.010567159063229312,"16":0.037121997911204845,"17":0.22372633447334583,"18":-0.011121139099831132,"19":-0.09585310821223786,"20":0.10805729026364809,"21":0.09802558183648293,"22":0.14858932347032652,"23":0.22085607633340557,"24":0.1818599704647109,"25":0.13484767385985974,"26":0.05348248722655794,"27":0.1302190455266829,"28":-0.004465092623069735,"29":0.09155377277408278,"30":-0.047931295293698974,"31":0.26409745352822955,"32":-0.12125273441278298,"33":-0.3459534080345089,"34":0.07597138906184579,"35":0.10593968501515243,"36":-0.01640462160073611,"37":-0.2996581861452903,"38":-0.01020926597640306,"39":-0.23226211497329835,"40":-0.22620863504662506,"41":-0.2082966794600835,"42":-0.07328484780381636,"43":-0.07799154945565559,"44":-0.2341680742791206,"45":-0.10389806319574024,"46":-0.26774872263963523,"47":-0.035144402705568165,"48":-0.007863388939249573,"49":-0.21411606701310637,"50":-0.18881985796206996,"51":-0.2327926528504155,"52":0.14094736419431797,"53":-0.17271776673226838,"54":0.051395901800733626,"55":0.06301830254364973,"56":0.17122573402228464,"57":0.025146497393836696,"58":-0.02998637201933985,"59":-0.070041662973863,"60":0.0768925169780606,"61":-0.10378675466710702,"62":0.42147731902910224,"63":-0.2219428756569161,"64":0.25998796012134734,"65":-0.2277792365263368,"66":-0.20323199987528498,"67":0.053413773793021195,"68":0.19080589503777043,"69":0.09343010713206927,"70":-0.1441299026092603,"71":-0.039702971864624806,"72":0.013456273907215708,"73":-0.14552811807350502,"74":-0.06972823813953201,"75":0.27566361268400674,"76":-0.0026875696848515686,"77":-0.050093494829024914,"78":-0.07613474439077658,"79":0.0236519916443855,"80":-0.034650128499528185,"81":-0.19023212527969396,"82":-0.0966251705406562,"83":-0.08637949154139758,"84":-0.08793687669050103,"85":-0.16271535199361328,"86":-0.28151149633867983,"87":-0.0002995571591845708,"88":0.11369408383147968,"89":-0.02217668019499419,"90":-0.1263802933719955,"91":-0.22074641934464623,"92":0.051655601195088184,"93":-0.10498896223045483,"94":0.1328117093280432,"95":0.034105845305873114,"96":0.13423962134134382,"97":0.09923537075262219,"98":-0.09803810492790374,"99":0.04505628912174221,"100":-0.16669066995493004,"101":-0.027286570996419915,"102":0.2922785529658644,"103":0.0643579615021755,"104":0.00019774161972587818,"105":-0.15855221829688407,"106":-0.08830961877141297,"107":0.00866931574442817,"108":-0.0309315156805893,"109":0.1790419835701051,"110":0.17762864653738428,"111":-0.05450403429162445,"112":0.05482992815512314,"113":0.06521999147907102,"114":-0.15431696010831059,"115":0.07808982699536592,"116":-0.01798602713903907,"117":0.16512817246662564,"118":0.16067934992612648,"119":0.27661669482872103,"120":0.0017507850274494714,"121":-0.041609846062038,"122":-0.0575452003794883,"123":0.03748259349887415,"124":-0.14146730819452777,"125":-0.24215285316224056,"126":-0.1528563501035766,"127":-0.14391700612021344,"128":0.15939410027714815,"129":-0.19917811602334742,"130":-0.13821313715239683,"131":-0.06967074080368636,"132":0.08192614775430901,"133":-0.1538640206908198,"134":0.09421246181792077,"135":0.07189318287709134,"136":0.0012304531984933902,"137":-0.5453994004415759,"138":0.11709565671684481,"139":0.01842749905974003,"140":0.08721691911868401,"141":-0.06153458226258953,"142":0.10528034033368903,"143":-0.25499637808278985,"144":-0.2401733120369818,"145":-0.33817233371682465,"146":0.509600687265635,"147":0.09732962989963648,"148":0.04109153792719195,"149":-0.06403067905389333,"150":0.0919593408170236,"151":-0.15155964789397894,"152":0.176814828411617,"153":-0.21934669235727233,"154":0.23986385578305297,"155":-0.026180745287191182,"156":-0.012914321968850818,"157":0.1356294722794759,"158":0.0729306157839393,"159":-0.17551211004105832,"160":0.1972050047739406,"161":-0.06624882207325561,"162":-0.00886010709537675,"163":0.19911264181537583,"164":-0.03963712838388956,"165":-0.06703259578337757,"166":-0.11079612759195989,"167":0.0505843894315898,"168":0.20677036212560804,"169":-0.15869259947005607,"170":-0.06709914441422253,"171":-0.0797340178428772,"172":-0.004015891815714669,"173":0.07546081562422663,"174":-0.07319273875269985,"175":-0.06423831670398462,"176":0.21301762219673473,"177":-0.1068796433295934,"178":-0.028736439779355277,"179":0.1045075176053793,"180":-0.0503646292713457,"181":-0.11067704892159114,"182":0.0702637269249532,"183":0.034604593626007436,"184":-0.17665214288384534,"185":-0.02784186663409937,"186":0.012635845219874887,"187":0.1777139139942619,"188":-0.038093176382787725,"189":-0.055785845321451866,"190":0.0319235955440004,"191":0.04344533952305201,"192":0.04348928081370269,"193":-0.1658701415819216,"194":0.004151568823020096,"195":0.17825187610146673,"196":0.11976453100586305,"197":-0.11079578878552587,"198":-0.10691446031726654,"199":-0.12324811618942304}},{"sx":5,"sy":5,"depth":8,"w":{"0":0.08685556411185276,"1":0.08915723740077604,"2":0.14319793093728803,"3":-0.04768109334753756,"4":-0.27097343658630263,"5":-0.03188812536924535,"6":-0.006092584276550552,"7":0.10235529180070108,"8":0.10598703452278381,"9":0.009436408303936982,"10":0.014529332956100692,"11":0.08312883922919352,"12":-0.02930532110161047,"13":0.07891643256463031,"14":0.027264770864978343,"15":0.0767943565449644,"16":0.2367402510411748,"17":0.15139661281236075,"18":0.09703535039493859,"19":0.15151336508700064,"20":-0.01669641847710158,"21":-0.253874356495376,"22":0.4811805042059873,"23":-0.06411619177917612,"24":-0.3220598218550843,"25":0.3203456357173374,"26":0.06548659259848469,"27":0.020359509414947043,"28":0.0068227692931067336,"29":0.0015563365892224128,"30":0.27706469760277813,"31":-0.1692388353248567,"32":0.05236761839833223,"33":-0.08843961724100874,"34":0.11102443173054052,"35":-0.1365371248743839,"36":0.2206782660498953,"37":-0.06644912093234458,"38":-0.15568704930114863,"39":-0.23363921873288115,"40":0.18613795771135216,"41":0.11820836043423007,"42":-0.33292372188856756,"43":-0.06276812412180398,"44":0.02873588986770198,"45":0.18764229132501192,"46":0.02043641839407237,"47":0.20471664615986357,"48":0.10732362654845802,"49":-0.12863052127975583,"50":-0.2269690555021558,"51":0.15839290537359474,"52":0.010654856360387977,"53":0.21407672058345872,"54":-0.05526606423527461,"55":-0.01972408264568101,"56":0.04943267559287749,"57":-0.1116690092758911,"58":-0.21673888118770326,"59":0.2400606237854371,"60":-0.21022897511179567,"61":0.0208298274862451,"62":0.31320792807140874,"63":-0.19909487185155744,"64":-0.17486587575001647,"65":0.1611302348075516,"66":-0.17305032630096107,"67":0.043934502982526394,"68":-0.1502968897119469,"69":-0.2264798193978792,"70":0.16600279402330853,"71":-0.14702986704307097,"72":-0.049823779814869656,"73":-0.11645038957868599,"74":-0.2694443603013467,"75":-0.2746610392398468,"76":0.15540281397958788,"77":0.09205479042140816,"78":-0.15440672465752356,"79":-0.1163566196397283,"80":0.0625745104918963,"81":0.15109881543326595,"82":0.012058013228824204,"83":-0.1977934631074315,"84":-0.020666871196965968,"85":-0.05867722984061551,"86":0.17626883613088148,"87":-0.19652741969349502,"88":0.10197369385171154,"89":-0.2553167413973556,"90":0.06212572438797915,"91":-0.15273890620790784,"92":0.24728762536700272,"93":-0.1914554665698525,"94":-0.20620145214451946,"95":-0.28326113113338725,"96":-0.004766874868644001,"97":-0.0003473899810734045,"98":-0.013675232136144815,"99":-0.002165549035692013,"100":-0.26312633143895664,"101":-0.09696287843605979,"102":0.18921419240732107,"103":-0.03741137975932255,"104":-0.2704862655795085,"105":0.06483477317191579,"106":-0.05389995028352859,"107":0.15032689261299917,"108":-0.2034931094371247,"109":-0.047684089089285925,"110":0.25131094062026027,"111":-0.13844601744195364,"112":-0.02502735282626353,"113":0.010855420223320278,"114":-0.2594048363236826,"115":-0.057335792243730165,"116":-0.09467506907249255,"117":0.24798660010490534,"118":-0.11034454235518547,"119":-0.1160059342424188,"120":0.20324798573565633,"121":-0.008194229134957168,"122":0.1964612344806919,"123":-0.3592014570898789,"124":0.007028140297721987,"125":-0.1932044714473602,"126":-0.00526792104654098,"127":-0.0932804920036065,"128":0.1003277579000042,"129":0.14143342231655176,"130":0.09634344278385178,"131":-0.36186890893784923,"132":0.09467929037887626,"133":-0.0037188710015309766,"134":-0.061215126421342,"135":0.1956424751149654,"136":-0.23510614154109521,"137":0.09867749446209037,"138":-0.13111329088388415,"139":0.008098954488027896,"140":-0.1048912353359053,"141":0.249256337563679,"142":-0.00169564892471663,"143":-0.011640505697843482,"144":-0.31672962431251833,"145":0.06913267088366373,"146":-0.15423362439172775,"147":0.16238053986021375,"148":-0.16713850188936807,"149":-0.036599499627744496,"150":0.09094933596649372,"151":-0.08719947501416679,"152":-0.00968535481597282,"153":0.16167341417740833,"154":-0.10090157312848073,"155":0.05058045524673366,"156":-0.0734922608752477,"157":0.0991272570428685,"158":0.09372242239876659,"159":-0.1982208450863582,"160":-0.0168079568999191,"161":0.15503784350665087,"162":0.1180174281870666,"163":-0.24005177881286668,"164":-0.12475416758583602,"165":0.017002339335890695,"166":0.22503242085122802,"167":0.08771048285195338,"168":-0.25726587407753715,"169":0.2260285740717943,"170":-0.006706322290009506,"171":-0.07577115542410182,"172":-0.06642815358684713,"173":0.2936441275404322,"174":-0.11415494294882035,"175":0.04644455187993416,"176":-0.16264867116394674,"177":-0.15584296087179259,"178":-0.038025477642860454,"179":0.11204588923257575,"180":0.05454882886958806,"181":0.065913831373104,"182":-0.2930718670905046,"183":-0.08879110370972507,"184":-0.1218459482647296,"185":-0.34732132738188287,"186":-0.05019087593698106,"187":0.07899233930422266,"188":0.14431879761838667,"189":0.07098606105704879,"190":0.14214954746542133,"191":-0.13762045905627338,"192":-0.07397614583482288,"193":0.2512142254058686,"194":0.09812947265990335,"195":-0.17848819568107757,"196":0.019439493853118234,"197":-0.031727149977607325,"198":0.31822387491457227,"199":-0.42523068763535116}},{"sx":5,"sy":5,"depth":8,"w":{"0":-0.1458756289966481,"1":-0.12621191876328272,"2":-0.0126978745962904,"3":0.017677579141779115,"4":-0.17751857771655072,"5":0.10010460987289363,"6":0.03696543334063688,"7":0.14827019518069862,"8":-0.17203744534315982,"9":0.001702055698775278,"10":0.05553291417704896,"11":-0.1143435715196534,"12":-0.07061004968448086,"13":0.11082674790169499,"14":0.007985653516819227,"15":0.15044583642558318,"16":-0.004100589182098229,"17":-0.08898394275494288,"18":-0.06027755803801651,"19":0.04146863739280654,"20":-0.32700483009676523,"21":0.13924585906548906,"22":-0.026256025368274725,"23":-0.0005239357169324917,"24":-0.09626442236591692,"25":-0.05567094238402735,"26":0.051177246034615424,"27":0.18580182717947596,"28":-0.1959829759535143,"29":0.5398142480413124,"30":-0.1460811082769638,"31":0.10236053293752519,"32":0.04734237942547746,"33":-0.001116569949060871,"34":-0.19621604476305027,"35":0.3576709698251473,"36":-0.17677420684587974,"37":0.13329426257056007,"38":-0.2569283955257443,"39":0.07001055902764224,"40":-0.1757379082356303,"41":-0.05183697408712287,"42":0.08885833430946108,"43":-0.004565702835846863,"44":-0.07414860615166535,"45":0.011998487169225913,"46":-0.03151216720997269,"47":0.008515820569037914,"48":-0.19677138282947335,"49":-0.04992106302733022,"50":0.18856458927428998,"51":0.02738243672143015,"52":-0.04084960135258788,"53":-0.026653975248815107,"54":-0.12098510493656986,"55":-0.062227936956181666,"56":-0.35700113798566485,"57":-0.09178137599028312,"58":0.23696297886161552,"59":0.16752493704692137,"60":-0.1369691577530358,"61":-0.1199116780541894,"62":0.059195439843056384,"63":-0.30436952486130325,"64":-0.16874642978037463,"65":0.03922617102102445,"66":0.14542895776531625,"67":0.034400440489659984,"68":-0.17841296466151293,"69":0.059802058828594046,"70":0.31342078468149126,"71":-0.21634155476637995,"72":0.07035020485645523,"73":-0.14844817248014236,"74":0.12008425175560404,"75":0.2461596940812009,"76":-0.04957426756670497,"77":0.156845521616665,"78":0.045085671945937766,"79":0.1666949196991349,"80":-0.055459490999130716,"81":-0.07629211116202841,"82":0.09745043229104491,"83":-0.09935131039089945,"84":-0.036380478947394795,"85":-0.5714046453667373,"86":-0.33240948885332405,"87":-0.2417631278656099,"88":-0.20947195041643413,"89":0.2010219044414667,"90":0.13176719749726132,"91":-0.23309981985674716,"92":-0.12364986209098139,"93":-0.364512273447848,"94":-0.16191982640540012,"95":-0.16440285941222363,"96":-0.43480784733853906,"97":0.3474822635669713,"98":0.02469576810944046,"99":-0.40617196687235835,"100":-0.1504077348760492,"101":-0.13821111856023272,"102":0.027274270111855622,"103":-0.038448675207487765,"104":-0.036818300985948994,"105":0.22464936677227101,"106":-0.12870088062179197,"107":-0.009255393777960712,"108":0.09832255041021953,"109":-0.01839873350750771,"110":0.2395487394465791,"111":-0.44701912260200233,"112":0.09767040038420949,"113":0.1602117238758553,"114":-0.11772559517778584,"115":-0.22720324227406297,"116":0.02808348325706693,"117":-0.12638972152395297,"118":0.46823279009351104,"119":-0.33374494126094545,"120":-0.07518976751819212,"121":0.2369714983530861,"122":-0.09472799618751519,"123":-0.2631914165067053,"124":-0.1073033131743736,"125":-0.19895858051111565,"126":0.06348611663231046,"127":0.13609243997050655,"128":-0.30378170960989925,"129":0.2702506393417896,"130":-0.10688406021252712,"131":-0.23346306512842116,"132":-0.14454584897373943,"133":0.024063007881019834,"134":-0.0852277101818705,"135":0.03289905116443297,"136":-0.24131148161813723,"137":0.23441178549365901,"138":-0.32450163715879354,"139":-0.11797439208525982,"140":-0.024398885066084505,"141":-0.2574131525795778,"142":0.08643016453382771,"143":0.09451323104903561,"144":-0.09190958284733847,"145":0.04320635517938933,"146":-0.05509644609167776,"147":-0.22001709715326637,"148":0.2947354574949796,"149":-0.23211271414544354,"150":-0.23580534559665878,"151":-0.21633241877904688,"152":0.1538802384158471,"153":0.1479567703253241,"154":0.09883469953072982,"155":-0.15719455188706846,"156":0.014131583091276885,"157":-0.06354703820938232,"158":0.3573034632450344,"159":-0.24754017734722422,"160":-0.22527311791536597,"161":0.3689659697424745,"162":-0.38347496248102375,"163":-0.18584920774939354,"164":0.007386397133128587,"165":0.050330314765880194,"166":0.42781997023598356,"167":0.16563599950784816,"168":-0.06163765570252268,"169":0.13906279044555545,"170":-0.22029389284092984,"171":0.01060773467777668,"172":0.05142502508808348,"173":0.03419298631147765,"174":-0.1708999870511447,"175":0.04224185942407894,"176":-0.04301241454594167,"177":-0.01576300286859411,"178":0.024744002374409293,"179":0.10622824953344165,"180":-0.04216565491107375,"181":-0.17198114871362058,"182":0.028829210585594144,"183":-0.13865052465266114,"184":-0.05323939316446415,"185":-0.06263165741866539,"186":-0.031364397619321215,"187":-0.22077280762368687,"188":0.29925613383675376,"189":0.06439185544920224,"190":-0.05124404937365776,"191":-0.23092749000429505,"192":0.14313137961207978,"193":-0.087528021297716,"194":-0.24644864298332536,"195":-0.10041336594760264,"196":0.060521673809878766,"197":-0.26461946248496854,"198":0.3239966732756972,"199":-0.42119698590501176}},{"sx":5,"sy":5,"depth":8,"w":{"0":-0.3578120043207869,"1":0.1009390335574112,"2":-0.022092430549671787,"3":0.11531413838120476,"4":-0.29051858570849565,"5":-0.20647943641125396,"6":-0.15934738118244196,"7":0.31075539365474225,"8":-0.21352106444782415,"9":-0.016901167026076,"10":-0.10085421692739162,"11":0.15122795423111232,"12":0.11642061880922033,"13":-0.14628721196517777,"14":-0.21937919471811435,"15":0.1849893001336586,"16":0.03286147884281157,"17":0.10458707206747289,"18":-0.21887703233293304,"19":0.039885974760632485,"20":-0.12618250117606816,"21":-0.2861729552351334,"22":-0.3577562433117504,"23":0.06461312791974902,"24":-0.12788120786676002,"25":-0.11402976226834709,"26":-0.16342131736021606,"27":0.023265960732883846,"28":-0.13978842218908166,"29":-0.3323264114056624,"30":-0.19174978617993574,"31":-0.06761356113237556,"32":-0.24070699725478656,"33":-0.26122491591823915,"34":-0.1229359035576677,"35":-0.1627349801659166,"36":-0.11795793247669141,"37":-0.34713942583695206,"38":0.09374222929893344,"39":-0.027012350244246912,"40":-0.20683980200502544,"41":-0.029048729524118164,"42":0.13212884783165962,"43":-0.027452149182986562,"44":-0.1937281030285486,"45":0.03487952730321725,"46":-0.24704720084917364,"47":0.08204369677793952,"48":0.006900760291796438,"49":0.08652234843841615,"50":-0.054471984262838544,"51":0.009942315234366107,"52":0.22845579908569005,"53":0.03421376486741873,"54":-0.04522467132467529,"55":0.2035403962739131,"56":0.05752649314879987,"57":0.3839677221234087,"58":-0.35340654553583106,"59":0.24997957096961385,"60":-0.03336207687265814,"61":0.024571858368762335,"62":-0.07914250704329805,"63":0.19027103968339928,"64":-0.024602078276383756,"65":-0.09070618585083759,"66":-0.164309136792832,"67":0.06726664875076231,"68":0.04907632925393317,"69":-0.07966969146561419,"70":-0.13197280870434042,"71":-0.006216109513652823,"72":-0.09148114845447389,"73":-0.35469945935410474,"74":-0.10590016461790672,"75":0.04770292206050224,"76":-0.03726772100617184,"77":-0.2602491137078763,"78":0.07405081980080226,"79":-0.11941229923784472,"80":-0.347757154632157,"81":0.09384113027205838,"82":-0.03084625180577857,"83":-0.18170816958275127,"84":0.055242140525207255,"85":-0.28582949675434083,"86":0.13926985714761858,"87":-0.1821153755688955,"88":-0.05586466585182362,"89":0.06015975880644818,"90":-0.1347425987061236,"91":-0.21745935513201378,"92":0.06834995091579697,"93":-0.0182487481963186,"94":0.08572946103495188,"95":-0.10145166133591538,"96":0.018048872137584507,"97":-0.21503907900786692,"98":0.04219810446565407,"99":-0.006554994062297216,"100":-0.22739579988970327,"101":0.2458471769698875,"102":-0.04890384811654169,"103":-0.03482230638573989,"104":-0.01925827951537929,"105":0.04689650131195981,"106":-0.10037406885543475,"107":0.2822220889980903,"108":0.05200802681955576,"109":0.259093121303378,"110":-0.13746303191122608,"111":0.13811846629136926,"112":0.17922894910742548,"113":-0.48359443765646637,"114":-0.2176697703095209,"115":0.15584288055388973,"116":0.0004522184537370878,"117":-0.1301369489737655,"118":0.04004329089692351,"119":0.010752582329693562,"120":-0.20357900143833718,"121":0.07415538284400526,"122":-0.009081765488832527,"123":0.402707090667045,"124":0.01804786613581501,"125":-0.08992100589973463,"126":-0.00763518868573579,"127":0.06515438085574748,"128":-0.22733209828427223,"129":0.02227158073577353,"130":0.09332274304215708,"131":0.10470120966207136,"132":0.0530972984768877,"133":0.04436850481922256,"134":-0.11407843394019623,"135":-0.2700627111613281,"136":0.014666318759854509,"137":0.03008427729832493,"138":0.16804960985709586,"139":-0.09595322472890712,"140":-0.3106957408314234,"141":0.099760193128647,"142":0.2815431343062449,"143":-0.20089043182248467,"144":0.003947849615453972,"145":-0.05663696567743067,"146":-0.14482562080655345,"147":0.10483982442478999,"148":0.21307210122249076,"149":0.04661612992530013,"150":0.11983868078904682,"151":-0.04681926097694764,"152":0.20244465876982454,"153":0.01323379650972097,"154":-0.25803477570711236,"155":0.16861399243078057,"156":-0.009477595948381459,"157":0.13844603609042053,"158":0.035250304665394604,"159":-0.1478134501502587,"160":-0.21290112592961252,"161":0.11420841551978182,"162":0.13025129261558566,"163":0.22888307624701895,"164":-0.0398422828764013,"165":-0.05502824423462506,"166":-0.28163715014194773,"167":0.008104270340116576,"168":-0.3413338183077363,"169":0.1825849787360907,"170":-0.15385439782080998,"171":0.10379946340404095,"172":-0.09359836359366616,"173":0.08381811649450724,"174":-0.04496296247368042,"175":0.13348118549403132,"176":-0.11006603172656781,"177":0.14892890706215575,"178":-0.3643657869987017,"179":0.0465197554598477,"180":-0.08132444058753616,"181":-0.18102104004921704,"182":0.1989161481923362,"183":-0.12527369664689678,"184":0.21011809065336412,"185":-0.19368312779112093,"186":-0.1988322758952717,"187":-0.07528749193965485,"188":0.042120169068125705,"189":-0.014301200623531877,"190":-0.0399141003686631,"191":-0.1873218783959525,"192":0.20298199983536544,"193":-0.14711721410489326,"194":-0.12351501034881365,"195":-0.1361116207027787,"196":-0.023035602112986976,"197":0.050912139981079005,"198":0.037396888116479524,"199":0.0344680361389444}},{"sx":5,"sy":5,"depth":8,"w":{"0":-0.03754307175917503,"1":-0.03423922944921735,"2":0.18173997128453795,"3":-0.003933011553513635,"4":0.1037488783521509,"5":0.17693613349191412,"6":0.085072702417805,"7":0.12680068349499138,"8":-0.2644851122770232,"9":-0.07609352373854741,"10":0.2239559497007862,"11":0.018351448896156135,"12":-0.013747974287860615,"13":0.046764667856254966,"14":-0.06165428400404883,"15":-0.042373961666549,"16":-0.17298127417433634,"17":-0.18593880147064465,"18":0.1016811307858626,"19":-0.006505417536992394,"20":-0.15091600824707918,"21":0.25836921426757936,"22":-0.004806075774094557,"23":-0.041369885309873476,"24":-0.07910977224483125,"25":-0.18917351839736746,"26":0.059338723855450984,"27":0.01256153411985617,"28":0.02330045811954941,"29":0.07425643254669524,"30":-0.05532598375345435,"31":-0.02282274245221289,"32":0.1476149492505848,"33":0.1180067291314231,"34":-0.08463965244604604,"35":0.009846608209972048,"36":-0.03204454956636948,"37":-0.059598992527881346,"38":0.09695751837490134,"39":-0.2729759148235267,"40":-0.1758422493120648,"41":0.1420652938418956,"42":0.07554463329585495,"43":0.06903143672507613,"44":-0.03424605239242068,"45":0.16493368799214447,"46":-0.1354819516733581,"47":-0.03580264654763355,"48":0.0066244247514680105,"49":-0.24024665946767843,"50":0.10689132779739255,"51":0.13500514133462832,"52":0.17456252792559443,"53":-0.049117460778333615,"54":-0.19333230983942856,"55":-0.09741712927464904,"56":-0.15792475279133283,"57":0.009613155809215925,"58":0.12322553803767483,"59":-0.3131897661996757,"60":-0.19759359916140237,"61":0.04735108371907182,"62":0.11459423068520114,"63":-0.04769393055289514,"64":0.010090720744114587,"65":0.09255310936853654,"66":0.06600139877650568,"67":-0.15713676425007939,"68":-0.08593516691903243,"69":-0.0037681522182100554,"70":0.16750640914880158,"71":-0.1664024742238561,"72":0.16541609853663863,"73":0.010358295488287306,"74":-0.020058111531793703,"75":-0.11303066754355284,"76":-0.024714167862613722,"77":-0.03500939226867174,"78":0.07715030627189161,"79":-0.18299750258787426,"80":-0.021551032589952827,"81":-0.004261391406359129,"82":-0.1784122750947483,"83":0.055617678801228164,"84":0.0750643418368228,"85":-0.07418746742066018,"86":-0.15042302827697607,"87":-0.04245672852248412,"88":0.08686137894440629,"89":-0.1466260889121891,"90":0.07466172525484092,"91":-0.18562262843129554,"92":0.15962678701238836,"93":-0.28066711093427454,"94":-0.1842691431857744,"95":-0.011926850302618428,"96":-0.06246219868741894,"97":0.12975003451288278,"98":0.09526692824225476,"99":-0.3919167445372631,"100":-0.142538540252627,"101":-0.1613774717474803,"102":0.32791947794609416,"103":0.060168442213350944,"104":-0.05750008951620865,"105":0.20123790264160707,"106":-0.15166058919839936,"107":-0.19324525784496122,"108":0.1557846097796783,"109":-0.0417517238598912,"110":0.19831644896448142,"111":-0.2307884851845919,"112":0.18624976850277625,"113":-0.10624377234780623,"114":0.028162418974422267,"115":-0.11507096304471492,"116":0.28502719844959945,"117":-0.11309433447140392,"118":-0.09133223300682214,"119":-0.42159481135747723,"120":-0.04064653728121508,"121":0.03636506546448818,"122":0.13318325452545188,"123":0.023731302671944555,"124":0.13925420701940175,"125":-0.2144809217608788,"126":-0.0361714507526767,"127":0.02908076032930869,"128":0.1717762354494134,"129":-0.16746502945292094,"130":-0.012309956046631204,"131":-0.07922848065242105,"132":-0.035105580975574015,"133":-0.25411845105328573,"134":0.06940313971178422,"135":-0.1466375414270178,"136":0.10341613929619102,"137":-0.07059395509044143,"138":-0.1703449683442455,"139":-0.13057305683361503,"140":0.030478509391488554,"141":-0.433257434909426,"142":0.2612177471277801,"143":-0.3871551937967028,"144":-0.0641599205251164,"145":0.16768686951593975,"146":-0.11626238531191987,"147":-0.22858707011826931,"148":-0.19399331165818973,"149":-0.07808853672998722,"150":0.12703412720047122,"151":-0.29700991975218566,"152":0.3531479492511903,"153":-0.11590221648081592,"154":-0.03762672609005555,"155":0.33362539945711234,"156":0.03253616209891997,"157":0.2754152645794955,"158":-0.1694263874709124,"159":-0.2366537580021813,"160":0.16226169804993137,"161":-0.24730570011126046,"162":0.09271832072239888,"163":-0.07735567722772152,"164":0.1616940463996058,"165":-0.21128706196651423,"166":-0.16223545661120856,"167":-0.17892046653799787,"168":0.14780381750449845,"169":0.10100124314438473,"170":-0.18145712807725853,"171":-0.06398586577030564,"172":-0.07894155749713189,"173":-0.23253504977499131,"174":-0.1434185311879183,"175":-0.19982684608630594,"176":-0.0477297609366151,"177":0.07951075463052105,"178":-0.13694466225324456,"179":-0.013499475688248693,"180":-0.06731576481546456,"181":-0.34729109064438,"182":0.24558109584883833,"183":-0.2802954537231794,"184":-0.16121410796047286,"185":0.2204829895073181,"186":-0.1624065921862623,"187":-0.020726085420987316,"188":-0.04569011027873963,"189":0.1932687001817805,"190":0.45988850960389105,"191":-0.33934777637504154,"192":0.26106897176713356,"193":-0.0976889820494294,"194":0.05707692524682879,"195":-0.003832780348558717,"196":-0.0803218268501563,"197":0.4445865531722235,"198":0.13961923796136544,"199":-0.1045777717222787}},{"sx":5,"sy":5,"depth":8,"w":{"0":-0.0826871403819524,"1":0.051834828374232804,"2":-0.1825274321296093,"3":0.5244230455008154,"4":0.12178812363981915,"5":-0.14295806843456837,"6":0.2878371554948656,"7":0.16941030964867648,"8":-0.09922930456445961,"9":-0.2615846468266281,"10":0.11231654417196558,"11":-0.027538812870868137,"12":0.09884541352101169,"13":-0.3648085455688501,"14":0.1373969770631924,"15":-0.2595726327205907,"16":-0.07400024043799976,"17":-0.04236477984445408,"18":0.16327630363865966,"19":-0.3220740625227966,"20":0.2504315333197385,"21":-0.15402761863313175,"22":-0.046251433914201875,"23":-0.11246482340977293,"24":-0.06750048323047074,"25":-0.019544683820938016,"26":0.14036471453104987,"27":-0.1291507333495375,"28":-0.020154265158918418,"29":0.028065292241574717,"30":-0.0372284882911921,"31":-0.2254353014451232,"32":0.02026500206621333,"33":-0.05772609610358728,"34":-0.002951253753645317,"35":-0.07437045092612693,"36":-0.07572213179653708,"37":0.14294574765688614,"38":0.09320703028218584,"39":-0.11631187760876377,"40":-0.07654961682133185,"41":-0.04854475411425946,"42":-0.11448827018517721,"43":0.5869616739268152,"44":-0.03771597755045257,"45":0.3231162934299614,"46":-0.06211319178334768,"47":0.11982371665452535,"48":-0.0018213913164560561,"49":-0.2758285767430602,"50":0.06755017490566316,"51":0.27637711362893586,"52":0.13483325983711691,"53":0.06895072401608945,"54":0.06070169468642052,"55":-0.0724544620483037,"56":-0.08263313710181366,"57":-0.20128465471931853,"58":0.26040706849206297,"59":0.11198262588398043,"60":-0.2276288885006695,"61":-0.3104949748154257,"62":0.1218077266255346,"63":-0.06245777441804135,"64":-0.31593766964820386,"65":-0.13709067474005285,"66":0.05942968847575632,"67":-0.16533512043793158,"68":-0.2356436001416759,"69":-0.11452500854335189,"70":0.18533652212912258,"71":-0.3722048193832221,"72":-0.09288490706534902,"73":-0.005464184522969253,"74":0.18565170437764134,"75":-0.28031039683184716,"76":0.2076321812132698,"77":0.011402062144883394,"78":0.21920917930864922,"79":-0.31603539142843545,"80":-0.02341023986956765,"81":-0.18441562627587443,"82":0.23792164397543622,"83":-0.0902533503630409,"84":-0.365877600714763,"85":0.279095769600469,"86":-0.08237093152329938,"87":-0.09661435727475554,"88":0.041523588609064424,"89":-0.045893995126965806,"90":-0.021992495149497488,"91":0.09299010442800663,"92":-0.21247770904508842,"93":0.1897954752807647,"94":-0.15027371561371944,"95":0.15997923320117946,"96":0.011513149110684384,"97":0.05528382631954371,"98":-0.3979096790087228,"99":0.3212127545700118,"100":-0.0972574991092281,"101":0.0552115559502047,"102":-0.13321312626034387,"103":0.08205657296553885,"104":-0.19693561129903478,"105":0.2032353932720224,"106":-0.4760701701230343,"107":0.12515182181171447,"108":0.09367500722960394,"109":-0.17128886136075197,"110":0.015216535841751444,"111":0.05595562428626866,"112":0.004952524836552846,"113":0.25358645876279384,"114":-0.1410716860004164,"115":-0.06961943527957211,"116":-0.012953112354869938,"117":-0.217312228190585,"118":0.08539147001980682,"119":-0.22396731272189976,"120":-0.05069035265681488,"121":0.18001280792817034,"122":0.030178066338682023,"123":0.15809282349500334,"124":0.12207986952641356,"125":-0.20221162573076443,"126":0.0661973398367428,"127":-0.12680430089402908,"128":0.1892979093231487,"129":0.07735632757953578,"130":-0.05378727279720964,"131":-0.22000485836549435,"132":0.06720677440902106,"133":0.05413986902688766,"134":0.2358223222882598,"135":-0.12210662797694681,"136":0.13404237338410113,"137":0.056903319662144035,"138":0.07879565271378222,"139":-0.055260327206880816,"140":0.0016143469853916374,"141":0.04093126225881439,"142":0.1006047069100423,"143":0.07472780013144444,"144":0.027858035402908505,"145":-0.11212000544121126,"146":0.014973050440634602,"147":-0.04001771629572266,"148":-0.053129485735266185,"149":-0.1118044660717428,"150":-0.04024872391155175,"151":-0.060162505970623344,"152":-0.04577780318185151,"153":-0.2153402108247892,"154":0.06347859888359556,"155":-0.08490825335683974,"156":0.08410260203034342,"157":0.030731216626533348,"158":-0.3133332851922474,"159":0.01645413978506827,"160":0.11199000196693217,"161":-0.1021173786042262,"162":-0.17625208502617612,"163":0.18693825761145835,"164":0.10226443330837424,"165":-0.1645546580334409,"166":-0.09254155339004146,"167":-0.0831976399825548,"168":-0.007029556336374539,"169":-0.15274344513788704,"170":0.05266954164490562,"171":0.092488772149441,"172":0.1148367335627746,"173":-0.08608367100739886,"174":0.19246585254036033,"175":-0.19384968198546826,"176":0.11157541915084213,"177":0.1991278199857516,"178":0.24334629246607095,"179":-0.25718480581385433,"180":0.21996878435268488,"181":0.11254386868928787,"182":0.08374336950640557,"183":-0.17634788114440306,"184":0.04091162986126396,"185":-0.044430893932143896,"186":0.2877125487438854,"187":0.1389470883295825,"188":-0.02808851764042432,"189":0.1165756534657477,"190":0.03575675482284524,"191":-0.006221216515810143,"192":0.052458480824010605,"193":0.31851308759596436,"194":0.11386844775728133,"195":0.27013949406322085,"196":-0.0009117466340958037,"197":0.04070793554606528,"198":-0.15388822595800097,"199":0.13472189557608402}},{"sx":5,"sy":5,"depth":8,"w":{"0":0.004171153106896545,"1":-0.007833320468555184,"2":-0.10576975217502657,"3":0.09270689995343989,"4":-0.055185897451859346,"5":-0.025669101446006065,"6":0.053161813417438246,"7":-0.03927332653705054,"8":0.2527878248277072,"9":-0.0928423748062928,"10":-0.06787958735753365,"11":0.040825160764877924,"12":0.12580225229154862,"13":0.07694377630902353,"14":-0.04207389268514462,"15":-0.14399972384398355,"16":-0.16709391718497738,"17":0.1690754000413759,"18":-0.1356708994143296,"19":0.0063637583351160215,"20":-0.2360547576705766,"21":0.174979380124671,"22":-0.04315694231676818,"23":0.061059146210848715,"24":-0.27143152084942124,"25":0.09002571580255062,"26":-0.030387670444712918,"27":-0.06109397819060089,"28":0.24582569499970103,"29":0.11291158528879365,"30":-0.09708194962032278,"31":0.15686783145505265,"32":-0.099953923191188,"33":-0.17646686957576468,"34":-0.06584072107592435,"35":0.11611756040429155,"36":0.22234431431037835,"37":0.12165364886370326,"38":-0.14762926987296437,"39":-0.24434401189027832,"40":0.022514760345564176,"41":-0.04271619540950058,"42":-0.014728399898798879,"43":0.1721797620590935,"44":-0.09429424107199917,"45":0.032555594300160744,"46":0.21660007483373803,"47":-0.13935406573704578,"48":0.25908214367080223,"49":0.06968152262981203,"50":-0.12018417859701543,"51":-0.07422159748458959,"52":-0.137110504158043,"53":0.23467067693910867,"54":0.23251370625911175,"55":0.06749734779907966,"56":0.09849428909413685,"57":0.07318199935021802,"58":-0.20937027242622883,"59":-0.0006209063401836916,"60":0.18623128940336053,"61":0.09805303066906974,"62":0.19037679842295974,"63":-0.07137423247797746,"64":0.17199035995233886,"65":-0.20518159675036318,"66":0.06554206762374487,"67":0.03852919680848714,"68":0.5297370954734736,"69":-0.1455282615033896,"70":-0.24941847581169502,"71":-0.23289112721185307,"72":0.1961672016958249,"73":-0.3182949494668252,"74":0.12140883110967197,"75":-0.09055696485418598,"76":0.22976159600669352,"77":-0.3101291074574262,"78":-0.06978740564824312,"79":-0.32136520729642926,"80":-0.04485325269337424,"81":-0.3506122506110532,"82":0.07141954202640788,"83":-0.05676891130442785,"84":-0.2883526803073374,"85":-0.14693120656623088,"86":0.17633380317759625,"87":-0.2536720950619454,"88":0.11162010087947334,"89":-0.20885559516065996,"90":0.2472087887665296,"91":-0.003991129978395693,"92":0.05605297671728853,"93":-0.026281997778861643,"94":0.13015836274957426,"95":-0.2522113700419632,"96":0.02132266246920815,"97":-0.06536390945486995,"98":0.31775284763617445,"99":-0.06850509052330656,"100":0.1651382723577263,"101":-0.1914955969516209,"102":-0.07259840783206441,"103":-0.07116227048954844,"104":0.2803040570974859,"105":-0.10489166915938353,"106":0.18706040150038608,"107":-0.1412454889357521,"108":0.13598631373044315,"109":-0.06490607352701211,"110":-0.1604560388153813,"111":-0.11862013042824986,"112":0.20789827504331237,"113":-0.14284914581562755,"114":0.010925522061287657,"115":-0.19232825851239874,"116":-0.17416581769779707,"117":-0.12532370564313491,"118":-0.18223617905581163,"119":0.11458055827311252,"120":-0.0948827255497526,"121":0.024116455765080966,"122":0.06358231114740058,"123":0.1428380490604839,"124":-0.027964761737882766,"125":-0.13433374832452835,"126":0.028358814846060173,"127":0.11755231526468722,"128":0.003012292748575601,"129":-0.007512068330313335,"130":0.44978481052589653,"131":-0.09292499630765806,"132":-0.1603278182975858,"133":-0.04639753631948325,"134":-0.08070280087596708,"135":0.04210178293234981,"136":-0.20859127247944942,"137":0.05241753621804201,"138":0.37180774741552025,"139":0.004228008390978668,"140":0.031264949505110363,"141":-0.23156439179578914,"142":-0.026237324093533063,"143":0.018818082114590424,"144":0.04810220871000132,"145":-0.10804595876701771,"146":0.22634660171924706,"147":-0.29507403752891775,"148":-0.11218884228560404,"149":-0.27465178314865707,"150":-0.21512038261050453,"151":-0.06966427491313543,"152":-0.009183332682281848,"153":0.1869964479298114,"154":-0.17301437243752563,"155":-0.20513999600740446,"156":0.009731547807179169,"157":-0.01953524631669743,"158":-0.0720907068800632,"159":0.06033741702937621,"160":-0.08146520996684271,"161":-0.0056258733182809285,"162":-0.35835785887516347,"163":-0.05273899946811768,"164":-0.07692204322880121,"165":-0.05618723137295227,"166":-0.25926962349219673,"167":0.09301016350018577,"168":0.04035773364134828,"169":0.028055355001304516,"170":-0.3337211890734331,"171":0.10365612727644873,"172":0.048786091898206464,"173":-0.07546657591041794,"174":-0.22143610620608412,"175":-0.036797252106793805,"176":-0.1325121124776899,"177":-0.23165159218365003,"178":-0.017185353237539083,"179":-0.1639826984256852,"180":-0.051402490496897976,"181":-0.09247654592582492,"182":-0.24765869764758233,"183":-0.049072301847556773,"184":-0.28077682358793105,"185":-0.04953016068833251,"186":-0.10297325550671857,"187":-0.24070825912292107,"188":0.0013246431564486775,"189":-0.2885171452219883,"190":-0.06482723828798692,"191":-0.10886340113304914,"192":0.022121212319873178,"193":-0.02159996104974357,"194":-0.19951425007914345,"195":-0.10909210645682893,"196":-0.17384779506948514,"197":-0.14914388071387127,"198":0.05116095272195188,"199":0.020449629557145247}},{"sx":5,"sy":5,"depth":8,"w":{"0":-0.07537985987035015,"1":0.19748606598349563,"2":0.0039506800516324785,"3":-0.02455825375966009,"4":-0.16141664301407332,"5":-0.2530372872109875,"6":-0.024297083123161225,"7":0.227387241621812,"8":-0.08464690800764069,"9":0.19745982941551116,"10":-0.04335362051506262,"11":0.11500732756265437,"12":0.09493297689110786,"13":-0.22358210288419608,"14":-0.012418331841264585,"15":0.14915440495204532,"16":0.13436165804472727,"17":0.18300000180318804,"18":-0.16366310688147442,"19":-0.03496510699450366,"20":0.18251627723708613,"21":0.020097120693646938,"22":-0.03967191420344706,"23":0.05879963934395575,"24":0.17754861513349457,"25":-0.027553069249374104,"26":0.13437631612606157,"27":-0.0918021604435529,"28":-0.0639563938745189,"29":-0.06613449429964383,"30":0.03732235223840938,"31":0.07257778203372192,"32":-0.16873927134765526,"33":-0.02127249411923565,"34":0.1275875111107845,"35":-0.07412934768876708,"36":-0.03394473843584967,"37":-0.015057886658073045,"38":-0.048992943049048415,"39":0.006661068278033166,"40":0.019247415265697867,"41":0.047999401543888334,"42":-0.47532662444235796,"43":0.03828107548139976,"44":0.12401705513855842,"45":0.08429218078372981,"46":0.14132258409691165,"47":0.23615108487748768,"48":-0.01276696419207011,"49":0.2010819614366147,"50":0.0792485735437053,"51":0.11890259912195042,"52":0.10256020453383365,"53":-0.038806810453469516,"54":-0.08248147415950977,"55":-0.061194266062769245,"56":0.15691553545767306,"57":-0.032091243096472995,"58":0.07977089339176356,"59":0.033549280606331514,"60":0.15812384182309358,"61":-0.023995537600398333,"62":-0.1557745239859027,"63":-0.08350793502916376,"64":0.07116548707917583,"65":-0.20049599938622667,"66":0.16036079462697644,"67":0.016148875682377665,"68":-0.021007617680480515,"69":-0.20470860775574937,"70":-0.09037632516662954,"71":0.017301086964135678,"72":-0.20240595198057174,"73":-0.3650825077877074,"74":-0.02799941250215519,"75":-0.37954309235457984,"76":-0.071538018797498,"77":-0.19834154739734428,"78":-0.11481782273125675,"79":-0.2511237882418047,"80":0.0066404735101795965,"81":-0.01809135471488283,"82":0.07314099718821092,"83":0.08932778026002446,"84":0.21649464731348247,"85":-0.03078137776516493,"86":0.14297687369384884,"87":0.06237024476107347,"88":0.07917967806154216,"89":-0.05591843520744019,"90":0.08944851431714936,"91":-0.12451014564485127,"92":0.03865109907347202,"93":-0.04405218147313166,"94":0.026460401877856247,"95":-0.1894514995490692,"96":0.14742565219320275,"97":-0.12618142418843367,"98":0.18663491131836404,"99":0.06936391552057736,"100":0.005420765587763274,"101":-0.12824373469822267,"102":-0.17160591768786077,"103":-0.08136678606244899,"104":-0.05544749827964193,"105":0.2909165705663784,"106":0.11342509440917048,"107":-0.016429176967924328,"108":-0.11808077042099822,"109":-0.26685698888854675,"110":-0.06413817550417225,"111":0.12335945201492822,"112":-0.03192604059437864,"113":0.3307610250312174,"114":0.11238137401076916,"115":-0.023998789246024325,"116":-0.28408090781211687,"117":0.03508936099421037,"118":-0.35262999823678615,"119":0.2605610977681633,"120":0.1371906165293935,"121":-0.25922060389849444,"122":0.08138257302098872,"123":-0.11390345712642468,"124":0.023445742919164195,"125":-0.014375717097059114,"126":-0.060467778406826864,"127":-0.03307522104805367,"128":0.015670916501637388,"129":-0.3202866792667252,"130":-0.040551551336867664,"131":-0.03246551627134272,"132":-0.1409761811377449,"133":-0.06404876531975144,"134":-0.318050469588389,"135":-0.11847179638835928,"136":-0.011639018580462214,"137":0.033791268572620534,"138":-0.09934976699165103,"139":-0.1526353794022899,"140":-0.19091542647132642,"141":-0.15652009187328778,"142":-0.13178265034855494,"143":-0.073882256320258,"144":-0.06745261475492483,"145":0.07602434951606185,"146":-0.20641985817275155,"147":-0.2672396125108911,"148":-0.08745832680844315,"149":0.13803490388604037,"150":0.19637920135291942,"151":-0.029034315295862003,"152":-0.21632807172924634,"153":0.14885927714296157,"154":0.029636628105937278,"155":0.03922399273743842,"156":-0.2564186380495772,"157":0.25548605038693717,"158":0.18344711753145637,"159":0.12838660246923042,"160":0.11100627808890605,"161":0.010062562612778114,"162":0.03174155718497654,"163":-0.02379317392076125,"164":-0.019819605823287158,"165":-0.07336422967184125,"166":-0.3521711630130272,"167":0.13233065727395468,"168":-0.020720772521408016,"169":0.03424466771022563,"170":0.060795953063647136,"171":0.09392911765495092,"172":-0.11061343623468138,"173":-0.0032062913793748605,"174":-0.39173842037094225,"175":0.1715520476983741,"176":0.03089450461355991,"177":-0.23520520794356484,"178":0.03130773009258534,"179":-0.0005675417559802641,"180":0.10274170119767645,"181":-0.263437180294459,"182":0.05434197374046281,"183":-0.09007945546000241,"184":-0.04589845009496503,"185":-0.31248307390120805,"186":0.031257295223257806,"187":-0.04005763122202113,"188":-0.09078597467127353,"189":-0.18304311244886162,"190":0.11248497855147949,"191":-0.17320678417144775,"192":-0.2707845159723887,"193":-0.2734454644436215,"194":0.34360389772294125,"195":0.058600252368717964,"196":0.06752552941388633,"197":0.011910328300328628,"198":0.07944052078902009,"199":-0.2105071783909729}},{"sx":5,"sy":5,"depth":8,"w":{"0":0.007814687569382814,"1":-0.03874575740770194,"2":0.026984624091686733,"3":-0.08921998751347479,"4":-0.0962756555714433,"5":0.09589985947447996,"6":0.09967660409105003,"7":-0.11154837125905155,"8":0.19935317946839096,"9":-0.22910747708062265,"10":0.05043997404018046,"11":-0.005748880032544408,"12":0.04209013689729073,"13":0.06333812213601535,"14":0.04126768891665599,"15":0.03804678171977134,"16":-0.16098921691055543,"17":0.011961541545581761,"18":0.023948049734145195,"19":-0.06320302973557763,"20":-0.02725504289200495,"21":-0.04179782956181085,"22":0.014960868741839162,"23":-0.06327164091987592,"24":-0.007900712175534072,"25":-0.02009184300584115,"26":0.11448886975489485,"27":-0.060948796341166254,"28":0.039872958300617906,"29":0.0013503062755776942,"30":-0.339643308339323,"31":-0.007264866037071687,"32":-0.03178598493306664,"33":0.19901569857834903,"34":-0.11958785249478894,"35":0.0177868077131729,"36":0.13696147214260537,"37":0.011628989697448074,"38":-0.3236508795677528,"39":0.10254481465092767,"40":0.13240274538574393,"41":-0.33548476687548967,"42":-0.04504937509447414,"43":0.01822826398674088,"44":-0.22803618238896012,"45":0.012837645839210647,"46":0.12302805481548743,"47":-0.26603272883138146,"48":0.19015806553545453,"49":-0.09457908609146636,"50":-0.04776790707506793,"51":0.0714250016050091,"52":-0.210450215320879,"53":0.3311430090018935,"54":0.05248638582912746,"55":-0.12477261102753756,"56":0.15341495882427303,"57":0.012625594135181576,"58":0.006835265585903439,"59":0.17261611523130443,"60":0.14804697723542223,"61":0.0817269738477217,"62":-0.06603600369160333,"63":-0.08616809044596437,"64":-0.00422696805922852,"65":0.222261218252351,"66":0.11059007625334326,"67":0.02995299832231233,"68":0.04721574019793769,"69":0.04080529616829067,"70":0.04067271954519023,"71":0.023458181090532156,"72":-0.036107812891796945,"73":0.2880147665669081,"74":0.10817494483495654,"75":0.2009734206801839,"76":0.2974182933227638,"77":0.34489570938649117,"78":-0.1330348823399682,"79":0.10229742597404325,"80":-0.16681106955858527,"81":-0.3985621959723575,"82":0.14625127553086564,"83":-0.35504496096657756,"84":-0.10295042757862373,"85":-0.2788672480988955,"86":0.3040109916225314,"87":-0.296861698541036,"88":-0.08305404085425241,"89":-0.40222318699079784,"90":0.34211989164621914,"91":0.02184731211097853,"92":0.0038069867972319164,"93":-0.041212876011659426,"94":0.3022093351110021,"95":-0.18263812658559117,"96":0.08807976984750292,"97":-0.2734169311409575,"98":0.2539477738437105,"99":-0.022817676422893243,"100":-0.07731503913322746,"101":0.1796608049601984,"102":0.03684573802302341,"103":-0.2474835669675454,"104":-0.10978644725528264,"105":-0.17716844871501322,"106":0.18105084310016795,"107":-0.049905076956090685,"108":-0.04894419899460373,"109":0.0847066772693003,"110":-0.014601495580275124,"111":-0.2590775262777997,"112":-0.11502118274092127,"113":-0.06368327725363135,"114":0.2159744238274052,"115":-0.310025776150611,"116":0.11303032019877259,"117":0.21801474953652425,"118":-0.06658194431149286,"119":-0.05412618759243939,"120":-0.16646858729334787,"121":-0.1519105811713018,"122":0.004640299599025382,"123":0.34063931578339646,"124":-0.26752083663381016,"125":-0.013045713386677656,"126":-0.0032809982312091987,"127":0.24924819534822082,"128":-0.09884548531892094,"129":-0.3064907679409011,"130":-0.017812811742875644,"131":0.3422619515608537,"132":-0.11057188338267153,"133":-0.19024352623441235,"134":0.11158124421499126,"135":0.005971407245085145,"136":-0.2768620818902972,"137":-0.3141338049243801,"138":-0.13881304698035998,"139":0.1355186768861607,"140":-0.13944907582889599,"141":-0.3853185081894964,"142":0.019802414053055967,"143":-0.06811126623841317,"144":-0.28022904897337936,"145":-0.059910779344939,"146":0.037914112777148914,"147":-0.27371365143046067,"148":0.0038323515942334067,"149":-0.4906377436967993,"150":0.07209982255269316,"151":-0.1473069804133407,"152":-0.32403378670589633,"153":0.0144515686533322,"154":0.28159988368270533,"155":-0.18964920362522072,"156":0.137155094401033,"157":-0.3843753446816588,"158":-0.007098959577689558,"159":-0.14428723309891667,"160":0.10813283503726061,"161":0.07856472427866547,"162":-0.12732200354085904,"163":0.30409319104161897,"164":0.10536730019454792,"165":-0.026124654177183425,"166":-0.07253393266745274,"167":0.2500476617868966,"168":0.07653069806141068,"169":0.23898099560807473,"170":-0.2663661757322745,"171":0.1194100184327603,"172":-0.08973963287909485,"173":0.03318158789127777,"174":-0.14740431204919532,"175":0.2759774283998115,"176":-0.27508898282523014,"177":0.1913567195029783,"178":-0.23190443103674824,"179":0.015507618644303927,"180":-0.2450433336953455,"181":0.07459966949642473,"182":-0.030425557446436574,"183":0.45261611133320334,"184":-0.0972594446330732,"185":0.2654823565940023,"186":-0.36136758294647614,"187":0.09293070116583405,"188":0.013062514019977194,"189":0.031598260272279736,"190":-0.1388342364496959,"191":0.2392066094000396,"192":-0.16564442161983253,"193":0.23456075833980616,"194":-0.3465743269669017,"195":0.19791477821342449,"196":0.14620542014771212,"197":-0.054508986787065596,"198":-0.34849950125906326,"199":0.17104325923296437}},{"sx":5,"sy":5,"depth":8,"w":{"0":-0.0023320846599265226,"1":0.19448584734492722,"2":0.33566254845665455,"3":-0.10677991041728281,"4":-0.1666998826755973,"5":0.10909243226892885,"6":0.10801612098582293,"7":0.001910242318009186,"8":-0.09452421478661513,"9":-0.014538835748526394,"10":0.12157126483225313,"11":-0.13605008243395608,"12":-0.22216584505561104,"13":0.07784444337370648,"14":-0.050435731718387736,"15":0.17814949665042962,"16":-0.1298403566088524,"17":0.1899824781970048,"18":-0.2133468487522944,"19":0.032129071117944996,"20":-0.024778935301096826,"21":-0.08208928097578126,"22":-0.01938109139029362,"23":0.019836731492916995,"24":0.05659545236933906,"25":0.09711370260583621,"26":-0.2743411216593844,"27":-0.12769351711915858,"28":0.08586345155758474,"29":0.10290405214480085,"30":-0.04570868319000675,"31":-0.03365157602489564,"32":-0.16857163147670468,"33":-0.054568657168048824,"34":-0.18660882709449902,"35":-0.14141108181095197,"36":-0.08102599142921575,"37":0.11603111357997875,"38":-0.18629847531987725,"39":-0.20997489734091523,"40":-0.13903322650193534,"41":0.060199084174113515,"42":-0.09478768366399169,"43":0.20086063921488473,"44":-0.02271570437659946,"45":0.060504357581556305,"46":0.18173762359167067,"47":0.03693963108541833,"48":-0.11287085725149663,"49":0.16723949693511572,"50":-0.05420328043986482,"51":0.024018986363535458,"52":-0.008110027872885768,"53":-0.02877031075680468,"54":0.17515177146366506,"55":0.07235390052366479,"56":-0.09131533885813496,"57":0.19497981021826188,"58":-0.122443772641631,"59":-0.027400180226418727,"60":0.13731216552098854,"61":0.20984786472053193,"62":0.11149974623640574,"63":-0.22464362752338166,"64":-0.009009494878421447,"65":-0.20363647117393477,"66":-0.18804265200046885,"67":0.011178269171230125,"68":0.1286024869474802,"69":-0.17919958383720216,"70":-0.29292992484077907,"71":-0.3173967490148516,"72":-0.09036390024558538,"73":0.09930512440191125,"74":0.08845163279696568,"75":-0.17755487488564,"76":-0.017125415305600803,"77":-0.07884717526625167,"78":-0.07214684127246399,"79":-0.11634086842277927,"80":-0.25814257315586425,"81":-0.1305528774436986,"82":0.03521539979924387,"83":0.3073815705864247,"84":-0.1132109021033649,"85":0.09386486963011849,"86":-0.08154420384027672,"87":0.08061667216099846,"88":-0.02923029261727491,"89":0.1193202770418673,"90":0.06836401942987738,"91":-0.13069647258256703,"92":-0.2486845729072862,"93":-0.1751922678590716,"94":0.24627290787841255,"95":0.020486627797129963,"96":-0.14695536125031386,"97":0.00601602670159773,"98":-0.1082456883149036,"99":-0.121455515150671,"100":-0.0012506023033381354,"101":0.08957075438675498,"102":-0.09453598058029328,"103":-0.5048267769644549,"104":0.2902680978163287,"105":-0.5563836533066783,"106":-0.23252562275672564,"107":0.006651933446780894,"108":0.019747374744037875,"109":0.018318440469491135,"110":-0.15130432125304585,"111":-0.40018925765461166,"112":0.04425288111136844,"113":-0.224915999252027,"114":-0.2304706870166834,"115":0.11208528893329844,"116":0.1205729260680178,"117":-0.08152951507727184,"118":-0.06360548208620569,"119":-0.1362038021132226,"120":-0.18866362325083733,"121":-0.07495762166604565,"122":0.053996636499729946,"123":0.02621834635375633,"124":-0.1634971827268609,"125":0.02220584298989917,"126":-0.18997355780364258,"127":0.13821422553972676,"128":-0.21435524179153373,"129":-0.12674831610357623,"130":0.06893866996785188,"131":0.1144387632683497,"132":-0.31479655258245826,"133":-0.26497282700220015,"134":0.09329875655659996,"135":-0.2406379373267721,"136":-0.08774789562407918,"137":-0.13711752663463467,"138":-0.0055869771489472225,"139":0.17693597289475688,"140":-0.04377942412889701,"141":0.2363087262129337,"142":-0.03744109066318144,"143":-0.19062578123353263,"144":-0.11604429942802896,"145":0.004469197669901582,"146":0.050077856499296046,"147":0.025362178229048158,"148":-0.13521044599272347,"149":0.38669072664599785,"150":-0.13703962431375047,"151":0.05728901421833965,"152":-0.06599672584021567,"153":0.17313164876573933,"154":0.33115314535102797,"155":0.3755252479329512,"156":0.19584280054341688,"157":0.1538709267774149,"158":-0.24629492425893038,"159":0.05962085313633096,"160":-0.23598392591326145,"161":-0.06302358210597266,"162":0.12083834912895954,"163":-0.11400272933417437,"164":-0.060687105027303186,"165":-0.06361101517401602,"166":-0.0013679810306995754,"167":-0.028646869230078482,"168":-0.10868409795838549,"169":-0.2122944111391799,"170":0.028277197480708147,"171":0.028350239384061334,"172":-0.07648229595266338,"173":-0.09897022588290465,"174":0.11444031802011545,"175":0.11649424263439663,"176":-0.33159359183775033,"177":-0.06345057469882495,"178":0.2936643908161672,"179":0.10987725061526876,"180":-0.10043202934456441,"181":0.256362732090622,"182":0.046398900453563215,"183":0.25212330831400515,"184":-0.21594948008974105,"185":-0.3505360922581924,"186":0.13238155254094205,"187":-0.0008041531151290118,"188":-0.01992073559313628,"189":0.0935150248943476,"190":-0.013850819857482863,"191":-0.009265399538642381,"192":-0.007179828139896928,"193":-0.13005228509859465,"194":0.41016398177965063,"195":-0.018830034103953067,"196":0.10859984298672982,"197":0.14389086116027133,"198":-0.035469537546270996,"199":-0.24475204026334285}},{"sx":5,"sy":5,"depth":8,"w":{"0":0.16696839977435313,"1":-0.2307557018906496,"2":-0.017356425302540363,"3":-0.22988275085616539,"4":0.03947965003645329,"5":0.00534755604274543,"6":-0.045838741516629075,"7":-0.3555629488360257,"8":0.2070821213596124,"9":-0.26049369699530317,"10":-0.10302977166096954,"11":-0.13144146529484418,"12":-0.07286196679666228,"13":0.12531104664504694,"14":-0.2680846817134806,"15":-0.116121960315753,"16":0.016266344566462164,"17":-0.39856829288945583,"18":-0.08300435458208413,"19":-0.0927929645667712,"20":-0.13078073858828443,"21":-0.03437131067214401,"22":-0.252480504126962,"23":-0.16828517771517643,"24":-0.08315628387686642,"25":-0.22855295720031696,"26":-0.058317978549791524,"27":-0.07095294504081995,"28":-0.10493840804668661,"29":0.052080027402732786,"30":-0.33059269423177723,"31":-0.052850062305445415,"32":0.04352432832216184,"33":0.11399455490343872,"34":0.08311520837178384,"35":0.06970489859049335,"36":-0.15234230912908514,"37":0.18208000908877417,"38":0.08659532793507253,"39":0.20216099433008136,"40":0.007059192298117861,"41":-0.010140776121829613,"42":0.103411061309056,"43":-0.18680349417206868,"44":-0.09004961484975446,"45":-0.007272627410617225,"46":-0.16716784632467444,"47":0.03831071950690594,"48":0.00010378711161991229,"49":-0.16987735224416178,"50":-0.055918210929718444,"51":0.0065105973859088005,"52":0.020985003967229007,"53":0.2498734909409206,"54":-0.2570602020238193,"55":-0.07617350133631597,"56":0.12933794951931626,"57":-0.28790359105189406,"58":-0.10080004026429898,"59":0.0004346577463721138,"60":-0.09043146953064936,"61":-0.10518873051515779,"62":-0.08834773069628248,"63":0.06802988762040696,"64":-0.07473823168462558,"65":0.14053304823751672,"66":-0.010690707801866246,"67":-0.23664119767432193,"68":-0.1621133384268234,"69":0.09175992058264047,"70":-0.02049516476583666,"71":0.04323471385605046,"72":-0.011034846293824452,"73":0.14199674484076444,"74":-0.07447815746430397,"75":0.03199572580006831,"76":-0.15708726009619128,"77":0.17141741368304644,"78":0.011917286776741875,"79":0.20243408161377016,"80":-0.19927539800057875,"81":-0.033368430919684174,"82":0.19495654831638273,"83":0.12099261623035196,"84":-0.1495491027695042,"85":0.008242095712738786,"86":-0.03781055009359417,"87":-0.0500930178813381,"88":-0.0019835141735384683,"89":-0.035624321739803726,"90":-0.10112521617780303,"91":-0.047585815035160385,"92":0.16284362835263735,"93":0.19542999189053548,"94":-0.05522975456067291,"95":-0.038779654231690816,"96":0.328979140442994,"97":-0.3526397139076062,"98":-0.11178660901419725,"99":0.075795573415419,"100":0.09175881872080192,"101":0.045486433015635715,"102":0.020831889937701055,"103":-0.00039125563135467234,"104":-0.06469650150121076,"105":0.049326138410724425,"106":-0.2693047224279804,"107":-0.11173842287794464,"108":-0.2297420926138118,"109":-0.16704893432235796,"110":0.3012402612730454,"111":-0.22610137819211248,"112":-0.27410751798416805,"113":0.18517774839670414,"114":-0.03162339241595472,"115":-0.19200827300816634,"116":0.12567481577961265,"117":-0.02613797055711728,"118":-0.07571133788896516,"119":-0.211942205858504,"120":-0.21359643362869984,"121":0.15707926321841195,"122":-0.012483076963559712,"123":-0.21365913266402028,"124":-0.08150526933923766,"125":-0.022182888169746888,"126":0.10606985528507412,"127":-0.1224417030879038,"128":-0.09078685156191335,"129":-0.06445953801205884,"130":-0.15773001183225216,"131":-0.20256623913032895,"132":0.16525521627605022,"133":0.19938751333258206,"134":-0.03741946172787528,"135":-0.054754832899451364,"136":0.2664960102170404,"137":-0.3053010379498999,"138":-0.07572018820443635,"139":-0.04930517373133495,"140":0.15953065699213204,"141":0.06237732868989544,"142":0.02627775800751692,"143":-0.17827154721811225,"144":0.10040504569111232,"145":0.08877570192578407,"146":-0.23056872403084125,"147":-0.06791604972532697,"148":-0.3053746716353541,"149":-0.2848330614322156,"150":0.36624812601891593,"151":-0.17962957166650587,"152":-0.1582876743446637,"153":0.1301720399290593,"154":-0.1252858095321582,"155":-0.21843903429302702,"156":-0.020294692888131703,"157":0.1064771134221461,"158":-0.016187876963295936,"159":-0.09516593827859941,"160":-0.23436376931360728,"161":0.00035246226828142377,"162":0.22294774114130642,"163":-0.1968903148777737,"164":-0.16748065767763093,"165":-0.06647410108402695,"166":0.3350140583860962,"167":-0.31888097955995054,"168":0.16600859787354608,"169":0.11171961349571537,"170":0.055219665588445564,"171":-0.3189088061658812,"172":0.12023317571541522,"173":0.17766480506106436,"174":0.08978011055258636,"175":-0.18790824088179112,"176":0.29913855741575346,"177":-0.030354546566138244,"178":0.06631740509509441,"179":-0.06369431012011939,"180":0.17890605761447667,"181":0.06828300228165744,"182":0.0507082026947321,"183":-0.2820222487045125,"184":0.08918641627380611,"185":0.019214117422414922,"186":-0.2784681741919103,"187":0.18310634817104993,"188":-0.18887811814788869,"189":-0.04423751620248069,"190":0.17400822643634825,"191":0.003964022028469412,"192":-0.17647672506294348,"193":0.08946021411694946,"194":0.08916959763373551,"195":0.005282262455635869,"196":-0.0710010859088815,"197":0.1302408908423109,"198":0.023832352609304507,"199":-0.07180366950465371}},{"sx":5,"sy":5,"depth":8,"w":{"0":-0.12289629584369112,"1":-0.05054055137628381,"2":-0.2574147908021937,"3":0.25138797220281606,"4":-0.28526215726103177,"5":-0.0772963871775658,"6":-0.0702902937781366,"7":-0.0464959683551249,"8":-0.21953543951803714,"9":0.04113800171408484,"10":-0.10154694632020361,"11":-0.29433935689027646,"12":-0.09798166319417212,"13":0.02766195400928522,"14":0.01474596421971672,"15":-0.008059384177190397,"16":-0.14183160838952372,"17":-0.0057835383379346555,"18":-0.18584024493980666,"19":-0.058498292775466094,"20":-0.10288901210984544,"21":-0.00951327447363397,"22":0.08831964553136863,"23":-0.0673053665844856,"24":0.011247559821113291,"25":-0.13896435506447954,"26":-0.19766040152516465,"27":-0.056689288590130005,"28":0.09496891794566577,"29":-0.054562974246484645,"30":-0.10206169553491554,"31":-0.003713770233592271,"32":0.046273348723617824,"33":-0.020144483870492384,"34":-0.23109126419119141,"35":-0.032018251407181814,"36":-0.01689635649680157,"37":0.18801237911037091,"38":-0.15460115322716408,"39":0.057800283809215224,"40":-0.2924079746746388,"41":-0.2643974579764144,"42":0.09628588405372132,"43":-0.11052114530479182,"44":-0.09992769560737805,"45":-0.15290914347453766,"46":0.007435985800408746,"47":-0.1600831150636161,"48":-0.2954501927761715,"49":0.20975163382275755,"50":0.1381881109715322,"51":-0.18513495743863018,"52":-0.12687623618478483,"53":-0.24911628181304274,"54":-0.049873483393767536,"55":-0.14755010957175155,"56":0.0115430577791114,"57":0.12897600123902966,"58":-0.03156177931779117,"59":-0.17040765334669256,"60":-0.026650868905551385,"61":-0.024324391706466632,"62":0.12440282715799791,"63":-0.04684812667399546,"64":0.15639341611072433,"65":-0.07011891741314334,"66":-0.006951077837567964,"67":-0.11095426590566727,"68":0.13792773995574895,"69":0.07651390483906702,"70":-0.01598720720588813,"71":0.005505505850699211,"72":0.14784377881893593,"73":-0.045204580808768824,"74":0.0848336919183135,"75":0.03422165993161365,"76":0.05506548496026228,"77":-0.14644602854490565,"78":0.04406331609571427,"79":0.10097307717140659,"80":-0.15706283607899063,"81":0.1308711029305522,"82":0.2336833603202564,"83":0.022821844379942814,"84":-0.19424756400490117,"85":-0.09397005177314635,"86":0.06486386535178333,"87":0.018874059474405465,"88":-0.22779919342823413,"89":0.20498592118013298,"90":-0.022227105266855774,"91":-0.1587475029054255,"92":0.013103134240942026,"93":0.02322928764852551,"94":0.32689814803209716,"95":-0.0519172525286434,"96":0.28227922219537493,"97":0.19070530646517322,"98":-0.08604535956378496,"99":-0.19989382998973743,"100":0.17149509909879043,"101":0.016083627643654595,"102":0.2377006860958934,"103":-0.04260675466886573,"104":0.11516627951903503,"105":-0.20715830077599384,"106":0.0870943871831959,"107":0.12057448526083253,"108":0.08965777213986763,"109":-0.20011086300263983,"110":-0.2769312907980855,"111":0.012282465106149852,"112":0.07777101622221859,"113":-0.1946497831807022,"114":0.12176991886019256,"115":-0.08458599292382128,"116":-0.041427880915656884,"117":-0.11123929388448649,"118":0.00795366239133686,"119":-0.06179011106681759,"120":-0.23629368577303828,"121":0.022987052923381462,"122":-0.26398954684346965,"123":-0.17320186017376732,"124":-0.16841714930326837,"125":-0.058692872596091565,"126":0.15428189007979742,"127":-0.04686398171780553,"128":0.06228852311555547,"129":0.28213278613863346,"130":-0.2127194352619135,"131":0.019875766490668113,"132":0.16363069591285184,"133":0.020763043149634227,"134":0.38513076596353624,"135":-0.07409481506807868,"136":0.2294161670135929,"137":-0.06534732904618376,"138":-0.08029903223335717,"139":0.06245959904169796,"140":0.1856138460779933,"141":-0.0696812554742003,"142":0.03749288020225631,"143":-0.23888583682497103,"144":0.18869113751982466,"145":-0.20280635054420473,"146":0.11586685129190176,"147":0.019013360583278478,"148":0.1228327411117467,"149":-0.18953184154681496,"150":-0.4056564994988459,"151":-0.19426389479562162,"152":-0.01739945648415774,"153":-0.20017177164776986,"154":-0.017151560955172708,"155":-0.18197718301919089,"156":-0.2196825190012201,"157":-0.15137900047498973,"158":-0.05764815809165138,"159":-0.18129903350226775,"160":-0.27806996905844406,"161":0.17853450630061113,"162":-0.16628401715326283,"163":-0.23636287306371076,"164":-0.12825320203924845,"165":-0.09198870236942673,"166":0.25835918927428114,"167":-0.32271806990743757,"168":0.11798063705936203,"169":0.08289154042312545,"170":-0.19868117462360638,"171":0.10775315308670179,"172":0.07043854288723704,"173":-0.02331652989705876,"174":0.08771251025636026,"175":-0.11423371515837305,"176":0.08797611171068218,"177":-0.017364543708627552,"178":-0.1007316643864323,"179":-0.07218391939604106,"180":0.1459327381699826,"181":0.10400701691685185,"182":-0.3983674472334321,"183":-0.19850901909457186,"184":0.1776264625980525,"185":-0.08225210296445981,"186":-0.21007116686732796,"187":-0.15101624436887914,"188":-0.03524639266507841,"189":-0.1879922237586601,"190":-0.2181426419661984,"191":0.09065069653659474,"192":-0.057811415072812795,"193":0.01598552637644065,"194":-0.390829963448417,"195":0.1273450142153198,"196":-0.22655855310628303,"197":-0.09067574950379466,"198":0.05975511689415729,"199":-0.02229429819723304}},{"sx":5,"sy":5,"depth":8,"w":{"0":0.08291400524323427,"1":-0.029003173520024576,"2":-0.1332616899014541,"3":0.0753069177520834,"4":0.17780117871230977,"5":0.10369408101984709,"6":-0.2661267771882779,"7":-0.16425862691097895,"8":-0.09088287256078871,"9":-0.0889107981519494,"10":-0.09756447281393554,"11":0.31304318139482434,"12":-0.1288944405840572,"13":0.3125651466892173,"14":-0.12715342224960116,"15":0.05538722884842202,"16":0.01033039632501661,"17":-0.058418310569572036,"18":-0.18357725687678936,"19":0.34136562623599886,"20":0.006052747742686582,"21":0.38693485341980466,"22":-0.33426580933984534,"23":0.21856599156610115,"24":0.02511983574910858,"25":-0.05146300934708045,"26":-0.2411203870477592,"27":0.3232825250167415,"28":-0.18379609132272953,"29":-0.045122288011225246,"30":0.09836928790851963,"31":0.16878208835921968,"32":-0.28557203431325495,"33":0.16698360277741814,"34":-0.032773783860343964,"35":-0.06495241593070378,"36":-0.005937123003131599,"37":-0.20599363564092557,"38":0.34947576991439505,"39":-0.2725902546422383,"40":0.06864209752024023,"41":-0.07896618951668148,"42":0.17073871078475983,"43":0.19289004731623133,"44":-0.03948770843377287,"45":0.3148881404784013,"46":-0.03191053952890072,"47":-0.21656084503138479,"48":-0.11462296219153037,"49":-0.07421415343387458,"50":0.2589699768831592,"51":0.02806705282553505,"52":-0.17016446953954645,"53":0.17349897269350772,"54":0.23330692496315905,"55":-0.26520713858874917,"56":0.0696680382633647,"57":-0.029712244815974686,"58":0.17167073297770363,"59":-0.03704589498385773,"60":0.05541714179273042,"61":0.3123890702192252,"62":0.12857296049121775,"63":-0.03635356241004521,"64":0.08283462351504581,"65":-0.2601752132261851,"66":-0.2967361056188525,"67":0.25339673788167755,"68":-0.15779459603270954,"69":0.04686126398988259,"70":-0.08282438945800678,"71":0.04645235542520557,"72":-0.2620524615638171,"73":-0.04194539078469605,"74":-0.13263143382333237,"75":0.06394048979448927,"76":0.053667758820964404,"77":0.047569617079398004,"78":0.17701360905381472,"79":-0.24622865279996073,"80":-0.19955047053452035,"81":-0.08580747960856541,"82":0.21731643606199888,"83":0.1019316758275898,"84":-0.06980531147094562,"85":0.07560959790722911,"86":-0.2972300000772065,"87":-0.25961814717980386,"88":-0.21544293684542484,"89":0.32436993414045606,"90":0.09511554744900946,"91":0.004564667213762302,"92":0.034836831485217684,"93":0.07749032831207409,"94":0.08238986971369637,"95":-0.19430903399926874,"96":0.06994780502040891,"97":0.33190443899427935,"98":0.11085177786358326,"99":0.010751833110601681,"100":0.11722697063651978,"101":0.008231080461848499,"102":0.1805379857011156,"103":-0.15032619977211698,"104":0.18829834131074166,"105":-0.19142186774953793,"106":-0.15406554933371538,"107":-0.18936737353482586,"108":-0.04699093316641899,"109":-0.062261903152805324,"110":-0.0159068466844859,"111":-0.09827995579013113,"112":-0.10299198415717725,"113":0.13184390688871014,"114":-0.19398505916984402,"115":-0.1671036952422476,"116":0.0045739445525767915,"117":-0.0990968647839646,"118":0.13843177223439843,"119":-0.26787924505810773,"120":-0.2386381524252918,"121":0.2942953328725424,"122":0.27609856143168754,"123":-0.13552209800944023,"124":0.0512280278192633,"125":0.236792104121546,"126":-0.15303672772700092,"127":-0.07437564989850483,"128":0.015528441371324907,"129":0.09010395688248785,"130":0.11185717318531019,"131":0.05066730405869937,"132":0.12647954038193793,"133":0.025452232708817375,"134":0.04022330775394936,"135":0.052042559742236726,"136":-0.045592570150954546,"137":0.034725126809556514,"138":0.04151251310722504,"139":0.18960706938141605,"140":0.1576500083952242,"141":-0.18080740012784702,"142":-0.13751232401214886,"143":-0.4494031092796002,"144":0.037224295877416734,"145":0.02966708017858201,"146":-0.08704177243268309,"147":-0.20007276012952996,"148":0.22288660555243137,"149":-0.07920583211117652,"150":0.15424354062949863,"151":-0.04866022781626784,"152":0.08794391995099289,"153":-0.01603511289279444,"154":0.10362011691325711,"155":-0.4054108636099444,"156":-0.06779638706941384,"157":-0.15594054713737976,"158":0.16500177495598214,"159":-0.2564608387434099,"160":0.22966482768747654,"161":-0.05804649486130454,"162":0.24408265010889382,"163":-0.19147359310188772,"164":0.23315778712062443,"165":-0.046208662356522455,"166":-0.2607772556680788,"167":-0.1287237374093267,"168":-0.04077099499504972,"169":-0.3108377803067743,"170":0.32762799118354063,"171":-0.03319771320999114,"172":0.18569244071248425,"173":-0.19076108864406835,"174":-0.22544258421663826,"175":-0.0811648455862972,"176":0.02855021588846406,"177":0.19132476573593482,"178":0.2146677675552705,"179":-0.08939937186292801,"180":-0.0015920886747427777,"181":-0.18991270602309354,"182":-0.0411005297509514,"183":-0.1273369577333402,"184":-0.034023697485796235,"185":0.146557259517464,"186":-0.1049563280634591,"187":-0.27862123601740973,"188":-0.13432218508047777,"189":-0.06188910973673991,"190":0.12359690111443951,"191":-0.10593822936190186,"192":0.08191208948782867,"193":0.11118634434065712,"194":-0.3852913941487434,"195":-0.09380080353255,"196":-0.2979974636819618,"197":-0.010007928818725255,"198":0.04219315689027092,"199":-0.17467998838908363}},{"sx":5,"sy":5,"depth":8,"w":{"0":0.05391802211112735,"1":0.017054441526212955,"2":0.14132801527829833,"3":-0.24264163131571084,"4":0.04060984903679889,"5":-0.07483640396056263,"6":0.1568345911647479,"7":-0.1700969763902093,"8":0.17514175268709484,"9":-0.14509687327673482,"10":-0.05370822485290487,"11":-0.25208021738866065,"12":0.2726588414999921,"13":-0.1591994452823532,"14":-0.001754076096225903,"15":-0.19734942854425525,"16":0.18415616683906536,"17":-0.13286463270050752,"18":-0.1508195042686704,"19":-0.0654699309229393,"20":0.10117848314361762,"21":-0.17597963528109709,"22":-0.06792358513624827,"23":-0.20534218343354066,"24":0.2539668437977547,"25":-0.11068928519498901,"26":-0.08529545934634446,"27":-0.09376772724589992,"28":0.12340427327823987,"29":-0.10716348600368483,"30":-0.2779231951472146,"31":-0.1926027554798264,"32":0.012052031815404053,"33":0.10906516377782806,"34":-0.21496604517871515,"35":-0.09123899049701589,"36":-0.11124602704388244,"37":-0.35117625900348065,"38":-0.06597137221234749,"39":0.003994019974767525,"40":-0.06978356106439784,"41":-0.012438015628545188,"42":-0.13865688490651837,"43":-0.053647911077044676,"44":0.0734752705404302,"45":-0.059864796862547344,"46":0.27012692871989,"47":-0.16339350151869406,"48":-0.012305826378314585,"49":-0.26816237285903466,"50":0.09239643793553502,"51":-0.05315852460984575,"52":0.12103434040814193,"53":-0.17180351480523362,"54":-0.23866541450827988,"55":-0.2812567413325823,"56":0.12818827310132191,"57":-0.18858507375962077,"58":0.09042492306872615,"59":-0.09986448263184752,"60":-0.011835595777869731,"61":-0.14531461007234087,"62":-0.11286311347099476,"63":-0.20494675884757016,"64":-0.055973446781378625,"65":0.14584546483765054,"66":-0.14278845201790935,"67":-0.12847972820543982,"68":-0.08864559670568822,"69":-0.009424829403232783,"70":-0.06854384180276067,"71":0.16708852337657756,"72":-0.33309679163741307,"73":0.23646347997959846,"74":-0.5314603315656254,"75":0.1400411403928859,"76":0.06362362913497824,"77":0.013193258224588625,"78":-0.014672642794669642,"79":0.13958041282581576,"80":-0.05614465057266555,"81":-0.16616693256738596,"82":-0.004602285736460947,"83":0.06952353223433627,"84":0.0015724594773104765,"85":-0.1039296077792707,"86":-0.09322409633019019,"87":-0.17222461850564133,"88":0.03790091903823452,"89":0.017838447152426565,"90":0.16450514055926266,"91":-0.14837633488792265,"92":-0.13230945812123848,"93":-0.19728801703715385,"94":-0.17387278124364372,"95":-0.13018190819971878,"96":-0.2306479315736859,"97":0.3546530677347149,"98":0.02348760625276529,"99":-0.2643658140773637,"100":-0.09899526544984566,"101":-0.04802737602724528,"102":-0.06913552938287289,"103":0.06765625825281937,"104":-0.2552131872432716,"105":0.26765965793882784,"106":-0.22790573197337546,"107":-0.12647497551223347,"108":0.06328824587673973,"109":0.05093872709203294,"110":-0.11125875597100891,"111":0.001255856507015568,"112":-0.12524619898398032,"113":0.11709926575126506,"114":-0.19655930148257314,"115":-0.08998392973663599,"116":0.07945019075029222,"117":0.11773523980828335,"118":-0.1292752581100089,"119":-0.005914745587485538,"120":0.05026007351402246,"121":0.17281415412910017,"122":-0.02823563161850806,"123":-0.1541659659204565,"124":0.10099084770992456,"125":0.11876336136620638,"126":-0.27723500986015226,"127":0.08739420777740996,"128":-0.012543020955467771,"129":0.23746728999210898,"130":-0.19351858225729582,"131":-0.028886872433944347,"132":0.008816896676080536,"133":0.09610950192620357,"134":0.11789962483828609,"135":0.08542085052657081,"136":-0.09982000052439498,"137":0.3542686334996615,"138":-0.2122332372895957,"139":0.04999738875764881,"140":0.06026380785537669,"141":0.08212362678223419,"142":-0.11202063367594225,"143":-0.02872385336076536,"144":-0.024387349277623878,"145":0.05025372261815474,"146":-0.16376413446604798,"147":0.08204777779212458,"148":-0.042981250738892945,"149":-0.024692656789098346,"150":-0.1605276626031819,"151":-0.106268194995282,"152":-0.07385510720565673,"153":-0.19625812077106522,"154":0.14208956910654694,"155":-0.036391721341904805,"156":0.10219377372954007,"157":-0.22901400842346772,"158":-0.031576929708806316,"159":-0.1900011368492797,"160":0.07258892661681457,"161":0.1013531611972731,"162":-0.07648661136983205,"163":-0.13769466595695848,"164":-0.15926981463297074,"165":-0.02964208363895475,"166":0.09061468545310293,"167":0.004947622618936371,"168":0.07679197839790103,"169":0.21990781240457266,"170":-0.17451445289311493,"171":0.13537692956403233,"172":0.110158687648589,"173":0.1605079564152943,"174":0.2452783769872973,"175":0.16053257723688663,"176":0.29741414402379096,"177":0.010049809464685361,"178":-0.18563847379241438,"179":0.13074302196777,"180":0.09488171103660814,"181":-0.1726386602323474,"182":-0.0902720712040658,"183":-0.020422560115793905,"184":0.2757216635333887,"185":-0.275020849941542,"186":-0.034149282237544466,"187":-0.14894199881967168,"188":0.015890205004455205,"189":-0.11863218763905427,"190":0.12374242771239206,"191":-0.301718207046383,"192":-0.03333443083202019,"193":-0.15266409899449987,"194":0.05525093730822361,"195":-0.10486883149443758,"196":0.10193322934846448,"197":0.09780046211157094,"198":-0.19589229227206184,"199":-0.160673145867227}},{"sx":5,"sy":5,"depth":8,"w":{"0":0.04262076727393022,"1":0.2555792721950588,"2":-0.025187685527393363,"3":-0.048867393969139195,"4":0.004883971618917794,"5":-0.07384123775758081,"6":0.38906023660313976,"7":-0.24560137104857993,"8":0.2680209064867227,"9":-0.15482211597347148,"10":-0.1916420283977796,"11":-0.01117692256199027,"12":0.0855878078202398,"13":-0.07336095526685928,"14":-0.17829514619768133,"15":-0.1438659713617945,"16":0.22009842415720324,"17":-0.037959344305092055,"18":0.0685582268072106,"19":-0.10625049707026153,"20":0.020142776376996706,"21":-0.07109071848129177,"22":-0.06669870610171774,"23":-0.018318763229573612,"24":0.08596594693664968,"25":-0.1314134582608304,"26":-0.042385701770834665,"27":0.050254043096945256,"28":-0.3014433264394735,"29":-0.06867345994515833,"30":-0.05568644169071439,"31":0.04433396124525754,"32":-0.06368618200142388,"33":-0.10446332807942417,"34":-0.05764569660715494,"35":-0.03598016188115853,"36":-0.03823992352102902,"37":-0.000549525637579524,"38":-0.13133099570594503,"39":0.1041974557505759,"40":-0.07443853976365927,"41":0.047922935405920485,"42":-0.2981529621446454,"43":-0.05983640845814152,"44":0.22822272410109506,"45":-0.04522265485118122,"46":0.17160222995602648,"47":-0.13073245148037954,"48":0.2508822188468486,"49":-0.08152601767864015,"50":-0.0026042455283327294,"51":-0.14133003522711582,"52":0.057762981768538973,"53":0.16940045071000406,"54":-0.16024743136122016,"55":-0.058186334714837834,"56":0.18569262768062206,"57":-0.14204122201342664,"58":-0.02881994865452091,"59":-0.04249786933540442,"60":0.019514280495959553,"61":-0.21940184986830621,"62":-0.0033306857799916536,"63":-0.06264681315484774,"64":-0.01691796088209963,"65":-0.13909497266463255,"66":-0.0997796712395198,"67":0.016640042391791253,"68":-0.2663151184901237,"69":0.022361173970377235,"70":-0.08498947340245584,"71":-0.13395742889058415,"72":-0.2452146715976764,"73":-0.0012701816876386997,"74":-0.05506163842320539,"75":0.03748294331742935,"76":-0.0562070472370723,"77":-0.006618126235136962,"78":-0.2559737142264781,"79":0.020160459955524162,"80":-0.04570448627996043,"81":-0.029766284730643692,"82":-0.10905864732068427,"83":-0.20289221817362993,"84":0.02056076617259442,"85":0.006687099491317167,"86":0.10345312566348608,"87":-0.19867608356015948,"88":0.1624278161843746,"89":-0.08020483444523777,"90":0.008727482393715073,"91":-0.11631462217528883,"92":0.07916719837515097,"93":-0.024238939853248754,"94":-0.02254266382718213,"95":0.03228058201603787,"96":0.17105463810476038,"97":0.23328661665248474,"98":0.12140734044880203,"99":0.057252730756775505,"100":-0.13161039256482204,"101":0.007075382661934184,"102":-0.009842819692984747,"103":0.024707941595369702,"104":0.014764478640646454,"105":0.016800689406009546,"106":0.10089660521702856,"107":-0.10979130148090463,"108":-0.07575321609416875,"109":-0.04964824630866564,"110":-0.0019866452939214236,"111":-0.04408598507065975,"112":-0.023401030398065428,"113":-0.04756769590675271,"114":0.020399652781141333,"115":0.06519442216239486,"116":-0.010528727147320442,"117":0.07137624912468285,"118":0.19698545565259462,"119":-0.10572988825299823,"120":0.14483262842200953,"121":-0.1334571092114649,"122":0.06254467103393715,"123":-0.09283769742146994,"124":0.13601767361407763,"125":-0.060360590570358676,"126":0.007866876794803248,"127":-0.16884507795195247,"128":0.2217427166842441,"129":-0.005732363997731633,"130":0.0809776434684257,"131":-0.3048946651301709,"132":-0.04827735018747906,"133":0.053919990513017164,"134":-0.22141149520285627,"135":-0.28760074061878577,"136":0.031158820275874227,"137":-0.08466831623587628,"138":-0.0015718232905362155,"139":-0.0849634351721586,"140":-0.03771975806204302,"141":-0.03763065810738751,"142":-0.026187255645022722,"143":0.017440763630933546,"144":0.09329170516776171,"145":-0.15352486988304997,"146":0.03246000013977826,"147":-0.09693657726715864,"148":0.041172483697374015,"149":0.07297438168521597,"150":0.030887352583315823,"151":-0.09518711521143969,"152":0.028553387535421842,"153":-0.16662994596020467,"154":-0.07525008526778368,"155":0.17389606565860696,"156":0.019008152093739343,"157":0.062478160151169186,"158":0.2300629791117886,"159":-0.07596145041601038,"160":0.11592889613428076,"161":-0.24819573234745088,"162":0.08957027863796897,"163":-0.3046332863724813,"164":-0.0684743054215609,"165":0.11258611135759415,"166":-0.21815116401124404,"167":-0.22066121553968107,"168":0.033006410212439496,"169":-0.2278794110698985,"170":0.06040741611744433,"171":-0.20789679235734826,"172":-0.06025941193379085,"173":0.05420271109075651,"174":-0.24726395685980776,"175":-0.17384705009127985,"176":-0.02633020516922398,"177":-0.03336654155407718,"178":0.10653490560527487,"179":0.055657721502861836,"180":-0.01694926237149991,"181":0.1456191497608973,"182":-0.2688204224279462,"183":-0.0330627649615244,"184":0.14069143415451885,"185":0.2305668485638062,"186":0.15767668204454305,"187":0.00244643302555497,"188":0.05056011867172655,"189":0.1427377826999442,"190":-0.057795835237727064,"191":0.12478533818577901,"192":0.14199386825878235,"193":-0.154365656284081,"194":0.030325841361206505,"195":0.20870033234288568,"196":0.15308659897935967,"197":0.04849672250330672,"198":0.016281641483520258,"199":0.2176732947501659}}],"biases":{"sx":1,"sy":1,"depth":16,"w":{"0":0.04801235140900902,"1":0.07524507368880254,"2":-0.11243547977169065,"3":-0.031542171352795564,"4":-0.029958431016158457,"5":-0.059123565320478265,"6":0.011285661067560845,"7":0.10687929563878086,"8":0.04034264074743494,"9":-0.06939010045091783,"10":0.013608407224122094,"11":0.06570288591999218,"12":0.028360024951239737,"13":-0.07998923524797098,"14":-0.07715086507439531,"15":0.042379050993880056}}},{"out_depth":16,"out_sx":14,"out_sy":14,"layer_type":"relu"},{"sx":3,"sy":3,"stride":3,"in_depth":16,"out_depth":16,"out_sx":4,"out_sy":4,"layer_type":"pool","pad":0},{"out_depth":10,"out_sx":1,"out_sy":1,"layer_type":"fc","num_inputs":256,"l1_decay_mul":0,"l2_decay_mul":1,"filters":[{"sx":1,"sy":1,"depth":256,"w":{"0":-0.06681144631116748,"1":-0.16641163292695485,"2":-0.10107327132742931,"3":-0.11204448056973344,"4":-0.048428745379631544,"5":-0.06410106361990854,"6":-0.07516688212391855,"7":0.024022612812082744,"8":-0.08578740761596143,"9":-0.13756064424359832,"10":0.020675102246992913,"11":-0.0514034979776568,"12":0.029669321799800454,"13":-0.02252079833573302,"14":-0.10669490285656505,"15":-0.09461206405391709,"16":-0.09371356538633549,"17":-0.09879868558208652,"18":-0.16659609317416188,"19":-0.10966996842596159,"20":-0.10926862689130282,"21":-0.09545905642506927,"22":-0.15326591952166915,"23":-0.04254225537438164,"24":-0.24164426828080873,"25":-0.1362155096441851,"26":-0.17439452731965133,"27":-0.10729510893632967,"28":-0.21647989510205506,"29":0.029493824425024264,"30":-0.306591176678773,"31":-0.09981483772255366,"32":-0.0698624186434954,"33":-0.11107855222725692,"34":-0.08540686097404987,"35":-0.2063356674391081,"36":-0.038777488234784024,"37":0.11595465748473441,"38":-0.13531185438838297,"39":0.009234051075145267,"40":-0.09407936736508472,"41":-0.13226986448344036,"42":-0.03968362783200973,"43":-0.22730612597272876,"44":-0.22563579467177214,"45":-0.18015402531472144,"46":-0.12317954805543774,"47":-0.0924797417794505,"48":-0.1457188862427163,"49":-0.035314384817879095,"50":-0.1637047004079891,"51":-0.03242047279229813,"52":0.02606727850237243,"53":0.008650087425035615,"54":-0.03035828452024425,"55":0.04510494981779145,"56":-0.1506404793040808,"57":-0.09957898056837258,"58":-0.05800556018122283,"59":-0.1684871636812366,"60":-0.09983066938368802,"61":-0.1785707731789663,"62":-0.07388289616183621,"63":-0.20663945246481563,"64":-0.08664267383993234,"65":-0.13887150714589036,"66":-0.021320111278162843,"67":-0.22727007222118276,"68":0.07761160028699214,"69":-0.02283714692330846,"70":-0.13893486467752053,"71":-0.055185331521489016,"72":-0.17386994173225725,"73":-0.21208982281198346,"74":0.04869130545088606,"75":-0.02121690639545807,"76":-0.020177483375469756,"77":0.01253904185964201,"78":-0.030468465342131122,"79":-0.18958295226089167,"80":-0.2458863980524512,"81":-0.22993445330828288,"82":-0.27886957056082423,"83":0.028189952522923025,"84":0.07574555138463553,"85":-0.13612286065526114,"86":-0.1972196821313174,"87":-0.3163846126554953,"88":-0.10104852521841877,"89":-0.19908721792440814,"90":-0.2576548475342154,"91":-0.17016436520527975,"92":0.1064576139203205,"93":-0.032790017935332545,"94":0.06794004505509674,"95":-0.001436355845949383,"96":-0.16880667690785925,"97":0.35106414145925097,"98":-0.23809947361534475,"99":-0.2041944210334509,"100":-0.11797317553041431,"101":0.12834370151056987,"102":-0.18391544861710735,"103":-0.10871735468340425,"104":-0.16716503013190917,"105":0.0413138212735496,"106":-0.032206024129883486,"107":0.031390258245479516,"108":-0.16169111401837286,"109":0.030782970656257427,"110":-0.22202082025583703,"111":0.04583033466274309,"112":-0.10884074051563558,"113":-0.15266383674261755,"114":-0.09061683083311818,"115":-0.16033088798046052,"116":-0.011674652458750745,"117":0.27192231758241997,"118":0.0046304042285988355,"119":-0.2147801970318808,"120":-0.2689586407756921,"121":-0.10037886035556906,"122":0.1048119068384024,"123":0.003193579160422709,"124":-0.0955252511549725,"125":-0.16096555123796205,"126":-0.32655449530177294,"127":-0.4123318108165093,"128":-0.26000873845460976,"129":-0.09084254204907646,"130":0.015560662081492552,"131":-0.11277027972296759,"132":0.00256768571670829,"133":-0.02929651717190981,"134":-0.29956245389395886,"135":0.01938887830840652,"136":-0.2869173744606653,"137":-0.2254356206396065,"138":0.01911150758229591,"139":-0.07345407389433146,"140":-0.10059118293828335,"141":0.02646477833274973,"142":-0.0036120540701528384,"143":-0.13407632337054046,"144":-0.3101271670884956,"145":-0.1671665552848412,"146":-0.2769027198800636,"147":-0.12270577274265324,"148":-0.0008773126699163975,"149":-0.15738820323083963,"150":-0.27063714030507263,"151":-0.1354713206888622,"152":-0.1577005057144096,"153":-0.38085832609980913,"154":0.030540739734651077,"155":0.05614893449011508,"156":0.14389007699201387,"157":-0.08737317898418663,"158":-0.26234981158196913,"159":-0.04419165521348099,"160":-0.3000260475739852,"161":-0.10557320661139481,"162":0.012501545838894807,"163":-0.17518096042762624,"164":-0.5372147144355433,"165":-0.027808623452089367,"166":-0.11443316767087532,"167":-0.24139337410338424,"168":-0.07170674426882973,"169":-0.12267177604667501,"170":-0.4600541852336086,"171":0.13342927484189954,"172":-0.37341878243876697,"173":-0.12636808399085875,"174":-0.11676110421725042,"175":-0.012513790431621435,"176":-0.14271091176522535,"177":0.04015892523778079,"178":-0.02181872337841131,"179":0.1291656047690174,"180":-0.1900848485289727,"181":-0.0364231121913701,"182":-0.2344374650300124,"183":-0.3413198872636026,"184":-0.03753839752135379,"185":-0.021209311199533086,"186":0.12012951291648165,"187":0.07324865724413207,"188":0.1612017736366756,"189":-0.1831994840078583,"190":-0.09311004575077791,"191":-0.13672887706120063,"192":-0.2001454800352933,"193":-0.005355846434785489,"194":-0.07241044824150115,"195":-0.0022747909840094434,"196":-0.06702051658137179,"197":0.09187630535193782,"198":-0.01706784098235181,"199":-0.2086777429294688,"200":-0.14491834999857167,"201":-0.2109133102344284,"202":-0.007347670110428779,"203":-0.08209204240767988,"204":-0.056394112128344914,"205":-0.04873011938613231,"206":-0.08170883595672686,"207":-0.16914878313356338,"208":0.11064361494874066,"209":-0.05783319330877363,"210":0.02143332363385989,"211":-0.09518048401023467,"212":0.005265321940289148,"213":0.023727652025067804,"214":-0.15682596472901295,"215":-0.13055269424240068,"216":-0.30678651916212085,"217":0.022531269179367108,"218":-0.007321926742447625,"219":0.07899069233762566,"220":-0.12029134771007184,"221":-0.06949662044089255,"222":-0.010228377216895707,"223":-0.012295687951106684,"224":-0.021509774597197377,"225":-0.30986382792281364,"226":-0.2576319201102484,"227":-0.3032987986043321,"228":0.08510890122539666,"229":-0.2612748121747377,"230":-0.1690624829728702,"231":0.09543988605004668,"232":-0.13537893769347606,"233":-0.12096393157916732,"234":-0.35544371037516265,"235":-0.15642861105509212,"236":-0.34906974603226093,"237":-0.0890766655401444,"238":0.1160952535408697,"239":-0.25524082632876754,"240":-0.04984578503936972,"241":-0.13038326692956936,"242":-0.15849247211087863,"243":-0.03805247390366748,"244":-0.15169808306928387,"245":-0.008055452409522837,"246":-0.22602254937139954,"247":-0.037145482662004015,"248":0.053829891491246576,"249":-0.14172128305601212,"250":-0.15409800903509815,"251":-0.25008537714309514,"252":-0.2029255508460148,"253":-0.21130068345263794,"254":-0.07790791943634112,"255":-0.16680235233255092}},{"sx":1,"sy":1,"depth":256,"w":{"0":0.03672693163278473,"1":0.0646212072111163,"2":-0.023817466705764106,"3":0.13726049720352262,"4":0.07532042475194918,"5":-0.04023054883268675,"6":0.014672918393431681,"7":0.017578630259092766,"8":0.05849945096873624,"9":0.070619219643783,"10":-0.10603361798873061,"11":-0.0014993661748161967,"12":-0.09542333786797652,"13":0.05722411295135504,"14":-0.045929221088309734,"15":-0.0825129074712873,"16":-0.30757217030535905,"17":-0.08090965378796842,"18":-0.08026853809929121,"19":-0.06673983818389466,"20":0.03542107647058719,"21":0.10521146951468335,"22":-0.152018054692334,"23":0.07283915497704099,"24":-0.13478190614992097,"25":-0.2035699916837675,"26":-0.06924041107983599,"27":0.12478657364142313,"28":-0.06675541663019316,"29":-0.0401206103589025,"30":0.04707165375144563,"31":-0.15473380461217306,"32":-0.027973547212298912,"33":-0.09017983186758906,"34":-0.10997556350709638,"35":-0.09755720071728022,"36":0.00024084533561649106,"37":0.07794410008654303,"38":-0.19743401108010714,"39":0.053880060508893594,"40":0.1615895733457645,"41":-0.11546821066211081,"42":-0.14439373042313705,"43":0.11086619173098222,"44":0.013927255353482207,"45":-0.04079812287877682,"46":0.048852488460745004,"47":-0.017176458708249593,"48":-0.08758848714936136,"49":-0.10504214850865588,"50":-0.08509632777433887,"51":0.09842950217826583,"52":-0.2135994590102928,"53":0.004446891775249573,"54":0.08786446062842919,"55":-0.11719549754356406,"56":-0.054379215374922706,"57":-0.08520744452626411,"58":0.001992169825388222,"59":-0.2607314087012174,"60":-0.03304569692481581,"61":0.014974285048322088,"62":-0.14590055743207866,"63":-0.13783727891847355,"64":-0.04445208234538016,"65":-0.1129027690227859,"66":-0.20510267245469713,"67":-0.03903268472987771,"68":-0.034922032260627296,"69":-0.011593703126294914,"70":-0.02417136293336286,"71":-0.12712556505262107,"72":-0.25927263622848806,"73":-0.1963503984732598,"74":-0.04638601265985108,"75":-0.06648958623173137,"76":-0.06611197358497305,"77":0.052534517111579,"78":-0.04924385896812742,"79":-0.14486040790803503,"80":-0.3092072952021315,"81":0.0011367209120480253,"82":0.10236456901522245,"83":-0.18796910176285775,"84":-0.09735879961589068,"85":-0.17903660899680565,"86":-0.14816287381128193,"87":-0.17758484061223725,"88":-0.2401693949417715,"89":0.009464686207488422,"90":-0.16704239929018913,"91":-0.19969204440998028,"92":-0.4578414161062189,"93":0.18875374969845005,"94":-0.2288839724864302,"95":-0.0755047345240861,"96":-0.20482952162336235,"97":-0.3208858193281294,"98":-0.03396014286346702,"99":-0.09121671953603569,"100":0.018086236039790222,"101":-0.12736698181394268,"102":-0.03733005245787651,"103":-0.04935176448349973,"104":-0.1234163487050239,"105":-0.20886950768211127,"106":0.03089353427012812,"107":0.08508974987522264,