{"net":{"layers":[{"out_depth":1,"out_sx":28,"out_sy":28,"layer_type":"input"},{"sx":5,"sy":5,"stride":1,"in_depth":1,"out_depth":8,"out_sx":28,"out_sy":28,"layer_type":"conv","l1_decay_mul":0,"l2_decay_mul":1,"pad":2,"filters":[{"sx":5,"sy":5,"depth":1,"w":{"0":-0.18834272512086087,"1":0.03438690529622666,"2":0.6099647968336473,"3":1.0702835331597786,"4":0.47355282091779116,"5":0.4046914194927984,"6":0.5818740651023597,"7":0.6769196714262212,"8":0.5185625329265123,"9":-0.22460246378207996,"10":0.3054437552721543,"11":0.5404727883445745,"12":0.07284351855750941,"13":-0.4360778197581299,"14":-0.6953730900826457,"15":0.08649210116028093,"16":-0.06884262387389561,"17":-0.46480272940176004,"18":-0.7526520066623971,"19":-0.2920888980866568,"20":-0.24631875659181174,"21":-0.3484701913998924,"22":-0.6721927631229045,"23":-0.27705036715897097,"24":0.008878691758534325}},{"sx":5,"sy":5,"depth":1,"w":{"0":0.522721675615627,"1":0.45360091592238855,"2":0.3684067221801747,"3":0.47637953332830213,"4":0.6225538808016908,"5":0.29165468077397105,"6":0.37693093158403723,"7":0.6327925120746142,"8":0.7127829877634028,"9":0.5706240385030641,"10":-0.3366506408585746,"11":-0.5512462220851923,"12":-0.509766314864731,"13":-0.34454016357625167,"14":-0.34174216273776614,"15":-0.35903946668114844,"16":-0.6245053531076644,"17":-0.8533027936209934,"18":-0.8635681989953188,"19":-0.23119588795535953,"20":-0.15811568170133786,"21":-0.2388518768349384,"22":-0.06248257569512691,"23":0.05827255124573476,"24":0.07830021279149252}},{"sx":5,"sy":5,"depth":1,"w":{"0":0.2506292843005282,"1":0.5794462107754375,"2":0.4721977245346213,"3":0.04685508805123119,"4":-0.23960379741642307,"5":-0.07759187741537746,"6":-0.03745228117961072,"7":0.060210931143756904,"8":-0.39549980802077644,"9":-0.5920663514783383,"10":-0.6655421931597437,"11":-0.8044994657537352,"12":-0.5042285309148542,"13":-0.37394864139567885,"14":0.00966431191741209,"15":-0.16011010195351483,"16":-0.14956432274461245,"17":0.1568200068296773,"18":0.5605077584461041,"19":0.8078464332564445,"20":0.5616720850046211,"21":0.4902852490141984,"22":-0.09954669518802688,"23":-0.09857689922308506,"24":0.14579231820430344}},{"sx":5,"sy":5,"depth":1,"w":{"0":0.04641098457621523,"1":-0.03702375720098692,"2":-0.43685989819128607,"3":-0.29285705730752315,"4":-0.0008508162259457572,"5":0.09612735296919185,"6":-0.09382479490030458,"7":-0.5083466497259861,"8":-0.7104059536435028,"9":-0.4620478735808956,"10":-0.0711119788455259,"11":-0.015490835646104912,"12":-0.32020331849134004,"13":-0.7485781284013772,"14":-0.7026461040814148,"15":0.4103229544023748,"16":0.6255134125281222,"17":0.7219485206827717,"18":0.22722154195302913,"19":0.1890150926506586,"20":0.41859509011705703,"21":0.7073690985595891,"22":0.7797820614213063,"23":1.0165336216662322,"24":0.7744809777289344}},{"sx":5,"sy":5,"depth":1,"w":{"0":-0.21259776156953544,"1":-0.25585404396151135,"2":-0.24523276224648466,"3":0.22112165940440406,"4":0.6270603288188348,"5":-0.4548192712284076,"6":-0.5329992648045195,"7":-0.3780291905762503,"8":0.3677879703338052,"9":0.9472674738081137,"10":-0.44976386146509667,"11":-0.3467742286246307,"12":0.07136141570734755,"13":0.4143091149995294,"14":0.4802353737892731,"15":-0.3445117338981772,"16":-0.21789474373523676,"17":-0.048508013348987064,"18":0.4369402751826583,"19":0.10785143978244031,"20":-0.381633550337633,"21":-0.31112093940855634,"22":0.04958401544528162,"23":0.17731565973099464,"24":-0.12207800655697722}},{"sx":5,"sy":5,"depth":1,"w":{"0":-0.42754887659947777,"1":-0.38883408038956546,"2":-0.5439749100202474,"3":-1.0317545812718771,"4":-0.8251596290888256,"5":-0.5506011350426059,"6":-0.5482165045660032,"7":-0.7513203421093316,"8":-0.6021174560538631,"9":0.16491027562485097,"10":-0.4760978251787439,"11":-0.4956205319758197,"12":-0.4860132891403369,"13":-0.04295788507263813,"14":0.5653407136090013,"15":-0.452532016140409,"16":-0.3710589087382856,"17":0.34800595221510494,"18":0.7743164936109437,"19":0.8644959223163626,"20":-0.8549911305704414,"21":-0.3539361695769919,"22":0.5718929202472656,"23":1.0456965023809481,"24":0.6047693245958713}},{"sx":5,"sy":5,"depth":1,"w":{"0":0.12660442500155847,"1":0.07790589623018018,"2":-0.009135930864601832,"3":-0.11305862211793648,"4":-0.5177067861031908,"5":-0.10188191636850638,"6":0.013712339602512572,"7":0.1418222186349245,"8":-0.14703708901489743,"9":-1.1749839924847756,"10":0.08234106535113452,"11":-0.03325879739310374,"12":0.45814518421046585,"13":0.23714491576420635,"14":-0.609591038663949,"15":0.15589026556575852,"16":0.18398448110186857,"17":0.7889534926693486,"18":0.9467417814404168,"19":0.34963538892470464,"20":-0.24567899347383837,"21":-0.5128115428038404,"22":-0.2334316148615729,"23":0.43044284439963326,"24":0.0992510180475397}},{"sx":5,"sy":5,"depth":1,"w":{"0":-0.5710966644544149,"1":-0.012833990058476291,"2":0.3496130675571965,"3":0.8507910521938825,"4":0.03811754106899612,"5":-0.08830451523809368,"6":0.0810496292073089,"7":0.14056969763855956,"8":0.4839291429495164,"9":0.045730508007680096,"10":0.1816775215400994,"11":0.12559033701054167,"12":-0.08206641257986336,"13":0.17782756866840438,"14":0.2518280360431375,"15":0.2395670174122451,"16":0.035790618547189665,"17":0.04281622940557763,"18":0.16933754552347405,"19":0.6811274715920884,"20":0.040236712652852266,"21":-0.13042521435221807,"22":0.019555147317157334,"23":0.47460919101091514,"24":0.2055455031150327}}],"biases":{"sx":1,"sy":1,"depth":8,"w":{"0":-0.005439898719844827,"1":0.07981092912968787,"2":0.04774838767268178,"3":0.009559548940794518,"4":-0.05213823945567438,"5":0.12773739816339263,"6":-0.010291805275686378,"7":-0.4882775108602851}}},{"out_depth":8,"out_sx":28,"out_sy":28,"layer_type":"relu"},{"sx":2,"sy":2,"stride":2,"in_depth":8,"out_depth":8,"out_sx":14,"out_sy":14,"layer_type":"pool","pad":0},{"sx":5,"sy":5,"stride":1,"in_depth":8,"out_depth":16,"out_sx":14,"out_sy":14,"layer_type":"conv","l1_decay_mul":0,"l2_decay_mul":1,"pad":2,"filters":[{"sx":5,"sy":5,"depth":8,"w":{"0":-0.13792499118642426,"1":-0.33854778636703015,"2":0.11261219472740923,"3":0.04393567158182934,"4":0.08589696237514043,"5":0.008366091933423348,"6":-0.028964508660081874,"7":-0.08183593472535391,"8":-0.03234517394270743,"9":-0.22474017077642722,"10":0.11263990964678568,"11":0.032899502457899195,"12":0.04311965980169103,"13":0.19799073928381472,"14":-0.010909428612824469,"15":-0.1460069482987743,"16":0.04501150999882799,"17":-0.1404476234615448,"18":0.09703788839345373,"19":0.05891616953095842,"20":0.05381222946423218,"21":0.15859525586031115,"22":0.27012333155149265,"23":-0.1560379058036395,"24":0.02087028419127644,"25":-0.03405160290814984,"26":0.12405287242420027,"27":0.1865926068241523,"28":-0.03811731402772763,"29":0.13810564326279423,"30":0.17043239436898788,"31":0.05031595868350809,"32":-0.05666439811046698,"33":-0.04144486053778397,"34":0.172837331516609,"35":0.21416428335091536,"36":0.020447966055666605,"37":-0.11271015298939463,"38":0.3278536316567295,"39":-0.02948641530675301,"40":0.051043421050924936,"41":-0.1347465721561258,"42":0.059879774633714584,"43":0.2362267840802835,"44":-0.011686006601799461,"45":-0.3929920227766027,"46":-0.12438166820507089,"47":0.12169229280798485,"48":-0.10747222271573242,"49":-0.04354697178112114,"50":-0.04987668486540442,"51":0.043993689494995186,"52":-0.011569722782666448,"53":-0.09581578100207717,"54":0.11604139771339796,"55":0.01549241685910879,"56":-0.17705029730123978,"57":-0.1128631639748434,"58":0.048305930111725744,"59":0.2610486483730021,"60":-0.12379480441458549,"61":-0.5562933476825191,"62":0.3437745732551009,"63":-0.1126302683693046,"64":-0.3994767621713095,"65":-0.048771470357764156,"66":0.07426712059251321,"67":0.06717824148882176,"68":-0.13396064136829958,"69":-0.11436501671399771,"70":-0.30002983611524187,"71":-0.24748212091375182,"72":0.23052286428362026,"73":-0.07345132367910875,"74":0.026518308226374816,"75":-0.03510562579289215,"76":-0.039044028118389966,"77":0.3110251305907052,"78":-0.1994841979556767,"79":-0.07510336495916536,"80":0.00946844616289365,"81":0.021494862449578555,"82":-0.24287790017587063,"83":-0.1904074111301001,"84":-0.11812375708162874,"85":-0.18076641122231715,"86":0.07470913244991713,"87":-0.018876902205593602,"88":-0.012668493764361688,"89":0.16471692498209148,"90":-0.06076234766353665,"91":-0.02397340860518107,"92":-0.09212623340505105,"93":-0.16962017033923485,"94":0.33994309700546266,"95":-0.06758247202025165,"96":-0.027429782480126987,"97":0.10730815378449773,"98":0.057803673078529925,"99":0.0568079431460167,"100":0.02070847436393279,"101":-0.1627111215070319,"102":0.2528589602564221,"103":0.016838344213431212,"104":-0.06497775723142744,"105":-0.27493878135694794,"106":0.11280732732369621,"107":0.05409376101009786,"108":-0.028423516179757875,"109":-0.03015483827116219,"110":0.23212999452583807,"111":0.06924506897877901,"112":-0.07507877634550174,"113":-0.16764322714221075,"114":0.01481637081374177,"115":0.3839237938375549,"116":0.040578527382099806,"117":0.33759081207483244,"118":0.30346050029672494,"119":0.2005780716368576,"120":-0.1795641413211113,"121":0.05543327563639529,"122":-0.14337655185320733,"123":0.06214422951920751,"124":-0.13911392984248613,"125":-0.07977155293977478,"126":-0.11191157592543152,"127":0.06623741988617088,"128":0.2716960925489972,"129":0.3952000727027312,"130":0.20522612856556563,"131":-0.22518485463076746,"132":0.08116376487568623,"133":-0.01730993242454975,"134":-0.009564595785397043,"135":0.0158317162247314,"136":0.2896837755785085,"137":0.5941177372237179,"138":0.1401997458159425,"139":-0.1732152732576558,"140":0.21383943423137605,"141":-0.03667562276164014,"142":-0.05149230240900438,"143":-0.2140943575768103,"144":0.13044628177328949,"145":0.30175614598586503,"146":-0.1110692400673088,"147":-0.4176339106256097,"148":-0.17115389155741428,"149":-0.2831539057988518,"150":-0.00884527393917865,"151":0.08138604730677564,"152":0.20610997277391888,"153":0.2640391118919055,"154":-0.033890668389482716,"155":-0.41264174080892013,"156":0.03748605010130617,"157":-0.30416121738024005,"158":-0.10860026633542604,"159":0.12712291038881465,"160":-0.0807842721694854,"161":-0.1593122290841185,"162":-0.16866764963399503,"163":0.06442222210507204,"164":-0.19661440238902947,"165":0.20770614492677725,"166":0.005392445603704176,"167":-0.32571670988290885,"168":0.05844753988707456,"169":0.053374629842022445,"170":-0.21082645874809774,"171":-0.1283954140984607,"172":0.007688625307910972,"173":0.2780643532846895,"174":-0.17648854912513853,"175":-0.24762226449098362,"176":0.1608252235861478,"177":0.14477403903708688,"178":-0.015267471529476521,"179":0.05480801624375284,"180":-0.09625544899882187,"181":0.2742131445343895,"182":-0.20458304333704477,"183":-0.03267571473647637,"184":-0.1346586561274577,"185":-0.020132092361008255,"186":0.2119110588199217,"187":0.026570136147712396,"188":-0.16153697040874482,"189":0.14273010098482355,"190":0.17882102839883743,"191":0.012785094622280538,"192":-0.2918343931302787,"193":-0.18026422737476247,"194":0.06489664082108997,"195":-0.015456808461278284,"196":0.1448879959301361,"197":0.15576006479336055,"198":-0.48755861294397956,"199":-0.05026234752160781}},{"sx":5,"sy":5,"depth":8,"w":{"0":0.03184788531845171,"1":-0.24410628614854096,"2":0.14973467183629513,"3":0.05390121330678476,"4":-0.20658396312268135,"5":-0.004421765456847625,"6":0.03488453093257587,"7":0.11636069520755171,"8":0.11575627703432023,"9":0.018063782203649847,"10":-0.05027876233983586,"11":0.01382550627673985,"12":0.1331403779077926,"13":0.28664931868473637,"14":0.08817853124214764,"15":-0.05660170357789569,"16":0.159708334750728,"17":0.04953259325283025,"18":-0.06528668334931009,"19":-0.03916503349383231,"20":0.06501418405233611,"21":0.08693502853528787,"22":0.04347110385329161,"23":-0.05157155659139903,"24":0.03253321530453658,"25":-0.17590484588454447,"26":0.058410921569548295,"27":-0.1324772694866255,"28":-0.15161211543398873,"29":-0.0837221780402557,"30":-0.08027824666474523,"31":-0.1105648892602899,"32":-0.183462985962009,"33":-0.10002996212348939,"34":-0.19704110866380753,"35":-0.2561217894209342,"36":-0.07918847262005742,"37":0.0819642281902343,"38":-0.11385499457030913,"39":-0.1650256436515632,"40":-0.040841998522058366,"41":0.2293361629694518,"42":0.07672413737823883,"43":-0.23059287259268993,"44":-0.08162201713872749,"45":-0.21595321752814164,"46":-0.1358495211662144,"47":-0.03575649142643403,"48":-0.008852885931052011,"49":0.07648793320055888,"50":0.08404502132168712,"51":-0.12619249880828556,"52":0.10009945482996878,"53":-0.09880571826902013,"54":0.0578386599746718,"55":0.17647190966309775,"56":0.12285600834317081,"57":-0.05787928509472585,"58":-0.019946310060404496,"59":-0.04675956762457953,"60":0.037038874202605473,"61":-0.0862316846022866,"62":-0.1302936499621861,"63":-0.11135875401301217,"64":-0.07292564757132465,"65":-0.061354045824430374,"66":0.10932553187282935,"67":0.06103858497458065,"68":-0.05983136043074297,"69":0.1705189087578409,"70":-0.07211530983558666,"71":-0.03163760279293276,"72":-0.11586791633510257,"73":-0.08973855816298783,"74":0.0385626735623912,"75":0.2484154543168983,"76":-0.17853035823876753,"77":0.08987421299104255,"78":-0.12930414513437005,"79":-0.1285644136267185,"80":-0.08102072946895461,"81":0.0369023597929253,"82":0.005945368117559806,"83":-0.047291474805968084,"84":0.10909282985830958,"85":-0.0012628211362501177,"86":-0.010600078341860416,"87":-0.06715863241624796,"88":-0.22526017124921957,"89":-0.07686245975660504,"90":-0.023299498843897645,"91":-0.224800251285393,"92":0.09382070188888078,"93":-0.01128281238993118,"94":-0.03867188097805436,"95":0.10280482364887317,"96":0.03521436602861902,"97":-0.039982830172804094,"98":0.004024776794070924,"99":0.02849320048064309,"100":-0.02523070708304961,"101":0.38744422601671774,"102":0.02651476613937347,"103":-0.08088551083761328,"104":-0.18515523384233668,"105":-0.08848236910648138,"106":0.17315007348533448,"107":0.11042507478756447,"108":0.07327338208796036,"109":0.22709488302755396,"110":0.047027216023111156,"111":0.024134258950111044,"112":-0.24588106477270275,"113":-0.1502781173986182,"114":0.14676150592747397,"115":0.25506326193055634,"116":-0.15634049309672718,"117":-0.1625482342696109,"118":0.10577335070935569,"119":0.17664284797298854,"120":-0.14651942300354354,"121":0.056313484584373005,"122":-0.024276283162784927,"123":0.09795784341865374,"124":0.20696157783613392,"125":0.10568993833963768,"126":0.07317825955850858,"127":0.05433347819283381,"128":-0.19574304453054223,"129":-0.042851704873452835,"130":-0.0019268576337365762,"131":-0.07805941517600193,"132":0.17848442211524493,"133":0.3042068765825716,"134":-0.06834555724073814,"135":0.2619076777743562,"136":0.0010588544892123485,"137":-0.38132114405975404,"138":0.13860736006660143,"139":-0.13648696066766333,"140":0.1473047653413407,"141":0.3357184840449079,"142":0.004041200430325535,"143":0.15254965835951398,"144":-0.17462813262632015,"145":-0.23068337849454792,"146":-0.02166981799694231,"147":-0.20725062920288514,"148":0.15291125278333195,"149":0.0032056498926221386,"150":-0.10649549859376727,"151":0.028188418744927158,"152":-0.045183303088811334,"153":-0.00003110443911555089,"154":-0.21246073494263687,"155":0.033790484811740906,"156":-0.1944773471196999,"157":-0.14137332929286997,"158":0.03507433944696917,"159":0.15286484011963128,"160":-0.15630042529902305,"161":-0.06899312267823522,"162":-0.21070131735309405,"163":-0.011914559528372694,"164":0.1882119476544877,"165":-0.05355806337406871,"166":0.1237523331331266,"167":-0.06620705046675837,"168":-0.030616826472996888,"169":-0.11651425454859446,"170":-0.15099672175364795,"171":0.023773888985274837,"172":0.3312261183821064,"173":-0.08821094096580494,"174":0.011948205597957829,"175":0.3667535913997812,"176":-0.14851814038865907,"177":-0.26812457560448705,"178":-0.16693965268374142,"179":-0.11858146715738867,"180":0.27106050601469556,"181":-0.0919998300085791,"182":-0.06772677590354963,"183":0.2687774852478345,"184":-0.08176464540022543,"185":-0.3204286314773586,"186":-0.05948074054285568,"187":0.21189558819638743,"188":-0.028905683352268032,"189":0.05148701539621653,"190":-0.050436551697597566,"191":0.17664840902579845,"192":-0.18109444876516592,"193":-0.24487110187682518,"194":-0.1299292541021128,"195":0.030247308410515497,"196":-0.17592674379451007,"197":-0.06320449594567694,"198":0.004391693948202348,"199":0.2644898582671223}},{"sx":5,"sy":5,"depth":8,"w":{"0":0.11313644350577293,"1":0.022346099959648244,"2":-0.14767226573794592,"3":0.3210509851422163,"4":-0.06926642558334092,"5":-0.1853932171984619,"6":-0.0541906640446941,"7":-0.11605830969087921,"8":-0.07460043342260718,"9":0.12312745291912018,"10":-0.056728385868623325,"11":0.08559747147239681,"12":0.012248850649051476,"13":-0.11002495247068453,"14":-0.02463736549517571,"15":-0.09969920470780978,"16":-0.197830670241321,"17":0.05266134722860507,"18":-0.06242572470211713,"19":-0.040841140567779634,"20":-0.06185467819017998,"21":-0.09157145533618292,"22":-0.004323330766275189,"23":-0.11246898742486874,"24":0.09865254383197802,"25":0.1390699827006846,"26":-0.24352573097147365,"27":-0.19843473017589075,"28":0.12708633230055683,"29":-0.28054116221060066,"30":-0.20241889293539295,"31":0.05940719478235228,"32":0.2759872979056439,"33":0.3410930199903975,"34":0.021665370255109645,"35":-0.2843191705554175,"36":0.293534925672788,"37":-0.0054897126197697476,"38":0.06209340933133284,"39":0.20303194795062204,"40":-0.20934512506665637,"41":-0.04207393330354906,"42":0.19652091647705053,"43":0.4183343882606212,"44":-0.020221760661989115,"45":-0.07968873224480266,"46":0.054305636835890354,"47":-0.14967872761684134,"48":-0.21374087409554146,"49":-0.035255207876636274,"50":0.10423298093667621,"51":0.29385284855600863,"52":-0.05602913421719155,"53":0.0050433842475741016,"54":0.18621683749576606,"55":-0.15922898070798797,"56":-0.11761385811068799,"57":-0.13913005468047185,"58":-0.0011917726009883002,"59":0.0536872626495384,"60":-0.2694322266809312,"61":-0.18908594728488903,"62":0.16212043287408354,"63":-0.16766366746094372,"64":-0.27352270033680787,"65":-0.05704043815185861,"66":-0.144523156180727,"67":-0.04528490937706919,"68":-0.0887684733413947,"69":-0.15019944597817467,"70":-0.10595802886656186,"71":-0.12514821202744167,"72":0.1941661860545301,"73":0.37654665238397744,"74":-0.2143475241693239,"75":0.0693934782013528,"76":0.06894079476784418,"77":-0.18817415771011636,"78":-0.13783771044072593,"79":0.08945067350606176,"80":0.08993936777583433,"81":-0.033800324461582924,"82":-0.025047868319314714,"83":0.28226354580350405,"84":0.021340372527578408,"85":0.22440560481651337,"86":0.07353784511328045,"87":0.03118732620735634,"88":-0.06414857564575464,"89":0.20711790855230341,"90":-0.11198740382987121,"91":0.07940815925902915,"92":0.0820036729968602,"93":0.10541711957725168,"94":0.0631346488944858,"95":-0.15677608085684946,"96":-0.2883879014095507,"97":-0.14897167811016387,"98":-0.10361350892001907,"99":-0.12211516100104343,"100":-0.16054615272941547,"101":-0.24097418509088409,"102":-0.07668878044466859,"103":-0.15109380782611206,"104":-0.3448141856038892,"105":-0.2562643455868377,"106":0.01296088297214212,"107":-0.13370608346283958,"108":-0.017670892650799904,"109":0.12332215502547715,"110":-0.0582426111804532,"111":0.03622161992231337,"112":0.05867078983114662,"113":-0.09961914755754371,"114":-0.06145298481083643,"115":0.0323425766882235,"116":0.07413814669230852,"117":0.2541075584971697,"118":0.05571794069496927,"119":0.03144551515975665,"120":0.1796289686726252,"121":0.09473162406858175,"122":0.1645142605270612,"123":-0.16009542510511904,"124":0.0716734351889027,"125":0.19991425407655974,"126":0.20424060836807995,"127":0.16623005028501778,"128":-0.21924579170570713,"129":0.13946884525941242,"130":-0.021035102386327952,"131":0.06241772901854556,"132":-0.0047918874241310834,"133":-0.07636231658345044,"134":0.07758037852583444,"135":-0.07706178350004378,"136":-0.33166053909666793,"137":-0.08300686660533707,"138":-0.15496720222498941,"139":-0.03596483902770519,"140":-0.032073003882948294,"141":-0.189436150543732,"142":-0.09414909452411263,"143":-0.02652064414205399,"144":-0.2179432512049569,"145":-0.20779535869954224,"146":-0.11923259038809128,"147":-0.10437923618398845,"148":0.25383641539222823,"149":0.30867525113715366,"150":-0.06567447621654302,"151":0.07497274699647197,"152":0.27020590541353817,"153":-0.22478025456996312,"154":-0.2203750129460285,"155":-0.2528319524007075,"156":0.119483057624486,"157":0.3242125116837235,"158":-0.2297351458738794,"159":-0.29067396313631,"160":-0.16738042366592537,"161":-0.11683089464161979,"162":0.33999919979020404,"163":0.07841143283707949,"164":0.40099407103450146,"165":0.06568088827690952,"166":-0.1834173946364095,"167":0.15043049204601064,"168":-0.0885550811278677,"169":-0.1454372607703272,"170":0.018738771894200666,"171":0.023930626796610226,"172":0.15489074504895692,"173":-0.06645031490092393,"174":0.10264903447898131,"175":0.25765429470631834,"176":-0.012806770233717688,"177":-0.19455661905312185,"178":-0.02251016187538323,"179":0.0518529852687881,"180":0.17148378213432067,"181":0.10009413111498415,"182":0.17742365929738818,"183":0.11286394824579155,"184":-0.05866447582763753,"185":-0.21997501593046095,"186":0.20114898367245063,"187":0.05537880921241703,"188":0.15645098757868922,"189":0.2977260510781282,"190":0.11170183225405232,"191":-0.015146187258095573,"192":0.3335911680138287,"193":-0.18986445074693659,"194":-0.0036484553501476566,"195":0.08053770823492294,"196":-0.14301674135872688,"197":-0.03883561413420264,"198":0.07215899447086624,"199":-0.07643769490702894}},{"sx":5,"sy":5,"depth":8,"w":{"0":-0.08833510269246567,"1":-0.13136215050140204,"2":-0.19456100547660232,"3":0.2736361134591188,"4":-0.12677361142058605,"5":0.13645899939968317,"6":0.1815975333049067,"7":-0.2285656869091161,"8":-0.1225885598499428,"9":-0.06245119863202821,"10":-0.04266313216994948,"11":0.27751305655004277,"12":-0.19962220851160156,"13":-0.01967110184965343,"14":-0.11688299777462287,"15":-0.3182176956314358,"16":-0.16589248884237737,"17":0.016285885937686515,"18":-0.16428863161064297,"19":-0.16430345337204538,"20":0.08881672541365809,"21":0.059965392232665025,"22":-0.05404817404595153,"23":-0.05966761333201781,"24":-0.1285361714916852,"25":-0.06595175258939161,"26":-0.15927096378841285,"27":-0.1571936643236129,"28":0.042652569945083305,"29":-0.016797569915522188,"30":0.10406607213500628,"31":0.1680563250964719,"32":-0.2799681371426878,"33":-0.1556051399900712,"34":-0.17394709014183105,"35":0.11125184960628513,"36":-0.021134062559353378,"37":-0.27297311323130957,"38":0.08815624350537779,"39":0.08912950079648845,"40":-0.01891908153945318,"41":-0.04737407933461584,"42":-0.023733765857740518,"43":0.12039551001120839,"44":0.04492145258522713,"45":0.11872616369058703,"46":0.40732275012017244,"47":-0.08560350263075182,"48":-0.06496462580045226,"49":-0.14390160438434876,"50":-0.050881748367718915,"51":0.2507806038280682,"52":-0.08609948211236078,"53":0.23886295361829063,"54":0.17545809788025038,"55":-0.24385031334850102,"56":-0.4371763145288176,"57":-0.197923878687819,"58":-0.037381972351313485,"59":0.07311191804291259,"60":0.0575712665085064,"61":0.0005215613279093,"62":0.08247689442110778,"63":-0.06663712665187396,"64":-0.4006797979841271,"65":-0.1527503627746959,"66":-0.07818285734039522,"67":-0.06698537574955298,"68":0.010262132543688175,"69":-0.02023760255385355,"70":0.07093071714311687,"71":0.2064344396016738,"72":-0.19348041989271103,"73":-0.2269906443676744,"74":-0.02342755861812088,"75":0.007364484985746986,"76":-0.054296704740659334,"77":-0.07327992373783751,"78":-0.10635510858338791,"79":0.14518704463737597,"80":0.2579332296715201,"81":0.007395458914131592,"82":0.0261499890437424,"83":-0.009976774671671223,"84":0.1365331724352534,"85":0.0954939487916108,"86":0.1149020397609431,"87":-0.06343445401376309,"88":0.3710737588378295,"89":0.35608884310875294,"90":-0.12404049749713043,"91":-0.06879781827180015,"92":0.11112721372822627,"93":-0.07705970310530078,"94":-0.11792993225487952,"95":-0.3233784010246738,"96":-0.0748210606185676,"97":0.3109703750105053,"98":-0.11058880038357427,"99":-0.45420755985366834,"100":0.013277369316772519,"101":-0.13386495883803784,"102":-0.1435316821518178,"103":-0.08642260292702823,"104":-0.035865704934426645,"105":0.07312360244173789,"106":-0.12270964402341492,"107":-0.10046419353061585,"108":-0.006632724848141046,"109":-0.05920031006694856,"110":-0.19009400762810358,"111":0.13127494584640573,"112":0.07900840411476043,"113":-0.05159528445275932,"114":-0.33701701214377955,"115":-0.11112270088246518,"116":-0.19833457071924324,"117":0.037072986969711494,"118":-0.2727100105382008,"119":0.0436271683882659,"120":0.29995664236060443,"121":-0.09630612565643323,"122":-0.09787548836349502,"123":-0.12950762969718335,"124":-0.022273521264688748,"125":-0.05103011853654769,"126":-0.10301961213774864,"127":-0.04824940726666822,"128":0.13604807847393247,"129":0.12534711066361592,"130":0.24221612156596348,"131":-0.03660050723713645,"132":-0.10412551763606398,"133":0.12270294662286953,"134":-0.054737153101514946,"135":-0.20428504535458994,"136":-0.08506417280287318,"137":0.028522498874589488,"138":-0.0423459778012646,"139":-0.08369825529725303,"140":-0.02927290505869885,"141":0.2518184330362626,"142":-0.07614646763212495,"143":-0.08946539336146368,"144":-0.09787521981676725,"145":0.010869925607106107,"146":0.0027438198331633996,"147":0.21652954141795416,"148":0.01777608446915167,"149":-0.013820442636796429,"150":-0.1259277099481117,"151":0.2125135704389597,"152":0.10760193544064209,"153":-0.009929322520428302,"154":0.08339245720425092,"155":0.32194872977982697,"156":-0.175015377474657,"157":-0.0071151152289238885,"158":0.012248811401665154,"159":0.16617929313557062,"160":0.06024732784502013,"161":-0.0729608401940721,"162":0.2722796764474896,"163":-0.08075974069559788,"164":-0.16869986010723573,"165":0.17736948496640662,"166":-0.034023340117747145,"167":-0.19367862434946928,"168":-0.3018681445264168,"169":-0.09563899853934482,"170":0.0898273535044163,"171":-0.021874650337388776,"172":0.05441482722136514,"173":0.29832408343146144,"174":0.030376534945239814,"175":-0.21579202739807699,"176":-0.2134273695959889,"177":-0.15334643353459732,"178":-0.07242641977905376,"179":-0.1680597324822911,"180":0.04575359148935114,"181":0.11747771210635904,"182":0.009575618380862749,"183":-0.1771516549543072,"184":0.18446803114046703,"185":0.016619517079127625,"186":-0.23321608397702648,"187":-0.20909450076740596,"188":0.12983287290387163,"189":-0.09884415424725845,"190":0.05636190940159676,"191":0.12936412431085256,"192":0.23235178676017793,"193":0.08977032017216573,"194":-0.058079918045201434,"195":-0.09293100362625464,"196":-0.010848018163317557,"197":-0.27547228470367663,"198":0.14273437703646497,"199":0.21262336752748173}},{"sx":5,"sy":5,"depth":8,"w":{"0":-0.017762350166871298,"1":-0.006541039671524814,"2":0.0713037452148891,"3":0.06650753934913095,"4":0.0479795354628368,"5":0.1657361814762582,"6":0.12560008971501926,"7":-0.07516562645416736,"8":0.009975212832478207,"9":-0.13544736721434056,"10":0.03345581038803273,"11":-0.04268896404845723,"12":-0.056152223674081125,"13":0.042793488225127956,"14":-0.04401403585888899,"15":0.07574277864430298,"16":-0.06022399183567873,"17":-0.28783903489737683,"18":0.21450814379438982,"19":-0.03216851047951378,"20":0.2967083223780549,"21":0.04632389812952016,"22":-0.06840348677724048,"23":0.34824827939643643,"24":0.10387335437250937,"25":-0.20199553880370139,"26":-0.02754692572805354,"27":0.03651961457546143,"28":0.14032917999683617,"29":0.21370207155556287,"30":0.08518584028389559,"31":0.10461693602085605,"32":0.08437445812393138,"33":0.010591945247966288,"34":0.06059471451207751,"35":-0.14924567374926906,"36":-0.09606254994863475,"37":-0.048850669363198894,"38":-0.10949046253861612,"39":0.0998864950883595,"40":0.2893092415103825,"41":0.1987549745758378,"42":-0.10916852506354885,"43":-0.09934196258965514,"44":0.19916972760114068,"45":-0.08698330083134449,"46":-0.1179298826428271,"47":-0.06154835503693172,"48":-0.09587651770650589,"49":0.0034471540851563572,"50":0.10585678730246874,"51":-0.20552411940262866,"52":0.10587686325047066,"53":0.1036849879058758,"54":-0.28312868584061246,"55":0.21240071004019417,"56":0.17743744464961808,"57":-0.2904055966274737,"58":-0.13260253692550272,"59":-0.5246305837253749,"60":0.3479338004085922,"61":0.20275078728620233,"62":-0.16308517930784197,"63":0.07567428581373332,"64":0.02140220089316724,"65":0.00394557672853194,"66":-0.10458834223111299,"67":-0.33992653275986395,"68":0.058531433934231554,"69":0.1438009041473341,"70":-0.270456877658966,"71":0.007770972536762927,"72":0.07633867784881478,"73":-0.008449617128889867,"74":0.12280722396988711,"75":-0.2395622512555305,"76":0.07609199736870913,"77":-0.0005192872355197312,"78":-0.0784060962116954,"79":-0.014472337713214016,"80":-0.24731702502676273,"81":-0.2514008447731043,"82":-0.08528532158883903,"83":-0.09550225456920698,"84":-0.1372270414972631,"85":0.08005101332665476,"86":-0.08126635706236572,"87":-0.03453481827077107,"88":-0.1134751623769207,"89":-0.28772754015506313,"90":0.006400968735222715,"91":-0.14154752415542662,"92":0.409851664847071,"93":0.23583659180262534,"94":-0.033031065084369274,"95":0.11538726144544362,"96":0.07263861469897534,"97":-0.2694129730673388,"98":-0.17622328637951534,"99":-0.11842114876011706,"100":0.34318656829144734,"101":0.0010618532215025582,"102":0.19432026352492213,"103":0.12201748609309246,"104":0.17261361172604806,"105":-0.005499386594274745,"106":-0.17424589527328838,"107":0.061371290525683894,"108":-0.05782249570633988,"109":-0.09057500538256323,"110":0.014506866674583898,"111":-0.16632482444473692,"112":0.06115708701246682,"113":0.08664872056247147,"114":-0.1375633417346483,"115":-0.04635577721378888,"116":0.12248045024647561,"117":0.04247978501386323,"118":-0.14626755914559222,"119":-0.05240984720372264,"120":-0.17690457978256727,"121":-0.25683022006280093,"122":-0.1169102964100759,"123":-0.19483412362921515,"124":0.07221074957540233,"125":0.011616086795339169,"126":-0.10770310238175965,"127":-0.09707599383073921,"128":-0.2973944421669201,"129":-0.28242731247906666,"130":-0.2269606789182928,"131":-0.29831879830746105,"132":0.5448494001649735,"133":0.12897853158858022,"134":0.025853958525439813,"135":0.08352385841300403,"136":0.05037981151845299,"137":-0.10616497279948615,"138":-0.15009068400689382,"139":0.12937503375043174,"140":0.312745965854297,"141":-0.30719571614132374,"142":0.06796983210161761,"143":0.01684582741356086,"144":0.15946034882001006,"145":0.3228291494080026,"146":0.1717694873702449,"147":0.2442464589359648,"148":0.009128588062347452,"149":-0.2244079927285925,"150":0.1537820410489292,"151":-0.09172446494462695,"152":-0.10640925337631589,"153":0.1288584776666799,"154":0.10726211854017967,"155":0.18682255421270558,"156":0.012456753170724763,"157":-0.22808063955650096,"158":-0.07859650836548994,"159":-0.032896311825173476,"160":-0.20177238610257414,"161":-0.2830095684866252,"162":-0.10550416218967021,"163":-0.25267278004638105,"164":0.2699752041768356,"165":0.0873079872790445,"166":-0.21966426965805627,"167":-0.11805688506602911,"168":-0.32566860816758375,"169":-0.31280551339844737,"170":-0.16849602736373906,"171":-0.2614116655373299,"172":0.3821985543090258,"173":0.043524902915460476,"174":0.11115017141017419,"175":0.18222468639496744,"176":-0.16291093998833114,"177":-0.07191964584663671,"178":-0.18575132957688265,"179":0.20089838353632877,"180":-0.005636550651254733,"181":-0.25950404818234707,"182":0.19525859654847882,"183":-0.06118343017182493,"184":0.04570520501427048,"185":0.1825696023534078,"186":0.023136310290387336,"187":0.23706907207498878,"188":-0.2526829644391494,"189":-0.12245465533034695,"190":-0.0388132311080018,"191":-0.22528838609935858,"192":-0.20552110042051178,"193":-0.05228773691756759,"194":-0.06075243287115127,"195":-0.16265879940549727,"196":-0.07999027365457827,"197":-0.3024268255614861,"198":-0.06515116569303604,"199":-0.33029213821650544}},{"sx":5,"sy":5,"depth":8,"w":{"0":0.04506433055422132,"1":0.2138499751993823,"2":0.11742333741508336,"3":0.11417610257779923,"4":-0.20140068972880215,"5":-0.130613252341528,"6":0.018587275455404412,"7":-0.03123188518252305,"8":0.08253520544669751,"9":0.11120915798578505,"10":-0.036939218870782456,"11":-0.12428271517493307,"12":-0.19696329570325796,"13":-0.01883311393484214,"14":-0.05297004810115846,"15":-0.10719410591086659,"16":0.09316347533440975,"17":0.11233773708055038,"18":0.10565512496450513,"19":-0.050529737760597875,"20":0.08583171046977249,"21":0.12548350106976294,"22":-0.005361806772287551,"23":0.1091645537945271,"24":0.20519372602204577,"25":0.18015677393680848,"26":0.2601138301041745,"27":0.07707147732174156,"28":-0.10677595209991725,"29":0.4757549987034073,"30":0.04467864082925154,"31":0.03476340096664038,"32":0.03624607624952675,"33":0.14458922174182723,"34":0.2776803031302906,"35":0.1829901000113994,"36":-0.07603242301263897,"37":0.19861209535160548,"38":-0.06884608175535886,"39":-0.04313857561739516,"40":0.039639178730379095,"41":0.05253187552176135,"42":-0.13585636439605733,"43":0.07607988849666734,"44":-0.1452350317679348,"45":-0.16551863888884671,"46":0.10364529270518498,"47":-0.03978784700451815,"48":-0.032793019952562084,"49":-0.05754385690058439,"50":-0.17708227644989077,"51":-0.11551198241479264,"52":-0.11086570582348021,"53":-0.23450038177523083,"54":-0.07600592010736067,"55":-0.20034124149085017,"56":-0.13328655267419592,"57":-0.02036884463107907,"58":-0.07598966783762058,"59":-0.08101978311831853,"60":0.08900343060845238,"61":0.0017925115186254723,"62":-0.015427107932167932,"63":-0.05073213968882503,"64":-0.06482379391212405,"65":-0.23394005525969605,"66":-0.08996037610023298,"67":0.15498705589178388,"68":0.14900520514490664,"69":0.43918457723287,"70":0.013321662019833556,"71":0.02549377290046833,"72":0.03004222056735595,"73":-0.014019715730605474,"74":0.016619033392250977,"75":0.212043783719153,"76":0.010170920127798595,"77":0.21425657933330702,"78":0.08859810044778145,"79":0.11025201828207466,"80":-0.08992856383296191,"81":0.19579014103542713,"82":-0.12014762510275508,"83":-0.13010993806782442,"84":-0.20029639394873625,"85":-0.2082047741043901,"86":-0.0615846679476121,"87":-0.09483427427284485,"88":-0.19472140383494338,"89":-0.15707677535130696,"90":-0.1951105273747104,"91":-0.17413291911571752,"92":-0.19393764769284433,"93":-0.3858048556259777,"94":-0.10252134976300058,"95":-0.20314851062089737,"96":-0.15826665987430222,"97":-0.014489832045689696,"98":-0.04047828217700945,"99":-0.13022300816749044,"100":0.243319783403376,"101":-0.21070969785759772,"102":-0.08487241770064796,"103":-0.03038361068458994,"104":-0.15567757663554677,"105":-0.008122608500479396,"106":-0.09487213648150267,"107":-0.16543342670919137,"108":0.28521326183121815,"109":-0.16700171789740784,"110":0.20610136487665115,"111":0.07357096768806498,"112":-0.02479019168138672,"113":0.057823686527569466,"114":-0.0387937026925175,"115":-0.05438654313067427,"116":-0.030928394727878443,"117":-0.12248402850056615,"118":0.12197343010931107,"119":0.09244491116727317,"120":-0.1527003747287977,"121":0.0483551037798702,"122":-0.05443445424595787,"123":0.17775024644931076,"124":-0.19620095702359164,"125":-0.09502865622325252,"126":-0.17900232370112185,"127":-0.10964504767604112,"128":-0.17561581493388728,"129":0.02115360979770911,"130":-0.057909197005566265,"131":0.16415650479814214,"132":-0.28393286780052973,"133":-0.12341429633441453,"134":-0.04534419663785015,"135":-0.2560578722329927,"136":-0.08829614879218396,"137":0.15990630864370078,"138":0.05691646818569875,"139":0.09887069970248621,"140":0.00401797035866029,"141":-0.23587216166194105,"142":-0.09864375693553849,"143":-0.14506060561058778,"144":-0.19747691353751162,"145":0.290364193508071,"146":0.04462383254461238,"147":-0.0721733719860996,"148":0.008904044321488254,"149":-0.2890225583430717,"150":-0.04370620212002448,"151":-0.06093988644738824,"152":-0.22687043033200754,"153":-0.01756713683354047,"154":-0.027143685775957268,"155":-0.2623813602834855,"156":0.0395866438733969,"157":-0.13017403756175278,"158":-0.24232947481483336,"159":-0.08018393947925162,"160":0.019454268219985037,"161":-0.014664476552298501,"162":0.10260982316178552,"163":0.24493045561574056,"164":-0.021900078265248618,"165":0.22674153922957951,"166":0.09367527213843,"167":0.016807443341905596,"168":-0.10115969962273878,"169":-0.021910509327341152,"170":0.20126722182705592,"171":0.3403727734631864,"172":-0.29832725098696483,"173":0.07020748395183257,"174":0.3412221078859806,"175":-0.058885025716267345,"176":-0.313872875470364,"177":-0.024384697006512506,"178":0.2904125302330842,"179":0.46688816477945494,"180":-0.1731915887979584,"181":0.38362609345239695,"182":-0.014653899131197246,"183":0.03590089496701474,"184":-0.2056778842445787,"185":-0.19143701727771223,"186":0.14336063189913517,"187":0.2390735497420005,"188":0.01859924299036908,"189":0.3791065957627295,"190":0.15406378533767223,"191":0.12905670019044144,"192":-0.20373925295022582,"193":-0.3850359649598284,"194":-0.10916083425349124,"195":0.06749470913606581,"196":0.1615515792915911,"197":-0.07372369548674164,"198":-0.12432469239766296,"199":-0.04060236492793045}},{"sx":5,"sy":5,"depth":8,"w":{"0":-0.23202936705105154,"1":0.21313636791537047,"2":-0.15734039209678208,"3":-0.029610360034474658,"4":0.0070635132380095006,"5":-0.42831658900571534,"6":0.10836554945885711,"7":0.010136098740861119,"8":-0.24044439727302175,"9":-0.07980438212273977,"10":0.012300809594410928,"11":-0.08470698611850527,"12":-0.12754026596509624,"13":-0.2388739502044073,"14":0.0943886909097599,"15":0.05848584572395932,"16":0.30916079262200763,"17":-0.011503237978299965,"18":-0.03021046477416339,"19":-0.17788290827237635,"20":-0.12277889838380322,"21":0.00910038026825015,"22":-0.0061519096656550394,"23":0.024543065559683466,"24":0.08596454587150303,"25":0.04582782759835213,"26":-0.10600153838797133,"27":-0.2753888607407856,"28":-0.1373700056018662,"29":0.21593206159726983,"30":-0.0908253639332548,"31":-0.03841899527109992,"32":0.2352833967082765,"33":0.07217021541528096,"34":-0.06839905862213952,"35":-0.13346085809920633,"36":-0.021963727203251116,"37":-0.08978534780365315,"38":0.13303282583316814,"39":0.04908177954308649,"40":-0.010673572277358986,"41":0.19972130210732972,"42":0.05038625837470115,"43":0.09833674049983601,"44":-0.0816944971420043,"45":-0.07267331819635134,"46":-0.002303545222373707,"47":-0.08390908465917707,"48":0.14414751202929796,"49":0.22733434641296266,"50":-0.07928552783942079,"51":-0.01705331758862058,"52":-0.1166197655924424,"53":-0.07560287539250035,"54":-0.1376455980810593,"55":-0.07058333470736301,"56":0.33667810708264406,"57":0.30121443336437753,"58":0.005430983448844962,"59":-0.08637292968326873,"60":-0.06368126482854986,"61":0.095619091517773,"62":-0.1503343723899338,"63":-0.03751357715916351,"64":0.1893885725173217,"65":0.30846890839888497,"66":0.02009710242792604,"67":-0.16810565678543124,"68":0.21934383473984717,"69":0.11365954147190416,"70":-0.21230845305543608,"71":-0.0009865655198037454,"72":0.13907462746422927,"73":0.08540603218531823,"74":-0.02047332297826241,"75":-0.006794688805977589,"76":-0.03077536687604608,"77":0.14595463800766798,"78":-0.06211437910807998,"79":0.009409485724299066,"80":0.10811262346474429,"81":0.019740759639427428,"82":-0.21057511451000605,"83":-0.09516075542661896,"84":-0.10660469870170805,"85":-0.08553390530602316,"86":0.08493963577588456,"87":0.04546511530787373,"88":0.1264316792801597,"89":-0.014876227846841904,"90":-0.11534432980453534,"91":0.007761807703618979,"92":-0.11121377374676605,"93":-0.059691401111633895,"94":-0.04399790818676509,"95":-0.24963497249394065,"96":-0.09935270996551787,"97":-0.02308485058201497,"98":-0.17607983471287403,"99":-0.12201491295656013,"100":0.02905094118548213,"101":0.01365812291396758,"102":-0.05844796043059652,"103":-0.20154668201619655,"104":0.02501402744264099,"105":-0.05339855414790397,"106":0.036623313720800625,"107":-0.10884229808522956,"108":0.273265256966191,"109":0.19281925924798268,"110":-0.029656537173524927,"111":-0.05918805578669422,"112":0.0969764846835606,"113":-0.08047850929521727,"114":-0.08992597287166898,"115":-0.0946261031250741,"116":0.1244117751307137,"117":0.06979984771315012,"118":-0.09318571863412735,"119":-0.1444198861669071,"120":0.30674589072607655,"121":0.22440603806017706,"122":-0.07460541849073986,"123":-0.2534644149007754,"124":0.0030980788061808835,"125":-0.09064313240265305,"126":-0.12363747532428405,"127":-0.03234040508966344,"128":-0.022367776439878858,"129":-0.0290977556600971,"130":-0.14630741327652916,"131":-0.14246777596368704,"132":-0.07494221587209506,"133":-0.015590553937328024,"134":-0.05691838984860069,"135":-0.14398151224368774,"136":-0.07771161530313737,"137":-0.05728330474448354,"138":-0.22367480365555661,"139":-0.22108127135617267,"140":-0.030990474052719177,"141":-0.11671282475427365,"142":-0.03508432495632698,"143":-0.21343590355483358,"144":0.16945191266806897,"145":0.20523862939050083,"146":-0.08070033131983749,"147":-0.15592490589537572,"148":0.14981466192621942,"149":-0.16083343101418163,"150":-0.16902618605886766,"151":-0.11614328371568085,"152":0.20188207233113975,"153":0.1274465799466599,"154":-0.06450584290944784,"155":-0.20592392299962756,"156":0.026726262827537182,"157":-0.1194806426698552,"158":-0.27535530236910655,"159":-0.07799206436663539,"160":0.05426230158120226,"161":-0.03368362249604158,"162":0.17464696083265197,"163":0.08510856924072102,"164":0.07433242879632027,"165":0.2873302996520827,"166":-0.11155230326447338,"167":-0.046505133178642,"168":-0.17404716365158657,"169":-0.08695721305120688,"170":0.035486862777780716,"171":0.19320774815297045,"172":-0.0648509545782898,"173":0.08781718784435137,"174":-0.07303006820574587,"175":-0.06185645474164304,"176":-0.12322998286841455,"177":-0.17228244852066377,"178":0.10700504447214113,"179":0.37452345671790027,"180":-0.19989295772238175,"181":-0.10119587213086398,"182":-0.007551078672487068,"183":-0.0426172342057186,"184":0.16209610575548228,"185":-0.07752405512986224,"186":0.14348714860109954,"187":0.32256200227363674,"188":-0.21962028075506226,"189":0.01923971100538185,"190":-0.06060191625180661,"191":-0.1855219675963434,"192":0.014549470464414172,"193":0.019788375073366893,"194":0.1957984592128169,"195":0.30379279996702196,"196":-0.11345730778383584,"197":0.011093535272421198,"198":-0.013692115470267292,"199":-0.0467660244874612}},{"sx":5,"sy":5,"depth":8,"w":{"0":0.011419088097603655,"1":-0.018941066200941527,"2":-0.12706298631411167,"3":-0.22604008721678115,"4":0.02331521296317696,"5":-0.11509313016607349,"6":-0.13080981668918293,"7":-0.13885356469015195,"8":-0.013025092237894087,"9":-0.05101828796012876,"10":-0.1782326603656906,"11":-0.06637847271067704,"12":-0.14981110090997024,"13":0.008687087570628266,"14":-0.15976244650610413,"15":-0.12007308777155709,"16":-0.0973911867104764,"17":-0.030681246988087444,"18":0.0316290892531798,"19":-0.13005556945321248,"20":0.14501181708079444,"21":0.12409343347607833,"22":-0.10682083026181052,"23":-0.1145717689070237,"24":0.002656328249296904,"25":0.05396320991496544,"26":0.01836251485455855,"27":-0.07787938849525719,"28":0.12095894170048678,"29":0.2620326213713346,"30":0.0033085411245967152,"31":0.007052073687017863,"32":0.012001510335138988,"33":-0.0050234767530900086,"34":0.004047307740735456,"35":0.018988728767591705,"36":0.14036797823870195,"37":0.26611432495364695,"38":0.10753295877191983,"39":-0.11651686455875204,"40":-0.12672085545425726,"41":-0.18634712685145086,"42":-0.17472946944141396,"43":0.011045306184217426,"44":-0.07985205794264552,"45":0.09690916407381789,"46":0.10109531970696396,"47":0.03202135112887743,"48":0.03731357756820836,"49":-0.22334292525814808,"50":-0.07931583893527622,"51":0.02266407560607889,"52":-0.09519297737015416,"53":0.2512750266967224,"54":0.006126196425301648,"55":0.03772606856972993,"56":-0.029923508453944127,"57":-0.07358723196430737,"58":0.07980576487843084,"59":0.025574542681614527,"60":0.1131091367959171,"61":0.04701212097570992,"62":-0.10257963323171577,"63":-0.13825654803966764,"64":0.23268643352016155,"65":0.1180011364852391,"66":-0.015677343275240844,"67":-0.15265291352295032,"68":0.27653004238336115,"69":0.07209700026476736,"70":-0.016002434294274663,"71":0.00936557875442552,"72":0.3060233953744165,"73":0.2297673599482591,"74":-0.10814203461029111,"75":-0.19397797602473132,"76":0.15258073693025653,"77":-0.05858068780652864,"78":-0.011421683690422952,"79":-0.08525772992343514,"80":-0.1724123853901687,"81":-0.056798167301970875,"82":-0.05306632551426379,"83":-0.05384494878964436,"84":0.0893533017863935,"85":0.13483689517943306,"86":-0.013463471806187031,"87":0.01916698772463739,"88":-0.07847367694695367,"89":-0.0803734424659865,"90":0.04870197293166046,"91":0.008414581977595785,"92":-0.07167297134779255,"93":0.37763848266990635,"94":-0.007210924012468328,"95":0.031465147975103774,"96":-0.03864394532612754,"97":-0.14614238640947266,"98":-0.06875569318713051,"99":-0.07825047405336125,"100":-0.07070395828141679,"101":-0.0710609184629512,"102":-0.14648841324634787,"103":-0.08351558700036844,"104":-0.04557312439281433,"105":-0.040925242731603306,"106":-0.024786833969420417,"107":-0.22325505959330416,"108":0.00941191785628437,"109":-0.019562844886034037,"110":0.009622921494469762,"111":-0.07012409872859776,"112":0.014917511692666889,"113":-0.0746334078963004,"114":-0.013252157719288532,"115":-0.09572088640639742,"116":-0.11172580734158488,"117":-0.09127615473253425,"118":-0.03447694037750004,"119":-0.1690106312349177,"120":-0.008785190263137049,"121":-0.047016668375507525,"122":0.17648769525107602,"123":0.02177989982690572,"124":0.14807044292404728,"125":0.27815161329355415,"126":0.033606550969289155,"127":0.05333891143898378,"128":0.27886102565478166,"129":0.15194345599486253,"130":0.007854912614274864,"131":-0.10756948445041972,"132":0.1552892974795419,"133":0.04223199683673874,"134":-0.14081397165355514,"135":0.04062380906833641,"136":0.1739979449184767,"137":0.1656989637365877,"138":0.032726974208136965,"139":-0.19113706126185534,"140":0.00506464624541001,"141":-0.03111949008380165,"142":-0.20197514159218982,"143":-0.0843449126416983,"144":-0.053882876764535445,"145":0.008840870602289086,"146":-0.1360251251706607,"147":-0.23144188587098197,"148":-0.07066166333677822,"149":-0.09087634013342716,"150":-0.03313297175124301,"151":-0.15315271608131292,"152":-0.23536460489892666,"153":-0.1644859130914325,"154":-0.1588789275926703,"155":-0.2549907431457381,"156":-0.11668584493780379,"157":-0.11265550108413641,"158":-0.06758277109963894,"159":-0.2505782313956318,"160":0.15974944263137966,"161":0.05911559254489462,"162":-0.0768816470813984,"163":-0.17946290827660027,"164":0.2215026807878765,"165":0.1729574208524039,"166":0.032335097489666884,"167":0.0961851959611226,"168":0.21402241404279868,"169":0.025462920528335223,"170":0.05517105800407579,"171":0.1579139324806537,"172":-0.004576552067634342,"173":-0.06598442056471197,"174":-0.08144138423219825,"175":-0.05309214378026447,"176":0.011916696402506175,"177":0.06434545654291382,"178":0.11234663302232396,"179":0.025862322300492683,"180":-0.09518690477006712,"181":-0.022663320918546826,"182":-0.13981850463762746,"183":-0.11189478996879337,"184":-0.10168086946153156,"185":-0.001273915749287139,"186":-0.010454065609120652,"187":-0.018319783916993692,"188":-0.13374412044333583,"189":-0.04882936064729532,"190":0.0034595875821035655,"191":-0.14942786371816444,"192":-0.14996052183031425,"193":-0.055868996450109,"194":-0.05097878802266811,"195":-0.036208590451339506,"196":-0.10335617334360812,"197":-0.017351028712428117,"198":-0.050549688883224225,"199":-0.12856388331229987}},{"sx":5,"sy":5,"depth":8,"w":{"0":0.15600699242262187,"1":0.1960541817967894,"2":0.006688912541482138,"3":-0.16564212184353988,"4":0.029689552352176216,"5":-0.13099319476957808,"6":0.004594995606443937,"7":0.028072982024750982,"8":0.0716845122378162,"9":0.37229971379271876,"10":-0.04247270204030546,"11":-0.06552382975909339,"12":-0.0026163407972829185,"13":-0.23767584330411456,"14":0.10233079958009209,"15":-0.03166448952648075,"16":0.114038825509676,"17":0.1752263674995088,"18":0.03403641701269925,"19":-0.12444696823032589,"20":-0.010689360171539977,"21":-0.07754561661435505,"22":-0.009767796712502339,"23":-0.01264309180502854,"24":0.37272224542171395,"25":0.056138507234839714,"26":0.014823773373789645,"27":-0.10976508895120587,"28":-0.02282819921288974,"29":-0.08749183326059455,"30":-0.0661241295555644,"31":0.07826944523558499,"32":0.17734796840989459,"33":0.05408835870951825,"34":-0.04196973146033805,"35":-0.017859122135804952,"36":0.2040455827606297,"37":-0.026104042348308078,"38":-0.010781348037792833,"39":0.07722762059648822,"40":0.037029729815285385,"41":0.060849729992866544,"42":0.055222425006420536,"43":-0.26106846958840085,"44":0.1001076108999911,"45":-0.12631837849895564,"46":-0.22453468342853145,"47":-0.021119518917356937,"48":-0.042846428646482325,"49":0.01414405219940591,"50":0.09207973022904682,"51":-0.24044347226305024,"52":-0.048064453524506744,"53":-0.06761847435440109,"54":-0.05395228456879196,"55":-0.034403490710955546,"56":0.19971474727682453,"57":0.15064023031609333,"58":-0.06525878764167124,"59":-0.17332788981428723,"60":-0.05978839904885658,"61":-0.04005656698061721,"62":-0.004445614183173388,"63":-0.11835965940225815,"64":-0.08303349279283267,"65":0.050763606315050044,"66":-0.01045617559084771,"67":-0.14173672337754317,"68":0.04049364207031046,"69":-0.10569372322032743,"70":-0.17137427876009573,"71":-0.06296948183600194,"72":-0.09331824344333384,"73":-0.012943564939146189,"74":-0.18460320506154454,"75":-0.3395659374342177,"76":0.09763454387491084,"77":-0.3776069302392507,"78":-0.17033112609296772,"79":-0.1965759029743997,"80":-0.27103126810013517,"81":-0.07059749355370923,"82":-0.03481947862558714,"83":0.019735216042439264,"84":0.11997805770350758,"85":-0.08771859401426486,"86":-0.15088917414617592,"87":-0.05331978408401747,"88":-0.21306000218239002,"89":-0.11132243310837485,"90":-0.16558624648876022,"91":0.03844014926834718,"92":-0.020695687479072654,"93":-0.0036409124458869286,"94":-0.1132607422288133,"95":-0.15613392136433182,"96":-0.058077305745550006,"97":-0.045802375132249155,"98":0.1069234258643362,"99":0.03683867734974338,"100":-0.1923090472008329,"101":-0.0560557870550476,"102":-0.10562565025433526,"103":-0.03556567625423007,"104":0.006824226771604525,"105":0.02418108637997402,"106":0.05721334215211905,"107":0.06923922646318643,"108":-0.09197495933548958,"109":0.022844287980322838,"110":0.07410477299911675,"111":-0.02504526788876074,"112":-0.05610134435510723,"113":-0.03931333248876877,"114":0.22184647706234067,"115":0.38880819737140004,"116":-0.232958406480895,"117":0.12285820511018225,"118":0.023995375041310288,"119":0.03449584008258888,"120":-0.2927942790396054,"121":-0.25228270853053714,"122":-0.10856467083956503,"123":0.2585342004449327,"124":-0.011476774686279249,"125":0.11175419892359333,"126":0.09156436785856759,"127":0.03632240011687237,"128":-0.13867351960148025,"129":-0.07183764459832245,"130":-0.02611635009344283,"131":0.4034234154917734,"132":-0.08182639869841149,"133":0.14288761480858145,"134":0.2451462014014279,"135":0.03486311631662685,"136":-0.03756094274570394,"137":-0.08121542908321974,"138":0.14037072293026132,"139":0.44272433606704653,"140":-0.053139084177295653,"141":0.01938583081090737,"142":0.09310581145825653,"143":-0.10763862065297435,"144":-0.10602202424000146,"145":-0.003253708935259131,"146":-0.004787246389014236,"147":-0.09498275523394747,"148":-0.1907165670132532,"149":-0.0495316144498637,"150":-0.09661031297205266,"151":-0.1639221624966449,"152":-0.05866534176719875,"153":-0.14347380617062608,"154":0.050862795190364726,"155":-0.03178881785803682,"156":0.10315031884825807,"157":0.27683428263297816,"158":-0.12980018311819297,"159":-0.03446694128660556,"160":0.11757002002154526,"161":0.2905399922266889,"162":0.16183580616324225,"163":0.11512974823194877,"164":0.24403356024405667,"165":0.11748659195666254,"166":0.01678143301861589,"167":-0.2939850984015926,"168":0.17626619788412834,"169":0.2106782902173641,"170":0.0015204621414943594,"171":-0.2017260655523503,"172":-0.0968317467242881,"173":-0.07990991198527862,"174":0.1666762897759672,"175":0.10550083790336057,"176":0.15829021145992112,"177":0.07808277246857605,"178":-0.1639505094804824,"179":-0.07510251344431709,"180":-0.07297973455613964,"181":0.0567492426638003,"182":0.10683835572460054,"183":-0.13059411396004472,"184":0.03688851631173294,"185":-0.13460218849764713,"186":-0.15393413635251588,"187":0.035526009124825085,"188":-0.11541650357878405,"189":0.16530230404480908,"190":-0.11392620885547385,"191":0.01975540579049506,"192":-0.18613069904380716,"193":-0.1788436598078778,"194":-0.05307887109564744,"195":0.08707927039114324,"196":0.15837146926295698,"197":0.1882474797495318,"198":-0.058365505761884436,"199":0.15027749773284999}},{"sx":5,"sy":5,"depth":8,"w":{"0":0.11935606667990765,"1":0.07729049236808094,"2":-0.23659623097179028,"3":0.05314660059473484,"4":-0.18101493327835028,"5":-0.044324615693876135,"6":0.13939558418498302,"7":0.1262514900717517,"8":0.07233539916858413,"9":0.030260348719684707,"10":-0.0735662966279999,"11":0.21148195174662412,"12":-0.14188070708338615,"13":-0.10416567766579227,"14":0.1258576352280173,"15":0.06246736906039722,"16":-0.3088144466625776,"17":-0.04889353258951585,"18":0.07991432136981451,"19":0.21782458044540096,"20":0.09310525116455204,"21":0.1616195802161814,"22":0.002831474982360728,"23":0.0288879583161028,"24":0.039888420389373666,"25":-0.07951845735431812,"26":0.04590965190278426,"27":-0.005660110176233462,"28":-0.196530945338235,"29":-0.024289960101484036,"30":0.019364978869055933,"31":-0.16646316133231054,"32":0.36142841713732327,"33":0.010910575150019648,"34":-0.17748844899133784,"35":0.01470065811029309,"36":0.02700483608343381,"37":0.26877587204564235,"38":0.0165707926844906,"39":-0.16870748915022182,"40":-0.10793077026413116,"41":0.21199628335496157,"42":-0.006581446498600133,"43":-0.21944588907179974,"44":-0.12726722704313534,"45":-0.16901704402965353,"46":0.18809501513689544,"47":0.03620596424614362,"48":-0.12651958585753847,"49":-0.12220793116859521,"50":0.13961718192829883,"51":0.017079736373559844,"52":-0.08249652653282774,"53":-0.2564076427516119,"54":0.34512981212344374,"55":-0.14073694939652018,"56":0.10690601543361815,"57":0.012018362865309643,"58":-0.030016806285750063,"59":-0.007477340574760256,"60":0.2891119792278345,"61":-0.17453974574908657,"62":0.06092221425554361,"63":0.14856523494322532,"64":0.23556712653579112,"65":0.1202916212051941,"66":-0.034502201246328926,"67":-0.06664693534236331,"68":-0.001729214979672896,"69":0.06551213748906266,"70":0.062329506151460115,"71":0.006377917739876925,"72":0.3796683729489427,"73":0.1383347568712624,"74":0.01852970440106244,"75":0.1280854217163556,"76":-0.08310111845320646,"77":-0.07703176391920297,"78":0.03479155077446197,"79":-0.28863887383184106,"80":0.2184452829001818,"81":0.20524277552251974,"82":-0.03878650975104886,"83":-0.022435548010091875,"84":-0.07568499947098577,"85":-0.2290542376889699,"86":-0.01383380889749807,"87":-0.058702494263264016,"88":0.22750485340945262,"89":0.49888184391458534,"90":0.15751122081017446,"91":-0.10708056834768433,"92":0.10605047581642758,"93":-0.2821145600818623,"94":-0.044878122864875684,"95":-0.13598770756191667,"96":0.27486299675377296,"97":0.48686956502530115,"98":0.20110733115084273,"99":-0.04972692375419332,"100":-0.11810242396151056,"101":-0.08480098424557826,"102":-0.024360255422927215,"103":-0.16927908237390296,"104":0.025666856887676566,"105":0.08373896044164317,"106":0.1014258433056629,"107":-0.2726526422040758,"108":0.06458270279916277,"109":0.1945372885049783,"110":-0.08188994104883308,"111":-0.17782990167016913,"112":0.07565587058870397,"113":-0.046002471194949324,"114":0.0024412699593268235,"115":-0.06594594498359,"116":-0.06926329227806544,"117":0.04590323683805141,"118":0.0598741742989963,"119":-0.2691669523857041,"120":-0.3922815862589643,"121":-0.2619321512338105,"122":-0.03807212366220681,"123":0.26976856146262734,"124":-0.31349170902594736,"125":-0.15305848144739057,"126":0.07488575548626783,"127":-0.009956287640337437,"128":-0.21707861443170182,"129":-0.24810745241497842,"130":0.1352857681375543,"131":-0.03297510326989459,"132":-0.10011371802047558,"133":-0.09347906303055814,"134":-0.03327146518063668,"135":-0.1267765151847576,"136":0.005921572961222823,"137":-0.2701745813936918,"138":0.10983264105399632,"139":-0.11876502818960652,"140":-0.12998871440280282,"141":0.2953341431833714,"142":-0.05354212380440059,"143":0.021815302400152094,"144":-0.09883026488963328,"145":-0.08946856699966242,"146":-0.12020816911677472,"147":-0.10277016070311878,"148":-0.0020241875984459683,"149":0.2057034953730008,"150":0.00527809009625024,"151":-0.13251058778960184,"152":0.07894912398669766,"153":0.07711530229681492,"154":0.07083404648912543,"155":-0.004962853920404018,"156":-0.1385361706011214,"157":0.11701662622186788,"158":0.00701413110816747,"159":-0.05298240117523256,"160":-0.23529486064676391,"161":-0.08804173187073741,"162":-0.006712015114645969,"163":0.14724370675801327,"164":0.009027516229404597,"165":-0.09517125678041301,"166":0.1661688262333147,"167":0.08927497618298046,"168":0.14251186725266435,"169":-0.03630443493845781,"170":-0.11620709947873967,"171":0.09133876514084402,"172":-0.16766773962857617,"173":-0.07810075697596272,"174":-0.10400627146667586,"175":-0.1732642316912408,"176":0.12270312944708488,"177":0.08610883297184911,"178":0.0008136099228637572,"179":0.04847451024412355,"180":0.12259154590774236,"181":0.1537218161927702,"182":-0.23250291700942485,"183":-0.03458351821190296,"184":0.023867408122580782,"185":-0.028208342061662225,"186":0.026838218537116015,"187":-0.21451590466368842,"188":-0.13553335371931394,"189":-0.17759477612473404,"190":0.033828258030873734,"191":-0.07407511679118753,"192":-0.07597603880955542,"193":0.024054134624076042,"194":-0.052937734899775594,"195":-0.07184151196477041,"196":-0.04853409640158247,"197":0.05629539127743443,"198":-0.03129125736019228,"199":-0.24542852725054856}},{"sx":5,"sy":5,"depth":8,"w":{"0":-0.039344064987945446,"1":-0.03943242228255963,"2":-0.08697743065289183,"3":0.04043690702435653,"4":0.14745085078918138,"5":-0.03944127228857162,"6":0.08837263005409411,"7":0.15520604741060323,"8":0.25074011912400834,"9":0.05862349864987424,"10":0.10172480780334478,"11":0.0031220688708219497,"12":0.2136857206212716,"13":-0.13658069255583788,"14":-0.04601956500357716,"15":0.19387509251195845,"16":0.0700955765904001,"17":0.1819013764964682,"18":0.1477941733372034,"19":-0.11059242662507729,"20":0.3831532857355585,"21":-0.2421077604168213,"22":0.24697454320110146,"23":-0.013439516338122239,"24":-0.2808183843455814,"25":-0.2884960621603169,"26":0.04053064664480026,"27":0.1979501307603988,"28":0.22951219971858272,"29":-0.09136911043816852,"30":0.48540341619761385,"31":0.14544341448771558,"32":0.050533966897635806,"33":-0.1339111755345987,"34":0.13686087338165717,"35":0.19760815882313976,"36":0.14435697654124735,"37":0.12749418280554964,"38":0.16971337290134048,"39":0.13585388794671283,"40":-0.14517015022598082,"41":-0.24137809051348819,"42":0.00870827127274408,"43":-0.25639595285768013,"44":0.07308755643827693,"45":-0.10005229896982702,"46":-0.13373825125928754,"47":0.14583281959684996,"48":-0.31999715858808353,"49":-0.14241056282949618,"50":-0.3081507880547124,"51":-0.13005104230771436,"52":-0.012679846396122027,"53":-0.024351161002060577,"54":0.14275865645104197,"55":-0.1847124360053495,"56":-0.10650755108656138,"57":0.005121986497886496,"58":-0.39700638885700446,"59":0.2052977560102009,"60":0.21107376137868278,"61":-0.20994438475916477,"62":-0.07705998348456292,"63":0.0874973490099738,"64":-0.04354767188599903,"65":0.1670291321788708,"66":-0.06506195544378798,"67":-0.06423613842132593,"68":0.1327890597942874,"69":-0.3374156389942174,"70":0.3681811320005757,"71":0.24401845682595713,"72":-0.0879700712816765,"73":-0.09237231696522671,"74":-0.08092124450673188,"75":0.29351712120542134,"76":0.0287994248277064,"77":-0.17598976080410275,"78":0.27011796813684275,"79":0.05431819625968719,"80":-0.0483181491710524,"81":0.17561849123846965,"82":-0.230137464045573,"83":0.0033262230672305927,"84":0.06854004929421685,"85":-0.0944308566105058,"86":-0.04860913364742898,"87":-0.15901983765539277,"88":0.11223948933415495,"89":0.24845570975713072,"90":-0.17852072844025416,"91":-0.12111506063092897,"92":-0.15107639838485715,"93":-0.10395301316315841,"94":-0.15005088165586172,"95":0.05086580313093528,"96":0.08115907361146328,"97":0.28697303011493785,"98":-0.07061329555710183,"99":-0.21396627455511893,"100":0.018023903225146687,"101":-0.04865174000663171,"102":-0.12816641297485135,"103":-0.1432708395786008,"104":-0.3098019044085743,"105":-0.05915398410741232,"106":-0.10421314728341614,"107":-0.3239370342124169,"108":0.2943081610397215,"109":0.01337994704826292,"110":-0.1219895265866403,"111":0.14985934561446587,"112":-0.2235370022688272,"113":-0.12264299526925085,"114":-0.10743212643160353,"115":-0.012259811410398462,"116":-0.0693166230963991,"117":-0.16109548691178,"118":0.15225833783009435,"119":0.10607897532383884,"120":0.07655712152350577,"121":0.07245034691259308,"122":0.062149331779482744,"123":0.07634327403681271,"124":-0.057664595316594645,"125":0.5570662318888278,"126":0.1375540818793845,"127":-0.00028649675941137885,"128":0.04025071733896936,"129":-0.10111377042603581,"130":0.021079947684729178,"131":-0.12285055197376687,"132":-0.024006241104614592,"133":0.24259037159250763,"134":-0.059666972404581624,"135":0.013082963435052768,"136":-0.18999916391157726,"137":0.0035297576969430377,"138":-0.02403320982193103,"139":-0.3091705573571955,"140":0.14830451719357854,"141":0.31304514838727066,"142":-0.11076968924790827,"143":-0.35874999002713853,"144":-0.1128758836079424,"145":-0.0948888933387914,"146":-0.3714607104513021,"147":-0.3964046713123832,"148":0.36409155374341506,"149":-0.1418865261292897,"150":-0.0917790987753438,"151":-0.006217253398506043,"152":0.1020115746033917,"153":0.04720996733093651,"154":-0.22669046453803582,"155":-0.14720933984601237,"156":0.10854434700434785,"157":-0.13465961656875233,"158":0.0030875045771516325,"159":0.29836595014674516,"160":0.27772517176177025,"161":-0.08014225470511345,"162":-0.04312965921752533,"163":-0.07086450668190987,"164":0.37604302742046514,"165":0.49916217170353017,"166":-0.1235972651120088,"167":0.012398392247291768,"168":0.2258785286162608,"169":0.11742234952350022,"170":-0.03707077539233254,"171":-0.009202505257348404,"172":0.008012921379549292,"173":0.46456770556626314,"174":0.02129061338004286,"175":-0.07198761967558558,"176":-0.07041765419254886,"177":-0.23095821297827426,"178":-0.168938782615379,"179":-0.07551843096101127,"180":-0.07537306967238976,"181":0.047229297640379884,"182":-0.2665297234605632,"183":-0.29617481728985046,"184":-0.24464007703603255,"185":-0.2626779711211615,"186":-0.13968049415750375,"187":0.20117701333847576,"188":0.14166392576773396,"189":-0.3023936879267064,"190":0.14585478767991156,"191":0.01495898071719248,"192":-0.2019835506955097,"193":-0.0023593114818709062,"194":-0.020480721140251002,"195":0.002745384902747137,"196":0.15431297978188263,"197":-0.294169964861695,"198":-0.04359415635788167,"199":0.08921982488256591}},{"sx":5,"sy":5,"depth":8,"w":{"0":-0.011267150538319925,"1":-0.01209938210515764,"2":0.15169737298578737,"3":0.12044097510264691,"4":0.0670951592610432,"5":0.22357275519129843,"6":-0.03300834183585742,"7":0.09413726948937873,"8":0.06699990556206849,"9":0.04255345233785664,"10":0.20421443857913485,"11":-0.1597235002254612,"12":-0.09283986028740386,"13":-0.22703767034673636,"14":-0.0776104868584079,"15":-0.10851068359193868,"16":0.045961248334428655,"17":-0.10778800128532735,"18":0.11118884813557565,"19":-0.10274670318888059,"20":0.00639364991601716,"21":0.07456392611136807,"22":-0.015236003824777394,"23":0.06533326424956894,"24":-0.1686494118115908,"25":-0.04446754832477653,"26":-0.28297969024757264,"27":-0.2403044334775614,"28":0.07833148581464447,"29":0.08065762951284973,"30":-0.21301994569724514,"31":0.06618486873885761,"32":0.26950488769630165,"33":-0.06800003314330211,"34":-0.09523368420681806,"35":-0.22111214563486747,"36":-0.1663881024440555,"37":0.1086067242779776,"38":-0.0005999354160443635,"39":0.1928861074167278,"40":-0.049054871597780964,"41":-0.10774192751856676,"42":-0.2821703628643723,"43":0.1575634544777977,"44":-0.18568637045242373,"45":-0.2515850667489237,"46":0.198750655871258,"47":-0.03128512805929646,"48":-0.0439587181130875,"49":-0.053362950599104,"50":0.13699231768042064,"51":0.012507484600940758,"52":-0.21686510508152604,"53":-0.06484638778615154,"54":0.11397470121073972,"55":-0.05401391371462744,"56":-0.11529960915919493,"57":-0.023898503152198564,"58":0.4381599896053749,"59":0.1445036074375059,"60":0.004493785577491968,"61":-0.057524965429645615,"62":0.023751666601484547,"63":-0.1315755090448542,"64":0.23185429782003397,"65":-0.06890944060312768,"66":0.007645305230102999,"67":-0.0624770948127014,"68":0.1206900631724901,"69":0.160364939664832,"70":0.052029459960509464,"71":0.03503047508053243,"72":0.2543401923613655,"73":0.022427345936142644,"74":0.04217105734929337,"75":-0.19444013654640577,"76":-0.11793606903310949,"77":0.23969876012167718,"78":0.0686230434513789,"79":0.03147424038376266,"80":-0.19088959656772012,"81":-0.04784969457712658,"82":0.23457112061344998,"83":0.09417480373308997,"84":-0.24705019907689935,"85":-0.1641502042630777,"86":0.31074529045707755,"87":0.02151946834877782,"88":-0.10236625889123646,"89":-0.02188914464740488,"90":0.29533030933203713,"91":-0.056090705967860414,"92":-0.049817230650434106,"93":-0.3175586571466148,"94":0.2125560993184479,"95":-0.09179071159823923,"96":0.05726377767636743,"97":0.040304407622052965,"98":0.2225455052128506,"99":0.04472123513974791,"100":-0.01316766145958345,"101":-0.03263006532429575,"102":-0.042634104723444956,"103":-0.11540813628530769,"104":0.29038355930695886,"105":0.12903362739823288,"106":-0.04162636566372893,"107":0.046156103036694006,"108":0.059609612240910735,"109":0.15460233099200035,"110":0.19015479034428914,"111":0.05115144513353423,"112":0.022860008718278205,"113":0.13211172377785807,"114":-0.010472493546341307,"115":0.14808159964612258,"116":-0.1009769228488994,"117":0.04722977260664784,"118":-0.058349394004833834,"119":-0.24214562666600678,"120":-0.014484145648053602,"121":0.3586940873871749,"122":-0.23977403801968228,"123":-0.4981732351613474,"124":-0.20941510359331542,"125":-0.31738291585486805,"126":-0.08635940821106537,"127":0.15464022516501383,"128":0.1514622739677936,"129":0.266930701247137,"130":0.05291643535675184,"131":-0.40312750847767437,"132":0.10116431066041526,"133":-0.10078434723373843,"134":0.06659393505566781,"135":-0.012732465197590588,"136":0.2872430792599885,"137":0.2043858060721503,"138":0.0719403400965674,"139":0.01370740524100444,"140":-0.2800401701304874,"141":-0.19283506809711207,"142":0.09071269694730422,"143":-0.11330259309715568,"144":0.00043182396043220275,"145":0.0998128131448744,"146":0.07271446313062038,"147":0.15656639819716303,"148":-0.13559000887280376,"149":-0.0427524082584275,"150":-0.07080233770651213,"151":0.05465759901616612,"152":-0.24297633307209607,"153":-0.15253776133369062,"154":0.07448384380534046,"155":0.02215196770973847,"156":-0.19244193538296542,"157":-0.22367494990710401,"158":-0.05554246264458216,"159":-0.055552247313678124,"160":-0.2022396511253862,"161":0.0718948703164848,"162":0.12192759894459011,"163":0.07311401555114083,"164":-0.15791315628171176,"165":0.24298138081283782,"166":0.18696167598597668,"167":-0.1196810290309568,"168":-0.27694739709459104,"169":-0.19684907856125491,"170":0.10695964992111254,"171":0.18566634418659336,"172":0.09773475539992083,"173":0.25161167760018815,"174":-0.27013716608601457,"175":0.03508209754938806,"176":-0.21044148265641713,"177":-0.22842286480154095,"178":0.22542363364326673,"179":0.13793830561743975,"180":-0.28349745773734936,"181":0.3243934199677419,"182":-0.03155891478516589,"183":0.31921951029983037,"184":-0.1514541187304677,"185":-0.39702785897583664,"186":0.19150351601238105,"187":0.39149301083057725,"188":-0.13021754902945074,"189":0.15766537127061553,"190":-0.13707675781831852,"191":0.020582080127288533,"192":-0.2285367033737084,"193":-0.18151014957675463,"194":0.025942836202340905,"195":0.1639270777096082,"196":-0.16150682545550157,"197":0.011399057151677236,"198":-0.2809013910179939,"199":0.118342737826218}},{"sx":5,"sy":5,"depth":8,"w":{"0":0.1463654851244929,"1":0.059520837330181396,"2":-0.08300090411499114,"3":-0.19346989763059746,"4":0.028189993903495227,"5":-0.10325730268390099,"6":-0.15211974569132863,"7":0.1720068001318397,"8":0.29170804776529907,"9":-0.021915804653933047,"10":-0.06162785390708037,"11":-0.2950109493783157,"12":-0.00023957571925365133,"13":-0.009614424811426927,"14":0.12998488868442928,"15":0.10783475763202831,"16":0.24396158882538632,"17":-0.016209227067313925,"18":-0.006069679698720138,"19":-0.10369654269621828,"20":-0.052813847482892605,"21":-0.045076979859829225,"22":-0.06103563427300138,"23":-0.05200974065893537,"24":0.02140005639241655,"25":0.09754544835191262,"26":-0.024974895942785055,"27":-0.11167004087756177,"28":0.1806012877023793,"29":-0.025070233613049005,"30":-0.1520262399392878,"31":-0.07444933748571993,"32":0.09860572172661794,"33":0.04935357354616795,"34":-0.060541967261455734,"35":-0.19009981644090793,"36":0.10227484869814124,"37":-0.0022997368832137406,"38":-0.12673378497883994,"39":-0.02973945551229796,"40":0.24426643674027865,"41":0.28298302618138654,"42":0.06938539584928141,"43":-0.15642794515253422,"44":0.05222225363331224,"45":-0.10586886496147863,"46":-0.1087087866870995,"47":0.07799626637463287,"48":0.21130778782380688,"49":0.12822317874068942,"50":0.05621477006868901,"51":-0.0991979908657969,"52":-0.14945952598160195,"53":-0.06580112423010014,"54":-0.045434854349961744,"55":-0.01756693970191442,"56":-0.003257566292188435,"57":0.040720858236472396,"58":-0.033081406351508864,"59":-0.03907612436745648,"60":-0.005699723287559423,"61":0.0400162304034944,"62":-0.11325502840733907,"63":-0.11197020717988755,"64":-0.05458436559800906,"65":-0.009108907108392501,"66":-0.08432319942758514,"67":-0.08469346898492815,"68":0.014239908487393938,"69":0.06736835814700882,"70":-0.072572315464959,"71":-0.10263127483896994,"72":0.11494969000390255,"73":-0.045572717435756645,"74":-0.09829220721494936,"75":-0.13902741737782862,"76":-0.1768238400064256,"77":-0.20125415970011892,"78":-0.12326419099093797,"79":-0.16988361642172192,"80":0.15917340941017027,"81":0.10366435540227671,"82":-0.07020848798092412,"83":-0.10247378700507964,"84":0.1387173565042799,"85":-0.020993994924455507,"86":-0.04307872594982816,"87":0.0016659548008520748,"88":0.08873634936018512,"89":-0.03026976791457221,"90":-0.04585401046446021,"91":0.03116913180579714,"92":-0.04690434309818047,"93":0.02735028973373203,"94":-0.040426080542008226,"95":-0.12965321060801868,"96":0.02960599367342037,"97":0.0757393152531177,"98":0.04631546655174758,"99":-0.04725387051225829,"100":0.010143110042506042,"101":0.0513202065689896,"102":-0.1015737440081753,"103":-0.14942286065259958,"104":0.1015569462725099,"105":0.02571788720704148,"106":0.03156750352473171,"107":0.10712890781575235,"108":-0.026751663457220153,"109":0.25646592692802583,"110":-0.020982633916068773,"111":-0.0802617938205433,"112":-0.08892749359641748,"113":-0.01970254567781406,"114":0.10024495468040742,"115":0.3621886508089349,"116":-0.13538250769093468,"117":0.46909783913667474,"118":0.15374717610712108,"119":-0.04362740072398994,"120":-0.06841385868362312,"121":-0.20978780966713004,"122":0.009998089615699335,"123":-0.08443172222532842,"124":0.04396220743640882,"125":0.09704956712610827,"126":0.10359720518774994,"127":0.12563268730593102,"128":-0.07952207804297183,"129":-0.16263429428458562,"130":-0.009102280402527262,"131":-0.15041200990715056,"132":-0.06804731597926675,"133":-0.048406524258692185,"134":-0.10212833091170596,"135":-0.14593466013146278,"136":-0.07641590212636963,"137":-0.08126228340807944,"138":-0.02404431388144901,"139":-0.0793386554934542,"140":-0.0856856377089296,"141":0.26288796455895336,"142":0.004077408636257665,"143":0.00650700664467839,"144":-0.03180780656204387,"145":-0.05359365389857255,"146":-0.05635192646259337,"147":0.040248444886630465,"148":-0.058103789292470266,"149":0.10766140477055261,"150":0.09661898927130681,"151":-0.10061032457407405,"152":0.14658655458207576,"153":-0.033514056050653995,"154":0.09313870749299576,"155":0.15206550245245265,"156":0.27736420984870136,"157":0.15723568932379953,"158":0.14993570042318075,"159":-0.1945707227583619,"160":-0.21392426798960487,"161":-0.23162978762119268,"162":-0.15032674729622084,"163":0.0910478241779927,"164":0.07638331471445987,"165":0.05310172859252519,"166":0.2348888304784551,"167":0.2128076083756599,"168":-0.10700659309714322,"169":-0.19435164746593048,"170":-0.17320002673671758,"171":0.14933438205258504,"172":-0.0619241944644038,"173":0.059606031467890216,"174":0.015651900763230926,"175":-0.0989397917733384,"176":-0.17790843085829788,"177":-0.17739971403030597,"178":0.05987818691130886,"179":0.08044452225264823,"180":0.026804977667737966,"181":-0.023059821541621485,"182":-0.22754409561958416,"183":-0.07542919750591358,"184":-0.09871128976513775,"185":-0.15401343659108732,"186":-0.042844193138718685,"187":0.01588934222464562,"188":-0.12540000597323353,"189":0.015616069860591815,"190":-0.0782974191111779,"191":-0.0030610619000394743,"192":-0.03369489943847497,"193":-0.06149187841441322,"194":-0.14079914544102196,"195":0.03332002668495184,"196":0.1981615840311447,"197":-0.18568302429532055,"198":0.033541087467020135,"199":-0.061154667866365635}},{"sx":5,"sy":5,"depth":8,"w":{"0":-0.089130480351817,"1":0.15457552531389637,"2":-0.08324786671639593,"3":-0.14244728923314529,"4":-0.10660327010598832,"5":0.015850347462639993,"6":-0.1311985387056164,"7":0.10463650844305532,"8":0.1833424803344781,"9":-0.06714849333611231,"10":0.01467078229486161,"11":0.11118117859531375,"12":-0.11501005877185676,"13":-0.007211149267225491,"14":-0.03586276406602172,"15":0.032877873110991974,"16":-0.16154053504060345,"17":0.009634194971148516,"18":0.07589863371393313,"19":0.07461824130873058,"20":0.0036749405317029237,"21":0.048038833024192595,"22":-0.2125731496698764,"23":0.03367775379279266,"24":0.049497247129585496,"25":-0.18691868096298364,"26":0.028378244507056127,"27":-0.14658158627044252,"28":0.14034179255193435,"29":0.21168936222752055,"30":-0.09794335526007077,"31":-0.07988614895346446,"32":0.22718177752495936,"33":0.008486090083754052,"34":-0.0016313678247128404,"35":0.036809273869564146,"36":0.012806631804131238,"37":0.10620114678716482,"38":-0.08853190803081148,"39":-0.008656124497751235,"40":0.08186275264383894,"41":-0.06058165847555909,"42":-0.06575406168777974,"43":-0.3714167860743568,"44":-0.051419462693415935,"45":0.09013213261463755,"46":-0.0002291595796836708,"47":0.11072936837592434,"48":0.1623020119412281,"49":0.04417622382432606,"50":-0.002602213044289286,"51":0.006791773622090895,"52":0.04080552648362749,"53":0.20077709533203647,"54":0.01139516570912973,"55":0.06424030111456619,"56":-0.03755280925918205,"57":-0.10473798783838824,"58":0.0484245248848364,"59":0.030053072156634702,"60":0.11526224129117416,"61":0.17552786154762484,"62":0.08062539662406915,"63":0.03348744073554546,"64":0.26209528662678266,"65":-0.005786049526194945,"66":-0.11017404443950245,"67":-0.1233841395160326,"68":-0.007515778488995916,"69":-0.09660912108965705,"70":0.02554217200979188,"71":0.05263010135072184,"72":0.09268162731872703,"73":0.21256641243389207,"74":0.015011866172891027,"75":0.026781561188364313,"76":-0.15943746187758814,"77":-0.06353146267942343,"78":-0.14049086835985222,"79":-0.04002160492555268,"80":-0.008664684588476598,"81":-0.10948563879902752,"82":0.06726199169927752,"83":-0.14804229146945505,"84":-0.033307696074031314,"85":0.14199852793854298,"86":0.0023010670746288634,"87":-0.08545593290253972,"88":0.12044220304141469,"89":0.11212268244838584,"90":-0.05698742494746392,"91":-0.07767783906134622,"92":0.09194030146808323,"93":-0.04338304847510736,"94":-0.21278311556665758,"95":-0.059386826029500246,"96":-0.05563258019433718,"97":0.2564084155077561,"98":-0.06227635433867289,"99":-0.19335699136991283,"100":-0.1328692175089586,"101":-0.18391669708172562,"102":-0.06774159302286345,"103":0.03978590849630419,"104":0.11772483801841746,"105":0.00213795347998983,"106":0.07894562487433775,"107":-0.23401958796031894,"108":-0.055099481517716,"109":-0.1448581095300891,"110":0.14211514392929386,"111":0.04099545686827327,"112":0.0018397850469545477,"113":0.06153311078610575,"114":-0.047575334419368426,"115":0.06832501311173342,"116":-0.10157220728266841,"117":0.03644370573934869,"118":0.012406142007592205,"119":-0.17089164893820374,"120":-0.08771490110885323,"121":-0.07632112387729087,"122":-0.054783329105402526,"123":0.2580520152033606,"124":-0.026183707686497963,"125":-0.015435027738028026,"126":-0.021318341673486757,"127":0.05861011786139732,"128":0.004101323018344031,"129":0.2968055235180004,"130":0.08941933435125018,"131":0.30196411213860985,"132":-0.021696623980109343,"133":-0.08948523235155253,"134":0.055594830370489,"135":-0.1991665439899415,"136":0.19486033049466925,"137":0.2860571862591941,"138":0.2610122822145991,"139":0.15100057228933628,"140":-0.3095690176294284,"141":-0.10792413126039078,"142":-0.14377142321752004,"143":-0.063938929961658,"144":-0.07618612199540367,"145":0.27758228107462124,"146":0.19069934245255588,"147":-0.018545068606788624,"148":-0.14012842672887177,"149":-0.130801773107702,"150":-0.11110457713521353,"151":-0.07048526995668875,"152":0.037715476063767815,"153":0.10376123584874358,"154":0.008081073770500059,"155":-0.1488269804836873,"156":-0.08024392001499953,"157":-0.06627322724663763,"158":-0.15451365224528948,"159":-0.20099580985054405,"160":-0.03624384791530152,"161":-0.09094875246184204,"162":0.19527600732296202,"163":0.2472651487683097,"164":-0.21886641320201689,"165":-0.17375042743353966,"166":0.19640152544780842,"167":-0.06141840839560516,"168":-0.19881963755440693,"169":-0.14523796626159846,"170":0.060028080507626674,"171":0.37480000855084333,"172":-0.07682984969682007,"173":-0.07152083188017172,"174":0.2778423665611664,"175":0.10321939346075852,"176":-0.22849483117013505,"177":-0.11641125594858451,"178":0.053625713787239945,"179":0.16474753026491573,"180":-0.11073341302843327,"181":-0.10829430810800789,"182":0.06293091717958268,"183":-0.14071164841742437,"184":-0.18248270045014017,"185":-0.15327569690486978,"186":0.011670252221713117,"187":0.11025390000095388,"188":-0.13278444872343484,"189":-0.039741082570181815,"190":-0.14888316270601845,"191":-0.11160279794372134,"192":-0.10057159438991237,"193":-0.14523157196827358,"194":-0.11462031537880031,"195":-0.0617300439598177,"196":-0.15072371416410651,"197":0.007191340857083542,"198":-0.09899467509814483,"199":-0.09452442838757127}},{"sx":5,"sy":5,"depth":8,"w":{"0":-0.33892090185070206,"1":-0.17700641010987805,"2":0.006900599419784896,"3":-0.00337140155531005,"4":0.30082754342262014,"5":-0.11953227937997411,"6":-0.0787896213553597,"7":-0.13247528535523115,"8":0.21918274061027107,"9":0.1578457651823322,"10":0.0748865052205164,"11":0.028322129930973643,"12":0.25711788176244854,"13":0.21134548252777252,"14":0.2672067781885369,"15":0.1255224473145691,"16":0.28743595862626026,"17":0.17047909736198377,"18":-0.05158828303384663,"19":0.12470384878434786,"20":-0.059293775369288204,"21":0.08249567409734399,"22":0.09343979354990783,"23":0.09131682504047256,"24":-0.3875847960127113,"25":-0.07965524553740555,"26":-0.08038509735183186,"27":-0.16475169858634658,"28":0.09935775581862809,"29":-0.05428574258610638,"30":0.15953803679103218,"31":-0.06628276410655515,"32":-0.1604511476059275,"33":-0.22922977898365376,"34":-0.11025798402498738,"35":-0.045624542319100424,"36":0.06002637333112411,"37":-0.010117671618310592,"38":0.09495033171735937,"39":0.1578467428895882,"40":0.15434424150340836,"41":-0.07854454152154544,"42":-0.18000631124467484,"43":0.06632522159171694,"44":0.11147581947638027,"45":-0.186155073832972,"46":0.14127758109140662,"47":-0.19927810725897535,"48":0.20095273167654512,"49":0.05153157503874711,"50":-0.07532198402713265,"51":-0.1370260054282,"52":0.08725689125701575,"53":-0.06875980186842154,"54":-0.15032628563751493,"55":-0.0633237519710497,"56":0.0352779469076756,"57":0.05726860197000265,"58":0.08887142140351702,"59":-0.20344181615189585,"60":-0.05266080608712137,"61":-0.24771972164009862,"62":-0.17227045642288655,"63":-0.02885755290221126,"64":-0.35533078060483125,"65":-0.22084878044579515,"66":-0.05078273383862772,"67":-0.17326307824919754,"68":-0.003088325252763463,"69":-0.28412795757357057,"70":-0.23053923642393392,"71":0.021151117256293043,"72":-0.014818492582062434,"73":-0.2320289438193718,"74":-0.1392887897476353,"75":0.08035231719321198,"76":0.18141523078859204,"77":-0.3283746011304319,"78":0.022252997483188413,"79":0.22074088079123638,"80":0.07756567396712538,"81":0.2826904053940736,"82":0.1235237013204689,"83":0.13613012418474144,"84":-0.14672646503388323,"85":0.1161257928333827,"86":-0.04867137176325201,"87":-0.06566364479059451,"88":0.009872362998884608,"89":0.059064822430276866,"90":0.366487053963352,"91":0.17158210800970447,"92":-0.23361038877209023,"93":0.15467084915580337,"94":-0.036596346111906604,"95":0.00023704660004602224,"96":-0.22323735765672148,"97":-0.24825933879197185,"98":0.2875993911995206,"99":0.05687702119062923,"100":0.03426717821248617,"101":0.018178955811340648,"102":-0.019426066993060164,"103":0.21594383504431255,"104":0.06155764988217705,"105":-0.27500959585072493,"106":-0.0016516883488161653,"107":0.08883956667010821,"108":0.05102656899122886,"109":-0.21664509885351918,"110":-0.1757109006679388,"111":0.1763286964100236,"112":0.1288731842164328,"113":-0.03812094954057491,"114":-0.04431021704685508,"115":0.13194828751261664,"116":0.22065660304623175,"117":-0.13569844098436415,"118":0.16112805432016078,"119":0.2720849827421943,"120":-0.08052090332862936,"121":0.16049372300999026,"122":0.029176545409207204,"123":-0.017788871273786477,"124":0.018740877630152565,"125":0.5804097171274407,"126":-0.0038820684910003352,"127":-0.044756590850181834,"128":-0.23726480416904092,"129":-0.22377284736263114,"130":-0.0947676475170568,"131":-0.05415540874736349,"132":0.020354524688247583,"133":0.4248697671366732,"134":-0.2501580358556252,"135":0.11542809401065435,"136":-0.12022104531022287,"137":-0.4338722017841658,"138":-0.04221457993064715,"139":-0.24259866327961654,"140":0.05918996570070616,"141":0.21601298943302177,"142":-0.29115000045982087,"143":0.23740318890447157,"144":0.4961109452618854,"145":0.0033738618685787715,"146":-0.26522864917780475,"147":-0.23552420182339098,"148":-0.2326769745136241,"149":0.0001373388682390385,"150":-0.16011266020180606,"151":0.15582387866540148,"152":0.09359498068048297,"153":0.2646071994814727,"154":-0.053882389146631335,"155":-0.29712008185289596,"156":0.08503665452628346,"157":-0.1669278065247203,"158":0.006518370629431242,"159":0.1386866227471756,"160":-0.18002184745346714,"161":-0.188711215748092,"162":0.0293058422098392,"163":-0.10035196248808809,"164":0.22610363139995315,"165":0.20315191943537175,"166":-0.15826475118355796,"167":0.11818122697316659,"168":0.15596277295740363,"169":-0.21485147848371575,"170":-0.1543668725166676,"171":-0.08938049499768502,"172":0.09996300350665265,"173":0.1734097439223503,"174":-0.12273525662784275,"175":0.11621345047812316,"176":0.28405168319162694,"177":-0.203679703699363,"178":-0.232147829192088,"179":-0.23197786078952862,"180":0.032155764976837455,"181":-0.14703443520711587,"182":0.007463681750673493,"183":0.25685305033937483,"184":0.2132606242678729,"185":0.10851575586757416,"186":-0.1617887577422463,"187":-0.03143357652129904,"188":-0.11142055901165165,"189":-0.054896122103216975,"190":0.04534012575864813,"191":0.027951389298423546,"192":0.14427391500198034,"193":0.0217022010811953,"194":-0.316464818037565,"195":0.14343432500759312,"196":-0.03392820792915422,"197":-0.28952310736949377,"198":0.02532851552644567,"199":-0.1149007032191027}},{"sx":5,"sy":5,"depth":8,"w":{"0":-0.1705479081625822,"1":-0.08881217267487364,"2":-0.13346204664228964,"3":0.49856941243787256,"4":-0.03974139325500493,"5":-0.03381132815740968,"6":0.4082965311076653,"7":-0.03867485699699619,"8":-0.09224704491148689,"9":-0.04554399245931991,"10":-0.010432579735262137,"11":0.47266943661402233,"12":0.02086931537506031,"13":-0.015649088900255986,"14":0.0718053686158176,"15":0.039844003168902596,"16":-0.07045599417941949,"17":0.04786483755945985,"18":0.3431036508804249,"19":-0.05730293144160929,"20":-0.10659800858583234,"21":-0.16236961368243422,"22":0.037074629234304254,"23":0.1574828441172346,"24":-0.30165271337404137,"25":-0.1373010149550756,"26":0.00041612026344489754,"27":-0.00863634417371058,"28":0.06284131771466397,"29":-0.09204762211694356,"30":-0.030049102946040848,"31":0.09100658303884117,"32":-0.2387520664252948,"33":-0.2628471860828568,"34":0.015892187540124385,"35":0.0755952549774277,"36":0.03364478525183257,"37":0.07665329009015905,"38":0.027436442528621898,"39":0.15517773851079325,"40":0.048139150005498677,"41":0.37701001604019735,"42":0.007734688819663719,"43":-0.07022680245376924,"44":0.09514899154227072,"45":-0.3712152555465674,"46":0.02302206577388297,"47":-0.046900898294091935,"48":-0.3333118116202472,"49":-0.09700108433400716,"50":0.020764143005609127,"51":0.06445142966935424,"52":-0.06319195911719416,"53":-0.25250209383639083,"54":0.4967598174991781,"55":-0.1673909456643667,"56":-0.22408018360461568,"57":-0.244388687899728,"58":-0.18499119272190806,"59":0.26353047709659266,"60":-0.06389495845926367,"61":-0.30362519396552073,"62":-0.02591182328959897,"63":-0.023671409766517843,"64":0.0016689328555170727,"65":0.07601715369601188,"66":-0.1465801624182127,"67":-0.05566280410991808,"68":-0.08466558214765295,"69":-0.11372238079902974,"70":-0.12788520513726737,"71":-0.01350559378348942,"72":0.29000083644604374,"73":0.334126994011993,"74":-0.09738708258533062,"75":-0.22669039907515465,"76":0.00951678491080415,"77":-0.05533738005533399,"78":-0.09938130647415536,"79":0.149435666652025,"80":0.07281940471396242,"81":0.20079549938818725,"82":-0.04777533012245417,"83":-0.23026838203552594,"84":0.049254300932220836,"85":-0.004617487075650451,"86":-0.09474655321700665,"87":-0.0503890459024594,"88":0.05593914939112232,"89":0.10532095037786521,"90":0.07700419489441533,"91":-0.16771825692685702,"92":0.17659802283113385,"93":-0.28256937506497276,"94":0.24621345915619056,"95":0.0646217479352243,"96":-0.16579322921214731,"97":-0.06984292926845286,"98":-0.14415525204363022,"99":0.18893445727184488,"100":0.0681404596756529,"101":0.030446150956704606,"102":0.1987618854595641,"103":-0.009552389621079058,"104":-0.023684883200022985,"105":-0.10877448272432577,"106":-0.1627144112134244,"107":-0.07382942738030053,"108":-0.17926244983439135,"109":-0.13404904440644186,"110":-0.13933383069696165,"111":-0.18004664306801957,"112":0.09983436717711047,"113":0.03946906085879443,"114":0.02672835094312805,"115":-0.07603852348573976,"116":0.06672181225064108,"117":0.12297352527802874,"118":-0.07358662274993286,"119":-0.048788971893144954,"120":-0.03878893036196281,"121":-0.18666690787740364,"122":0.09874306427816217,"123":-0.03820677773356879,"124":0.001830703312467925,"125":0.2712524145089093,"126":-0.28889269179813876,"127":-0.07002268465215518,"128":0.18941461152895536,"129":-0.12160305893690021,"130":-0.0051076348061477594,"131":-0.19974348011313284,"132":0.17035990083602032,"133":0.1364657924695679,"134":-0.30470017403557387,"135":0.35246117446394,"136":0.1885873222162816,"137":-0.09198511283884163,"138":-0.19558375835706768,"139":-0.1765694672127808,"140":0.1940296170964231,"141":0.1668410681220375,"142":0.012564718732542246,"143":0.018861465059929455,"144":-0.1275673049583688,"145":-0.09806792298925351,"146":-0.19520884082828766,"147":-0.07939902413239819,"148":-0.1384167384138283,"149":-0.024799904739053538,"150":-0.19048054742333706,"151":-0.20589114237999726,"152":-0.14678023128685608,"153":-0.05248159570986854,"154":-0.22899468991579958,"155":-0.25687805239560874,"156":0.06792856592049142,"157":0.012614967450557717,"158":-0.1914386054287861,"159":-0.09310513321849001,"160":0.33012965544489464,"161":0.16692789803886962,"162":0.013258580925236583,"163":-0.10212081322379449,"164":-0.03093493924807684,"165":0.2785917330616627,"166":0.00024396759183801815,"167":0.036123414678349376,"168":0.20152367931337672,"169":0.06152378928538347,"170":-0.07642039289845166,"171":-0.1246800184608239,"172":0.202395867358516,"173":0.26530548713571556,"174":-0.04024212752535653,"175":0.10872768923421298,"176":0.0908509059827515,"177":-0.06964979192972007,"178":-0.011912321588831716,"179":-0.15857926301353212,"180":0.07751039602934685,"181":0.0752160235220686,"182":-0.014227950226863897,"183":0.07216095562862826,"184":0.10148695530280846,"185":-0.1034007174287091,"186":-0.09478549504503538,"187":-0.04797460642749056,"188":-0.12315869989413368,"189":-0.07936426824044705,"190":-0.15601755703920264,"191":-0.23367110104085712,"192":-0.03799587429446996,"193":0.13013566137633378,"194":-0.06247251449915294,"195":-0.0319536769554632,"196":0.048701405614583505,"197":0.05895973056038399,"198":0.011493360147829344,"199":-0.0017141010032615735}}],"biases":{"sx":1,"sy":1,"depth":16,"w":{"0":-0.4146824427269853,"1":-0.12798010370189053,"2":0.03246839025149866,"3":-0.11318133847197122,"4":0.16963016241892123,"5":-0.0733922966126393,"6":-0.35770132063711996,"7":-0.08139928176592931,"8":-0.07529835678100812,"9":-0.290664025717664,"10":-0.24502808667671874,"11":-0.28361972458259227,"12":-0.27101856501457633,"13":-0.156420624194955,"14":-0.2423633225405795,"15":-0.0996065230746838}}},{"out_depth":16,"out_sx":14,"out_sy":14,"layer_type":"relu"},{"sx":3,"sy":3,"stride":3,"in_depth":16,"out_depth":16,"out_sx":4,"out_sy":4,"layer_type":"pool","pad":0},{"out_depth":10,"out_sx":1,"out_sy":1,"layer_type":"fc","num_inputs":256,"l1_decay_mul":0,"l2_decay_mul":1,"filters":[{"sx":1,"sy":1,"depth":256,"w":{"0":-0.043719655776617676,"1":-0.02338333902835551,"2":0.0062094805103684635,"3":-0.005740047433484708,"4":-0.016337010032648713,"5":-0.03373176753230802,"6":-0.040930782745812494,"7":-0.0066099234687559405,"8":-0.2070300774203376,"9":-0.009591273622961773,"10":-0.015931623368100438,"11":0.019526497265127417,"12":-0.08851381356374298,"13":-0.008444461433223648,"14":-0.010006454287229634,"15":-0.005552995077736935,"16":-0.09772502286404838,"17":-0.2795457222702287,"18":-0.25559589178771025,"19":-0.26443570629945495,"20":-0.08137538736592964,"21":-0.26205508842052494,"22":-0.1310943591007293,"23":-0.022968683859928268,"24":-0.19870830461488104,"25":-0.030506423356408977,"26":-0.03426549441944386,"27":-0.11180935695428483,"28":-0.2516270049456412,"29":-0.009358975589563218,"30":-0.05946924122622469,"31":-0.08651626555843607,"32":-0.06423833387835835,"33":-0.2077818190938995,"34":-0.34143483494151594,"35":-0.25668257745704576,"36":-0.06167115123987504,"37":-0.3051885274463941,"38":-0.14938219277522236,"39":-0.12222323707430147,"40":-0.3455669355038966,"41":0.017439355347199863,"42":-0.05997274203753167,"43":-0.2591898020787895,"44":-0.07103672342597406,"45":-0.07401487608804372,"46":-0.3478387807651494,"47":-0.12875168889364072,"48":-0.042265320562523884,"49":-0.09502541630290207,"50":-0.2533110671622486,"51":-0.10445764953479457,"52":-0.011729326736337878,"53":-0.1440019981859285,"54":-0.14244214865371935,"55":-0.26110137729124266,"56":-0.2766883282967183,"57":-0.14964653353708882,"58":-0.18232491445973878,"59":-0.17584716687502064,"60":-0.07716944224259625,"61":-0.1755984946776797,"62":-0.09157942369218056,"63":-0.14930209929259858,"64":-0.18935732571424993,"65":0.012636439747631362,"66":-0.196370418444161,"67":-0.0013181225112396376,"68":0.0017660185547060524,"69":-0.16237586747414048,"70":-0.12762614254595664,"71":-0.025517838337485273,"72":-0.09780538293498958,"73":-0.055763587981917766,"74":-0.05439422989743671,"75":-0.00894657412381324,"76":-0.08559347846748845,"77":-0.02436646405814544,"78":0.09282923255288397,"79":-0.04210628098471799,"80":-0.2864411125212101,"81":-0.21881989740888966,"82":-0.29554967505742835,"83":-0.07921400381920278,"84":-0.2330028637371838,"85":-0.33911436135877837,"86":-0.1926704299381429,"87":0.01103528908870214,"88":0.006108779132268448,"89":-0.16570967320244406,"90":-0.20745455829490542,"91":-0.18521827429269075,"92":-0.07903812958549823,"93":-0.13689093443755618,"94":-0.102805403396854,"95":-0.07570865907676551,"96":-0.11919899896720297,"97":-0.33760750312751414,"98":-0.2590885859296095,"99":-0.4918361431773725,"100":-0.15594295583487286,"101":-0.193548332554932,"102":-0.043695679584348356,"103":-0.05946284285353309,"104":-0.15508782848754718,"105":-0.2594992870300644,"106":-0.08895478725642272,"107":-0.42594764693113163,"108":-0.052791589554357615,"109":-0.34231860306753453,"110":-0.43843560702937834,"111":-0.1530669269475424,"112":-0.0867648912349263,"113":-0.095000161508916,"114":-0.27984461526123267,"115":-0.39613361423971805,"116":0.06980867063073908,"117":-0.14965455172990522,"118":-0.19217775221564484,"119":-0.2660119347849567,"120":-0.2266209732581606,"121":-0.2770084535421862,"122":0.060204458432363675,"123":-0.24303482895192724,"124":-0.12053961695633558,"125":-0.30933099310850903,"126":-0.2416378900253321,"127":-0.2656235408210624,"128":-0.176346911871852,"129":-0.08772147904717291,"130":-0.4033912550804828,"131":-0.05674564745938597,"132":0.02785308267156612,"133":-0.2678315969479095,"134":-0.20563379748343588,"135":-0.11942397817626764,"136":-0.2269596911039808,"137":-0.049312043756526355,"138":-0.13138576026795504,"139":-0.1298954694942086,"140":-0.16774154222557378,"141":-0.08457114352888515,"142":-0.07647995412162885,"143":-0.08697616012682116,"144":-0.387104674898554,"145":-0.15614333217155354,"146":-0.3454697784895114,"147":-0.04952180780376682,"148":-0.10322199149494438,"149":-0.3945068886139792,"150":-0.23354341023349257,"151":-0.0874173573569106,"152":-0.20741969436882834,"153":-0.16790663151930382,"154":-0.30631879195689404,"155":-0.18921643922632572,"156":-0.19501640663286568,"157":-0.14805693179879573,"158":-0.26699930473196914,"159":-0.12203829571228646,"160":-0.37844413513733727,"161":-0.3922603245049862,"162":0.03920976606035014,"163":-0.19864451975427136,"164":-0.3406561884204677,"165":-0.24335485436456192,"166":-0.14023489027225014,"167":-0.2706215445347848,"168":-0.1928177800111882,"169":-0.19097903170895414,"170":-0.06379477244927868,"171":-0.4775559937553478,"172":-0.16739374970932996,"173":-0.27185227185236743,"174":-0.37044966577782457,"175":-0.2381947713905572,"176":-0.2279829415774407,"177":-0.050317008787323696,"178":-0.24917721863447967,"179":-0.025085996368063822,"180":0.11818573546693126,"181":0.0072694747685085725,"182":-0.08898427554286258,"183":-0.0076630515950762155,"184":-0.16438051526051567,"185":-0.2414927349877367,"186":0.024569606508184138,"187":-0.27922065612647035,"188":-0.3381291226474775,"189":-0.156330729961001,"190":-0.0911466251786302,"191":-0.11634354174543772,"192":-0.21584870806753428,"193":-0.02509093608664136,"194":-0.2975355352496021,"195":0.051261972433713714,"196":-0.0863528924712326,"197":-0.3324374713529727,"198":-0.2534604196551684,"199":-0.24820769864761663,"200":-0.10476825764217601,"201":-0.1506680876908274,"202":-0.03764043738684428,"203":-0.12229629357672814,"204":-0.19834629223860392,"205":-0.10343680784822029,"206":0.022626218889923767,"207":-0.09090818887422088,"208":-0.20567327004101155,"209":-0.16637445353163702,"210":-0.08180377217807236,"211":-0.09124984142236377,"212":-0.261359663458932,"213":-0.26828739965827136,"214":-0.21286163534978084,"215":-0.10277373162657445,"216":-0.08062864088719994,"217":-0.3897269265738569,"218":-0.20463020801770568,"219":-0.10347649654241003,"220":-0.1622353620703804,"221":-0.22293381901672546,"222":-0.3439539900641062,"223":-0.08441455805965756,"224":-0.08561023189585006,"225":-0.016003185926439515,"226":0.10385134045206756,"227":-0.27010139596805544,"228":-0.304187730556107,"229":-0.0343987844303594,"230":-0.06294315043501231,"231":-0.10792408589694442,"232":-0.13716407016030868,"233":-0.2085673948480213,"234":-0.40058449439865607,"235":-0.02125485855133552,"236":-0.19505402418394066,"237":-0.03364267169806055,"238":-0.30835297712347504,"239":-0.24402501126056253,"240":-0.20472598468903852,"241":0.043497706595751764,"242":-0.23911125453978738,"243":-0.16648242473540595,"244":-0.08793810384987848,"245":0.024008748090483218,"246":0.05361930159711876,"247":0.05741114382710415,"248":-0.1525821854298398,"249":-0.1548823362657588,"250":-0.08123283648232509,"251":-0.0935144288128091,"252":-0.019663707873213417,"253":-0.10069820799335746,"254":-0.015354410820774066,"255":-0.2785601426309824}},{"sx":1,"sy":1,"depth":256,"w":{"0":0.07115634680011679,"1":-0.04743312266600291,"2":-0.11320805957599507,"3":-0.06929486592463648,"4":-0.022732446565408425,"5":-0.12033104865799737,"6":-0.04697930823055192,"7":-0.012111286362244376,"8":-0.08380328264389203,"9":0.01070898184164869,"10":-0.009569986322120272,"11":-0.05637566912170659,"12":-0.009055627068162535,"13":-0.03082221179386408,"14":-0.036512799301231476,"15":0.021114583174548413,"16":-0.1782911927161308,"17":-0.15554934133382453,"18":-0.2727824106639079,"19":-0.29949618134980843,"20":0.052376635486075844,"21":-0.35670432125366835,"22":-0.1580633328841908,"23":0.011254886742940635,"24":-0.37191734540522253,"25":0.01615838297974016,"26":-0.029352200237794893,"27":-0.18494747946235818,"28":-0.20173006396747586,"29":-0.10704722373623922,"30":-0.2599340758817048,"31":0.01640965035463877,"32":-0.12587364145951022,"33":-0.22107865813584626,"34":-0.043512947868418146,"35":-0.17645451495904782,"36":0.10320034277976417,"37":-0.34397814903008606,"38":-0.2392212139024414,"39":0.09825279065500427,"40":-0.17786737981783454,"41":-0.03898129178973623,"42":0.014983466603364148,"43":-0.22674963554106828,"44":-0.059094472681511155,"45":-0.17455593736758587,"46":-0.3757911158500981,"47":0.11622030970046018,"48":-0.0024630018301054937,"49":-0.07660615836611497,"50":-0.3171866931076347,"51":-0.04950457240937743,"52":0.02698610166210155,"53":-0.400973816402772,"54":-0.16751785129318505,"55":-0.11352593601924352,"56":-0.3993004799514389,"57":-0.14410745404598557,"58":-0.02220000056466095,"59":-0.12664040696886986,"60":-0.05252476334513526,"61":-0.3102067368720743,"62":0.00008412891227358024,"63":-0.07220561430769894,"64":-0.05858842277727848,"65":-0.1471347211973996,"66":-0.029083539136237013,"67":0.04688571942223695,"68":-0.05995484556163329,"69":-0.23476927272575168,"70":-0.10788955820910838,"71":-0.07125071384938467,"72":-0.28205541640162546,"73":-0.07418372153875456,"74":-0.03837462229363071,"75":-0.08742594284003369,"76":-0.25388403661906306,"77":-0.08931221850623254,"78":0.07280166713016081,"79":0.0692088175557484,"80":-0.0660531290042865,"81":-0.4646988191617825,"82":-0.4130261889576185,"83":-0.1460187267933343,"84":-0.4352155256841974,"85":-0.22530327562340255,"86":-0.26427780954647917,"87":-0.12657615445000933,"88":-0.0854662563020986,"89":-0.28718735879034396,"90":0.2540647092606254,"91":-0.14208927469615104,"92":-0.3095990680413034,"93":-0.14125552047522927,"94":-0.22872146553615888,"95":-0.10374732567860825,"96":-0.5043593704594833,"97":-0.12390238602127492,"98":-0.15017337852893248,"99":-0.3974621255460875,"100":-0.0452141453472926,"101":0.14936660161242848,"102":-0.05770432604516773,"103":0.176844533782984,"104":-0.16352827356862573,"105":-0.1776314825839947,"106":-0.34788100381408305,"107":-0.5692095791078214,"108":0.12172986582352541,"109":-0.3054299479462229,