{"net":{"layers":[{"out_depth":1,"out_sx":28,"out_sy":28,"layer_type":"input"},{"sx":5,"sy":5,"stride":1,"in_depth":1,"out_depth":8,"out_sx":28,"out_sy":28,"layer_type":"conv","l1_decay_mul":0,"l2_decay_mul":1,"pad":2,"filters":[{"sx":5,"sy":5,"depth":1,"w":{"0":0.291487986966805,"1":0.5311265593139075,"2":0.48747190266957796,"3":0.7717426427748746,"4":0.8468472468863586,"5":0.6822096572437002,"6":0.703279006603002,"7":0.3911602589411505,"8":-0.27205263254459483,"9":0.18549224423887725,"10":0.3648251847135339,"11":-0.2094995548941697,"12":-0.5276344858958724,"13":-0.3864596812722655,"14":-0.9436745737690778,"15":-0.12599140155785202,"16":-0.2680141416543047,"17":-0.36726882669094874,"18":-0.6179731302341439,"19":-0.961297781112308,"20":-0.16578050299396968,"21":-0.3079630954676655,"22":-0.9839516966389913,"23":-1.0707109841652531,"24":-0.6359389112697672}},{"sx":5,"sy":5,"depth":1,"w":{"0":-0.39199167795956213,"1":-0.25187613751280863,"2":0.2238698682711322,"3":0.29087855554681696,"4":-0.3536218724382811,"5":-0.026412905400262067,"6":0.45598246450475843,"7":0.5707229272201173,"8":0.6126802095285685,"9":0.5782688581794314,"10":0.29920827621814733,"11":0.7320676029586418,"12":0.8915515192386037,"13":0.8210939411021015,"14":-0.0711069592503782,"15":0.03393972873428499,"16":0.5347274317711738,"17":-0.10548956499661463,"18":-0.15650953559766953,"19":-0.11720334133128724,"20":-0.0876536232600826,"21":0.29869448728515646,"22":-0.1434736945947503,"23":-0.23865809629585838,"24":-0.41121469734940824}},{"sx":5,"sy":5,"depth":1,"w":{"0":-0.18149136569300725,"1":-0.5212088790148502,"2":-0.14359157435252798,"3":-0.21015270458605675,"4":-0.01537172395108148,"5":-0.29524572116086156,"6":-0.24927042747085468,"7":-0.09100040623862467,"8":0.45211276955552887,"9":0.5211247873642312,"10":-0.07644377965109853,"11":0.38992239481058116,"12":0.8630068173528359,"13":0.47643467261063915,"14":1.0861059288225223,"15":-0.08969144043838354,"16":0.308184035437058,"17":0.6322486150194546,"18":0.9085836233237767,"19":0.7530574872270674,"20":-0.22051708115212307,"21":-0.3406011928035326,"22":0.3846928740047259,"23":0.18728687348886303,"24":0.18022708149319133}},{"sx":5,"sy":5,"depth":1,"w":{"0":0.15711520319966232,"1":0.12143594237118288,"2":0.24749189041288863,"3":0.2666861835471283,"4":0.33717699573729054,"5":0.2521388952431622,"6":0.6938108354874533,"7":0.7562024818359492,"8":0.9023124022586136,"9":0.5676107739093386,"10":0.3654295168460171,"11":0.5624859194936898,"12":0.7107821704478988,"13":0.45001975374905984,"14":0.4311552334635916,"15":-0.08504033758750432,"16":0.27066828295971396,"17":0.7255820108697827,"18":0.16054368509243863,"19":-0.01479722398999678,"20":-0.43819384569200015,"21":-0.1550100869655851,"22":-0.4750538007616785,"23":-0.7888001990052421,"24":-0.67620402289924}},{"sx":5,"sy":5,"depth":1,"w":{"0":0.21224793929940322,"1":0.27188235917211606,"2":0.7412106582951858,"3":0.749537751746057,"4":0.9925122936203132,"5":-0.33666596243856384,"6":0.6212531858724908,"7":-0.13347307600326058,"8":0.18171227544047694,"9":0.35260040702445183,"10":-0.1949182635186777,"11":0.19814510761086981,"12":0.035648680767827935,"13":-0.2933970774271812,"14":-0.5769804669377948,"15":0.3053634352856909,"16":-0.041166219478425234,"17":-0.24223002415010528,"18":-0.6013278984059209,"19":-1.0824979495335287,"20":0.13312528828583153,"21":0.17551822035506087,"22":-0.724594965264282,"23":-0.4057310568233926,"24":-1.064504032317771}},{"sx":5,"sy":5,"depth":1,"w":{"0":0.4011775358401807,"1":0.27083410544092046,"2":0.5413864969727639,"3":0.4644023654096234,"4":0.6477169264963067,"5":0.6057441009258786,"6":0.5197353672397067,"7":0.4113878464393855,"8":0.6736501354075068,"9":0.8064783095869896,"10":0.21765841820773216,"11":0.6927791237141546,"12":0.6294263171615799,"13":0.44075593252726175,"14":0.2821856245097999,"15":0.1044793578937845,"16":0.039363403371560704,"17":0.518388275593877,"18":0.3944993275095864,"19":0.39207323149876355,"20":-0.34473131283294356,"21":0.415761485735569,"22":0.362485182700497,"23":0.4489775264216705,"24":-0.2580540469945598}},{"sx":5,"sy":5,"depth":1,"w":{"0":-0.08649950894102855,"1":0.07271225139126437,"2":0.2323941223783334,"3":0.18258420630338454,"4":-0.13262068448586328,"5":0.6584157060737647,"6":0.22762765580059977,"7":0.35849069225392044,"8":0.41550396767696024,"9":0.19507681415502193,"10":0.3284645202034299,"11":0.4424642746104378,"12":0.805642595208984,"13":0.559532870173798,"14":0.14898424542663904,"15":0.003099116538708791,"16":0.3131463194868015,"17":0.42001116479510087,"18":0.3824531803085158,"19":0.15066466232239747,"20":0.02622576481584957,"21":-0.03037841553249275,"22":0.2986598956646466,"23":0.2707456543272805,"24":-0.29223675714000064}},{"sx":5,"sy":5,"depth":1,"w":{"0":-0.057765149673911644,"1":-0.0637316150868362,"2":-0.11959152024888817,"3":-0.6904243056458785,"4":-0.29169307823806445,"5":0.21437844966752598,"6":0.12628721582409316,"7":0.328563871460709,"8":0.2765975139385707,"9":-0.10601115104650986,"10":0.777028943633208,"11":0.5008344068263514,"12":0.6779958456145746,"13":0.7084084174704456,"14":0.28106611076850957,"15":0.5746335163449704,"16":0.6926183657622537,"17":0.8682520416154074,"18":0.771202808436561,"19":0.6787974031802939,"20":0.12403251556433054,"21":0.003189026119968035,"22":0.504383105289569,"23":0.6884304068039541,"24":0.5736234512255663}}],"biases":{"sx":1,"sy":1,"depth":8,"w":{"0":0.007992833710624196,"1":-1.4818520850923809,"2":-1.3586087579424948,"3":-1.5861155492400032,"4":-0.09906259519096003,"5":-1.4851291433829048,"6":-1.27781795884335,"7":-1.5817307216952474}}},{"out_depth":8,"out_sx":28,"out_sy":28,"layer_type":"sigmoid"},{"sx":2,"sy":2,"stride":2,"in_depth":8,"out_depth":8,"out_sx":14,"out_sy":14,"layer_type":"pool","pad":0},{"sx":5,"sy":5,"stride":1,"in_depth":8,"out_depth":16,"out_sx":14,"out_sy":14,"layer_type":"conv","l1_decay_mul":0,"l2_decay_mul":1,"pad":2,"filters":[{"sx":5,"sy":5,"depth":8,"w":{"0":-0.15431249738235073,"1":-0.13804591824438583,"2":-0.08309358001894308,"3":-0.09275998715121195,"4":-0.21449383511610912,"5":-0.13156862589735385,"6":0.0262177058206381,"7":-0.17524609031905175,"8":-0.2271757773940527,"9":-0.051872899874185585,"10":0.15111641416877913,"11":-0.17904931774207591,"12":-0.14754611486535824,"13":-0.060208630215489695,"14":-0.042072505863057774,"15":0.023150359543813656,"16":-0.40253663343418356,"17":0.028568690127305993,"18":0.11997917668771291,"19":-0.10316168091911244,"20":-0.27855410526071517,"21":-0.11057864414434125,"22":0.02155710120965226,"23":0.00470537937448892,"24":-0.23991518893275124,"25":-0.035529945038748435,"26":0.06555999706927383,"27":-0.10670771140353864,"28":-0.34378914027932467,"29":0.02903887349937114,"30":0.10100296153760648,"31":0.227244954682049,"32":-0.5495970897189473,"33":-0.01654842201548737,"34":0.1391335048969103,"35":0.04424348919849504,"36":-0.4426840137841991,"37":0.08485994729351921,"38":0.0648470306274308,"39":0.23859880891191654,"40":0.17850617666079246,"41":-0.10679004297037732,"42":0.01942688760037482,"43":0.029231796615050445,"44":0.003795357894147122,"45":-0.13812074558199494,"46":-0.07182665042877705,"47":-0.08230642857439165,"48":-0.033370882359817604,"49":0.24696343021256542,"50":0.1786519545634401,"51":0.08250845614815557,"52":0.022206101388711187,"53":-0.05643007927526954,"54":0.02524304553271459,"55":0.13706683439396466,"56":-0.1920578166005642,"57":0.03985148458309172,"58":0.30356321399689623,"59":0.17874099046559588,"60":-0.13806089325735985,"61":0.05112302529274373,"62":0.034925010260338674,"63":0.044189821744750855,"64":-0.09040420255911363,"65":0.08914195535029773,"66":0.29455333980440784,"67":0.2436253505598284,"68":-0.0955995050777621,"69":0.22213535275195248,"70":0.14588568706895133,"71":0.2429244738507516,"72":-0.10852657856459694,"73":0.24427438110013577,"74":0.4588540986204844,"75":0.21563200483625947,"76":-0.1625691740699647,"77":0.2949914978451753,"78":0.23591588897327598,"79":0.4627768736092148,"80":0.475409426020808,"81":-0.11442087694503006,"82":-0.17140375095238294,"83":-0.04479837105837592,"84":0.3573646539537203,"85":-0.0905458747724655,"86":-0.11971747996966182,"87":-0.338025198102567,"88":0.40852571775258895,"89":-0.017755706792320608,"90":-0.05004690342905187,"91":0.10575948104211493,"92":0.356966917859533,"93":0.11772198840522205,"94":-0.09055385087539597,"95":-0.4417636596455571,"96":0.23573547280919646,"97":0.06578545460951994,"98":-0.0634160012063401,"99":0.17679438749646206,"100":0.275797506623464,"101":0.13717536773917957,"102":-0.03334483747762392,"103":-0.2908216911180301,"104":0.3097239091227432,"105":0.1295419877197906,"106":0.08156496590074468,"107":0.2101082665950283,"108":0.3658130340040003,"109":0.1408796973963055,"110":0.07448522825502796,"111":-0.3033497361339408,"112":0.41184846157661575,"113":0.22759454220732533,"114":0.34594216099003444,"115":0.33842987227983606,"116":0.31263680873981536,"117":0.256018054343743,"118":0.15840141931691137,"119":-0.07882635259314417,"120":0.15206570933994973,"121":-0.22108835961717396,"122":-0.1946575435104716,"123":-0.3475753098800139,"124":0.04636239616062116,"125":-0.1435156968280926,"126":-0.09377080499221085,"127":-0.05351811362832112,"128":0.05726087150464665,"129":-0.39372194756253037,"130":-0.2771261814278416,"131":-0.43408631069381415,"132":0.1678873302597033,"133":-0.25563731243128784,"134":-0.24373743831606975,"135":-0.35652330943480137,"136":-0.03675996026159304,"137":-0.3471395672221015,"138":-0.4966744848995742,"139":-0.4397141978886884,"140":-0.1620847855682118,"141":-0.3928980644964082,"142":-0.40079601412563937,"143":-0.5420401965104896,"144":0.19654523844944088,"145":-0.44194753593630703,"146":-0.524658522316586,"147":-0.4099677735912709,"148":0.08601400245866049,"149":-0.3630344686887429,"150":-0.4045508281155011,"151":-0.49440258709837814,"152":0.2576154966265092,"153":-0.32908878367085254,"154":-0.30728040624178393,"155":-0.19053897562380742,"156":0.22506792360708497,"157":-0.2770768400394761,"158":-0.2771073273021531,"159":-0.46330566855839445,"160":-0.2754925031595246,"161":0.18189557137846019,"162":0.3681932977639428,"163":0.0753469618692164,"164":-0.1883865026807031,"165":0.2376141538828004,"166":0.2869399533279817,"167":0.47318473712190207,"168":-0.36693477448294015,"169":0.0991991909460744,"170":0.23107056834967185,"171":-0.09498049284483942,"172":-0.04519385932788162,"173":0.07724216810984245,"174":0.23309040434453066,"175":0.36831816819927865,"176":-0.36552727283803904,"177":-0.13993560781030964,"178":-0.2054240081498321,"179":-0.2742458183932816,"180":-0.3444121253736469,"181":-0.09133090821155528,"182":-0.077361310834866,"183":-0.0776122518153568,"184":-0.26070489101547584,"185":-0.1379412137341614,"186":-0.23733574413630976,"187":-0.3568252047822812,"188":-0.2378700709064152,"189":-0.22365725354328725,"190":-0.23192749337400603,"191":-0.04748350280569219,"192":-0.3036729353795,"193":-0.25496358678611314,"194":0.07309427623834136,"195":-0.22960049191247164,"196":-0.22916321452543031,"197":-0.31234477804799793,"198":-0.20545196945378857,"199":0.01839989622369441}},{"sx":5,"sy":5,"depth":8,"w":{"0":0.15941240626291148,"1":-0.15552052670735594,"2":-0.06110375365438749,"3":-0.04923311593967496,"4":0.01853755569915007,"5":-0.04042081394971089,"6":-0.07780717116688388,"7":-0.07089262505081997,"8":-0.012154187776733981,"9":0.02076894897995754,"10":-0.12561253862950778,"11":-0.0010311684158355483,"12":-0.00987176199716225,"13":-0.047606537221753724,"14":-0.05037603485107254,"15":-0.074285862208887,"16":-0.0821121488603848,"17":-0.08809256605570472,"18":0.012808333286629168,"19":-0.10265724280947618,"20":-0.08060445566189942,"21":-0.1617706746229284,"22":-0.060212298899680224,"23":-0.021312937025929093,"24":0.0072851159359423375,"25":0.001196317837577196,"26":-0.048543661851825036,"27":-0.08185924360364272,"28":-0.056390136662620424,"29":-0.09386193052295771,"30":-0.016829117905055826,"31":-0.09451347472570634,"32":-0.04734812529934363,"33":-0.08838784761309192,"34":-0.13919492326396207,"35":-0.09213291898646875,"36":0.019171198864259394,"37":-0.09214135270259387,"38":-0.20157940207304959,"39":-0.02097002142736635,"40":0.07678296032388218,"41":0.02324940484893187,"42":-0.09399953820323471,"43":-0.16034373979692554,"44":0.0071925259387026754,"45":0.010270095858438421,"46":-0.0941032845185796,"47":0.01362660692392866,"48":0.04028185923397966,"49":0.005250009313064619,"50":0.04837069095747222,"51":0.058350809557156054,"52":-0.009897450729735564,"53":0.015065594589702592,"54":-0.07933408295479638,"55":-0.08770989704646144,"56":0.013056447011515858,"57":-0.08313238815577476,"58":-0.0030726859810983075,"59":-0.013682230113772034,"60":-0.00569848897031224,"61":-0.02528978040105326,"62":-0.029830588783685916,"63":0.04167181266348077,"64":-0.027272793348275974,"65":-0.021012878075570864,"66":-0.06387619953003972,"67":0.014006575174274607,"68":-0.057278046706422,"69":-0.0543632467352234,"70":-0.08459228425775127,"71":-0.12189035476152914,"72":0.03338980034323712,"73":-0.019432569290920947,"74":0.08199781815996436,"75":-0.028764005151191277,"76":-0.07316038062454555,"77":-0.06284102683180859,"78":-0.007957943508644868,"79":-0.08812003208296561,"80":-0.035383186604884785,"81":0.13643006245096884,"82":-0.1495892880944157,"83":0.05039032700346303,"84":0.04205862321040378,"85":-0.16093575861228293,"86":-0.10592568977664985,"87":-0.09364965177934104,"88":0.05830602133687695,"89":0.01177420991168569,"90":-0.09531540624235198,"91":0.01049528640000902,"92":-0.05882218029850503,"93":0.06381045885364417,"94":-0.056321337090134156,"95":-0.12589687091618376,"96":-0.16257484003706066,"97":-0.12256937764604825,"98":0.05394178110336608,"99":-0.15128915689593922,"100":-0.06408188849821232,"101":-0.15425907060883348,"102":-0.06611519528060782,"103":-0.07155864124230392,"104":-0.04555850805801816,"105":0.05231273618349054,"106":-0.16402706981666917,"107":-0.04498421480955689,"108":-0.05228720597548292,"109":-0.05230803715470186,"110":-0.10417147515633547,"111":-0.11531796136165512,"112":0.012039862504303864,"113":-0.18100122042655378,"114":-0.12115151172657761,"115":-0.1171905037496119,"116":-0.057433908384063044,"117":-0.173978938023588,"118":-0.1572060685411411,"119":-0.12500629613804448,"120":0.031271991884237293,"121":-0.16949013587352732,"122":-0.01422792720846899,"123":-0.07228343575359106,"124":-0.16282249563156773,"125":-0.07303697524271428,"126":-0.07457212990013758,"127":-0.02649037248395753,"128":-0.10192321855126167,"129":-0.03448973522564943,"130":-0.013822244567846774,"131":-0.030765341262984983,"132":0.05238136798791672,"133":-0.0076110441756729015,"134":0.022074588499157406,"135":-0.0656440723388347,"136":-0.007606875510772679,"137":-0.06875670883912267,"138":-0.08983915709676357,"139":-0.11486435426646402,"140":0.025017772667885824,"141":0.007095024140502382,"142":-0.03679157539276449,"143":-0.006386278514454946,"144":-0.09749648109271206,"145":-0.08373855656915233,"146":-0.0784314264624586,"147":-0.1410775988808608,"148":-0.09638908192284017,"149":-0.10415196300785225,"150":-0.032332919230772104,"151":-0.1354382465401463,"152":0.04984659018570409,"153":-0.031821708947656825,"154":-0.034665330638862735,"155":-0.2164871397009,"156":0.012865525278916991,"157":-0.06722707443681997,"158":-0.09716858298550192,"159":-0.06004321643115186,"160":0.013398212261934616,"161":-0.11994313032169014,"162":-0.04666665048633787,"163":-0.04296136102615115,"164":-0.05861883721326489,"165":-0.1561467665319883,"166":-0.09171496840764476,"167":0.027650728737324867,"168":0.1345735178551567,"169":-0.1767501393423035,"170":-0.05818885278338613,"171":0.048062204302602794,"172":0.02569992495193811,"173":-0.010073345483924826,"174":-0.08713904376827264,"175":-0.1702298133767388,"176":-0.04336890796812761,"177":-0.03740110348378426,"178":0.004900039552464899,"179":-0.04202138742913775,"180":0.002556581747147015,"181":-0.08789599931159692,"182":-0.11797743485238804,"183":-0.14768682277371786,"184":-0.059780479606066125,"185":-0.09214224083313756,"186":-0.05417215313133522,"187":-0.05820938419053662,"188":-0.0849047569716126,"189":-0.14750529541608315,"190":-0.12234533897798583,"191":0.0976199316928493,"192":-0.22225343327500746,"193":-0.1139504953850234,"194":0.1994859239000566,"195":-0.1216120542318116,"196":-0.14335579803447185,"197":0.049441934635601134,"198":0.07699825884825671,"199":0.07769287856636849}},{"sx":5,"sy":5,"depth":8,"w":{"0":0.13799078929902267,"1":0.13199279555944568,"2":0.18439777664311865,"3":0.17670324524765046,"4":0.12285121367243468,"5":0.07644777553429598,"6":0.09840255753421048,"7":0.07602827286713341,"8":0.29549443737856323,"9":0.13577815684377925,"10":0.14251932488289307,"11":0.20098369563723503,"12":0.28291717478407696,"13":0.025559785131557926,"14":0.14057886144793033,"15":0.004458067998221508,"16":0.2620146880281371,"17":0.26771691667697145,"18":-0.018992486135607424,"19":0.057799805358477986,"20":0.1494934745614835,"21":0.19519184111119067,"22":0.13983722023808193,"23":0.15869276348075753,"24":0.2638606574644527,"25":0.06468677794368237,"26":-0.030838144819024905,"27":0.1632154940415875,"28":0.31709622356011063,"29":0.12421153324871426,"30":-0.09082527309452844,"31":-0.09471882159318884,"32":0.3737742001651332,"33":0.22834028336294301,"34":0.06250987030997605,"35":0.3230143884274473,"36":0.3290618756191206,"37":0.10542006503411645,"38":0.028756177527119238,"39":-0.15184935822452023,"40":0.3281711464514438,"41":0.12314689294273311,"42":0.037740465593718076,"43":0.08969165776475031,"44":0.2532216495281792,"45":0.11822741594993043,"46":0.09872699902404382,"47":0.10011675927404264,"48":0.2262270831762017,"49":0.06554918676487012,"50":-0.02729951026328062,"51":0.2664335650444774,"52":0.1975140584448988,"53":0.09245645484551863,"54":0.11926255646468828,"55":0.003273387643992435,"56":0.12200324167973704,"57":-0.12170850530529688,"58":-0.11771526554877092,"59":-0.051013800653635054,"60":-0.23038971728507224,"61":0.03818605996935938,"62":-0.09008495362890884,"63":-0.024104099862669134,"64":0.08174935504495719,"65":-0.18251355058021446,"66":-0.31420361619588894,"67":-0.08483830752002199,"68":-0.13455047984324536,"69":-0.251799497654035,"70":-0.06482511206083352,"71":-0.27011346697131455,"72":0.08562129415091248,"73":-0.2014787268046742,"74":-0.07962700101747404,"75":-0.17341591652490013,"76":-0.027842276864676815,"77":-0.09534195014165159,"78":-0.15553066675878296,"79":-0.2842383075687983,"80":0.25337675026203915,"81":-0.019244883977737947,"82":-0.21440542411803595,"83":0.04377791665799949,"84":0.2560566274355211,"85":0.048636849138210154,"86":-0.001136150772193896,"87":-0.2899376938219891,"88":0.05040648785535526,"89":-0.16886203362050528,"90":-0.12111770415283707,"91":-0.060524411440991153,"92":-0.0010936507806452796,"93":-0.14450378783308393,"94":-0.11937012216398064,"95":-0.2334002559558805,"96":-0.00258530798529877,"97":-0.24561416514345016,"98":-0.14106404762844452,"99":-0.19012701951355912,"100":-0.06534021288204207,"101":-0.0982182902430193,"102":-0.05997279801567373,"103":-0.13100752313777664,"104":-0.2269574827305311,"105":-0.1080997805807567,"106":-0.10389274215517164,"107":-0.19693614108977464,"108":-0.09911508376583643,"109":-0.1730398569827634,"110":-0.16650678213085468,"111":-0.09977795359788685,"112":-0.2539578987766226,"113":-0.09222977029406995,"114":-0.09269078033368235,"115":-0.21458349395543078,"116":-0.2112108586493673,"117":-0.28019061603542655,"118":-0.1217476906041327,"119":-0.025628494262715414,"120":-0.008513951901636094,"121":-0.2056425464027736,"122":-0.11665656741747434,"123":-0.2419717622492357,"124":0.01843098393374454,"125":-0.2868920929233181,"126":-0.2510569377902855,"127":-0.26688886009252993,"128":-0.17710100061043796,"129":-0.2928435725505947,"130":-0.16591603464938054,"131":-0.3363340856470614,"132":0.020982886125386856,"133":-0.16773745924769634,"134":-0.2922304707931557,"135":-0.18935425575634074,"136":-0.1700319756857855,"137":-0.08392664566656209,"138":-0.18522427766699281,"139":-0.28946718034120056,"140":-0.06645350312196104,"141":-0.23575713319216185,"142":-0.17894664577106414,"143":-0.07857999480386463,"144":-0.048071188315957435,"145":-0.12208179110984667,"146":-0.21487897372825882,"147":-0.08878242030603703,"148":-0.1311305331301282,"149":-0.22286537164968415,"150":-0.15627681190947765,"151":-0.30883901866697894,"152":-0.12234013245644566,"153":0.02311071624588824,"154":0.06862272106698722,"155":0.006361430527691623,"156":-0.061099621619965,"157":0.001657424949493245,"158":-0.07225363777574065,"159":-0.018073347172478577,"160":-0.18929048024763637,"161":-0.05451043445646274,"162":-0.04038810529448276,"163":-0.25835342297359953,"164":0.07434634500539705,"165":-0.14479295410095738,"166":-0.10828009860933464,"167":-0.1152137906798537,"168":-0.1764785046359715,"169":0.027785210600302,"170":-0.008110391167853219,"171":-0.1380552914890149,"172":0.08716422780547398,"173":0.03515990709576702,"174":0.030005894535659924,"175":0.18983158278587695,"176":-0.09084066410307702,"177":0.03883087716203892,"178":-0.17793465186762886,"179":-0.14842613606643698,"180":0.09252840979888245,"181":0.014677219142525276,"182":-0.050317757014245144,"183":-0.029080529816181627,"184":0.018169744192144097,"185":0.00802533156157828,"186":-0.25466768612537316,"187":-0.09175106491638287,"188":0.1122275431664817,"189":-0.23884452314766647,"190":-0.15215645809159187,"191":-0.13435876721257187,"192":0.07940549354331475,"193":0.021231116090689388,"194":-0.017714932129294876,"195":-0.010288718976133095,"196":-0.004218549279090445,"197":-0.06079756593280118,"198":-0.16522111619698807,"199":-0.13690728690690582}},{"sx":5,"sy":5,"depth":8,"w":{"0":0.12274269222122036,"1":0.18864431903019885,"2":0.12488654282334541,"3":0.21376443896134031,"4":0.2836620030471519,"5":0.12092329328354803,"6":0.17720874870422895,"7":0.009220386104761318,"8":0.3437424989458621,"9":0.0911273795800855,"10":0.0882766183709327,"11":0.0026388898778735674,"12":0.1600251832222883,"13":0.006581144032978588,"14":0.056789706168939316,"15":0.01455098399799333,"16":0.1767060301197861,"17":-0.012737356624370283,"18":-0.1762927934214572,"19":0.04386788521966162,"20":-0.0003481051516939772,"21":-0.10735877356945338,"22":0.007969976866886925,"23":0.011325611503995104,"24":0.07918843990796474,"25":-0.005566334614149986,"26":-0.07591129165106125,"27":0.05707636727158807,"28":0.11621678470166402,"29":-0.06617747624254779,"30":0.07359564896504182,"31":-0.11442767270931709,"32":0.27152774923962214,"33":0.11625690604593632,"34":0.2056397195114767,"35":0.05737173687431474,"36":0.1585890298635468,"37":0.10434645315539998,"38":-0.006835984972342317,"39":0.06397822446603382,"40":0.4454944784571184,"41":-0.04739879796890468,"42":-0.09693934975210888,"43":0.06922652303660046,"44":0.15186218104211968,"45":-0.1039189051035321,"46":-0.05352042811648227,"47":-0.00030492393308378094,"48":0.22666580176722706,"49":-0.19170292168480027,"50":-0.13336451385316253,"51":0.001929292251146387,"52":0.05152192279380452,"53":-0.11142097328496536,"54":-0.14743970343204527,"55":-0.252397066443945,"56":-0.05903149280365427,"57":-0.20896924565041272,"58":-0.16266221704407197,"59":-0.2173203829622202,"60":0.00022628030884184151,"61":-0.24998737910373864,"62":-0.2075156682040227,"63":-0.14449389719994069,"64":0.019602277721549557,"65":-0.04960110878960328,"66":-0.08358776436696258,"67":-0.05744866259936786,"68":0.002942157327431881,"69":-0.1891165371626338,"70":-0.18431713663390364,"71":-0.19234409243028563,"72":0.18992037670641954,"73":-0.09764447410824455,"74":-0.010249509495752755,"75":-0.13586298025744065,"76":-0.03560512806911435,"77":0.0692785705827914,"78":-0.04037053860419459,"79":-0.007492733131517288,"80":0.33750994976036025,"81":-0.07722574772847692,"82":-0.24939281228917087,"83":-0.1062208579971517,"84":0.11552614895125123,"85":-0.17640758702523146,"86":-0.1284570030209488,"87":-0.21779887111583315,"88":0.19982324808862922,"89":-0.30138722744376295,"90":-0.2050777127476866,"91":-0.10631814524199129,"92":0.02549440958772233,"93":-0.1908776277865703,"94":-0.15784542550808597,"95":-0.2928563728052912,"96":0.034925592751942285,"97":-0.2212047873338604,"98":-0.1566748677603607,"99":-0.21239458359576624,"100":-0.07705737548946576,"101":-0.13504303520744956,"102":-0.24577875267436586,"103":-0.187019995422114,"104":0.022559584344338628,"105":-0.06878373576898611,"106":-0.0190217306046968,"107":-0.10722218128995041,"108":0.1642146680740295,"109":-0.1683971000967452,"110":-0.01228859506731648,"111":-0.050234942893362326,"112":0.006649659212204976,"113":-0.06836342658734221,"114":0.01669847433966346,"115":-0.11533399412929467,"116":0.07177037769936703,"117":0.162967082557138,"118":-0.1451429515262661,"119":0.11504806273109924,"120":0.012146723135517838,"121":-0.03723185345589091,"122":-0.15053207916241565,"123":-0.2966112195649002,"124":0.17523249639621624,"125":-0.3400289160758987,"126":-0.07271187083322046,"127":-0.21189678029654674,"128":0.0198226439456019,"129":-0.11285610744158533,"130":-0.1465204603641511,"131":-0.2410876136261274,"132":0.12379443859912591,"133":-0.2815160977729851,"134":-0.2674924878115904,"135":-0.35927054388868906,"136":-0.019658632694653642,"137":-0.16728437830038523,"138":-0.20393114425843,"139":-0.16313566739166022,"140":-0.0687717302501533,"141":-0.18839967079515943,"142":-0.3722324418059974,"143":-0.41818155307729477,"144":0.23942994514201457,"145":-0.1611266987564725,"146":-0.3637291247905737,"147":-0.08427113137356095,"148":0.052884674566504725,"149":-0.2889883658635896,"150":-0.3075614256135964,"151":-0.40355033774125765,"152":0.18368264216528418,"153":-0.18282292574008904,"154":-0.004525099859073235,"155":-0.08625491785599848,"156":0.05603578079844952,"157":-0.13549507682227002,"158":-0.13638338644953707,"159":-0.01775108424601693,"160":-0.1052858438160331,"161":0.05299640255840844,"162":0.24867643914095572,"163":-0.18780145668045667,"164":0.2841898038153915,"165":0.18567057948926205,"166":0.08735159175205084,"167":0.31105420592430355,"168":0.013798139766174304,"169":0.20413809782864872,"170":0.0570203096373814,"171":-0.09908349582569727,"172":0.3160701858537398,"173":0.08565043396598572,"174":0.16452211232917177,"175":0.17183053737987103,"176":0.07681761675164854,"177":-0.0564131441132674,"178":-0.40341565603925944,"179":-0.2896444832220255,"180":0.3122453217088125,"181":-0.31369657479336865,"182":-0.2045455078358176,"183":-0.09498188909656838,"184":0.292377074132133,"185":-0.3490149222175005,"186":-0.3250070355368747,"187":-0.47460473689568294,"188":0.13051682235595435,"189":-0.5101295353467448,"190":-0.4103481409551287,"191":-0.4292477113900065,"192":0.0119591303903615,"193":-0.2576986936603696,"194":0.26791370994950814,"195":-0.11670333806837732,"196":-0.23725798274457502,"197":0.1915295203558332,"198":0.020944302837524693,"199":0.15468747946046474}},{"sx":5,"sy":5,"depth":8,"w":{"0":-0.38841757714816394,"1":-0.2235151087967025,"2":-0.03250261759595618,"3":-0.17129152467518138,"4":-0.26611210329979795,"5":-0.07161127564856047,"6":-0.02205677828270868,"7":0.08488563816754209,"8":-0.1527599038776247,"9":0.002278849294025327,"10":0.22466101947988587,"11":-0.03057169557948232,"12":0.1180465427699317,"13":0.0447515829601533,"14":0.003278600809721411,"15":0.10915484485730166,"16":-0.09458585887095118,"17":0.11117461286483085,"18":0.15578708090854407,"19":0.1416612370991263,"20":-0.07490147830071013,"21":0.24649444218690095,"22":0.0777462395581713,"23":0.20225320148206458,"24":-0.03435679081040116,"25":0.09366086915178086,"26":0.08086354260164066,"27":0.12731324910508676,"28":0.08606758334255879,"29":0.03564204018274291,"30":0.11081072939168704,"31":0.26991730808206604,"32":0.18518459043720148,"33":0.17258514789637985,"34":0.06346617836822468,"35":0.27858314057633593,"36":0.08176854440244116,"37":-0.0244917566756729,"38":0.19792404131837726,"39":0.04999948837948015,"40":-0.19545507074227586,"41":0.13187941473543918,"42":0.16986889369560118,"43":-0.0013738897688045997,"44":-0.0015419943612436223,"45":0.008560830241499279,"46":0.07447672149597168,"47":0.1567321977246183,"48":0.1380755891044571,"49":0.3444809404005194,"50":0.37801161554364626,"51":0.2591900717611441,"52":0.1077617571475288,"53":0.08638816440808188,"54":0.10411826752979704,"55":0.1769246567274562,"56":0.21919725831829795,"57":0.20558707408500054,"58":0.0860809695063572,"59":0.3203286399947677,"60":-0.057197691358093425,"61":0.19840849261918317,"62":0.17828629546819916,"63":0.16797802296590672,"64":0.2000055942704371,"65":0.0657583766443149,"66":-0.025172437133526047,"67":0.17184282299769787,"68":0.07633224283842395,"69":0.2566091327380032,"70":0.09953208544899382,"71":0.09217108701963374,"72":0.352704469412477,"73":0.11255912574371443,"74":-0.25547269512177667,"75":0.02685918638013874,"76":0.21236709321336533,"77":0.021359777572428306,"78":0.02578918596978515,"79":-0.05736167932570037,"80":0.47913255040926533,"81":0.039497088601236775,"82":0.05108519334112852,"83":0.11350190289811156,"84":0.4083987980720711,"85":0.23551783554732408,"86":-0.000244913808127019,"87":-0.10025811336792528,"88":0.5189348382221861,"89":0.13070080343057328,"90":-0.23919361319090948,"91":0.1547476873502802,"92":0.19454890830755445,"93":0.2885407576424362,"94":-0.01834286673588546,"95":-0.06427082816311913,"96":0.130178059402521,"97":0.009650780111411105,"98":-0.26555248586825425,"99":0.14646211474320364,"100":0.03795952192345196,"101":0.035121561277627784,"102":0.04919977624571497,"103":-0.06503709699368881,"104":0.043931313843166224,"105":-0.06724484523998743,"106":-0.29573437619151033,"107":-0.09655042224708324,"108":0.06062757100154979,"109":-0.16443769619277293,"110":-0.06145512397504327,"111":-0.28802279060208263,"112":-0.018253950549852356,"113":-0.27365640561949783,"114":-0.2159255415193892,"115":-0.22489573968871207,"116":-0.06911966931455471,"117":-0.17643851721995457,"118":-0.238644022144632,"119":-0.2914693821232393,"120":0.0397606356148498,"121":-0.33216356537008046,"122":-0.41433095321282637,"123":-0.20873974310942317,"124":0.007681333945941319,"125":-0.2583291254054847,"126":-0.2635290229642026,"127":-0.3300107794820483,"128":0.032983438799279514,"129":-0.4772381302838005,"130":-0.4329941196184315,"131":-0.32767901224292245,"132":-0.00896909707469025,"133":-0.2491797471169026,"134":-0.34688847248953414,"135":-0.5174412805345772,"136":-0.047952783949879674,"137":-0.4254150720244399,"138":-0.2802083211228461,"139":-0.43517469818645704,"140":-0.07407330804623782,"141":-0.4526409252015391,"142":-0.35588865106918555,"143":-0.3306928365031162,"144":-0.17701194778084473,"145":-0.3129531447265082,"146":-0.3692738534869161,"147":-0.49714709760796866,"148":-0.06459642584288088,"149":-0.43681023810218467,"150":-0.24480733755920772,"151":-0.2436152357971601,"152":-0.26642598354306457,"153":-0.23810022141000628,"154":-0.2066538625753803,"155":-0.327645009618937,"156":-0.032581639302849824,"157":-0.37957286103002413,"158":-0.2998701498203095,"159":-0.16041001995378518,"160":-0.3402998406316674,"161":-0.07179241051620606,"162":0.050590299704851516,"163":-0.19262022525361358,"164":-0.2099046895297108,"165":-0.06831693834056542,"166":-0.10048067806617263,"167":0.023268592980617554,"168":-0.219048994941979,"169":-0.128063615256791,"170":0.04037136438386336,"171":-0.2240729153322103,"172":-0.04984034799642036,"173":-0.1904079141305647,"174":-0.09145837418050923,"175":0.11068068191083917,"176":-0.10408710651560787,"177":-0.125114167077076,"178":-0.17289434622309652,"179":-0.2220985889667206,"180":-0.02104039466697055,"181":0.005922160098138578,"182":0.03565333879029494,"183":0.03347442228434306,"184":-0.19897482763383043,"185":0.12285091716511941,"186":-0.21941479274446024,"187":-0.2737082810159455,"188":-0.20237543921102635,"189":-0.23650842361948796,"190":0.0719918848397778,"191":-0.050570717050228774,"192":-0.04902456349130736,"193":-0.07661294842184882,"194":0.132326123720599,"195":-0.25618311468484767,"196":-0.22206228239415107,"197":-0.08834532304057527,"198":-0.022223016003207627,"199":0.1918164771539158}},{"sx":5,"sy":5,"depth":8,"w":{"0":0.2212723979206048,"1":-0.10788178148580704,"2":0.0771214605021898,"3":0.09624299761578076,"4":0.20750470420477088,"5":0.0032102164134990376,"6":-0.16255945935116894,"7":-0.014830874341633918,"8":0.4893075292546715,"9":-0.0063272722077045065,"10":0.09618507024145162,"11":0.2298158413674401,"12":0.3549148503365855,"13":0.03998465590466924,"14":0.11751369930856126,"15":-0.0333620958798528,"16":0.42032272678635263,"17":0.07488436866393283,"18":-0.015383237860642896,"19":0.09847265237689205,"20":0.289319413263493,"21":0.14290810746296082,"22":0.15796104646596867,"23":-0.0358756125563886,"24":0.34749412696663295,"25":-0.09590747701681139,"26":-0.254954885316795,"27":-0.09893682066075614,"28":0.2442727344395743,"29":-0.16942685966088294,"30":0.010492257690671568,"31":-0.23963471213744192,"32":0.46260002821639395,"33":-0.07474125733178495,"34":-0.24408736806841203,"35":-0.24418159871337372,"36":0.3185210754509449,"37":-0.13450885728756704,"38":-0.15351314307615227,"39":-0.2094051063460955,"40":0.05000045370336867,"41":-0.02773728382542051,"42":0.0664863160329178,"43":-0.08477169652525093,"44":0.17542427299083077,"45":-0.04103622906585305,"46":-0.031635868770111306,"47":0.00897308693225537,"48":0.10901106356329869,"49":0.08995401869473378,"50":0.16185930148841143,"51":-0.01242121242023094,"52":0.14017253852076,"53":-0.08164963042988596,"54":0.18314808420980833,"55":-0.035137561915539926,"56":-0.006869895386517368,"57":-0.1361762334435705,"58":-0.1357963131254616,"59":-0.058828078770077195,"60":0.1213525900963169,"61":-0.1675974204086533,"62":-0.046516886465165365,"63":0.023735002383237506,"64":-0.0028248612491839314,"65":-0.30686404041382315,"66":-0.12480958660427799,"67":-0.42864240041465085,"68":-0.0044554892897441046,"69":-0.30795352725628505,"70":-0.21089618599648302,"71":-0.1647358621676691,"72":-0.0965127451612955,"73":-0.39982355001577763,"74":0.08317891284891163,"75":-0.403594948988681,"76":-0.006652903646314107,"77":-0.3631238929759972,"78":-0.2050668907533061,"79":-0.06262736304658471,"80":-0.04117538207978699,"81":-0.06392085467195545,"82":0.07714111921916532,"83":0.023563311466904945,"84":-0.17007730588918635,"85":0.044539348690185165,"86":0.07322955992519742,"87":0.10386069567658332,"88":-0.0023558470885307343,"89":0.0696628303394636,"90":0.0020212697254370906,"91":0.09997629546036879,"92":0.0951054777167376,"93":-0.10360911190047625,"94":0.03238194112125409,"95":-0.048540168903470134,"96":0.04891483823169288,"97":-0.019567614925009743,"98":-0.33942810651990074,"99":-0.07598501098548308,"100":0.100388925443162,"101":-0.285250810709914,"102":-0.14998185984463902,"103":0.008754617784089896,"104":0.14028218271125859,"105":-0.3459420802394366,"106":-0.18062194655703476,"107":-0.36864457618314345,"108":-0.2027069553459634,"109":-0.4234875537423285,"110":-0.23928359059519785,"111":-0.2523674210285559,"112":-0.23188748459499203,"113":-0.17227543672668333,"114":0.2350249278411836,"115":-0.17079145744342908,"116":-0.4739475295169597,"117":0.04030103103488444,"118":-0.14045251763236555,"119":0.09629739853300726,"120":-0.06180952460058924,"121":-0.11021778673501029,"122":-0.0066041757695271585,"123":0.0024371680299619517,"124":-0.07101253012334498,"125":-0.0020518036450128574,"126":0.049215657476936764,"127":-0.037819956096149354,"128":0.18746757721912097,"129":0.07828218342552007,"130":-0.0987876289509252,"131":-0.04434449070056994,"132":0.16328625638360622,"133":-0.04713216080405267,"134":0.010729296655566399,"135":0.09049739733112727,"136":0.221733692993942,"137":-0.004933208631374251,"138":-0.34578923510568343,"139":-0.1430532420414759,"140":0.11331173868216095,"141":-0.1473132085277555,"142":-0.14812833522737062,"143":-0.16714842447561848,"144":-0.061205489919105974,"145":-0.2756685817245997,"146":0.024784430583100796,"147":-0.4284054203455469,"148":-0.20576340253324485,"149":-0.24306258280613544,"150":-0.1696484532701389,"151":-0.11887592378683513,"152":-0.3032529395136041,"153":0.031505147931895953,"154":0.36290265066356814,"155":0.15300213620672762,"156":-0.10067134944927078,"157":0.1442587823198058,"158":0.12750148695405822,"159":0.11103157824136178,"160":-0.22704394230476654,"161":-0.05613174449490264,"162":0.15504775630199025,"163":-0.05117873378546017,"164":-0.14288189410981023,"165":0.07209017756251218,"166":-0.03335084125418471,"167":-0.000985232791488665,"168":0.10669444461565793,"169":-0.05802124602790129,"170":0.033465775600577966,"171":-0.08893109188126827,"172":-0.03462349550101762,"173":0.01766323224924656,"174":0.03047946174758058,"175":0.04616363833576831,"176":0.11816063061880394,"177":-0.09888376958009241,"178":-0.1498194688698676,"179":-0.09767650315090182,"180":0.08487933747044542,"181":-0.034384864300427954,"182":-0.07923950719467782,"183":-0.1225686773631472,"184":-0.17084944986610695,"185":-0.20844246979914421,"186":0.038723724291661245,"187":-0.2126601897694067,"188":-0.28682571951220126,"189":-0.050403670049348856,"190":-0.07363883223753975,"191":0.04169822425670799,"192":-0.2683034479683733,"193":0.09294788435558908,"194":0.32395111242252617,"195":0.09253600040736695,"196":-0.07983011537020573,"197":0.25138719171701895,"198":0.14064070050189528,"199":0.24372695711044995}},{"sx":5,"sy":5,"depth":8,"w":{"0":0.08143741412555142,"1":-0.07170507639973141,"2":0.011957279080736757,"3":-0.024911490176323346,"4":0.1404064433227223,"5":-0.11532868646799374,"6":-0.10524119684850915,"7":-0.24202230631098667,"8":0.21214928234221467,"9":0.026812355809018126,"10":-0.13986223235972822,"11":-0.009350698541068493,"12":0.20188364102152967,"13":-0.08870683355336302,"14":0.07558375369256841,"15":-0.1613250568368265,"16":0.17992289974775338,"17":-0.01010535346785661,"18":-0.039693993234633365,"19":-0.017557839820360056,"20":0.25975163453438466,"21":-0.12488760906835697,"22":-0.03266964429138857,"23":-0.31222650266484087,"24":0.19882742047710117,"25":-0.14241978558731921,"26":0.04169138275438745,"27":-0.021085393947093255,"28":0.06480491192623794,"29":-0.1937251492056776,"30":-0.1337172146872218,"31":-0.11124527929974533,"32":0.0018315773043096097,"33":0.07911464294525784,"34":0.2194815622380522,"35":0.055440801180653546,"36":0.05017092187674776,"37":0.15091588496582184,"38":0.06977048172992875,"39":0.20451029933749446,"40":-0.004723070126467389,"41":0.06663265082682274,"42":0.07794544580523269,"43":-0.20577300949696142,"44":0.15743554435833518,"45":-0.175920153268432,"46":-0.09145930842545294,"47":-0.08875686469149467,"48":0.18396959828859222,"49":-0.15734123876881473,"50":-0.26379552182948124,"51":-0.07148549536608978,"52":0.18934138663238775,"53":-0.15889793036267616,"54":-0.12156778841057657,"55":-0.1879443560407406,"56":-0.046716019178148285,"57":-0.20984961042064504,"58":-0.16491766081005113,"59":-0.18873730139386868,"60":0.0551897309408269,"61":-0.3161615906020354,"62":-0.055767420066148286,"63":-0.12303681218560203,"64":-0.22240525157625127,"65":-0.11856897900935832,"66":0.10972671176281389,"67":-0.06371031643856141,"68":-0.041755558332984506,"69":-0.022037027379583882,"70":-0.008090149879208135,"71":-0.07293913075687442,"72":-0.19031941531909016,"73":0.09681601237680178,"74":0.3251527346457433,"75":0.07478121476898454,"76":-0.15948634846754858,"77":0.13237446980517883,"78":0.265815153638772,"79":0.2485165757568387,"80":0.00835003983971982,"81":0.18855159780259806,"82":-0.0008192565102221269,"83":-0.009961160252404148,"84":0.1750570100002393,"85":-0.0028245979133066333,"86":0.13035935031650872,"87":0.1404572247678298,"88":0.07184158878404294,"89":-0.030036693688960982,"90":-0.2057489317241072,"91":-0.10604044394531906,"92":0.08367189834779468,"93":-0.30151865568422853,"94":-0.12525521045600463,"95":-0.12683717665383842,"96":-0.043772130802188475,"97":-0.273202495159699,"98":-0.19573285883989505,"99":-0.31477945282152364,"100":-0.11599490901777623,"101":-0.32645532215557455,"102":-0.2574245936140878,"103":-0.25760049960513276,"104":-0.22381509763454802,"105":0.0066218980069711365,"106":0.07131881276828778,"107":0.0864712608532552,"108":-0.04380746533989807,"109":-0.2462462000620242,"110":-0.02763125805485725,"111":-0.1839059755910108,"112":-0.10494896578157636,"113":0.3021450121158799,"114":0.4713502964000299,"115":0.389244224390722,"116":-0.06500380602516205,"117":0.3484872813058369,"118":0.13629306703367083,"119":0.3265421712176707,"120":0.15386295665708793,"121":0.10878172131079232,"122":0.03564195227698112,"123":0.16881022254697414,"124":0.05743294938588026,"125":0.04046865548805041,"126":0.20157327566649166,"127":0.08439004324030908,"128":-0.014833144052749003,"129":-0.23992343587156337,"130":-0.14981266830845205,"131":0.007802034175910372,"132":0.04577854334630354,"133":-0.03115598523171056,"134":0.04692773148580333,"135":-0.056864967994686585,"136":-0.09117390822516228,"137":-0.3273466967047767,"138":-0.3019878006269493,"139":-0.3379053307320949,"140":-0.051429455211310884,"141":-0.37059358390659397,"142":-0.17595892432245022,"143":-0.45747248911806826,"144":0.05461377005993728,"145":-0.1282130601827918,"146":-0.14187744733632848,"147":-0.15284910645044802,"148":0.23291724632232888,"149":-0.11654855439668325,"150":-0.1855438955238347,"151":-0.40662871074269574,"152":0.36723143288705823,"153":0.08782682951656086,"154":0.10603780504091576,"155":0.3572911723252802,"156":0.4239351344397076,"157":0.14968295049677188,"158":0.07693867707198555,"159":-0.30762304574437155,"160":-0.0670584610527171,"161":0.17015733487033116,"162":0.2006458273973485,"163":-0.01345564469084271,"164":-0.026893633446554842,"165":0.26894204230606417,"166":0.18956244684183257,"167":0.34994400329384034,"168":0.04921854032802118,"169":0.07846924286450903,"170":-0.0402855712752779,"171":0.03446501385575234,"172":-0.0030513689079739513,"173":0.039133715179270716,"174":0.1514182953077709,"175":0.307983234550312,"176":-0.13486425313439274,"177":-0.13260846302856036,"178":-0.2151790863692522,"179":-0.3903323215173339,"180":-0.12526593557601387,"181":-0.12480782756141395,"182":-0.13627274262414157,"183":-0.055665621494739866,"184":-0.14474849096649173,"185":-0.33998762059822524,"186":-0.33245774101056264,"187":-0.47442000395802525,"188":-0.0769119496239413,"189":-0.28367477410079606,"190":-0.27928491006793804,"191":-0.14681325523291078,"192":0.18558274001996922,"193":-0.2890581728699566,"194":-0.23423116692355536,"195":-0.2508259721074775,"196":0.12351969954116604,"197":-0.13193189191032972,"198":-0.27477581133203466,"199":-0.3563066936053245}},{"sx":5,"sy":5,"depth":8,"w":{"0":0.481104212749187,"1":0.14146932035281068,"2":-0.12508791279299694,"3":0.14450519232159847,"4":0.2907357353313454,"5":-0.0036052339356875147,"6":0.056540667456010864,"7":-0.03967699087103075,"8":0.38298722260838475,"9":0.11693799864865696,"10":0.0035140017535724272,"11":0.001113972535956142,"12":0.2764097349955983,"13":0.17493722168679035,"14":0.06888426226256233,"15":-0.01176883328146787,"16":0.1261283130604847,"17":-0.1623687728712793,"18":-0.20615180031620092,"19":-0.1808583419568071,"20":0.19967894494044308,"21":0.017215580981876488,"22":-0.10827426349732179,"23":-0.23653644047969308,"24":0.06536594521345486,"25":-0.14697144844047338,"26":-0.2558150987113853,"27":-0.10444784254154892,"28":0.06320573646206999,"29":-0.11241643507603707,"30":-0.07502699543863992,"31":-0.16662557601576736,"32":0.22672909743292488,"33":-0.16113579545977724,"34":0.08742525244751836,"35":-0.024036428002141876,"36":0.08626900796436915,"37":0.1378869275118213,"38":0.0051713037190058144,"39":-0.14021268707478318,"40":0.23737647430421954,"41":-0.08099203541328304,"42":-0.15897815718771466,"43":-0.009894038886188183,"44":0.21177781173510427,"45":-0.054549296184900356,"46":0.029557153010356677,"47":-0.04144449663998114,"48":0.13277007980484085,"49":-0.14551684461923042,"50":-0.22435987505977203,"51":-0.2114771320061821,"52":0.004746303364225901,"53":-0.06144416364271817,"54":-0.039066508568655164,"55":-0.10856586106394611,"56":-0.10122635905160282,"57":-0.21392029315645494,"58":-0.07496989260609456,"59":-0.3482970289587568,"60":-0.05541985352729556,"61":-0.2111388068227227,"62":-0.28908601546172663,"63":0.017328931864297417,"64":0.008789426302529406,"65":-0.08327556527528018,"66":-0.194891467627943,"67":-0.14158121502279575,"68":0.012344384614017538,"69":-0.1924924096861707,"70":-0.09806472834325214,"71":-0.029359369950785127,"72":0.05943741242553686,"73":-0.21115596548772242,"74":-0.03116611242027384,"75":-0.08533809518217114,"76":-0.03762977789819114,"77":-0.09022656771594705,"78":-0.08058116596994351,"79":-0.17673449160699886,"80":0.19229918431783194,"81":-0.04383060431835771,"82":-0.19001968772247127,"83":-0.17760818379628995,"84":0.004524044915061444,"85":-0.04082720612415295,"86":-0.007005354688837371,"87":-0.15651708037718096,"88":0.03747956254479788,"89":0.031200631387575735,"90":-0.12843285329970633,"91":-0.09615974262620346,"92":0.07104791536926952,"93":-0.25475728543821485,"94":-0.12805735879248484,"95":-0.09532680089700045,"96":-0.08522409636406117,"97":-0.06145574571463277,"98":0.12085147418674035,"99":-0.048416375764022586,"100":-0.012575480516166528,"101":-0.16325735422576418,"102":0.07027136564002362,"103":-0.06342352021363167,"104":-0.0029367907878644194,"105":0.04966181159539831,"106":0.017126553438530073,"107":0.10206436450666714,"108":-0.04374259479655271,"109":0.02734022574432789,"110":0.026190587975512047,"111":0.0365037929398078,"112":0.19056260824543492,"113":0.01621995228282693,"114":-0.00891588289291335,"115":-0.017490221133024987,"116":0.15702234284562194,"117":-0.07742821479229729,"118":0.0008059503654371228,"119":0.07082374668519348,"120":0.12282303709742304,"121":-0.2517581472711281,"122":-0.16623472325838443,"123":-0.1508053768755558,"124":0.09616417804861874,"125":-0.2000523456562387,"126":-0.20777994879867162,"127":-0.2975601079635669,"128":0.1956791515214612,"129":0.052052297062156715,"130":-0.051785430232863756,"131":-0.20506237737073502,"132":0.13769358254648004,"133":-0.3120548759811861,"134":-0.09824147562045332,"135":-0.19322567228773618,"136":0.17025478169211364,"137":0.029861484921077087,"138":-0.0546226947552838,"139":0.00614961914880535,"140":0.14476965172867573,"141":-0.04470188023107211,"142":0.0037325680213399753,"143":-0.22390448365052468,"144":0.010257572375215308,"145":0.20203934358171396,"146":-0.1231053729518488,"147":0.036411387077722526,"148":0.10343976401755887,"149":-0.10144687884313572,"150":-0.10094182306838527,"151":-0.1218182663141632,"152":0.14932235488297468,"153":0.018140090526436357,"154":-0.1120473683336937,"155":-0.07595709047912355,"156":0.18210379501089766,"157":-0.07731827316167181,"158":-0.10967526542480507,"159":-0.24201436831472609,"160":0.17780365693408312,"161":-0.13651766652990255,"162":-0.1197067692467864,"163":-0.3215016247784875,"164":0.2127687463396155,"165":-0.09726900317037993,"166":-0.12074303671518179,"167":-0.025852045162572914,"168":0.25688990632619574,"169":0.025934952396145468,"170":0.09846044798313146,"171":-0.2653746734912561,"172":0.10412738891622111,"173":-0.1102608254859047,"174":-0.051908197281077796,"175":-0.04489379856647647,"176":0.11209949124166614,"177":-0.06889934122021268,"178":-0.074871738752784,"179":-0.2851709787410551,"180":0.14421128902311933,"181":-0.013504549106406447,"182":-0.07933304053823756,"183":-0.04592777469435666,"184":0.21621774326949783,"185":0.027868435154030254,"186":-0.22935748153934354,"187":-0.24166432190316406,"188":0.09884470264619366,"189":-0.01244037122787521,"190":-0.019832496379841545,"191":-0.33944138074658214,"192":0.2583894714069208,"193":-0.2598432286960228,"194":-0.2990058694755154,"195":-0.2756676249365629,"196":0.2937673005408638,"197":-0.2516129313264193,"198":-0.3187977628245971,"199":-0.3896744219187746}},{"sx":5,"sy":5,"depth":8,"w":{"0":0.23608622764744955,"1":0.4132775749405914,"2":0.21870949785690144,"3":0.34092425191680503,"4":0.5213929466048398,"5":0.35165187904991474,"6":0.4247357382738724,"7":0.1313432944443808,"8":0.7915105986501108,"9":0.29410806750321267,"10":0.0038620173163156747,"11":0.25169213617822017,"12":0.5962056373528719,"13":0.0776647182245473,"14":0.09120722196201794,"15":0.030584977380303312,"16":0.549543454641198,"17":0.12547419401099588,"18":-0.2694437232443257,"19":-0.09073360793804616,"20":0.2567125499080673,"21":0.17184936673754742,"22":0.09924444844628663,"23":-0.2284632767110403,"24":0.48766986303811566,"25":0.08894839833448079,"26":-0.07264718585369292,"27":0.08395487712408176,"28":0.3599609050207156,"29":0.22468505709432202,"30":0.07513832405836646,"31":-0.3024454381610775,"32":0.7384621008481008,"33":0.18992889818912645,"34":0.01281046141456325,"35":0.46698484742114177,"36":0.5552674898771512,"37":0.304837792501953,"38":0.14682874949191607,"39":-0.34596989056015753,"40":0.3477828032322856,"41":0.46170378211785007,"42":0.0776744450759815,"43":0.30714719810081703,"44":0.45667301429179447,"45":0.09451489767609347,"46":0.40273234929455415,"47":0.207849691100882,"48":0.47761055474217123,"49":0.0663526766229281,"50":-0.09917239948484578,"51":0.015450545272470046,"52":0.23841369009057492,"53":-0.055506726906879356,"54":-0.07491303412071043,"55":0.05341078865786827,"56":0.1179338635977482,"57":-0.24709182977931005,"58":-0.11967576216655826,"59":-0.3152688779339052,"60":-0.03705320277111805,"61":-0.24825471574846145,"62":-0.06750163770039291,"63":-0.19930406251710434,"64":0.06303711619283285,"65":-0.3023822886700926,"66":-0.29736206225582495,"67":-0.4373413113479485,"68":0.023726307134623904,"69":-0.4874182038439309,"70":-0.24586854972645636,"71":-0.4355763257909801,"72":0.07134147712505169,"73":-0.36106478652795826,"74":-0.5196438266330528,"75":-0.46917934602749034,"76":0.23874131441361446,"77":-0.3291932692339815,"78":-0.13385798811289987,"79":-0.6524934258839313,"80":0.23356860131710247,"81":0.325283812693768,"82":-0.04236800835482842,"83":0.21790812282104063,"84":0.1728178085747826,"85":0.07254374231051473,"86":0.16194007173280048,"87":0.1738395159757141,"88":0.22333871456576043,"89":0.032183398623528925,"90":-0.20512969581635154,"91":0.05447513187143468,"92":-0.07731638492183288,"93":-0.13900385335015272,"94":0.014755654351954821,"95":0.0989154008316113,"96":-0.19196153326327386,"97":-0.31543477843828405,"98":-0.30270835793511525,"99":-0.3161491504378178,"100":-0.26167676834504944,"101":-0.38493323070167346,"102":-0.19504763360676663,"103":-0.2837094775764478,"104":-0.3263935580625958,"105":-0.2713081756015627,"106":-0.23517104075841305,"107":-0.4246394891588031,"108":-0.2550743939723447,"109":-0.46070839154143944,"110":-0.24948777064369224,"111":-0.43137635750088654,"112":-0.25968486027529775,"113":-0.1922826453812451,"114":-0.4025293411808493,"115":-0.5656749139071364,"116":-0.3344117186378795,"117":-0.4878473697700504,"118":-0.22700243483459914,"119":-0.3001638613991806,"120":0.1756390593789679,"121":0.12431602098033806,"122":-0.05626923508193463,"123":0.028410993016512065,"124":0.22031668941929256,"125":-0.08417960678381317,"126":0.19190849869041304,"127":0.11052341854617893,"128":0.1517381505111635,"129":-0.2145064256065592,"130":-0.197588928349118,"131":-0.1775118214671056,"132":0.13331104600654925,"133":-0.07805051956431398,"134":-0.11605062250389805,"135":-0.03843699837183577,"136":-0.14328607036271487,"137":-0.13347646422317824,"138":-0.19933198460920815,"139":-0.28087570587336036,"140":0.012444645927004734,"141":-0.22419752829503717,"142":-0.2394812031726254,"143":-0.1853507876889503,"144":-0.292893854464037,"145":-0.19037505750454414,"146":-0.11449497923959116,"147":-0.21173266482935102,"148":-0.13194320089400355,"149":-0.24852414167802375,"150":-0.15370046117595565,"151":-0.14099753270781637,"152":-0.053377846365057414,"153":-0.043187103651240795,"154":0.1045177913811438,"155":-0.14471372914843117,"156":-0.2702516518228676,"157":-0.04576001555390647,"158":-0.08621125118080188,"159":0.025661384051148515,"160":0.12218131182929841,"161":0.0069484943850803785,"162":-0.16389968156794457,"163":0.011517556838342154,"164":-0.015831044041857333,"165":-0.01584370330914023,"166":0.12687866366893055,"167":0.1780579108151761,"168":-0.11325178510365976,"169":-0.0749781256316446,"170":-0.03230662515746505,"171":-0.22238418296433585,"172":-0.08448070450334401,"173":-0.03513370662355095,"174":-0.04205003664457845,"175":0.004877728974520101,"176":-0.059479740497990825,"177":-0.1451770865970574,"178":0.013832055278713838,"179":-0.0787039630817961,"180":-0.20160804557630432,"181":-0.07999037523070093,"182":-0.007733090985498268,"183":0.01925247388081727,"184":-0.19254259271384647,"185":0.007205647242764653,"186":-0.05200136501604197,"187":-0.052408855000837244,"188":-0.0775556988778747,"189":0.027993161230139223,"190":0.0910652365988152,"191":0.20816754798316667,"192":-0.11536379774243229,"193":0.23282151011032284,"194":0.07078511021956027,"195":0.1284446737812555,"196":-0.024061715817919525,"197":-0.009917634613227443,"198":0.1537179162313286,"199":0.16868588630598078}},{"sx":5,"sy":5,"depth":8,"w":{"0":0.11716116983117061,"1":-0.04545100876905957,"2":-0.11122143327369309,"3":-0.15777121533637806,"4":0.1572713187442278,"5":-0.08465692234536033,"6":-0.14012417542725109,"7":-0.2710986894468525,"8":0.17490310103711348,"9":0.053950030913404785,"10":0.10158464739390197,"11":0.09318440561629233,"12":0.17447441919879286,"13":-0.03333270464381138,"14":-0.01655031115391866,"15":-0.1294882414264112,"16":0.041445099880553345,"17":0.10531304579921656,"18":-0.03450026733914196,"19":-0.02101967593964316,"20":0.0380360795625326,"21":0.10299179818157482,"22":0.030094062271709097,"23":-0.02246146751596574,"24":0.09070612989976058,"25":-0.057413333246850995,"26":-0.16333436345868882,"27":-0.008287642214479429,"28":0.18309855793844423,"29":-0.05820220533851322,"30":-0.03515826966722241,"31":0.015682257453343652,"32":0.12416968588352567,"33":-0.017784693941821566,"34":-0.17854069775967188,"35":-0.028100361316382282,"36":0.16359986893650255,"37":-0.006307613633290065,"38":-0.1435571458310168,"39":-0.11063365171815706,"40":-0.1244933225624519,"41":-0.1438018500499747,"42":-0.03398919018677721,"43":-0.18673657262619844,"44":0.08222418898225749,"45":-0.10282510114524752,"46":-0.1513775789018258,"47":-0.18054104166747936,"48":-0.008087273038046797,"49":0.12612249742234513,"50":0.10451123863423337,"51":-0.01601185047886943,"52":0.19468049919756064,"53":-0.025675753942312907,"54":-0.010538946222731911,"55":-0.12677718916132397,"56":0.10157692933937665,"57":0.014923568368949027,"58":-0.03497058599133378,"59":0.022930929220554407,"60":-0.09728307289910088,"61":0.1072986978191165,"62":0.0248052427866258,"63":0.02215145905161023,"64":0.06310911353161563,"65":-0.14280702735366343,"66":-0.15182716100578472,"67":-0.053050426776949926,"68":0.026415458852274414,"69":0.021756927026033893,"70":0.07971272170185836,"71":-0.12303253768388149,"72":0.009393631180533765,"73":-0.20349886432377196,"74":-0.11697014918168083,"75":-0.14449325114065506,"76":-0.014993578607660821,"77":-0.21918311095854662,"78":-0.03675374824403374,"79":-0.24936605901831194,"80":-0.05565293026835693,"81":-0.038498336508625795,"82":-0.03708051141565929,"83":-0.14227112610175568,"84":0.09920330674017543,"85":-0.12082571141215982,"86":-0.043023242581058364,"87":0.04627695905795863,"88":0.2368611148384452,"89":0.05557091539855375,"90":0.18320377648231734,"91":0.039656280092587225,"92":0.15372116329775262,"93":0.044128983750805206,"94":-0.01275021103406298,"95":0.05089573835150607,"96":-0.026910757537614818,"97":-0.09063682579406536,"98":-0.022397633647046694,"99":0.12561014888937777,"100":-0.038304067356455654,"101":0.13610929181227843,"102":0.030172322568228542,"103":0.07270577923958274,"104":-0.08729292065294658,"105":-0.09096563827052129,"106":-0.04821597906704537,"107":-0.056685451125905166,"108":-0.016983302310616805,"109":-0.16561014746235322,"110":0.060315387433257164,"111":-0.019229510120215454,"112":0.039920463631131255,"113":-0.09649149447075496,"114":-0.15833300393075744,"115":-0.16102708991534137,"116":-0.20405982994895014,"117":-0.10217700082563418,"118":-0.17416301417194952,"119":-0.2943219681498895,"120":0.17776224474434824,"121":0.10391572611962646,"122":-0.06579131254735932,"123":-0.019721405467427525,"124":0.10860864440878275,"125":-0.26807816004674695,"126":-0.023879488276593162,"127":-0.1219938160157269,"128":0.21329699415371928,"129":0.10597347768839291,"130":0.08313076891454653,"131":0.11375331975099508,"132":0.19432606472680772,"133":0.021712767424654122,"134":-0.017288544825669952,"135":-0.017367975252193104,"136":0.04766738939302967,"137":-0.020710493201154142,"138":-0.1459330017119108,"139":0.1654264205752892,"140":0.012556377822863006,"141":0.0556325937994888,"142":-0.07860318668216314,"143":-0.0757562390177156,"144":-0.007582937493445031,"145":-0.03525614907457441,"146":-0.12723967655637966,"147":-0.06945926741568714,"148":0.13294311889630078,"149":-0.13257707936105512,"150":-0.22399046819674273,"151":-0.11358936538127141,"152":0.13990978022133116,"153":-0.13342047340256963,"154":-0.23083859319394456,"155":-0.0356584480877223,"156":-0.06340268018604038,"157":-0.17553229116818486,"158":-0.12837482377448964,"159":-0.29012345193489497,"160":0.24471740508164636,"161":-0.015966490406463363,"162":-0.19737963067146588,"163":-0.1254808080735616,"164":0.13051771197450832,"165":-0.2543957498467571,"166":-0.20078961254133412,"167":-0.17540793651527567,"168":0.11496615895236592,"169":-0.16490973897315614,"170":-0.10541606672370508,"171":0.01657004475416787,"172":0.10772798092954074,"173":-0.08614421498365318,"174":-0.021379279431305954,"175":-0.17664723887789144,"176":-0.02691102103786756,"177":-0.05511544142346848,"178":-0.14558482905728265,"179":-0.1178109030670687,"180":0.10275997779400346,"181":-0.2636461783935627,"182":-0.15246540554657048,"183":-0.22162824451463917,"184":0.16675220195855778,"185":-0.02202998118690135,"186":-0.2030588771936957,"187":-0.022395779513588635,"188":0.1501657041704064,"189":-0.2887211094001559,"190":-0.14990793251236803,"191":-0.29865434736356256,"192":0.055463451916348626,"193":-0.21080490220540515,"194":-0.11868862090952642,"195":-0.13555133568060135,"196":0.08249295896754777,"197":-0.24602117737830279,"198":-0.06101215056711195,"199":-0.36015912133153}},{"sx":5,"sy":5,"depth":8,"w":{"0":-0.0933102630591767,"1":-0.10076228274373056,"2":0.12663893930120362,"3":-0.17534687914911493,"4":-0.13812991304993283,"5":-0.002247980641788607,"6":0.05269014223155131,"7":0.10843882849980836,"8":-0.08532085182333089,"9":0.09832267774432767,"10":0.219211290957538,"11":-0.14445442113377255,"12":0.11737221611227674,"13":-0.04776205380872938,"14":0.014339678280153454,"15":0.10156252713865503,"16":0.15421646515674803,"17":0.3009836219751189,"18":0.18826591180696736,"19":0.14272699917351872,"20":0.05892441315305345,"21":0.011437843887648234,"22":0.06945219948255364,"23":0.21141484070242283,"24":-0.10271780952137576,"25":0.12992920962024662,"26":0.2016405918280871,"27":0.2640747048123336,"28":-0.077359508466107,"29":0.20833921885188747,"30":0.13921085161014757,"31":0.13622634492001437,"32":-0.0074720718041622605,"33":0.28398360263719286,"34":0.47030377293172837,"35":0.35109946628180816,"36":0.0502894287029468,"37":0.40751498588078167,"38":0.1473040513772688,"39":0.2280308121603505,"40":0.07548914215945864,"41":0.17606974626399333,"42":0.14096530198159798,"43":0.04604000581407923,"44":0.32806322249308056,"45":0.06144538959588903,"46":0.032990961542397175,"47":0.03426451935915648,"48":0.4900925289880318,"49":0.2709037641572574,"50":0.18766538679670308,"51":0.22434285231903034,"52":0.2502566673809192,"53":0.02676987181921685,"54":0.10918168847003527,"55":0.060270966266329204,"56":0.1965306752557681,"57":0.2944704261862551,"58":0.07954828115885323,"59":0.22045242887970135,"60":-0.005798848206039839,"61":0.2235989088301701,"62":-0.015007950902540576,"63":0.0798916283611066,"64":0.1578600809890335,"65":0.08651884977319102,"66":0.12231515450690886,"67":0.16694652976670896,"68":0.076098082478195,"69":0.19481354650365898,"70":0.05510573225594951,"71":0.0472136300896316,"72":0.32345938677127134,"73":0.2530796688610228,"74":0.10869463000384982,"75":0.40189495971404754,"76":0.32986816432855837,"77":0.33453156209803536,"78":0.17767726541030052,"79":-0.08625198103824294,"80":0.3433495922958703,"81":-0.07496154283665885,"82":-0.19184234602316502,"83":-0.12153169889261818,"84":0.3466764920315869,"85":0.004243735431211783,"86":-0.027728650157686933,"87":-0.32721860921900847,"88":0.42272808090161074,"89":0.05407586451378064,"90":-0.25342577363017077,"91":-0.1303104436568044,"92":0.13189281450885054,"93":-0.034826623187918404,"94":-0.08684294949739098,"95":-0.3071128861135791,"96":0.11370702886035906,"97":-0.2035387051334521,"98":-0.2895102902124411,"99":-0.20195362313702447,"100":0.019527526922703944,"101":-0.16005798704809066,"102":-0.2552871737219019,"103":-0.4022137313794182,"104":0.1386691601701406,"105":-0.1518278319092524,"106":-0.3249715302694074,"107":-0.2012537415949279,"108":0.08583281367371144,"109":-0.18520693426835405,"110":-0.3137594442106129,"111":-0.4192344172442917,"112":0.3242457490625774,"113":-0.19779699887710064,"114":-0.2898487533925541,"115":-0.1316459151173571,"116":0.05025758847278423,"117":-0.2732888829427704,"118":-0.1382375001793816,"119":-0.3681436615705387,"120":-0.028859774432514394,"121":-0.18792828955296434,"122":-0.24820939764680866,"123":-0.5374248458555472,"124":0.008216345917752969,"125":-0.2966575347999759,"126":-0.1685201361022251,"127":-0.10840866967869815,"128":0.01487889999114213,"129":-0.21498815126702273,"130":-0.2654934297189483,"131":-0.4255321672209071,"132":-0.12279832065784377,"133":-0.1672156377965999,"134":-0.3038789625620199,"135":-0.25141503081295324,"136":-0.3485627699928437,"137":-0.27607123274662976,"138":-0.1703933633408581,"139":-0.4741565846776388,"140":-0.15878501021994323,"141":-0.3793082653717515,"142":-0.33661737177859535,"143":-0.2181032482566793,"144":-0.13915864360145164,"145":-0.31241816198647177,"146":-0.38792543659040213,"147":-0.4651290327916592,"148":-0.10346183202777692,"149":-0.4004618810165218,"150":-0.28971432714909323,"151":-0.19282941820165797,"152":-0.001521820655028229,"153":-0.3654580423241166,"154":-0.21668496482879135,"155":-0.3669534524449491,"156":-0.17813890515766748,"157":-0.24047311595689588,"158":-0.2586486373439467,"159":-0.2869123408486562,"160":-0.25866374203817233,"161":0.10391470906538028,"162":0.10161470788618712,"163":0.05462905093136453,"164":-0.13065464266431973,"165":-0.13958382170992825,"166":0.024591747653151974,"167":-0.02468192111375081,"168":-0.12604004987508016,"169":-0.013377083022028889,"170":0.2737588028745854,"171":-0.11110417825434618,"172":-0.03821600116357699,"173":-0.047921982237528894,"174":-0.06181322175222762,"175":0.20930111629192977,"176":-0.2602947171654245,"177":0.0022271873227657315,"178":0.1085775405456412,"179":-0.016445230973580083,"180":-0.25499187994208533,"181":-0.018880255746679234,"182":0.021865984677486336,"183":0.07745000439117501,"184":-0.15451216345016544,"185":-0.026791075605907308,"186":-0.1019395440445943,"187":-0.13724540546082967,"188":-0.13076753459240137,"189":-0.030332682486438126,"190":0.034213586479407976,"191":-0.03628173577911292,"192":-0.15558264954321388,"193":-0.16072696475701184,"194":-0.11120450472382117,"195":-0.381886841764735,"196":-0.1837660427253025,"197":-0.22075295893145658,"198":-0.11603092730500095,"199":0.0023151809137681558}},{"sx":5,"sy":5,"depth":8,"w":{"0":0.16620666773832876,"1":-0.24854438503756995,"2":-0.27972847924683025,"3":-0.32913394009456326,"4":0.09157330618359413,"5":-0.27772385693498536,"6":-0.2686521127165152,"7":-0.3729848824675911,"8":0.2068054848717391,"9":-0.07644992557573263,"10":-0.09344408616694122,"11":-0.13118726382396376,"12":0.18230960341055572,"13":-0.22810650397134236,"14":-0.13708895036398583,"15":-0.23864777952285887,"16":0.031641972462277485,"17":0.0204985249075906,"18":-0.09428428623072158,"19":0.01959088535538652,"20":0.10304557611913184,"21":0.0976922021617669,"22":0.08099491003604603,"23":-0.16144300833169786,"24":0.08754036735744218,"25":-0.05589626096511476,"26":0.1434297510610192,"27":0.15464724924343942,"28":0.059039192192988886,"29":0.3006128094692331,"30":0.05384347928984091,"31":-0.06017515758890206,"32":0.08837301181172343,"33":0.1322971922560464,"34":0.19195775044392052,"35":0.1935142621430256,"36":0.2231622907698141,"37":0.21498677791409063,"38":0.09098122805814043,"39":0.12254532691570606,"40":0.04393033698305772,"41":-0.18364897817508338,"42":-0.0861275659546629,"43":-0.38467837495225393,"44":0.13961246905756383,"45":-0.4089809128029489,"46":-0.24051509067469087,"47":-0.17383850420097982,"48":0.11258854771799078,"49":-0.15990068088147447,"50":-0.08375792069065624,"51":-0.20377189292053283,"52":-0.010436882692912814,"53":-0.2879799343769423,"54":-0.16884958469832803,"55":-0.12883489898652067,"56":-0.10473151042403578,"57":-0.13374972262187154,"58":0.01938639253070383,"59":-0.048489022111227034,"60":-0.03344633608605274,"61":-0.21383010899371085,"62":-0.0742438748573685,"63":-0.17859245306725235,"64":0.08068517736182498,"65":0.06582296521671825,"66":0.11409499575763976,"67":0.016679099757771144,"68":-0.09816439265380238,"69":0.018254973494825258,"70":-0.08292739401260048,"71":-0.017363057767872413,"72":0.2119926660840981,"73":-0.013550984876420908,"74":0.05380719299299837,"75":0.005134617756637685,"76":0.08555138566268669,"77":-0.07135231407033407,"78":-0.02355379621014399,"79":-0.12323971009764521,"80":-0.048439037518356584,"81":0.1024299261946667,"82":-0.12303423157954776,"83":-0.18428898664767757,"84":0.19911242044630406,"85":-0.22137924597997566,"86":-0.044052514270405435,"87":-0.049661687908001656,"88":-0.034163083694763785,"89":-0.0930736989444015,"90":-0.10902091192368124,"91":-0.15666002190688325,"92":0.15956127196784292,"93":-0.17094680195812845,"94":-0.20560363082977895,"95":-0.19076896081470812,"96":0.030066128135096463,"97":-0.08944718766348429,"98":0.1269967603128004,"99":-0.06473106710359967,"100":0.010272837743464458,"101":-0.087009945708713,"102":-0.03936386384136472,"103":-0.21590034512905873,"104":-0.07567681466495398,"105":0.05563848374565161,"106":0.10147367611829144,"107":0.029143883570855473,"108":0.06381412518800973,"109":-0.0440433057608302,"110":0.14116958804923585,"111":0.07263601551747818,"112":-0.10067116157557425,"113":0.1703505674939772,"114":-0.016113421086372374,"115":0.04051983829462267,"116":0.12316573372234728,"117":0.06552870595752591,"118":0.062205973537294776,"119":0.030835258299558754,"120":0.09645869151356622,"121":0.15295690365948722,"122":-0.07942464531717305,"123":-0.017630305539812166,"124":0.12474118211917806,"125":-0.10888961424691039,"126":0.1156073957337021,"127":-0.024587063512794355,"128":0.25835383544429646,"129":-0.060300948065788326,"130":-0.08393752580560006,"131":-0.16702946246359407,"132":0.125683922474053,"133":-0.16451060220557545,"134":-0.11889972740598871,"135":-0.1747142062907639,"136":-0.09959051259208718,"137":-0.21301406904635706,"138":-0.10559158766604097,"139":-0.07714518186013376,"140":0.08804848144975629,"141":-0.20970225371908258,"142":-0.10055915514375001,"143":-0.42089750727241254,"144":0.2275173160760553,"145":-0.017548257017163036,"146":-0.009158769402986622,"147":0.07877547614990923,"148":0.18070725493976622,"149":-0.052954582718575074,"150":-0.046290608044030984,"151":-0.4047545640399002,"152":0.4094112337278486,"153":0.09663099121903093,"154":-0.12323767526084152,"155":0.036273377340184106,"156":0.27880995976361866,"157":-0.09176767454718128,"158":-0.11247536116293702,"159":-0.25992216246663613,"160":0.05882494037701833,"161":0.07863702712883006,"162":-0.06844467001772656,"163":0.03221437089693207,"164":0.15455831899495512,"165":0.1169356273125729,"166":0.11978607821877565,"167":0.032949051392609396,"168":0.14513394153979228,"169":-0.03984698010792911,"170":-0.09962371273886225,"171":-0.017913885102888882,"172":0.11310196114633485,"173":-0.1937179473541878,"174":0.003698903928321903,"175":0.025087361791201083,"176":0.016860969511278148,"177":-0.19542676009194607,"178":-0.38602385533527733,"179":-0.1899159158920265,"180":0.18079743321245245,"181":-0.2792049062609596,"182":-0.31899177877445195,"183":-0.5109452810709388,"184":0.2830666949397556,"185":-0.13295697485186583,"186":-0.36786243921157635,"187":-0.272486248343244,"188":0.2229986610842615,"189":-0.4726689079009231,"190":-0.3190262882813376,"191":-0.3761048333766254,"192":0.3702253904037767,"193":-0.23659038489532924,"194":-0.22204776158986128,"195":-0.36497531820335777,"196":0.01617308819425076,"197":-0.22698997145336466,"198":-0.17883658136301178,"199":-0.21622532814437384}},{"sx":5,"sy":5,"depth":8,"w":{"0":-0.06199407641012236,"1":-0.011763927958218264,"2":-0.08592122092733949,"3":-0.0032376351803997095,"4":0.07809035677882453,"5":-0.1577759718521464,"6":0.029423216059131996,"7":-0.07513306711894772,"8":0.20753833634173896,"9":0.05878189264096247,"10":0.08947083296227429,"11":0.05112277284197182,"12":0.016987517651297683,"13":0.17613081616982904,"14":0.07448941316268932,"15":-0.02855953153712383,"16":-0.015288725489034542,"17":-0.10050234928035678,"18":-0.03469950356731497,"19":0.03470569360656941,"20":0.13414340139839692,"21":0.2001719562620411,"22":0.11494732108231599,"23":-0.07600049998255848,"24":0.10057998780885605,"25":-0.023709238016926478,"26":-0.09610232094844734,"27":-0.09325332934832876,"28":0.014026649002265095,"29":0.06289367683059892,"30":-0.10775206279721372,"31":-0.14641034512635895,"32":0.15164927990252577,"33":-0.0932296258178359,"34":-0.32499916673253904,"35":-0.15013535539816072,"36":0.22322516797807476,"37":-0.09287157426775623,"38":-0.138634891093048,"39":-0.23954874337382695,"40":-0.0416133139441385,"41":0.034390390756598825,"42":0.12551642813925612,"43":-0.122318024846065,"44":0.057969118501700834,"45":-0.08960018012810556,"46":-0.012155869685330672,"47":0.05860748597830865,"48":-0.0007723671926380935,"49":-0.02896196376479264,"50":0.10055234057344556,"51":0.02315741446203743,"52":-0.008747023490816349,"53":0.025956439227577628,"54":0.041553901236561754,"55":0.004539099257254963,"56":0.06630108275297397,"57":0.022199397583057955,"58":0.04578184813852944,"59":-0.021557523977659643,"60":0.02365948089634312,"61":0.03625917360967815,"62":-0.021165287508946348,"63":0.04033202078103928,"64":-0.04241219447009715,"65":-0.08595702921093941,"66":-0.26248767443648624,"67":-0.19598993947959034,"68":0.06504370103583942,"69":-0.04683557269430067,"70":-0.0754729449566521,"71":-0.11784989200357825,"72":0.0835084916422916,"73":-0.12213633430054179,"74":-0.20188652416310154,"75":-0.3626446777979718,"76":-0.11739663976547779,"77":-0.2820139074000102,"78":-0.19279914883107357,"79":-0.07835740473436702,"80":-0.06373955404723389,"81":0.02351766582157735,"82":0.0093501112386408,"83":0.05777019837752211,"84":-0.011144671098750386,"85":-0.04960207512794093,"86":0.0681309957498484,"87":0.019905037634487147,"88":0.003713498045528105,"89":0.10631478701601083,"90":-0.08731994428842783,"91":0.017892275165597913,"92":0.08268183282416625,"93":0.06963238556934821,"94":-0.07830081158382045,"95":-0.003442518908636999,"96":0.09205025708967039,"97":0.12396509327787306,"98":-0.11468381170915158,"99":-0.06183552078275617,"100":0.036686614443380075,"101":0.07078866647893824,"102":0.08980089054213884,"103":-0.05142365089893677,"104":-0.03315690066142144,"105":-0.1589602711177109,"106":-0.20507692544417155,"107":-0.05673086292152976,"108":0.019508329596506068,"109":-0.20336028972901374,"110":-0.20300712331906978,"111":-0.3061630358870776,"112":0.023671606538712628,"113":-0.3750745012845905,"114":0.025898140041294346,"115":-0.276459492050406,"116":-0.10112945360354116,"117":-0.2249255155766428,"118":-0.22090437836291413,"119":0.041732302982999694,"120":0.07906638184389374,"121":0.11065991921562851,"122":-0.13377145796928377,"123":0.10333019419277786,"124":0.1347434718860326,"125":-0.054651573618480664,"126":-0.037070630012026304,"127":-0.002566402748841737,"128":0.1982894005285568,"129":0.05335508118588979,"130":-0.14681184071219497,"131":0.06709467556632216,"132":-0.013846568423622961,"133":-0.005868477879251696,"134":-0.1253882484361377,"135":-0.06492141984045263,"136":0.2079961119626162,"137":-0.15707801107889474,"138":-0.27945461007766825,"139":-0.11412164013663113,"140":0.08917618152936997,"141":-0.24028588611728516,"142":0.058802368472616405,"143":-0.18016466768405856,"144":0.03243927601797958,"145":-0.1104024809051375,"146":-0.09876722742109365,"147":-0.33604644509088294,"148":0.014113896020458497,"149":-0.10378100371294635,"150":-0.20631293716858304,"151":0.014148532691975626,"152":-0.2959135099116284,"153":-0.058889602028090265,"154":0.13351012452233818,"155":-0.019249633833771724,"156":-0.303506779226419,"157":0.12330425894199197,"158":0.22291252119490632,"159":0.16472433747126272,"160":-0.1169119081671052,"161":-0.13702885630000688,"162":-0.05175051959551045,"163":-0.10620409875172734,"164":-0.15111460901620571,"165":0.023225085141153328,"166":-0.0689414520319271,"167":-0.03299976087242746,"168":0.018586833826593603,"169":-0.03342395578555107,"170":0.006255259544047912,"171":-0.1148428559944863,"172":-0.12266366523034013,"173":-0.0086556589391701,"174":0.029539043797515742,"175":-0.11818891187508065,"176":0.015272490690007662,"177":-0.13574127396531496,"178":0.03035895295061562,"179":-0.13466810974373403,"180":-0.13550304550452635,"181":-0.008543994048708915,"182":-0.05593163582320084,"183":0.08267464072834259,"184":-0.3011675474410052,"185":0.0018070278686771145,"186":0.29999777484368534,"187":-0.19463873757711353,"188":-0.3350771485952986,"189":0.1257272412030359,"190":0.2604294493387511,"191":0.17221114637380225,"192":-0.45015322959328075,"193":0.1816968736915023,"194":0.32176369796554094,"195":0.19552747177327315,"196":-0.029799789673453057,"197":0.31643201960795525,"198":0.1262984751059202,"199":0.394967588912065}},{"sx":5,"sy":5,"depth":8,"w":{"0":0.020215809864821854,"1":0.28366703567369106,"2":0.260713209302455,"3":0.30141038854751195,"4":0.2523531140544124,"5":0.07043063420157578,"6":0.12852984217163,"7":0.20090723438710162,"8":0.4283180494689071,"9":0.24202799222018326,"10":0.0802672567386358,"11":0.28820040645043676,"12":0.4911134316466816,"13":0.10968930092091281,"14":0.18980975082733645,"15":0.13078678813682848,"16":0.36119719223337726,"17":-0.00904561211274229,"18":-0.09000997053592298,"19":0.06915176851911589,"20":0.13655053989807495,"21":0.11774747597566612,"22":-0.06680045643265696,"23":-0.15416204333897127,"24":0.23774758203926513,"25":0.034072142045836126,"26":-0.14181979244386314,"27":0.16728236982470415,"28":0.15379270452756538,"29":0.04060028572057892,"30":-0.08543017627464125,"31":-0.2569623895089473,"32":0.48929313182306405,"33":0.21869898258950723,"34":0.13598316223924775,"35":0.21548558459756642,"36":0.443469132680547,"37":0.36340952487096323,"38":0.04378346016238947,"39":-0.19520231779736125,"40":0.22741121672530606,"41":0.32393328475650346,"42":0.1705105530019724,"43":0.13550769718192965,"44":0.3433924048632846,"45":0.027480049149828076,"46":0.1667470162106386,"47":0.1229264450896924,"48":0.26549486498160085,"49":-0.018354782421364676,"50":-0.07922420729051324,"51":0.0720771366800242,"52":0.18208453906982172,"53":0.0822150598995104,"54":0.18990105354155515,"55":0.08019678193774162,"56":-0.10577082277709977,"57":-0.2580379787891776,"58":-0.2748436227361289,"59":-0.2139626752330552,"60":0.01791452985895476,"61":-0.09763839627910445,"62":-0.09156572279893556,"63":-0.1309428072955935,"64":-0.10907160771859857,"65":-0.2354288225405096,"66":-0.26264693507111675,"67":-0.19437710139810369,"68":-0.08950822741877852,"69":-0.1413043246486613,"70":-0.19322917529832084,"71":-0.21997447685360155,"72":0.07060930713532781,"73":-0.1897634111438355,"74":-0.07463896729003634,"75":-0.11442938148215154,"76":0.1214488112030335,"77":-0.07980941098180866,"78":-0.19402185504972827,"79":-0.33207170090053395,"80":0.2076107574501123,"81":0.2012438268058146,"82":0.03480356738957153,"83":0.11801812129166944,"84":0.032397094538268056,"85":0.02981147765785369,"86":-0.00960411459835453,"87":-0.06246674228662778,"88":0.10154383301049894,"89":-0.0889455274667314,"90":-0.19551567642412165,"91":-0.06307689742422833,"92":0.1105516993610732,"93":-0.07600807128932535,"94":0.03190428171344818,"95":0.031777931265645425,"96":-0.12793136540304484,"97":-0.1034427547834685,"98":-0.09374807458377078,"99":-0.2788738567289472,"100":-0.22414001694222702,"101":-0.21281758348737198,"102":-0.22664939219718377,"103":-0.18686240929576128,"104":-0.31203437109657506,"105":-0.07441289003911321,"106":-0.10232961494761585,"107":-0.22281424837500657,"108":-0.23984246828823977,"109":-0.24244980558739126,"110":-0.07579348675109271,"111":-0.01918545080232709,"112":-0.1223099385561847,"113":0.0016770677333303797,"114":0.052938965785447926,"115":-0.024820128403149257,"116":-0.22438834650410555,"117":-0.14834032224041857,"118":-0.15172316291213944,"119":-0.006295678655749308,"120":0.15898547631087512,"121":-0.06693667548426598,"122":-0.23040690853825868,"123":0.0005788471661093825,"124":-0.009192827943638373,"125":-0.0891626500695881,"126":-0.04907630891390331,"127":-0.06981342909454082,"128":-0.05311809975733112,"129":-0.1954602759487363,"130":-0.21997372951141322,"131":-0.2547037476105031,"132":-0.07343941259919316,"133":-0.2822508028833084,"134":-0.17793749133618528,"135":-0.16606951343913767,"136":0.033261613692270396,"137":-0.30198618704944086,"138":-0.017729674280789923,"139":-0.2646780430630695,"140":0.02027977343041381,"141":-0.17356070273576754,"142":-0.29779835635811647,"143":-0.16587808189260378,"144":-0.046975972052696095,"145":0.047967182410115855,"146":-0.0651931968691946,"147":0.07573075655018148,"148":0.04249985131644321,"149":-0.08160452319048375,"150":-0.009031265820733807,"151":-0.08819908464523739,"152":0.19357566910536503,"153":0.0204048621134067,"154":-0.18889093592075348,"155":-0.03385889658738308,"156":0.0955035747802011,"157":-0.1947908831300456,"158":-0.09641109174494329,"159":-0.22318526274209838,"160":-0.05226968832009066,"161":-0.11782816631492521,"162":-0.02994431843272557,"163":-0.1215395621232926,"164":-0.0009069737209238508,"165":-0.11327575681220473,"166":0.06641015627051743,"167":0.10201310448401911,"168":-0.006008403195117174,"169":-0.10987400732976524,"170":-0.06688822952675809,"171":-0.3034875167390478,"172":-0.04075673642200739,"173":-0.10420410382475033,"174":-0.0370801808443672,"175":-0.048531361825223336,"176":-0.05110087997938318,"177":-0.0989665802445567,"178":-0.06418122646097517,"179":-0.1474442918082793,"180":0.054578862334112646,"181":-0.18883448227140265,"182":-0.1793930891345998,"183":-0.20274300650013952,"184":0.17970701149059287,"185":-0.019663350623083477,"186":-0.2679689424991959,"187":-0.24940473405703964,"188":0.08179511285473282,"189":-0.17090481002605062,"190":-0.10352076943859609,"191":-0.04973985793588262,"192":0.0379278189331105,"193":-0.08037793622193726,"194":-0.21896579086175993,"195":-0.12101768405515469,"196":0.06440674041774713,"197":-0.06579116880898134,"198":-0.11543397436848382,"199":-0.08241623696044004}},{"sx":5,"sy":5,"depth":8,"w":{"0":0.03631322362436395,"1":0.02448230231486209,"2":0.026762929964462542,"3":0.12829906726120757,"4":-0.07878127563226732,"5":0.10310630363040942,"6":0.04125928164306837,"7":0.059597244062710886,"8":0.3017749255200757,"9":0.11014153724779421,"10":-0.06679518439116978,"11":0.07145646666515314,"12":0.12550295267013364,"13":0.09616039220239599,"14":0.10324081744832084,"15":-0.03554651808570783,"16":0.3759530378528422,"17":0.075837439909542,"18":-0.19453555229096836,"19":0.05332562969889368,"20":0.4259399234028229,"21":0.0020820598248539875,"22":-0.08023769627860658,"23":-0.2983339679307858,"24":0.42191147451895683,"25":-0.09924418194549503,"26":-0.26706049569351986,"27":-0.014605576662116935,"28":0.3021839975512259,"29":-0.09021344916950137,"30":-0.070710310375706,"31":-0.049896356023920736,"32":0.05957450772344051,"33":-0.13278505408564012,"34":0.17966130488618764,"35":0.05341491690205162,"36":-0.023876046427403017,"37":-0.06298862449062716,"38":0.11831802394963223,"39":0.0969047690549843,"40":-0.09997442165717478,"41":-0.07908064126991383,"42":0.019872872231381466,"43":-0.002034310616938073,"44":-0.09400558081517686,"45":0.08082768953838286,"46":0.02370951123028865,"47":-0.01879796800968851,"48":-0.09112875756366612,"49":0.06030217466960642,"50":-0.12217555866178273,"51":-0.009396271171678842,"52":0.06952594599138183,"53":0.0005700338131879813,"54":-0.09139860508824678,"55":-0.1333225363503864,"56":0.01623210995950201,"57":-0.1658114982231227,"58":-0.4480525217693241,"59":-0.358648020613263,"60":0.13125241312761055,"61":-0.34143153558689193,"62":-0.21526800900505288,"63":-0.23393351421814226,"64":-0.01784440538962646,"65":-0.2637394361896508,"66":0.11962432142023538,"67":-0.3665146780965776,"68":-0.06892374429265721,"69":-0.27364089626554344,"70":-0.2135500589216413,"71":-0.11531698269816963,"72":-0.4153385125659804,"73":0.03969277377234725,"74":0.5100890774091374,"75":0.16673946656481478,"76":-0.35476195447627046,"77":0.31111809104091864,"78":0.13967319885717275,"79":0.35200327047427876,"80":-0.3154061585312272,"81":0.09846460520964481,"82":0.07069993328086491,"83":-0.04109833061540209,"84":-0.17565656686628203,"85":0.13500616577206098,"86":0.03261204066821849,"87":0.07136028473250246,"88":0.13244932819057317,"89":0.014230980734680479,"90":-0.15846025429417238,"91":-0.15705486870491903,"92":0.03084376918038139,"93":-0.07869570767360905,"94":-0.18802524994772937,"95":0.05699172522917306,"96":-0.056922573297348435,"97":-0.4020931273324562,"98":-0.4277237072368741,"99":-0.31998008088899316,"100":-0.13063358082571028,"101":-0.3976523854323029,"102":-0.3970065204877514,"103":-0.4509814464975423,"104":-0.29381951727206007,"105":-0.37160027215417885,"106":0.11170360865579335,"107":-0.3062998156838066,"108":-0.5880360012253223,"109":-0.16738939369474995,"110":-0.060661778344691844,"111":0.008187664220450114,"112":-0.3225301399503537,"113":0.22309344445699414,"114":0.5491349220230998,"115":0.4649788971909526,"116":0.014321625487379325,"117":0.3925342181656832,"118":0.3654493362209645,"119":0.2589140799585251,"120":-0.08695936431034912,"121":0.17755959410688835,"122":0.0810070114887954,"123":0.16915907932280283,"124":0.022626269977264288,"125":0.1792019638312118,"126":0.06658887142343468,"127":0.10917175994109646,"128":0.08091897011599625,"129":-0.05547055680289025,"130":-0.44262311394271137,"131":-0.13083920555727244,"132":0.10465183043805577,"133":-0.08064343385071908,"134":0.10700589855200646,"135":-0.06033326674658867,"136":-0.02975265189396339,"137":-0.5051174016933091,"138":-0.38726435314980007,"139":-0.43943541831110505,"140":-0.3305480277357034,"141":-0.3551025561709161,"142":-0.39097340181826445,"143":-0.27960237330633525,"144":-0.5467027388875132,"145":-0.07540234974564942,"146":0.09029514289645799,"147":-0.13572454102423143,"148":-0.4057983436661512,"149":0.032992159128147,"150":0.007605787672048497,"151":-0.018430085086241988,"152":0.07778931686467258,"153":0.3078908210111523,"154":0.2520458662657096,"155":0.4005649460926686,"156":0.2817464099869605,"157":0.31490492793014113,"158":0.16289186465715824,"159":0.1538475672535156,"160":-0.11261496576279115,"161":0.27488443855052014,"162":0.040489637778066766,"163":0.062131934670979716,"164":0.04384287950533922,"165":0.16548530758315552,"166":0.22007891646676495,"167":0.14671924414146056,"168":0.06524319828878178,"169":-0.10341646741798186,"170":-0.29638431163093976,"171":-0.13999222637946424,"172":-0.09667994142591148,"173":-0.18173710978594038,"174":-0.0868993155722235,"175":-0.10053682011178756,"176":-0.3380796739988218,"177":-0.3822871269630917,"178":-0.15551019512704117,"179":-0.211267372435528,"180":-0.37298331309033717,"181":-0.07293848225525798,"182":-0.16746619911419433,"183":-0.1682365979182222,"184":-0.5766339446901625,"185":-0.0618495906842932,"186":0.1612233010156871,"187":0.02684731192886057,"188":-0.1297056242816064,"189":0.17827364611073743,"190":0.011647421333667115,"191":0.062129337431161905,"192":-0.02382944591570041,"193":0.19151948386842066,"194":0.129452629696385,"195":0.17088181200086358,"196":0.14124539619700438,"197":0.09980438751832243,"198":0.21011216158510093,"199":0.26544204702204893}},{"sx":5,"sy":5,"depth":8,"w":{"0":0.16926333060163237,"1":-0.3165816784259921,"2":-0.24264983871477222,"3":-0.3256989112604807,"4":-0.016310197958552687,"5":-0.2605356870288779,"6":-0.1637543608834455,"7":-0.29905812181189,"8":-0.18798191785015067,"9":-0.1795563477567963,"10":0.1536986160165154,"11":-0.06967921205965749,"12":-0.1738790569190783,"13":-0.008418194652373144,"14":-0.07646235643401164,"15":0.048166157272638704,"16":-0.19945885841628533,"17":0.07083594769283796,"18":0.01343243130992988,"19":0.07596299282007768,"20":0.13001923526320816,"21":0.04839466934491953,"22":0.13811755738680617,"23":0.04930495538503798,"24":0.2747595167012352,"25":0.14088862757665818,"26":-0.044333974948408905,"27":-0.07254075002887109,"28":0.2269735943760693,"29":-0.16575803106366405,"30":-0.04318164717126155,"31":-0.1754593718093404,"32":0.4027870756031026,"33":-0.07176919207106504,"34":-0.2637741308390837,"35":0.010409482465926743,"36":0.23088265574478012,"37":-0.08901612070126419,"38":-0.05310621786752196,"39":-0.3268582301149469,"40":-0.08551922931977171,"41":-0.3065317056477629,"42":-0.028119435303333842,"43":-0.14743633044817836,"44":-0.26828324932730246,"45":-0.12881564941594106,"46":-0.2800382546320235,"47":-0.11073094749998359,"48":-0.37328267181873204,"49":0.1036443910301386,"50":0.3403321889229964,"51":0.06639844192052212,"52":0.0002686726911001359,"53":0.09301094614945701,"54":0.10697403180781798,"55":0.09737125491771141,"56":0.20051977191787929,"57":0.3348730255296103,"58":0.15654688091373845,"59":0.07943197715803849,"60":0.33369632134936106,"61":0.15525952028414278,"62":0.3404777735399223,"63":0.22994183019114395,"64":0.3334620012013301,"65":-0.0788551343338355,"66":-0.22079231459636006,"67":0.07706401894018136,"68":0.17614740895372116,"69":-0.04722628173695447,"70":0.07801700623099274,"71":0.06191187262786225,"72":0.26800376741565,"73":-0.10221814893900984,"74":-0.22347212676117323,"75":-0.2513769624309066,"76":0.069632704231852,"77":-0.09676517205079932,"78":-0.08235850957789158,"79":-0.07242587097235648,"80":-0.2813525171543231,"81":-0.2085291383319796,"82":-0.0725857539946813,"83":-0.40661544776455816,"84":-0.5036223202346757,"85":-0.12446499999608361,"86":-0.11724154540265656,"87":-0.05671773030701498,"88":-0.07181642073688327,"89":0.15834235202405714,"90":0.3073920480382514,"91":0.10917642467231709,"92":0.1055762444219929,"93":0.07668867235026532,"94":0.22297629470043362,"95":0.052433012551992404,"96":0.09868272121104033,"97":0.35109829351745414,"98":-0.051769044066945616,"99":0.09706357134139505,"100":0.21525849613527637,"101":-0.07736712459536231,"102":0.11445190338998587,"103":-0.0256188736950728,"104":0.07811906808065366,"105":-0.02884892301558166,"106":-0.38610676329891164,"107":-0.1804597183525976,"108":0.028161472289254055,"109":-0.07905998106723752,"110":-0.021099032431021326,"111":-0.05150687663645883,"112":-0.09695046699322078,"113":-0.29125769633566595,"114":-0.21750846409644495,"115":-0.30539598082191594,"116":-0.2439307631741983,"117":-0.3536904977854981,"118":-0.24664231344315862,"119":-0.18539510892682798,"120":-0.4457963807491285,"121":-0.022105921064759886,"122":0.10920608931524813,"123":-0.024642206959702755,"124":-0.1437855668060579,"125":0.042238601079540444,"126":-0.037065067560531656,"127":-0.14078610716214082,"128":0.051058017479443926,"129":0.2545583752729553,"130":0.13694705329822274,"131":0.09844018718655832,"132":0.32816843681501034,"133":0.15938058097464572,"134":0.15783016834691552,"135":0.06005139406640668,"136":0.3920781343470969,"137":0.10848051046404768,"138":-0.22651705997064084,"139":0.06656087685187742,"140":0.14589643426328028,"141":0.0412381993810031,"142":0.15014989979396653,"143":0.06171709993562315,"144":0.03866182628603348,"145":-0.2926278068086444,"146":-0.315772666565759,"147":-0.1506501622377357,"148":-0.19973018555850325,"149":-0.22058107115483402,"150":-0.28757140141618376,"151":-0.24988565031768314,"152":-0.21087520092855166,"153":-0.38743561969156887,"154":-0.11981090189486722,"155":-0.45319159981426016,"156":-0.20411721845546574,"157":-0.20745602652128053,"158":-0.3974782147724864,"159":-0.2849012991792703,"160":-0.30634429402792435,"161":0.3891309575445328,"162":0.24910757493087746,"163":0.23700440130305483,"164":-0.10637789376112441,"165":0.22681475247552726,"166":0.09457074469744513,"167":0.17250445503791542,"168":0.2717681048297444,"169":0.2726331824897192,"170":-0.0654468812051078,"171":0.2167264649318669,"172":0.1332194673935712,"173":0.18438587802239134,"174":0.35351003788624147,"175":0.21427057700607027,"176":0.2317134812907573,"177":-0.03937198162327738,"178":-0.40539265856721685,"179":-0.10079892801076283,"180":0.13889492871983578,"181":-0.11343111010017472,"182":-0.00746231978527171,"183":-0.13637790011837583,"184":-0.010898755448714282,"185":-0.24093635885198228,"186":-0.35264998594286484,"187":-0.5166136360852485,"188":-0.10389301166339883,"189":-0.3435813638746478,"190":-0.3288473680651511,"191":-0.2725669524923188,"192":-0.12534743645849025,"193":-0.22494560589743565,"194":-0.06019396067773091,"195":-0.19290991543230654,"196":-0.15091878141961823,"197":-0.274038866526303,"198":-0.212878544996747,"199":-0.18257121013510483}}],"biases":{"sx":1,"sy":1,"depth":16,"w":{"0":-0.032540340939710345,"1":-0.07777636616889574,"2":-0.05236539830542799,"3":0.1308753494889549,"4":-0.021379887631970195,"5":0.03336285458472524,"6":-0.07203923334394453,"7":0.18233947578713608,"8":0.04633519918940567,"9":0.052818438666464386,"10":-0.09503247224163987,"11":0.12666074403847494,"12":-0.005151987398259917,"13":0.010880916867958144,"14":-0.11675115016499213,"15":0.06064875191980879}}},{"out_depth":16,"out_sx":14,"out_sy":14,"layer_type":"sigmoid"},{"sx":3,"sy":3,"stride":3,"in_depth":16,"out_depth":16,"out_sx":4,"out_sy":4,"layer_type":"pool","pad":0},{"out_depth":10,"out_sx":1,"out_sy":1,"layer_type":"fc","num_inputs":256,"l1_decay_mul":0,"l2_decay_mul":1,"filters":[{"sx":1,"sy":1,"depth":256,"w":{"0":0.05301679653027507,"1":0.09668639609163641,"2":0.07001059103915208,"3":0.13896993549702064,"4":0.0449242831520799,"5":-0.002422841989121718,"6":0.05889497603820415,"7":0.15297795127817213,"8":0.07146750123788029,"9":0.04067196005321608,"10":0.17663797120978794,"11":0.041253795913335244,"12":0.04849677734224996,"13":0.1344429229191535,"14":0.04803656607100447,"15":0.25367474021223996,"16":0.11136284916623462,"17":0.03903075514905945,"18":0.008590543738298569,"19":0.2473293690633447,"20":0.1318984833377661,"21":0.12122614857772822,"22":-0.013003311312390464,"23":0.20284358632045552,"24":0.07652359322718015,"25":0.057628994475807604,"26":-0.020402191884646943,"27":0.12046496923262971,"28":0.07341882339262913,"29":0.01718753765581851,"30":0.18783222227544985,"31":0.027809686833511555,"32":-0.09833378005348743,"33":0.010757892347842038,"34":-0.08549585210147899,"35":-0.12647053782057335,"36":-0.11493996316542922,"37":-0.03670642915154468,"38":-0.10291979627604166,"39":-0.11046881501242219,"40":-0.2653080683488255,"41":0.028524334872402708,"42":-0.18908239537638097,"43":-0.3125451837876302,"44":0.1950473636209956,"45":-0.1929902643729522,"46":-0.04604634306318767,"47":-0.2586811631712396,"48":0.20820407448356712,"49":-0.1299559402872557,"50":0.08280301240673361,"51":0.18347334294716175,"52":-0.2834165197091407,"53":0.05873490170554158,"54":0.08777277136716793,"55":-0.007947024148244703,"56":0.14056313814522375,"57":-0.00023576459369653558,"58":-0.12512630557227464,"59":0.19656792829732797,"60":0.014542911255226682,"61":-0.02527182272367143,"62":0.052893567863304736,"63":0.11882098791006182,"64":-0.07042222728699951,"65":0.07003213822269583,"66":0.013427826532495114,"67":0.049243972275106754,"68":0.12159466730581037,"69":0.11078372285550393,"70":-0.06323234000553364,"71":0.0553109066682454,"72":0.07659427943475108,"73":-0.018756713288726308,"74":-0.04332176705990818,"75":0.048854585145333786,"76":-0.008548941430334663,"77":0.08789121187367296,"78":0.266721054893295,"79":0.13274563901913417,"80":-0.37067457858421293,"81":-0.10365360920405549,"82":-0.09811928087146286,"83":-0.07206189058146625,"84":-0.1953717137300587,"85":0.13030428723587645,"86":-0.16919500651500552,"87":-0.0776784898891092,"88":-0.0359872798337284,"89":-0.12390642780393434,"90":-0.23335896408891948,"91":-0.14391615902127108,"92":0.0528061334756907,"93":-0.09230306537359512,"94":0.17553810014513263,"95":0.17496725032515265,"96":0.13778230760231439,"97":-0.03861066833476091,"98":-0.07247572695272692,"99":0.18275736308719925,"100":0.08552012143216826,"101":-0.3447667438842068,"102":0.16480680404819387,"103":-0.1440578973473493,"104":-0.14491968950285578,"105":-0.008270097086236916,"106":0.14534586026756915,"107":0.03401531344871381,"108":-0.29230302966115757,"109":0.05696748123790916,"110":-0.08260942139091523,"111":0.05595400184148544,"112":-0.5180505116531178,"113":-0.020011837068726727,"114":-0.3534507761833003,"115":-0.5106287524229052,"116":-0.6267800767997406,"117":-0.13113498822899686,"118":-0.2214982233628456,"119":-0.27457876681160176,"120":-0.09158296136541894,"121":-0.20020975313724962,"122":-0.5315218141223577,"123":-0.20524215872235313,"124":-0.16012893465052824,"125":-0.39069881308870597,"126":-0.09405268177201621,"127":-0.34439029606952504,"128":-0.09888665794882744,"129":-0.16720023207426915,"130":-0.13534388721129792,"131":-0.12849983956685262,"132":-0.3072790381651159,"133":-0.14963517310024416,"134":-0.040550463827845135,"135":-0.22462668695465465,"136":-0.7084633605906716,"137":-0.11914149894406197,"138":-0.3333007046724505,"139":-0.12460938092551734,"140":-0.10100275107712471,"141":-0.33399627644131147,"142":0.11831532843852102,"143":-0.3023783074041444,"144":-0.7999025459427883,"145":0.010902035171723156,"146":-0.06912202611337528,"147":-0.4851505309972443,"148":-0.04581200596659175,"149":-0.10486346921381087,"150":-0.32654122297848015,"151":-0.22318628489930312,"152":0.2549057091270729,"153":-0.058124433397943216,"154":-0.18169946366322862,"155":-0.17538273087088813,"156":-0.11886136776277195,"157":0.002591153159792395,"158":-0.4056943040581553,"159":0.6130345107186597,"160":0.10654922401610067,"161":0.12931067054692932,"162":0.2618712500394258,"163":0.4840691523122579,"164":0.21693777176708007,"165":0.3216104099149605,"166":0.2869589206964176,"167":0.07590715408377124,"168":0.35286508097224767,"169":0.07085365716519913,"170":0.2257525213854652,"171":0.08753850969745647,"172":0.2437028123554657,"173":0.4409816323655584,"174":0.6893035990240214,"175":-0.062385452697855906,"176":-0.4022925550063762,"177":-0.04415041911221821,"178":-0.4246085783675169,"179":-0.5953276447817497,"180":-0.25621134239047,"181":-0.28907891828564997,"182":-0.287168147197959,"183":-0.37688075756714895,"184":-0.31669311758456875,"185":0.08006586250647947,"186":-0.3019757616856669,"187":-0.2862852655914978,"188":-0.16187320365334676,"189":-0.3118726846643162,"190":-0.2097696010852556,"191":0.0390228529233851,"192":0.06074402006734004,"193":0.012768793702993476,"194":-0.1472500242098873,"195":0.06492277109368066,"196":-0.15923901624142994,"197":-0.09145950659614056,"198":0.14771254401054285,"199":0.047756393801362755,"200":-0.7238902999479501,"201":-0.0681404770623547,"202":-0.016510556672389112,"203":0.061845365095080436,"204":-0.0916444045769632,"205":-0.06237094536423951,"206":0.1669841415326676,"207":-0.2533111178171513,"208":-0.057622711294659915,"209":-0.08538177755455441,"210":-0.4486552009242255,"211":-0.2769667086242086,"212":-0.3451740755929608,"213":-0.3274412043230582,"214":-0.1480236160330858,"215":-0.20220266072217663,"216":-0.0911155595650837,"217":-0.09639245963679872,"218":-0.18170695014633745,"219":-0.02868734751527194,"220":-0.1549770399069772,"221":-0.5372523196979982,"222":-0.5607881140486715,"223":-0.3810793763208502,"224":-0.10260465508543139,"225":-0.002705613505726688,"226":-0.22650985755511022,"227":-0.34465490539520377,"228":-0.03135457670237697,"229":-0.24127672083012905,"230":-0.2521371255822088,"231":-0.35270731018816237,"232":-0.05536196571308422,"233":-0.0038387554570189133,"234":-0.0067741252326990985,"235":-0.11550334742232944,"236":-0.04409887733987423,"237":-0.3787224443590891,"238":-0.08915235405463895,"239":0.01042406119486872,"240":-0.07503428869918956,"241":-0.024967719104870736,"242":0.13479704943124887,"243":0.08576686585813686,"244":0.2533080892988321,"245":0.14659923514381235,"246":-0.028059265412867584,"247":0.16471013509835322,"248":0.18578972128909466,"249":-0.12876993507857226,"250":0.2651579406606173,"251":-0.13095937193979795,"252":0.05280796227130324,"253":0.14832983513798617,"254":-0.03910360622041837,"255":0.2702321194378824}},{"sx":1,"sy":1,"depth":256,"w":{"0":-0.11249803693260446,"1":-0.20274329776350095,"2":-0.04410263585277998,"3":-0.17985561052008717,"4":-0.15876283325765722,"5":-0.09059822143308167,"6":-0.04606843492572157,"7":-0.14002140975744343,"8":0.04291288162645586,"9":0.03550953969686134,"10":-0.07817647994541482,"11":-0.12214375373230198,"12":-0.1512025875441685,"13":-0.07301313458086142,"14":-0.24283354725388764,"15":-0.09098951034514355,"16":-0.010709980979611134,"17":-0.11336103588288159,"18":-0.02351876662542845,"19":-0.10075639191806583,"20":0.1715448593761332,"21":-0.08237076248335366,"22":-0.06072795743982196,"23":-0.08794259489011463,"24":0.12807822478063968,"25":-0.09085266254087761,"26":0.3495420005032677,"27":-0.058631985468988394,"28":-0.2561665931664535,"29":0.1032041311548246,"30":-0.08867894692932661,"31":0.08500562864640168,"32":-0.07438076690883076,"33":-0.020879535959205622,"34":-0.12954407622927372,"35":-0.12684100334245552,"36":-0.06628752718162512,"37":-0.00518990720689594,"38":-0.014141954956681996,"39":-0.1612942421556493,"40":-0.023993655425957834,"41":-0.08220788138746282,"42":-0.027390743987508473,"43":-0.04198237428855916,"44":-0.07750615022430372,"45":-0.09928497666423142,"46":0.041375814152635436,"47":-0.027386752335750376,"48":-0.1825936768098971,"49":-0.07541283462468794,"50":-0.0651525525675873,"51":-0.25292647657482775,"52":0.05457917840367667,"53":-0.06447271587767794,"54":-0.11841939577784134,"55":-0.2360961879906547,"56":-0.057338645085325886,"57":-0.10273886733120172,"58":0.22720200185386585,"59":-0.14418902180581478,"60":-0.15721074758946596,"61":-0.12953726868817922,"62":-0.09818331997183938,"63":-0.19812903245450808,"64":-0.37060632471937455,"65":-0.05206139843533509,"66":-0.06499713971163776,"67":-0.08298368585952039,"68":-0.1846603478907034,"69":-0.1827307645973419,"70":-0.16847294055265835,"71":0.11592202304841177,"72":0.19545888407211223,"73":-0.02040145220356131,"74":-0.1343661025633164,"75":-0.21186738680882375,"76":-0.20886603798909723,"77":0.03141902737298159,"78":-0.5029171487012138,"79":-0.005132341749968727,"80":0.10979444119489365,"81":0.1192096960238736,"82":0.06313782690721957,"83":0.2940747594311304,"84":0.18644018945368632,"85":0.1928855614172008,"86":0.1426745592395693,"87":0.3288602261921641,"88":0.27033283392892543,"89":0.37506205473447723,"90":0.2437729581695021,"91":0.27873934443470366,"92":0.06188863892700222,"93":0.3587005129467651,"94":0.07666857069430565,"95":0.36055346331415367,"96":-0.45016616899054285,"97":0.16662079323696907,"98":-0.03743882431392785,"99":0.026968504889752984,"100":-0.33572268694043716,"101":0.18616001500833634,"102":0.02533576879359889,"103":-0.09457354203684769,"104":-0.014530410579514399,"105":0.010852919950523388,"106":-0.31559003495917914,"107":-0.10167735055452433,"108":0.09820828403534382,"109":-0.03960071674265805,"110":0.29823571597389426,"111":0.45526769944912115,"112":0.025621623342512678,"113":0.12769472661710973,"114":0.06722677544980186,"115":0.09296970175269775,"116":-0.1858320185202147,"117":-0.014977347463678412,"118":0.03577761929297955,"119":0.09887011012851833,"120":-0.05618173870745543,