{"net":{"layers":[{"out_depth":1,"out_sx":28,"out_sy":28,"layer_type":"input"},{"sx":5,"sy":5,"stride":1,"in_depth":1,"out_depth":8,"out_sx":28,"out_sy":28,"layer_type":"conv","l1_decay_mul":0,"l2_decay_mul":1,"pad":2,"filters":[{"sx":5,"sy":5,"depth":1,"w":{"0":0.3341885465909913,"1":-0.14701515799278586,"2":-0.06687107639827315,"3":-0.09648441984261087,"4":0.188577777611584,"5":0.08768951033891212,"6":-0.5989648882254275,"7":-0.5157238747574804,"8":-0.35036507239175235,"9":-0.5749072376732496,"10":0.4129902171419408,"11":-0.10135390814856172,"12":-0.29417191786975483,"13":-0.24153368273206202,"14":-0.3003828020024818,"15":0.567175068835343,"16":0.21621723171119522,"17":0.31283939528942334,"18":-0.26282025598996406,"19":0.13207572942932805,"20":-0.2207448254215862,"21":-0.09005435833788819,"22":0.44286683206673183,"23":0.5430137028205184,"24":0.48811996155840376}},{"sx":5,"sy":5,"depth":1,"w":{"0":-0.10208002879166188,"1":-0.03133419827194669,"2":0.13806941345378168,"3":0.24008227765441795,"4":-0.283653904785183,"5":-0.018897875336768524,"6":0.1561815138660244,"7":0.30840483114570194,"8":-0.29097496280044033,"9":-0.005906401124311332,"10":0.29700160637053824,"11":0.26985323856425447,"12":0.38386698648237927,"13":0.13589981829200345,"14":-0.040474899988992424,"15":0.20136029174407977,"16":0.33106254723798345,"17":0.14881463377370902,"18":-0.08638970858484547,"19":-0.14078291800857726,"20":-0.228257939416459,"21":-0.3522885721850768,"22":-0.05299998827726303,"23":0.0221624282575708,"24":0.006635882660152534}},{"sx":5,"sy":5,"depth":1,"w":{"0":-0.26337178985258275,"1":-0.10557735020780676,"2":0.017522771003170484,"3":-0.09948673251386943,"4":-0.3298297704332739,"5":-0.003644951147547372,"6":-0.15991683526064296,"7":-0.006051616804927711,"8":-0.08598343509768286,"9":-0.07283162819485997,"10":-0.05798890861777238,"11":-0.07554759421445197,"12":-0.0377554931438854,"13":-0.12040498645904672,"14":0.07684425080310481,"15":-0.019456977592163322,"16":-0.1728481177175553,"17":-0.115709222982623,"18":-0.09810307625751599,"19":-0.22811430243945074,"20":-0.11948235087739209,"21":0.03392282869401508,"22":0.12789306810605683,"23":-0.34575331519259567,"24":0.15707947492962718}},{"sx":5,"sy":5,"depth":1,"w":{"0":-0.08490890448020802,"1":-0.1365886243197996,"2":0.11077996858823778,"3":-0.14415771155038457,"4":-0.3773580868468337,"5":0.20888816675026609,"6":0.23589502490405748,"7":0.026241066332601218,"8":-0.3297121026180945,"9":-0.47652001540797295,"10":0.2700438898897073,"11":0.4980497345754399,"12":0.12098621482791135,"13":0.024461270867445654,"14":-0.01299669392548861,"15":0.3777167147590387,"16":0.4380720402876387,"17":0.5221466712205481,"18":0.11283606790237308,"19":-0.3617924938329278,"20":-0.34540828255093753,"21":0.27364289959675797,"22":-0.10691871335343643,"23":0.2585895286405278,"24":-0.07197616819185423}},{"sx":5,"sy":5,"depth":1,"w":{"0":-0.10907939110943779,"1":0.04185461628475224,"2":-0.2185880579412901,"3":-0.3574613855223105,"4":-0.20987485941734307,"5":-0.01108613064263004,"6":-0.16077345228492723,"7":-0.6356703058689562,"8":-0.06740213229975882,"9":-0.18621175806413484,"10":0.0917672064552828,"11":-0.4732183080341535,"12":-0.36428118257690106,"13":-0.07759155336543518,"14":0.028001591011479948,"15":0.18173017557429913,"16":0.9353430940335467,"17":0.0469185719433284,"18":0.07061723481465147,"19":-0.08584787196743689,"20":0.14116483115502,"21":0.4513125995421185,"22":0.33680964245437284,"23":0.46089010532709535,"24":0.1389532535725331}},{"sx":5,"sy":5,"depth":1,"w":{"0":0.06806647856846382,"1":-0.15186785888866472,"2":-0.10857888331492448,"3":-0.18289688288457912,"4":-0.22660161122325986,"5":0.1484589920895255,"6":0.37734029921335055,"7":0.6679346806372413,"8":0.5010723396378634,"9":0.5497239243169084,"10":-0.010856825797990998,"11":0.16103738525175884,"12":0.24085645742861522,"13":0.45126211844987013,"14":0.3137139740364969,"15":-0.2825530834911794,"16":-0.23473480632544597,"17":-0.5983973117774192,"18":-0.0457905561258661,"19":0.46190896186114644,"20":-0.5899826826487884,"21":-0.9185082291653979,"22":-0.34136490812027964,"23":0.012534672720431598,"24":0.7121775870648615}},{"sx":5,"sy":5,"depth":1,"w":{"0":0.3220725537611112,"1":0.3129693886408097,"2":0.2740002975852889,"3":0.11837311966233666,"4":-0.05749613481349662,"5":0.38362063084975506,"6":0.21170557472771634,"7":0.07381045943993808,"8":-0.12190460044868932,"9":0.19929046729549652,"10":0.2784842540140515,"11":-0.33891518503630347,"12":-0.7915910672025962,"13":-0.1391481534945395,"14":-0.1878780136320103,"15":-0.33763108077052956,"16":-0.48123088213196596,"17":-0.4938946029584248,"18":0.1563648616576482,"19":0.34665708322492844,"20":-0.3493457485417186,"21":-0.46696419799129435,"22":0.06670393910940722,"23":0.458328758349525,"24":0.2790246566678735}},{"sx":5,"sy":5,"depth":1,"w":{"0":0.19544777733239105,"1":-0.2319485584997459,"2":0.1500993545473504,"3":0.2292977985136715,"4":0.3145776409424365,"5":-0.3730615566386952,"6":-0.07928724985537296,"7":0.1308399929318462,"8":0.33692210114660015,"9":0.352501203831645,"10":-0.28641353088869836,"11":-0.3789979065449205,"12":0.10405776129120031,"13":-0.05411490271729731,"14":0.3575683917760869,"15":-0.3415533559274123,"16":-0.5754825741498502,"17":-0.4142850558512284,"18":0.01176482712994187,"19":-0.15498056210099537,"20":0.28611126941817205,"21":-0.14556962604435922,"22":-0.3455628568686611,"23":-0.6256863080482957,"24":-0.48009728510336847}}],"biases":{"sx":1,"sy":1,"depth":8,"w":{"0":0.05954167235910072,"1":-0.0009781544446324487,"2":0.11690866848249798,"3":-0.026484675473312316,"4":0.0634043185343169,"5":-0.07237608022541847,"6":-0.08666305362609542,"7":0.09655206270235028}}},{"out_depth":8,"out_sx":28,"out_sy":28,"layer_type":"relu"},{"sx":2,"sy":2,"stride":2,"in_depth":8,"out_depth":8,"out_sx":14,"out_sy":14,"layer_type":"pool","pad":0},{"sx":5,"sy":5,"stride":1,"in_depth":8,"out_depth":16,"out_sx":14,"out_sy":14,"layer_type":"conv","l1_decay_mul":0,"l2_decay_mul":1,"pad":2,"filters":[{"sx":5,"sy":5,"depth":8,"w":{"0":0.04974128201561653,"1":0.05261957026378453,"2":-0.0476777375298919,"3":0.026014156785666123,"4":-0.06449127726448221,"5":-0.36690835833039703,"6":-0.14521216766608044,"7":-0.14434057747545723,"8":0.008819411578651038,"9":0.08602226550622293,"10":-0.03741041649974261,"11":-0.11359754329362556,"12":0.01885625905017493,"13":-0.05424383413596248,"14":-0.027103421636003013,"15":-0.29956686639145846,"16":-0.11148483994835531,"17":-0.16517084152071868,"18":-0.16903593708496475,"19":0.1015106132001807,"20":0.04121127559940269,"21":-0.07524052624422581,"22":-0.015623784827127634,"23":-0.22816607019910334,"24":-0.2122243310971764,"25":-0.0756106534437483,"26":-0.15760634299870224,"27":-0.04782793443612743,"28":0.004493964039634135,"29":-0.27731936189931927,"30":-0.1744954153277142,"31":0.049567822758897796,"32":-0.09180224003583233,"33":-0.15476612976398324,"34":-0.13816731652453929,"35":-0.1806459184119636,"36":-0.2490491021221713,"37":-0.0137441052660639,"38":-0.0884828187797716,"39":0.10924156284009762,"40":0.05009963009490505,"41":0.2070419736991317,"42":0.003192622028400834,"43":-0.03848742482582015,"44":0.10132777390410906,"45":0.03549094540353719,"46":-0.12527054153705883,"47":0.022350316197295987,"48":0.04224166711926721,"49":0.03934968873313263,"50":-0.0009656737707014664,"51":0.1367084496542394,"52":0.08694070170626711,"53":0.13052674653117796,"54":-0.176828612376397,"55":0.05641856520784774,"56":0.009064079775718529,"57":0.08295528238675041,"58":-0.09686145107061701,"59":0.1305979234693942,"60":0.05953790669026398,"61":-0.07184400757369244,"62":-0.1990521228213192,"63":-0.156015943754272,"64":0.21416167199260616,"65":0.10743681751827326,"66":0.0965295235836512,"67":0.21658662207430882,"68":0.22874599151226982,"69":-0.21265477143154868,"70":-0.203719748219746,"71":-0.11963769635990672,"72":0.07473758230431202,"73":-0.14014769117770332,"74":-0.151270379964505,"75":-0.07980681802764643,"76":0.2860504325053882,"77":-0.062433113672213936,"78":-0.13863669238054724,"79":0.15202464861783888,"80":0.1235175440443515,"81":0.026600779698697806,"82":-0.013937611295024573,"83":0.0213245073747655,"84":0.1654594609868202,"85":0.040365474342356746,"86":-0.07984040908290105,"87":0.08846526558935298,"88":0.055483445914374284,"89":0.02351011703587161,"90":-0.06206908732287765,"91":0.013479570946973765,"92":0.06974574015568627,"93":0.14682401770901346,"94":-0.09441124349973444,"95":0.12706190117111035,"96":-0.14988046789972262,"97":0.15936044063811894,"98":-0.062197361813350005,"99":0.08198949037889254,"100":-0.18902045573671458,"101":0.13620805259002922,"102":-0.006858951719526051,"103":-0.10837857311920647,"104":0.007764895749964044,"105":0.11229103069799108,"106":-0.14680332758883655,"107":0.11565220092751897,"108":-0.009282061239473303,"109":0.4837663196196675,"110":-0.01133314017163302,"111":-0.10852540302648714,"112":-0.006611562414523591,"113":0.0785324363666202,"114":-0.11744449889616479,"115":0.2068752499933312,"116":0.02415603719308184,"117":0.21224549863923958,"118":-0.23955356928359345,"119":0.16458383026379275,"120":-0.12398299038422918,"121":-0.05771613295074677,"122":0.07688498267801426,"123":-0.204777776090381,"124":-0.23411112681623852,"125":0.06351228059952445,"126":-0.07339128211738248,"127":-0.027435969789985182,"128":-0.1051944069940832,"129":-0.029693620085825656,"130":-0.03126240307967373,"131":-0.10595207877595965,"132":-0.05200823943600512,"133":-0.3578382372914311,"134":-0.11392379217197293,"135":0.0040429909984562185,"136":-0.07241472702482869,"137":-0.0632923256707979,"138":0.04997649737058199,"139":-0.1164446344800317,"140":-0.07107962352479139,"141":-0.045621746445529056,"142":0.15775896339863404,"143":-0.08709514832863784,"144":-0.27113415793559387,"145":-0.0946238884752991,"146":0.01168881697873426,"147":-0.2468903396560103,"148":-0.30137355053918435,"149":-0.03327981120370395,"150":0.2609268288227735,"151":0.16636835945513326,"152":-0.16492625559222787,"153":-0.16297401121945612,"154":-0.036197106851741136,"155":-0.1487526730271233,"156":-0.34699587180192315,"157":0.15160877114275045,"158":0.15070674428802994,"159":-0.00040481789549747817,"160":0.007409820705869123,"161":-0.23338734346299153,"162":0.016678007948974647,"163":-0.16189366341552613,"164":0.08008841790581561,"165":0.1305342486316147,"166":0.008382366432628765,"167":0.2572185085410394,"168":0.09492942342057352,"169":-0.12186782920517818,"170":0.08289535205697571,"171":-0.13597028727350263,"172":0.11646361605390193,"173":0.19897291766342387,"174":0.0875255307482095,"175":-0.036559167209038464,"176":0.14299447027096396,"177":-0.17307125022048372,"178":-0.01938731992128701,"179":-0.14184724423733816,"180":0.024258147034160158,"181":-0.18040558875934412,"182":-0.030757198325570008,"183":-0.196891848548321,"184":-0.09443982487197379,"185":-0.22885332712602333,"186":0.11193584409523694,"187":-0.3367263477451084,"188":0.043777521989899496,"189":-0.11210201213749772,"190":0.15580099973310185,"191":-0.391591355187985,"192":-0.3281535710248837,"193":-0.21462639564375088,"194":0.08121107543818187,"195":-0.14627649406060647,"196":-0.21625694875023055,"197":-0.24830549182222234,"198":-0.08754144038977489,"199":-0.34225075223800777}},{"sx":5,"sy":5,"depth":8,"w":{"0":0.1216211699179203,"1":-0.25841258471911305,"2":0.1383625966073821,"3":-0.09523724322148881,"4":0.07338581546894855,"5":0.03840178608999249,"6":0.08062964126021871,"7":0.243243831346174,"8":0.1705785892023757,"9":-0.06043040077040762,"10":0.06347209250447734,"11":0.056990007860604465,"12":0.034519646250072145,"13":0.02476562480399172,"14":0.09321855077535296,"15":-0.12043467218560502,"16":0.1081525114963831,"17":-0.1250603273487701,"18":0.004954048113205895,"19":-0.1478731846688699,"20":0.1478930877762858,"21":-0.08219956552396612,"22":-0.05052940620094357,"23":-0.2041856996012102,"24":0.030575783013615753,"25":0.053007476757182946,"26":0.06414685905325965,"27":0.004685040820380713,"28":-0.10299948501142663,"29":0.10520177235883439,"30":-0.07775139519098094,"31":-0.038510416587908616,"32":-0.3695851846990562,"33":0.0858423875960443,"34":0.10024067571458901,"35":0.14408470290018055,"36":-0.04360863801369497,"37":-0.020238434791066684,"38":0.00437612579668334,"39":0.18378655494312995,"40":-0.09459111116951274,"41":-0.05970528162676471,"42":0.1284224770284194,"43":0.05789306148301717,"44":-0.06904066977222013,"45":0.18962882328506053,"46":0.022031998262823708,"47":0.02834741164330093,"48":0.023488860295156903,"49":0.09266178177938054,"50":0.06125488008732953,"51":-0.009463509679363344,"52":-0.07952185907661505,"53":0.07703722071782156,"54":0.08413321469525258,"55":-0.0630189885702796,"56":-0.04206275935420486,"57":0.195173178139298,"58":-0.058350958578158606,"59":-0.015641505993089045,"60":-0.034105609200986625,"61":-0.022362839639690775,"62":-0.010639274927963528,"63":0.06102776508955446,"64":-0.11200515284198745,"65":0.1348758694130473,"66":-0.025894629601902506,"67":0.04356558052416549,"68":-0.01810320073402095,"69":-0.14895109034985363,"70":-0.10004554880106711,"71":0.026564223604819366,"72":0.030624661910108698,"73":-0.014404459510708807,"74":-0.06624277774529484,"75":-0.11262776119655091,"76":0.013796090828668521,"77":-0.09207892475687514,"78":0.05376261500991185,"79":-0.1475574935412681,"80":-0.35622147946691085,"81":-0.15883917528048777,"82":0.12415548153285681,"83":-0.12023252567658321,"84":-0.36032096769950234,"85":0.12815795226222623,"86":0.076667959615069,"87":0.24996200533573842,"88":-0.15908022945984981,"89":-0.041963153053204694,"90":-0.04230915727233543,"91":-0.11836690329981515,"92":-0.3034043023463845,"93":0.2755078127552887,"94":-0.1892646482544563,"95":0.22961698200070318,"96":-0.16202771256736986,"97":0.14170151383578466,"98":0.04122625419606184,"99":-0.09712040302022226,"100":-0.1742804965173163,"101":0.025800774940599985,"102":-0.03695692455755052,"103":0.09919699748959686,"104":-0.1547340279794648,"105":0.224847203332641,"106":0.047715283213846965,"107":0.05482212322637028,"108":-0.10554143989150377,"109":0.05799659289937633,"110":0.0005074949203484991,"111":-0.12519856505251273,"112":0.016459501457815703,"113":0.011959914297171716,"114":-0.11227590425086668,"115":-0.18135788053467913,"116":0.07821439061842225,"117":-0.031396622022649104,"118":0.09385545615117628,"119":0.1363260692656638,"120":0.2068563872651198,"121":-0.42845855013225637,"122":-0.06827846649884431,"123":-0.15342755514750872,"124":0.09595775625173955,"125":-0.15342256204636884,"126":0.040557430693843786,"127":0.26561942932708615,"128":0.10632457282115981,"129":-0.11140460307223231,"130":0.10006737810724738,"131":-0.27156373268621486,"132":0.12451371669705741,"133":0.033204752457485505,"134":-0.008918153200044857,"135":0.30573187456566997,"136":0.02773097083766873,"137":-0.12964475615544618,"138":0.02297565043948919,"139":-0.2915682301150525,"140":0.028874652938745464,"141":0.045497272778114245,"142":-0.16100337832380576,"143":0.09194197685423819,"144":-0.13205661259798335,"145":-0.06106409407201762,"146":0.022201588842385857,"147":-0.2547413201291644,"148":0.05849221460801062,"149":0.06957946951960967,"150":0.016570363217799176,"151":0.20330127132146245,"152":-0.11254060075683098,"153":-0.0747960602749758,"154":0.02139012881259619,"155":-0.24820291607545103,"156":-0.2389524211471908,"157":0.011028704971036113,"158":-0.08332110556127921,"159":0.22562383757952176,"160":0.12515889253271242,"161":-0.08414977402900359,"162":-0.009480859945034956,"163":-0.12087885298756056,"164":0.008228570209159989,"165":0.1846691903019685,"166":0.08093650879203464,"167":-0.17985971087299557,"168":0.027541837698836263,"169":-0.024861433813485385,"170":0.1280253712267721,"171":-0.05180400894813507,"172":0.09856204693560874,"173":0.0036805398512153907,"174":-0.1811095941093803,"175":-0.20344816911232802,"176":0.04021322686715669,"177":0.04552771133254197,"178":-0.09317719335120195,"179":-0.06616295243616167,"180":0.1529955304849988,"181":-0.3090527791664172,"182":-0.10563251321033636,"183":-0.029857805346908666,"184":0.18090923802994227,"185":-0.059076551585139025,"186":-0.08972788276283329,"187":0.052973284698534094,"188":0.2642168392416713,"189":-0.24409338138075176,"190":-0.2143923586447332,"191":0.07536839332096712,"192":0.13744946071838524,"193":-0.2597351276998383,"194":-0.04448914630375902,"195":-0.048047312855501165,"196":0.20571321728011743,"197":-0.339719744068976,"198":-0.10865824256234126,"199":-0.10589943318685245}},{"sx":5,"sy":5,"depth":8,"w":{"0":-0.2272259339659502,"1":0.15847098407779933,"2":0.08209767312389693,"3":0.03663146024422988,"4":-0.1296710203444717,"5":0.2292573837877323,"6":0.0935463985378162,"7":0.08615225193918992,"8":-0.09968293348937578,"9":0.15717333801296302,"10":-0.05065595441404603,"11":0.08009970233058794,"12":0.025942848757396036,"13":-0.06232394560597339,"14":0.012133538396443969,"15":-0.009409323084657495,"16":-0.2010901491020233,"17":0.09414478553958736,"18":-0.006243334375042761,"19":0.05000042902547477,"20":-0.04708833865857201,"21":-0.02253180954384828,"22":-0.06794213037517072,"23":-0.28393889105502884,"24":-0.2107734589413305,"25":0.10711858629900593,"26":-0.1712840111641045,"27":0.20884861475674474,"28":-0.15671292801381267,"29":-0.007099488728771638,"30":-0.0301768219867305,"31":-0.13348347708410158,"32":-0.18673852003357408,"33":0.11104271656340625,"34":-0.1350404405879261,"35":0.07210085492940231,"36":0.07011448514554332,"37":-0.3557536732384676,"38":0.032961207296008085,"39":-0.18463172505658065,"40":-0.15860388141037424,"41":0.06304776992516672,"42":-0.04015618401031094,"43":-0.13927998979355835,"44":-0.12877744043907616,"45":0.2112677400755736,"46":-0.0720401993306439,"47":-0.00758521191421447,"48":-0.0009814164621344008,"49":0.07059166655982434,"50":0.023852630741628786,"51":0.058844204176913086,"52":0.04219286025854463,"53":-0.02166435246952891,"54":-0.13261302004283942,"55":-0.0527422557511226,"56":-0.1532121877140039,"57":-0.029002608112801642,"58":-0.019465189682415937,"59":0.0036885524874027556,"60":-0.07691655346594646,"61":0.0741497650661373,"62":-0.01135423713317891,"63":-0.07567345915215473,"64":-0.21934468727994252,"65":-0.044002409786859514,"66":0.040030885547337566,"67":0.18541326111826542,"68":0.03884724776519159,"69":0.22892307885736715,"70":0.1138890931466513,"71":-0.14613728716300137,"72":-0.1683352690483355,"73":-0.03176556387621875,"74":0.012616136207180821,"75":0.04545943249575716,"76":-0.12583708414568376,"77":-0.3518713688101167,"78":-0.331378057379727,"79":-0.032847517713253935,"80":-0.20182446524421493,"81":-0.10016215218114777,"82":-0.03079185925894577,"83":-0.20670416088772253,"84":-0.14626170709474615,"85":-0.08155263439262027,"86":-0.021373030535545973,"87":0.283643129265005,"88":-0.23899200711008936,"89":0.03367321457178865,"90":0.06226247428992905,"91":0.0859478097496229,"92":-0.17122707883816807,"93":-0.04053413842848706,"94":-0.2640840766882546,"95":0.22320333477364798,"96":-0.22505397601313043,"97":0.08377687237889943,"98":-0.010500513967244503,"99":0.09982978222934814,"100":-0.03349370608081719,"101":-0.0941278425444457,"102":-0.10866926629444336,"103":0.11083763264540342,"104":-0.13501442774448294,"105":0.056838063422998464,"106":-0.14978505184695,"107":0.005535446808150909,"108":-0.16171901610361103,"109":0.2618791082859766,"110":0.007287085913002788,"111":0.07429318496311987,"112":0.11553758978770858,"113":0.09169382702957439,"114":-0.053335634621656185,"115":0.2430747677474205,"116":0.2857192513389167,"117":0.015334983293847755,"118":-0.23837141545258209,"119":-0.024204309924120884,"120":-0.17619533845847363,"121":-0.14518397467491467,"122":-0.0374659412590761,"123":-0.056419925338933204,"124":-0.06858074575225892,"125":0.12042345182521844,"126":0.10283938740490196,"127":0.17541506719805508,"128":-0.06304323323971055,"129":-0.016070357951603248,"130":-0.10687025379333615,"131":-0.1137041567089272,"132":-0.10575471157028235,"133":-0.14091891677261098,"134":-0.09917524938932379,"135":0.22421183408658008,"136":-0.09465456439849101,"137":0.08389752831116415,"138":0.1244790596635433,"139":-0.16103668232263696,"140":-0.11167152872251805,"141":-0.13146170081516104,"142":-0.1488009198561894,"143":0.1906637629749343,"144":-0.3616931547471141,"145":-0.1635078966709166,"146":0.00923790726365003,"147":-0.2872238882407965,"148":-0.32475711837244187,"149":0.2708785320368107,"150":0.19990931170831489,"151":-0.0483948555157727,"152":-0.03850758467388727,"153":0.1327333519368201,"154":0.07879295006539773,"155":0.22384385183718147,"156":-0.10394847283932965,"157":0.1758405487433565,"158":-0.3352683087212195,"159":0.0521239261239993,"160":0.05157907717725437,"161":-0.10406247533878009,"162":-0.009404631599902269,"163":0.06632388651154138,"164":-0.022231062960264673,"165":-0.30182238634726494,"166":0.10360486692889505,"167":0.01976220508210696,"168":0.24554787733114108,"169":-0.07742097404726075,"170":-0.08614890915994564,"171":-0.11295306405883358,"172":0.03588193616021779,"173":0.0035589038727655282,"174":0.12196953232602308,"175":-0.1105154657444723,"176":0.25364196691025315,"177":-0.22053795611344273,"178":0.04604993919899201,"179":-0.2120038591255998,"180":0.09614754331900724,"181":0.1043087179008548,"182":0.02561504984889221,"183":-0.26018237991072035,"184":0.0758519114647719,"185":-0.12767686261499536,"186":-0.022315351497136763,"187":0.0950277337279723,"188":0.06405982106033085,"189":-0.0007723568750421337,"190":0.008441411531659167,"191":-0.3084688147310903,"192":-0.22992098776390202,"193":0.02320865591815103,"194":0.08789549607857376,"195":0.06772168107675669,"196":-0.12956844195055628,"197":0.11841065455249192,"198":-0.2504915260852258,"199":-0.15108493141800985}},{"sx":5,"sy":5,"depth":8,"w":{"0":0.08875798040026117,"1":-0.08953551106151925,"2":0.07631414741784764,"3":0.14729919822070311,"4":0.17945656109191072,"5":0.26407014351448604,"6":0.13855162219684072,"7":0.08960587583356881,"8":0.1190478746634597,"9":-0.10909511561792037,"10":0.026303829939985254,"11":0.04752299702363638,"12":0.2637946837959104,"13":-0.18935486260937764,"14":-0.33482622375779464,"15":0.029596134407438694,"16":0.13517944668188617,"17":-0.11603892789934372,"18":0.10823260624700021,"19":0.00984295131525646,"20":-0.026802266378778108,"21":-0.10148900529360672,"22":-0.10535054230201228,"23":0.05166753974005448,"24":-0.14412348102199876,"25":-0.10176942855109225,"26":0.12555292630937118,"27":-0.36592477621249786,"28":-0.22278835339399836,"29":0.25104090549292984,"30":0.04448912847529377,"31":-0.164572566532945,"32":-0.05715595015183529,"33":-0.10097004637492987,"34":-0.03802390850915729,"35":-0.18675467568549892,"36":-0.22595169099628928,"37":0.0664260793022498,"38":-0.0040412058050579595,"39":-0.2588175989081414,"40":-0.18556268084625904,"41":-0.13457243373678726,"42":0.06670580812887006,"43":0.19287242569130028,"44":-0.0034736322811850695,"45":0.16935480236614808,"46":-0.0345980924722636,"47":-0.016839419945661262,"48":0.05849618471871177,"49":-0.03764848253454354,"50":-0.021895034745561447,"51":0.06208307748227453,"52":0.06239487647171388,"53":-0.22317846536544342,"54":-0.1666830703087054,"55":-0.06618089116665501,"56":0.05056420117304973,"57":-0.12653865705543674,"58":0.11227218323304268,"59":0.09196570425031383,"60":-0.004381330880916054,"61":-0.054387767081649156,"62":-0.14978109618992153,"63":-0.10133474269427245,"64":-0.06029890132232042,"65":-0.1792000417989559,"66":-0.08118404965633891,"67":-0.2118176807112159,"68":-0.037330087059918096,"69":0.319013198916503,"70":0.1107656616910883,"71":0.0098734670010306,"72":-0.037994404819089986,"73":0.01924227770563123,"74":-0.019360391152847597,"75":0.040975051286950205,"76":-0.2610936970928341,"77":0.07267763464701957,"78":-0.10424857588982368,"79":-0.20663468024787754,"80":-0.13403372863680815,"81":0.20199865336018513,"82":0.03282130056834137,"83":0.07346957204370497,"84":-0.1558804832732348,"85":-0.14756802964616542,"86":-0.10994016058745358,"87":0.08021473201593243,"88":-0.10931217125978476,"89":0.12734195160424777,"90":0.028576889763184718,"91":0.018550228984491258,"92":-0.1998568695061134,"93":-0.19634655814703814,"94":-0.0423225253486406,"95":0.07419215178782845,"96":-0.0044463624307039306,"97":-0.2976715634000271,"98":-0.011682882189234661,"99":-0.08660193044580297,"100":-0.037156635871816,"101":0.03612099251407657,"102":0.1082596275587565,"103":-0.08616901725973217,"104":-0.18966668680881682,"105":-0.101604906046843,"106":0.009739584748221217,"107":-0.22466935596781704,"108":-0.2333315372222296,"109":0.3145345011708607,"110":0.2754821835728338,"111":-0.2427271257293373,"112":-0.2312563308152931,"113":0.06627746610301415,"114":-0.1419874522393099,"115":0.1721756823817889,"116":-0.04927148361583083,"117":-0.009909273663325214,"118":-0.21089938396142402,"119":-0.00854344748933846,"120":-0.11468175233865471,"121":0.08027089508173238,"122":-0.013655210836110114,"123":0.19754005860560586,"124":-0.32726535103506216,"125":-0.26650834113993616,"126":0.08224755687176694,"127":-0.12480479236835072,"128":-0.16599654451496818,"129":-0.14898940875036726,"130":0.014284051855163493,"131":-0.061007771537576055,"132":-0.23726856125392382,"133":-0.20682683348453007,"134":0.01001944921826681,"135":0.11560301633718226,"136":0.0005292334128992361,"137":-0.37603745516737624,"138":0.08221506507119716,"139":-0.1610961051873531,"140":-0.026768200794636484,"141":0.04076943014664733,"142":0.055420304815544066,"143":-0.07199322096939721,"144":-0.39917379908665757,"145":-0.008145411712930201,"146":-0.09217644901316684,"147":-0.015066030105792648,"148":-0.29829407338615943,"149":0.33060719510322284,"150":0.08188315392048161,"151":-0.09910540810695184,"152":0.07942191922369636,"153":0.052013853250404196,"154":-0.1020136015057909,"155":0.30424351948802236,"156":-0.02642027614979951,"157":0.018591943466302323,"158":-0.1424321901522597,"159":-0.07272455603717186,"160":-0.006357132948295094,"161":-0.0778583561733202,"162":0.0819544831695904,"163":-0.11719143110222359,"164":-0.18996400446638334,"165":-0.005257513874549767,"166":0.350406941273646,"167":0.13384828403412652,"168":0.0731578932679402,"169":-0.31050662716651256,"170":0.24162958454174557,"171":-0.10000757431074564,"172":-0.06858547207915863,"173":-0.015020036316279873,"174":0.0007448041507374488,"175":-0.028089165031028113,"176":0.19743261010562957,"177":-0.23985701716928925,"178":0.021341373637074224,"179":-0.332195520773544,"180":0.024904877557337113,"181":0.12314332149442055,"182":0.07273755860377328,"183":-0.19227388284031408,"184":-0.2468351688975445,"185":0.0496038635009856,"186":-0.12143976968649715,"187":0.06278941229470048,"188":-0.2555280976893065,"189":0.16215562122688926,"190":0.04265552836260699,"191":-0.048874717712927424,"192":0.017105684136074068,"193":0.17912771708547584,"194":-0.06545047530788847,"195":0.44193880522667495,"196":-0.1074225455086246,"197":0.05576124055442898,"198":-0.20732013647339564,"199":0.03135052404903014}},{"sx":5,"sy":5,"depth":8,"w":{"0":-0.16330903117322776,"1":-0.15028881480614587,"2":0.015273816928101695,"3":0.036931164631201746,"4":0.056482776633051915,"5":-0.238664865692396,"6":0.17866148918944774,"7":-0.01970303662318646,"8":-0.28281179760031244,"9":-0.03647380811051541,"10":-0.20033637232567808,"11":0.16051805790858367,"12":-0.025012353354873184,"13":-0.14139527922929626,"14":0.01504409360029229,"15":-0.009163310934761602,"16":-0.08758737825747788,"17":0.06198600976233309,"18":-0.11937022602084738,"19":0.10553282282343986,"20":-0.211230592211812,"21":-0.14095893085608324,"22":0.14646518257601174,"23":-0.01734495274718664,"24":0.048207550693434485,"25":0.017694984770469723,"26":-0.02916763991757823,"27":-0.03407545056313201,"28":0.06235903330331959,"29":-0.10415725195369982,"30":-0.025138949712490387,"31":-0.02994400939377865,"32":0.09400919605488278,"33":-0.22294879412592666,"34":-0.09005911434414472,"35":-0.12802798166411056,"36":0.0443800906957213,"37":0.12474912511798812,"38":0.05788561181903446,"39":-0.31290821318208667,"40":-0.19785281330898286,"41":0.09826489964128411,"42":0.04043489778261058,"43":-0.06905592006469882,"44":-0.0719664433849378,"45":0.019083709372111353,"46":-0.03113139601918782,"47":0.028665475713843636,"48":-0.08804633332022087,"49":0.12683214482163466,"50":-0.18174283990454257,"51":-0.00538259033376942,"52":-0.057212847860179133,"53":-0.005092421449674585,"54":0.0660718619612561,"55":-0.023578908138804547,"56":-0.002086353374412181,"57":-0.07850793405150132,"58":0.10280609760262358,"59":-0.1466654062132723,"60":0.030957080426365562,"61":0.0022451129463755127,"62":0.2258382260729614,"63":-0.15983375381590553,"64":-0.09865986425024495,"65":0.0363454770807303,"66":0.02476092194925014,"67":-0.03501182525887287,"68":0.08136505856951531,"69":0.09488733836689378,"70":0.033719738581886906,"71":-0.18220881551036539,"72":-0.15689548735023476,"73":0.03574115909698178,"74":0.016058648608096415,"75":0.04375586439681274,"76":-0.0401361381378144,"77":-0.0866208830366929,"78":-0.15656041812042987,"79":-0.13189970176316113,"80":-0.05492622170140648,"81":0.12880116595729735,"82":-0.0670314124215794,"83":0.12499388034092579,"84":0.07966754082014191,"85":-0.025718972550676466,"86":-0.11730177566740228,"87":0.2618006239634502,"88":0.10127145388860395,"89":0.038048712735689265,"90":0.09802006094546765,"91":0.09450345021610933,"92":0.30294156633089925,"93":-0.021413841828816102,"94":-0.197334569050073,"95":-0.04313372543497607,"96":-0.06749614846805277,"97":-0.010604233661513439,"98":-0.14788661815992155,"99":0.048498038364557114,"100":0.25958445087074594,"101":-0.12616822799384295,"102":0.015969063135817363,"103":0.11044863011189508,"104":-0.2192735112289703,"105":0.1936922010372196,"106":-0.10589065533222933,"107":0.23518528334999061,"108":0.1325474509787337,"109":-0.021237153150613693,"110":-0.21039012979576516,"111":-0.016170801133981526,"112":-0.2690831709230489,"113":0.22915311544551314,"114":-0.08504172748516817,"115":0.15671759112668254,"116":-0.19363727470141384,"117":0.38957819365776863,"118":-0.04827363979813826,"119":-0.058478615810783834,"120":-0.03428307550927296,"121":0.175865089420404,"122":-0.04911847443769575,"123":0.01476563637445527,"124":-0.2475804641788089,"125":0.25718492933357634,"126":-0.147544569436478,"127":0.018520903814460525,"128":-0.25880856249618955,"129":0.09347017154499922,"130":-0.15957793514615984,"131":0.0061370588478331985,"132":-0.1623652618995844,"133":0.196287620821026,"134":-0.270857171138417,"135":0.012204086768556926,"136":-0.31412472509766987,"137":0.17059391712733155,"138":-0.15667117755750298,"139":0.0835142830338375,"140":-0.25406859891282657,"141":0.39039174818429184,"142":-0.012742971818060606,"143":0.00229854976159722,"144":-0.18638588828275707,"145":0.05633340310549859,"146":-0.012375623789199984,"147":0.02026648477045067,"148":-0.39593430910584104,"149":0.057901336203139434,"150":0.2653756786062711,"151":-0.2647690099860286,"152":-0.07126140983046762,"153":-0.14759642752584545,"154":0.005723917685624369,"155":-0.15850103866548024,"156":-0.28935410870582257,"157":0.03855312483372614,"158":0.19309304693502347,"159":0.07158411494893233,"160":0.16423641911852943,"161":-0.24752772864811526,"162":0.07458305022901102,"163":-0.12968239957393948,"164":-0.15729257722422216,"165":0.14249859500217515,"166":-0.050132689110564545,"167":0.36301191501719854,"168":0.22444394441164361,"169":-0.23564425669848602,"170":-0.026410230083609765,"171":-0.32965186274693853,"172":-0.05854616491459374,"173":0.0691611447718353,"174":0.08167083945346366,"175":0.005506630799990954,"176":0.2269327749085257,"177":-0.1886222051896783,"178":-0.000832390033650744,"179":-0.2701758877907107,"180":-0.10425764338229865,"181":0.020092731467514224,"182":0.24696020420935164,"183":-0.3830451630922942,"184":-0.11692561051117395,"185":-0.31852064930904284,"186":0.04685197640937853,"187":-0.25899499937521764,"188":0.0579749125415528,"189":-0.07865174121899021,"190":0.28331628083775046,"191":-0.29674293684311237,"192":-0.16528986399608395,"193":-0.1041283660633212,"194":0.044704547970505104,"195":-0.20804338111196055,"196":-0.23247014353551224,"197":-0.23295966945536634,"198":-0.10095928441025334,"199":0.07298843719600957}},{"sx":5,"sy":5,"depth":8,"w":{"0":0.20315986519450527,"1":-0.07067174646718337,"2":0.08013741613657156,"3":-0.21486648083651233,"4":0.12461743871037692,"5":0.14728408483766733,"6":0.2092511408941424,"7":-0.23822987105860371,"8":0.19086026265921083,"9":-0.25151371494612196,"10":0.0735570433397152,"11":0.08612098345121146,"12":0.14444592662739159,"13":0.016864181245243637,"14":0.008637054859273723,"15":0.1081533466201836,"16":-0.017738871918700366,"17":-0.11852368000443135,"18":-0.04002242459922388,"19":-0.11746894189804767,"20":0.19424721333667055,"21":-0.14738596862580033,"22":-0.21417897661646362,"23":0.17372224710237447,"24":-0.06567915571299054,"25":-0.22541678396736833,"26":-0.0588983060799431,"27":-0.13685887084350196,"28":-0.013333518367038017,"29":-0.11912263469107653,"30":-0.15307892671390153,"31":0.09923556839376825,"32":-0.017580925267458785,"33":-0.2552818913654153,"34":0.01566035762158518,"35":-0.30950635517339425,"36":-0.04099398450838844,"37":-0.28345125383461095,"38":-0.09013054840093915,"39":-0.003079540335008362,"40":-0.06112555708931307,"41":0.00855251710155389,"42":0.07416154571729779,"43":-0.13850200569862828,"44":-0.07932194570685387,"45":-0.03176740957981634,"46":0.01921334533707615,"47":0.18391773613685586,"48":0.03787287150000157,"49":0.11700576005245703,"50":-0.027866993803830554,"51":0.2691632135285972,"52":0.1447427850050391,"53":0.07648092378726373,"54":-0.2744169247518713,"55":-0.06306136257517879,"56":-0.02866895858210149,"57":0.1261407920346751,"58":-0.11793238392080611,"59":0.299912859437541,"60":0.05520186657490858,"61":-0.23009065351276065,"62":-0.2698406172061483,"63":-0.029695427246610305,"64":0.0053453583802896,"65":-0.06273837978675258,"66":-0.06140312403968828,"67":-0.13281137915225408,"68":-0.06439539280526982,"69":-0.1836755222684393,"70":-0.21692434992423854,"71":0.03463156557127442,"72":-0.005292959371794403,"73":-0.005468095348890342,"74":0.10523832527142153,"75":-0.024708502731569725,"76":0.13282174083122225,"77":-0.019805314678544652,"78":-0.041048245738701215,"79":-0.00996726369092507,"80":-0.0838432058626564,"81":-0.11325084096064643,"82":0.04177377160828786,"83":-0.2523080453814249,"84":-0.1560190299370178,"85":0.10909691598220618,"86":-0.06649457297536567,"87":-0.09258262607897119,"88":-0.2753404170591415,"89":0.11853575797384033,"90":0.11230529107115952,"91":-0.026451157424702585,"92":-0.13334158161244786,"93":-0.28170875842420756,"94":0.005922949547803668,"95":-0.027916319765988212,"96":-0.012016687018447618,"97":-0.008790079520785896,"98":0.04586499058769383,"99":0.09807903381706418,"100":-0.08323295280723919,"101":-0.27155633366150966,"102":-0.3788294164458496,"103":0.015580808015586707,"104":0.07850531861822056,"105":-0.07532168166677976,"106":0.048746003226787314,"107":-0.037224114818372615,"108":0.08586509439512648,"109":-0.31716802540775735,"110":-0.02702923145647656,"111":0.1447110169307656,"112":-0.06976902598734575,"113":-0.03960105292256489,"114":0.022703591417325295,"115":-0.19336807006903506,"116":0.12689289747530894,"117":0.04579302955228585,"118":-0.22534924513170632,"119":0.04848455741270592,"120":-0.20399714579527695,"121":0.17995268427213534,"122":-0.03754765456599344,"123":0.11238624943748413,"124":0.0014228227982322288,"125":-0.0054492260408115015,"126":-0.5560252935658451,"127":-0.12330440650023662,"128":-0.00705377360647352,"129":0.08992270151345844,"130":0.07645704036328897,"131":0.14218116964475216,"132":-0.18975362153664602,"133":-0.24745941870135715,"134":-0.23357942482146213,"135":-0.13122218486530676,"136":-0.08947106611259681,"137":0.08646261066567258,"138":0.009903215282212689,"139":0.2019776759260272,"140":-0.34669253857333415,"141":-0.05679699291001107,"142":-0.21325497754116537,"143":-0.039103439920018856,"144":-0.04520115055884684,"145":0.01360542605299343,"146":0.018716496805313156,"147":0.05280168943763236,"148":-0.09625283261077139,"149":0.12041231591370624,"150":-0.06088689209316751,"151":0.13612501328029586,"152":-0.15949038627987935,"153":0.10073226193359139,"154":-0.06418767841514186,"155":0.04083934203512757,"156":-0.03278214568201802,"157":0.10623097447220402,"158":-0.14489258905950406,"159":-0.12594150312015842,"160":-0.1359767269244443,"161":0.30333811818782713,"162":-0.0481495391164029,"163":0.2694266272931944,"164":-0.36763749672332563,"165":-0.0007598062664402367,"166":0.00742721936745391,"167":-0.27256784015298663,"168":-0.30890660201929354,"169":0.13140246157815944,"170":-0.045355283581049344,"171":0.14295246737891978,"172":-0.2502554410407985,"173":-0.07991532922645252,"174":0.019470609732584628,"175":0.03644579658900783,"176":0.19134142277114607,"177":0.018841462131119504,"178":0.0030697016993785475,"179":-0.05202080111762377,"180":-0.3198582025289374,"181":0.03956379051592237,"182":0.3144748029963759,"183":-0.04566298683284375,"184":0.006123802960653079,"185":-0.08046309135762135,"186":0.0194019881013449,"187":-0.20429343146759807,"188":-0.14378038630345644,"189":0.19359776854449426,"190":-0.0006582055300693627,"191":0.10745553965086696,"192":-0.07790138963753808,"193":-0.10601108250666166,"194":0.06200757960643833,"195":-0.14833577257276265,"196":-0.0012477098547743317,"197":0.059095207408038246,"198":0.03150950951797199,"199":-0.05662301686212145}},{"sx":5,"sy":5,"depth":8,"w":{"0":0.05949529072418115,"1":-0.033532211267739434,"2":0.2590685900685759,"3":-0.14008740274454645,"4":-0.10187495099566599,"5":-0.09567477407656137,"6":0.11654866248824661,"7":0.17859867306188068,"8":0.09600655538422967,"9":-0.1468523650200731,"10":0.13718163191612517,"11":-0.2548691844594464,"12":-0.14144721377018854,"13":0.009990026901140857,"14":0.3541962845647099,"15":-0.01678746095797447,"16":0.14501668475677681,"17":-0.07498772651699179,"18":0.08557106592113506,"19":0.17822984140941867,"20":0.09539948585838777,"21":-0.23105691316360757,"22":0.03224824264121021,"23":0.09287965173986182,"24":0.019925036636734905,"25":-0.22064402452837456,"26":0.08262761573900008,"27":-0.06569231762219259,"28":-0.049027458688333705,"29":-0.1492318324898744,"30":0.10797568716052412,"31":0.1764062263740416,"32":0.013796341968986166,"33":0.031653488051973884,"34":0.0313722867833018,"35":-0.07888020387854186,"36":-0.09045134755118053,"37":-0.07363798256044367,"38":0.1803916011231935,"39":0.007332752928058076,"40":0.03282823418342055,"41":-0.10448320897195339,"42":0.17539999492599023,"43":-0.08634458584271289,"44":0.10058669289285588,"45":-0.06421973893923728,"46":0.013969662360088318,"47":0.23502145393275675,"48":-0.1017550291187193,"49":-0.15603792808039732,"50":0.0687137666102358,"51":-0.1466187676751294,"52":0.030809858981743144,"53":0.09129289253243965,"54":0.04836531575148497,"55":0.06989516027507613,"56":-0.16425956169476072,"57":0.010072338945801292,"58":-0.04371382076328127,"59":0.19611846975816363,"60":-0.09375367907160184,"61":-0.0791808804136807,"62":0.04533529056025163,"63":-0.08905206350385846,"64":-0.1397646183052774,"65":0.02124327710574362,"66":0.12508934671365884,"67":-0.022951536921541876,"68":-0.04533371089934343,"69":0.10151689917523772,"70":0.09056400074162253,"71":-0.12381340689657402,"72":0.34938225065202266,"73":-0.0879087486061383,"74":0.0313596905732049,"75":0.006806032974395085,"76":0.0456805081574536,"77":0.03049570680590532,"78":0.2035219611551198,"79":-0.21130651979294568,"80":0.024579336865303853,"81":-0.12456177379637896,"82":0.027161838297992878,"83":-0.14359699592379574,"84":0.14883472937487904,"85":-0.23068011178193182,"86":-0.11473551680231343,"87":0.2598408062819797,"88":-0.11162222924004403,"89":-0.1828909109407898,"90":-0.07692705780833416,"91":-0.3119534361047274,"92":-0.026724512172250584,"93":0.050361296963411864,"94":-0.08001854200845512,"95":0.22556859713711022,"96":-0.25588900793138647,"97":0.13118397709788035,"98":-0.04079037676520028,"99":-0.17695999937736298,"100":-0.25348764183998473,"101":-0.06725034288440399,"102":0.1464122384008366,"103":-0.0673200296825322,"104":-0.20869793102976913,"105":-0.18622680340336273,"106":-0.023005328561399033,"107":-0.021937420481371334,"108":-0.31498793277479226,"109":0.13911906013827258,"110":0.05646511257017728,"111":0.1215698781657709,"112":-0.05684412972487684,"113":0.01619377907563506,"114":-0.14637175103462713,"115":-0.19366067932741912,"116":-0.05804388864351872,"117":0.23104520355833572,"118":-0.26495108747055673,"119":0.2582650913419894,"120":0.12819703572051946,"121":0.0017544803613039862,"122":0.09221121657691517,"123":0.15664565111103634,"124":0.16491935335435992,"125":0.027879485364588997,"126":-0.3494674788224936,"127":-0.1339358167206318,"128":0.17058605539875357,"129":-0.10691222651034468,"130":-0.041980674413492555,"131":0.02913830549916507,"132":0.23359975466353744,"133":-0.27742861651727435,"134":-0.10176231551739526,"135":0.09754287327705226,"136":-0.04043882913949048,"137":-0.21310827354206754,"138":-0.04498839046197028,"139":-0.13364130136210867,"140":-0.13033471894274612,"141":-0.19659929527058245,"142":-0.0895524879131915,"143":0.09298596296118881,"144":-0.1593469050747041,"145":-0.18598455733806105,"146":-0.040726117015649446,"147":-0.19473335727067428,"148":-0.2049493900196851,"149":-0.1561687440364246,"150":-0.19464591754179034,"151":0.23014073528907486,"152":-0.3317907047533645,"153":-0.08408665879839562,"154":-0.1433449872910492,"155":-0.4464234503498985,"156":-0.14700895129150346,"157":-0.09684366504289932,"158":-0.014416057436787609,"159":0.22556113845119125,"160":-0.11653989956634478,"161":0.0048616882353222255,"162":0.0396899704680198,"163":0.11389997616716098,"164":-0.17259884711349752,"165":0.26552924166434205,"166":-0.202038859484947,"167":0.0986007674326076,"168":0.09264836832549078,"169":0.07299845260084917,"170":0.07183965778583361,"171":0.1057479293312097,"172":0.11627621000726278,"173":0.17896926082853612,"174":-0.10190424859720262,"175":-0.04473639696097428,"176":0.11188934892874888,"177":-0.05778766194177537,"178":0.08728988341829085,"179":-0.0035546527777903813,"180":0.14293040425088913,"181":0.010443384557667176,"182":-0.03866253773429977,"183":-0.007474658937298781,"184":0.2100834030854245,"185":-0.011453529614189282,"186":0.0255099567871464,"187":-0.18585249547953558,"188":0.11977923771869867,"189":-0.06898275102069189,"190":0.12433786187298236,"191":-0.06528508645133708,"192":0.31027016457853673,"193":-0.16158643109994708,"194":-0.12347027890467528,"195":-0.032421640392211105,"196":0.2066898901920992,"197":-0.1851157420810402,"198":0.09285649773649343,"199":-0.40308464527818827}},{"sx":5,"sy":5,"depth":8,"w":{"0":-0.08767063056792429,"1":-0.023165180433650637,"2":0.06769118681537752,"3":-0.014569795901831906,"4":-0.09399444597707297,"5":0.18542323874145042,"6":-0.14902965705612517,"7":0.16663598142416128,"8":0.019432304068923836,"9":0.1409938442106075,"10":0.134452527367797,"11":0.05614305229323342,"12":-0.0461962515880137,"13":0.057660014887395014,"14":0.11377819252895036,"15":-0.15296840519615698,"16":-0.04825581956944574,"17":-0.07588613355051667,"18":0.054576373188661986,"19":0.08916304156775642,"20":0.1565780245166935,"21":-0.1090602575671269,"22":-0.12525195368403458,"23":-0.17027026310344362,"24":-0.080699110819043,"25":-0.0050403911581724,"26":0.09895149450156346,"27":0.15942471445139636,"28":0.15036325896043956,"29":0.013920131121031777,"30":-0.06927302464197053,"31":-0.20288026676968024,"32":-0.17182172095057735,"33":0.1793045001834905,"34":0.05398418356222316,"35":0.3375063102073586,"36":0.08320712069080455,"37":-0.011193239055875546,"38":-0.03960383534819842,"39":-0.2311505697898005,"40":0.10557842762931074,"41":-0.13685006160242125,"42":-0.017351668223119905,"43":-0.14525387181994787,"44":-0.04437982438823979,"45":0.0659051656638873,"46":-0.023729868780212715,"47":0.1255367674925004,"48":0.017120769021164755,"49":-0.062352351695533374,"50":0.02294126673275953,"51":0.11955694663849445,"52":0.03470234424275064,"53":0.05051796533030833,"54":-0.03636267253796951,"55":0.21986019866505063,"56":-0.04000755810065612,"57":0.03243782115225082,"58":0.011499873767834234,"59":-0.012835582701355562,"60":-0.06959574929920155,"61":0.03571328136031777,"62":0.06167416744753311,"63":-0.11210009228856949,"64":-0.037328327198062825,"65":0.06701313535640359,"66":0.0040243292212347745,"67":-0.06708222473682235,"68":-0.2634668984302582,"69":-0.04178512498300507,"70":0.21797165869803464,"71":-0.09819309175322166,"72":-0.13504016559551602,"73":0.0936819247172251,"74":0.08076018427667284,"75":-0.07074863597128278,"76":-0.2447727096306943,"77":-0.04886765684011856,"78":0.3063927902972115,"79":0.00982592755060272,"80":0.044758421316166225,"81":-0.056053834738047884,"82":0.02467067472313383,"83":0.08818327436060387,"84":0.04914253666394131,"85":0.14205865939814435,"86":-0.15071280340827464,"87":0.059706052521313266,"88":-0.10156620528884637,"89":-0.002579910360932324,"90":-0.05320105437362491,"91":0.037309012845768055,"92":-0.04881798381787893,"93":0.22570742215475603,"94":-0.18204390314450264,"95":0.1226055392804992,"96":0.06526870081084213,"97":-0.040351755952895293,"98":-0.08829981298082318,"99":0.123106332171004,"100":-0.20319258162832757,"101":-0.14364579530681731,"102":0.2604216656381993,"103":-0.14059390938415547,"104":0.0806746692877908,"105":-0.21230911068584962,"106":-0.03424627989410027,"107":-0.24302736707132874,"108":-0.06270223216701826,"109":-0.13794165461773733,"110":0.4384818082582321,"111":-0.18260191425273467,"112":0.33046414612646646,"113":-0.29601068369203626,"114":-0.019745861947865734,"115":-0.12458868587831452,"116":0.1872647645523993,"117":-0.1404985134209794,"118":0.35263291992421775,"119":-0.12504041167221167,"120":-0.11193257117088876,"121":-0.1886655167180765,"122":0.027194892913986014,"123":-0.2456004353298798,"124":-0.11235174243659994,"125":0.03943279998503966,"126":-0.03981352029520933,"127":0.13205796408986928,"128":-0.1914584931989965,"129":0.025145837469737344,"130":0.1108605370234229,"131":-0.05739749248439096,"132":-0.21078909543227403,"133":-0.15126361448666176,"134":0.015035571145298705,"135":-0.1624088006107687,"136":-0.050000904163266253,"137":-0.13601079843595212,"138":0.049455709618472087,"139":-0.014352303359838779,"140":-0.2785776822457403,"141":-0.19090341915923123,"142":-0.16706744097883422,"143":-0.18903448089622935,"144":-0.16001180296891337,"145":-0.32963288451274914,"146":0.059021023713272794,"147":-0.23926147626706679,"148":-0.30951901284066546,"149":-0.11424899914926305,"150":-0.11209115783708481,"151":0.080679010124513,"152":-0.15612440562777807,"153":0.030213870340567717,"154":-0.16579899535503304,"155":0.004338672176849497,"156":-0.06404858571131807,"157":0.06432830538553712,"158":-0.2639146563382348,"159":0.20442687559795256,"160":0.08247145156360207,"161":-0.2293108577430671,"162":0.1100079961320484,"163":-0.13141391657681328,"164":0.1117076722891942,"165":-0.03804214307297103,"166":-0.011062225716717012,"167":-0.15736414419828787,"168":0.10766053369300652,"169":-0.08304856795592383,"170":0.049551022508951305,"171":-0.1551704319408555,"172":0.15586047353515653,"173":-0.025478702050111414,"174":-0.09397628566348097,"175":-0.11759398720893374,"176":0.01646027474036687,"177":-0.23005547891365996,"178":0.0360026040723218,"179":-0.19815505173151443,"180":0.17291654230603734,"181":0.007185768710845089,"182":-0.15951064845986002,"183":-0.04996678618062158,"184":-0.002245817962316955,"185":-0.06225589292363112,"186":-0.13809359257826082,"187":-0.14900819341821445,"188":0.16486847994499929,"189":-0.04914717332736673,"190":-0.22883379634129464,"191":0.2898239393312196,"192":0.04220082954658846,"193":-0.02369161630202205,"194":-0.1059692804133046,"195":-0.05224654826893908,"196":0.11059820611764719,"197":-0.06349886618386419,"198":-0.17099818283268506,"199":0.32168660208527433}},{"sx":5,"sy":5,"depth":8,"w":{"0":0.036836027635424484,"1":-0.05626328189020731,"2":0.2071830666239126,"3":-0.1261559675360427,"4":0.06903071346575869,"5":-0.06118345281729833,"6":-0.16200332679185148,"7":-0.3876279140192414,"8":0.08969621616375376,"9":-0.17185689383374128,"10":0.025933805378938662,"11":-0.15457018297532507,"12":0.17046649138680817,"13":0.0908444918881341,"14":-0.04770373520559493,"15":-0.159396057726646,"16":-0.18647909319282613,"17":0.010686391795850654,"18":-0.09453140895869407,"19":0.05639720970539078,"20":-0.2560716902752516,"21":-0.12055652624442915,"22":0.28923736626707247,"23":-0.3452014326992378,"24":-0.3031946051305291,"25":0.2906510304505928,"26":-0.16991100142024568,"27":0.09432782875573954,"28":-0.10402132389307885,"29":0.08903107617075501,"30":0.3730976933347624,"31":-0.3832865400627343,"32":-0.14873704102465007,"33":0.12209534364759278,"34":-0.10013916977073327,"35":0.06943315012393746,"36":-0.030702097775996074,"37":0.02679153746733102,"38":0.21882674362635604,"39":0.08576007212345939,"40":-0.09390665027041648,"41":-0.25987389212158785,"42":0.0797142104786424,"43":-0.36189347004386,"44":-0.13882237718217602,"45":0.03726791930661245,"46":-0.02380948854504728,"47":-0.1828092042860808,"48":-0.13350901180093935,"49":-0.10863295862834657,"50":0.022797030432041475,"51":0.046075424410724757,"52":-0.31374952498333947,"53":-0.04522488948457435,"54":-0.23870284555729515,"55":-0.07383230960391451,"56":-0.2182202616441179,"57":0.2815132895649427,"58":-0.11126870638991251,"59":0.16274389652226284,"60":-0.10393913618801921,"61":-0.027984020028730912,"62":0.1274791033474969,"63":-0.13293469035512775,"64":-0.09998179915418724,"65":0.16228634816219745,"66":-0.11030414749378607,"67":0.19889318242228324,"68":-0.07223113282155814,"69":-0.15984843470756144,"70":0.06916033690254855,"71":-0.1983139574209059,"72":-0.10212093982845175,"73":0.11837478857644163,"74":-0.04103508365879263,"75":-0.23316325951501332,"76":-0.16672187565758848,"77":0.06486456965763195,"78":-0.11425320861543678,"79":-0.05381375178742816,"80":-0.07302847808199825,"81":-0.10538074100822782,"82":0.029034764169501303,"83":-0.21180818445564764,"84":-0.05463980336933932,"85":-0.030270740409201767,"86":-0.1861774783809737,"87":-0.08648162249200861,"88":-0.29466319241478056,"89":0.13385184185209603,"90":-0.05691183040560939,"91":0.1725965254781927,"92":-0.2062435524764845,"93":-0.14845362721144814,"94":-0.2402443208463546,"95":0.058934033305632315,"96":0.05052582439930273,"97":0.2500180502820154,"98":-0.10746168149389088,"99":0.19536744674166223,"100":-0.12118284159243775,"101":0.06614432753108254,"102":0.013866957611484763,"103":0.23338896431630096,"104":0.13434199733383492,"105":0.11265915645021829,"106":-0.13788012488405882,"107":0.1746208183852949,"108":0.09692358098272037,"109":0.21952699413409224,"110":-0.010141075504041076,"111":0.0598289971829113,"112":0.06317408701864555,"113":-0.0630058784270461,"114":0.03735436621558476,"115":0.08788625119326077,"116":0.09825928165221011,"117":-0.07712968869459594,"118":0.2809969841916058,"119":0.03757823585748672,"120":-0.10513643650988003,"121":0.020675603506379616,"122":0.03565675049565554,"123":0.14615666269845876,"124":0.014955059703222754,"125":-0.10861326213277561,"126":-0.2807059064133502,"127":-0.10137018744619859,"128":-0.16703046228812732,"129":0.07390352797624197,"130":-0.133697562154692,"131":0.09241160336683708,"132":0.03683801931336271,"133":-0.03720094302276121,"134":-0.03313172684529301,"135":0.2178838697721194,"136":0.08720691795285278,"137":0.10834439397834382,"138":-0.14059412808991992,"139":-0.01834212865604132,"140":-0.10353594825111574,"141":0.07244420122058128,"142":0.10114980029792076,"143":0.06298431322077867,"144":-0.10834136681469014,"145":-0.024611693189309867,"146":-0.03175881804708196,"147":0.01531727158466772,"148":-0.2717535241834231,"149":0.04402142833387411,"150":0.24221910046348658,"151":-0.20932123030070904,"152":-0.17335853464426768,"153":-0.11818658638764885,"154":0.04531988217121164,"155":-0.12844788342930166,"156":-0.12367260034521481,"157":0.140527510974011,"158":-0.1620300928636755,"159":-0.106967429796507,"160":-0.19841847464849646,"161":0.2667940065037606,"162":-0.0599777362914589,"163":0.11310047240405288,"164":-0.3744287030343771,"165":0.08462858210309361,"166":-0.02260739948815188,"167":-0.05317748780970224,"168":0.06122900140446572,"169":0.09123415892544806,"170":-0.18635246442524234,"171":0.016148660773083606,"172":0.10005148257738136,"173":-0.1609132364898017,"174":0.0433611150838648,"175":0.10574508588833133,"176":0.30080993427280744,"177":-0.16798557331573113,"178":0.02657861963149171,"179":-0.16563898786569578,"180":0.27445865714692613,"181":-0.1979323892032626,"182":-0.07999149718165478,"183":0.054332289804254336,"184":0.09840552754002674,"185":-0.30461375563626414,"186":-0.06940578827684554,"187":-0.2777850221735259,"188":-0.1100244308880764,"189":-0.13720676303767895,"190":-0.09338734071759686,"191":-0.020713739910215533,"192":0.07591054427080414,"193":-0.04627492431564871,"194":0.010102291213671078,"195":-0.2255532435228926,"196":-0.02915809275638719,"197":-0.11143246025777435,"198":-0.009115919331334809,"199":-0.13402257784999172}},{"sx":5,"sy":5,"depth":8,"w":{"0":-0.08190631017414485,"1":0.1201316912339526,"2":-0.016370804912360447,"3":0.20908500481634432,"4":-0.01418264561039738,"5":-0.08801690597225682,"6":0.027219233241946358,"7":-0.006796985106695704,"8":0.11049238440671828,"9":0.21707626020348172,"10":-0.0497682149257461,"11":0.25969011415098014,"12":0.023886357879674282,"13":0.04635046600853981,"14":-0.12358467683364507,"15":-0.05569880386640217,"16":0.04253892736052874,"17":0.08335346705588187,"18":0.048434450696972775,"19":0.21601177944704517,"20":0.09431664730309437,"21":0.23608018692862154,"22":0.02732809472354718,"23":0.040503445845630905,"24":-0.004300684184226799,"25":0.003511573479655692,"26":-0.023851092128534274,"27":0.11020266129919629,"28":-0.027126694824200815,"29":0.19525874071061292,"30":0.24201603577001285,"31":0.09202969375092167,"32":-0.04217946694103758,"33":0.2554131000916753,"34":-0.06725139518321127,"35":0.16741050639783103,"36":-0.13266981592979285,"37":0.015897237750040535,"38":0.13286578698693685,"39":0.01916033915678837,"40":-0.2543783249166714,"41":0.0954930607433625,"42":-0.05389594995076048,"43":0.07508739923477767,"44":-0.13746144639449107,"45":0.20998802143879297,"46":0.08125021634786996,"47":-0.06732110882739548,"48":0.00947684244194449,"49":0.2193217266545864,"50":-0.10328795458539936,"51":0.15372990134907238,"52":-0.04356621244476561,"53":0.14166740360254662,"54":0.16323396949518254,"55":-0.10618917854470947,"56":0.1690071956686544,"57":0.039388279147850154,"58":-0.06551206744740136,"59":-0.032533351128563516,"60":0.06734352491177474,"61":0.006889511069381833,"62":0.30405425349415294,"63":-0.0657759812124622,"64":-0.12280908277555914,"65":0.09602605988463865,"66":-0.1423757300696138,"67":0.03306980315003645,"68":-0.03429188148497016,"69":-0.07398024697236871,"70":0.1403418111030197,"71":0.23059496492111517,"72":0.039568195382073,"73":0.030736689769389043,"74":-0.03741866452368789,"75":0.008589006175510963,"76":-0.044970754503236704,"77":-0.05035834509844227,"78":0.2622217418620323,"79":0.029542218574315722,"80":-0.1327680792119512,"81":-0.11228207433141897,"82":-0.05315276678993909,"83":-0.26335982018795184,"84":-0.06437234153960973,"85":0.02815769346532878,"86":0.11773264914853163,"87":0.022824112109920414,"88":-0.06449597897310454,"89":-0.016868016470257416,"90":0.06140288342355272,"91":-0.09032114378113514,"92":-0.18601198962379115,"93":-0.06124554483329075,"94":0.12783573388272604,"95":0.03053377956405622,"96":-0.17726306711476547,"97":-0.020807894875454966,"98":0.08312079656757271,"99":-0.07962528513850667,"100":-0.19852715391392986,"101":-0.06563409799064371,"102":-0.03598956826322274,"103":0.14092207212616478,"104":-0.07563416649779747,"105":0.09363723652808616,"106":0.03473127580927672,"107":0.013521867212973618,"108":-0.10868137062461238,"109":-0.1321271822798572,"110":0.14331967513397897,"111":-0.14257503992266793,"112":0.07934343453156982,"113":-0.16508408937411076,"114":0.088299199741914,"115":-0.19741862600810392,"116":0.07324184564289325,"117":-0.27404841403133795,"118":-0.0012093500340540954,"119":-0.08707369955916588,"120":0.06846850543200286,"121":-0.17075578257010587,"122":-0.04536768941812201,"123":-0.206900648066476,"124":0.10760837515866493,"125":-0.23885772953725867,"126":-0.3426574272870553,"127":0.15679304584060907,"128":-0.16173972680445614,"129":-0.05543234294071916,"130":0.07863674997523538,"131":-0.16131314415565276,"132":-0.12908064582590875,"133":-0.24707909983716514,"134":-0.27375421740390365,"135":-0.0006276659202007935,"136":-0.2344391503440087,"137":-0.27262961804942565,"138":0.005878469991198562,"139":-0.2014879432589623,"140":-0.20468592054091533,"141":-0.28205061002804527,"142":-0.06125699365594108,"143":-0.12668214983334386,"144":0.025617546085101472,"145":-0.32690561794864986,"146":0.016103741588013136,"147":-0.10686828261373714,"148":-0.017982505747760662,"149":-0.3215429151591372,"150":-0.06577884285700004,"151":-0.13430383747528946,"152":0.05408206389229262,"153":-0.1780295721310114,"154":0.04037470906300889,"155":-0.18705413598265663,"156":0.07288466427753078,"157":-0.09267633978268346,"158":-0.09187362304790604,"159":-0.20206164479804054,"160":0.19788492537921892,"161":0.08048326724891279,"162":0.043658982079806966,"163":0.15125646632261178,"164":0.09185189360132748,"165":-0.07226110201086057,"166":-0.4474721005525408,"167":-0.19502731027886414,"168":-0.03902309496536281,"169":-0.009289545726009717,"170":0.017369419803153603,"171":0.017294701276431703,"172":0.047330387502244296,"173":-0.21017643427678606,"174":-0.22628882719552063,"175":-0.1478998888034479,"176":-0.17965490203633758,"177":-0.27747842877582257,"178":-0.04769190857475753,"179":-0.16328428822489852,"180":-0.11551831466190428,"181":-0.12977191863830545,"182":-0.1482664953641132,"183":-0.23728778275143175,"184":-0.012096883789010296,"185":-0.12696835361777797,"186":-0.020907455146924967,"187":-0.1367653175002659,"188":-0.034838037047045446,"189":0.10812134426917369,"190":-0.09231150047654926,"191":-0.19076054332913012,"192":0.051061562438440684,"193":-0.23047632426885983,"194":0.050990871052039526,"195":-0.08779459108000992,"196":0.08110925284842771,"197":-0.057207890569008026,"198":-0.11168663799360665,"199":-0.34882792318821326}},{"sx":5,"sy":5,"depth":8,"w":{"0":-0.045255975636093446,"1":0.116157164714836,"2":0.05092610765377035,"3":0.17102465666359906,"4":0.036151234014438656,"5":0.1417453547816794,"6":-0.049102227231401854,"7":0.1687791863546105,"8":-0.22493240491595662,"9":0.15796377541920384,"10":0.07679767899704228,"11":0.10084969487451263,"12":-0.11266820190499606,"13":-0.16412626348167403,"14":0.03563503358264629,"15":0.0392082582557394,"16":0.11149212592755442,"17":-0.08793511869125624,"18":-0.010530653010742994,"19":0.07459681567753997,"20":-0.012224514262526277,"21":-0.15897376277420533,"22":-0.018649838946041962,"23":0.09850235517168637,"24":0.05095053873929173,"25":-0.2213147469304235,"26":0.06524414791428694,"27":-0.3000724992583999,"28":-0.17223631710462978,"29":-0.10099191265953267,"30":0.03313059267755575,"31":0.10387518685856004,"32":-0.048769106851416555,"33":-0.0554361008387412,"34":-0.047729894013810434,"35":-0.10365508069377616,"36":-0.19709444986626848,"37":0.19545754184035044,"38":-0.009531980964714203,"39":0.10075111863585576,"40":-0.11067851987997415,"41":0.08666887559028981,"42":0.06659497419491661,"43":0.18948033036678144,"44":-0.007882719313379544,"45":-0.14498070888070444,"46":0.0038688976572493787,"47":0.2432026498422739,"48":-0.0715225793637571,"49":0.18489277813026597,"50":0.0233293958192481,"51":0.06908378288015855,"52":-0.13327336643347362,"53":-0.013064823239206238,"54":0.1168989082242029,"55":0.02316902730105623,"56":0.015700028514894226,"57":-0.19692928823830114,"58":0.017523221934048386,"59":-0.018693586264848364,"60":-0.009326741874198723,"61":-0.1779928637861661,"62":0.04173591547262569,"63":-0.021207008891268628,"64":-0.05846688839619049,"65":-0.13660373192615907,"66":-0.03337943106395254,"67":-0.2568359854986004,"68":-0.15453937054265487,"69":-0.0786257649746663,"70":-0.09956032837165046,"71":0.009346032825346283,"72":0.022278124386346052,"73":0.048476073868057974,"74":-0.1344531356752144,"75":0.08299041972199576,"76":-0.21106641588798802,"77":0.05377893714188879,"78":-0.028779442279035363,"79":0.05157010909713899,"80":-0.20838784613851624,"81":-0.000667561188216795,"82":0.14889058782790957,"83":0.07482534975055666,"84":-0.3086180783006395,"85":-0.3756168567478196,"86":0.1302914089681474,"87":0.12670772726157617,"88":-0.1361579684203089,"89":-0.08438894645630537,"90":0.0169448557989248,"91":-0.19264787718352408,"92":-0.18304466750178292,"93":-0.25414877830328114,"94":0.01416016959930645,"95":-0.21769490852778253,"96":0.20270623852414824,"97":-0.24448636161563575,"98":-0.008735345275719354,"99":-0.22538175511278435,"100":0.04222755104086926,"101":0.006684724740546922,"102":0.17130579553352765,"103":-0.21193389735866577,"104":0.3286215084480899,"105":-0.1974673082466553,"106":-0.07733965595669241,"107":-0.16995381091498965,"108":0.11791909436155248,"109":0.03007508580058892,"110":0.008393929476619568,"111":-0.14259952022835914,"112":0.3000449341081925,"113":-0.11499315017314067,"114":-0.15403273135450624,"115":-0.13765636171529527,"116":0.16702065720780548,"117":-0.002807027729759588,"118":0.05114173686483613,"119":-0.301405095986036,"120":-0.1570252828588704,"121":-0.058521685208073736,"122":0.05257137273958105,"123":-0.10117750515474566,"124":-0.06017145320284146,"125":-0.16261705610443558,"126":0.14619715242638273,"127":-0.01695452696215877,"128":-0.025592774010193175,"129":-0.09178414253737625,"130":-0.09688456609594008,"131":-0.20643165744972403,"132":0.026278713826412923,"133":-0.017649618216307127,"134":0.2989068894672889,"135":-0.19666231185839025,"136":0.12899375545688993,"137":-0.2017362080523359,"138":-0.18589042728480065,"139":0.10932215003340633,"140":0.20512061163096001,"141":-0.06856527287015637,"142":0.11576784734938377,"143":-0.11897621807466498,"144":-0.15194648936844382,"145":0.08716554771578729,"146":-0.23547776250741018,"147":-0.07518306154881102,"148":-0.029175252345510688,"149":0.00003861488457705443,"150":0.011564460563747467,"151":-0.015820330266419984,"152":-0.03620876857854454,"153":0.2812070451440717,"154":-0.07562082172730994,"155":0.06859620901118331,"156":0.11699055133447012,"157":0.17107468402129078,"158":-0.10892349547689713,"159":-0.1950701687908114,"160":0.0636874955773419,"161":0.007898577819592394,"162":-0.05034403429740115,"163":0.096205270706566,"164":0.14339413626514627,"165":-0.13058362045048766,"166":-0.0033304583641742104,"167":-0.13923433315489944,"168":-0.03236235207729863,"169":0.03880445151989899,"170":-0.011110152214855411,"171":0.19360125904655537,"172":0.1792859441161762,"173":-0.0608233789789545,"174":-0.12452558927577766,"175":-0.2691976301294609,"176":-0.01365080473661215,"177":-0.05798274171900608,"178":-0.19407275789935927,"179":0.08875465058560186,"180":0.2002675904580913,"181":0.02413411854839675,"182":0.03353038092809795,"183":-0.1765948402431524,"184":-0.21351504038265542,"185":0.16367627923892947,"186":-0.15129868615169192,"187":0.053137710744021,"188":-0.10054335152799769,"189":-0.09226735816254322,"190":-0.16284136488590462,"191":-0.10031738984919983,"192":-0.30375308777763566,"193":0.059707330644928544,"194":-0.09933504769097513,"195":-0.04307664736126163,"196":-0.3862115657329189,"197":-0.028928227187914275,"198":0.343704945779213,"199":-0.26904921062594905}},{"sx":5,"sy":5,"depth":8,"w":{"0":-0.06471416516535212,"1":0.15516555557803624,"2":0.035302410511056,"3":0.20410414294443105,"4":-0.020825573366288604,"5":-0.025855469117844147,"6":-0.1742902013916172,"7":0.05679425228518974,"8":-0.06723525214406804,"9":0.12205709221203304,"10":0.03080506952614998,"11":0.09752200974497856,"12":-0.09689424288911053,"13":-0.07117537107355279,"14":-0.10951940311146038,"15":0.008639326776661455,"16":-0.09124411844785277,"17":0.16099409051142513,"18":0.06891310516529957,"19":0.16198972665812958,"20":-0.08025908333841175,"21":0.015385218848537587,"22":-0.13336339572812175,"23":0.177772905199563,"24":0.18100508950815175,"25":-0.02714458826841872,"26":-0.2983995673447893,"27":0.3016114806077818,"28":0.10472415376044474,"29":0.19157616997775614,"30":-0.1508203851811329,"31":0.1396478127622088,"32":0.3783864399632057,"33":-0.02780853651895063,"34":-0.15899841745720653,"35":0.23639816611638942,"36":0.39512264870094993,"37":-0.17960920920728157,"38":-0.48623889382747343,"39":-0.07874541759179472,"40":0.033397868177785436,"41":0.0016017005363686688,"42":0.0007565652483473047,"43":-0.029016647562395352,"44":-0.05723061817386943,"45":-0.22169573825278208,"46":0.12409792451520818,"47":0.1408807121829103,"48":-0.04952980594324056,"49":-0.20820143014851009,"50":-0.09834092055987542,"51":-0.33622239808968973,"52":-0.08207261782944553,"53":-0.17379241109488391,"54":0.004532854774964638,"55":0.08789224610202863,"56":0.0030432108060396397,"57":-0.1427326631919374,"58":-0.06427258368157966,"59":-0.19418160058757772,"60":0.040842173268256766,"61":-0.17443363118810723,"62":-0.04199168841980658,"63":0.1427773627762663,"64":-0.35310536825250244,"65":-0.13641155121287768,"66":-0.08965593139293941,"67":-0.00813498621361501,"68":-0.12051969485680405,"69":0.1565192732274183,"70":0.036336175095064906,"71":0.2378703005796562,"72":-0.2702630989374325,"73":0.022197196851078776,"74":0.04597700320057514,"75":0.1254058431353112,"76":-0.22111888091197493,"77":0.6139855505896474,"78":0.04234068889636979,"79":0.052844382720612725,"80":0.0446053792803772,"81":-0.1175641085487647,"82":0.018139151173891,"83":-0.03917868685501729,"84":-0.10807204826559295,"85":-0.10541296806879359,"86":-0.02424795009239242,"87":-0.03433227933460326,"88":-0.12723894639115285,"89":-0.11017205564083185,"90":-0.0685372323496168,"91":-0.21061465890046957,"92":-0.02711558685173322,"93":-0.38726505604848843,"94":-0.23270417505876237,"95":-0.04229626581215072,"96":0.0044883788616888005,"97":-0.12903015836181655,"98":-0.044958851741802905,"99":-0.2084602880223357,"100":-0.2489410640847252,"101":-0.02695393993216117,"102":0.015922975500837516,"103":-0.07680859818544175,"104":0.25956652090677623,"105":-0.09293036453080389,"106":0.030898426831474115,"107":-0.20375325238731842,"108":-0.1547539539956984,"109":0.06034284804908568,"110":0.09758010217149107,"111":0.0034153882476416456,"112":0.05886820199777795,"113":-0.114003115767493,"114":-0.09947939543397324,"115":-0.07449304487859484,"116":-0.048992616597205656,"117":-0.022037045992392267,"118":0.09910250826496322,"119":-0.05247519793512528,"120":0.19379620855478494,"121":-0.10864283514265066,"122":-0.06409431268273441,"123":-0.03394579125934047,"124":0.24794639830849208,"125":-0.10642378804779441,"126":-0.018792846610726516,"127":-0.06055353420771762,"128":0.032999612921324646,"129":-0.11457078006850861,"130":0.00880830747011897,"131":-0.19870245080326987,"132":0.08209763073925982,"133":-0.06081585605827628,"134":0.10927548187719002,"135":-0.20171837700947012,"136":0.07461158161911854,"137":-0.15453984553872746,"138":0.06766128059871608,"139":-0.2221118692657911,"140":-0.06753983897869559,"141":-0.009375789189323877,"142":0.1818866920974009,"143":-0.187349506905271,"144":-0.1166515623685615,"145":-0.20228208404504333,"146":-0.1096651551490431,"147":-0.07726471421929008,"148":0.13767456476940546,"149":-0.15969961141995323,"150":-0.0071672478151122865,"151":-0.18250248436440572,"152":-0.3117438226946039,"153":0.008279526014908566,"154":-0.07078949822118999,"155":-0.10647049799557365,"156":-0.0162322089064726,"157":-0.10971509815054305,"158":0.009793935332567382,"159":-0.07122224655080746,"160":0.002730668170089195,"161":0.10322730867223597,"162":-0.049994157911280424,"163":0.27125195961820714,"164":0.09715241612784392,"165":-0.026734803387440182,"166":0.09975366201353363,"167":-0.1732898162524915,"168":-0.05793486402471216,"169":-0.047960140502761914,"170":0.10466561792321007,"171":-0.03536221323434531,"172":-0.128194908661258,"173":-0.11549939913201439,"174":-0.07832509758385517,"175":-0.09572229977196478,"176":-0.0927172046543709,"177":-0.11884214670319938,"178":-0.03702715129666439,"179":-0.25573061993181156,"180":-0.07025268119273288,"181":0.11233524220463428,"182":0.021489519985319415,"183":-0.08128193932016017,"184":-0.10665119296943942,"185":0.1421436493050052,"186":-0.0596573532383631,"187":0.20938646433133282,"188":0.050246479541822216,"189":0.004849542108271967,"190":-0.07349268771555591,"191":-0.118138581910507,"192":-0.0414201251370834,"193":0.11581625237213508,"194":-0.14123593613048824,"195":-0.0032646425923537527,"196":-0.12119848381735186,"197":-0.1361140842885252,"198":0.09118566754887049,"199":-0.04774096399541188}},{"sx":5,"sy":5,"depth":8,"w":{"0":0.15934239541240444,"1":-0.030088018990197706,"2":0.09210345041002962,"3":0.05073216720899714,"4":0.21855670713673436,"5":-0.06128897873370063,"6":0.02185425850396425,"7":-0.09820432114219743,"8":0.14428634078695438,"9":-0.14874151494330548,"10":-0.1859981424360549,"11":0.03711422572360717,"12":0.18154379523630854,"13":-0.20604733381757834,"14":-0.13024115227553928,"15":0.16640932725471855,"16":0.06855678381047796,"17":0.08364426595735747,"18":-0.04245509709440724,"19":-0.05751762612228685,"20":0.042240213605527654,"21":-0.09606638369076725,"22":0.06618249007209664,"23":0.14660040747140585,"24":-0.1540671336236534,"25":0.02520272872430236,"26":-0.11195751550361266,"27":-0.18076755230234615,"28":-0.04097387470642423,"29":-0.07626774220532717,"30":0.029552029499800216,"31":0.14296243276959408,"32":-0.3208433629912969,"33":-0.10175186556789731,"34":-0.08449828438794951,"35":-0.24475784413895926,"36":-0.1512094870482149,"37":0.3246978331008036,"38":0.07151857759482683,"39":-0.2289486222283591,"40":0.22911883466875121,"41":0.11011565762182852,"42":0.09570896943742964,"43":0.11993123368398947,"44":0.05294871795284019,"45":0.28443063918410927,"46":0.1007666816542235,"47":-0.08381912421344741,"48":0.05013470189508347,"49":0.05673294583382652,"50":-0.06532220806963077,"51":0.08996916681196908,"52":0.2519455247185547,"53":-0.004668035907304498,"54":-0.006241145823888119,"55":-0.060079722164006845,"56":-0.05126213547195302,"57":0.140146441281865,"58":0.022855675175919216,"59":-0.1755444798039835,"60":-0.002119214608135411,"61":-0.10332822603653223,"62":-0.0785721987809132,"63":-0.11677271990416134,"64":-0.22109189822403746,"65":0.03108438901676433,"66":0.16028158532499232,"67":-0.019936440092928737,"68":-0.17084557192509556,"69":0.0002236147644149832,"70":-0.066730963815205,"71":-0.19101900728708734,"72":-0.3745409734491297,"73":-0.029378526902225775,"74":0.0026657958498831663,"75":0.006339098139796637,"76":-0.3784436539866144,"77":0.3117738574750578,"78":0.16804531894712388,"79":-0.10733508910429558,"80":-0.0834073997664513,"81":-0.014596098150284453,"82":-0.004818108964028334,"83":-0.02702814910832911,"84":-0.13889542523484932,"85":0.11268887286568674,"86":0.08356916381165376,"87":0.17820027631261992,"88":0.12101304165136549,"89":0.18557502243333204,"90":-0.19841183575300278,"91":0.02754900889443421,"92":-0.14245170018926612,"93":-0.0591112769196545,"94":0.18591752271316855,"95":0.04974137466083882,"96":-0.007127945434687304,"97":-0.035193749006928864,"98":-0.028899237670765097,"99":-0.10859236422711956,"100":-0.27185566864744154,"101":-0.17345008391242636,"102":-0.12856264969483355,"103":-0.026779465537735202,"104":-0.1322766707011193,"105":-0.050279593598915755,"106":-0.002179443970146537,"107":-0.2171810625022906,"108":-0.1488996364360381,"109":-0.01942490427983272,"110":0.049211830155306044,"111":-0.07642159798890961,"112":-0.4182271144232893,"113":-0.029915579665178542,"114":-0.17593948947168978,"115":-0.12423429869024884,"116":-0.31784449824874333,"117":0.3224524804028693,"118":0.17434173287508742,"119":-0.07602227205911523,"120":-0.15420797869477237,"121":0.006752854079585191,"122":-0.006708049427493027,"123":-0.026288280189055345,"124":-0.17980020661206358,"125":-0.029357048287781535,"126":-0.2462544982814791,"127":0.17354845868497726,"128":-0.07823573454129597,"129":-0.025972778106578526,"130":-0.0006019732657471659,"131":-0.01328388060534954,"132":-0.07207634860627941,"133":-0.1332303111018549,"134":0.09785896291381786,"135":-0.007030863527275367,"136":-0.008722051246821605,"137":-0.21875291421321758,"138":-0.10364543338920815,"139":-0.21693713307246104,"140":-0.20409566660934114,"141":-0.06419857240767621,"142":-0.019420154587213176,"143":-0.0519522675888814,"144":-0.24720442297666367,"145":-0.051121060326720334,"146":-0.110864442352356,"147":-0.08234199825177611,"148":-0.18059827990942884,"149":-0.03482816263451821,"150":-0.11391476073758998,"151":-0.1438661784760918,"152":-0.11193221112955505,"153":0.17143103754577851,"154":-0.19798477315902557,"155":0.11563962758023011,"156":-0.3648068188393313,"157":0.22557227979473068,"158":0.14315836246817568,"159":0.07906627340834851,"160":0.16166345720819367,"161":-0.09338143767051002,"162":0.03869760011528092,"163":-0.08562230917716146,"164":0.2006006227766474,"165":0.12166241384487057,"166":0.11515614396930338,"167":0.05485179261668635,"168":0.17271679237698082,"169":-0.1635756704657202,"170":-0.06204199417527659,"171":-0.04436829405432566,"172":0.24501592223817342,"173":-0.08378246988809658,"174":-0.062068224803746005,"175":-0.17295489093963212,"176":-0.14646966730521088,"177":-0.3283207555277199,"178":-0.09752897354321206,"179":-0.2793065905133322,"180":-0.0039558988441253185,"181":-0.11454527331803793,"182":-0.030915298400056752,"183":0.0831340410491792,"184":-0.1691259507897018,"185":-0.057484983277307375,"186":-0.08429199491570405,"187":-0.07217397537715581,"188":-0.2964205126376191,"189":0.0659934456129249,"190":-0.05322904348123207,"191":0.04952650108557018,"192":-0.10420830927170505,"193":-0.1068266621729488,"194":-0.061179155180627644,"195":0.041152838304405026,"196":-0.3566520606952108,"197":0.14990320332934673,"198":0.10465084104770768,"199":0.11253172698069518}},{"sx":5,"sy":5,"depth":8,"w":{"0":-0.014969580899327059,"1":-0.06665879942361964,"2":-0.09922872315763942,"3":-0.10558566949594965,"4":0.1355858235896723,"5":-0.07415886523556631,"6":-0.14341069255692968,"7":0.05134826947321358,"8":-0.04749195128021056,"9":0.02517183949173708,"10":0.01735686484001645,"11":-0.13487216090447665,"12":0.01944755024833244,"13":0.2415870240587144,"14":0.19050132668476025,"15":-0.041548486709680116,"16":-0.08895459741597025,"17":-0.06173376642913459,"18":-0.13020511636123608,"19":0.10559076375936646,"20":-0.07132945332335956,"21":0.16544273583588567,"22":-0.11482968352442907,"23":-0.09708137489385715,"24":-0.14400183144209375,"25":-0.018780668534926916,"26":0.11851028374140257,"27":0.10682364256735048,"28":-0.12878992454692723,"29":-0.474346734036259,"30":-0.3211680570049854,"31":0.053686239466829155,"32":0.25228784020239314,"33":-0.18278552832456316,"34":-0.004709172925518186,"35":0.021432500772257612,"36":-0.028747109261524385,"37":-0.45857730015037484,"38":-0.035227755379553305,"39":-0.09876517979309965,"40":-0.05728026251323734,"41":0.08893134881058815,"42":0.11307155374019619,"43":-0.441405666848609,"44":-0.18816859802994806,"45":0.23408575345129826,"46":0.07193778418322383,"47":-0.016043189295599582,"48":-0.29730851346950826,"49":-0.1892055170188643,"50":-0.09990107888926705,"51":-0.07551154004798608,"52":-0.25476704166768294,"53":0.17555895822192805,"54":0.0700831011620786,"55":-0.058761559041282704,"56":-0.16882537300412453,"57":0.16333522669300035,"58":-0.12413549265032633,"59":0.11658752187530765,"60":-0.07741859179447073,"61":0.029305002038739786,"62":-0.03239699644550117,"63":-0.13180442707908693,"64":0.04995812403761202,"65":0.07596986498716549,"66":0.0873213760409553,"67":0.06147907101661394,"68":-0.27396819718637805,"69":-0.380698230262832,"70":-0.029383707590276417,"71":-0.030695397699710022,"72":0.16070214147851758,"73":-0.14866046881011574,"74":-0.0307124777367915,"75":-0.04721764870212056,"76":-0.08745033908915188,"77":-0.12603516928618508,"78":0.11521764171974513,"79":-0.09044866567603783,"80":-0.10745040572076006,"81":-0.19617673728922355,"82":0.056539418401066556,"83":-0.4678303943064186,"84":-0.1448138350041331,"85":0.006580934249321477,"86":-0.04692617754587961,"87":-0.1181240016821458,"88":-0.14523199594159203,"89":-0.025773039015431914,"90":-0.09855114153989361,"91":0.016690079377754585,"92":-0.18734828039917564,"93":0.07731953312058938,"94":0.10284816600985182,"95":-0.04563892012450775,"96":-0.25799673614199475,"97":0.17524965309135,"98":-0.13377191514667955,"99":0.15290974493687923,"100":-0.09453687820513824,"101":-0.10915428601649414,"102":-0.0022889507527588415,"103":-0.24360655473650739,"104":0.15517747026298043,"105":0.06974227158494807,"106":-0.07221991818641604,"107":0.0479314150318776,"108":0.03023590115537212,"109":-0.34298019255372564,"110":0.18645311511719656,"111":-0.08881379704177178,"112":0.1348343300200076,"113":-0.16520744109729973,"114":0.01876885558923409,"115":-0.15009393725810677,"116":-0.006096414965505038,"117":0.019432460571533538,"118":-0.0480919835050304,"119":-0.099286930683079,"120":-0.17191910451051157,"121":-0.07629819151334323,"122":0.16582961981396144,"123":-0.08357891641799516,"124":-0.14674539144848459,"125":0.05564242690226376,"126":0.029878355386426986,"127":-0.27449193097350494,"128":-0.2735620904481766,"129":0.024431281049009816,"130":-0.04765014654592127,"131":0.11516114522791004,"132":-0.2326565367039331,"133":0.06966519092863392,"134":0.007758246990769483,"135":-0.0037607995460092105,"136":-0.29778524981869986,"137":0.18516651470129192,"138":-0.13833600820997904,"139":0.17593003726310574,"140":-0.070661720473385,"141":-0.008217669995153408,"142":-0.06218861866092368,"143":-0.13438607191637497,"144":0.2473171898118677,"145":-0.11237984325037621,"146":0.01802056956717869,"147":0.01936836981464905,"148":0.10310754794855087,"149":-0.05666943193744931,"150":0.04691619627620961,"151":-0.0998785294580995,"152":-0.1405250379621213,"153":-0.1286701850292513,"154":-0.016561667330794817,"155":-0.07985150036220286,"156":-0.0906374665909128,"157":0.02064924911761328,"158":-0.1170805041168093,"159":-0.12809999058023536,"160":-0.24663695448783968,"161":0.15657941741147935,"162":0.02123438376954692,"163":0.1221582895377193,"164":-0.28186086450452963,"165":0.07076958047747978,"166":-0.1594907301599011,"167":0.05579695643540841,"168":0.008673681969196781,"169":0.22545450627996322,"170":-0.09206080727919971,"171":0.25199772200368276,"172":-0.2422882357789355,"173":-0.003089495263755871,"174":-0.047375012724030656,"175":0.08467684450873171,"176":0.03766359037840315,"177":0.1591483413250345,"178":-0.09586303912918676,"179":0.08892992573526028,"180":0.05930108118814846,"181":-0.07346317650845635,"182":-0.12127645733473533,"183":0.08911105841042359,"184":0.24579754819212826,"185":0.10268367897925963,"186":-0.08598814979373375,"187":0.18897300292416763,"188":-0.09403585843492863,"189":0.08900679871417498,"190":-0.05357157022700151,"191":0.09302259657156695,"192":-0.09287157031111769,"193":0.06448291355850055,"194":-0.019010981277708488,"195":0.03963923325320484,"196":0.04169597428778124,"197":-0.003534995396406058,"198":-0.017504083789130445,"199":0.07372476733857426}},{"sx":5,"sy":5,"depth":8,"w":{"0":-0.05836829029874815,"1":0.0647105214110182,"2":0.14292753172628292,"3":0.004702398933986744,"4":0.19085169545105074,"5":-0.20253019211957027,"6":-0.3985368620462545,"7":-0.10225503616764178,"8":-0.10707945714004374,"9":-0.1572170663887027,"10":0.11497691209082747,"11":-0.25521820110572024,"12":-0.08391662777070197,"13":-0.3589135244076533,"14":0.06997908580218377,"15":0.13150419399362606,"16":-0.2547802295753599,"17":-0.1257009160541822,"18":-0.026169608980819596,"19":-0.1431172266308992,"20":-0.19304028165702497,"21":-0.19990539878578342,"22":-0.020617464644651907,"23":0.102364207190821,"24":-0.24703070257112622,"25":-0.08399701072173678,"26":0.012555243531597145,"27":-0.2307779991527807,"28":-0.17876592552944914,"29":-0.1338592899421394,"30":0.08342732220151235,"31":0.1279056555142394,"32":-0.13310405778514206,"33":-0.12122446851808723,"34":-0.025224464077534016,"35":-0.21590677219045865,"36":-0.3397675948893207,"37":0.042522081592202575,"38":-0.09316836884749552,"39":0.08286892539485124,"40":0.16804449655819403,"41":0.1041647985684736,"42":0.023539008958128275,"43":0.05111194918319734,"44":0.09178187569244202,"45":-0.15420349344519466,"46":-0.16710957394507972,"47":-0.018775966310437285,"48":0.18224580639257826,"49":0.11064715337844151,"50":0.06044538278669959,"51":0.1443265127419795,"52":0.23177682123231294,"53":-0.1260128892780991,"54":-0.41057994168572476,"55":0.007015625401594483,"56":0.022643479911475414,"57":0.05472737809594953,"58":-0.01486116909066061,"59":0.09559588546842539,"60":0.3044261803990524,"61":-0.03803214799941907,"62":-0.19622123452232224,"63":-0.0789031202957004,"64":0.044591569551741386,"65":-0.4072788442706978,"66":0.06665777281187824,"67":-0.23098779843080866,"68":0.046757597375895535,"69":-0.03546216210845437,"70":0.04708251115325545,"71":0.11452111199596429,"72":-0.0859013833775338,"73":-0.3211609645548635,"74":-0.010348888894634527,"75":-0.29910685044020974,"76":-0.08537402948939654,"77":0.07297175151529692,"78":-0.16951197825493677,"79":0.0697087430988654,"80":-0.25617357467066054,"81":0.12235091013256139,"82":-0.03860077691715113,"83":0.15708192491121592,"84":-0.14118019261393627,"85":0.16484897468773027,"86":0.05429524452611511,"87":-0.31073862828135695,"88":-0.14421378310190194,"89":0.0011450833050794095,"90":0.11243052840699874,"91":0.11780733884939822,"92":-0.1796637140159543,"93":0.36423979300396325,"94":0.11628019216883669,"95":0.057966926594341155,"96":0.21816508871472232,"97":0.007646593982092072,"98":-0.1014552862822978,"99":0.14599937277015565,"100":0.026144764437584445,"101":-0.046031823056324014,"102":-0.16032362223723476,"103":-0.020549519962991133,"104":-0.17054507316708525,"105":-0.01712453176813784,"106":-0.15227327191224502,"107":-0.0656398760309298,"108":0.16021490517935275,"109":-0.2584641347002874,"110":-0.27415870262935593,"111":-0.07983824354357787,"112":-0.07220446775521794,"113":-0.08232796441479277,"114":-0.08111768265540696,"115":-0.07834759305512246,"116":0.03261062730567204,"117":-0.10246988839753832,"118":0.01475105047260183,"119":0.07369921047802494,"120":-0.08022189059597913,"121":0.06389615756001671,"122":0.05723273910838653,"123":-0.21530014319099586,"124":-0.1384763187794642,"125":-0.04894514418703984,"126":0.16159349211694224,"127":-0.2330501708046719,"128":-0.13219761954985787,"129":-0.01933148092066564,"130":0.07654147748890526,"131":0.046283631983815215,"132":-0.18938368278780612,"133":0.013822192512397956,"134":0.10782324284165987,"135":-0.027087314280229913,"136":0.05221021761526868,"137":0.07105792688490375,"138":-0.08222388748406646,"139":0.07769816934587577,"140":0.03524150455348147,"141":0.10166414678490214,"142":-0.06192090634190317,"143":-0.17155710692048348,"144":0.2037666438883548,"145":0.21527397727744232,"146":-0.16979669717544935,"147":0.18546832148920117,"148":0.26752849559154407,"149":-0.17015165260621432,"150":-0.08993287665706057,"151":-0.20860873374143038,"152":0.15640391587313918,"153":-0.030013296197262354,"154":-0.028614196710379302,"155":-0.015273575532685338,"156":0.17052314232861415,"157":-0.032315578044956356,"158":-0.1912208987587027,"159":0.07848138496351091,"160":-0.08213598349029898,"161":-0.05362375002569675,"162":0.11562766537077954,"163":-0.0855924645702535,"164":0.10427941410470379,"165":-0.025320658482831503,"166":-0.02405180991201023,"167":-0.26698205510283385,"168":-0.23685312138426126,"169":-0.0155421418733929,"170":0.05981985012146423,"171":-0.1147957181268276,"172":-0.17163654874345657,"173":-0.09002552468385396,"174":0.11548202721168867,"175":-0.22221190926540005,"176":-0.3791198951735088,"177":0.15055345866412168,"178":-0.21009314083108183,"179":-0.0840641168564882,"180":-0.4294177579991083,"181":0.029011065557382268,"182":0.16226193131230562,"183":-0.14434587124123363,"184":-0.06930065849519228,"185":0.10926021679675504,"186":-0.2248209377915954,"187":0.283983786961874,"188":-0.022159103159031815,"189":0.17820810150916686,"190":0.005654835437754911,"191":-0.08470768576154436,"192":0.1200553763625899,"193":0.11143625842598397,"194":-0.12013398436646303,"195":0.2994842508977047,"196":0.24998006158902994,"197":-0.1293876043373047,"198":-0.275143825901071,"199":0.02061153332768439}},{"sx":5,"sy":5,"depth":8,"w":{"0":0.026558906505288707,"1":-0.016315123055085874,"2":0.0784894387922686,"3":0.005867317335031683,"4":0.004944452796342344,"5":-0.011919486419035808,"6":-0.0012799236043973046,"7":0.013500148950052516,"8":0.010385027687137744,"9":-0.024617586630929708,"10":-0.014419327676220173,"11":-0.05018776400761363,"12":-0.01481727746365512,"13":-0.046589973431413835,"14":0.037681259739600306,"15":-0.0013443449501158316,"16":-0.0314315551202646,"17":-0.02079191673793234,"18":-0.023648292358629912,"19":-0.06625792670849454,"20":0.02758129040386603,"21":-0.06489781992769618,"22":-0.07775658876351084,"23":0.07745848137649303,"24":-0.03842161514143033,"25":0.02621347475106014,"26":-0.018321667311450105,"27":-0.0271215100506625,"28":-0.03758728782482372,"29":0.007278580366944317,"30":-0.06418127579702936,"31":0.10533225103067628,"32":-0.004068859860131912,"33":0.059779987157175904,"34":-0.025092277280999484,"35":0.051070110947929764,"36":-0.1041497643115079,"37":-0.07939249607142065,"38":-0.06602130161943656,"39":0.0780389507602199,"40":0.04229925764466742,"41":-0.062064485894473796,"42":0.009552047700500492,"43":-0.020245290891749108,"44":-0.05245561301334403,"45":0.03167929009691685,"46":-0.017281366187758305,"47":-0.03363191056772979,"48":-0.06297116572954661,"49":0.011831993091576478,"50":0.006505993028115751,"51":0.04540194369771915,"52":0.08388798743696643,"53":0.007107529766902387,"54":-0.020016538880050495,"55":0.003430832764869173,"56":-0.0576995261365686,"57":-0.0005539672664609524,"58":-0.011726513012896662,"59":0.007194741604311938,"60":-0.03995713178531569,"61":-0.02004976125515855,"62":-0.07795940659555492,"63":0.031999222892519524,"64":-0.016004261048088986,"65":-0.10117369058355229,"66":0.011642360506484256,"67":0.007865305584442504,"68":-0.10659767250080693,"69":-0.2152018040338294,"70":-0.013281691388343774,"71":0.08682185950607539,"72":-0.022409764831129844,"73":-0.03418060901194634,"74":-0.016499547971429038,"75":0.042018802430930445,"76":0.010635920586751278,"77":-0.19658080597448524,"78":0.09584347528162937,"79":0.0850951392219051,"80":-0.005744727355610854,"81":-0.003645576165261718,"82":0.02207138724925444,"83":-0.08811266471516903,"84":0.005089124552750799,"85":0.011643876823238641,"86":-0.017717851059138253,"87":-0.014221636371578847,"88":0.0025500919739562798,"89":-0.014876376622882435,"90":-0.07587886746565689,"91":-0.08720110223520851,"92":-0.05191354215917882,"93":0.01653669918441847,"94":-0.061582414185126555,"95":0.03644832144869447,"96":0.0340751964785783,"97":0.008085463367600717,"98":0.03635912516625876,"99":0.022438652828459308,"100":-0.019899923933340058,"101":-0.08310217641742092,"102":0.05923709133353971,"103":-0.10380596739921495,"104":-0.04038945049600597,"105":0.054796110479484475,"106":-0.1080939905516509,"107":0.027696290865047875,"108":-0.031367481562318625,"109":-0.15023167237155363,"110":-0.03866177712945899,"111":-0.04089675663779352,"112":0.2804771366831059,"113":-0.1352520126223148,"114":0.07640636370997023,"115":-0.1674557837301536,"116":0.18605752177829216,"117":0.16580183928639727,"118":0.2817928150818465,"119":-0.09773434694046977,"120":0.02958757960603883,"121":-0.07250674570895468,"122":-0.0010347323057185956,"123":-0.016193068427555996,"124":0.00270862153700923,"125":0.03375824268258758,"126":0.014517428272163747,"127":0.0369310052320936,"128":-0.07100067654305932,"129":-0.0333133373059567,"130":-0.019394044101683442,"131":-0.030352894164038295,"132":-0.016655144409665455,"133":-0.00470614868471258,"134":-0.045382760871400724,"135":0.06000687311803746,"136":-0.05950521568851299,"137":-0.01928374086810252,"138":-0.0346028806595309,"139":-0.010136425874369238,"140":-0.005406757206530232,"141":-0.012779593452787431,"142":-0.08435206825133808,"143":0.009404645858271254,"144":-0.09979077409930567,"145":0.03796992744949119,"146":-0.022252737444144407,"147":0.062196877989494206,"148":-0.053073931175422515,"149":-0.07330958037769873,"150":-0.048533670485105984,"151":-0.07818652534177477,"152":-0.1949540969334754,"153":-0.05850250026421998,"154":0.0052752583629778966,"155":-0.043129326935690264,"156":-0.15671776479411467,"157":0.10425773259786683,"158":0.005126996876527074,"159":0.27772372488643815,"160":0.012850970229912642,"161":-0.041677834051388224,"162":-0.0433944567176186,"163":-0.007814692205618775,"164":-0.04055321966889125,"165":0.037663084966479986,"166":0.05626062427950171,"167":0.009235955793883015,"168":-0.009921220703661937,"169":-0.0464399098459715,"170":0.0005656610171266033,"171":0.08644529191159041,"172":0.00020226335956283637,"173":0.05542371770417542,"174":-0.0032109940597810946,"175":-0.0015639855685872376,"176":-0.04576817650435379,"177":-0.009334757722694254,"178":-0.08119922812818409,"179":-0.09682408335869523,"180":0.018576729244724425,"181":-0.04692511101194598,"182":0.02446001693268247,"183":0.013233099352101114,"184":-0.1580549256822095,"185":0.003237581371365983,"186":0.008718525695617523,"187":-0.05041005714414177,"188":-0.0816187837062022,"189":-0.23264999340384554,"190":-0.12426475263011036,"191":0.008918905856876342,"192":0.025163852328521703,"193":-0.17625994285455612,"194":-0.0047981774742037,"195":0.0031444213782349613,"196":-0.04427276371658396,"197":-0.1098727551402872,"198":0.012971928639994626,"199":0.20538560004403256}}],"biases":{"sx":1,"sy":1,"depth":16,"w":{"0":-0.007776846006808898,"1":-0.020573243586531894,"2":-0.055814558141731606,"3":0.1134096824293301,"4":0.0010220584321992139,"5":0.08721654995691826,"6":-0.05846822952444775,"7":0.02678881891485639,"8":0.006489189173127689,"9":0.045720424610123385,"10":-0.1000185697887906,"11":-0.15985238550279443,"12":-0.02137466090262427,"13":0.027250494953565445,"14":-0.025041051570882395,"15":0.06485031228079012}}},{"out_depth":16,"out_sx":14,"out_sy":14,"layer_type":"relu"},{"sx":3,"sy":3,"stride":3,"in_depth":16,"out_depth":16,"out_sx":4,"out_sy":4,"layer_type":"pool","pad":0},{"out_depth":28,"out_sx":1,"out_sy":1,"layer_type":"fc","num_inputs":256,"l1_decay_mul":0,"l2_decay_mul":1,"filters":[{"sx":1,"sy":1,"depth":256,"w":{"0":0.03505921881328518,"1":0.06092394334775089,"2":0.011244066141659839,"3":-0.01438904693988699,"4":-0.08135975988380655,"5":0.012661661165974428,"6":0.05933254700731097,"7":0.11312850079758052,"8":0.018326353999588103,"9":0.027698890076299925,"10":0.01811924977444037,"11":-0.01256497679932652,"12":-0.0814376127612967,"13":-0.014966532506566616,"14":0.06197119854442106,"15":0.0022504219625605233,"16":-0.0036688229046324193,"17":0.19265822081033712,"18":0.03464668225400128,"19":0.08032338241739102,"20":0.010220704031298005,"21":-0.060886563627052796,"22":0.039238066674274825,"23":0.11418773834114158,"24":0.012682984122554869,"25":0.05056915542046685,"26":-0.08317978804597406,"27":-0.12849820724756567,"28":0.004173500526754795,"29":-0.006696401205437986,"30":0.06783603607935405,"31":0.08714494992190319,"32":-0.13566292369464308,"33":0.06985528474804745,"34":0.06449733843053267,"35":0.007153531482175112,"36":-0.015221142378377987,"37":0.006071368620904833,"38":-0.05836540500493745,"39":-0.06825503901396979,"40":-0.1376739342747835,"41":0.04292924079620811,"42":0.05306156211166172,"43":-0.009128282744657922,"44":0.04415971326536705,"45":-0.011976246356767828,"46":-0.04100559355866533,"47":0.040368746239009844,"48":0.06969902553446064,"49":-0.025608177988537616,"50":-0.01034058853892434,"51":-0.03904891397118209,"52":0.16176559947898794,"53":0.2354002211067788,"54":-0.13278032509851742,"55":-0.13483554751897664,"56":-0.11487535718668868,"57":-0.01240450838564278,"58":0.25724110914236625,"59":0.002986627796642109,"60":-0.16204010188653895,"61":0.1118011042744469,"62":0.17195365247405262,"63":-0.0013782298155718133,"64":0.05434584541065872,"65":-0.01850808740214767,"66":0.1260101243173606,"67":-0.03035443577348016,"68":-0.08368997847092688,"69":0.015247675515505326,"70":0.043529283268516475,"71":0.004993724003965217,"72":-0.03344685297923715,"73":-0.06739995779665868,"74":-0.019901618496934444,"75":-0.07770978428263932,"76":0.11335756039122438,"77":0.016857828964144242,"78":-0.034679287109405856,"79":0.08493617826359698,"80":0.013793702795024489,"81":-0.05862231149525709,"82":0.30110804321602835,"83":0.19117618156667016,"84":-0.05013599999408352,"85":0.10050078675652624,"86":0.025190936699120713,"87":-0.11821390917339696,"88":-0.08112476957522138,"89":-0.07168060982678076,"90":-0.13414298740475475,"91":0.06262590799971773,"92":0.28720438202079845,"93":0.010501888780001356,"94":0.16410895873544604,"95":0.013711397429461895,"96":-0.04120328465300061,"97":-0.2126073341156881,"98":-0.08299014715944387,"99":0.12285170366658146,"100":-0.23787355160776671,"101":0.11941877003835366,"102":-0.029350120324142314,"103":-0.16311943735805046,"104":-0.09787813822880569,"105":-0.005997008933713706,"106":-0.038189479417791154,"107":0.08690172505543793,"108":0.05704992639512949,"109":-0.17128501589187028,"110":-0.010438076281065802,"111":-0.029039473425087326,"112":-0.008498811051178888,"113":-0.001281369964830974,"114":0.19444150597192353,"115":0.13960435130499282,"116":-0.04405084279588059,"117":0.05088326955812471,"118":-0.07844546352844475,"119":-0.07596510675328648,"120":0.10906819457515306,"121":-0.060867545930057054,"122":-0.274493245139318,"123":-0.06433656435493543,"124":0.052993497406676124,"125":0.03623300802474306,"126":-0.0038236885018370936,"127":-0.05895766205636584,"128":-0.056253951750029466,"129":-0.040588026620276385,"130":-0.10789021552764277,"131":-0.05464831837602206,"132":-0.07496619738168768,"133":-0.09360189052834522,"134":0.09075416764071709,"135":-0.03150885775882953,"136":0.06274908869932529,"137":-0.03940473647707415,"138":0.1902356147414104,"139":0.027227527133445995,"140":0.03177381724760159,"141":0.08171376123004341,"142":-0.05882830916265132,"143":0.06461871056382898,"144":-0.16972897964628764,"145":0.0022909053011213715,"146":0.044953799860671426,"147":0.0397334989926772,"148":-0.017186401622869607,"149":0.04558910923576194,"150":0.09450486196644235,"151":-0.16592335407332132,"152":-0.14141212647077475,"153":-0.03508318486840977,"154":0.10993893381396624,"155":0.0592375980792429,"156":0.3502642532802976,"157":0.12104899017279898,"158":0.1280458831495188,"159":0.07236921083136459,"160":-0.2090166588202056,"161":-0.13348134363026215,"162":0.2530195416146384,"163":0.13127549528811958,"164":-0.0968015234920289,"165":-0.12124972004494272,"166":-0.0036256463863993636,"167":-0.08686531868391806,"168":0.09744615798659262,"169":0.015125470324838027,"170":-0.061183122419771134,"171":-0.08359097143926005,"172":0.2670550986531512,"173":-0.0460067190015652,"174":-0.05651719523021248,"175":0.008633893912279469,"176":-0.06970410586861421,"177":0.06147052481632715,"178":0.2466423670395505,"179":0.00989804104961311,"180":-0.164465014047947,"181":-0.16567676776202608,"182":0.015335971127260952,"183":0.09533650585614337,"184":0.04544246530346826,"185":0.03050556646279814,"186":-0.14453091721155098,"187":0.302123102521804,"188":0.03186358438454186,"189":-0.048683369494284895,"190":-0.13528919497329334,"191":0.030921578517746604,"192":0.25006134481053954,"193":0.1662214778102353,"194":0.2856096589259001,"195":0.14361377692275926,"196":0.18280458507560313,"197":-0.018057477323725524,"198":0.11133510177641592,"199":0.0797617362028216,"200":0.09269934478506038,"201":-0.004869018556942029,"202":0.011348927602570684,"203":-0.09178433763713145,"204":0.06296564323286938,"205":0.01863049191051465,"206":0.08991604853647747,"207":0.05233222932706974,"208":0.06487737624858735,"209":0.041092758348257374,"210":0.07463642315800312,"211":-0.021698944614895743,"212":0.06026747414115915,"213":0.20853551026123146,"214":0.07242430140514182,"215":-0.18930494493196165,"216":0.09030925327819897,"217":0.03585994568481277,"218":-0.17562166397932935,"219":0.07568891842673067,"220":0.059562769960557524,"221":0.27167425344978957,"222":0.12415631643059793,"223":-0.013710030833186839,"224":-0.010329614051950596,"225":0.041631301327174706,"226":-0.34815034163094905,"227":-0.04069351616127052,"228":0.26988903366402345,"229":-0.02070068643607063,"230":0.138165765255516,"231":0.09403519384981546,"232":-0.1686609185484088,"233":0.09308149499125502,"234":0.13983070156303642,"235":-0.09929606142471509,"236":-0.08785009293320727,"237":-0.08465909991730465,"238":0.12082131226231828,"239":-0.04185861384263904,"240":-0.26967188326839336,"241":0.05042441320510352,"242":-0.14925430540326015,"243":0.1885065474980533,"244":-0.03378678818282811,"245":0.1528528612452964,"246":0.016669627339339004,"247":0.1407748768987609,"248":0.033299858939836564,"249":-0.08517697721978346,"250":0.029215020472379675,"251":-0.06544909701020221,"252":0.05593188885172431,"253":-0.008601628286959598,"254":-0.2053334580602261,"255":0.021829789529165984}},{"sx":1,"sy":1,"depth":256,"w":{"0":-0.061903738611565076,"1":0.04856284153217855,"2":-0.030566507850231194,"3":-0.08590194668337173,"4":0.046918855291617254,"5":0.026902835227580225,"6":0.008767980868259707,"7":0.14148294934316175,"8":-0.021490642020638884,"9":-0.026226397087615882,"10":0.03263217476427666,"11":0.013565455894583724,"12":-0.05045555655051763,"13":-0.01539681237177858,"14":-0.020264818181719567,"15":0.08299775500583614,"16":0.17120688769021103,"17":-0.06002206761805504,"18":0.19971321511696927,"19":0.07054287320533958,"20":0.05303042849378365,"21":0.0588217919630988,"22":0.08256442822541495,"23":0.06999304251993706,"24":0.07507740594971203,"25":-0.0008190268955415405,"26":0.17082308485946765,"27":-0.02116669454592908,"28":-0.045374211506060254,"29":0.042492978846897435,"30":0.06732700372062453,"31":0.021428642580178927,"32":0.049238408068325655,"33":0.07542138958380866,"34":0.05549550163556064,"35":-0.0757556732078059,"36":0.1965950776629864,"37":-0.06775386078219729,"38":-0.023074738976265392,"39":-0.024189898491170387,"40":0.04410805122424338,"41":-0.003208115859072,"42":0.01551818856149485,"43":0.0032085808146684767,"44":0.02481146875859927,"45":-0.03307212247558044,"46":-0.042318728424151054,"47":0.057078256944152125,"48":0.060896386043653106,"49":0.02574271526464326,"50":-0.0028675986285447465,"51":-0.014336628285473593,"52":-0.015242741086745124,"53":0.03853127355964244,"54":-0.14414861270488455,"55":-0.12620475840312229,"56":-0.022629283092638574,"57":-0.05288435895907497,"58":0.1350583556157997,"59":-0.042545293798634275,"60":-0.06835558471255505,"61":-0.03798957716963792,"62":0.01348343681707055,"63":0.011336766837769763,"64":0.12161771352024335,"65":0.09340261389925665,"66":-0.20451873311962163,"67":-0.21712679382475286,"68":-0.09237588933474938,"69":-0.03843839468292666,"70":0.13531385800233703,"71":0.11954593130741789,"72":-0.039514581672757065,"73":-0.01919903515648317,"74":-0.04927583223348903,"75":-0.019067049477285464,"76":-0.21468957975564867,"77":0.0022121449586173366,"78":-0.0995442861535149,"79":0.0349871613980525,"80":-0.023560323407670204,"81":0.10833694642244027,"82":-0.08371500588315041,"83":-0.2565822740563751,"84":0.08381809994093133,"85":-0.07517147498999384,"86":0.17006473850428022,"87":0.23889812425610976,"88":-0.12449668593274636,"89":0.08819861594965599,"90":-0.037496467479966336,"91":0.3121735173539009,"92":-0.16364812729759734,"93":-0.08205488417449176,"94":-0.04604633636042095,"95":-0.0857473617940886,"96":0.01614570206754555,"97":0.010611935587282234,"98":0.05615767855471662,"99":-0.06395440120536948,"100":-0.06132565015673597,"101":0.008611183467825108,"102":-0.07200103291567661,"103":-0.0804366380728699,"104":0.08161470591306083,