{
    "net": {
        "layers": [
            {
                "out_depth": 1,
                "out_sx": 28,
                "out_sy": 28,
                "layer_type": "input"
            },
            {
                "sx": 5,
                "sy": 5,
                "stride": 1,
                "in_depth": 1,
                "out_depth": 8,
                "out_sx": 28,
                "out_sy": 28,
                "layer_type": "conv",
                "l1_decay_mul": 0,
                "l2_decay_mul": 1,
                "pad": 2,
                "filters": [
                    {
                        "sx": 5,
                        "sy": 5,
                        "depth": 1,
                        "w": {
                            "0": -0.405844464116762,
                            "1": -0.30372843254740567,
                            "2": 0.19926069684002212,
                            "3": 0.16115168183722706,
                            "4": 0.2779069642032805,
                            "5": 0.3526882991192667,
                            "6": 0.4391113011468856,
                            "7": 0.22939985488262352,
                            "8": -0.060956505467443016,
                            "9": 0.10167387815939341,
                            "10": 0.36053938251006423,
                            "11": -0.10107863325953692,
                            "12": -0.3970496275539651,
                            "13": 0.008346332391278116,
                            "14": -0.13763338008833048,
                            "15": -0.44245308611955525,
                            "16": -0.3974724765946626,
                            "17": -0.24561093582289972,
                            "18": -0.44174054000589436,
                            "19": 0.010101384281346227,
                            "20": -0.27392222210188155,
                            "21": 0.0640293262631435,
                            "22": 0.12190374461218989,
                            "23": -0.0071459622400163155,
                            "24": -0.18054826107374317
                        }
                    },
                    {
                        "sx": 5,
                        "sy": 5,
                        "depth": 1,
                        "w": {
                            "0": -0.06260079938091268,
                            "1": 0.239119048119167,
                            "2": 0.022125196115230887,
                            "3": 0.047281597042854694,
                            "4": 0.2468028429141559,
                            "5": 0.3205833920538099,
                            "6": -0.20224323493143243,
                            "7": 0.2444609164383127,
                            "8": 0.3068758018371273,
                            "9": 0.6764249496534063,
                            "10": 0.13581520778543907,
                            "11": 0.2934471797043847,
                            "12": 0.02861937442784321,
                            "13": 0.015051826083141737,
                            "14": 0.26113695681851706,
                            "15": -0.5735163431615686,
                            "16": -0.3773490828538062,
                            "17": 0.10216061867406094,
                            "18": -0.03794901074645551,
                            "19": 0.0024541543696789785,
                            "20": -0.732579349583305,
                            "21": -0.11749576188588577,
                            "22": 0.03073356600364057,
                            "23": -0.14685718008305215,
                            "24": -0.34132145514668044
                        }
                    },
                    {
                        "sx": 5,
                        "sy": 5,
                        "depth": 1,
                        "w": {
                            "0": -0.1537498279492637,
                            "1": 0.31223544138514625,
                            "2": 0.2737885965244335,
                            "3": -0.08252403546851701,
                            "4": 0.040252193419755694,
                            "5": 0.42675861110624463,
                            "6": 0.11024688479808091,
                            "7": 0.08593740056924246,
                            "8": 0.32366682378012623,
                            "9": -0.1537715637506732,
                            "10": 0.16612653804786198,
                            "11": 0.37289813508923936,
                            "12": 0.14333388569154892,
                            "13": 0.07351668714392375,
                            "14": -0.06608169121887295,
                            "15": 0.05386355652758281,
                            "16": 0.09494853938432428,
                            "17": -0.1569992254107172,
                            "18": 0.07560492391591946,
                            "19": -0.11204923549541626,
                            "20": 0.07406128846432397,
                            "21": 0.1843706506026778,
                            "22": 0.0335972577409769,
                            "23": -0.19926044246476518,
                            "24": -0.43517943887133437
                        }
                    },
                    {
                        "sx": 5,
                        "sy": 5,
                        "depth": 1,
                        "w": {
                            "0": 0.10665485827185614,
                            "1": 0.3786543555221089,
                            "2": 0.10218717619154985,
                            "3": 0.10362114347434491,
                            "4": 0.05064547058846294,
                            "5": -0.23142914979139276,
                            "6": -0.1874159629528945,
                            "7": 0.06128640405194092,
                            "8": 0.1917331772151897,
                            "9": 0.3065814634189376,
                            "10": -0.0791470217628289,
                            "11": 0.1310645185899055,
                            "12": 0.09058790409718577,
                            "13": 0.04487859783426483,
                            "14": -0.44189013539308936,
                            "15": -0.34735913306156785,
                            "16": -0.24436063221201554,
                            "17": -0.18294069602402202,
                            "18": -0.233266445015373,
                            "19": -0.2878396052376414,
                            "20": -0.008502761015156214,
                            "21": -0.0729499747236361,
                            "22": -0.13567574902360222,
                            "23": 0.06943519349534259,
                            "24": 0.15035424764769087
                        }
                    },
                    {
                        "sx": 5,
                        "sy": 5,
                        "depth": 1,
                        "w": {
                            "0": -0.28967327603880355,
                            "1": 0.34940009646738607,
                            "2": -0.20941326309569844,
                            "3": 0.062225687755797274,
                            "4": 0.25144478330697984,
                            "5": 0.1520554789620506,
                            "6": -0.43928935811845976,
                            "7": 0.18946259896530807,
                            "8": 0.37769376662804444,
                            "9": 0.1413926237269361,
                            "10": -0.4552134968455414,
                            "11": -0.25727725521050226,
                            "12": -0.022713381553887843,
                            "13": 0.5761391638934171,
                            "14": -0.21211322278608183,
                            "15": -0.15880164798122673,
                            "16": -0.00583423463147301,
                            "17": -0.11736589052361175,
                            "18": 0.09392724975777933,
                            "19": 0.44910435127028553,
                            "20": -0.2956168176937256,
                            "21": 0.10162063098216952,
                            "22": -0.06821485514672682,
                            "23": 0.01942522279589106,
                            "24": -0.10039639116412911
                        }
                    },
                    {
                        "sx": 5,
                        "sy": 5,
                        "depth": 1,
                        "w": {
                            "0": -0.4875626408525402,
                            "1": 0.20367228518954647,
                            "2": -0.1984160546097174,
                            "3": -0.3964864950076032,
                            "4": -0.03356592284627096,
                            "5": -0.27061931078863494,
                            "6": -0.3643170527465966,
                            "7": 0.13235388837487388,
                            "8": -0.08482505398034973,
                            "9": 0.03361791382933986,
                            "10": -0.3155773789404057,
                            "11": -0.3095078102695354,
                            "12": 0.08608672267320706,
                            "13": -0.09311082246282694,
                            "14": 0.25105032090810314,
                            "15": 0.03688370600975152,
                            "16": 0.3367771130457114,
                            "17": 0.12274276207357816,
                            "18": 0.06679017502356988,
                            "19": 0.11821442594517542,
                            "20": 0.12787401713957053,
                            "21": 0.333930709984359,
                            "22": 0.21557029419593265,
                            "23": 0.08830371806542897,
                            "24": 0.1407274226258132
                        }
                    },
                    {
                        "sx": 5,
                        "sy": 5,
                        "depth": 1,
                        "w": {
                            "0": 0.4586359303490432,
                            "1": -0.12253110530291225,
                            "2": -0.16475187115396947,
                            "3": -0.28940504066318157,
                            "4": -0.15445269087410973,
                            "5": 0.2644961818944097,
                            "6": -0.039165496524072065,
                            "7": -0.4420518357663125,
                            "8": -0.0781128393953187,
                            "9": -0.4149216947794854,
                            "10": -0.0012622432675441306,
                            "11": 0.11748765124947276,
                            "12": -0.22496361466720868,
                            "13": 0.14920115828053285,
                            "14": -0.2844913498004516,
                            "15": -0.007974501570256393,
                            "16": -0.36651535502199967,
                            "17": -0.19580114471318624,
                            "18": -0.028450912532635715,
                            "19": -0.29484099308535044,
                            "20": 0.33378987254299175,
                            "21": -0.16776434661990042,
                            "22": -0.019516334205196297,
                            "23": -0.23893652587698638,
                            "24": -0.007973865860666576
                        }
                    },
                    {
                        "sx": 5,
                        "sy": 5,
                        "depth": 1,
                        "w": {
                            "0": -0.2668081790769297,
                            "1": -0.23242968219903606,
                            "2": 0.3663734802856423,
                            "3": 0.2807113249812328,
                            "4": 0.1244835281531735,
                            "5": -0.11070332802464422,
                            "6": -0.17641278601172544,
                            "7": 0.08517314362260586,
                            "8": 0.44537145953439966,
                            "9": -0.19910279192584918,
                            "10": 0.298186898414843,
                            "11": -0.012194593468170846,
                            "12": -0.025857539330190308,
                            "13": 0.19929027879872072,
                            "14": -0.30753634924002754,
                            "15": 0.004337558070740002,
                            "16": -0.07180847619455417,
                            "17": -0.04308332128912837,
                            "18": -0.04945761932661391,
                            "19": -0.3440975774510966,
                            "20": -0.13147272100676882,
                            "21": 0.1361366676751058,
                            "22": 0.06429916185943914,
                            "23": -0.3524370278386674,
                            "24": 0.10424432978575937
                        }
                    }
                ],
                "biases": {
                    "sx": 1,
                    "sy": 1,
                    "depth": 8,
                    "w": {
                        "0": 0.11374124822104843,
                        "1": 0.10099591355850099,
                        "2": 0.03003999796574116,
                        "3": 0.08132813043504082,
                        "4": 0.06864338443349573,
                        "5": 0.08440129000541459,
                        "6": 0.2575008018433012,
                        "7": 0.035455672935807765
                    }
                }
            },
            {
                "out_depth": 8,
                "out_sx": 28,
                "out_sy": 28,
                "layer_type": "relu"
            },
            {
                "sx": 2,
                "sy": 2,
                "stride": 2,
                "in_depth": 8,
                "out_depth": 8,
                "out_sx": 14,
                "out_sy": 14,
                "layer_type": "pool",
                "pad": 0
            },
            {
                "sx": 5,
                "sy": 5,
                "stride": 1,
                "in_depth": 8,
                "out_depth": 16,
                "out_sx": 14,
                "out_sy": 14,
                "layer_type": "conv",
                "l1_decay_mul": 0,
                "l2_decay_mul": 1,
                "pad": 2,
                "filters": [
                    {
                        "sx": 5,
                        "sy": 5,
                        "depth": 8,
                        "w": {
                            "0": -0.07135757807563978,
                            "1": -0.08480369343752663,
                            "2": -0.05262221675984874,
                            "3": 0.01797619554750601,
                            "4": 0.028828913567665097,
                            "5": 0.07335118567811057,
                            "6": 0.022329687780420847,
                            "7": 0.05046406797301215,
                            "8": 0.12553697320354004,
                            "9": -0.02526852914013599,
                            "10": -0.09909131507765753,
                            "11": 0.027789285081269734,
                            "12": -0.06248238547580292,
                            "13": -0.11592008379172707,
                            "14": 0.056868633102793095,
                            "15": 0.03446095366292859,
                            "16": -0.00850455692390336,
                            "17": -0.01993678478834935,
                            "18": 0.08753493528938194,
                            "19": -0.029593896101315163,
                            "20": -0.006085801070109618,
                            "21": -0.06109082707573762,
                            "22": 0.05228307218342171,
                            "23": -0.07317217067834449,
                            "24": 0.0007107518959877392,
                            "25": -0.07363606319073589,
                            "26": -0.01682790624741061,
                            "27": 0.07691860256446396,
                            "28": 0.03432303630704671,
                            "29": -0.08626956592918006,
                            "30": 0.10801336247149992,
                            "31": -0.14170497398166976,
                            "32": 0.04912258415151509,
                            "33": -0.07117083888095295,
                            "34": -0.059526230027232604,
                            "35": -0.05026718420116759,
                            "36": -0.12554427580627725,
                            "37": 0.013029637023096695,
                            "38": 0.01084540001601141,
                            "39": -0.10614439583379813,
                            "40": 0.08037461114985037,
                            "41": 0.006299166582388339,
                            "42": 0.031078165611326522,
                            "43": -0.18167194371719333,
                            "44": -0.00020515057938686214,
                            "45": -0.034963715543087616,
                            "46": -0.05435358632347601,
                            "47": 0.07066461857979377,
                            "48": 0.015516591030491841,
                            "49": -0.07083698471693872,
                            "50": -0.08968285468328155,
                            "51": -0.07330723561660613,
                            "52": 0.007471704442119694,
                            "53": -0.02728338247758907,
                            "54": -0.16751996636136204,
                            "55": 0.020190178013410387,
                            "56": 0.08926285146977685,
                            "57": -0.03284446551570309,
                            "58": 0.017813136278853677,
                            "59": -0.09390403591070372,
                            "60": 0.10667152957282024,
                            "61": 0.06980379575200339,
                            "62": 0.029458565722682066,
                            "63": -0.024213249187467138,
                            "64": -0.0728237034149181,
                            "65": 0.12909021385264827,
                            "66": 0.2061247033671337,
                            "67": 0.0024218351901821753,
                            "68": 0.022170788186048476,
                            "69": -0.051317754624516466,
                            "70": 0.07310724106470383,
                            "71": -0.10479926669941048,
                            "72": -0.028533183945977595,
                            "73": -0.0753555624749904,
                            "74": -0.07121415574884771,
                            "75": -0.029162526697203123,
                            "76": -0.1894790334899156,
                            "77": 0.023395863574890746,
                            "78": 0.03267680129827911,
                            "79": -0.12192229086904,
                            "80": 0.07022265503309416,
                            "81": 0.010226059507520518,
                            "82": -0.015992190668856803,
                            "83": -0.13014508738090788,
                            "84": -0.05746394352095836,
                            "85": 0.05404770306429728,
                            "86": 0.0733377767441883,
                            "87": -0.06442763348904615,
                            "88": -0.17340949670602004,
                            "89": -0.03309807512894051,
                            "90": 0.05143141430891337,
                            "91": -0.07371531571778056,
                            "92": 0.17345854473064096,
                            "93": -0.07760479650625461,
                            "94": -0.11650370016816101,
                            "95": 0.038465205040941655,
                            "96": -0.0029016657935614087,
                            "97": -0.14838781871336496,
                            "98": 0.05026192504330799,
                            "99": -0.005232427957250908,
                            "100": -0.027659836736409343,
                            "101": 0.11239232027781365,
                            "102": -0.052528036947361245,
                            "103": 0.014562728033487668,
                            "104": 0.021004701660327134,
                            "105": -0.06406854593692896,
                            "106": -0.034285508086336465,
                            "107": -0.0777271511755741,
                            "108": 0.07811083808231067,
                            "109": -0.01373088716928959,
                            "110": -0.04257367473363413,
                            "111": 0.032217693994850395,
                            "112": -0.08951634577917027,
                            "113": -0.11556626179563423,
                            "114": -0.06950503089917608,
                            "115": -0.11492617240369257,
                            "116": -0.008975527122450477,
                            "117": -0.030216243129758392,
                            "118": 0.06338212010079956,
                            "119": -0.16556849104333218,
                            "120": 0.03913058511760319,
                            "121": 0.07279932383154797,
                            "122": 0.0584501154943641,
                            "123": -0.0040071370939094245,
                            "124": -0.04149715673145268,
                            "125": -0.0471894065592094,
                            "126": 0.058637706556027284,
                            "127": 0.022803782583959837,
                            "128": -0.08488423281437595,
                            "129": 0.020557852381046505,
                            "130": 0.04347840396158306,
                            "131": -0.10151806973895755,
                            "132": -0.0028135023942818345,
                            "133": 0.08546096848931214,
                            "134": 0.07827557354212408,
                            "135": 0.11618925818960041,
                            "136": -0.11954641111393062,
                            "137": -0.010477332669903196,
                            "138": 0.06525873400330263,
                            "139": -0.029911183318553938,
                            "140": -0.14153213634702239,
                            "141": 0.04438902980484439,
                            "142": 0.016400203426707262,
                            "143": 0.14489586968215354,
                            "144": 0.08057472525323751,
                            "145": -0.016437658666859735,
                            "146": 0.034668380392329695,
                            "147": 0.13654354582442227,
                            "148": -0.0391648547330848,
                            "149": 0.013694391884519697,
                            "150": 0.11698594472448706,
                            "151": -0.11119103007654088,
                            "152": -0.06714804103577358,
                            "153": -0.0384007159169271,
                            "154": -0.12757891562889087,
                            "155": 0.061405895900923574,
                            "156": 0.04779219650815873,
                            "157": -0.02832329785695033,
                            "158": -0.10616602874952848,
                            "159": 0.006798952807900829,
                            "160": -0.01133992000531057,
                            "161": 0.11475379371063399,
                            "162": -0.028108001161996243,
                            "163": -0.039498657594584395,
                            "164": 0.1482458225976923,
                            "165": 0.05616457993199588,
                            "166": -0.20595134203681012,
                            "167": 0.11641037543080153,
                            "168": -0.14914951316451708,
                            "169": 0.009785038654155,
                            "170": 0.060672838477835535,
                            "171": -0.04497918411538424,
                            "172": 0.11995577568983977,
                            "173": -0.08765409594207908,
                            "174": -0.08857917124447111,
                            "175": 0.03671560094571923,
                            "176": 0.013397213254189856,
                            "177": -0.08224429269280313,
                            "178": -0.01713384359520079,
                            "179": -0.10700150025016447,
                            "180": -0.10348961195021349,
                            "181": 0.08740251385177884,
                            "182": 0.07102429108987754,
                            "183": -0.11581168440175785,
                            "184": -0.012649783189070488,
                            "185": -0.15411856593125753,
                            "186": -0.1607300897094765,
                            "187": 0.07635188629218446,
                            "188": 0.014322735384462947,
                            "189": -0.09877247159247435,
                            "190": -0.018801370964508627,
                            "191": -0.12231635860997646,
                            "192": -0.09415751226571054,
                            "193": -0.0394798409818191,
                            "194": -0.05562168184590811,
                            "195": 0.0037986636524907367,
                            "196": 0.08837885508096144,
                            "197": -0.008717801150997113,
                            "198": -0.09613896671441965,
                            "199": -0.13908458252290978
                        }
                    },
                    {
                        "sx": 5,
                        "sy": 5,
                        "depth": 8,
                        "w": {
                            "0": -0.047626185915629254,
                            "1": -0.0751096485884963,
                            "2": -0.1006368838425165,
                            "3": 0.044308948766110225,
                            "4": 0.02436348767964088,
                            "5": 0.13130730169473026,
                            "6": -0.04081574810107135,
                            "7": 0.10659805849468647,
                            "8": 0.0013755442684381066,
                            "9": -0.10394197445709209,
                            "10": -0.012827074213522947,
                            "11": -0.16103094323455525,
                            "12": -0.008447989161355392,
                            "13": 0.09751130987338408,
                            "14": 0.027652172137605062,
                            "15": 0.005435712810184742,
                            "16": 0.08633428490592054,
                            "17": -0.019425282796604125,
                            "18": 0.10102055253257256,
                            "19": 0.1512998600880453,
                            "20": -0.06997102984993772,
                            "21": -0.10014055848413111,
                            "22": 0.004221502602626621,
                            "23": -0.04155031535530043,
                            "24": 0.007893875270890322,
                            "25": -0.1369142467249974,
                            "26": 0.13492565297509027,
                            "27": 0.008873246619201119,
                            "28": -0.13737819852925628,
                            "29": -0.11133991699989942,
                            "30": -0.13650816853725878,
                            "31": 0.016861954957737554,
                            "32": 0.13539489347047298,
                            "33": -0.0189647198871103,
                            "34": -0.01951324615283872,
                            "35": 0.017072898997508232,
                            "36": -0.06831728260083272,
                            "37": 0.01506868181024247,
                            "38": 0.047319057770113984,
                            "39": 0.028805847248944555,
                            "40": -0.1097697103167987,
                            "41": 0.056407937612236655,
                            "42": 0.028964061791397745,
                            "43": 0.08811004207817932,
                            "44": 0.07851829961993374,
                            "45": -0.14417083380533724,
                            "46": -0.13469844698257974,
                            "47": -0.1107312684675872,
                            "48": 0.08375452306219486,
                            "49": 0.1311381385264083,
                            "50": 0.049164317684606454,
                            "51": -0.17058354153229935,
                            "52": -0.05969712818481848,
                            "53": -0.1435069784754103,
                            "54": -0.06600448784252289,
                            "55": -0.0814467359289036,
                            "56": -0.18713424559758068,
                            "57": 0.08043081485531413,
                            "58": -0.003340863812716848,
                            "59": -0.035303288431750006,
                            "60": -0.0004740355023135825,
                            "61": -0.0753897509561615,
                            "62": -0.15051088057386267,
                            "63": 0.06265288462059779,
                            "64": -0.13896746748158764,
                            "65": -0.000829972222490297,
                            "66": -0.001880354883078912,
                            "67": 0.01735569214627799,
                            "68": 0.12946633238051755,
                            "69": 0.03714920842828368,
                            "70": -0.0782820705547639,
                            "71": -0.06699213104133138,
                            "72": -0.04971637443307606,
                            "73": -0.1198325302649284,
                            "74": -0.08586244663041336,
                            "75": 0.06315374043100166,
                            "76": -0.14332145987279543,
                            "77": -0.03592955201177573,
                            "78": -0.028276824152556987,
                            "79": -0.09624667092068871,
                            "80": -0.0873220396776035,
                            "81": 0.07521412653505608,
                            "82": 0.051224513529231214,
                            "83": 0.06530973292263312,
                            "84": 0.0600845486094734,
                            "85": -0.08324996009211683,
                            "86": -0.04952134740454623,
                            "87": -0.06194095887444199,
                            "88": 0.045047442201249205,
                            "89": 0.09441575101746995,
                            "90": 0.04714047462990506,
                            "91": -0.03701222497072994,
                            "92": 0.05209191069757501,
                            "93": 0.017393281088497844,
                            "94": -0.12871391182474512,
                            "95": 0.10455276745834839,
                            "96": -0.021682972558444816,
                            "97": -0.06571304593654995,
                            "98": 0.024111061889162524,
                            "99": -0.12175529235043225,
                            "100": 0.0661064364167042,
                            "101": -0.0795609121625562,
                            "102": -0.15566021541323574,
                            "103": 0.029688170684554076,
                            "104": 0.020696378433124968,
                            "105": -0.05209727723776052,
                            "106": 0.11887729177826382,
                            "107": 0.022593128062213703,
                            "108": -0.13110574600372363,
                            "109": -0.10336970235369804,
                            "110": -0.06996598107224239,
                            "111": -0.011510004703975922,
                            "112": -0.06890347827223899,
                            "113": -0.09438968325182054,
                            "114": 0.07709261635800564,
                            "115": 0.01889825650232688,
                            "116": -0.15796778937755157,
                            "117": 0.13946216560345367,
                            "118": -0.024722634798879237,
                            "119": -0.018178309304883032,
                            "120": 0.07272845320007282,
                            "121": -0.07598577417315927,
                            "122": 0.016826998417812534,
                            "123": -0.14372002923786553,
                            "124": -0.029987572622699705,
                            "125": -0.1256357636745141,
                            "126": -0.12174115701134396,
                            "127": -0.08231250874622319,
                            "128": 0.09719317543901494,
                            "129": -0.03181604460505754,
                            "130": -0.14210283872743829,
                            "131": 0.0856892442595206,
                            "132": 0.006921895498086314,
                            "133": 0.009886275372069347,
                            "134": -0.1369320234548789,
                            "135": -0.012394762540539901,
                            "136": -0.05526087153642973,
                            "137": 0.04897612493629919,
                            "138": -0.04991940593524534,
                            "139": 0.10409790368382005,
                            "140": 0.002383960362644324,
                            "141": -0.046320106746891285,
                            "142": -0.0532426714512774,
                            "143": -0.08834201642153353,
                            "144": 0.044645761370887264,
                            "145": -0.057947103575048675,
                            "146": 0.054534590588068275,
                            "147": -0.028535141988298738,
                            "148": -0.003865284047813342,
                            "149": -0.089992100090235,
                            "150": -0.061153685841972866,
                            "151": -0.009069551756979278,
                            "152": 0.007444612857222988,
                            "153": -0.06496624210955328,
                            "154": -0.051589558774196166,
                            "155": -0.06893845872815334,
                            "156": 0.07862500608941439,
                            "157": 0.002740253834561576,
                            "158": 0.05784164663317767,
                            "159": -0.08090866962906713,
                            "160": -0.033737624078790086,
                            "161": 0.053889961697306414,
                            "162": -0.06338143969130901,
                            "163": 0.09000615305002191,
                            "164": -0.11257201211261622,
                            "165": -0.0009254672656094289,
                            "166": -0.11078966413773977,
                            "167": -0.16791281529133362,
                            "168": 0.13970953371270925,
                            "169": -0.022910759495499658,
                            "170": 0.04610499281312155,
                            "171": 0.019447623868641906,
                            "172": -0.04372391555730084,
                            "173": -0.021288753007667742,
                            "174": -0.15430138660077428,
                            "175": 0.004051154288264077,
                            "176": -0.002212096766232266,
                            "177": 0.09425489246581185,
                            "178": 0.11016231816268954,
                            "179": 0.01370514443193118,
                            "180": 0.04608389983251319,
                            "181": 0.06455183090713947,
                            "182": -0.07076255296291278,
                            "183": 0.16285776306207872,
                            "184": -0.033201943029926614,
                            "185": -0.09544144834095303,
                            "186": 0.039496150764748106,
                            "187": 0.006072468243959,
                            "188": -0.0018107062580051498,
                            "189": -0.03455350529612449,
                            "190": 0.05680348574673668,
                            "191": -0.022540359328552736,
                            "192": -0.01894376270598585,
                            "193": 0.051215840851498225,
                            "194": -0.11295828625864678,
                            "195": -0.1479473407844809,
                            "196": -0.15652350101210932,
                            "197": -0.026210592068150976,
                            "198": -0.008596920178135268,
                            "199": 0.006604563381615441
                        }
                    },
                    {
                        "sx": 5,
                        "sy": 5,
                        "depth": 8,
                        "w": {
                            "0": -0.08492210535931052,
                            "1": -0.1358707420596885,
                            "2": -0.11170944438900042,
                            "3": 0.04095316262872465,
                            "4": -0.12932251165193173,
                            "5": 0.017293399782612445,
                            "6": -0.038792725795045016,
                            "7": -0.1896428363169552,
                            "8": -0.1316244938980634,
                            "9": 0.0035347162638212134,
                            "10": -0.012665721324123871,
                            "11": -0.14906314167781687,
                            "12": 0.03606968114601333,
                            "13": -0.07402980321003648,
                            "14": -0.11511505400410388,
                            "15": 0.028976302558509172,
                            "16": 0.011762291320570878,
                            "17": -0.029275154159005053,
                            "18": -0.035034632883928475,
                            "19": -0.12582248410581579,
                            "20": 0.07807572214679921,
                            "21": 0.06794884838411215,
                            "22": 0.11702369288461145,
                            "23": 0.039475093637166496,
                            "24": -0.06782161087386367,
                            "25": -0.07226310644370622,
                            "26": -0.09010897053368531,
                            "27": -0.056898592818923115,
                            "28": -0.00800546456031983,
                            "29": -0.13214028642554537,
                            "30": -0.023720130782927926,
                            "31": -0.06374149743595964,
                            "32": -0.01965669160440975,
                            "33": 0.04803896813482745,
                            "34": 0.026035607267599375,
                            "35": 0.0776653502393337,
                            "36": -0.10276801618627635,
                            "37": 0.0001470581307943151,
                            "38": -0.10437761284239457,
                            "39": -0.04784392525095599,
                            "40": 0.04632664914633816,
                            "41": -0.02398107777850819,
                            "42": -0.11647923270772184,
                            "43": -0.09951257242335992,
                            "44": -0.04642983256158528,
                            "45": -0.05749265172780102,
                            "46": 0.046128224906027,
                            "47": -0.07567022765143686,
                            "48": -0.09608268044005931,
                            "49": -0.0577731559820831,
                            "50": 0.09098032477905033,
                            "51": -0.1445396106880845,
                            "52": -0.054716732481261514,
                            "53": 0.033463116644063845,
                            "54": 0.03870978405784425,
                            "55": -0.08146753883611976,
                            "56": 0.061470607553941146,
                            "57": -0.07936473954058289,
                            "58": 0.049192487868821445,
                            "59": 0.05846780357457533,
                            "60": 0.021147011048402154,
                            "61": 0.08351971583274086,
                            "62": -0.08197491875866314,
                            "63": 0.013364202360801802,
                            "64": -0.07805220370141552,
                            "65": 0.09281948260025966,
                            "66": -0.2088174113632955,
                            "67": 0.025598702948709518,
                            "68": -0.057661489254774115,
                            "69": -0.00352574682238979,
                            "70": -0.020079567614975695,
                            "71": 0.05830963326506454,
                            "72": 0.03224126552842786,
                            "73": -0.007226196807299283,
                            "74": 0.07970371907618135,
                            "75": -0.15113996096645527,
                            "76": -0.009135721434175716,
                            "77": -0.04744453963617363,
                            "78": -0.0003956967449791865,
                            "79": -0.016812308947811237,
                            "80": -0.01649164386005122,
                            "81": 0.06459949276167408,
                            "82": -0.07338897982618517,
                            "83": 0.15401163401118184,
                            "84": -0.08539188696090999,
                            "85": -0.048804199342761145,
                            "86": 0.041978787124785956,
                            "87": -0.04546140337731861,
                            "88": 0.0312420351735537,
                            "89": 0.039919990884482656,
                            "90": 0.03940840033759143,
                            "91": -0.061798955019446725,
                            "92": -0.044263887237464404,
                            "93": -0.06098849836363297,
                            "94": -0.06373998997100536,
                            "95": 0.06289629062219743,
                            "96": 0.0984778959494961,
                            "97": 0.037463659738640555,
                            "98": -0.23735655953072332,
                            "99": -0.13530188257526107,
                            "100": -0.0005200721373190113,
                            "101": -0.02981030852528677,
                            "102": -0.005231987696088136,
                            "103": -0.02924471801877341,
                            "104": -0.07539315747778344,
                            "105": -0.00505914747730425,
                            "106": 0.05763262586912867,
                            "107": 0.00018285354404923063,
                            "108": 0.0511312936928566,
                            "109": 0.013419204782487674,
                            "110": -0.05303513283032726,
                            "111": 0.03425001659604228,
                            "112": 0.028885744622831472,
                            "113": -0.11307519989824662,
                            "114": -0.06335753938329833,
                            "115": -0.014778672071981745,
                            "116": 0.09996541979141813,
                            "117": -0.09281412885522666,
                            "118": 0.028707650505332256,
                            "119": -0.006312457254819877,
                            "120": 0.05530668779683305,
                            "121": -0.025167067653968755,
                            "122": -0.07849983943092095,
                            "123": -0.08522063481298889,
                            "124": -0.12362249115222244,
                            "125": 0.04152729779826781,
                            "126": 0.102542207182537,
                            "127": -0.10406253669673403,
                            "128": 0.12750610956446864,
                            "129": 0.03591825914474573,
                            "130": -0.06149784710715333,
                            "131": -0.07203530492974192,
                            "132": -0.020638343486703948,
                            "133": -0.12785325769707528,
                            "134": -0.11744554173950598,
                            "135": -0.028663323245869225,
                            "136": 0.08365413907006013,
                            "137": 0.15753023437853644,
                            "138": -0.04717561466957223,
                            "139": -0.10739203736301714,
                            "140": -0.10501251768239697,
                            "141": 0.01771419711995867,
                            "142": -0.023138508254386358,
                            "143": -0.03504448468223679,
                            "144": 0.010507107466875306,
                            "145": 0.024677001241616037,
                            "146": 0.08237834957373555,
                            "147": 0.044331973947844064,
                            "148": -0.06870143515895469,
                            "149": 0.05737144237764001,
                            "150": 0.037527038386066164,
                            "151": -0.058274696501660984,
                            "152": -0.034661553755699875,
                            "153": 0.08113363632680141,
                            "154": -0.01993888593942477,
                            "155": -0.06661076573327912,
                            "156": -0.06748543672507187,
                            "157": -0.1004850349390098,
                            "158": -0.04131567077630413,
                            "159": 0.13772724768016498,
                            "160": 0.0949084798663747,
                            "161": -0.03173981409702584,
                            "162": -0.1221267078759514,
                            "163": -0.07469993648444004,
                            "164": -0.037474088593163306,
                            "165": 0.03180856578481248,
                            "166": 0.04476561700192689,
                            "167": 0.05037123669921744,
                            "168": -0.12205130012043465,
                            "169": 0.09305178975135873,
                            "170": -0.11601311737663227,
                            "171": -0.003821220591332232,
                            "172": 0.0035988550539996457,
                            "173": 0.0343237077646313,
                            "174": -0.06873106842258798,
                            "175": -0.014148305722791141,
                            "176": 0.01809738163752555,
                            "177": -0.0325811915120422,
                            "178": -0.015207376133808747,
                            "179": -0.07900394811600238,
                            "180": -0.1911278180192872,
                            "181": -0.10934684475156861,
                            "182": -0.0587595302095197,
                            "183": 0.05135781853501974,
                            "184": -0.05915365304316722,
                            "185": -0.036108267588504016,
                            "186": -0.045798115348388506,
                            "187": -0.03102480156171423,
                            "188": -0.0366498926251593,
                            "189": -0.022401902084338746,
                            "190": -0.04765706635748706,
                            "191": -0.012915800204994925,
                            "192": 0.011355254722318226,
                            "193": -0.04951521357126121,
                            "194": 0.10495753989855273,
                            "195": 0.04269558113062613,
                            "196": 0.0015331716846395647,
                            "197": 0.06362558845076575,
                            "198": -0.05612290882326823,
                            "199": -0.023505400295813522
                        }
                    },
                    {
                        "sx": 5,
                        "sy": 5,
                        "depth": 8,
                        "w": {
                            "0": 0.031319491912925844,
                            "1": -0.08515884238688261,
                            "2": -0.07068626175992351,
                            "3": -0.01990482929570122,
                            "4": -0.10300437917484236,
                            "5": -0.019859642521573292,
                            "6": 0.10406310843812079,
                            "7": -0.0990488130706076,
                            "8": 0.07338694254333718,
                            "9": 0.002885142757421035,
                            "10": -0.15120455452960202,
                            "11": 0.10997939351766224,
                            "12": 0.06757684160001595,
                            "13": 0.06475501084569024,
                            "14": 0.04099931456271048,
                            "15": -0.18115170786907325,
                            "16": -0.007935848353626644,
                            "17": 0.06265639168052449,
                            "18": -0.08533791078987928,
                            "19": -0.0461129760402326,
                            "20": 0.08093576301979197,
                            "21": 0.18102983203164766,
                            "22": 0.04201894197988124,
                            "23": 0.011133631667053244,
                            "24": -0.09739778978420383,
                            "25": 0.044193815365611046,
                            "26": 0.06434486729008512,
                            "27": 0.039863014280861184,
                            "28": 0.12281799372298505,
                            "29": 0.16868960866691032,
                            "30": 0.08165371390542271,
                            "31": 0.03362102767493941,
                            "32": 0.011009717232527515,
                            "33": -0.27723439934425853,
                            "34": -0.04931088693648336,
                            "35": -0.21676726804677596,
                            "36": -0.058992218480189686,
                            "37": -0.08580986470305563,
                            "38": 0.0009122121094522363,
                            "39": 0.1288560515234075,
                            "40": -0.04125882938532358,
                            "41": -0.11949112284019767,
                            "42": 0.02323015361313751,
                            "43": -0.1172693547525736,
                            "44": -0.030333656339447287,
                            "45": -0.06491556602703015,
                            "46": -0.026700349348144484,
                            "47": -0.16566686367048775,
                            "48": 0.048247237334687394,
                            "49": -0.05129245558627504,
                            "50": -0.16869079665550848,
                            "51": -0.05737822545522999,
                            "52": -0.05620421723649649,
                            "53": 0.041697558024678734,
                            "54": -0.08580387883468724,
                            "55": -0.057274618562895174,
                            "56": -0.025214755020485532,
                            "57": 0.10659330801552842,
                            "58": -0.008927248152405599,
                            "59": -0.049909674255108505,
                            "60": 0.08360364267201387,
                            "61": 0.030132446302941977,
                            "62": -0.13842187239319567,
                            "63": -0.10410467378573962,
                            "64": -0.06311349529582491,
                            "65": -0.012780626854566315,
                            "66": 0.09694105882284783,
                            "67": -0.05028649464863573,
                            "68": 0.06298231092641376,
                            "69": 0.08344533070964631,
                            "70": 0.046433119405293696,
                            "71": 0.10406137369371259,
                            "72": -0.03372983451175544,
                            "73": 0.005688894138234677,
                            "74": -0.009810001575806759,
                            "75": -0.07378696964304131,
                            "76": -0.08283285902527963,
                            "77": -0.12949152239239994,
                            "78": 0.1102364039239898,
                            "79": -0.05098158795527956,
                            "80": -0.13521628541295486,
                            "81": 0.10276000951469139,
                            "82": -0.15731544961756733,
                            "83": -0.09577166850417336,
                            "84": -0.11696316690006532,
                            "85": -0.006506594570006088,
                            "86": 0.1010010687852926,
                            "87": -0.1547512135932567,
                            "88": -0.04254981231603697,
                            "89": 0.11134525265678459,
                            "90": -0.23237645462305168,
                            "91": -0.06737383201013675,
                            "92": 0.18395558368844744,
                            "93": 0.0033852072486084952,
                            "94": -0.08995837056908709,
                            "95": -0.009136722622082274,
                            "96": -0.16928695871102165,
                            "97": 0.20681182873781034,
                            "98": 0.0795565338737684,
                            "99": -0.025426480839995897,
                            "100": 0.03638641819051737,
                            "101": 0.008700735322367153,
                            "102": -0.12836363898101202,
                            "103": 0.12051506153645954,
                            "104": 0.003721281417627601,
                            "105": -0.1737275241881044,
                            "106": 0.09838918996337365,
                            "107": -0.03711684086942737,
                            "108": -0.09647828027180429,
                            "109": -0.07146940794970483,
                            "110": -0.0016522529548578455,
                            "111": 0.05775747302012933,
                            "112": 0.012755150957702676,
                            "113": -0.07091283352349213,
                            "114": -0.09250802534901743,
                            "115": -0.043459175632915084,
                            "116": -0.11727380504106585,
                            "117": -0.17394769370913454,
                            "118": 0.002572701707659163,
                            "119": -0.08887013432526299,
                            "120": -0.22721540863982326,
                            "121": -0.09768961946196239,
                            "122": -0.14079136005706247,
                            "123": -0.09938717330140806,
                            "124": -0.012350720766888588,
                            "125": -0.025144046947682748,
                            "126": -0.027142871510158973,
                            "127": -0.18201204113189703,
                            "128": -0.05116042331066501,
                            "129": 0.08143772378131427,
                            "130": -0.06690349427410097,
                            "131": -0.16346735677422786,
                            "132": 0.0563701411232933,
                            "133": -0.01791739378233794,
                            "134": -0.11919913589735869,
                            "135": -0.14353194639609518,
                            "136": 0.03533820893796018,
                            "137": 0.08138609478005793,
                            "138": 0.00608744154753108,
                            "139": 0.009556462798525487,
                            "140": 0.2286116094300753,
                            "141": -0.13521159593204865,
                            "142": -0.06330264201482662,
                            "143": 0.264938868549565,
                            "144": -0.02006729893463683,
                            "145": 0.0377073612873433,
                            "146": -0.013369842148445799,
                            "147": -0.07349299210649872,
                            "148": 0.023026525804978524,
                            "149": -0.04084084188086401,
                            "150": 0.07053972157918227,
                            "151": -0.142831050438851,
                            "152": -0.017889120463953634,
                            "153": 0.002584681461557277,
                            "154": 0.14911195488140105,
                            "155": 0.05568004849589645,
                            "156": 0.04889994880053516,
                            "157": -0.12295445295412938,
                            "158": 0.032917523976754105,
                            "159": -0.039457245142213,
                            "160": -0.08658516128328905,
                            "161": -0.11439296008874035,
                            "162": -0.07555228768811054,
                            "163": -0.013968152430744589,
                            "164": -0.013344765912223625,
                            "165": 0.07020787247917706,
                            "166": 0.09510111788409652,
                            "167": -0.06695614993483516,
                            "168": -0.08623596710068565,
                            "169": 0.06753176907499088,
                            "170": -0.07122533721148248,
                            "171": 0.019217680900681565,
                            "172": 0.34884507372817813,
                            "173": 0.04047517642067993,
                            "174": -0.08804356240702832,
                            "175": 0.04882329986716658,
                            "176": -0.012205051203737867,
                            "177": 0.0022773440934836554,
                            "178": 0.01674681124895215,
                            "179": -0.04190149680332687,
                            "180": 0.1383281860472042,
                            "181": -0.13757563396459693,
                            "182": 0.16595796672714855,
                            "183": 0.06618012369334568,
                            "184": 0.031022425205795193,
                            "185": 0.0037975108676077673,
                            "186": 0.1867461019677704,
                            "187": 0.0856687623420164,
                            "188": -0.08700657777304019,
                            "189": -0.0086875294538203,
                            "190": 0.028556413808747915,
                            "191": -0.0671919523114434,
                            "192": 0.018595024165513806,
                            "193": -0.040375850718606235,
                            "194": -0.14150652264809008,
                            "195": -0.0456700653182433,
                            "196": -0.08371838281387801,
                            "197": -0.1382340952712815,
                            "198": 0.039031961230758694,
                            "199": 0.02660129040119035
                        }
                    },
                    {
                        "sx": 5,
                        "sy": 5,
                        "depth": 8,
                        "w": {
                            "0": -0.07521326362815585,
                            "1": 0.05302697114312767,
                            "2": -0.013359491360641641,
                            "3": 0.08828794949607084,
                            "4": -0.06037365571761161,
                            "5": -0.1955273179528715,
                            "6": 0.06097123849719614,
                            "7": 0.03607274068983635,
                            "8": 0.01491162760620583,
                            "9": -0.021582596310100784,
                            "10": 0.03952423865166125,
                            "11": -0.01942858129177077,
                            "12": 0.015566570979811645,
                            "13": 0.05997217434950243,
                            "14": 0.08408197815288058,
                            "15": -0.04680394582724653,
                            "16": -0.10806509350508466,
                            "17": -0.0710177364942305,
                            "18": 0.02015290203395934,
                            "19": 0.062122738469445465,
                            "20": -0.1543037240365859,
                            "21": -0.054663179207220976,
                            "22": -0.06916586932974977,
                            "23": -0.035096181133174635,
                            "24": -0.012532671152154154,
                            "25": -0.08225433554061193,
                            "26": 0.08806703360342423,
                            "27": -0.0029699676914292338,
                            "28": 0.16047699693036166,
                            "29": -0.12360856618907741,
                            "30": 0.06807682312594567,
                            "31": 0.07542595181478216,
                            "32": -0.02658954191315242,
                            "33": -0.06871209479222186,
                            "34": 0.002995074360818376,
                            "35": 0.043625889724428595,
                            "36": 0.03769876884271554,
                            "37": -0.057492542829569275,
                            "38": 0.01941178271450123,
                            "39": -0.0788521615007321,
                            "40": 0.025236014033099902,
                            "41": 0.018634636271390777,
                            "42": 0.0641749149005784,
                            "43": -0.025933797008798123,
                            "44": -0.09936188525771641,
                            "45": -0.0038811567013438725,
                            "46": -0.007690240936975231,
                            "47": -0.11134899054084377,
                            "48": 0.012206040256381352,
                            "49": 0.03346136908076945,
                            "50": -0.00878693560544502,
                            "51": 0.0022542917468980858,
                            "52": 0.0007091447995195817,
                            "53": 0.08932363821378085,
                            "54": -0.008434006367542535,
                            "55": 0.0035365991943774946,
                            "56": -0.0359593699125327,
                            "57": -0.060325552882710506,
                            "58": 0.1029299338905451,
                            "59": 0.0014780111181618265,
                            "60": 0.04930641169315976,
                            "61": 0.039603344574545556,
                            "62": 0.03838820806666916,
                            "63": -0.028725508206402052,
                            "64": 0.027403837123208236,
                            "65": -0.07385826110738258,
                            "66": -0.13703632579986233,
                            "67": 0.006915700323329808,
                            "68": 0.013122100282314773,
                            "69": 0.0070744614514897655,
                            "70": 0.027492055680084514,
                            "71": -0.0318084607294879,
                            "72": 0.025635587726654707,
                            "73": 0.06542333836564132,
                            "74": -0.1270047194549584,
                            "75": 0.040443504409860345,
                            "76": -0.0857347783695746,
                            "77": -0.24335507502958542,
                            "78": -0.10975823725584286,
                            "79": 0.06490858989546008,
                            "80": -0.012438378739893223,
                            "81": -0.08048835125895827,
                            "82": -0.05734813322896821,
                            "83": 0.04060076444261205,
                            "84": -0.0765054823550876,
                            "85": -0.13507823857680146,
                            "86": -0.12330667336163305,
                            "87": 0.06012579502569001,
                            "88": 0.10540444251538274,
                            "89": 0.032574228271899604,
                            "90": 0.001157911223007729,
                            "91": 0.04467980083521421,
                            "92": 0.1502399206211956,
                            "93": -0.043720810879439104,
                            "94": 0.09077979114153004,
                            "95": -0.04384740477419404,
                            "96": 0.06715544828792192,
                            "97": -0.02698477478999596,
                            "98": -0.09126751164395026,
                            "99": -0.11221329461034933,
                            "100": 0.042924555986960995,
                            "101": 0.034130244190425235,
                            "102": 0.04155091851859596,
                            "103": -0.0757661365423796,
                            "104": 0.01623323426279205,
                            "105": -0.03923338133923692,
                            "106": -0.06398294611606663,
                            "107": 0.022032686892286525,
                            "108": -0.03461637057270478,
                            "109": -0.09882870568787548,
                            "110": -0.10116365272863705,
                            "111": -0.02812216357297425,
                            "112": 0.05143848176693189,
                            "113": 0.13944053626098343,
                            "114": -0.002799556299945125,
                            "115": -0.07595123061848447,
                            "116": -0.024610416895328172,
                            "117": 0.046348318025836936,
                            "118": -0.12057917245196025,
                            "119": -0.11576359370936726,
                            "120": 0.07801509994272726,
                            "121": -0.057708467506429904,
                            "122": -0.13482844393206073,
                            "123": 0.05019947357299519,
                            "124": 0.043746425258559464,
                            "125": 0.017004313450769963,
                            "126": -0.09648537087182218,
                            "127": -0.04651182786402666,
                            "128": -0.016442828382424623,
                            "129": -0.03541784373960499,
                            "130": 0.05205452971319153,
                            "131": 0.03104360220931553,
                            "132": 0.07626027731376726,
                            "133": -0.05580872718436667,
                            "134": -0.033934122108430435,
                            "135": 0.0003051039525029345,
                            "136": -0.12123844005486309,
                            "137": -0.05129513990127819,
                            "138": -0.05838137418957809,
                            "139": 0.03762300122761013,
                            "140": 0.0061088228666746165,
                            "141": 0.05975267127706759,
                            "142": -0.12497289502635839,
                            "143": 0.09029598360548895,
                            "144": -0.01703049671406895,
                            "145": 0.033642140084780225,
                            "146": 0.05456967941414346,
                            "147": -0.048198941575727176,
                            "148": -0.06480777166149064,
                            "149": 0.05807655089501192,
                            "150": 0.0017006977894766608,
                            "151": 0.06661704855242129,
                            "152": 0.01353773574813773,
                            "153": -0.08145175565588358,
                            "154": -0.01589037702847573,
                            "155": -0.02528316257624487,
                            "156": -0.05997144465077229,
                            "157": 0.19255196366726154,
                            "158": -0.04253942536797958,
                            "159": 0.06396273231750414,
                            "160": -0.12048572441356346,
                            "161": -0.011024052229691314,
                            "162": -0.0315355988347542,
                            "163": -0.04754114066188875,
                            "164": -0.03994908538235861,
                            "165": 0.11692151940683491,
                            "166": 0.0941160441973796,
                            "167": -0.07419593749635427,
                            "168": -0.03979554465376288,
                            "169": -0.11095547682417758,
                            "170": 0.09296381437238584,
                            "171": 0.023700475074796494,
                            "172": 0.004781830764035844,
                            "173": 0.036540960655607455,
                            "174": -0.026397082696005162,
                            "175": -0.07086805293857533,
                            "176": -0.02321442354082668,
                            "177": 0.028258888114147274,
                            "178": 0.011121806135340669,
                            "179": 0.044547010290886944,
                            "180": 0.017906520707673013,
                            "181": 0.07271719188444213,
                            "182": -0.10595293870664438,
                            "183": -0.014400466677082252,
                            "184": 0.03257391331659514,
                            "185": -0.0633842367582696,
                            "186": -0.018339289539231966,
                            "187": 0.15983882588730527,
                            "188": -0.10985483702157493,
                            "189": -0.2745925012524255,
                            "190": -0.2107351681080762,
                            "191": 0.028611657664344183,
                            "192": -0.004778886906396929,
                            "193": -0.12564215490571526,
                            "194": 0.01345396496222141,
                            "195": 0.17748643472136247,
                            "196": 0.02864369921265942,
                            "197": -0.08330720937681316,
                            "198": -0.015445893504581035,
                            "199": 0.05827102225997294
                        }
                    },
                    {
                        "sx": 5,
                        "sy": 5,
                        "depth": 8,
                        "w": {
                            "0": 0.07488464393197836,
                            "1": -0.1730714829599078,
                            "2": 0.022594557111247155,
                            "3": -0.02796781509915593,
                            "4": 0.024932855319241016,
                            "5": -0.03848541663292889,
                            "6": 0.03741809916377357,
                            "7": -0.08220560745884911,
                            "8": 0.15279222313006652,
                            "9": -0.02503139053297922,
                            "10": 0.09820939808821953,
                            "11": -0.05216867024175808,
                            "12": 0.04720033211012056,
                            "13": -0.21483041590244528,
                            "14": 0.06874537205854031,
                            "15": -0.00015342827508499953,
                            "16": -0.08584222217710065,
                            "17": 0.10987035172068191,
                            "18": -0.1272018293617094,
                            "19": -0.04296296516039048,
                            "20": 0.02774733650574009,
                            "21": 0.0030457897815990608,
                            "22": 0.07919321158054705,
                            "23": -0.00909934679677739,
                            "24": -0.08438265826357084,
                            "25": 0.0102606110517927,
                            "26": 0.06148912553552082,
                            "27": 0.07011851610195206,
                            "28": -0.005912406060890354,
                            "29": 0.0009701366932639193,
                            "30": -0.1084640297617961,
                            "31": 0.12728807900759076,
                            "32": 0.01572482520363202,
                            "33": -0.0952564841866356,
                            "34": -0.027963246749463634,
                            "35": -0.034537544518540714,
                            "36": -0.06068524367298329,
                            "37": -0.06481412386202576,
                            "38": 0.10752394152604523,
                            "39": 0.009224412284794007,
                            "40": 0.062488288405209744,
                            "41": -0.01203443949064135,
                            "42": -0.012249346603001419,
                            "43": 0.057624901403091074,
                            "44": 0.012095644968642159,
                            "45": -0.1308219581806866,
                            "46": 0.060191877148739276,
                            "47": -0.10059009594678202,
                            "48": -0.03913849356328792,
                            "49": -0.0516307878319652,
                            "50": -0.018723278585256395,
                            "51": -0.09027903770089589,
                            "52": -0.1470553165445596,
                            "53": -0.10750876752788846,
                            "54": 0.12126139472422329,
                            "55": -0.02749463715434782,
                            "56": -0.006157649120138804,
                            "57": 0.05707294807277649,
                            "58": -0.1785808028401479,
                            "59": -0.008309545726218098,
                            "60": 0.11901565128957207,
                            "61": 0.1523484665495121,
                            "62": -0.055680467539838345,
                            "63": 0.005840963690124159,
                            "64": -0.12402465498635215,
                            "65": -0.16787144828102205,
                            "66": 0.08670834987657074,
                            "67": 0.14067778344340104,
                            "68": -0.019996954456232695,
                            "69": -0.054217465591910693,
                            "70": -0.06410413925654929,
                            "71": 0.08195023849527241,
                            "72": 0.04567496591029229,
                            "73": -0.1161501809745093,
                            "74": 0.10948605095746262,
                            "75": -0.14412696498130348,
                            "76": -0.04344050396347892,
                            "77": -0.011601214844544067,
                            "78": -0.02075611974066935,
                            "79": 0.02914972730187019,
                            "80": -0.063444791559267,
                            "81": -0.14723345628069018,
                            "82": 0.10021182572321437,
                            "83": 0.0818695937863831,
                            "84": -0.07463984485880139,
                            "85": -0.19981806266578486,
                            "86": 0.07403340749675895,
                            "87": -0.10027845798675517,
                            "88": -0.040016778398466527,
                            "89": -0.052923084048742255,
                            "90": 0.027565024935743077,
                            "91": -0.013272250577361948,
                            "92": 0.03922303796997341,
                            "93": -0.07251814565543217,
                            "94": 0.051260909311929864,
                            "95": -0.04015490057842694,
                            "96": 0.008411852473002688,
                            "97": 0.1239154910695129,
                            "98": -0.137837058977599,
                            "99": -0.08812810141972875,
                            "100": 0.1358752613770554,
                            "101": -0.16301863437277347,
                            "102": -0.06640530485472179,
                            "103": -0.024228885412698485,
                            "104": -0.15459668267260734,
                            "105": 0.06779407997302585,
                            "106": 0.016906449963891297,
                            "107": 0.01706823212833765,
                            "108": 0.10688927465642255,
                            "109": -0.00899670712478455,
                            "110": -0.08728959717677036,
                            "111": -0.044933805939387575,
                            "112": 0.005122685942438923,
                            "113": 0.0683995114530108,
                            "114": -0.04695491741515855,
                            "115": 0.005477315863681435,
                            "116": -0.04577347030367794,
                            "117": 0.01155149618995088,
                            "118": -0.07585470436812351,
                            "119": -0.007794917165723,
                            "120": 0.014986864416574638,
                            "121": -0.07003075774152494,
                            "122": 0.026657585331865838,
                            "123": -0.045156558402554316,
                            "124": -0.14564464848197778,
                            "125": -0.044224220916706955,
                            "126": 0.06968092365256082,
                            "127": -0.06900016466073293,
                            "128": -0.09628761648919386,
                            "129": -0.054788290521757495,
                            "130": -0.18426314630066418,
                            "131": -0.02316812977323966,
                            "132": -0.05121193115018414,
                            "133": -0.010449307374220642,
                            "134": 0.007486001233011097,
                            "135": -0.14018913467266192,
                            "136": 0.0777605474240725,
                            "137": -0.028127481345807094,
                            "138": -0.06593105426008039,
                            "139": 0.025556577347998714,
                            "140": -0.1254415500601277,
                            "141": -0.10079543229984161,
                            "142": -0.10282818997110761,
                            "143": 0.03616592702270652,
                            "144": 0.04886469409142519,
                            "145": 0.07743153124216882,
                            "146": -0.0311923717292177,
                            "147": 0.06209025569884823,
                            "148": 0.14903607091152982,
                            "149": 0.07229490439070083,
                            "150": 0.05890212057690213,
                            "151": 0.18682135363189872,
                            "152": 0.09594073540271991,
                            "153": 0.10636281819246036,
                            "154": -0.05686731476552215,
                            "155": 0.07142954216008852,
                            "156": 0.1169438333081099,
                            "157": 0.0029770744663327564,
                            "158": -0.0675292031333604,
                            "159": 0.0858189402154833,
                            "160": 0.001054567671256156,
                            "161": -0.10896521442418176,
                            "162": 0.05622520436495458,
                            "163": 0.001971160609116736,
                            "164": -0.13592444435437606,
                            "165": 0.013550430118127565,
                            "166": 0.06707875550251549,
                            "167": -0.007877106675314454,
                            "168": -0.06561252279627365,
                            "169": -0.19307496062005133,
                            "170": -0.02058519416436625,
                            "171": -0.07016169349561052,
                            "172": -0.09281675573745818,
                            "173": 0.10455955751151272,
                            "174": -0.05336110487651786,
                            "175": -0.08996214791336449,
                            "176": -0.015534252312746149,
                            "177": -0.17939013763624362,
                            "178": -0.037265570533594326,
                            "179": 0.029685592587809447,
                            "180": -0.11284858738089908,
                            "181": 0.0571427050981206,
                            "182": -0.09648542968019828,
                            "183": -0.09780921077358862,
                            "184": 0.08142799737183318,
                            "185": -0.23373272169226297,
                            "186": 0.03905123630868153,
                            "187": -0.05377428608958443,
                            "188": -0.17920605979486987,
                            "189": 0.05671040192403987,
                            "190": -0.11547823256945844,
                            "191": 0.08903332866710595,
                            "192": 0.03190410909795752,
                            "193": -0.09981772930997718,
                            "194": -0.13947116341612273,
                            "195": -0.05091450878126724,
                            "196": -0.005696518947267342,
                            "197": -0.03209258944117731,
                            "198": -0.013961051632555836,
                            "199": -0.08021921589781385
                        }
                    },
                    {
                        "sx": 5,
                        "sy": 5,
                        "depth": 8,
                        "w": {
                            "0": -0.12225355921164799,
                            "1": -0.015995967727137815,
                            "2": -0.04078052532518539,
                            "3": 0.023618587535030412,
                            "4": 0.08537751747294625,
                            "5": -0.029540436918081444,
                            "6": -0.1659609102623981,
                            "7": -0.03322563294263755,
                            "8": 0.0468104975794139,
                            "9": -0.04786770422227454,
                            "10": -0.018225212382678498,
                            "11": -0.04446086873392913,
                            "12": 0.009302615383093325,
                            "13": 0.022520997944750425,
                            "14": -0.1314802442323502,
                            "15": -0.07584441062438096,
                            "16": 0.0005194741271256553,
                            "17": 0.0198998172767156,
                            "18": 0.05545206430936357,
                            "19": 0.002106066647722128,
                            "20": 0.08659093803015429,
                            "21": -0.02226098523561747,
                            "22": -0.09658128407515466,
                            "23": 0.023050804376088422,
                            "24": -0.10557700025340963,
                            "25": -0.02674950357528072,
                            "26": -0.029162231259091412,
                            "27": 0.026613149269309973,
                            "28": -0.21299961436229578,
                            "29": -0.051540438384906045,
                            "30": -0.013743020579936024,
                            "31": 0.06583301292752855,
                            "32": -0.018464884064058645,
                            "33": -0.06890747873275906,
                            "34": -0.0482729731316429,
                            "35": -0.03612445321464233,
                            "36": -0.01116645100519762,
                            "37": 0.0714429494052359,
                            "38": 0.01736859137892255,
                            "39": -0.038291600042017995,
                            "40": -0.11555999712927703,
                            "41": 0.1509493104821147,
                            "42": -0.034636919295179966,
                            "43": -0.07282472553190492,
                            "44": 0.23946432425373487,
                            "45": -0.19868658640513207,
                            "46": -0.19901745150250436,
                            "47": 0.0766394858225385,
                            "48": 0.13449156800703416,
                            "49": 0.04882301251701611,
                            "50": 0.02071742804354375,
                            "51": -0.06253265363660314,
                            "52": 0.07382334716152475,
                            "53": -0.14944510280115447,
                            "54": -0.04651728886069195,
                            "55": -0.08962913465416554,
                            "56": -0.1270720835165686,
                            "57": -0.06181806706220014,
                            "58": 0.1893212449418112,
                            "59": -0.08476889374754701,
                            "60": -0.09846179388106596,
                            "61": -0.08696264548960275,
                            "62": 0.058301785856447796,
                            "63": -0.011816510328438983,
                            "64": -0.20045739966709747,
                            "65": -0.04791407594614187,
                            "66": 0.006715514899504426,
                            "67": -0.059294369145252775,
                            "68": 0.005765858874804227,
                            "69": 0.001976835891165671,
                            "70": -0.0625590720423669,
                            "71": -0.09244108652917694,
                            "72": -0.024178659756559105,
                            "73": -0.09329326854967422,
                            "74": -0.003246594275994296,
                            "75": -0.1124837624206363,
                            "76": -0.13716129364613858,
                            "77": -0.011456678835697183,
                            "78": -0.029238613123419185,
                            "79": -0.07860554151065335,
                            "80": 0.009965278160446971,
                            "81": 0.1809950615298115,
                            "82": -0.09827397993711684,
                            "83": -0.09869727132029066,
                            "84": 0.2353152423710742,
                            "85": -0.04834150284108642,
                            "86": -0.039558288940654864,
                            "87": -0.08578489851939276,
                            "88": -0.08323266813818322,
                            "89": -0.013504977411558837,
                            "90": 0.10551456623204043,
                            "91": 0.06789993870529785,
                            "92": 0.1147738732105383,
                            "93": -0.06538059120678827,
                            "94": -0.21415895021926112,
                            "95": 0.06680057805600553,
                            "96": -0.20562934944565409,
                            "97": -0.09262235885314662,
                            "98": 0.22267585532052364,
                            "99": -0.05462641556177454,
                            "100": -0.1176660505664603,
                            "101": -0.16020789105237143,
                            "102": -0.04095781463150255,
                            "103": 0.0038219755726148414,
                            "104": 0.03354766737671287,
                            "105": -0.1582241336708199,
                            "106": 0.017753990425647532,
                            "107": 0.02989131229501456,
                            "108": -0.08747579191619301,
                            "109": -0.13005539584686907,
                            "110": -0.005720030071503854,
                            "111": -0.10429200284810129,
                            "112": -0.08618266066187254,
                            "113": -0.22714980349037459,
                            "114": 0.053520235684383896,
                            "115": -0.03866439924529124,
                            "116": -0.17866552946314315,
                            "117": 0.05595528668525987,
                            "118": 0.03845624710863174,
                            "119": -0.08185551257752569,
                            "120": -0.06545866604435292,
                            "121": 0.06734796395898082,
                            "122": -0.15726436924627477,
                            "123": -0.07942118261525968,
                            "124": 0.06978636429057901,
                            "125": 0.06687099554553326,
                            "126": -0.05303421362649358,
                            "127": -0.043344055272193836,
                            "128": 0.032924824679431565,
                            "129": 0.004801141094778481,
                            "130": 0.1891009408073468,
                            "131": -0.05342987613539037,
                            "132": 0.10128409182319494,
                            "133": -0.17716540628279648,
                            "134": -0.24620391922938636,
                            "135": 0.09554496685215247,
                            "136": -0.09608313132612326,
                            "137": -0.08981080891561528,
                            "138": 0.1672708569563621,
                            "139": -0.010855386727544018,
                            "140": 0.012251107111345657,
                            "141": -0.07393259141359956,
                            "142": 0.04881919226344787,
                            "143": -0.08192093053680158,
                            "144": -0.08394385818337247,
                            "145": 0.018061621970591465,
                            "146": 0.037037589578844496,
                            "147": 0.03249310709373489,
                            "148": 0.10830474723389726,
                            "149": 0.01620428013338766,
                            "150": -0.018924972729387736,
                            "151": -0.09573072676498526,
                            "152": -0.10656496283230708,
                            "153": -0.027900976390663686,
                            "154": -0.03465350270541235,
                            "155": 0.0071752497942671216,
                            "156": 0.07383702013650165,
                            "157": -0.03710661226788434,
                            "158": -0.02709222594949803,
                            "159": -0.04365537288157498,
                            "160": 0.023094359085883913,
                            "161": 0.10960467461542149,
                            "162": 0.07700238404067254,
                            "163": 0.049503186569961985,
                            "164": 0.08807974666090321,
                            "165": -0.0049915841767282235,
                            "166": -0.1062313405788867,
                            "167": -0.05847112780980469,
                            "168": -0.17480745167495382,
                            "169": 0.04649959379498927,
                            "170": 0.06306312506713521,
                            "171": -0.029873348749502295,
                            "172": 0.11851058287760943,
                            "173": -0.002037191440444734,
                            "174": -0.06900053773410524,
                            "175": 0.14286738105741476,
                            "176": -0.006393468909114177,
                            "177": -0.07041466270549897,
                            "178": 0.029380583018404304,
                            "179": 0.05569911377099678,
                            "180": -0.12760943655829504,
                            "181": -0.11945309864541578,
                            "182": -0.07980127392600357,
                            "183": -0.17179898761534154,
                            "184": -0.03315173973278745,
                            "185": 0.06080629171048564,
                            "186": -0.09190039355653312,
                            "187": -0.012588040597473867,
                            "188": 0.06343151335363381,
                            "189": -0.0756277677327498,
                            "190": -0.001974709779502067,
                            "191": 0.00681624944295939,
                            "192": -0.11074109443712755,
                            "193": 0.019040161654411324,
                            "194": 0.028956310343663166,
                            "195": -0.03600602351886014,
                            "196": -0.10171026641390242,
                            "197": 0.033639902830265335,
                            "198": 0.015184303753506979,
                            "199": 0.10214067682157521
                        }
                    },
                    {
                        "sx": 5,
                        "sy": 5,
                        "depth": 8,
                        "w": {
                            "0": -0.2212010106346673,
                            "1": -0.20908423272249269,
                            "2": -0.10484589330344656,
                            "3": 0.03978557453814262,
                            "4": -0.02138231667560772,
                            "5": 0.0503579660326654,
                            "6": 0.0034785180633477592,
                            "7": 0.0026955098569291167,
                            "8": 0.049396974172740554,
                            "9": -0.12426931782109031,
                            "10": 0.005624491495311659,
                            "11": -0.15449133854230337,
                            "12": 0.03844473915645313,
                            "13": 0.08857093238365722,
                            "14": -0.05498776395358927,
                            "15": -0.1276233941950789,
                            "16": -0.06588259415002301,
                            "17": 0.008444943149448127,
                            "18": -0.03376217943101768,
                            "19": 0.025137690938116578,
                            "20": 0.05448215829830752,
                            "21": -0.07895668972004562,
                            "22": 0.003745220845535157,
                            "23": 0.16460150574986926,
                            "24": 0.04259567583354249,
                            "25": -0.0501544105974085,
                            "26": 0.11053557051372669,
                            "27": -0.01078081910445393,
                            "28": -0.17173373171273865,
                            "29": -0.2528096916310784,
                            "30": 0.012382924959271409,
                            "31": 0.031877814011428196,
                            "32": 0.06174504289530504,
                            "33": -0.09866260483597884,
                            "34": -0.16718655060298354,
                            "35": 0.06546285973432979,
                            "36": -0.040481171572367844,
                            "37": -0.0648506632590849,
                            "38": 0.16726855268101015,
                            "39": 0.08614997273145131,
                            "40": -0.14674968593644228,
                            "41": -0.1366433295731536,
                            "42": -0.07166083618076254,
                            "43": -0.08148676766684554,
                            "44": -0.010455922310372642,
                            "45": 0.1190533824613175,
                            "46": 0.01548219754544119,
                            "47": -0.11157856019892581,
                            "48": 0.03438417735488295,
                            "49": 0.04338706297259086,
                            "50": 0.020019477541547412,
                            "51": -0.05272518193100998,
                            "52": 0.06316938441685767,
                            "53": 0.02598106968660839,
                            "54": -0.025088512875116674,
                            "55": 0.12494667334509378,
                            "56": -0.015780278471473622,
                            "57": -0.12660870908523278,
                            "58": -0.026635500836448434,
                            "59": -0.052302027402874415,
                            "60": -0.06515853764499882,
                            "61": 0.01617560575098899,
                            "62": -0.1088187688621485,
                            "63": 0.12107479378014048,
                            "64": -0.09883342173236974,
                            "65": -0.11768097749985286,
                            "66": 0.04066653431272848,
                            "67": 0.047276199723483646,
                            "68": -0.045387450963398926,
                            "69": -0.17148292419329075,
                            "70": -0.0733918342582712,
                            "71": -0.08479575345444916,
                            "72": -0.02737280946584517,
                            "73": -0.24482224925654816,
                            "74": -0.14989878471992554,
                            "75": -0.020945271986421626,
                            "76": -0.1417623510164399,
                            "77": -0.035750374141053504,
                            "78": 0.13183667266957919,
                            "79": -0.08546441788832548,
                            "80": -0.003488834625657578,
                            "81": 0.016280030390950877,
                            "82": -0.06359918695699936,
                            "83": -0.15381285795083718,
                            "84": -0.032213754510755685,
                            "85": 0.053215387623163024,
                            "86": -0.16507635410212187,
                            "87": -0.015322603504442756,
                            "88": -0.04757761674694136,
                            "89": -0.1907046989201589,
                            "90": -0.017600498912072122,
