{"net":{"layers":[{"out_depth":1,"out_sx":28,"out_sy":28,"layer_type":"input"},{"sx":5,"sy":5,"stride":1,"in_depth":1,"out_depth":8,"out_sx":28,"out_sy":28,"layer_type":"conv","l1_decay_mul":0,"l2_decay_mul":1,"pad":2,"filters":[{"sx":5,"sy":5,"depth":1,"w":{"0":-0.20008378329909443,"1":0.030034081236996597,"2":-0.15842774296062342,"3":-0.038005546076199756,"4":0.009808603612433981,"5":0.03989944399549281,"6":0.05294583197029147,"7":0.18548963441992075,"8":0.12732902575059044,"9":-0.3862523087554,"10":0.3345973642628385,"11":0.09370814900882304,"12":-0.1468938900156474,"13":-0.3597895751668987,"14":-0.21167563548888527,"15":0.4137588021451459,"16":0.2693830443991704,"17":-0.1534063510183141,"18":-0.20483561789766766,"19":-0.2372963881982435,"20":-0.13573647596920585,"21":-0.13478571127361633,"22":0.32125811218854633,"23":0.2871755897783039,"24":0.11985234340688644}},{"sx":5,"sy":5,"depth":1,"w":{"0":0.1141467667053924,"1":0.15761872643590064,"2":0.05833768920530701,"3":0.22682328787909062,"4":-0.2638124070642166,"5":-0.2365997230577731,"6":-0.1755208951388277,"7":0.4413240756236378,"8":0.5222137281904772,"9":-0.029538683726808283,"10":-0.06702181612736555,"11":-0.12739121917282872,"12":-0.008145630280912251,"13":0.34651129283396787,"14":0.1106911806645007,"15":-0.1783174692635593,"16":0.16858816413579222,"17":-0.18406909947040076,"18":0.13767731547359205,"19":0.17407796817937551,"20":-0.35785018307627264,"21":0.10961867465556602,"22":-0.41965671816516664,"23":0.3953091680973597,"24":-0.07264514695141991}},{"sx":5,"sy":5,"depth":1,"w":{"0":0.39122700238209246,"1":-0.2197986524922211,"2":-0.37088007456337124,"3":-0.5524504202385315,"4":-0.9486774193367806,"5":0.06714813930254566,"6":-0.4962271116162152,"7":-0.5814922712828847,"8":-0.3858829408980027,"9":-0.3196049760288914,"10":0.17408722619608877,"11":-0.659979168230046,"12":-0.5590207256860003,"13":-0.10245029878181348,"14":0.261404025541066,"15":-0.2938068948440285,"16":-0.8012180094970598,"17":-0.011674412207324193,"18":0.6156670238811444,"19":0.41671895726325353,"20":-0.49485017538256837,"21":-0.5106042985347753,"22":0.3933722841061884,"23":0.20874374141345722,"24":0.6576810637362756}},{"sx":5,"sy":5,"depth":1,"w":{"0":0.11539632311958928,"1":0.17043019278975888,"2":-0.05712020086866758,"3":-0.3630990803489524,"4":-0.21266303759166558,"5":-0.15652945196260196,"6":0.2603849643791799,"7":-0.11649598636687016,"8":0.033769424388478055,"9":-0.13616540373613342,"10":-0.076638637924253,"11":0.3366844489902293,"12":0.6484158914404587,"13":0.12311554251721646,"14":-0.003965303070671809,"15":0.09015728826098006,"16":0.4252568633949713,"17":0.05838500752891468,"18":-0.10350887482621376,"19":-0.17055612298327222,"20":-0.15620197496397376,"21":0.2954774920891253,"22":0.08925393172607532,"23":-0.36097445322084926,"24":-0.3375081161330222}},{"sx":5,"sy":5,"depth":1,"w":{"0":-0.1078069625232221,"1":0.33091760078335436,"2":0.2614548313881305,"3":0.23510740039380174,"4":0.5726890451300523,"5":0.29650867760343175,"6":0.31703000052191344,"7":0.3577113559928141,"8":0.5873658118831958,"9":0.09976378277982559,"10":-0.07913941399729392,"11":0.4238522871920641,"12":-0.03213012199353846,"13":-0.1449824995921235,"14":-0.06015270456329606,"15":-0.46370215003354226,"16":-0.5476270775137284,"17":-0.7599887787783018,"18":-0.4776862183232927,"19":-0.36122635337894293,"20":0.047170647223872715,"21":-0.07369359269203932,"22":-0.1659595635652163,"23":-0.24162774736177356,"24":-0.08149607099791999}},{"sx":5,"sy":5,"depth":1,"w":{"0":-0.37290320776123764,"1":-0.5545460625993522,"2":0.07006584994781513,"3":0.0979337601841935,"4":0.3767436173571473,"5":-0.012968174237758841,"6":-0.007045137895759657,"7":-0.01084168472759485,"8":0.010233001337960722,"9":0.35409290609385463,"10":-0.22299735658819758,"11":0.09343043349885417,"12":-0.19173852451952053,"13":-0.03888998025993572,"14":-0.2269930257058294,"15":-0.36726634361980026,"16":-0.33083484444769473,"17":-0.481879252828097,"18":0.18725069946225872,"19":-0.06761332499531303,"20":-0.06593236173095997,"21":0.08636769204907269,"22":-0.02472738716168191,"23":0.37772886639127096,"24":0.01089439983306166}},{"sx":5,"sy":5,"depth":1,"w":{"0":0.07148851170347945,"1":0.23217382208130485,"2":0.3476778248168774,"3":0.7003415660588791,"4":0.38777573410172894,"5":-0.45136588801313104,"6":0.28952970526460753,"7":0.016010937002779727,"8":0.1875276604295801,"9":0.12442548255436398,"10":-0.4634187884046267,"11":-0.1804378306275735,"12":-0.13774250866380827,"13":0.08757469440134823,"14":-0.16075174902442244,"15":-0.5275185277756145,"16":-0.4935035997389858,"17":-0.3866187822555641,"18":-0.3937328198978083,"19":-0.4539259237836183,"20":0.02123514630109406,"21":-0.33800351027147396,"22":-0.49263887127017786,"23":-0.44958157252048436,"24":-0.4811294123586833}},{"sx":5,"sy":5,"depth":1,"w":{"0":-0.04577631035265458,"1":0.1677475190196157,"2":-0.3668565044255052,"3":-0.28520979118482187,"4":-0.6681776063648088,"5":0.06237090290700097,"6":0.10698340386423331,"7":0.14965971158953817,"8":-0.3417782389856178,"9":-0.5349514175048353,"10":0.21650044595303813,"11":0.38413939774801953,"12":0.4216399033484905,"13":0.2971881582212361,"14":-0.4314907673518711,"15":-0.5894829685073666,"16":0.3349405228568208,"17":0.6269377784136334,"18":0.42595397623589415,"19":0.3134995034338744,"20":-0.08709077396133166,"21":-0.5468255415672612,"22":-0.24622701808628025,"23":0.19289053497922998,"24":0.5326701445875782}}],"biases":{"sx":1,"sy":1,"depth":8,"w":{"0":-0.07390724627476655,"1":-0.16010637186177315,"2":0.08987688903439628,"3":-0.10579141062157436,"4":0.06554375437701075,"5":-0.028646461812752058,"6":0.16349984984023533,"7":0.0015803496376182234}}},{"out_depth":8,"out_sx":28,"out_sy":28,"layer_type":"relu"},{"sx":2,"sy":2,"stride":2,"in_depth":8,"out_depth":8,"out_sx":14,"out_sy":14,"layer_type":"pool","pad":0},{"sx":5,"sy":5,"stride":1,"in_depth":8,"out_depth":16,"out_sx":14,"out_sy":14,"layer_type":"conv","l1_decay_mul":0,"l2_decay_mul":1,"pad":2,"filters":[{"sx":5,"sy":5,"depth":8,"w":{"0":-0.1951835734884417,"1":0.14620037713373046,"2":-0.022829294657865044,"3":-0.17500026580049444,"4":-0.1618125362986492,"5":0.09310498898874327,"6":-0.10787736976617586,"7":-0.12391500004314755,"8":0.014578172762388285,"9":0.3205428491376597,"10":0.2010269419266281,"11":-0.13050135434000462,"12":-0.09638288550320553,"13":-0.12340980170592561,"14":-0.22092832253089312,"15":0.01258510225668828,"16":0.09564001692589795,"17":0.12026857246129288,"18":0.1520452255076934,"19":0.14772230075073012,"20":-0.010883712817932087,"21":0.01556822182711663,"22":-0.09037101987555743,"23":0.07238464955143381,"24":0.08596534619302737,"25":0.050334346596964424,"26":-0.2329638842235479,"27":0.21594378796566613,"28":-0.08123563713866593,"29":-0.10697340901534584,"30":0.1328425970140299,"31":0.1527366499740724,"32":0.0710602002410673,"33":-0.15451956013913287,"34":-0.4035495852920901,"35":0.16783669297189674,"36":-0.024028709619516225,"37":-0.1030956171809059,"38":0.1943819973046237,"39":0.056164115418089834,"40":-0.13239227494816197,"41":0.06637854531192564,"42":-0.17268204604584156,"43":-0.03201075800723166,"44":0.1257970785794329,"45":0.07445927007468837,"46":-0.05814494483458947,"47":-0.26350693593824526,"48":-0.1336088466560839,"49":0.0862107132333876,"50":-0.17058413614107543,"51":-0.08167819745696524,"52":0.19920596732388002,"53":0.04390816441097576,"54":-0.08094743099560885,"55":-0.0006626273255358249,"56":-0.01077679708499357,"57":0.25633832784714583,"58":0.0006577086175996227,"59":0.3210418020522427,"60":-0.0387903361441123,"61":0.10284280098317031,"62":-0.10277836961752665,"63":0.16464262128908264,"64":0.16750358137268087,"65":0.0798289205271058,"66":-0.2703513325964695,"67":0.2159549416496281,"68":-0.17674283096912516,"69":-0.2565892715151301,"70":-0.052065283394400745,"71":-0.033877406561970344,"72":0.09756838499918445,"73":-0.23672733334766363,"74":-0.08331208672861486,"75":-0.05110110305496749,"76":-0.20597294078923792,"77":-0.022006836701206317,"78":0.03502815603970075,"79":-0.07646283179294294,"80":-0.1909781151967561,"81":-0.15627692552015424,"82":0.05309325296256409,"83":-0.0559318018992874,"84":-0.00836342269580476,"85":-0.029697103535362816,"86":0.04592653502662898,"87":-0.04655881498382664,"88":-0.10804024809589349,"89":0.16189509055293969,"90":0.11476929703812509,"91":-0.21791041373754447,"92":0.016631381989009805,"93":0.012064405811491883,"94":-0.1244410749616457,"95":-0.05231174257176978,"96":0.023545452138539775,"97":0.16609361828002445,"98":-0.15691303988753183,"99":0.2995351716931304,"100":-0.07941427349898807,"101":-0.10459030658725707,"102":-0.09211382028721513,"103":-0.04230699447874117,"104":0.09881123595301838,"105":-0.046798255327118246,"106":-0.16964233948440155,"107":0.37000109152438726,"108":-0.05136161744129557,"109":-0.060299391322308604,"110":-0.27178325603079717,"111":-0.15140060406220132,"112":-0.1482899129213225,"113":-0.2111300736086548,"114":0.10880863570491062,"115":-0.016686434683292437,"116":-0.21158719746899307,"117":0.013543830826428809,"118":-0.19578225885628395,"119":-0.14061813946724475,"120":-0.22171657691126237,"121":0.020164695809858326,"122":0.33789908180646355,"123":-0.24428804815915128,"124":-0.13312957345412635,"125":-0.2874143351660193,"126":-0.45221266530150644,"127":-0.23089816980156316,"128":-0.0675937847677157,"129":-0.0366865158007715,"130":0.08396822142440441,"131":0.17420811830839442,"132":0.13277068987517232,"133":0.1120020909974939,"134":-0.05455570194055581,"135":-0.23615438042940026,"136":0.10038720543086524,"137":-0.12108541379964527,"138":-0.18409087580212322,"139":0.14631395542908457,"140":0.01623898167719706,"141":0.2847013561765898,"142":-0.02133019156939771,"143":-0.011326240862594268,"144":0.06259735425490072,"145":-0.2198464246430758,"146":0.0451048759213656,"147":0.0020581835528318865,"148":0.06025805306188982,"149":-0.03780903769969059,"150":-0.32667691173504354,"151":-0.09564661094129981,"152":-0.14114370593874723,"153":-0.20141385636658132,"154":0.050184544799951256,"155":-0.16520492060520398,"156":-0.3439539151079365,"157":0.06579394406191803,"158":-0.20119990107540184,"159":-0.18542731493527526,"160":-0.21700537355655025,"161":-0.07891772450174812,"162":0.14924416231334928,"163":-0.16771873750850708,"164":-0.06826144722363306,"165":-0.00451825473572914,"166":0.029606359005981714,"167":-0.2551327978603475,"168":-0.0007855109090151019,"169":-0.037421312200518086,"170":0.1600797542901657,"171":0.18020668354790625,"172":0.26301072820741267,"173":0.14777869750073752,"174":0.05783623610977752,"175":-0.250828898085565,"176":0.028242921512737797,"177":-0.15808978642491256,"178":0.058368449225122354,"179":0.03961415512226777,"180":0.14631451666313147,"181":0.16262820260769634,"182":0.11206110308067262,"183":-0.1174868779561719,"184":-0.10151625828031202,"185":-0.12125567721953877,"186":0.16292805568335575,"187":-0.06173145384367055,"188":0.009389421688142708,"189":-0.10638728214330295,"190":-0.1694191423994434,"191":-0.13651888966982317,"192":-0.517524862071004,"193":-0.1484468376119524,"194":0.019590042445277553,"195":-0.13763257729271658,"196":-0.25365053180521296,"197":0.07105000865191322,"198":-0.136537244127955,"199":-0.07494642871336644}},{"sx":5,"sy":5,"depth":8,"w":{"0":-0.024871666750057662,"1":0.26535267780772004,"2":-0.20939037818794318,"3":0.15580881365874785,"4":0.3831528807423311,"5":0.0021774348944605644,"6":0.244745736528317,"7":0.13259313530038103,"8":0.10289323382576593,"9":0.0007709385007401205,"10":-0.34651489719884826,"11":0.04028843668856195,"12":0.07155914361214419,"13":-0.18670322244497853,"14":0.16092735102731634,"15":0.0326757348116673,"16":-0.08973643764239665,"17":0.07089508935457912,"18":-0.3487066632670562,"19":0.06605052346682674,"20":0.1520559263883141,"21":0.06056901872265621,"22":0.011026624711834099,"23":0.12371298597542371,"24":0.09321673477902247,"25":0.008072807255207828,"26":-0.24354762827957413,"27":0.06259871139477348,"28":0.031219330778380627,"29":0.17987490285982954,"30":-0.14332415674616827,"31":0.18058474891148318,"32":-0.02022180348446412,"33":0.0001466830815581359,"34":-0.08065307036760702,"35":0.047815053396749504,"36":0.08811548483050584,"37":-0.01813918705642069,"38":-0.26611031397379115,"39":-0.02664360317131108,"40":-0.014997903687438726,"41":0.011452445609756834,"42":0.0633651849190579,"43":-0.12426534394950157,"44":0.07177519225858434,"45":-0.03117952701639203,"46":0.0550390246642039,"47":-0.16505105317230429,"48":0.03561036492529684,"49":-0.057213693726477714,"50":-0.27708516674320083,"51":-0.057423706411217856,"52":0.07777850181244512,"53":-0.1382181904226057,"54":0.03500404034532629,"55":-0.0045749962590363995,"56":-0.06066094999189568,"57":0.09928876725852809,"58":-0.004886087427303506,"59":-0.01275576805012406,"60":0.19219077421622072,"61":0.05028334862875319,"62":-0.08892750538699623,"63":-0.08294073553591354,"64":0.0014760055849148157,"65":0.04309047427698072,"66":-0.06576061143606737,"67":0.11623305115041516,"68":0.06949096171205535,"69":0.03811208383215536,"70":0.0553471482662525,"71":0.037350818507673064,"72":0.10629274924529748,"73":-0.0467629805650241,"74":-0.1784546836487912,"75":-0.04636110778517147,"76":-0.011146412884302811,"77":-0.018627359158145645,"78":0.03656620785566988,"79":-0.394595263283073,"80":0.03483392035731235,"81":-0.06823007705851464,"82":0.07785400268947368,"83":0.08787836005183505,"84":0.022049869454372862,"85":-0.02164072194232804,"86":-0.04034822088904227,"87":0.04737489808000568,"88":-0.007016875278932384,"89":-0.16741172956019396,"90":-0.04232799155257338,"91":-0.0306692199803705,"92":-0.1862577662858632,"93":0.06341161472026989,"94":-0.28610801947633896,"95":-0.07828428213425564,"96":-0.16540997288754763,"97":0.0690050394492014,"98":-0.09143543806426542,"99":-0.2223104293207316,"100":-0.07533504127065584,"101":0.09246221825962996,"102":0.05539017822714659,"103":-0.23588292687849718,"104":-0.07193784076272862,"105":-0.0024783197474495407,"106":0.018616475119293832,"107":0.012871104931063934,"108":0.08191490653256212,"109":0.12173848542873204,"110":0.2734428250691265,"111":0.09372726699928333,"112":0.012114502740154172,"113":-0.09405599049729009,"114":-0.09679917027996612,"115":-0.11833126275219735,"116":-0.01340978589941929,"117":-0.13818050533792928,"118":0.03016788774818513,"119":-0.14285055004931937,"120":-0.02073030483192363,"121":-0.178345195572637,"122":0.0245936162917122,"123":0.014640837233172123,"124":0.00345616530043812,"125":-0.009923586530434996,"126":0.17239052263672847,"127":-0.12074962569138477,"128":-0.1915422193553466,"129":-0.2150904475829527,"130":-0.1491660333730839,"131":-0.11218600924533975,"132":-0.18888046100307238,"133":-0.10258454197963925,"134":0.02968051795093089,"135":-0.15369224946028764,"136":-0.21840808085341135,"137":0.1792923051892747,"138":-0.06869725424232888,"139":-0.1359251783815635,"140":-0.1329583461960273,"141":0.19600371639177272,"142":-0.030550466160628655,"143":-0.05508640054855597,"144":-0.09448451130747743,"145":0.07882256584365101,"146":0.03947712187403476,"147":0.12856015712270524,"148":-0.03762601896619342,"149":0.1299040748879796,"150":0.01948105882610244,"151":0.10899665943846451,"152":0.11105959777800668,"153":-0.29831126659223706,"154":-0.20284764573250438,"155":0.1461413296920487,"156":-0.02464463254689207,"157":-0.026188447727097112,"158":-0.13899113056860235,"159":0.07566549186943182,"160":-0.33102175987075433,"161":-0.18621946085662958,"162":0.08212736160203955,"163":0.016686654341252608,"164":0.00147086507606208,"165":-0.016131395489476553,"166":-0.023937033955137115,"167":-0.057078273327903786,"168":-0.10322136886042195,"169":-0.027080590554684897,"170":-0.071617671819243,"171":-0.18140171725853557,"172":-0.22840817990300544,"173":-0.01800537553969612,"174":-0.1325702514370099,"175":0.07330584006549257,"176":-0.30861502440157507,"177":0.11108566832444088,"178":0.031858657500347304,"179":-0.11025986788290908,"180":-0.021044742609709993,"181":0.07271904025666402,"182":-0.17495859131199662,"183":-0.06531530373153432,"184":0.021770857700807486,"185":0.014599872417474114,"186":0.02743602090618402,"187":0.11098908079590719,"188":-0.1939474856095452,"189":-0.05729119487080192,"190":-0.1798342279927902,"191":0.1038666278320673,"192":0.15756390332458536,"193":-0.23981776949271777,"194":0.1388908251501528,"195":0.1161099212061387,"196":-0.006978033728882485,"197":0.16285646485384792,"198":-0.15665299211588787,"199":0.12502465325807233}},{"sx":5,"sy":5,"depth":8,"w":{"0":-0.20623789873080134,"1":-0.038801604091536546,"2":-0.3392389933134095,"3":0.008173647940057517,"4":-0.12853259378217413,"5":-0.028478414811783676,"6":-0.13926754381271603,"7":-0.2177846843760557,"8":0.002730303558515781,"9":-0.046174994790041314,"10":0.019583165171710548,"11":0.09041257452751035,"12":0.04258481074026165,"13":-0.059391849349567816,"14":-0.01831810610583008,"15":-0.2218284749319653,"16":0.02877338921252709,"17":-0.022736923858752547,"18":-0.04606295254486608,"19":-0.029812539496998462,"20":0.02569299386625622,"21":0.05119036151218683,"22":-0.021573383841481757,"23":-0.12592951522077678,"24":0.11669307831352027,"25":-0.11529121392049028,"26":-0.03692292470527674,"27":0.1266683698830949,"28":0.018974402979759216,"29":0.10987644401040728,"30":-0.10220876983342198,"31":0.10500383457328161,"32":0.029402150492895886,"33":-0.03383704586650698,"34":0.14054684036555964,"35":-0.10133639756629013,"36":0.1059021117171164,"37":-0.011132082532639457,"38":0.04545563910136483,"39":-0.03665213316231874,"40":0.01752773364523114,"41":-0.008560323735664833,"42":-0.0680469225376326,"43":-0.06264153531489963,"44":0.06635539382540787,"45":-0.11019813417683044,"46":-0.0883803947180739,"47":-0.007979698368785069,"48":-0.09879253502014052,"49":-0.07975981288405817,"50":0.15651949856209935,"51":-0.03478173299742728,"52":0.19329849012987152,"53":-0.07119051820149554,"54":-0.03806721259890606,"55":-0.16643794365025932,"56":-0.09101863225891742,"57":-0.022895516675721442,"58":-0.010280674840038178,"59":-0.14177557495557985,"60":-0.02155353856689915,"61":0.09938055333821352,"62":-0.048948836525288524,"63":-0.01978654910815993,"64":0.0884245826203798,"65":0.10087296015891516,"66":-0.06458522704767895,"67":-0.0018634672324484701,"68":-0.081514665095675,"69":0.0722752880830706,"70":-0.09239282909366917,"71":0.24139990375579107,"72":0.1513973457835674,"73":-0.01720566338371971,"74":-0.0876571853504791,"75":0.01047317806828821,"76":-0.018213473254418255,"77":0.13051838309302613,"78":-0.15307830615752915,"79":0.35349827280115925,"80":-0.08967862478032868,"81":-0.10142948217705466,"82":0.09995250909646455,"83":-0.21576165470164926,"84":-0.09376921518641501,"85":-0.10896267889578894,"86":-0.08612224073561173,"87":-0.027084513144726274,"88":-0.134943166702361,"89":-0.08528960416151482,"90":0.11403428104179782,"91":0.07271926349531734,"92":0.12227538983480792,"93":-0.02679145533199439,"94":0.012757385085110134,"95":-0.07006006993949486,"96":-0.22979883901009107,"97":-0.01316848923872085,"98":-0.2045127759697043,"99":0.04960358473139417,"100":0.1445889195433009,"101":0.06224995348183461,"102":0.080088078321617,"103":-0.02049376319060805,"104":0.006341275842523576,"105":0.06846990780480532,"106":-0.2587856758964599,"107":-0.19483616768806014,"108":0.13516250102758456,"109":-0.1026203731323576,"110":0.021916615869521126,"111":0.06039539460783047,"112":0.16247476781323048,"113":0.15540396154034003,"114":-0.160083103323514,"115":-0.045557559217385475,"116":-0.1666609682703026,"117":0.021121721115406073,"118":-0.2360849576642414,"119":0.46576335822586257,"120":0.027763280688477516,"121":-0.02165132242085742,"122":0.17051178044071827,"123":-0.252816927055797,"124":0.08314327915993835,"125":0.13645223596127445,"126":0.0881822108065671,"127":-0.08392973346006306,"128":-0.1292254971589071,"129":-0.059710159826238236,"130":0.1068229323444296,"131":-0.22799530284093245,"132":0.08083603228000086,"133":0.1615870425618732,"134":0.1231439351666269,"135":0.0028994490569124115,"136":-0.018204605408380283,"137":-0.20474229183193174,"138":0.1855144421550966,"139":-0.05749253691776312,"140":0.1276331680695264,"141":-0.06417862961469176,"142":-0.03811087185185557,"143":0.058635494381352356,"144":-0.26993036280451216,"145":-0.03988795715682633,"146":-0.056811514700297994,"147":-0.11657072500015372,"148":0.057121612159634266,"149":-0.029198576812822164,"150":-0.11827761386464586,"151":-0.14410628991489166,"152":0.03182134716461163,"153":0.29673648346876086,"154":-0.2927848375635199,"155":0.01592581445109677,"156":-0.0608142505690086,"157":-0.05877104965459979,"158":-0.18147611286029736,"159":0.12224229145399111,"160":-0.21961874814148918,"161":-0.01146924426649585,"162":0.14014690624725015,"163":-0.10492071943722746,"164":-0.11958264599231287,"165":-0.022316073946895193,"166":0.1463004180212592,"167":0.09416626143040233,"168":-0.17835830830168004,"169":-0.014659473692805581,"170":0.2410783036475054,"171":-0.048584774664825824,"172":-0.08495861067720113,"173":0.015575702925000715,"174":0.07341556603821958,"175":-0.025846246275062382,"176":-0.06738784595472186,"177":-0.23814194118208423,"178":0.1283173168054397,"179":0.10168590634989412,"180":-0.07999355464823563,"181":-0.11525461498102232,"182":-0.21060132373215604,"183":-0.0031813499801100244,"184":-0.07921492113848551,"185":-0.1052902860436875,"186":-0.051010167139115964,"187":-0.013214221202828346,"188":-0.1568822308549566,"189":0.022698879055793278,"190":-0.19960326158492606,"191":-0.3563716868119862,"192":-0.17107958069608828,"193":0.15666991489133367,"194":-0.11771710944045298,"195":-0.16079606752678544,"196":-0.020848820267256565,"197":0.21307122059288175,"198":-0.17418112818037942,"199":-0.38899740372852243}},{"sx":5,"sy":5,"depth":8,"w":{"0":0.059958021812301976,"1":-0.00873955285484883,"2":-0.13460679927658614,"3":-0.08635337179430068,"4":0.014771477459797813,"5":0.10055413159684927,"6":0.029134640156688634,"7":-0.2062528478213745,"8":0.05125357754603739,"9":0.06803200195788119,"10":-0.05199745371180813,"11":0.06649544865396897,"12":0.034491382569548756,"13":-0.11078814739381827,"14":-0.01992500252869751,"15":-0.054372326823491426,"16":-0.06409661079940206,"17":0.05369243252014021,"18":0.04407342358503802,"19":0.18599705537897415,"20":-0.05516381537152045,"21":0.08893310317634584,"22":0.09266609193393809,"23":-0.12230578985438885,"24":-0.06944036844944622,"25":-0.04881893479439855,"26":0.02831259282807133,"27":0.12695812826227204,"28":0.10483552774776714,"29":-0.08206155359931809,"30":-0.05490657123125342,"31":-0.25069759346851617,"32":0.13316810842547042,"33":-0.1669117369687965,"34":0.029399876716956357,"35":0.02038308521117115,"36":0.13235048623119602,"37":-0.06452845389229828,"38":-0.19342004078920355,"39":-0.0943484050563681,"40":0.042583463626836626,"41":0.10043609099341615,"42":-0.19615735531437412,"43":0.0935342887263665,"44":0.026721102958974185,"45":-0.09682752934506672,"46":-0.049195454034263016,"47":-0.19018906359604731,"48":-0.014672477364121854,"49":0.07884962923195013,"50":-0.007057508773096665,"51":-0.04003798273297043,"52":0.17538460315972396,"53":-0.1098344219253877,"54":-0.0976857491663795,"55":0.025293924955096463,"56":0.046943070819954344,"57":0.0029734156953532182,"58":0.2509549078792503,"59":0.06141362452715651,"60":-0.18907716039071593,"61":-0.013756573623994257,"62":-0.18363710686548312,"63":0.08214200670282679,"64":0.13887687825358974,"65":0.023051594489000314,"66":0.2429134754920803,"67":-0.004593706478877396,"68":-0.20423998230926954,"69":-0.03338791651825744,"70":-0.10858013179151504,"71":0.15978107198246433,"72":0.022970695561841385,"73":-0.11871609007664026,"74":0.13145298023810567,"75":-0.25194970173251097,"76":-0.1505443848928022,"77":0.04825688192902706,"78":0.0774673803499579,"79":0.06301791113044515,"80":-0.09096352007119791,"81":-0.12322585316934695,"82":-0.04899432281418245,"83":-0.2869609751233879,"84":-0.026693235383478044,"85":-0.09576157650337197,"86":0.007589140193453564,"87":-0.11483124433154904,"88":-0.14575155098925183,"89":0.021683375319213362,"90":0.05291318041697658,"91":-0.24595945769533797,"92":0.06737841646907683,"93":0.009440950172179462,"94":0.18419164631953158,"95":-0.22741289943846646,"96":-0.1476447647098326,"97":0.0368338192766346,"98":-0.03044501724452414,"99":-0.059245793353899845,"100":0.19972782536721673,"101":-0.03639165684668636,"102":0.04596457619660452,"103":0.011824268220949088,"104":-0.09920520337298759,"105":0.047975992485213254,"106":0.03201747246662942,"107":0.11537194286432749,"108":-0.056097014617568934,"109":0.13691844634977696,"110":0.054716562171977984,"111":0.14108389444240413,"112":-0.048021366074267234,"113":0.1504452105345556,"114":-0.11403451445639595,"115":0.05207767113623248,"116":0.08089735605931718,"117":-0.10960869505668472,"118":0.034660041228229944,"119":0.22620586213024882,"120":-0.1103697633529919,"121":-0.28449571369490495,"122":-0.08890856691349044,"123":-0.17598834799737464,"124":-0.2010478508493749,"125":-0.042791369910833085,"126":-0.0065890576975815175,"127":-0.12112212773308045,"128":0.02840187717115471,"129":-0.21722948879950915,"130":-0.13438178513180274,"131":-0.23203268503768343,"132":-0.1442768774356591,"133":0.1647565495651491,"134":0.08751225097487061,"135":-0.07126546861038417,"136":-0.12424377686336499,"137":-0.14037055977969856,"138":-0.2118905184321359,"139":-0.3486381182235933,"140":0.11380056755865468,"141":0.05228287475437514,"142":0.16403736322052914,"143":-0.3607698163194657,"144":-0.34604598663137465,"145":0.022907075589124925,"146":-0.2532372560532437,"147":-0.32816054819660073,"148":0.052239630755470334,"149":0.13507081517637082,"150":0.1631403101803305,"151":-0.2723529721897382,"152":-0.2639274479665033,"153":0.0689138937116648,"154":-0.2884921061155705,"155":-0.06347361112955335,"156":-0.0049405839966078025,"157":0.06269279023567062,"158":0.029871399358836204,"159":0.10014282814978968,"160":-0.04833486328325211,"161":-0.17808262662501181,"162":0.3581679226759687,"163":-0.1018306052402624,"164":-0.21593577724250343,"165":0.15204516235568855,"166":-0.013160987346831354,"167":0.22442827186885683,"168":0.07458307963163435,"169":-0.277477736190985,"170":0.22546934561975907,"171":-0.20853730769561205,"172":-0.21099777142137918,"173":0.05661860498220137,"174":0.02484279247831508,"175":0.18182421985950145,"176":-0.043349969448542795,"177":-0.17339283092691718,"178":0.22513864714091494,"179":-0.059840927055955916,"180":-0.34028660932419186,"181":-0.11622692625139246,"182":-0.14570901738493638,"183":0.24326826934877305,"184":-0.000983391069972217,"185":0.10922834944467892,"186":0.0600078762270442,"187":-0.12175011999302286,"188":-0.2313851355386337,"189":-0.07352199464622905,"190":-0.2332200479288984,"191":0.15780329273062252,"192":0.16931180652123765,"193":0.016626810214551486,"194":-0.07975915077699416,"195":-0.059164188017438175,"196":-0.11188536472888255,"197":-0.15104287536189454,"198":-0.2515851345380743,"199":-0.17816811049266582}},{"sx":5,"sy":5,"depth":8,"w":{"0":0.06846805474046652,"1":-0.07537626612228157,"2":-0.09562888508874193,"3":-0.023400972927422877,"4":-0.13471416689915922,"5":-0.03209867434971979,"6":-0.05988662456540599,"7":-0.22827788539098495,"8":-0.1591614372757184,"9":-0.3538689101111424,"10":0.08977709659230824,"11":-0.11775926606252127,"12":-0.17231266598844888,"13":-0.02670299815526208,"14":-0.17488923149706795,"15":0.006152267235164043,"16":-0.14266036344621721,"17":-0.23655168409199828,"18":0.09744604641232003,"19":-0.30377476007341847,"20":-0.45507583883308406,"21":0.020965612525732574,"22":-0.14017943786356715,"23":-0.14411971395324155,"24":-0.24398882713602252,"25":0.09327847388968293,"26":0.07116519893818608,"27":-0.14832052313443897,"28":-0.33885505624502327,"29":-0.07118394282224368,"30":-0.158377894049066,"31":0.04023486805058599,"32":-0.2107044402719743,"33":-0.0685814664197959,"34":0.23399180498554703,"35":0.07766425694894769,"36":-0.1982243136886838,"37":0.03751024374288426,"38":-0.08932936575513535,"39":-0.024742553543886017,"40":0.22160583778955364,"41":-0.1684193394099322,"42":0.06265573356646337,"43":0.10266173828255674,"44":-0.23692487314779426,"45":-0.018013779235944192,"46":-0.0578493090449022,"47":0.1372374230269483,"48":-0.1518915752006692,"49":-0.06806003806391396,"50":0.03918340760812429,"51":0.07004100465482116,"52":-0.18652210712429007,"53":0.011108753035318194,"54":0.07592840468380707,"55":0.027048025822234995,"56":0.027429099767164643,"57":-0.11482624446287823,"58":0.02291429856720326,"59":-0.11708166637963625,"60":-0.30467049237285077,"61":0.08664246030836169,"62":0.10105496088169016,"63":-0.01889061729269611,"64":-0.09454690691405351,"65":0.14450477291339467,"66":0.07674278074337378,"67":-0.1847822856171028,"68":-0.11739698009527712,"69":0.03697058068000455,"70":0.05222905730245145,"71":-0.19288942604562864,"72":-0.05835539334494211,"73":0.11411670010294607,"74":0.14630361913826778,"75":-0.015621847196279806,"76":0.060220061804468934,"77":0.08314387271756533,"78":-0.05174405529834511,"79":-0.2807822128064177,"80":0.009683139615958824,"81":0.11719637658846231,"82":-0.21003690448131093,"83":0.19572623884427842,"84":0.17187484452136154,"85":-0.08889787660554364,"86":0.2395320030970129,"87":0.14131679943582573,"88":0.10964487190159179,"89":-0.06070978171273454,"90":-0.17403933677565725,"91":0.1369368661498389,"92":0.25012606386972436,"93":-0.1437758902321998,"94":-0.07377488186447942,"95":0.09366799356722062,"96":0.0498599238609208,"97":-0.0281106904770637,"98":-0.22622026848214583,"99":-0.057709219409648245,"100":-0.15209840666982358,"101":0.038002299242539304,"102":-0.09146071151047983,"103":-0.08790847459387346,"104":-0.13243831533910763,"105":0.09404783806395199,"106":-0.04354998673748873,"107":-0.027185651073992328,"108":-0.0003954248665501121,"109":-0.06525026623207357,"110":-0.27639467066245405,"111":-0.15599874581895762,"112":-0.19219284859778651,"113":0.06622522558377868,"114":0.23820261422622052,"115":-0.042686889393483356,"116":0.1856272444406895,"117":0.0032520804837252383,"118":-0.13588063441180462,"119":-0.11768102355000101,"120":-0.2663833390642574,"121":0.03676186013873559,"122":-0.18466459024678766,"123":-0.09147395407455584,"124":0.39002641038100516,"125":0.014241773714992731,"126":0.3591374106670775,"127":-0.2245261778218925,"128":-0.040543811814970666,"129":-0.0011694084521623402,"130":0.007567127480979672,"131":-0.1144050415574216,"132":0.3242487977357057,"133":-0.20715785931046443,"134":0.03946355280934402,"135":-0.05321632867101717,"136":-0.12783908309799238,"137":-0.08911715823079694,"138":0.02487624317423989,"139":-0.1304748549739671,"140":0.08421909439024665,"141":-0.14143584009873525,"142":-0.02675060686201071,"143":-0.28442525746121955,"144":-0.2124006318346071,"145":-0.07638106208155065,"146":0.052865266421018596,"147":-0.2717233865475452,"148":0.11525683955738535,"149":0.01698985641337758,"150":0.08076586459027443,"151":-0.33953658670811976,"152":-0.10904114951448496,"153":0.009301510862035739,"154":-0.23358919174874904,"155":-0.07609651529568918,"156":0.2528398530878272,"157":0.09585291129749916,"158":0.23671578639573843,"159":-0.04127852019086314,"160":0.07633783300551382,"161":-0.26972274907371724,"162":-0.034427166034543016,"163":-0.11564322601430989,"164":-0.09924244560847843,"165":0.049458927942745284,"166":0.06374404543974517,"167":0.17765869856797795,"168":0.09999095190620874,"169":-0.26130554339813467,"170":-0.08315381492656325,"171":-0.20800990978855094,"172":-0.04952098103486922,"173":-0.13923581419133654,"174":0.12065858037120562,"175":-0.10350262883672601,"176":-0.029761219815904686,"177":-0.3068268554275806,"178":-0.05371743451071794,"179":-0.24346139480702972,"180":-0.007492034683388616,"181":-0.15674266832645112,"182":0.10191227788064795,"183":0.073121664688988,"184":0.017689499626567153,"185":-0.18463414016190358,"186":0.025849590047148246,"187":-0.26827547213771413,"188":0.005961358071529539,"189":-0.011858987738845096,"190":0.1366721652171034,"191":-0.05511195131986016,"192":-0.16847832077417957,"193":-0.1130852096487693,"194":0.00009034655930465763,"195":-0.09039906429619725,"196":-0.18703076438698335,"197":-0.10494314623095524,"198":0.07879007410226187,"199":-0.09531498913034778}},{"sx":5,"sy":5,"depth":8,"w":{"0":-0.09816678335392137,"1":0.03870065351388287,"2":-0.20527748309371424,"3":-0.10644900610780438,"4":0.15598493502844765,"5":-0.07246241960974723,"6":0.17954208678595904,"7":-0.02418118517831755,"8":0.05224239543818268,"9":-0.025895689183307518,"10":-0.038200068145689214,"11":-0.039125409312338114,"12":0.02859973720575375,"13":-0.01532746895477445,"14":0.0778647066087585,"15":0.10815235242256546,"16":0.09100345586214346,"17":-0.14113589101454177,"18":0.05593640655932868,"19":0.02917932218084717,"20":-0.04290664461727555,"21":0.051675680530921905,"22":-0.058831307080934626,"23":-0.19603664758821854,"24":-0.18091798744939838,"25":0.19247785340108456,"26":0.20532878637087648,"27":-0.03279467957870192,"28":-0.14493918632355737,"29":0.060601646883812664,"30":-0.15075860637274036,"31":-0.2845556040839564,"32":-0.1540901371060605,"33":0.15594419997254408,"34":0.03713052447205305,"35":0.21231859607936052,"36":0.07079867612561022,"37":0.023237205529935485,"38":-0.1617597608843324,"39":-0.001158299348103337,"40":-0.03937355218702626,"41":-0.0106683816175369,"42":-0.332212197384584,"43":-0.14624119563058469,"44":0.06872945326474443,"45":0.0381954324976095,"46":0.17389810876982995,"47":-0.06482821951811814,"48":-0.16429115181666928,"49":0.016669453946676936,"50":-0.07628143190583361,"51":0.027308377509336,"52":-0.04962069904389546,"53":-0.08872832849905724,"54":-0.11455633797746001,"55":0.16941605886933664,"56":0.054518288127418185,"57":0.01803358689458319,"58":0.012062020157692407,"59":-0.00822254355529319,"60":0.03566361170227052,"61":0.0016780659613033725,"62":-0.20533054898991418,"63":0.04934873678818804,"64":0.1174353809994714,"65":0.10846563897628836,"66":0.18552915731251315,"67":0.14124731605533436,"68":0.15598739048354587,"69":0.0872439224716941,"70":0.13284719199474765,"71":-0.03574741917836651,"72":0.14042538712637903,"73":0.025272057996503054,"74":-0.10262800043695783,"75":0.1258303440641782,"76":0.057905895089111946,"77":0.046499086146396904,"78":-0.047212378283263114,"79":-0.18096485124637968,"80":-0.11554777502372868,"81":-0.12967439972314185,"82":-0.44201137217538805,"83":-0.1888566939446363,"84":-0.1096618696117061,"85":0.016591162354929818,"86":0.12482873543515076,"87":-0.1198294958400376,"88":-0.1339475204319512,"89":-0.07558071755016195,"90":-0.2728427237754442,"91":-0.06937564402944082,"92":-0.01631642842892208,"93":0.05462164733141736,"94":0.17782075883359486,"95":-0.13875602448324825,"96":-0.31997669237839976,"97":-0.1270684199548659,"98":-0.17007857342850846,"99":-0.10819363807061932,"100":0.1532688947399309,"101":-0.025982052767400187,"102":0.10599695907398005,"103":-0.40584592366263644,"104":-0.24405296339908275,"105":0.028923361667744358,"106":-0.16863006739697947,"107":0.005468718289047337,"108":0.21507366869321962,"109":0.0650747217331464,"110":0.36182966389946297,"111":-0.033934917650641806,"112":-0.05641868619743012,"113":-0.18681732450034055,"114":-0.12877514080481534,"115":-0.0349486215439786,"116":0.034366004221333096,"117":0.07137508107254628,"118":-0.011168078279399809,"119":0.02095115914260538,"120":0.029538962936007357,"121":0.0028490042993231835,"122":0.015918868797327127,"123":-0.0018307411521393442,"124":-0.31587933471453156,"125":0.0025677537170085613,"126":-0.017668869319438046,"127":0.18382774025434065,"128":0.10955757329309637,"129":-0.20073892084483294,"130":-0.06841561359184094,"131":0.04277862671722125,"132":-0.2613778426162832,"133":-0.10041099931061134,"134":0.14472450372073417,"135":0.12697326299215103,"136":-0.11245531446401105,"137":-0.09306089538410663,"138":0.08046735454782969,"139":-0.30907545694128646,"140":-0.16774454480107662,"141":0.1688696588459574,"142":0.21519242058509166,"143":-0.016245816011355812,"144":-0.14223040031392706,"145":-0.05403307563124042,"146":0.13714164572617338,"147":-0.1355448909232456,"148":-0.08071182534874367,"149":-0.0055250664651890794,"150":-0.00006607238303098894,"151":-0.12773235904234664,"152":-0.012042131849313152,"153":-0.17555027025212502,"154":-0.027692525561592702,"155":-0.031173654347469167,"156":-0.20235674821430877,"157":-0.13319013223983578,"158":-0.23505746523108537,"159":-0.08807820127554734,"160":0.14506834807347055,"161":0.11222386881519143,"162":0.29355692769442776,"163":0.09577066539059927,"164":-0.33125587597729195,"165":0.05673474985047654,"166":-0.13367273169824906,"167":0.10486964779852018,"168":0.10712482937923919,"169":-0.04426083306811126,"170":0.1499328645542376,"171":0.07441337733508926,"172":-0.4113188222681235,"173":-0.12172805211575705,"174":-0.08113638383677714,"175":0.12860567845491858,"176":0.05720706404695737,"177":-0.03800602272496909,"178":0.03726174036838757,"179":-0.08161872605436916,"180":-0.1161849895359257,"181":-0.10273801053300513,"182":-0.06247997039690127,"183":0.015709104683843043,"184":0.07985063805339813,"185":0.05931236141714024,"186":0.08892232885944899,"187":-0.006188663218223354,"188":0.04903277621424899,"189":-0.17279981227045574,"190":-0.03322814447088417,"191":0.22528961228381272,"192":0.06772138568680366,"193":-0.18364929263958465,"194":0.07834950793084332,"195":0.103408926641792,"196":-0.02777094873437308,"197":-0.04088512635975301,"198":-0.002972120602672931,"199":0.018509284733917566}},{"sx":5,"sy":5,"depth":8,"w":{"0":-0.14233241750138412,"1":-0.0938164714912641,"2":-0.08803317041513344,"3":-0.2899221480514183,"4":0.07878802728246435,"5":0.15599741467987696,"6":0.21651992576241946,"7":0.04205845910025576,"8":-0.2817547906687522,"9":-0.153713702585684,"10":-0.20760124399077803,"11":-0.17776129415783593,"12":0.026012495178050106,"13":0.12984727602854465,"14":0.2996147652211133,"15":-0.04565761653568919,"16":-0.022069092525216463,"17":-0.1723393344088927,"18":-0.24720924436588512,"19":-0.1985643473597617,"20":-0.043402792209492634,"21":0.17776490377664336,"22":0.22799949182898246,"23":-0.3935866795553892,"24":-0.11830162297594105,"25":0.10331917266357427,"26":-0.14887754957903576,"27":-0.0928003824082944,"28":0.12970028230566413,"29":0.13058979261539744,"30":0.12087467606182643,"31":-0.1256234895559121,"32":0.12806722633832976,"33":0.2936716523894271,"34":-0.22222064720611176,"35":0.15250268849502022,"36":0.11032027444404295,"37":-0.1995370807671688,"38":-0.06055727955892766,"39":0.26401173514391196,"40":-0.11786858732213606,"41":-0.23113659260880398,"42":-0.03183638734165829,"43":-0.3013307478970914,"44":-0.14441326411530692,"45":0.13785041507888704,"46":-0.032383816956965454,"47":-0.05935676632664094,"48":-0.13070800905170166,"49":-0.068692090840435,"50":-0.20842610571185619,"51":-0.22969194124950398,"52":-0.09111297146411412,"53":0.18047102331445752,"54":0.10899240089692759,"55":0.07264563118915107,"56":-0.024583077049750657,"57":-0.19342421102542448,"58":-0.12421981687028526,"59":-0.3517318267211409,"60":0.033768883554733425,"61":0.17623529074386618,"62":0.06580891317697944,"63":-0.025815397286481512,"64":-0.05619335796046655,"65":0.02924631704652349,"66":-0.303187176102248,"67":-0.15637614936748642,"68":0.04405183623099769,"69":0.11134214972805094,"70":0.08197963123497151,"71":-0.0015321355055558756,"72":0.05944520033809633,"73":0.25103116640192175,"74":-0.5367364812547523,"75":0.028020412225488678,"76":0.14857105724442538,"77":0.05702072657205464,"78":-0.1246289776391032,"79":0.04661316458248581,"80":0.008653336068758915,"81":-0.0796666120852966,"82":0.010093754541881642,"83":-0.1271783484842604,"84":-0.20107237268519032,"85":0.04844240591299839,"86":-0.22756084610182695,"87":0.11620034619682532,"88":0.061019290568994945,"89":-0.2522757026588238,"90":-0.1513325431820353,"91":-0.06256846842211652,"92":-0.1706913520781953,"93":-0.16216499852653063,"94":-0.039281234826455576,"95":0.15404690067409146,"96":-0.05551212750732993,"97":-0.057411520146198936,"98":0.09670109686707568,"99":-0.0863497548694288,"100":-0.2017997887801794,"101":0.04946614740821565,"102":-0.07194960210686184,"103":0.2798533548392798,"104":-0.1301067120760736,"105":-0.05576980661811228,"106":0.039341301569784236,"107":0.03707119580643998,"108":-0.37467178750316416,"109":0.19963442387796793,"110":-0.13769512465058886,"111":0.1731304923527782,"112":-0.16413169975319755,"113":-0.010082117179685896,"114":-0.12694516110589177,"115":-0.04863820453098163,"116":-0.4053485308944554,"117":0.17113388251171524,"118":-0.3790953867867386,"119":-0.02269527271695636,"120":-0.3275832988883038,"121":0.11166644018499888,"122":-0.021475402020313086,"123":0.05445646324653241,"124":0.22811237277513813,"125":0.19985286986557418,"126":0.06112024643901758,"127":0.12041487509515501,"128":-0.08719145072635663,"129":0.09568684854265787,"130":-0.2003135269454514,"131":-0.06705681817917726,"132":0.15167068253825589,"133":0.05992662442154961,"134":0.046435428823527816,"135":0.15953605587953829,"136":-0.04320817262250559,"137":0.10277559564856642,"138":0.2723073049616193,"139":-0.11587721928521418,"140":-0.15474402980260263,"141":-0.08669426475375534,"142":-0.21634042802040848,"143":0.07008115065618536,"144":-0.0018344937688594312,"145":-0.04772565160987529,"146":0.2377054534869432,"147":0.10255740101649952,"148":-0.042764495526961196,"149":-0.036013858172462096,"150":-0.15646909600789274,"151":-0.21483752332360728,"152":-0.15827205586263518,"153":0.07877023207316691,"154":0.2568270827629132,"155":0.19448640590010668,"156":0.23660060118852552,"157":0.19381313878423606,"158":-0.03755289726894761,"159":-0.11109949626988873,"160":-0.05142836383645554,"161":-0.03296373911003157,"162":0.21916635700986967,"163":0.026866924734213007,"164":0.03808169712724929,"165":-0.0005314312726204203,"166":0.09730697837159814,"167":0.14270522881120826,"168":-0.052714691961823316,"169":0.08101196457110847,"170":-0.056195363259124234,"171":0.05292914558398859,"172":0.06130900836807378,"173":-0.06931990544514444,"174":-0.1069323934798955,"175":0.06153242156262179,"176":0.04727285898565173,"177":0.0921844957495954,"178":-0.1639256559801236,"179":0.10595723907309185,"180":0.1440692959314272,"181":-0.13214406664029765,"182":-0.10231063553241969,"183":-0.08732363654230084,"184":-0.18082235948358205,"185":0.0817469364912163,"186":0.04449820711348115,"187":0.12282475473056287,"188":0.1749855442659248,"189":-0.1213111732200709,"190":-0.2022406279775774,"191":-0.08364041396403181,"192":0.2599023929011333,"193":-0.025062035452775383,"194":-0.13658217972141473,"195":0.008312303177873268,"196":0.16567748955760128,"197":0.06520918599160061,"198":0.03259796833823851,"199":-0.14962601187196461}},{"sx":5,"sy":5,"depth":8,"w":{"0":0.01951264832299707,"1":-0.016421213386933572,"2":-0.02718327502002932,"3":0.02082281476558837,"4":0.05165244127418712,"5":-0.08609108737933555,"6":0.16637237768691512,"7":-0.06738948524604958,"8":-0.10816544928864023,"9":-0.05463956303080656,"10":-0.08171370661624437,"11":0.04209812426576383,"12":0.0589016300969098,"13":-0.07410884235358833,"14":0.21880233895160706,"15":0.08114765410609696,"16":-0.14047182899888186,"17":0.18223932806998663,"18":-0.17483931745072273,"19":-0.19716634036473138,"20":-0.11266008041159145,"21":-0.0047284654299648956,"22":0.09479489994287642,"23":-0.20976638418819646,"24":-0.26079205297582225,"25":0.07483427039766838,"26":-0.18676029888830917,"27":-0.08197868185510215,"28":0.08397836083969054,"29":0.04527418785113975,"30":0.14935127675973772,"31":-0.05930448610603173,"32":-0.10835978533439951,"33":0.12114578490475007,"34":-0.06671205350320192,"35":-0.09011863794970826,"36":0.030825602968584772,"37":-0.06155829278292644,"38":-0.09908022375418817,"39":0.2287539882275103,"40":-0.11162663025794964,"41":0.12084744224584418,"42":0.05745421581513382,"43":-0.005261333194223218,"44":0.14105877076735793,"45":0.1914350124244815,"46":-0.007069994795170735,"47":0.1582570028081592,"48":0.040830863942040115,"49":0.09547863064481416,"50":-0.24425402805637456,"51":0.2042172206143967,"52":-0.025362951493719414,"53":0.048409638475232844,"54":0.07787240641238367,"55":-0.004556788901289575,"56":0.02680523225159701,"57":-0.08088437541232261,"58":-0.17255039579983888,"59":-0.12513423824244432,"60":-0.2156190829662089,"61":-0.017114790842170186,"62":0.024597390825679296,"63":-0.1689473684147862,"64":-0.1856927537365257,"65":0.04605909349009894,"66":-0.09636043132727812,"67":-0.04885642635073443,"68":-0.145420166992174,"69":-0.06473636120683285,"70":0.0037224740611522963,"71":0.028060056084855435,"72":-0.06407458632880643,"73":0.02851108597263107,"74":0.18121408088237279,"75":-0.03708348865455257,"76":-0.29340972482367833,"77":0.2423678524134114,"78":-0.20046750908880093,"79":0.08888220422821765,"80":-0.10965301434722233,"81":0.1362159526466841,"82":0.2695385034291158,"83":0.08939507515329768,"84":0.03031029667799931,"85":0.15310652479985176,"86":0.03315094049294268,"87":-0.0049620031868943554,"88":0.1379565135327307,"89":-0.03950461345260231,"90":-0.25686849443847487,"91":0.20341975998188871,"92":-0.0682187912509237,"93":0.06540407426327353,"94":0.016853776349778346,"95":-0.029561441455623783,"96":0.12426575959365142,"97":-0.21144724760683362,"98":0.056286708355455,"99":-0.15582466883965582,"100":-0.18299917291788337,"101":-0.0027709409374185893,"102":-0.05095778626446145,"103":0.05259427694470732,"104":-0.10701094778099583,"105":-0.07802597731055293,"106":0.22459344795722458,"107":-0.203821610116219,"108":-0.3654903110626452,"109":-0.09406002836698871,"110":-0.18906863493592835,"111":0.09439425793117631,"112":-0.10231986287000111,"113":-0.06436968467107812,"114":0.36608971029333287,"115":0.0378651600400303,"116":0.013057978259483096,"117":0.06540454423513939,"118":-0.3788226702448626,"119":-0.15365096271136824,"120":0.1448561412396211,"121":0.0812503869692331,"122":-0.11322685496519068,"123":0.1434248486529095,"124":-0.19841332564135006,"125":0.05281944709759619,"126":0.11976457513284051,"127":-0.1627344399734752,"128":0.09474833630506746,"129":-0.11695570900911567,"130":-0.1727321061575106,"131":0.2702188970725762,"132":0.039052061821899985,"133":-0.03235703471616974,"134":-0.0718571098930041,"135":-0.2686383587207355,"136":-0.030542500656509868,"137":0.020506508846777845,"138":0.13634755744733826,"139":0.06365729299348231,"140":-0.15069001449044442,"141":-0.03732188854878391,"142":-0.09638104110051395,"143":0.15645559084539631,"144":-0.2626000123407182,"145":-0.03964260653839204,"146":0.18688960269289037,"147":-0.17029043953441467,"148":-0.4121136329036717,"149":0.12720325028485102,"150":-0.2765602153015448,"151":0.06437236040965938,"152":0.1602429852193165,"153":0.09528156045203885,"154":0.05564656599442207,"155":0.067968732358318,"156":0.023983020357214183,"157":-0.12454175623018181,"158":-0.45434252193348024,"159":-0.1477291521978332,"160":0.1498522965976916,"161":-0.006016932908904592,"162":-0.2299413598274856,"163":0.2795036663825635,"164":0.001227311720151265,"165":-0.115160720723059,"166":-0.056302677058170006,"167":-0.051614768507603395,"168":-0.06579522038140394,"169":0.0016699201815254365,"170":0.10744713529549745,"171":0.06427671528686481,"172":-0.1581034888725565,"173":-0.23402122690891222,"174":0.05993821558882732,"175":-0.03942782953297241,"176":-0.08734176526025404,"177":0.05319176235030551,"178":0.1866825663879547,"179":-0.03602399189356909,"180":-0.15585599405125486,"181":0.1528795903829602,"182":-0.2500030809296709,"183":-0.07200502408444776,"184":-0.03787367314511254,"185":0.18333879734553776,"186":-0.10336490535757026,"187":-0.13404442770677197,"188":-0.2625713567680097,"189":-0.11868599661601782,"190":-0.32939313263296405,"191":-0.2528764821009627,"192":0.14245444323989656,"193":0.2611443544531664,"194":-0.18613905077203224,"195":0.08231849877954105,"196":-0.05946481040327011,"197":-0.08077816219670259,"198":-0.2548780610314311,"199":0.015258204329022971}},{"sx":5,"sy":5,"depth":8,"w":{"0":-0.21405776414655645,"1":0.0773330756537887,"2":-0.029328023887055233,"3":-0.006533146622700493,"4":-0.2860504040470205,"5":0.04955758105042071,"6":-0.19743901098878808,"7":-0.004759321314383248,"8":0.006070755507307623,"9":0.053912755058195795,"10":-0.1014634419335024,"11":0.14988088372509875,"12":-0.07447028803777449,"13":-0.08853922572032911,"14":-0.22359546409896747,"15":-0.2622071867041747,"16":0.019872579482974627,"17":-0.006512566427093578,"18":-0.01020954407001059,"19":-0.06301287324652169,"20":-0.04990395720134364,"21":0.011356020969084111,"22":-0.050642420643390376,"23":-0.02655089155276382,"24":0.06370829528665876,"25":0.052304629313575525,"26":-0.029570305999237587,"27":-0.01704459212757715,"28":-0.22359941985058449,"29":-0.002181139253333692,"30":-0.09136841104886324,"31":0.07457498082773749,"32":0.03788468047953244,"33":-0.05284351972324249,"34":0.1648658111727995,"35":0.17262600069769268,"36":-0.18511590999805777,"37":-0.022175862900092845,"38":-0.2575156763221421,"39":0.16290259494526324,"40":-0.05588611606707198,"41":0.054037050376851754,"42":-0.10495382958865195,"43":-0.042402052009111284,"44":-0.09716376082907173,"45":0.14782377708326913,"46":-0.015459708440686188,"47":-0.14768321356623784,"48":0.029995510314348012,"49":-0.19865515835214537,"50":-0.0008842628792884746,"51":-0.211619539467283,"52":-0.06623808485138076,"53":0.10696415707413526,"54":-0.010873741284684888,"55":-0.26546931419029884,"56":-0.14121125231807427,"57":0.12611274696987956,"58":0.08870714830132477,"59":-0.2302782239513593,"60":-0.2593194302207114,"61":-0.027717951248402636,"62":-0.24995547827095926,"63":-0.1417019064694987,"64":0.03630636408417249,"65":-0.0609873392014567,"66":-0.008166527515708216,"67":-0.048826037879237956,"68":-0.1304082493216959,"69":0.0970006770811131,"70":-0.31510564844347394,"71":-0.047916305430263276,"72":0.08792192488411532,"73":-0.03839365195977303,"74":-0.14630755320873517,"75":0.05357205499925736,"76":0.1373266896797009,"77":-0.12983211813147225,"78":-0.037595300859858835,"79":0.15793780841599234,"80":0.1662443095582948,"81":-0.03215393653731284,"82":0.021311645607096225,"83":-0.08036491360117147,"84":-0.11854548207491498,"85":-0.17677162214215428,"86":0.01906119162517183,"87":-0.019050579362717347,"88":0.04985024562242135,"89":-0.14698333935252103,"90":-0.07836827344901309,"91":0.10179254909884262,"92":-0.28201490319792816,"93":-0.175671756314661,"94":-0.08712376048475282,"95":-0.05394883399282875,"96":-0.04377769334164335,"97":0.20502210443305804,"98":-0.07159076757372812,"99":0.14187014053179312,"100":-0.21646993527484998,"101":0.09734895647528083,"102":-0.12114500168402223,"103":-0.2605834685922903,"104":-0.025360465922106213,"105":0.24981474289696728,"106":-0.09604062359730035,"107":0.07772192699108585,"108":-0.06999733504195456,"109":0.058117361189168396,"110":-0.12981640286442045,"111":-0.04770380389793608,"112":0.047069016662200036,"113":-0.27006770055581647,"114":-0.15899726125603603,"115":-0.0855374459713407,"116":0.17028789784864726,"117":-0.20609579867739783,"118":0.05158686324792558,"119":-0.039861448668863195,"120":-0.07456365429084853,"121":0.05390546044187447,"122":-0.2777381244407299,"123":0.24247837283311405,"124":0.21709142996179662,"125":-0.08788156620005919,"126":-0.08546492542639603,"127":0.08389655944525046,"128":-0.023283389341312737,"129":0.2332805667669037,"130":-0.31724389064311836,"131":0.17780745889393196,"132":0.13632460602567406,"133":-0.1138825515006346,"134":-0.05733662540732361,"135":0.08767245831756945,"136":0.03672400182154811,"137":0.09026036840342337,"138":-0.22975244694493732,"139":-0.08741514426153951,"140":0.07318272027507397,"141":0.04662091621079281,"142":-0.10569896316043657,"143":-0.09081815880939789,"144":0.1204391310299456,"145":0.09660514161907148,"146":-0.2832821439063772,"147":0.056576333681598194,"148":-0.03134953921222834,"149":-0.14330500184865397,"150":-0.264224167951167,"151":-0.19046351127228156,"152":0.2185388990710787,"153":0.12082652787287262,"154":-0.3256965075592693,"155":0.08800789541119633,"156":-0.0882176723597805,"157":-0.1226711879450854,"158":-0.17137034081306915,"159":0.10760357636784432,"160":-0.009944854764497671,"161":-0.023120672539614476,"162":0.10315189873027986,"163":-0.10580989814213604,"164":0.32124922828094377,"165":0.19339083940116725,"166":0.04381248406844645,"167":-0.24350335155719574,"168":-0.21365017722860669,"169":0.1322211330757547,"170":0.18708238902064644,"171":-0.09848349706665889,"172":0.2070163187514969,"173":-0.11860283130025354,"174":0.15147573160824515,"175":-0.1431108648082214,"176":-0.1142601527149364,"177":-0.07943023610851825,"178":-0.08636537291686791,"179":0.061504547092059624,"180":0.04179746952559785,"181":0.10450698981827057,"182":0.1256649884505112,"183":0.03456237548077877,"184":0.2406379166606558,"185":0.07598714638588483,"186":-0.06194724665309022,"187":-0.04272410165341593,"188":-0.11627401353918669,"189":0.05297417196699459,"190":-0.382373553545526,"191":0.09177903461831509,"192":0.12504179369209262,"193":0.04967848338918291,"194":-0.11425879600949106,"195":0.15313062669464717,"196":-0.22929553228315727,"197":-0.13518999297704928,"198":-0.13821400597196354,"199":0.3036381673064775}},{"sx":5,"sy":5,"depth":8,"w":{"0":-0.08171688057854272,"1":-0.2682013350791176,"2":0.05906386950841903,"3":-0.14694081635658246,"4":0.04200105115860875,"5":-0.08572735579711678,"6":-0.1551590367128261,"7":-0.08290801865041646,"8":-0.2690574388926876,"9":-0.12647685111069698,"10":-0.07089036688733752,"11":-0.2170501654010674,"12":0.2280039787355758,"13":-0.13018738491258158,"14":0.19264977818171233,"15":-0.01677743526419642,"16":-0.060489006737556326,"17":0.02132493261122063,"18":0.12834852971012692,"19":-0.15506528227826552,"20":0.010664496647767318,"21":0.10166788527675737,"22":0.21620584789215996,"23":0.14987172737870452,"24":0.09013078299765725,"25":-0.07543809362985715,"26":0.1559154133542497,"27":0.009324649551551547,"28":-0.05289935016076005,"29":-0.0778474927562227,"30":0.3712430838051284,"31":0.010827496692247576,"32":-0.06185847290456249,"33":-0.07686695614783137,"34":0.17859626032352585,"35":-0.0951586664087194,"36":-0.0928670072134381,"37":0.1233864069951961,"38":0.10437421779712032,"39":-0.06621640197572382,"40":0.20000684392554946,"41":0.02331236808555425,"42":0.022069572683592196,"43":-0.10621447792656374,"44":-0.04241356199459833,"45":0.049362865757745775,"46":0.1522179746244689,"47":0.4673956100660138,"48":0.3622004056773731,"49":-0.2443565457347773,"50":-0.2749901103003002,"51":-0.16309011757285513,"52":0.20584342139443848,"53":0.02321217157656172,"54":0.2743021193166379,"55":0.05573815029500052,"56":-0.05513322634701338,"57":0.04374385339823142,"58":-0.06075400631519103,"59":-0.19835190260529711,"60":-0.03496073903198623,"61":-0.17700795396481475,"62":-0.060931583175899966,"63":-0.1677660838377438,"64":-0.08552154490788945,"65":-0.035149746743937255,"66":-0.07207154332420646,"67":-0.07804583339135406,"68":-0.21962217492990765,"69":-0.16155769438657056,"70":-0.16620087640221545,"71":0.13481002266388134,"72":0.059581353754478386,"73":0.07985677641088877,"74":0.10874082322496767,"75":-0.051724167886189436,"76":-0.0037525686234148596,"77":-0.05852684735942127,"78":-0.12996789679269935,"79":-0.042698955716838634,"80":0.010590783375230351,"81":0.219819182683177,"82":-0.3073423642191815,"83":0.26186489687544295,"84":-0.09731323414961625,"85":-0.3005429401770769,"86":-0.017482936540545026,"87":0.35776624670915924,"88":0.1560089879686245,"89":-0.06323045692474066,"90":-0.011780651440817263,"91":-0.051792661072822155,"92":-0.279439578220078,"93":0.018254290483384512,"94":-0.011754038386666854,"95":0.5398453069696807,"96":0.2763517553938298,"97":-0.2366997009793023,"98":-0.20226702809426791,"99":0.0939098653929388,"100":-0.2899166731134192,"101":-0.014955855628517251,"102":-0.08322555477099294,"103":-0.011469683932812034,"104":0.10832463424524896,"105":0.05414242195429648,"106":-0.24155966773467272,"107":-0.0016787264622542507,"108":0.005652867717591971,"109":0.09421956320149995,"110":0.1406189395138507,"111":-0.179926778418821,"112":-0.11350219651738921,"113":-0.08749336200336351,"114":-0.016260085385454884,"115":-0.285984518780601,"116":0.0966366905281372,"117":0.0402520868521781,"118":0.26931417563774307,"119":-0.17282195602905645,"120":0.15309232865798506,"121":-0.06198120702030732,"122":-0.12373657942420463,"123":0.0445393315342264,"124":-0.12171345627947094,"125":-0.017880087449022475,"126":-0.4124566545697994,"127":-0.05358322229092818,"128":-0.04227048601607808,"129":0.17355494256276408,"130":0.2385822890730604,"131":0.13144810429378156,"132":-0.12723737129931148,"133":-0.2517689521188937,"134":-0.16252579136989373,"135":0.20889123306008855,"136":0.21166178145629863,"137":-0.022748830776590276,"138":0.24468761900457978,"139":0.12557863258242105,"140":-0.10637650056375868,"141":-0.22298504504510536,"142":-0.18510133312506136,"143":0.1742379614877963,"144":0.08434280644643052,"145":-0.1516276302931321,"146":-0.004587192483898243,"147":-0.15356049225902263,"148":-0.36379521441453583,"149":0.0042696046467997,"150":-0.11312069421746723,"151":0.2285441883397388,"152":0.06184443579329834,"153":-0.32828340531445915,"154":-0.33322940362383585,"155":-0.20676709026253248,"156":-0.1716851873408379,"157":0.12035375468634052,"158":-0.19663025579201088,"159":-0.09613651284423173,"160":0.018355840408452492,"161":0.07652887395741442,"162":-0.06551639451954647,"163":0.04391256498200074,"164":0.006753916605646235,"165":-0.18175031503810019,"166":-0.2667765888623391,"167":-0.28910342491622815,"168":0.026556838058057097,"169":0.0017310601755294451,"170":-0.09660002429008428,"171":0.04373845507442752,"172":-0.06694090168174062,"173":0.032534649496084624,"174":-0.07323258852484213,"175":0.04004245308027487,"176":-0.013849744942696805,"177":0.04185176991937746,"178":0.1496551595561976,"179":0.11033308000466384,"180":-0.12025225751277262,"181":-0.05063509537926237,"182":-0.3282190782671164,"183":0.03599182180016715,"184":0.02182399539530739,"185":0.2474975119901423,"186":0.23308254829455355,"187":0.0007396230018742413,"188":-0.11168266797310723,"189":-0.11194386971110058,"190":-0.19463952246029476,"191":0.23968310953725483,"192":0.20989993685588473,"193":0.05051587351415253,"194":0.06584695576471704,"195":-0.009496197548529527,"196":-0.26552691872512457,"197":0.036267253584681435,"198":-0.05152651272612638,"199":0.2722287620142453}},{"sx":5,"sy":5,"depth":8,"w":{"0":-0.08742465704042887,"1":-0.08543402607035207,"2":0.05101751402819299,"3":0.08153596312374867,"4":-0.12097837733934226,"5":0.08899546693945298,"6":-0.25093802342419425,"7":0.059813983508841574,"8":-0.03188074024208692,"9":-0.05911312194373616,"10":0.1318330074837841,"11":0.16273674500895155,"12":-0.021251133986884687,"13":0.023717666177289303,"14":-0.12902600320971516,"15":-0.06739016836827254,"16":0.16514247249725644,"17":-0.026442887324194694,"18":0.0699799016105815,"19":0.008334166431327898,"20":0.08276808551848885,"21":0.1747906664549266,"22":-0.17080454919766466,"23":-0.270567072018145,"24":0.01645421660544758,"25":-0.10729871361847758,"26":-0.08518448323166034,"27":-0.1385029507746061,"28":0.12247549513242315,"29":0.03635220227502068,"30":-0.06251822748738034,"31":-0.08147816811955226,"32":0.011293208815242024,"33":-0.005888078593257891,"34":-0.17638177927955073,"35":-0.18381173925807365,"36":0.011556925199653364,"37":0.06495854661473864,"38":-0.025991634076060643,"39":0.05996499504414201,"40":0.11753611115770836,"41":0.038769023365527414,"42":-0.009983561475287995,"43":0.10366516840360596,"44":-0.04288253585604885,"45":-0.016428607218748618,"46":-0.21991399663972247,"47":-0.022692625370793466,"48":0.1331086738469899,"49":-0.0801468153603951,"50":0.11615642934929725,"51":-0.14123727450102927,"52":0.005799438906593058,"53":-0.012235623004845595,"54":-0.06997106814034727,"55":-0.14829360380117956,"56":0.08017098933399695,"57":0.022153708357599403,"58":0.02358130499520728,"59":0.10241387682633189,"60":-0.22608418908887448,"61":0.054774823526300774,"62":-0.07860085566660135,"63":0.029135621420532398,"64":-0.02313159506280712,"65":-0.16974812095067973,"66":-0.10746689467534433,"67":-0.10717602191904843,"68":-0.3124781358864902,"69":0.036514996428748545,"70":0.12787266776501643,"71":0.08882001930529997,"72":0.15685221061623528,"73":-0.0652198051912308,"74":0.31655299907488366,"75":0.019283164697193357,"76":-0.4652853025837942,"77":0.12039806777904052,"78":-0.1839959095449187,"79":0.07389484851952564,"80":0.15495832910940677,"81":-0.04132789632548396,"82":-0.005516823344669936,"83":-0.042452075779922445,"84":-0.08945509814833781,"85":-0.101619175694966,"86":0.014256879346723624,"87":0.13872881957063923,"88":-0.023841722588102538,"89":0.09206728632113473,"90":0.011236631262973043,"91":0.10042215586473523,"92":-0.051803019803434824,"93":0.13918856287710424,"94":0.03271450545262529,"95":0.12041450783435442,"96":0.03786338032839272,"97":-0.006246499966090229,"98":-0.11283732992095967,"99":0.2578360308621144,"100":-0.067039716728534,"101":-0.10627588156677314,"102":-0.02623161145508078,"103":0.3538225379750428,"104":0.1822027529612063,"105":0.06533327835503369,"106":-0.1085386570422052,"107":0.07495444802730308,"108":-0.059984235489855015,"109":-0.11133948602493826,"110":-0.18846047157586143,"111":0.31774509808187296,"112":0.16302654617420353,"113":0.2008971087601515,"114":0.06931499183978379,"115":0.2671401224778735,"116":0.09930994053029876,"117":-0.07404096898745356,"118":-0.14058947181937306,"119":0.1220985724809578,"120":-0.142855838214525,"121":-0.02300027264718985,"122":-0.2602070483200842,"123":0.13754569303501624,"124":-0.06255546673384496,"125":-0.17783396346782548,"126":-0.014006926106758496,"127":0.03685759200665793,"128":0.04044595943528099,"129":0.19715817105636027,"130":-0.17534043225635376,"131":-0.02122872170596035,"132":0.15448951183736012,"133":0.2147842274229394,"134":0.022981417108571375,"135":-0.10396622171721451,"136":-0.34406102946434275,"137":-0.04279949394869629,"138":-0.39446714021092366,"139":0.04650638089651965,"140":0.32573292012315846,"141":0.02722836616591355,"142":0.24465746006672132,"143":-0.10499628932185195,"144":-0.1451089724505295,"145":0.02057046054606266,"146":-0.4263419517379167,"147":-0.12270315163843795,"148":0.2663183993556371,"149":0.10811958035579947,"150":-0.1912587590550559,"151":-0.3311428979570892,"152":0.1297045881324525,"153":0.02578341005877001,"154":-0.25835196682029477,"155":0.14848252328802916,"156":0.2646093128034446,"157":0.33094121148767147,"158":-0.09616857152497546,"159":-0.2646702520184215,"160":-0.303459812412807,"161":-0.004945149898960938,"162":-0.21579351138462027,"163":-0.02951346330048555,"164":-0.09770057189680967,"165":-0.22740785103395686,"166":-0.004237222656371863,"167":-0.07749129685185953,"168":-0.14497551344925724,"169":-0.21861669186257407,"170":0.03600288350093706,"171":0.029636638098478787,"172":0.07003190578646093,"173":-0.04049842823113866,"174":0.09905778227458856,"175":0.18641692044533803,"176":-0.12739834474691894,"177":-0.13424046253516916,"178":0.3204930682090761,"179":-0.06359467007812054,"180":0.007322751442116947,"181":0.12758306475559414,"182":0.3158137782313359,"183":-0.02371787496965843,"184":-0.20921591400661954,"185":-0.0351003779346777,"186":0.19214812936532505,"187":-0.15120640829702944,"188":-0.14824910635613633,"189":-0.003954553725778359,"190":0.00063615436797522,"191":-0.26687009155164343,"192":0.08589511744703128,"193":0.048598865887228525,"194":0.2768956184748787,"195":0.11561676071251571,"196":-0.1819041013340502,"197":-0.11165658841468463,"198":-0.2646660404155474,"199":-0.25815958024342817}},{"sx":5,"sy":5,"depth":8,"w":{"0":-0.09188629655698734,"1":-0.2170900377776488,"2":0.13016341138830886,"3":0.01944032107389997,"4":-0.08246806304113775,"5":0.02940257626556286,"6":0.07393368328977573,"7":-0.1481288674895096,"8":-0.12247844093224923,"9":-0.008919118576305765,"10":0.11082393376823449,"11":-0.10623528678196119,"12":0.06656359594602436,"13":0.029486967604306486,"14":0.04795594741011192,"15":-0.060206998981389266,"16":-0.013194081527601206,"17":0.12025673972348788,"18":-0.01588005802481884,"19":-0.13795575837430346,"20":-0.018210769082118418,"21":-0.04020672339458457,"22":0.24873782160780875,"23":-0.17174186306521103,"24":-0.12915704334616396,"25":-0.16209983809813208,"26":-0.13892112622774092,"27":-0.13447701229943876,"28":0.10976089359183416,"29":-0.20087132115245754,"30":0.19207669076843203,"31":-0.07729958123960466,"32":-0.1177457666900921,"33":-0.11241434054115244,"34":0.16364400387114658,"35":-0.17636819019608943,"36":-0.06234090227281776,"37":0.008318684541496106,"38":0.19170081495878846,"39":0.0021123420142785156,"40":0.044346498230798476,"41":-0.04556730200652848,"42":0.1298126778130542,"43":-0.020894632904392633,"44":-0.03400673145213138,"45":0.09523490146095102,"46":0.10532011626426735,"47":0.11093039031770895,"48":0.07722607089764741,"49":0.03125780066082493,"50":0.1719345641157005,"51":-0.19125707289576596,"52":-0.11449377839563081,"53":0.07152562864710768,"54":0.05444431045349706,"55":0.18909868815484598,"56":-0.03159666016848638,"57":-0.13854621785348784,"58":-0.02553973290677221,"59":-0.08098295287387562,"60":0.04176011983957108,"61":-0.045047725969276614,"62":0.21208928230364427,"63":-0.09196141434597913,"64":-0.03982279010473617,"65":-0.13434037810825514,"66":-0.12116123961028943,"67":0.00046162661224408754,"68":-0.08256407159920355,"69":-0.171579169988589,"70":0.031207523186268953,"71":-0.09913935810307448,"72":-0.13304754368776342,"73":-0.041716775792441846,"74":0.1197979052594889,"75":-0.25271039136623846,"76":-0.10935296917530907,"77":-0.028420681785437493,"78":0.07674656936890377,"79":-0.12416550402702993,"80":-0.02493532850892132,"81":0.046049716051086376,"82":0.13792361240025558,"83":0.055043601499722025,"84":-0.03841348308579749,"85":-0.011089127734210178,"86":-0.028559627050721514,"87":0.06198159605588399,"88":0.055705419654317044,"89":0.09648160594070544,"90":0.19491494819241587,"91":-0.10877684333722995,"92":-0.18598865210375906,"93":-0.15423806072290347,"94":-0.35166021501705036,"95":0.20585863394191886,"96":0.1908544501396305,"97":-0.05867312640385707,"98":-0.05148845256507108,"99":0.13337329177044233,"100":-0.2891673029767703,"101":0.015217355779706019,"102":-0.17703138148245906,"103":0.2512903507729513,"104":0.010320763943556573,"105":-0.2678973629767714,"106":-0.1561218956838999,"107":-0.013582679593957387,"108":-0.25130970367178646,"109":0.013273374714277015,"110":-0.13115530883944576,"111":-0.197372019051525,"112":-0.21797431040199777,"113":-0.0858350423764953,"114":0.04163287898364781,"115":-0.22913580795697958,"116":-0.26943801072073664,"117":-0.0002006796445812241,"118":0.04809511387874667,"119":-0.0201392542278843,"120":-0.2037671238382392,"121":0.12975367043260283,"122":-0.2771730614881105,"123":-0.15461270516827896,"124":0.12184522473506205,"125":-0.1709568745064565,"126":-0.026430908609017686,"127":-0.057988978934892126,"128":-0.12350332865178773,"129":0.09490979637280926,"130":0.08708291162576202,"131":-0.20302165893330315,"132":-0.0444270627245759,"133":-0.07156500884769346,"134":-0.1963027350937964,"135":0.15985819520252634,"136":0.21078079896076743,"137":0.04281626762758904,"138":-0.10078573476817407,"139":0.1714987451118745,"140":-0.1763085530051519,"141":-0.07191482880377302,"142":-0.26089953457759774,"143":0.2066896005365391,"144":0.025417940802169865,"145":-0.15479405182471495,"146":-0.10086568149550366,"147":0.25186803194046675,"148":-0.36661965130822843,"149":-0.0668851592559544,"150":-0.14453606763490448,"151":-0.14966211676483515,"152":-0.0757545733435089,"153":-0.024321400246414823,"154":0.08619927099996558,"155":-0.27673665633498523,"156":-0.14899715238571504,"157":0.08453922482257903,"158":0.013234092484190671,"159":-0.1034533339041822,"160":-0.09030478854013674,"161":-0.21321513575448292,"162":-0.07269083365223013,"163":-0.2522889687098131,"164":-0.1383667453312298,"165":-0.04242957354411777,"166":-0.021640116035133366,"167":-0.34749053704234373,"168":-0.22930668511459626,"169":0.17622941596306668,"170":0.06731299952429289,"171":-0.03462617852149577,"172":-0.11005431337116611,"173":0.17665075029598676,"174":-0.14480459623353908,"175":0.005876980179305844,"176":0.05448626258833218,"177":0.0792374278367378,"178":0.06086569383101568,"179":0.18431559093448954,"180":0.048755310835976916,"181":-0.01049592893107203,"182":-0.12065341321698564,"183":0.15554226325471557,"184":0.06851148829277041,"185":-0.2845844130475576,"186":-0.036568540689574,"187":0.09959072923502972,"188":-0.12261992860866942,"189":0.021551839548625613,"190":-0.0422498838204099,"191":-0.007309983385539371,"192":-0.19185866111277408,"193":0.06558994410752182,"194":0.13792182394461314,"195":-0.22724074747504558,"196":-0.11082311453987737,"197":0.08219844750725196,"198":0.05796850004991722,"199":-0.19948907477576577}},{"sx":5,"sy":5,"depth":8,"w":{"0":-0.06816754231973501,"1":0.04134680702169781,"2":0.11678587468397314,"3":-0.3680274775760101,"4":-0.05943618963984453,"5":0.054317717452991694,"6":-0.14189464235193153,"7":-0.049602083404809906,"8":-0.14274641800321797,"9":0.12685971962090078,"10":0.3332374004416205,"11":-0.17312880509590017,"12":0.02023509779327001,"13":0.30339601567765245,"14":-0.15950226458818859,"15":-0.05756839317455663,"16":0.10867205246355696,"17":0.018389845159906826,"18":0.12266296843034326,"19":0.1406266725740909,"20":0.03760583467153741,"21":0.11930616086676718,"22":-0.04092812385029365,"23":-0.1445199295095331,"24":0.2912833570712781,"25":-0.053809411415386456,"26":-0.012289305710621335,"27":0.05616181167423269,"28":0.1505089898743137,"29":-0.03568311343361124,"30":0.11279759911046616,"31":-0.0036251363623103707,"32":-0.008792901200901664,"33":-0.16803441822345133,"34":0.2673880035124472,"35":-0.14572226308596428,"36":0.13830685772210843,"37":-0.036285852916786564,"38":0.06369809327822709,"39":-0.06560448897220861,"40":-0.2371258462239842,"41":0.07326048349781804,"42":0.17902675206177937,"43":-0.3354496717986295,"44":-0.2984690556550009,"45":-0.07759241679225626,"46":-0.25281138277191045,"47":-0.10219771120155446,"48":-0.0974028802300895,"49":0.1305211776169967,"50":0.32744928480822205,"51":0.1702558839335619,"52":-0.09877162702373213,"53":0.19262441024429938,"54":-0.13627485229547892,"55":0.002382763183357764,"56":0.1808098969767972,"57":0.1520917826026472,"58":-0.08606089436843771,"59":0.22843364698081128,"60":0.011277050818574502,"61":-0.04015729536868612,"62":-0.08372295136006692,"63":-0.15208570927177545,"64":0.049390002234717574,"65":-0.09791811806345317,"66":-0.11110311895149748,"67":0.03419006108212066,"68":0.01586512881269252,"69":-0.08966037210558732,"70":-0.045565282293693866,"71":-0.04292245396598277,"72":-0.09755126223842182,"73":0.03589348720339675,"74":-0.07638133441765237,"75":-0.07543206412239974,"76":-0.03863597021585377,"77":0.11926267925415171,"78":0.0302946762679495,"79":-0.20797132920184785,"80":-0.28034564440062093,"81":0.062373511880433656,"82":0.11684922461825184,"83":-0.32111761023493,"84":-0.202486473968674,"85":0.05120634855970847,"86":-0.13858078348428504,"87":-0.01811478187800539,"88":-0.043391477072891683,"89":0.20584299410427928,"90":0.12106235782741474,"91":0.07261389918707045,"92":0.06622403008486871,"93":0.10490484340394503,"94":-0.08334163547281696,"95":-0.10634613446238966,"96":0.14604035598853568,"97":-0.12870457239883418,"98":-0.31263851190903297,"99":0.07386782098591813,"100":0.13455120934941345,"101":0.07379041578904687,"102":-0.14189227322715545,"103":-0.04391140264265382,"104":-0.0758691936944803,"105":-0.280861609041224,"106":0.19277479849770618,"107":-0.054737986467853626,"108":-0.05183469018993031,"109":-0.0682173227333557,"110":-0.004302249120493453,"111":-0.05869446437883304,"112":-0.31092060211077316,"113":-0.162095749771051,"114":-0.03606735056166616,"115":-0.2158324993689156,"116":-0.14419831039007353,"117":0.19473733067501364,"118":0.2512323093149398,"119":-0.22114626874115606,"120":-0.10984263313909405,"121":-0.014467535055199883,"122":0.05176368732867741,"123":-0.08326043385132126,"124":-0.13541135426769385,"125":0.08690362542414376,"126":-0.12517155723771767,"127":-0.41599490700093733,"128":-0.10239196346971101,"129":0.14266053899158873,"130":-0.04874834096790298,"131":0.08939364130820718,"132":0.010346482334151277,"133":-0.0331577861922866,"134":-0.10494443275893817,"135":-0.15272289666250088,"136":0.0895844880890818,"137":-0.20045751513694082,"138":-0.12448248554875206,"139":0.1846053104830321,"140":0.1372083132629103,"141":-0.05324007861091742,"142":-0.17351963260015438,"143":-0.0359271476908039,"144":-0.11379387348702782,"145":-0.16947026223363928,"146":0.2209939402022398,"147":-0.10593909308961874,"148":-0.24135053879271323,"149":0.024067755405760234,"150":-0.028778836052009173,"151":-0.12626941536831085,"152":-0.26515423147823736,"153":-0.21548730063515945,"154":-0.2577297991684247,"155":-0.27807308685625753,"156":-0.3211530274746694,"157":0.23615823530882785,"158":-0.01960502537288791,"159":-0.3916257339081665,"160":0.1847938285232103,"161":0.007809047555271506,"162":0.026716770901157472,"163":-0.148455410910678,"164":-0.12599724701073178,"165":0.2906264859673572,"166":-0.3397018667559833,"167":-0.39807710820009734,"168":0.14033291934549796,"169":0.01531390285833446,"170":0.0748535220488489,"171":0.14792940055804218,"172":0.17162536452850624,"173":0.3088103771374519,"174":-0.08145367214343806,"175":0.02992130973452222,"176":0.06362401916775398,"177":-0.30782124248192366,"178":0.23363830277104966,"179":0.05574443730004863,"180":-0.14778057717972343,"181":-0.04876736125123474,"182":-0.10074478464019929,"183":-0.015311117017446632,"184":-0.13470681920405977,"185":-0.1467798608741868,"186":0.1561266677081703,"187":-0.3725879930232098,"188":-0.23501933750077586,"189":0.16436364889672944,"190":-0.0029044982710413523,"191":-0.045585580045688336,"192":-0.12576878597296653,"193":-0.18493692555980973,"194":-0.08887143895077093,"195":-0.04536749304055061,"196":-0.24329757509671462,"197":-0.018231203682902385,"198":-0.08459821875076838,"199":0.06848800754860851}},{"sx":5,"sy":5,"depth":8,"w":{"0":0.052169282128414686,"1":0.1829276973677015,"2":-0.0691450944521562,"3":0.12045953245466524,"4":-0.0150438569373837,"5":-0.01647767723663296,"6":-0.11517209893011486,"7":0.10224464309649568,"8":0.039067595506009384,"9":0.07743910926948962,"10":-0.3947450136271506,"11":-0.11250354107923088,"12":-0.13815273664275168,"13":0.08378113985736817,"14":0.004719531645714331,"15":0.16527253631883457,"16":0.165921688249305,"17":-0.011163182516049416,"18":-0.3517467712718022,"19":-0.07204144099909576,"20":-0.17612369296456146,"21":-0.08212738727687623,"22":0.02568312311111,"23":0.12928692141237622,"24":-0.3008177963458281,"25":0.0013309751264653452,"26":0.14343128303484165,"27":-0.07602068481779063,"28":-0.05927993273314491,"29":0.19127345852808336,"30":-0.09935136486485881,"31":-0.031352790838683066,"32":-0.011188992048010871,"33":-0.031951686784582475,"34":0.10721396412288055,"35":-0.04724939706823008,"36":-0.21943498977396236,"37":-0.02389308646183882,"38":-0.17510485452948105,"39":0.2594070809008231,"40":0.07632167383984702,"41":0.0588770772008949,"42":-0.3210872905106324,"43":-0.0115062665148905,"44":0.2081335397496834,"45":0.013018465506281354,"46":0.11553877750976507,"47":0.016610454951975794,"48":-0.10935286467410099,"49":0.1511614283117367,"50":-0.43853417914679227,"51":-0.014885341054782295,"52":0.21868179345518102,"53":0.02246319060841368,"54":0.13971821784081628,"55":0.10365146268609317,"56":0.16242250723936427,"57":0.17032392089679202,"58":-0.15041146074154463,"59":0.05892373107908508,"60":-0.011578698895286071,"61":-0.09568369214289255,"62":-0.0619675890536452,"63":0.21278286662612222,"64":0.006747436387150978,"65":0.008398997659001808,"66":-0.030001407463681733,"67":0.10949587399972283,"68":0.019745804973992406,"69":0.10492070374475533,"70":0.11968834724310161,"71":0.07183324110568741,"72":0.04642443585652221,"73":0.06756613580450771,"74":0.11212575845679427,"75":0.027508940612387865,"76":0.07188449802275819,"77":-0.14079432167199193,"78":-0.013838473112262441,"79":0.022810433189482605,"80":0.027691426067716317,"81":-0.25794303908644883,"82":0.24613156564046432,"83":-0.1524962564914922,"84":-0.13443119635371228,"85":0.06378107349188232,"86":0.0124838567964645,"87":-0.06799019949603266,"88":-0.026385885735205138,"89":0.01800851525157223,"90":-0.07792668833229141,"91":-0.05600444426390232,"92":0.018504297922972736,"93":0.09467452758824112,"94":0.15833158304440764,"95":-0.18952868320104674,"96":-0.1300182277978503,"97":0.008293803572098354,"98":-0.20047377989275317,"99":0.1090262449351186,"100":0.016450794279848725,"101":-0.013793693828791967,"102":0.17810685759845013,"103":-0.12349715487736364,"104":0.08044809445126187,"105":-0.05023475300653193,"106":0.0034208977373534986,"107":0.025357948280540325,"108":0.10718645807763885,"109":-0.10337683814288574,"110":-0.06591767484505694,"111":-0.2728535954725476,"112":0.16191981916523546,"113":0.12793931652545162,"114":-0.3020852748893516,"115":0.0030067823161469536,"116":0.06569454820512333,"117":0.1615553514718365,"118":-0.2580034933488906,"119":0.017679246167569166,"120":-0.0021797921214671114,"121":-0.12999212389717577,"122":-0.05356358496536503,"123":-0.0009308931325298517,"124":-0.19469452219103642,"125":-0.10118747903463864,"126":-0.2217616808522951,"127":-0.11633219983344391,"128":-0.19190700402615482,"129":-0.16294874225488193,"130":0.08764645348338222,"131":-0.12538900959929206,"132":-0.252313692006202,"133":-0.0654125863833982,"134":0.020455323492819026,"135":-0.022097593570143733,"136":-0.007591477329219661,"137":-0.09663970211279824,"138":-0.06500683797204512,"139":-0.09890111958330004,"140":0.015110511969463624,"141":0.10114740673542445,"142":0.0698087487017121,"143":-0.09601420881348752,"144":0.12649017455857736,"145":-0.0726058470807441,"146":0.09753145562545656,"147":-0.1529586325974213,"148":0.025385524564788105,"149":0.22224298900587697,"150":-0.03624353331438367,"151":-0.020311537640696105,"152":-0.0814854245822149,"153":0.0456943672789113,"154":-0.009750818222788851,"155":-0.05715079603826697,"156":-0.0690181686449825,"157":0.09570247993638888,"158":-0.17730333079691477,"159":-0.20452558883011723,"160":0.012930854719237814,"161":-0.15749710639700584,"162":0.39034483603454095,"163":-0.28293426451492004,"164":0.06174466585547876,"165":0.11963595914020105,"166":-0.20186895108755393,"167":0.15551212456415336,"168":-0.13114252297981344,"169":-0.22213532524611482,"170":0.33995890051807226,"171":-0.24781917306633433,"172":-0.1251451303146068,"173":0.22893702907974922,"174":-0.031009146520557907,"175":0.1177304795928932,"176":-0.030752338732126884,"177":-0.2590480586215616,"178":0.33139927382798035,"179":-0.08621393243841581,"180":-0.027973319207836037,"181":0.11722536867631408,"182":-0.051678001806277456,"183":-0.0002212463229179245,"184":-0.028116869217116962,"185":-0.09725161951192181,"186":0.15020099245320365,"187":0.09994717270371632,"188":-0.09997695503893375,"189":-0.02586781967634394,"190":-0.13524912571619088,"191":-0.020566722527165873,"192":0.09018816233339795,"193":-0.051273022391856014,"194":-0.3416595598491009,"195":0.011824107955341043,"196":-0.08951567707734924,"197":-0.04430236216477093,"198":-0.02919140505460823,"199":0.014537906446546916}},{"sx":5,"sy":5,"depth":8,"w":{"0":-0.11460635949131673,"1":-0.07712333313378897,"2":0.18138618350170585,"3":-0.16980791617280266,"4":-0.02530526103238821,"5":0.20342462049152918,"6":0.14916678795261779,"7":0.15013454364312187,"8":-0.2577348877210594,"9":0.12354623664453708,"10":-0.11184330052962083,"11":-0.20353926618699997,"12":0.08269404339290495,"13":0.01920167379618491,"14":-0.06866091293846152,"15":0.034893874706236935,"16":0.08863637684950397,"17":0.10889263359485546,"18":-0.020762109259126974,"19":0.03678790390172101,"20":-0.18597347947044818,"21":0.1438268080436964,"22":-0.04052874744011104,"23":-0.04363313657791619,"24":0.09514813241053739,"25":0.029780114468067873,"26":-0.18149888477151105,"27":0.16021160019227554,"28":-0.01342728141859217,"29":0.14819321936786484,"30":-0.1701600376035832,"31":-0.03937235642425422,"32":0.14934358924745497,"33":-0.08437375051020159,"34":0.10231969428829889,"35":0.09530672012207857,"36":-0.061483703451493024,"37":-0.0401214785217539,"38":0.08370533371693485,"39":0.050678861996261405,"40":0.004809553432912511,"41":-0.037696056915900285,"42":0.003221076598827636,"43":0.046680799480160844,"44":-0.1117309607270126,"45":-0.054078914333629796,"46":-0.06003135545133449,"47":0.16845161484538337,"48":-0.16341724537846128,"49":0.15407795409473934,"50":0.14871950693462244,"51":-0.1060162476028109,"52":-0.004916663843908706,"53":-0.008485764195659619,"54":-0.030307562388747964,"55":-0.1422563342084624,"56":-0.15042540530542875,"57":0.21349882157855768,"58":0.15631083661067696,"59":0.2092323509675992,"60":-0.0765905004484939,"61":-0.024550099803431553,"62":-0.21122876897939766,"63":-0.06855213797973975,"64":0.03242626445948345,"65":0.06054848166950734,"66":0.020146177457660085,"67":0.18471761597772623,"68":0.17753174025581672,"69":0.06795042413090913,"70":-0.13089790558867836,"71":0.15763890515275034,"72":0.11455864328483553,"73":0.10878456533277547,"74":0.13830214107229377,"75":-0.06132610975062175,"76":0.05310812275020276,"77":0.11040219991496211,"78":0.025976965288746275,"79":0.2466790702874309,"80":-0.09341613243564827,"81":0.023915479543086704,"82":-0.17446010132633064,"83":0.06478176531903866,"84":0.16078466322098622,"85":0.04360644009642656,"86":-0.050786168662094455,"87":-0.04742561335197589,"88":-0.16031123372564654,"89":0.24479547894703094,"90":-0.27296150732551294,"91":-0.01294985614067409,"92":-0.0006637973751305521,"93":-0.07003012198443755,"94":-0.2816402064658893,"95":-0.3822524460812448,"96":0.0048620995514829695,"97":0.18424484432206836,"98":0.18020688922417644,"99":0.24163424861191798,"100":-0.06574038341405188,"101":-0.020242003984637685,"102":-0.364913701706436,"103":-0.09703849214224451,"104":0.18806903919071033,"105":-0.059997496604190195,"106":0.06164731547004232,"107":0.33852248836045595,"108":0.054258619005997336,"109":-0.23429353399435404,"110":-0.265859236962514,"111":-0.24974080981107621,"112":-0.14650811914389172,"113":0.18070381271593863,"114":0.17897184717296186,"115":-0.15208247251591892,"116":0.037612308418049606,"117":-0.2596203543788141,"118":0.08667564850859867,"119":0.23909171806291363,"120":-0.2061933037522399,"121":0.03384967183338486,"122":-0.21405636428523536,"123":-0.2989736520680899,"124":-0.15802857658982472,"125":-0.02263970082463893,"126":-0.08641546299261184,"127":-0.3298411686610883,"128":0.04928482862602458,"129":0.05775761597265435,"130":-0.41004401069707686,"131":-0.14717880807285758,"132":-0.21556800606149895,"133":-0.0800871717701044,"134":-0.31515177798355304,"135":-0.3050270305203488,"136":-0.015428179122939508,"137":0.14070221430427907,"138":-0.21627280548025593,"139":0.0633148180715082,"140":-0.05054151640476637,"141":0.01991033206847547,"142":-0.20675009633656707,"143":0.2050284037234804,"144":0.26860953579649294,"145":-0.1536366841055202,"146":-0.06549560480680178,"147":0.24870198467686422,"148":-0.20050538069840704,"149":0.04070167912144452,"150":-0.08469571495179218,"151":0.07468357358489941,"152":-0.06667840126161642,"153":0.12685013044409887,"154":-0.0993360262053984,"155":-0.24312083513040209,"156":-0.32223840017981736,"157":-0.09879037621948927,"158":-0.11122144397804044,"159":-0.1624162497921785,"160":-0.3899813106546579,"161":-0.0014629903895605736,"162":-0.18085518196439407,"163":-0.3424938908227508,"164":-0.05483563670518291,"165":0.06099014330747518,"166":-0.06783103657310306,"167":-0.30939473397338724,"168":-0.023464912945997424,"169":0.2056509919238683,"170":-0.16198412796963335,"171":-0.028743133029618742,"172":0.0704014526626333,"173":0.12056956167573733,"174":0.06861850191596326,"175":-0.01890372229095976,"176":0.22591908512021447,"177":0.1684523666152582,"178":-0.40341327189917225,"179":0.16534447002150224,"180":0.01712316070698588,"181":0.19552305035114947,"182":0.04799504660444687,"183":0.35538427761217534,"184":0.10511519408909807,"185":0.03860345165095138,"186":-0.29796358043734905,"187":0.27875774024419464,"188":0.013488412550272999,"189":0.09153053043233841,"190":0.038875725296920155,"191":0.3161235850686522,"192":0.24985598324540334,"193":0.0506163176960932,"194":-0.1299470894302414,"195":0.1253965124029721,"196":0.18744392770338894,"197":0.09707888508560203,"198":0.1293847450398914,"199":-0.1011649911898587}},{"sx":5,"sy":5,"depth":8,"w":{"0":0.10221124679762149,"1":-0.1541164523749019,"2":-0.2106265562440169,"3":0.051900408659892726,"4":-0.002171749198614003,"5":-0.063638703346637,"6":0.012452957244059688,"7":-0.08592251304439148,"8":-0.038660725781048344,"9":0.013487054065861558,"10":-0.06852602475121573,"11":-0.22988171486197762,"12":-0.11947323885029465,"13":-0.19936764578193697,"14":-0.25248224937369,"15":0.07558688787439855,"16":-0.2839401451018425,"17":-0.07538989989003053,"18":0.12489231093574388,"19":-0.15801773632667035,"20":-0.1531130526612131,"21":-0.1503078091302836,"22":0.13244957005333297,"23":0.014172794993101801,"24":-0.3370415357843407,"25":0.2837518507134313,"26":0.18867969815298505,"27":0.14529416301114068,"28":-0.18256307172794387,"29":-0.040593529252368483,"30":-0.11113052982018613,"31":-0.140786494991118,"32":0.28933034290875914,"33":0.11734570301686403,"34":0.06262389767581522,"35":0.24922067101229667,"36":0.04343972076647286,"37":-0.026748322661050622,"38":-0.05973616427738607,"39":0.26947798855806876,"40":0.09750886377685983,"41":-0.033283701961674385,"42":-0.0310902608534153,"43":-0.1610071394310965,"44":-0.11686128313768819,"45":0.0946289590763339,"46":-0.19127408023766404,"47":-0.0035044378253536687,"48":-0.0872439200398074,"49":-0.05296497475421585,"50":-0.07670084142260387,"51":-0.11757676133097189,"52":-0.21378077917161342,"53":-0.06747296117610065,"54":-0.08221362495185529,"55":-0.018093465382545346,"56":-0.30374520680135275,"57":0.05367072750630131,"58":-0.008308476846635549,"59":-0.049931122118564424,"60":-0.14478023245954535,"61":-0.09110134944562435,"62":-0.1701784615807248,"63":-0.3413044289765289,"64":-0.07089808233475893,"65":-0.056496375865196735,"66":0.09853394842120218,"67":0.004213377432752108,"68":0.26176937050523685,"69":-0.05885276973591889,"70":0.03426948370882932,"71":-0.3471325610262101,"72":0.20353546952490584,"73":-0.07204610981044964,"74":0.01563204595047564,"75":0.10084878462358356,"76":0.22151002933752745,"77":0.21758731052271338,"78":0.0952222416976355,"79":-0.15529790455068843,"80":-0.006385053459832347,"81":0.19722564642298215,"82":0.010781982871163031,"83":-0.10452419702197618,"84":-0.05081097043861076,"85":-0.036662748222716354,"86":-0.17138047612511503,"87":0.18438323828349276,"88":0.0014375578265011255,"89":-0.015376920984439808,"90":-0.0017488593495643048,"91":0.12888801930917568,"92":-0.012046463939593665,"93":-0.09373293628967617,"94":-0.11227325503720767,"95":-0.05398658490534258,"96":0.26031444492456746,"97":0.05853772903898212,"98":-0.15573911701018212,"99":0.062161821667934394,"100":0.2959798169311492,"101":-0.0949116744592856,"102":0.13617882856731242,"103":-0.1438438276427394,"104":0.02848012617903998,"105":0.00539674365278675,"106":-0.16097607760754978,"107":-0.014621762550419196,"108":0.11752467920565099,"109":-0.07993561781771828,"110":-0.07354181758227431,"111":-0.11797216053413084,"112":-0.10933593988675033,"113":-0.23733923765788734,"114":0.10430504861828155,"115":-0.019357357338282487,"116":0.1610472592318013,"117":-0.08004935307511278,"118":-0.20024579147271854,"119":-0.062166004515996826,"120":0.02560535737736306,"121":0.0009363459382903547,"122":-0.31036073001601794,"123":0.012107834298568985,"124":0.18920647979443256,"125":0.04695556404437941,"126":0.1486239979512475,"127":-0.20882718008033674,"128":0.15443353497216342,"129":0.007205078778583711,"130":-0.18294331109418663,"131":0.22661471316560755,"132":0.2598448737511387,"133":0.0727677043950618,"134":0.19486794572301053,"135":0.06477145471496445,"136":-0.033480369684121866,"137":-0.02468781007048758,"138":0.054948247015147715,"139":-0.1868757303413099,"140":0.09534703376622394,"141":-0.0625817112455651,"142":0.3263630544650705,"143":0.012775575234147372,"144":-0.2279108811201814,"145":-0.12947016914539322,"146":0.24848199964349604,"147":-0.044954137168482615,"148":0.0188464339844641,"149":0.08768763651482334,"150":-0.027340538649871328,"151":-0.09582223143826055,"152":-0.1777457230349172,"153":-0.21266819127652903,"154":0.28183699146314467,"155":-0.08976406348779539,"156":-0.3191636013176544,"157":-0.3562201218736436,"158":-0.25153409386695874,"159":-0.03702379369635953,"160":0.0037683118241495454,"161":-0.2273672483286198,"162":0.18906339471075487,"163":0.13250841379219044,"164":-0.011885480308304193,"165":-0.0656506475741047,"166":-0.028241404780768902,"167":-0.05979507620995182,"168":0.058629375950372736,"169":-0.1768876701007813,"170":0.09929665900197557,"171":0.06688056477769128,"172":-0.0760217764201261,"173":-0.029401326445476376,"174":0.11037410192646266,"175":-0.15609614724589924,"176":-0.07894666889523554,"177":-0.2791268939509331,"178":0.03868313947783181,"179":0.029248865750472065,"180":-0.10360009176705835,"181":-0.1341478805632855,"182":-0.0333896803199735,"183":-0.1983085200309406,"184":-0.1922270861284631,"185":-0.17828324083988856,"186":0.0042867333527724025,"187":-0.12004798334273985,"188":-0.222464576663991,"189":-0.018470160010533396,"190":-0.1682533777334193,"191":-0.3244902608027856,"192":-0.07102314981440862,"193":0.03542700347177612,"194":0.12644405396540437,"195":-0.15373212602395858,"196":-0.33707690547076585,"197":-0.3866274720615235,"198":-0.35667560185919284,"199":-0.03129473921856911}}],"biases":{"sx":1,"sy":1,"depth":16,"w":{"0":0.000011644061748253323,"1":0.032178527968055745,"2":-0.029555524646867854,"3":-0.023461979518601666,"4":-0.052816107546670536,"5":-0.10171483264538349,"6":-0.11672284353056278,"7":-0.003127591528760996,"8":0.05970005931744652,"9":-0.0060794127195787405,"10":-0.01787957018171627,"11":-0.03723400667744829,"12":0.05043884018665551,"13":0.028889169761439275,"14":0.059186348069532074,"15":-0.013716779087802116}}},{"out_depth":16,"out_sx":14,"out_sy":14,"layer_type":"relu"},{"sx":3,"sy":3,"stride":3,"in_depth":16,"out_depth":16,"out_sx":4,"out_sy":4,"layer_type":"pool","pad":0},{"out_depth":28,"out_sx":1,"out_sy":1,"layer_type":"fc","num_inputs":256,"l1_decay_mul":0,"l2_decay_mul":1,"filters":[{"sx":1,"sy":1,"depth":256,"w":{"0":0.012952923434479839,"1":-0.024508018841258673,"2":0.033716745575729845,"3":0.06147076584514785,"4":0.003540102736070379,"5":0.020698314525425913,"6":-0.015220281585216636,"7":-0.017456231330765792,"8":-0.0082575629833379,"9":0.015638034698437844,"10":-0.004107329313911655,"11":-0.013506931692727167,"12":-0.0461305030102907,"13":-0.009616142306861076,"14":-0.039154713719895345,"15":-0.10447395667038753,"16":0.024945860454786736,"17":-0.053656183525501264,"18":-0.053781698765273875,"19":-0.04026164320891613,"20":0.028392373685387287,"21":-0.005856251382498015,"22":-0.091142881846334,"23":0.05596260057962488,"24":-0.06204452532939824,"25":-0.17347467144716125,"26":-0.0012477849099018022,"27":-0.12342846835499918,"28":0.01984375132022054,"29":-0.1258299658340791,"30":-0.07996282904013657,"31":-0.0481035279921758,"32":-0.05248626923061273,"33":0.06285345578404924,"34":-0.03857456313489254,"35":0.0007736178687472398,"36":0.00731534945727831,"37":0.0032161717666588686,"38":-0.06920617721548891,"39":0.03546819796443001,"40":-0.09766863711954303,"41":-0.02858533714332882,"42":-0.09605846876165092,"43":-0.12176561584059827,"44":-0.0072229913606793325,"45":-0.060585044205685945,"46":-0.007578799004702786,"47":0.01732017295619251,"48":0.05001070625494185,"49":-0.0019360966767360183,"50":0.01975538031492371,"51":-0.0257331565141415,"52":-0.01564729038976045,"53":-0.015400074823200329,"54":0.06989237723030634,"55":0.10003801600640397,"56":0.054521199487621776,"57":-0.08879429397355097,"58":0.03965656805109743,"59":0.006964676735270596,"60":0.04629462497597424,"61":0.08048617871396105,"62":-0.04327744614177868,"63":0.049435699350437685,"64":0.047080029824900935,"65":-0.052069149727656576,"66":-0.015182186282093627,"67":-0.07283748407149136,"68":-0.07912901179613813,"69":-0.025510514431903764,"70":-0.03127861491220605,"71":-0.11112754526443562,"72":0.0158868790398931,"73":-0.04198524968809646,"74":-0.05833786338129348,"75":0.04471510624734671,"76":-0.021493148444820222,"77":-0.03340884928381669,"78":-0.07149249566276482,"79":-0.1724154412933765,"80":-0.09564094531987702,"81":-0.026495931225935538,"82":-0.023606639146426658,"83":-0.07499825275122747,"84":-0.13665194605337158,"85":-0.004587474829160404,"86":0.01911778674786609,"87":0.10910611195045976,"88":-0.02478103907171928,"89":0.002007100729657764,"90":-0.1555609800399108,"91":-0.08259526975529356,"92":-0.1121375768445897,"93":0.023525668522569456,"94":-0.15677974178905954,"95":-0.028344970140461116,"96":0.18686870730705607,"97":0.01871960661224255,"98":0.005686958439421105,"99":0.023582982091147675,"100":0.017299050703687927,"101":0.007244057747059242,"102":0.0234197280643893,"103":0.03494626319165544,"104":-0.0734351781726113,"105":-0.0277622637835429,"106":-0.11007817107820352,"107":0.11672316352172303,"108":0.1432302229393252,"109":-0.0468934615480577,"110":-0.012326668588994644,"111":0.052578367397040235,"112":0.006871282552126997,"113":0.0979846982885847,"114":-0.04024470735431345,"115":0.014310290760719234,"116":0.07719756624299526,"117":0.15201292527831994,"118":-0.12500052979116447,"119":0.04450974266930716,"120":-0.18579481856517713,"121":-0.03661355841796138,"122":0.09626467020392405,"123":-0.03478396295594421,"124":0.20123292284088434,"125":-0.007032043681778339,"126":0.05673427291138997,"127":0.05194324624654933,"128":-0.037766821592836626,"129":0.024711555965696935,"130":-0.06336883830964818,"131":0.01975741810155759,"132":-0.03915365366691809,"133":0.043095925787436644,"134":-0.03034284089204113,"135":0.04465960927204615,"136":0.01572860675493953,"137":0.05441365930241069,"138":-0.007089133585092146,"139":-0.024883259566584194,"140":0.030170880505440034,"141":0.015794716911036944,"142":-0.014555064028671181,"143":-0.13575234092224142,"144":0.04530021356641092,"145":-0.001576066572021204,"146":-0.12706393609514066,"147":-0.024314297302786538,"148":0.017952848869640648,"149":0.004964239104545688,"150":-0.07515782235471581,"151":0.048170294837531234,"152":-0.045459179293211235,"153":-0.055453260385809916,"154":-0.013023023245076416,"155":-0.010773273189205365,"156":0.010731123671193289,"157":0.04443540725237365,"158":-0.022991876503347625,"159":-0.03255563639739056,"160":0.12492971445881616,"161":-0.020237941766039803,"162":-0.12669311277661172,"163":-0.04170982796570694,"164":0.05699780030246036,"165":-0.1330177902878231,"166":-0.11615202361481085,"167":0.05088271173826172,"168":0.04402946634272789,"169":-0.08733376536401292,"170":-0.07354999492497126,"171":0.12499556015619953,"172":0.22044820222036957,"173":-0.10526774555095199,"174":0.11810892828350768,"175":0.09216482128753721,"176":-0.006228301023277842,"177":0.025837502792512384,"178":-0.051525510032029306,"179":-0.01851880768834943,"180":-0.12255552802412123,"181":0.05833553316969192,"182":0.038875646428855895,"183":0.09808821678843886,"184":-0.08101739384370842,"185":-0.018945912342484907,"186":-0.18998987192451755,"187":-0.11670440406085564,"188":0.00997303698674096,"189":0.005391748777142874,"190":0.03228022518970428,"191":-0.32442518239405405,"192":0.009616094279554573,"193":-0.09077306441670575,"194":0.00040677100535898897,"195":0.02050500815156311,"196":0.0049892670574182745,"197":-0.014822999604876635,"198":0.039073986306414565,"199":0.05561100043286359,"200":-0.02604789361073834,"201":-0.04057998482753728,"202":-0.002994423062754404,"203":-0.002252076128967235,"204":-0.044283002800393885,"205":-0.08301944706442733,"206":0.04359186668933476,"207":-0.01991651955151361,"208":0.022623791365752145,"209":0.02651197366544432,"210":-0.02022202291337864,"211":0.0016541590062550547,"212":0.012451867876175709,"213":0.0006990902020137529,"214":0.01592039951708222,"215":-0.1252209356036991,"216":0.10200991396540661,"217":-0.002244087408648259,"218":-0.050772587518456126,"219":0.03540480232183464,"220":0.07166093292453718,"221":0.011851348577651792,"222":0.027902453682918802,"223":0.08956773192887922,"224":-0.02051314136792827,"225":-0.11019718014660156,"226":-0.010808012959498289,"227":-0.06492924482599177,"228":0.10888675314093318,"229":-0.022600869917310928,"230":-0.04419120373466253,"231":0.04602740844668482,"232":0.0932662135287593,"233":0.01947488368923729,"234":-0.12528538838461753,"235":0.10748625498885822,"236":0.019956569533603093,"237":-0.0671196198124289,"238":0.12986479789019847,"239":-0.07946294489939816,"240":-0.0006123255833942726,"241":-0.01321816664664498,"242":-0.04201388033489932,"243":-0.09202006557350895,"244":-0.0067578239192695976,"245":-0.016618706946966544,"246":-0.029875785562119703,"247":-0.04264678330411299,"248":-0.03530327673343798,"249":-0.06013706828031696,"250":0.0021793615156035155,"251":0.026118421883003694,"252":0.03247319796272915,"253":-0.06015458727437484,"254":0.013984277232600303,"255":-0.08252571334473875}},{"sx":1,"sy":1,"depth":256,"w":{"0":-0.01812015606254154,"1":-0.020533766100047895,"2":0.12401318127550275,"3":-0.04859833168718032,"4":0.14293623564572408,"5":0.06421703356284794,"6":0.06520770318476656,"7":-0.005766398429845081,"8":-0.0027544669485590387,"9":0.04803368923893832,"10":-0.016569598632688223,"11":-0.03032388370637343,"12":-0.10938309335071408,"13":0.002164588583348282,"14":0.08668443488590721,"15":-0.14477839073052146,"16":0.09391927518712885,"17":0.05049201976963796,"18":0.02212998260683466,"19":0.035103294175477986,"20":0.16226411129178478,"21":0.01703533629433737,"22":-0.12687414806568345,"23":-0.08947183982640418,"24":0.05850556415310306,"25":-0.07929037479105581,"26":0.09904144752450725,"27":0.09253438571730264,"28":-0.03171622071500901,"29":-0.04697015413614225,"30":0.1768468498549185,"31":-0.056428066597443816,"32":-0.1020442711258441,"33":-0.00988928062621629,"34":0.07438575301240581,"35":0.11559032791965791,"36":-0.12207977936895133,"37":0.17837174689248028,"38":0.06499747058851649,"39":0.33380090040717947,"40":-0.10466756050888366,"41":0.07089168961418399,"42":-0.18053433000352803,"43":0.20372026731939175,"44":-0.007001642794538012,"45":0.07731925098160473,"46":0.07591962693628511,"47":0.10376650851010118,"48":0.1312544547745024,"49":0.09469013949009489,"50":0.10127320775213888,"51":-0.005630309465629577,"52":-0.09877124615097677,"53":0.07028913977834178,"54":0.04148965193726456,"55":0.0845404100377605,"56":-0.11711940747918986,"57":0.021128765590031,"58":-0.10102269886493348,"59":0.11809755182616213,"60":0.005174500877884173,"61":0.13758775361892803,"62":0.11347465099564089,"63":0.007951403760222695,"64":0.05854129495695363,"65":-0.02361722899423199,"66":0.0010009891984498979,"67":-0.14184668748934523,"68":-0.07668940148783487,"69":0.106660698578329,"70":0.14105416357760003,"71":-0.0668103782476754,"72":-0.05378913277354843,"73":-0.2006995494895495,"74":0.005147549602770238,"75":-0.01693027445953094,"76":0.010179828302258307,"77":0.08473230063702451,"78":-0.08170739161451065,"79":0.24890498238121003,"80":0.056484694422151885,"81":-0.07184411701428926,"82":-0.180819413403217,"83":0.11953499151955388,"84":-0.24706360633517382,"85":-0.022697027035749016,"86":-0.024382924694147906,"87":0.003447585486015896,"88":-0.07581577295098225,"89":-0.07968107158301271,"90":-0.08143104561975777,"91":0.11590048338473839,"92":-0.03143859997388359,"93":0.03214052258946486,"94":-0.07544899142720375,"95":-0.007053694562169004,"96":0.08619609185220097,"97":-0.1875213749104136,"98":-0.049766841738825646,"99":-0.12329428949902208,"100":-0.1800346770965055,"101":-0.1679946036683839,"102":-0.20197330507692177,"103":0.2796548381683366,"104":0.12554042195388598,