{"net":{"layers":[{"out_depth":1,"out_sx":28,"out_sy":28,"layer_type":"input"},{"sx":5,"sy":5,"stride":1,"in_depth":1,"out_depth":8,"out_sx":28,"out_sy":28,"layer_type":"conv","l1_decay_mul":0,"l2_decay_mul":1,"pad":2,"filters":[{"sx":5,"sy":5,"depth":1,"w":{"0":0.29096958618781554,"1":-0.2889138334176965,"2":-0.3086207709837758,"3":0.03608904748892526,"4":-0.258296552901434,"5":0.4826293352291979,"6":-0.04589247201999016,"7":-0.33438965213549343,"8":-0.4321642325826286,"9":-0.30287604143885916,"10":0.0802986554831838,"11":-0.07405271299492917,"12":0.24784297951216025,"13":-0.3724280267576332,"14":-0.15947518342377412,"15":-0.09349099752724326,"16":0.09377754444325936,"17":-0.04570560084382675,"18":-0.04184436360573945,"19":-0.012523129611367714,"20":-0.08532212410298341,"21":0.0412119561032607,"22":0.4824207769978049,"23":0.4953674850804522,"24":0.071224796963373}},{"sx":5,"sy":5,"depth":1,"w":{"0":-0.3710468236143134,"1":-0.41859057811312517,"2":0.2979142523192166,"3":0.1158957932358623,"4":-0.26271836947046084,"5":-0.07069723623001926,"6":0.14034485977155134,"7":0.2559330992256297,"8":0.16117010051177658,"9":-0.30662977096793353,"10":0.44097116933364233,"11":0.15600988833180704,"12":0.2734343561801735,"13":-0.010115019570437407,"14":-0.3157640888812563,"15":-0.01428278288869102,"16":0.1824971518888177,"17":0.32749547104810967,"18":0.33501427537817435,"19":-0.13697633154219283,"20":-0.10554990024282968,"21":-0.27927863614346304,"22":0.3079084212198582,"23":0.26418018741793,"24":-0.019277174905818734}},{"sx":5,"sy":5,"depth":1,"w":{"0":-0.06972243612939683,"1":0.047910355594844536,"2":0.1612921756956694,"3":0.2445908167912276,"4":0.008177850484705018,"5":-0.03502441053498357,"6":0.09145245110539094,"7":0.31895349490519864,"8":0.11885898874339881,"9":-0.1294464539650538,"10":-0.06311555130184139,"11":-0.13651872653087968,"12":0.20291781642754927,"13":0.07987848148197026,"14":0.16839399229606858,"15":-0.4776840638567598,"16":0.061038000455006326,"17":0.5297301061409325,"18":0.171497336606669,"19":-0.07130137691890483,"20":-0.41106002050847557,"21":-0.39833070819864996,"22":0.17454232173884768,"23":-0.0021945713586108044,"24":-0.02299162323205582}},{"sx":5,"sy":5,"depth":1,"w":{"0":-0.08969298469177456,"1":-0.07898943017051673,"2":0.2983259610644105,"3":-0.117437706715304,"4":-0.0812094734232515,"5":0.4955192122382132,"6":0.6209805564375206,"7":0.3587814321421883,"8":0.34541660129746854,"9":-0.06515934602206094,"10":0.3339564576715301,"11":-0.16700506354983374,"12":-0.1762401791408934,"13":-0.16476840788338842,"14":0.12023418371526265,"15":-0.4975651497197533,"16":-0.3403389647308829,"17":-0.4577086638181358,"18":0.13077174742807635,"19":0.3335543086156878,"20":0.01852208157641884,"21":-0.635614594921226,"22":0.06710388622639427,"23":0.17875758203587863,"24":-0.06296301585211256}},{"sx":5,"sy":5,"depth":1,"w":{"0":-0.010575724131457841,"1":-0.14953351716991792,"2":0.11971226146987854,"3":0.18152850644650062,"4":-0.07935830680806627,"5":-0.6282512255699839,"6":-0.41012697203373666,"7":0.051975173891659184,"8":0.2660542488343659,"9":-0.00822643776394692,"10":-0.5937114440127038,"11":-0.017370635101600116,"12":0.10525872536244442,"13":0.48157770944808836,"14":-0.04489620055362642,"15":-0.32668071286669875,"16":0.24769885977697315,"17":0.108531788565015,"18":0.3231977541201707,"19":0.23413243494464483,"20":0.45787786436770167,"21":-0.048824545612265235,"22":0.01727216059150537,"23":0.026049559753927882,"24":0.24362465210552545}},{"sx":5,"sy":5,"depth":1,"w":{"0":-0.3486977206354126,"1":0.2712139634933939,"2":0.3767640019979802,"3":0.343700336282669,"4":0.48827381491970523,"5":-0.06533105562707618,"6":-0.007873847630786406,"7":0.6245062026126479,"8":0.2397691750043405,"9":-0.007088682829316466,"10":-0.18921602478856553,"11":-0.2127975824991101,"12":0.20855384078764186,"13":0.11669334819830908,"14":-0.05075585927043493,"15":-0.4358158484151944,"16":0.026646810140392597,"17":-0.17538637664965848,"18":0.20845762378633964,"19":0.19441824144371486,"20":-0.2890672309371034,"21":-0.06374396200153953,"22":0.0625508521146891,"23":0.08401609194920598,"24":0.0059855302247194785}},{"sx":5,"sy":5,"depth":1,"w":{"0":0.24257231491903536,"1":0.4056428357862194,"2":-0.06439668460213337,"3":0.016132570779843154,"4":-0.0015933771427155564,"5":0.5052295643369046,"6":0.15332186626037206,"7":-0.41998147061194546,"8":-0.28705580745162607,"9":0.1704777754038219,"10":0.007100049819473921,"11":-0.27225276169867446,"12":-0.22794295350730287,"13":-0.2929959549000654,"14":0.11463362321360403,"15":-0.11646895870493734,"16":-0.5656462605188488,"17":-0.08395259095095582,"18":-0.29323016252628353,"19":-0.28700539475784664,"20":-0.17565830370364324,"21":0.06460461997696526,"22":-0.24955331426219593,"23":-0.43770184229202963,"24":-0.20906311644563266}},{"sx":5,"sy":5,"depth":1,"w":{"0":0.029101255849107634,"1":0.5162951297862962,"2":0.46593754852847113,"3":0.44834715912121464,"4":0.01919926341551019,"5":0.15380376027466913,"6":0.49839705159079745,"7":0.09577749473401614,"8":0.15763738530237031,"9":0.5864626337067906,"10":0.18940166138206763,"11":-0.4793919925669988,"12":0.15997416535251777,"13":0.07210230764318165,"14":0.19761028346378595,"15":-0.3161754992496607,"16":-0.2674690018580037,"17":-0.3501801835026581,"18":-0.22503830407540373,"19":-0.16846749852101262,"20":-0.23271612436243913,"21":-0.4394766528593125,"22":-0.6725163982482337,"23":-0.4206188068428686,"24":-0.6331173718051185}}],"biases":{"sx":1,"sy":1,"depth":8,"w":{"0":0.21356381290021317,"1":-0.0700525639819249,"2":0.003623916490273202,"3":-0.06959397756613364,"4":-0.011117419360162953,"5":-0.10218824442635242,"6":0.3089499793596718,"7":0.23818827563568956}}},{"out_depth":8,"out_sx":28,"out_sy":28,"layer_type":"relu"},{"sx":2,"sy":2,"stride":2,"in_depth":8,"out_depth":8,"out_sx":14,"out_sy":14,"layer_type":"pool","pad":0},{"sx":5,"sy":5,"stride":1,"in_depth":8,"out_depth":16,"out_sx":14,"out_sy":14,"layer_type":"conv","l1_decay_mul":0,"l2_decay_mul":1,"pad":2,"filters":[{"sx":5,"sy":5,"depth":8,"w":{"0":0.2170781364979424,"1":0.12034238786008784,"2":0.0495176291913958,"3":0.01266248631897018,"4":0.012044945347554433,"5":-0.02357030397780837,"6":-0.05407215754917974,"7":-0.1232885952431115,"8":-0.05392970276374263,"9":-0.045419153048304614,"10":-0.12385297838381273,"11":-0.06334339899242303,"12":-0.015215620746492735,"13":-0.13335122457162712,"14":-0.16954820284885305,"15":-0.20598649154885917,"16":-0.15822483432171985,"17":-0.09248430231758863,"18":-0.14153480382763925,"19":0.013456036521757265,"20":0.03427748954705028,"21":-0.09437403588558127,"22":-0.1422997567774679,"23":-0.02963089359556302,"24":0.04182838565720894,"25":-0.008761645152051474,"26":-0.05822007951769251,"27":-0.025432509831092652,"28":-0.01943560299384509,"29":0.059899350877750085,"30":-0.04218383387076208,"31":-0.08364590075441689,"32":0.15777258170010147,"33":0.03278461447193651,"34":-0.059814926046803996,"35":0.11118612424069944,"36":0.04455214842333506,"37":-0.025870364079006763,"38":-0.07095349567629372,"39":-0.2678407275239091,"40":-0.16444193527118253,"41":0.07866197483043162,"42":0.1990000213162725,"43":0.06606196017447442,"44":0.06991383080109312,"45":0.034317446937347174,"46":-0.2967309065680926,"47":-0.31210544089002973,"48":-0.05505359881158804,"49":0.052390586369455976,"50":-0.05748355614434353,"51":0.10799269888911248,"52":-0.030205984523389486,"53":-0.051023477467581665,"54":-0.05256171292950819,"55":-0.0655428204664308,"56":-0.049848007770511356,"57":-0.06693255999650745,"58":-0.14904664463080716,"59":0.04843175635641929,"60":-0.05253802364783654,"61":-0.022654961208223825,"62":-0.14172325580813816,"63":-0.17849235341918393,"64":-0.10067772553035641,"65":0.0919173626000083,"66":-0.03365874410192823,"67":0.02658426292658983,"68":0.14696502465776906,"69":-0.009673916389252296,"70":-0.1579488913118227,"71":-0.25797087727392237,"72":-0.13261867829919696,"73":0.08759506690846522,"74":0.09310872066815397,"75":0.0025823370340187354,"76":0.08061933646959644,"77":0.09135340082028201,"78":-0.1420650848039507,"79":-0.24245379097079903,"80":-0.13619492928983204,"81":0.1806286382461483,"82":0.08725676640262034,"83":0.08899028799416711,"84":0.08515264117061004,"85":-0.027667975078557838,"86":0.07426381713530462,"87":0.07751487469288895,"88":0.10435534470655261,"89":0.013804099112159166,"90":-0.05952660208960456,"91":0.036051462953374046,"92":-0.10521334244420297,"93":-0.048909336086936574,"94":0.08930040368539152,"95":0.07798343761822221,"96":-0.005439673647165797,"97":-0.06654373382045226,"98":-0.11576544251220293,"99":0.0074620164984239,"100":0.032816033286438694,"101":-0.10184198650138118,"102":0.034823973310562,"103":-0.07465722734799532,"104":-0.16590174916911163,"105":-0.055490744456002154,"106":-0.07028642629145658,"107":-0.0668200686062326,"108":0.06482861225484884,"109":0.18681756404617866,"110":0.03195198231681078,"111":0.025103530143991415,"112":-0.22193409936602143,"113":0.0640660910224885,"114":0.16698480179138192,"115":-0.06616565262862899,"116":-0.13391630192406265,"117":0.08422384875800883,"118":-0.08082702239630274,"119":-0.13299574302932765,"120":0.09176078832044009,"121":0.041591777315981904,"122":0.03386672879137502,"123":0.2171765248099963,"124":-0.04666703913939003,"125":-0.05058453857937733,"126":0.18655394026388147,"127":0.22104537413245773,"128":0.05505032554834099,"129":0.11009319505035936,"130":-0.00797605077121031,"131":0.05543905607524873,"132":0.056737593187424176,"133":0.035788985126943826,"134":0.041630638465226084,"135":-0.13461247933026618,"136":0.011209322869911683,"137":-0.11135369511981524,"138":-0.06883048286823255,"139":-0.07527413768670806,"140":-0.0665770990515385,"141":0.0424917414531029,"142":0.03669674730429845,"143":-0.10848524265092534,"144":-0.1750109012849102,"145":0.05416548393879747,"146":0.034037860304495356,"147":0.14995815928574324,"148":-0.1318422830370007,"149":-0.04842080676951165,"150":0.04446366924878525,"151":0.00016438902724174844,"152":0.0968042989937458,"153":0.1110426569701208,"154":0.05932133536410967,"155":0.028830843454159448,"156":0.1745829586921695,"157":0.12982754284967324,"158":-0.032311876594599255,"159":-0.16081463030808604,"160":-0.06909573634479678,"161":-0.08356971926180642,"162":-0.028839678371478345,"163":-0.037214132896724976,"164":-0.06903072641825199,"165":-0.03789636663762602,"166":0.08375334592833733,"167":-0.014500480507522112,"168":-0.10127423358981635,"169":-0.04564074651663198,"170":0.07927704036709558,"171":0.034314327057741414,"172":-0.011798192357132009,"173":0.057943945643562166,"174":0.1219694284731844,"175":-0.09720078655123424,"176":0.07397346169905462,"177":-0.16275444803918226,"178":0.035095620144218805,"179":-0.09976810617327798,"180":-0.1778352219739883,"181":-0.0007881566012585408,"182":0.04022400104714708,"183":0.12001563729561439,"184":-0.11966165139198089,"185":-0.10786578091699787,"186":-0.12750448198339268,"187":-0.04314280380236019,"188":-0.09515684859727948,"189":-0.03740259081667806,"190":0.05043267208444033,"191":0.08648818203211188,"192":-0.16932581665272411,"193":0.08863184772465348,"194":0.08926280793834235,"195":0.07787485117616581,"196":0.12245311009947638,"197":0.12425629011677249,"198":0.14717416069022876,"199":0.20825136532180005}},{"sx":5,"sy":5,"depth":8,"w":{"0":0.003693735307325109,"1":-0.017068505313494776,"2":0.01930380578807019,"3":-0.051499098531873976,"4":0.11971258634904922,"5":-0.05487230218939308,"6":-0.07209845781160587,"7":-0.04820837389290008,"8":-0.1177624303293285,"9":0.13923955295540535,"10":-0.04051087624354344,"11":0.03460002077043032,"12":-0.006571726356542463,"13":0.07504719072710893,"14":-0.04614033000199036,"15":-0.24212456612973832,"16":-0.22994058410018173,"17":0.03639245873061676,"18":0.12986920751469544,"19":0.08471876837764994,"20":0.10665706715821913,"21":0.0670090071655818,"22":-0.2399700683244914,"23":-0.16557952521974137,"24":0.15602926319855637,"25":0.15359922024602263,"26":0.10738553898120483,"27":0.05435399364154415,"28":-0.020897938870680744,"29":0.03339400040644987,"30":-0.0537132130314644,"31":-0.13787372850952567,"32":-0.0320752425292855,"33":0.01831581466948257,"34":0.07662692978857247,"35":0.1388207994316232,"36":-0.03215538991069166,"37":0.010211274663171212,"38":0.056506124528598524,"39":-0.028398767852988966,"40":-0.07855579824418608,"41":-0.08296620030591621,"42":0.055498648715958866,"43":-0.06012462182786427,"44":0.029779475525581783,"45":0.03090433580125489,"46":0.06058228219341045,"47":0.024548983768562047,"48":0.012931352007290037,"49":0.0798805390216063,"50":-0.0387992128891897,"51":0.1584813512403597,"52":-0.013782098097049746,"53":0.015364047405953462,"54":0.039355963102057426,"55":0.11390959039268507,"56":-0.2275639062360701,"57":0.06143363260269673,"58":0.10099065764510823,"59":0.0583145332216863,"60":0.05304318269527965,"61":0.09084288097518216,"62":0.0369085034581641,"63":-0.0459085315767981,"64":0.026058786202400264,"65":0.1661065393282352,"66":0.1160297641869199,"67":-0.08728927166213568,"68":-0.04803755423068382,"69":0.101909248950965,"70":-0.12125784109735685,"71":-0.2582231651604226,"72":0.09935012966637216,"73":-0.2225581855918289,"74":-0.07113922206533049,"75":0.06379648577529748,"76":-0.08821331880546301,"77":0.03675833044071051,"78":-0.06077772103067004,"79":-0.016477576518825764,"80":-0.14107446430541418,"81":0.023295372746851246,"82":0.11027763080472607,"83":0.04641742613621403,"84":-0.08297518001512211,"85":0.033773264855943015,"86":0.08794635408868433,"87":0.07114355253989574,"88":-0.2158768316489123,"89":-0.021173296390760467,"90":-0.15999876618468445,"91":-0.006567397946340912,"92":-0.14710568240311656,"93":-0.014684703815601809,"94":0.11473468888122709,"95":0.01271997438308212,"96":-0.13521791999954805,"97":-0.03122018946763697,"98":-0.04554014060250827,"99":0.056964666363787435,"100":0.11283797633455957,"101":0.04814464314246569,"102":0.057808484001472975,"103":0.09727727835438578,"104":-0.017209195297050096,"105":0.0755177437380937,"106":0.2838079900795401,"107":-0.04929253999193018,"108":0.1443843275646705,"109":0.14162972157440964,"110":-0.14389632204193695,"111":0.06604181906048738,"112":0.09958889717725372,"113":0.08577222192613634,"114":-0.0009979236124430329,"115":-0.0516891507351998,"116":-0.0630973030525037,"117":0.05973529171018887,"118":-0.3394029382645988,"119":-0.1996820869968386,"120":-0.0339701114732374,"121":-0.018744843389460083,"122":-0.0011643085727472337,"123":-0.1626571865664209,"124":-0.07153662014201052,"125":-0.009682022224080261,"126":-0.13327445478196923,"127":-0.09764074766675937,"128":0.10771974020489763,"129":-0.09619586555204021,"130":-0.14606362266723188,"131":-0.0790987232392411,"132":-0.08499290858240656,"133":-0.1393048892145103,"134":-0.009282487526239697,"135":0.06004847780061294,"136":0.04426680455730162,"137":-0.1320218494321019,"138":-0.029953932224635226,"139":0.010469894345481422,"140":-0.1331509013936465,"141":-0.015320684210099444,"142":-0.019703058030187293,"143":0.1634591615351328,"144":-0.22437009462895913,"145":-0.0342501641453916,"146":-0.09909832891801187,"147":-0.01199113935601145,"148":-0.02157266084902856,"149":0.06522859907654895,"150":-0.021493682419942713,"151":0.087778844009205,"152":-0.0326425710015221,"153":0.11117272442732966,"154":0.05093440900249661,"155":0.052281940040358826,"156":-0.18620425494849496,"157":0.12243686751526901,"158":-0.21930089208154396,"159":0.08739693985293506,"160":0.17470539829169504,"161":-0.020516783523421206,"162":-0.07828231379443727,"163":0.059902595699542295,"164":0.007768623525170669,"165":-0.02698550512399072,"166":-0.05473158865718761,"167":-0.21742618204486838,"168":0.22320336113629768,"169":0.07427984379331613,"170":-0.1456695856562917,"171":-0.061856818330242466,"172":0.029818770645299746,"173":-0.19475869171984164,"174":-0.056779650097920895,"175":-0.20593607328169136,"176":0.02159823500747249,"177":0.03667007035186534,"178":-0.17635219412096048,"179":-0.1431198599433221,"180":-0.03646381432666708,"181":-0.08348125699284735,"182":-0.1700446157605664,"183":-0.18308300825225796,"184":-0.06993148138079616,"185":-0.040591747219138885,"186":-0.0011362425567192158,"187":-0.09124065199957705,"188":0.1295361869810183,"189":-0.061172472370569636,"190":-0.08326364247351284,"191":-0.14017849868049254,"192":-0.2924379415519809,"193":-0.02612846848499662,"194":0.016600147135242715,"195":-0.07555232961110339,"196":0.20137455765856427,"197":0.14259257237357725,"198":-0.09781601372147194,"199":0.10103904674246286}},{"sx":5,"sy":5,"depth":8,"w":{"0":0.15280655250744327,"1":-0.015392518294989714,"2":-0.056177915664488993,"3":0.04219247825368584,"4":-0.043568392347312065,"5":-0.042212954451510624,"6":0.0846501811558091,"7":-0.1403144989647537,"8":0.12124224822510964,"9":0.028130097715914334,"10":-0.04055987513307823,"11":-0.08045923724676304,"12":0.12488706031569197,"13":0.17634437958069482,"14":-0.0479641148052021,"15":-0.2191165321050062,"16":0.0077397804140412535,"17":0.01983999987878559,"18":0.0968222280366251,"19":-0.06998694705363974,"20":0.16151369186909786,"21":0.12120608740606616,"22":-0.06374601872358017,"23":-0.1454042755058825,"24":-0.017287121966385276,"25":-0.052080812757577005,"26":0.01204925102218705,"27":-0.27191666208513515,"28":-0.0721800478978077,"29":0.010642019788422517,"30":-0.08651674540873831,"31":-0.2981702401574859,"32":-0.006382759476057527,"33":0.0165132795522438,"34":-0.12055916464302859,"35":-0.029815564750686734,"36":-0.2046608169366113,"37":-0.04027597197191194,"38":0.019440047344841196,"39":-0.07964116157372177,"40":-0.0021608856896878715,"41":-0.17407336739742257,"42":-0.16236040525964743,"43":-0.07901643412943338,"44":0.025321588378626116,"45":-0.23441010326528194,"46":0.0433791927249347,"47":0.020224946959853215,"48":-0.047990394529302816,"49":0.1410681532853697,"50":0.13828848796251766,"51":-0.03901373214327291,"52":0.013887741883691006,"53":0.1012047586756615,"54":-0.2902640235725583,"55":-0.16554606287294363,"56":-0.09021286243639587,"57":0.14516507859944874,"58":0.17392330107750067,"59":-0.0704604465423195,"60":0.1266682709575221,"61":0.25614537188202174,"62":0.01708383478970003,"63":-0.12870307319589297,"64":-0.0418113003905297,"65":0.012252829490513156,"66":-0.03021419149569644,"67":-0.1046690471274624,"68":0.08841309982189599,"69":-0.06310109800512696,"70":-0.1870933846126628,"71":-0.1701142489948232,"72":0.1473608275890195,"73":-0.18643446542244183,"74":-0.0504842237662391,"75":-0.1763971492567049,"76":-0.18863801786448017,"77":-0.10717828756859847,"78":0.054622604899787396,"79":-0.048194795918238185,"80":-0.08453700773683831,"81":-0.10699339733595516,"82":0.09394917097429956,"83":0.06763415218278665,"84":0.05950568234784858,"85":-0.06785056067884258,"86":-0.07427384951894722,"87":-0.23120978210687168,"88":-0.00018401684567302397,"89":0.19420406401690912,"90":-0.01759959806211,"91":-0.07113568656121594,"92":0.008495623845001597,"93":-0.015956923595448456,"94":-0.1158628616504067,"95":-0.36775362560744385,"96":-0.05601531300754862,"97":0.10491803761255092,"98":0.04005120359685063,"99":-0.2091307870672855,"100":0.20704853231702436,"101":0.03591299554306648,"102":-0.14702119490723536,"103":-0.17420875966981617,"104":0.03430135623821808,"105":-0.0019133917861532096,"106":-0.09656661356199885,"107":0.06694131083733873,"108":-0.11442355283200666,"109":-0.06659229171081676,"110":0.12021790485993518,"111":0.03824385276780694,"112":0.06568251499454315,"113":-0.23031724414657406,"114":-0.07401870443824243,"115":0.03491610488998533,"116":-0.026608061527977133,"117":-0.11866018725394815,"118":0.11916155328377148,"119":-0.06543031867371049,"120":-0.03289041147217161,"121":0.04239519343567825,"122":-0.06787289904658578,"123":-0.057450002268427974,"124":0.19922627735961043,"125":-0.10875908312542798,"126":-0.1442054832331167,"127":-0.12885458926474325,"128":-0.11418402749389935,"129":0.028569482979941017,"130":-0.15888988564106135,"131":-0.02400279239914552,"132":0.21427604734406644,"133":-0.023868599731928737,"134":-0.13352870383339205,"135":-0.07117082263718151,"136":-0.1310869786894174,"137":0.09121585411443958,"138":-0.04991569754583761,"139":0.20574556197821692,"140":0.18100013472025017,"141":0.061658380598470494,"142":0.011700939685548072,"143":0.11374940538921731,"144":0.11022230434027266,"145":0.050716679898273755,"146":-0.03501915533437735,"147":0.21380449233784934,"148":-0.08446240489516936,"149":-0.1461240095450388,"150":0.15061262658406563,"151":0.03286403375936102,"152":0.06037090134347702,"153":-0.20181554007921257,"154":-0.07015816584917393,"155":0.002870380302237743,"156":0.014957852552495043,"157":-0.10876848319746672,"158":0.042252199050433294,"159":0.028940651943009026,"160":-0.25437288634582805,"161":0.21499984012948703,"162":-0.09000108797172365,"163":-0.06265575233365592,"164":0.1140150672367832,"165":-0.02900185639694089,"166":-0.19735560095562107,"167":0.016290561110523138,"168":-0.30496510765448354,"169":0.028373165306255308,"170":-0.16347201283423782,"171":0.27059518448980346,"172":-0.057877918855832225,"173":0.036929509631519614,"174":0.20351937467575287,"175":0.11399158118004304,"176":-0.09175448233859088,"177":-0.04642280379180184,"178":-0.12194112138538553,"179":0.035827087243717484,"180":0.09449781791632285,"181":-0.05109924682567506,"182":0.12775506466226105,"183":0.2045124864380643,"184":0.16005183179957078,"185":-0.07797437489717668,"186":-0.15565775142113997,"187":-0.021706224704169715,"188":0.005899875651449901,"189":-0.09502547512674633,"190":0.02416310188211373,"191":-0.05781987740679451,"192":0.024384063494757583,"193":0.04706748955834783,"194":-0.1279246377083765,"195":-0.12200350014140317,"196":-0.025010578628412675,"197":-0.20318707334340172,"198":-0.19392919926027266,"199":-0.25684585400650206}},{"sx":5,"sy":5,"depth":8,"w":{"0":0.21241263291579163,"1":0.12210394842875356,"2":0.08061559287967887,"3":-0.03287092996678581,"4":-0.10280175498483875,"5":-0.10265664739028023,"6":-0.076775711850088,"7":-0.07705935400649483,"8":0.10872034979882578,"9":0.008072690419864827,"10":-0.1489642251227877,"11":-0.31920258242398486,"12":-0.18392577380858746,"13":-0.302797344386648,"14":0.15451822033146867,"15":-0.01095864310658178,"16":0.098385352200442,"17":-0.18956651113137019,"18":-0.03620645823367887,"19":-0.05769085245708716,"20":0.0712142802152447,"21":-0.21022520191282695,"22":0.234764236051514,"23":0.04637572567157128,"24":0.2064175269497901,"25":-0.037463283877407876,"26":-0.2564251159250998,"27":-0.13174749774765862,"28":0.02183442869688377,"29":-0.07605587918852323,"30":0.16999968545823413,"31":0.028792063468497147,"32":0.19776541974847409,"33":0.004654397101211942,"34":-0.020217494275861125,"35":-0.1284612864396487,"36":0.10574391816968828,"37":-0.13988501909692738,"38":0.23138552948345126,"39":-0.06974340680330508,"40":0.11771714767905231,"41":-0.042769393267580356,"42":0.07722183197148823,"43":0.13893347556732327,"44":0.16336384738449206,"45":0.2526120683627914,"46":-0.1815043216036469,"47":0.1357671295137627,"48":0.2629524052998628,"49":0.11332473339589198,"50":-0.0013584811148598139,"51":-0.027056214351995962,"52":-0.12856383363114907,"53":-0.11704893914828426,"54":-0.08388733951142711,"55":-0.21229606183490374,"56":0.005292074643660448,"57":0.03384532535212929,"58":-0.041331916715832216,"59":0.0949311812583645,"60":0.02464588649847697,"61":-0.0561818181287319,"62":-0.09013116828762197,"63":-0.11434633495706738,"64":0.1557030646816079,"65":-0.029076314711412872,"66":0.015297132179472954,"67":0.1903196416534777,"68":0.09891318306901296,"69":0.061648627555155926,"70":-0.109684406594475,"71":-0.11701600053716385,"72":0.050060116815082156,"73":0.2143500577379324,"74":-0.04969430215376397,"75":0.07567421041267813,"76":0.019590398215164884,"77":-0.01281964661200278,"78":0.18266997546935124,"79":-0.003179043502166179,"80":-0.11873883633419224,"81":0.1591929005746383,"82":-0.1313714260909275,"83":0.007029248986504466,"84":0.3054530702142942,"85":0.06859771417607999,"86":-0.17252661859077173,"87":-0.019695485067675045,"88":0.18018740690527896,"89":0.10052284054021536,"90":0.008100746128010232,"91":0.15458802593887738,"92":0.09572284426080864,"93":0.02472813111864693,"94":-0.1455093142403109,"95":-0.19784565443835284,"96":0.08490983796318434,"97":-0.0023941120588008404,"98":0.05206588399929369,"99":0.039110958842991705,"100":-0.0712404845775774,"101":-0.11926027330829904,"102":-0.16146254762980422,"103":-0.08579560194254864,"104":-0.207848728973934,"105":-0.09980934223724655,"106":-0.04596705455343762,"107":-0.045074171816856065,"108":0.16904270779543765,"109":-0.01843882634943832,"110":-0.004824795252860106,"111":-0.0044741054123216785,"112":-0.09369031400804942,"113":-0.05403058193714864,"114":0.06361126620070678,"115":0.058895564864013525,"116":-0.08074525855679639,"117":0.09558250023499774,"118":0.11129902381229223,"119":0.14263602525815888,"120":-0.06087955444096309,"121":-0.018035396225834756,"122":0.0352076654347739,"123":0.19978796943481106,"124":0.05191600994712033,"125":0.23795749493977253,"126":0.1626990062065992,"127":-0.013431852044690069,"128":0.0047055152455643115,"129":0.18032113800359947,"130":0.1512614981885022,"131":0.032867141104249514,"132":0.060541074899266904,"133":0.17845576491720244,"134":-0.15235759697729595,"135":-0.09810993388882089,"136":0.11408642405224659,"137":0.0808427585789695,"138":0.03606553902447553,"139":-0.1473583176480305,"140":-0.20099661551309056,"141":-0.09838867927356844,"142":-0.06224683503990445,"143":-0.30802526093371374,"144":0.03147090710772003,"145":-0.02470132227378459,"146":-0.10407461607203075,"147":-0.05786056392907606,"148":-0.12432907755868103,"149":-0.020321785625002482,"150":0.052614768186681315,"151":-0.09666608841154481,"152":-0.09222537656672505,"153":-0.07725470588121236,"154":0.0004374729394700054,"155":-0.20226739688517656,"156":-0.14226887952872327,"157":-0.12529178861056828,"158":-0.04151056163302797,"159":0.009870004694350804,"160":-0.29466926510892966,"161":0.05378020650578156,"162":0.02560534467022344,"163":0.18467853876553453,"164":0.06520096578589489,"165":0.1356435015491315,"166":-0.19142561164523852,"167":0.014241948944912111,"168":-0.08783212513622,"169":0.20891786749506508,"170":0.24446451048665319,"171":0.16635304298482434,"172":-0.009558506318095124,"173":0.15359003234273774,"174":-0.22266730194887488,"175":-0.08657717090968436,"176":0.2923325057064113,"177":0.2768821942125702,"178":0.09392583175991365,"179":-0.1157940320643213,"180":-0.027627160825789723,"181":0.07924364175762165,"182":-0.1943778438279168,"183":-0.26576395873185465,"184":0.0010976365504550135,"185":0.10332902527362978,"186":0.039217614167343706,"187":-0.09789465390361488,"188":-0.010563790025801635,"189":-0.12842690138382173,"190":-0.17421440398525426,"191":-0.09156096851714418,"192":0.009641199046608871,"193":-0.030499944695690492,"194":-0.12864678997230733,"195":-0.06285987830597768,"196":-0.09708603899489486,"197":-0.1260859675141656,"198":-0.0031288852104043165,"199":-0.02087025377755003}},{"sx":5,"sy":5,"depth":8,"w":{"0":-0.16551857905532383,"1":0.006661204054299126,"2":0.17089805980071088,"3":-0.07484382035037589,"4":0.083079688430874,"5":0.16937889171805726,"6":0.08685625123418887,"7":-0.04378331866257225,"8":0.0649495155306714,"9":-0.075490137467247,"10":-0.09875612957618046,"11":-0.07276021603616888,"12":-0.1564804829690079,"13":-0.023031518441137946,"14":0.13593530619019292,"15":-0.03725930819330294,"16":0.07683033935154791,"17":-0.14980964126348056,"18":-0.08133079429524606,"19":-0.1152732040349005,"20":-0.08155413534473463,"21":-0.20154991029706174,"22":-0.006687627797019246,"23":-0.2582874996356558,"24":0.07875109797786385,"25":-0.05350436304311395,"26":-0.024598881979568176,"27":-0.005239686214735264,"28":0.19078692168552555,"29":-0.20234502246751804,"30":-0.08726167314541251,"31":-0.16766534742915304,"32":-0.13515574572254596,"33":0.1779267083945068,"34":0.05632461900018854,"35":-0.17584851210224683,"36":0.12334510106736994,"37":0.0223675381835828,"38":-0.03878434762027193,"39":-0.1911910474637792,"40":0.07343849408894856,"41":-0.020282331220753715,"42":0.03728734600918421,"43":-0.01628815811819642,"44":-0.0901365769548941,"45":-0.1087986818598877,"46":-0.008731796661972676,"47":-0.10376249478774568,"48":-0.0251466963866029,"49":-0.11416966056883229,"50":-0.21530004951312265,"51":-0.21039404436218426,"52":-0.044998697028073534,"53":-0.15396543858196488,"54":0.03910411961596778,"55":-0.17174965639499523,"56":-0.036911974414740055,"57":-0.0027000249105007066,"58":-0.05103546184840543,"59":0.007523107854660993,"60":0.07145612971775891,"61":-0.04378179146664518,"62":-0.15101973736790658,"63":-0.2983437073989176,"64":-0.2022290924907358,"65":0.08582411468960938,"66":-0.02747527138321551,"67":0.033330063625753345,"68":0.10247802165997956,"69":-0.03511784697416718,"70":-0.09586303591004479,"71":-0.17841992128539536,"72":-0.026337997063687717,"73":0.08978363067433374,"74":0.11969644315143348,"75":-0.07671124843890895,"76":-0.006747233334782417,"77":0.059990036804388976,"78":0.07362503920702182,"79":0.03086944133638207,"80":-0.025135784606285183,"81":-0.12928835269936506,"82":-0.04561871403228043,"83":-0.1265129148723536,"84":-0.001749373848087997,"85":-0.09054907582055285,"86":0.03800754228702038,"87":-0.1545203669602708,"88":-0.03690943692722864,"89":-0.15642068367181183,"90":-0.23176701429739638,"91":0.027005891786066168,"92":-0.048225184277184585,"93":-0.07762668186496094,"94":0.04866058231438138,"95":-0.2010444548635125,"96":-0.1377947770594218,"97":-0.005852510058702917,"98":0.08587864085827362,"99":-0.04448166468055742,"100":0.0037699583218138537,"101":0.05412961923828021,"102":-0.040665197430285405,"103":0.1366739074118482,"104":0.04932292462788851,"105":0.042256914490302104,"106":0.08812347884289888,"107":-0.01807981190990825,"108":-0.005939607455903699,"109":0.0438855490750431,"110":0.0657477632762476,"111":0.26149437484252813,"112":-0.061371618792156905,"113":0.07569945190515459,"114":-0.03976078848354481,"115":0.12385166632531538,"116":-0.07446188232158073,"117":-0.020438047068082665,"118":0.1980334223298192,"119":0.0989024077254471,"120":0.031895699045371,"121":-0.0546191635259858,"122":0.025770081835331048,"123":-0.13417088360233945,"124":0.08466712171361336,"125":-0.019183746257045442,"126":-0.20854462341162308,"127":-0.213967533347077,"128":0.028164346080645657,"129":0.09240316557093539,"130":-0.1467448633416077,"131":-0.07359127476501039,"132":0.029653794847703783,"133":-0.09622263437303108,"134":-0.19302138997019352,"135":0.025685551505837314,"136":-0.14633444773075163,"137":-0.05424769256769002,"138":-0.05225100513864908,"139":-0.049037864674963676,"140":0.02469836143272225,"141":-0.17396921654531194,"142":0.01008173944444677,"143":0.08335701375644006,"144":-0.03234565312789481,"145":-0.1180387357725559,"146":0.004415578986255245,"147":-0.0008966372963761229,"148":-0.017807480492557873,"149":0.08545500608043843,"150":0.24114877216637534,"151":0.11041147094995486,"152":-0.06055856938648663,"153":-0.09380076833385624,"154":0.05881636941327117,"155":0.022810588391849088,"156":-0.11659992799030093,"157":-0.0705663538978018,"158":0.16363186924790005,"159":0.13746371517889705,"160":-0.038143356371080406,"161":0.11044172539326717,"162":-0.05768964934208652,"163":0.1267096830498699,"164":0.077690389905272,"165":-0.010888542951842408,"166":-0.10681481634789902,"167":0.0982302592219285,"168":-0.05443960279059886,"169":0.11485654216864456,"170":0.012412886265608176,"171":0.11393908525018234,"172":-0.09659441312126399,"173":-0.02035474300818596,"174":0.02687109377582088,"175":0.17373433362511917,"176":-0.09918180561616015,"177":0.12286230338265991,"178":-0.11255016387323045,"179":0.004583774058866279,"180":0.0024072205471940234,"181":-0.04661292680590545,"182":0.03141975235768149,"183":0.16577564931687547,"184":-0.0666087167659043,"185":0.010699039404128868,"186":0.047768034347330166,"187":0.092701849437325,"188":-0.2410081798863396,"189":-0.053577501594786546,"190":0.1638939412687312,"191":0.16618830460569775,"192":0.009479200699323927,"193":-0.13665697490597808,"194":-0.20722909872982176,"195":-0.07008300030925166,"196":-0.20657749505364026,"197":-0.3025290713952104,"198":-0.006003460218521542,"199":-0.010525743722599878}},{"sx":5,"sy":5,"depth":8,"w":{"0":-0.01858366154158096,"1":0.06934556779915747,"2":0.05127457622951245,"3":-0.0007702477392629454,"4":0.026307417807945935,"5":-0.11913922494074101,"6":-0.10796051869649691,"7":-0.0953780026094462,"8":0.1702341576115307,"9":0.22092606254007116,"10":-0.005313483113082313,"11":-0.03334763916986444,"12":0.05488121716744058,"13":-0.1066822583593895,"14":-0.17529892851625564,"15":-0.3537786094146497,"16":-0.06447812151948526,"17":0.04463671549896129,"18":-0.021745000008166936,"19":-0.08060537400567588,"20":0.014465372620487681,"21":-0.01824562075049056,"22":-0.14578350869301893,"23":-0.1506641099623754,"24":-0.1685101379309337,"25":0.033693845188295414,"26":-0.03903373094119917,"27":0.07559021644532597,"28":-0.1773832885733498,"29":-0.13342363953542838,"30":0.1359489842796748,"31":0.1368579569036831,"32":-0.013705622349313289,"33":-0.13517118814575593,"34":0.011495030483180754,"35":0.051311443201379196,"36":-0.033325019990616815,"37":-0.04012847712869681,"38":-0.08136370678235236,"39":0.12690787760411842,"40":-0.19613416256370775,"41":0.01558706402103316,"42":-0.06380087965262196,"43":0.23321474133030204,"44":0.052503305946919855,"45":0.1794500623587286,"46":0.03709607141823833,"47":0.10955726217383542,"48":0.03220411502151701,"49":0.140574370775282,"50":0.2339809490970983,"51":0.1302561228517918,"52":0.1689636606200456,"53":0.24781387982200695,"54":-0.2088013976949285,"55":-0.06308126591288245,"56":0.029081895743136688,"57":0.09489444954614026,"58":0.12482848947841473,"59":-0.01939628009725091,"60":-0.02391668709953551,"61":0.0585527727596428,"62":-0.26459935908894666,"63":-0.37210997023325426,"64":0.02420446411779723,"65":0.14635548871776144,"66":-0.03363162423075197,"67":-0.008543746726765705,"68":-0.08186546041638583,"69":-0.11138848916232595,"70":-0.2008458438232234,"71":-0.31905604576579716,"72":-0.05643604369507179,"73":-0.0627875645124119,"74":-0.00032107769657515846,"75":-0.07640272129005853,"76":0.1812565894158035,"77":-0.31018389889996056,"78":-0.2449658031051005,"79":-0.3305320549598942,"80":-0.16783839959804225,"81":-0.12890102664257738,"82":-0.13783468126626122,"83":0.08287853600837279,"84":-0.025456966419804238,"85":0.11516313491932655,"86":0.08870814953739191,"87":0.017136470422087744,"88":-0.10230827589738453,"89":0.03607820337946451,"90":0.06090500271169093,"91":0.22090956547882937,"92":0.16161636474617044,"93":0.16166568352707522,"94":-0.06259578121152194,"95":0.0754157848515047,"96":0.037966763302834806,"97":-0.019501660991342817,"98":0.06250484320969445,"99":0.014419900997660108,"100":-0.028572732020959103,"101":0.08597752536876481,"102":-0.24811663205869575,"103":0.0047355528063992396,"104":-0.11608431235607244,"105":0.16809723376292277,"106":0.09742107722670852,"107":-0.10639915242140287,"108":-0.0407700121660014,"109":-0.042447935233755875,"110":-0.3674315067588804,"111":-0.06523247216404017,"112":-0.06050343656796424,"113":0.21600729524253454,"114":0.025745110578833757,"115":0.2087424760952735,"116":0.020699915884409396,"117":-0.005140876466834296,"118":0.012476690477522775,"119":-0.06857191653795955,"120":0.055545886703644444,"121":-0.1986782165270216,"122":-0.08083988284288479,"123":-0.12954239960464553,"124":-0.04983243993382477,"125":-0.10372589300752257,"126":-0.1478182537672128,"127":-0.22351070703018386,"128":-0.1368346922241197,"129":-0.0552795583841017,"130":0.05587890747652554,"131":-0.11313857984750858,"132":0.0406272043588249,"133":0.0409109765271392,"134":-0.2484571901731439,"135":-0.06742127866852318,"136":-0.2445654922591251,"137":0.006395375197385183,"138":-0.05807879181040009,"139":-0.027652844962116636,"140":0.03258659294912796,"141":0.1075201821574977,"142":-0.11820372098962803,"143":0.08792019720987695,"144":-0.095266506918194,"145":0.03930033261693747,"146":0.0037877498488660196,"147":-0.0063458061803828,"148":0.009026852951700253,"149":0.1352236771475478,"150":0.09693096326118333,"151":0.111188409443232,"152":-0.060198086745277914,"153":0.10216384283433175,"154":0.10048855848474826,"155":0.15793685435474042,"156":-0.010481039313993067,"157":-0.025262319181718656,"158":-0.04098514634808539,"159":0.2176610267245869,"160":-0.20903373611318807,"161":-0.027842344902935315,"162":-0.23997742855032692,"163":-0.09769584668680889,"164":0.029524524091814455,"165":-0.06631828246231192,"166":0.06687208559401157,"167":-0.22704602775271598,"168":-0.04674469298211248,"169":0.12315005738357744,"170":-0.03848164982546164,"171":0.07345436216623324,"172":-0.16498473990621465,"173":-0.03597364979010709,"174":0.07981224000972956,"175":-0.0752717296577773,"176":0.0749514568627571,"177":-0.04210757075531004,"178":0.016960651360526536,"179":-0.03805367657400714,"180":-0.0518831059715137,"181":-0.12841043358653956,"182":0.005640053540136275,"183":0.05465120545060575,"184":0.011112882186636433,"185":-0.1050013666368923,"186":-0.007594275846027058,"187":-0.07032546509381571,"188":-0.05944266083188812,"189":-0.08847289247155503,"190":-0.0606846923953076,"191":-0.012081068475985019,"192":-0.061394423026800676,"193":0.005987975878197722,"194":0.017961740367739558,"195":-0.07530764242701739,"196":-0.02830069767990126,"197":-0.013560549639831287,"198":0.04934728217377223,"199":-0.0011107746486002557}},{"sx":5,"sy":5,"depth":8,"w":{"0":-0.07664984197261185,"1":0.07033254710415018,"2":0.0349813609278135,"3":0.15647323878547337,"4":0.18947831538472779,"5":0.11044872408010266,"6":-0.186111281668197,"7":-0.08454328607043886,"8":-0.10923392553538712,"9":0.04058201573652158,"10":-0.0024816383742653604,"11":-0.07411703507925951,"12":0.009519942982274775,"13":0.1681207986528995,"14":-0.21926209616079959,"15":-0.18243382959798188,"16":-0.08558833030154389,"17":-0.006480039324037068,"18":-0.10392744506796997,"19":-0.11880077876995812,"20":-0.12908314408102622,"21":-0.10347229097701485,"22":0.007521707900752919,"23":-0.1944104581281131,"24":-0.13311579636339307,"25":-0.13429372556229077,"26":-0.2119579343048948,"27":0.013747921392864569,"28":-0.12180269472839611,"29":-0.06114023336264615,"30":-0.05236601356544892,"31":-0.13273977470585877,"32":-0.09050049531042624,"33":-0.011205380016459484,"34":0.008508306649455046,"35":-0.01848508649374533,"36":-0.07823131459566401,"37":0.008669374205708987,"38":-0.039149859978282096,"39":-0.0551380933849588,"40":-0.17810353123639688,"41":0.08795478205613531,"42":0.15929621680085063,"43":0.060063229714508455,"44":0.03435517284872245,"45":0.1334463834309237,"46":0.12862043783540328,"47":0.1289109952463665,"48":0.011154089610316777,"49":0.14931197770311416,"50":0.04168838210841856,"51":-0.007431990589345849,"52":-0.16627768177656113,"53":0.08929198965035856,"54":-0.1363556595364019,"55":-0.12146448738202596,"56":0.10807149608705256,"57":-0.0005391395983642722,"58":-0.06626560373080345,"59":-0.04757217984607925,"60":-0.22744547234935103,"61":-0.22702655339268565,"62":-0.023674201292357124,"63":-0.27273721470247686,"64":0.03729338148362057,"65":-0.13715448944094014,"66":-0.16354605930321914,"67":-0.08015106117669281,"68":-0.01932657675997089,"69":-0.09564334432091665,"70":-0.0993011909446237,"71":-0.09947065385368156,"72":0.08438905887974993,"73":0.028582602612363086,"74":0.04154288198589449,"75":-0.1374605247490303,"76":-0.008933150194660578,"77":0.13698237161322444,"78":-0.050982649362089925,"79":-0.02919911895811777,"80":-0.06285122745730926,"81":0.011749812822607916,"82":-0.007702195773022531,"83":-0.010247618363116058,"84":0.15665376894306335,"85":0.015364288346345473,"86":0.08252722055438086,"87":-0.06836124788779908,"88":-0.0902974605801601,"89":-0.02722688393105754,"90":-0.012930348439465715,"91":0.03215023745364905,"92":0.034590070796307854,"93":0.10097782749104893,"94":-0.21381199788052527,"95":-0.07445336055631592,"96":0.10192551945721556,"97":-0.07547076949007235,"98":0.09942304708832536,"99":0.05567712927307401,"100":-0.01972542218315048,"101":0.014515217075154196,"102":0.04461017343078481,"103":-0.21526068501325568,"104":0.16143248863908674,"105":-0.000010890303816559962,"106":0.013501313703718425,"107":-0.05682761865408407,"108":0.006961315261831451,"109":-0.02197164346772555,"110":-0.1027183458816054,"111":-0.235612800371854,"112":-0.08009538935138913,"113":0.06522935112121807,"114":-0.10492051203303285,"115":-0.05164802777251562,"116":0.028222503009263038,"117":-0.05810088863404002,"118":-0.08577695578476491,"119":-0.06025323193733066,"120":-0.19281816235463659,"121":-0.006372018256530826,"122":0.029293381976992862,"123":-0.21778056947482916,"124":-0.017294541740565765,"125":0.09544817940078083,"126":0.12565348980736618,"127":-0.15355922834548827,"128":-0.14635614380776843,"129":0.08445587605278383,"130":0.1098397299979395,"131":-0.07447258124222841,"132":0.17246090546818027,"133":0.0568923827187393,"134":-0.09075495215445992,"135":0.012496299764600028,"136":-0.03780273610841857,"137":-0.07028842001559048,"138":0.06509069479807308,"139":-0.08611060002027561,"140":0.13482812009724998,"141":-0.06788824098732382,"142":0.06864499608137803,"143":-0.09032496219719101,"144":-0.15869752644785678,"145":0.09352484650738699,"146":0.06663560777305665,"147":-0.04151469628123976,"148":0.05962394789644347,"149":-0.05350471455348705,"150":-0.09380314686186826,"151":-0.01397007340477494,"152":0.03733580185732858,"153":0.10922572302361769,"154":-0.0985902035933657,"155":0.011795810701900125,"156":0.005896648445910488,"157":-0.13728136639736632,"158":0.15524580924116985,"159":0.02747503915986012,"160":-0.08465475714442826,"161":-0.022421098973069802,"162":0.08076441575131749,"163":0.13845689676047115,"164":-0.085269175561145,"165":0.07303527542182772,"166":0.001276510971282406,"167":0.20916090587609865,"168":-0.2205682206375793,"169":-0.1467003264519465,"170":0.12262711775287516,"171":0.04854071291151467,"172":-0.06267982293064302,"173":-0.008840033547096731,"174":-0.02483798780882826,"175":0.2422704559266387,"176":-0.053250272625353055,"177":-0.15764241579548569,"178":0.1558135821414337,"179":-0.11143113766210289,"180":-0.003357832815210248,"181":0.06755204390088132,"182":0.08043752763083212,"183":0.07499982593927601,"184":-0.05264934475831589,"185":-0.013247146632314947,"186":-0.00709771174924395,"187":0.027701244106377792,"188":-0.15424042313468608,"189":-0.021298603154462095,"190":0.06884391694192621,"191":0.03666440997238814,"192":0.05140678495319528,"193":-0.043592972001021774,"194":0.018299841190489954,"195":0.07325974510811047,"196":-0.21742844980821366,"197":-0.13599334762440524,"198":0.1850291099380707,"199":0.17554753041101387}},{"sx":5,"sy":5,"depth":8,"w":{"0":0.053626254276223986,"1":-0.011499748998383819,"2":0.16444420054530273,"3":0.07079762588426283,"4":-0.03751851789372779,"5":0.00003621206016161425,"6":0.021475101275398725,"7":0.052136618045426054,"8":-0.02845883375822751,"9":-0.03508173072449906,"10":-0.03584237628549307,"11":-0.13822627002746532,"12":0.013280421571089421,"13":0.03613056605591746,"14":-0.046519342103692574,"15":-0.019681426317589828,"16":-0.03995005870209912,"17":-0.12323903809296738,"18":-0.07458969750508218,"19":-0.019220639822976216,"20":-0.04092000827608375,"21":-0.13749525224119657,"22":0.04122094695431796,"23":-0.07090241966195321,"24":0.11962980945398631,"25":-0.056167565921192666,"26":-0.0750663086612168,"27":-0.1268059730042389,"28":-0.1715645536983887,"29":-0.11113494924526739,"30":0.22413418893594408,"31":-0.029097331031203603,"32":-0.038110163531100416,"33":-0.14094494012974274,"34":-0.17284794978753895,"35":-0.0025796358280607856,"36":0.14114532357164492,"37":0.14491645572860326,"38":-0.0988694119850552,"39":-0.23531711371120612,"40":-0.09153057499384898,"41":-0.06826958629872547,"42":-0.011502571268901243,"43":0.058008357262877036,"44":-0.008392200459393371,"45":0.016218310480035893,"46":0.0635052968211763,"47":0.16800647297413313,"48":-0.09727153042044939,"49":-0.027484034522853928,"50":0.10538186814990906,"51":0.018037119682816658,"52":-0.081290497474919,"53":-0.030310046630706716,"54":0.05038725681056905,"55":-0.05479477464989818,"56":0.09183301429066008,"57":-0.019996096038426194,"58":-0.10155638332241508,"59":0.11553783904252078,"60":0.01619341901979176,"61":-0.1017668718165522,"62":0.1385898297165888,"63":-0.06607899132381113,"64":0.003486023407312452,"65":0.050341168965933165,"66":-0.07437399434570519,"67":0.058574158864882764,"68":-0.023207237712660516,"69":-0.025403234930735694,"70":-0.05993642838422245,"71":-0.27928559320007984,"72":0.008867855114351255,"73":0.11358532433392204,"74":0.08858994287882747,"75":0.02452544560356229,"76":0.08815766211283413,"77":-0.08791362298906114,"78":-0.11615331659177126,"79":-0.3836674201014959,"80":0.055697723269879706,"81":0.015243745406049183,"82":-0.05148746689878407,"83":-0.1289066847282365,"84":-0.03709670027854221,"85":-0.07090180645198603,"86":0.0771776875615565,"87":-0.002258315712873832,"88":0.06512461162251981,"89":-0.07969063396226944,"90":-0.1333254484923174,"91":-0.037481453849343614,"92":-0.0540013160629002,"93":-0.25012397441389916,"94":-0.03147028689071712,"95":-0.1177827559207779,"96":0.08512885174173469,"97":-0.08554245256813157,"98":-0.0782192710935245,"99":0.08087653042866293,"100":0.029853106527735693,"101":-0.11405824382102657,"102":0.010231255894252587,"103":-0.3169166618168534,"104":-0.09512130137019237,"105":-0.09248003253178011,"106":0.00463621265983119,"107":0.03935184267447357,"108":0.030498350324140763,"109":-0.142905409133327,"110":-0.32313845484216525,"111":-0.28407828872110374,"112":-0.24689206988063767,"113":0.14653612403348187,"114":0.1325406231127082,"115":-0.11525150083486067,"116":0.09656524635079507,"117":0.11978865325213355,"118":-0.08385919652038308,"119":-0.13097012378534373,"120":-0.022343299174731417,"121":-0.1275543324447375,"122":-0.015604560976020818,"123":-0.0002632257898036192,"124":-0.06243530788525615,"125":-0.06361912506523504,"126":-0.08166652135080536,"127":-0.03180127861351623,"128":0.014867968772672982,"129":-0.046976325901024095,"130":-0.03218891080768572,"131":-0.05112529888982871,"132":0.041369064108556654,"133":0.023982480940600133,"134":-0.16328729441547585,"135":-0.19091664784434087,"136":-0.1665751069561395,"137":-0.03478771993668021,"138":0.13701435426628944,"139":0.11565529683109055,"140":0.1230112855841563,"141":0.06600316926739533,"142":-0.17879001246747941,"143":-0.31525978778292,"144":-0.22222462681103697,"145":0.028050896860547014,"146":-0.01473148660421315,"147":-0.035419717169217234,"148":0.13357492695328796,"149":0.1126253816489104,"150":-0.24442994374913996,"151":-0.20184923280138262,"152":-0.06304628506772118,"153":0.18230911676582173,"154":0.07354928886596451,"155":0.05037800271027809,"156":-0.09446030992495029,"157":0.047065818272069786,"158":0.17842548590881388,"159":0.10780586913240561,"160":0.04288468333881483,"161":0.018198157536358377,"162":-0.08895264093329867,"163":0.037979837920663395,"164":-0.03823238891246711,"165":0.027127111457786974,"166":-0.058626200529975414,"167":-0.027478822012221276,"168":-0.011861486968132206,"169":0.03489688264373535,"170":0.014919957125369471,"171":0.029516101708910978,"172":0.10512093496866462,"173":0.05020922643560512,"174":0.010141027240047491,"175":-0.28001590669048415,"176":-0.38234507247550664,"177":0.19458378293808,"178":0.034626183666314966,"179":-0.059227851139031534,"180":0.22736292022775945,"181":0.1266337672106154,"182":-0.2579167133249833,"183":-0.21222894384506433,"184":-0.0677820515477434,"185":0.21459634986346515,"186":0.11336465927340315,"187":0.12865942316795578,"188":-0.08225856879901809,"189":0.16596586531912152,"190":-0.04955930729563888,"191":-0.19369970209429577,"192":0.1244834252212577,"193":0.10069477261724608,"194":-0.08842093549488811,"195":-0.018833095148716207,"196":0.0041628381193895385,"197":0.03636016130880945,"198":0.10563834058240533,"199":-0.139306953822311}},{"sx":5,"sy":5,"depth":8,"w":{"0":-0.03217904528337236,"1":0.1265540571064309,"2":-0.10293325888333517,"3":0.08037189649886466,"4":0.06346159825655638,"5":-0.06840218160075984,"6":-0.028674004505580514,"7":-0.10397426326878263,"8":0.10276032514785202,"9":0.030405878913305193,"10":0.018031925200601002,"11":-0.0807786035142238,"12":0.1378960662567197,"13":-0.011613491960648604,"14":-0.05125258778139083,"15":-0.07039438818179036,"16":0.06974128004750678,"17":0.09900286484668318,"18":0.0641004803248904,"19":-0.0005210896591839922,"20":0.13498034801078068,"21":-0.08975509012816296,"22":-0.056059312366360914,"23":-0.03587595507470089,"24":0.23402860280378338,"25":0.12890840552872043,"26":-0.05968941747110254,"27":-0.15232195057851922,"28":0.07574904627556694,"29":-0.06616660546838751,"30":-0.13556836912722406,"31":-0.14787184872499942,"32":0.04727256130994886,"33":-0.006345599842318932,"34":-0.019565755692454785,"35":-0.003995378635653572,"36":0.03420021881058984,"37":-0.0787801520861744,"38":-0.23173276770710502,"39":-0.22590283569135197,"40":-0.04860680911407848,"41":0.08945951945605114,"42":0.0008649920836493922,"43":0.08970767162625717,"44":-0.04149373868296091,"45":-0.13086096245098097,"46":-0.11578237175949892,"47":0.09078292935494049,"48":-0.035275680238326196,"49":0.0022685707375922296,"50":0.06888407903864593,"51":0.09300364907446507,"52":0.04530470391023103,"53":-0.09879367926664703,"54":-0.06293785464911189,"55":0.08742492614865731,"56":-0.08488806042746372,"57":0.07923532575307946,"58":0.10203020800472144,"59":0.013556363340073325,"60":0.07898724922599037,"61":0.006283046153533248,"62":-0.19478778644814101,"63":0.10981161529495702,"64":0.041392661861392226,"65":0.046368497613816215,"66":0.03459934973650641,"67":0.22223074477613552,"68":-0.07837866657091877,"69":0.09783113910714454,"70":-0.13846412972026145,"71":-0.17588153052226171,"72":-0.15907202626771924,"73":0.05360950650584361,"74":0.10251026588851606,"75":0.24821591602425563,"76":-0.0659794260961434,"77":0.16304016725196716,"78":-0.24587694826299133,"79":-0.28448374012087535,"80":-0.21687467512623482,"81":-0.029537843308397364,"82":0.13931026345893854,"83":-0.004744113625899835,"84":0.032035623858015845,"85":0.04670868457878766,"86":-0.020821225056101074,"87":0.00903732989962252,"88":-0.13659007192029635,"89":-0.013047839130060811,"90":0.01979260727998024,"91":0.04078861944285993,"92":-0.13762162357099078,"93":0.09534557769646428,"94":-0.14768130796701123,"95":0.0779614281482373,"96":-0.07107179188457616,"97":-0.0456274578109831,"98":-0.04846184740244368,"99":0.07004614502119776,"100":-0.12878320288260117,"101":-0.02062466293149016,"102":0.041881285904416525,"103":0.12765399333163868,"104":-0.233921339213892,"105":0.1487739051019967,"106":0.028525853238193514,"107":0.12684037056785974,"108":0.13698530519177987,"109":0.003768311884155925,"110":-0.20824990543963812,"111":-0.07096448406453326,"112":-0.23858986098655344,"113":0.1635270721197962,"114":0.15483754460472868,"115":-0.028776274367459047,"116":-0.10180102831753098,"117":0.27006981822716625,"118":-0.1442040964600843,"119":-0.3074382782360855,"120":-0.13376464659306592,"121":-0.048774358861734146,"122":-0.039297194349505814,"123":0.02437142465578701,"124":-0.1499287018302926,"125":0.035290708443473866,"126":-0.00928887299958068,"127":-0.05915000138361628,"128":-0.06622339140648645,"129":-0.013856283383266577,"130":-0.03628101594713925,"131":-0.05508923859673227,"132":-0.13082355912639718,"133":-0.06005898281373059,"134":0.1309322237767608,"135":0.04582403169711725,"136":0.019569065771839853,"137":-0.15613966467942628,"138":-0.11390530047144017,"139":0.02037742231918773,"140":-0.09587233734248604,"141":0.0037498145391387057,"142":0.005173772014860032,"143":-0.07179950482583569,"144":-0.16044012891004533,"145":0.04776141861523005,"146":0.01598708485505014,"147":0.052561901359749336,"148":0.1274881632326651,"149":0.10064472504426501,"150":0.05227562391951568,"151":-0.12063647495349887,"152":0.05383898182515417,"153":0.20057207978475997,"154":0.05964323831443504,"155":-0.007160375405086194,"156":0.34995483571748354,"157":0.022824055478095726,"158":-0.11106490184091898,"159":-0.17733634098585999,"160":-0.13177441157054218,"161":-0.02177438341480958,"162":-0.11514132135952497,"163":-0.0993198513323318,"164":-0.09939681370805198,"165":-0.05868886261190513,"166":0.06711101757597486,"167":-0.08305969139522422,"168":-0.1126416138553973,"169":-0.08591335796592735,"170":-0.11526542799469336,"171":-0.06122839869547026,"172":-0.10550616453327212,"173":-0.14276853463059952,"174":0.08732657960001991,"175":0.08771109794759957,"176":-0.19871545504424556,"177":-0.053639729038793243,"178":-0.05670011303277967,"179":-0.02242441595123385,"180":-0.0813647144317302,"181":-0.029581373678505146,"182":0.03165047446520621,"183":-0.04958677299352619,"184":-0.21559931110845862,"185":0.14262335540214596,"186":0.1041077960810264,"187":-0.11722065233791841,"188":-0.011876899993422833,"189":0.10924717263272347,"190":0.06251911896703899,"191":-0.02886714748429683,"192":-0.11911950860449078,"193":0.11467754007697588,"194":0.12715337421172515,"195":0.012394217740047068,"196":0.14779249651980958,"197":0.0343209301001478,"198":0.004283038254925285,"199":0.055990117361601026}},{"sx":5,"sy":5,"depth":8,"w":{"0":0.010723837169273817,"1":0.11765737132797607,"2":0.12290335708577785,"3":-0.15596202018676827,"4":0.12484293092696594,"5":0.12063794480076358,"6":0.013365022355543382,"7":-0.054218870121197464,"8":0.06912118566936803,"9":-0.04825023820644882,"10":-0.015242716655461059,"11":-0.05769761661019805,"12":-0.04938352511394111,"13":-0.03797840129981851,"14":0.04592333328881221,"15":-0.015137395087504248,"16":0.05984930297186846,"17":-0.16249604747568117,"18":-0.16682262451589536,"19":-0.14717723740172745,"20":-0.14887437590308789,"21":-0.042633860621292756,"22":0.05462781501772494,"23":-0.14928883313133948,"24":-0.053574995931324663,"25":-0.1862116944938336,"26":-0.025651481259438093,"27":-0.1549715667968604,"28":0.02605174348243242,"29":0.05429500744246907,"30":0.03717054972898457,"31":0.11761716733686274,"32":-0.0828454287082426,"33":-0.06571609981916358,"34":0.15114793080378594,"35":-0.03979556564291648,"36":0.013720900760537393,"37":0.2980201062662639,"38":0.0757900701647408,"39":0.24504716068584506,"40":-0.11789450143936296,"41":-0.036005975989140765,"42":0.043168048957841515,"43":-0.18542341296115322,"44":0.12501193735080354,"45":0.053724931806442534,"46":-0.18976209589782922,"47":-0.031227035979599894,"48":0.1366223319359891,"49":-0.10935096031916841,"50":-0.1323131003427632,"51":-0.11078362929065702,"52":-0.10269493772292541,"53":-0.09908458326345831,"54":-0.02333801798511451,"55":-0.15623182107677752,"56":0.0063910161391636106,"57":0.000718828325393593,"58":-0.1700569263825807,"59":-0.012522975112427687,"60":-0.12005736196228413,"61":-0.17010381157986348,"62":-0.05993371963136477,"63":-0.1960412483353259,"64":-0.034510928861549287,"65":-0.0025771377374366276,"66":-0.12513245181681812,"67":-0.09281699679491054,"68":-0.06940947480889567,"69":-0.07943571898137498,"70":-0.025809015899648496,"71":-0.01237948830136531,"72":-0.019404321506828397,"73":-0.22868349090489334,"74":0.039405192734066743,"75":-0.31435113023991673,"76":-0.23165784115322843,"77":0.10421167014200032,"78":-0.00593670893874734,"79":0.020278118859502443,"80":-0.04233687712028416,"81":0.10819704463763649,"82":0.005611007113122588,"83":0.006371391100852345,"84":-0.09086201006047058,"85":0.07643684813459505,"86":-0.00624828305283563,"87":0.02045874311971311,"88":-0.049001211477384926,"89":-0.04791081470444537,"90":-0.0654975881637831,"91":0.005833098958872226,"92":-0.07910846158232458,"93":-0.2575550536221987,"94":0.04518242462849352,"95":0.045056990925313276,"96":0.09654593835972054,"97":-0.17940093610425337,"98":-0.08034343306008752,"99":-0.07843471827776756,"100":0.05651520246931625,"101":-0.17833808139232019,"102":-0.09422945314608301,"103":-0.12900489675081317,"104":0.12469227465856345,"105":-0.048355100298541884,"106":-0.0901444800215378,"107":-0.08673337973756952,"108":0.010469017812755192,"109":-0.1490213633324192,"110":-0.05528488546855361,"111":-0.12638112091959874,"112":0.06418706856461008,"113":-0.1084669066031101,"114":-0.12562680573115254,"115":0.09504590744486642,"116":-0.07086063693179483,"117":-0.1520315738270137,"118":-0.1567879549060745,"119":-0.22473731444352196,"120":-0.06586806807569007,"121":0.1256132025016176,"122":-0.041900994843307754,"123":0.07455498183147363,"124":-0.07401156092710787,"125":-0.06810369850080211,"126":0.12597618739894986,"127":0.197052186066321,"128":0.012732322718736033,"129":-0.10020556429110528,"130":-0.18682167224770208,"131":-0.0441319852420417,"132":-0.04803407818656871,"133":-0.06452398300702473,"134":0.157032788396307,"135":-0.18848776970286366,"136":0.003534959053479359,"137":-0.06941493185018241,"138":-0.08593473577414994,"139":-0.00631140675584791,"140":-0.026088092606812045,"141":0.0453948409094051,"142":-0.13825780505885418,"143":-0.1057071625904504,"144":-0.02477642410375296,"145":-0.0737647812352288,"146":0.03768505215875402,"147":0.020153743822081672,"148":0.11802495050503581,"149":-0.08283685908495896,"150":-0.20751552896561365,"151":-0.1284721380964817,"152":0.02826773249143831,"153":-0.06731762130362011,"154":0.01851010883213948,"155":0.08804723496870344,"156":0.20199630927498868,"157":-0.041044469959147706,"158":-0.11730147524119265,"159":-0.06678211104360189,"160":0.0365329173657436,"161":-0.06491203386199615,"162":-0.03052339977327974,"163":-0.09639507516234452,"164":0.05327145821586615,"165":-0.24068497419190032,"166":0.05272457730986909,"167":-0.12474699604768372,"168":0.07302250969757189,"169":-0.1467486010969919,"170":-0.06415978207379518,"171":-0.20686526945178385,"172":-0.03606469843015732,"173":-0.07521680174825107,"174":-0.045168876484560035,"175":-0.12198381890170105,"176":-0.0951103360671264,"177":0.04396734724119536,"178":-0.1336737785372749,"179":0.03650199160874153,"180":-0.0021630042947449082,"181":-0.072948510001719,"182":-0.18984217471267983,"183":0.21551926914329475,"184":-0.037341937749263164,"185":0.12175653565850841,"186":0.2585234379227928,"187":0.112193022863148,"188":0.15026674073115365,"189":0.24230736979897194,"190":-0.11792943337346504,"191":0.05804765188885584,"192":-0.19126512024291434,"193":0.040007066679457685,"194":0.13533337261509415,"195":0.014141646275102332,"196":0.0578213980510025,"197":0.09677588034212413,"198":-0.06200106113004217,"199":0.1132141941187508}},{"sx":5,"sy":5,"depth":8,"w":{"0":-0.057880898376939216,"1":-0.035572369115887695,"2":-0.055392208630534276,"3":-0.19944077436939261,"4":-0.0547395276884167,"5":-0.22478447838920335,"6":-0.05828810617690071,"7":-0.16370864566857288,"8":-0.1848823789039573,"9":-0.15558089074217332,"10":-0.045369047925556585,"11":-0.14605303101381145,"12":-0.0009063300230445643,"13":-0.003934224269031927,"14":-0.07566107128176129,"15":-0.02033516587569731,"16":0.008797147412244749,"17":-0.22338767961590045,"18":0.007078919267453819,"19":0.053917456276366696,"20":-0.07719891926562614,"21":0.14221731310658745,"22":-0.028338604740747647,"23":0.31900305653727956,"24":0.017977272573151067,"25":-0.03546611020456662,"26":-0.07038474390228473,"27":0.01528432045811664,"28":-0.3251504687095431,"29":0.036600009931828985,"30":-0.08664713228012412,"31":0.119190625126572,"32":0.09985254795425115,"33":-0.04735093270730155,"34":-0.00974486349185051,"35":0.07522830016658656,"36":-0.1443886836414717,"37":-0.11283039571513415,"38":-0.04331951316082195,"39":-0.13969033382734003,"40":0.008081950326882702,"41":0.11505858452487808,"42":-0.1033500058675144,"43":-0.23451998848522304,"44":0.00890205432221907,"45":-0.08064904906892613,"46":-0.038944212902621074,"47":-0.1479375298884691,"48":0.21650897293791732,"49":-0.04590765038883079,"50":-0.00476516974579029,"51":-0.08017958429844549,"52":0.0006414572824926327,"53":-0.09482606108065968,"54":0.019951704336064368,"55":-0.05804267844352099,"56":0.2345508894735846,"57":0.015580827212859964,"58":-0.13124244088291673,"59":0.039524358889235965,"60":0.1165758700591965,"61":-0.21787393358425441,"62":-0.028459796502174225,"63":-0.043528963871108814,"64":0.04477953326042073,"65":-0.009318070624044897,"66":-0.0026562982284653843,"67":-0.0021224964797491876,"68":0.13951679020655902,"69":0.0636765288920711,"70":-0.08186674685269785,"71":-0.16371637706040473,"72":0.030876920546047293,"73":-0.14735797767791411,"74":-0.12464123873196185,"75":-0.02892505737929804,"76":0.05103781909602902,"77":0.038833848460790785,"78":-0.05767377187987085,"79":-0.189902055419271,"80":0.046705346455157885,"81":0.08563720842432677,"82":0.15472643064646913,"83":0.12929868854462703,"84":0.07055106893054261,"85":-0.09915562844437108,"86":-0.12950664070161244,"87":-0.0021870388638841327,"88":0.0045928932191166205,"89":0.18385907461830464,"90":-0.05519224811005829,"91":-0.10826846796731374,"92":0.026693203461248795,"93":-0.1300051443365443,"94":-0.19894828888094987,"95":-0.0029526670272035853,"96":-0.07483770542858303,"97":-0.023086507372864978,"98":0.004403948475370114,"99":-0.12742436358391118,"100":0.2208087932072357,"101":-0.25666592320139187,"102":-0.23379999254913295,"103":-0.1192012231704606,"104":-0.10611573662580276,"105":0.1680988428257387,"106":-0.19100056781319302,"107":-0.0018312568254587659,"108":0.035061777307411855,"109":-0.12648477730114538,"110":-0.027648563603214046,"111":-0.20636630018708868,"112":-0.09946689068469704,"113":0.10588517017064647,"114":0.03071692205631989,"115":0.06505708159092623,"116":0.05870952221572123,"117":-0.019563923667716032,"118":0.13465069492690193,"119":0.022898850775562016,"120":-0.23889452904751976,"121":-0.13780452631484844,"122":0.0209693086558058,"123":0.22232011641024874,"124":-0.08470913780838478,"125":0.020916134817175695,"126":0.1447171104620894,"127":0.2799532895366966,"128":-0.06996075335879186,"129":-0.01490196296987448,"130":0.08929787629055276,"131":0.0677327433611441,"132":-0.06612952339069857,"133":0.20370081211299518,"134":0.009641267778205016,"135":0.2953734743684692,"136":-0.11171873113559681,"137":-0.008297156882336143,"138":0.11946384176584554,"139":0.1576975028707512,"140":-0.20155239477895187,"141":0.13661790791289144,"142":-0.0690260179242351,"143":0.2521643491522731,"144":0.09165440944378704,"145":0.10476850991355073,"146":-0.014441366572202964,"147":0.08350201688410742,"148":-0.0586428026322115,"149":0.07445614379923482,"150":0.07522670830615046,"151":0.21373047168307494,"152":0.007301392948139697,"153":-0.06142628413560103,"154":-0.08055075059287965,"155":0.0921314956194673,"156":0.033094640600347155,"157":0.028226810627316176,"158":0.1914874975933036,"159":0.25741413619083353,"160":-0.046741387568608884,"161":-0.11236443190954411,"162":-0.02819987725021962,"163":-0.01924537819846351,"164":-0.3030820479981107,"165":0.13842328543342056,"166":-0.033207828861913966,"167":0.1553060084672312,"168":-0.12920819786637144,"169":-0.053264480334526305,"170":-0.0602283338065105,"171":0.032085897376575696,"172":-0.03470326716672158,"173":0.1148177912046394,"174":-0.07960949586531743,"175":0.056194281156877586,"176":-0.14746496214571775,"177":-0.12092169323981755,"178":0.13068413571458795,"179":-0.030957848043270543,"180":-0.2393542634262109,"181":0.011881707180792397,"182":-0.16181046391112577,"183":0.026357635749029742,"184":-0.14141723726469305,"185":-0.05936465863626167,"186":-0.0013336327838679605,"187":-0.12829692148638525,"188":-0.02184131537334278,"189":-0.09849124031278755,"190":0.09295528490988142,"191":0.03738901593583716,"192":-0.17191455508172993,"193":-0.03444541405441172,"194":-0.002237503357919049,"195":-0.029940867899852276,"196":-0.10797152774378493,"197":0.05407518797999832,"198":-0.15238245991160926,"199":-0.10834438626730407}},{"sx":5,"sy":5,"depth":8,"w":{"0":0.10996532976824148,"1":-0.021006936283813657,"2":0.04118707698872382,"3":-0.2041673236195029,"4":-0.028124169512992816,"5":-0.07031933749003336,"6":-0.0696030755490643,"7":-0.08606746499084711,"8":0.0009595838607830195,"9":-0.07151052427360442,"10":0.013599689946029322,"11":-0.07429973144517667,"12":-0.02767617231285826,"13":-0.15285326107483285,"14":0.23600778522282867,"15":-0.19526339989347913,"16":-0.18980773668240683,"17":0.042531313518943084,"18":-0.1108139142931421,"19":-0.066848371372593,"20":0.0759791085015276,"21":0.005453905154585413,"22":0.1219581009869042,"23":-0.24585388857092993,"24":-0.17277004157568104,"25":-0.08127473088106027,"26":-0.04525078304428713,"27":-0.07369362548692979,"28":-0.12968638948949698,"29":-0.08741746051046713,"30":-0.05181595919153265,"31":-0.06893614679427154,"32":0.14471820277384342,"33":-0.1626387290926557,"34":-0.08704237152553779,"35":0.005840837238163153,"36":-0.06321794482434971,"37":-0.21963229350604613,"38":0.017747677249247366,"39":-0.022028774481095265,"40":0.04168607488601707,"41":0.025519330825833967,"42":-0.13133978551631226,"43":0.12196994693465332,"44":-0.00041133236765603955,"45":-0.06545293591154229,"46":-0.0010240908356283279,"47":-0.13946507815133874,"48":0.08213680453611699,"49":0.045325074324947444,"50":-0.04196291519787812,"51":-0.053791296573336984,"52":0.03978192127130137,"53":0.07317774178574013,"54":-0.026432126648138488,"55":-0.19690861526849324,"56":-0.1802028888844174,"57":-0.03133809244427949,"58":0.017285847586251738,"59":-0.1811389050833333,"60":-0.16124264307755995,"61":-0.11089472163822948,"62":-0.08746017979747385,"63":-0.04156175395057843,"64":-0.08883396241782468,"65":-0.1041793263852121,"66":-0.1358073415425988,"67":-0.01563211255358065,"68":-0.22082563799444369,"69":-0.20968477232053326,"70":0.02666609688241939,"71":-0.009271995879165017,"72":-0.0474645740675416,"73":-0.23024298344752284,"74":-0.0894691252974127,"75":-0.18787912179763358,"76":-0.12535226224327556,"77":-0.06327928315919844,"78":-0.06712884430194377,"79":-0.06856059090169944,"80":-0.0004200984253925191,"81":0.14058873105436767,"82":-0.01905648356647195,"83":0.06391191740110058,"84":-0.033367957745082596,"85":-0.034259905776440856,"86":-0.08572412730544743,"87":-0.07380163652763932,"88":-0.033724637324744546,"89":-0.012839481320292775,"90":-0.01376020763584141,"91":-0.06642836181312364,"92":0.04295942666339747,"93":0.13128231357108913,"94":-0.10515924147113632,"95":-0.13662755661019146,"96":-0.03992379583352679,"97":0.08323768730235795,"98":-0.033572183634216005,"99":-0.17710631777414276,"100":-0.19181332422860764,"101":-0.019719119505861252,"102":-0.08742508370432273,"103":-0.2325296457224024,"104":-0.06852444928001715,"105":-0.06696023044672184,"106":-0.20364590676131727,"107":-0.18915997600338144,"108":-0.10796296039500715,"109":-0.2243422022294105,"110":0.0033816828417742033,"111":-0.2210591546244615,"112":0.0020527900777901663,"113":-0.001996713193201748,"114":-0.06198652344322417,"115":-0.2643899483693408,"116":0.04288354600133011,"117":-0.1148451000936472,"118":0.09055787818250115,"119":-0.13547606194890824,"120":-0.03626094997162198,"121":0.124846917522536,"122":0.11713986086675048,"123":0.040018621378520844,"124":0.02893707533438207,"125":0.07676527163455615,"126":0.061386433396790376,"127":-0.047861249060922026,"128":-0.0766415444490586,"129":0.0966616694173907,"130":0.057344195909527114,"131":-0.06808897691537973,"132":0.08781397436501205,"133":0.0718750817319304,"134":0.12728507274575113,"135":0.023925020464367945,"136":-0.1076562533551135,"137":0.11470983950449823,"138":0.0242163137267468,"139":-0.010771155007479431,"140":0.08616710511838052,"141":0.04692212015505307,"142":0.016238209130237442,"143":-0.004759797923216756,"144":0.05223916315873988,"145":-0.001480109052642132,"146":-0.0013623117917795542,"147":-0.07562897106768487,"148":0.04746730606248437,"149":-0.1392282547307598,"150":-0.11975884534192685,"151":-0.12043566530563035,"152":0.02319142266622134,"153":0.21357346355226883,"154":0.011110181462358645,"155":-0.10580495157632473,"156":-0.13865893179869926,"157":-0.07691578566700502,"158":0.034484075676128205,"159":-0.1784110970083115,"160":-0.14356649265088164,"161":-0.0635518502608367,"162":-0.08721520568400853,"163":0.08844327132070506,"164":-0.16529714257856637,"165":0.12112021955800654,"166":0.1619410406166773,"167":0.24070554874000832,"168":-0.05326516255255274,"169":-0.07410587070619384,"170":0.06813624619243765,"171":0.012844447663496029,"172":-0.05814331450788969,"173":0.13169143712783712,"174":0.14393222047365106,"175":0.11639971221974002,"176":-0.03541884478116282,"177":-0.12082474293665206,"178":0.18806514091869975,"179":-0.07268972324573106,"180":-0.08617205561516471,"181":0.20979320048373432,"182":-0.04190323558312936,"183":0.2745059394711048,"184":-0.1625640269259586,"185":0.06076152395050056,"186":0.18659185827214586,"187":0.14784213825536968,"188":-0.05894410897138134,"189":0.06122854989027936,"190":-0.1378563326582044,"191":0.16206803886111093,"192":-0.1586781886864144,"193":0.08299346007214126,"194":0.006111872592067074,"195":0.1566292479667788,"196":-0.12909479798231296,"197":0.09735910590434037,"198":-0.14813365289285843,"199":0.15423859467286583}},{"sx":5,"sy":5,"depth":8,"w":{"0":0.04552922038279332,"1":0.08047571604030604,"2":0.0823044127186483,"3":-0.0727512909782375,"4":0.10012014494443405,"5":-0.00547873545873291,"6":0.05737594536471679,"7":0.05546033963864093,"8":0.04347999209821787,"9":-0.030408677454259143,"10":0.012774035967647637,"11":0.01903769098568757,"12":-0.06812110060413203,"13":-0.14685133304412845,"14":0.017580430355203788,"15":0.12499077502390525,"16":0.10657920490507272,"17":-0.07875479168687785,"18":-0.037409752394454696,"19":0.07163391316538767,"20":-0.12709980135031745,"21":-0.12745631170159816,"22":0.06711965168678632,"23":0.0779028073779449,"24":-0.008687862595800563,"25":-0.10425789117326797,"26":-0.14429407472699973,"27":0.1234886396729267,"28":0.08363546010594124,"29":0.18045269217343113,"30":0.0013329441053588098,"31":0.010600965847487206,"32":0.1544663029251688,"33":-0.1450842265594832,"34":0.11485758521304763,"35":0.19503885911673385,"36":0.021872450907626247,"37":-0.006043210071479771,"38":-0.06110907621444755,"39":-0.0799571352585744,"40":-0.05389960792904506,"41":0.051990891554877114,"42":0.00844983401332766,"43":0.10654394666969377,"44":-0.09371779845096571,"45":-0.07725796708836713,"46":-0.10011866496159201,"47":0.09330968568735049,"48":0.20727121494679532,"49":0.12871576007067212,"50":0.13229729357761982,"51":0.2728315366326233,"52":0.07976880728012059,"53":-0.002167068354614519,"54":-0.0000956843751834056,"55":0.14439222348848235,"56":0.18787862279092662,"57":0.02143239929304479,"58":0.016620427653014143,"59":-0.052013532200707265,"60":0.03388030426221643,"61":-0.0763137130805453,"62":-0.04710547861013619,"63":-0.016020877550904943,"64":-0.09919494756501765,"65":0.09872789337852311,"66":-0.0387782599856692,"67":-0.22816591893032814,"68":0.23521183855781938,"69":-0.008089146804199194,"70":-0.08629707634344977,"71":-0.13633445025382906,"72":-0.07727401543560451,"73":0.0768713797595516,"74":-0.2077531294795691,"75":0.09853304859527894,"76":0.15082473879158492,"77":0.009106009906550484,"78":-0.13527948100310697,"79":-0.15820335644506212,"80":-0.0892678699350641,"81":-0.08374258004200448,"82":-0.009350159963625298,"83":0.022658922538832643,"84":-0.03500477859246665,"85":-0.012232024493740726,"86":0.059647436769150096,"87":0.1027204408825923,"88":-0.13870260692069086,"89":-0.02321215782697347,"90":0.09666470274302569,"91":-0.08684482328299356,"92":0.03979328621649884,"93":0.09678978686993228,"94":-0.017634455355284198,"95":0.10534327726663022,"96":-0.0026915866875052586,"97":-0.010132692236537467,"98":0.1271623923212133,"99":0.15908662858731953,"100":-0.11300187619253493,"101":-0.03618242865886452,"102":-0.11451957395749632,"103":0.3402288589099118,"104":-0.006302730112981825,"105":0.1279945608037842,"106":-0.07509907067642128,"107":0.10927429026016,"108":-0.05322764595584262,"109":0.04716878390942483,"110":-0.10421010974463243,"111":0.1288494204641895,"112":0.018123747756084635,"113":0.018569504146980793,"114":0.019703350610593157,"115":0.27525908236387664,"116":-0.1008991264017986,"117":0.09632010376767457,"118":-0.04102591810935472,"119":0.1503052292795752,"120":-0.13901307245917177,"121":-0.1092289158345219,"122":-0.2015401933317532,"123":0.053371608068686724,"124":-0.11575375564116369,"125":-0.05992845132487345,"126":-0.08965133305445251,"127":0.0649118511994365,"128":-0.04299278112502687,"129":-0.1319123396884005,"130":-0.029728897546068823,"131":0.001876027086136601,"132":-0.20957407712116932,"133":0.047966883091271235,"134":0.020840910639587547,"135":0.04174345675379744,"136":-0.1690958911416716,"137":-0.24124629253740731,"138":0.05156258863572286,"139":0.17891080896517034,"140":-0.1544083595490859,"141":0.2833996679953681,"142":0.044920940685570974,"143":0.23206019979937034,"144":-0.003977079000733018,"145":-0.2630269449548511,"146":-0.12195158289936596,"147":0.07931414171980278,"148":-0.029730513367619147,"149":0.03665005845430199,"150":0.0786751517575883,"151":0.23351408605175886,"152":-0.10461066840659633,"153":-0.029977204357790846,"154":-0.08176416698491827,"155":-0.05439089844805671,"156":-0.1323452775509842,"157":0.04385459394455272,"158":-0.07982820928236257,"159":0.23860113167632455,"160":0.12556708092554095,"161":0.040326560007194596,"162":-0.0697374371238988,"163":-0.12387236015338991,"164":0.006389666158642347,"165":-0.03597583972850311,"166":-0.1519056543972827,"167":-0.15517209923289388,"168":0.23715944982423007,"169":0.11573655933837357,"170":-0.07911202559540244,"171":-0.1797597392132659,"172":-0.061686810313983785,"173":0.0017181441399268592,"174":-0.019765897441234505,"175":-0.1869806692371317,"176":0.04498505267591549,"177":0.03896078958745352,"178":-0.01681006155232566,"179":-0.2466300275463367,"180":-0.014605729645589146,"181":-0.35732206728407573,"182":-0.07397244165739514,"183":-0.10427137932687494,"184":-0.11798551707530089,"185":-0.06758137292655281,"186":-0.08786332285771487,"187":-0.2171175934103375,"188":0.17709737848556592,"189":-0.19327886632035082,"190":-0.03271145187446646,"191":-0.1912606785045444,"192":-0.10424133139979862,"193":-0.07356327733436892,"194":-0.14018836909846816,"195":-0.07695450763494628,"196":0.18592778478825123,"197":-0.09328648723073152,"198":-0.16061179349564303,"199":-0.26701149337742713}},{"sx":5,"sy":5,"depth":8,"w":{"0":0.11764955259818653,"1":-0.037442950737411114,"2":0.051190815968418395,"3":0.0045107165416704105,"4":-0.09854532425610217,"5":-0.024184380995074122,"6":-0.04591991404857098,"7":-0.15504576531874842,"8":0.0826550992356513,"9":-0.0650920593490236,"10":0.01060347160741619,"11":-0.0391343599178301,"12":-0.08045435178800785,"13":0.014528515023493763,"14":-0.0930096169019424,"15":-0.24346540948127776,"16":-0.07501873370836455,"17":-0.08031465985111537,"18":0.007828131000998443,"19":0.009801031747140627,"20":-0.002247596798720915,"21":0.04340683668862274,"22":-0.19928573219194085,"23":-0.06757217698853932,"24":-0.049595946371970255,"25":0.10359575183667301,"26":-0.013748151491767497,"27":-0.02226144446149671,"28":0.06735730383619364,"29":0.03718378615161777,"30":0.06200483144430454,"31":0.17460059457223265,"32":-0.14915526316683708,"33":-0.09558350525573951,"34":0.09281043421343538,"35":0.01753968899919645,"36":-0.17834965552708876,"37":0.14538339996319605,"38":0.0982714928967632,"39":0.266964320371585,"40":-0.028984530017839894,"41":-0.009756034904490124,"42":0.09034652661995478,"43":0.060105319013313466,"44":0.1264854071111899,"45":0.07982446024844123,"46":-0.0849635937577231,"47":-0.3536621781600836,"48":0.04815861797394412,"49":0.02140951546987496,"50":0.03808225365694272,"51":-0.09468253374513831,"52":0.13438255005558514,"53":-0.025342021296907113,"54":-0.01745240102178969,"55":-0.29536338721735367,"56":0.022672950760488746,"57":-0.03352315248973089,"58":-0.041937591724942914,"59":-0.07562728665884726,"60":-0.1062446943141081,"61":0.045114232664851345,"62":0.06574080766512831,"63":0.011364718650199869,"64":0.03497212921211991,"65":0.08809809836823064,"66":-0.029040469885667546,"67":-0.07630789922147413,"68":-0.10319933510622879,"69":-0.0415030731000215,"70":0.13621904148800235,"71":0.04236549010646112,"72":0.11646775356602122,"73":-0.0165435778308887,"74":-0.16276876170755378,"75":-0.161834242345901,"76":-0.10450414368542985,"77":-0.11860054662449336,"78":0.03694289088396368,"79":0.05294706000094236,"80":-0.18338181692189343,"81":0.05392560296844845,"82":0.08924903777573163,"83":-0.2719605360128183,"84":0.1395935230932633,"85":0.10717457877071361,"86":-0.21514247486248483,"87":-0.39554609536141916,"88":-0.03946026187763439,"89":0.03518949819170129,"90":-0.06252289168201844,"91":0.02085964866624431,"92":0.004885892076880354,"93":-0.10584170585995725,"94":0.04070733273916159,"95":-0.07478466256029996,"96":0.1453440926379711,"97":-0.2459843816693183,"98":-0.17668760628586497,"99":0.1262478789792911,"100":-0.19298962000558395,"101":-0.07342825639845678,"102":0.016716917076637177,"103":0.0775477873888132,"104":-0.049878660448977416,"105":-0.11383094060247516,"106":0.007315910052775098,"107":-0.1501198143189904,"108":-0.06447213489758812,"109":-0.02965433802156544,"110":-0.0859992082382197,"111":0.0011050100285774469,"112":-0.09095954157571173,"113":-0.16470625468664793,"114":-0.16235947287403743,"115":-0.1386966371459858,"116":-0.2153724009259117,"117":-0.21400213413640534,"118":0.022748952088031637,"119":-0.042047679683332645,"120":-0.2079208345188274,"121":-0.04489332688911215,"122":-0.12237654816427869,"123":-0.03128324661562132,"124":0.0375743487192799,"125":0.04713446079690048,"126":-0.11336946152193128,"127":0.06642520713736691,"128":0.010159490714133296,"129":-0.08316495205465266,"130":-0.19241560865309273,"131":0.012325469302886496,"132":0.06554775242822626,"133":-0.21051840567058905,"134":0.13871474645938978,"135":0.030747039353948565,"136":0.14988376161763894,"137":-0.17719418389159616,"138":-0.2117284610182039,"139":-0.09760443232638111,"140":-0.060728881298141434,"141":-0.13888932743949559,"142":-0.08589114252580123,"143":-0.02532079037253968,"144":-0.06152446497577916,"145":0.021581691573956757,"146":-0.15702657700985234,"147":-0.0627496984941277,"148":-0.06837525760343705,"149":-0.17907901918978636,"150":-0.05118333995207453,"151":-0.05874182330784937,"152":0.023197754884717744,"153":0.016547386432767864,"154":0.0011860625551772936,"155":-0.23014814420559565,"156":-0.12922196011143064,"157":-0.19134128755280083,"158":-0.07531967926958996,"159":-0.06088634587718587,"160":0.2481489474997051,"161":0.04380086777969246,"162":0.08839128533390334,"163":0.16884590387786186,"164":-0.21988219119168673,"165":0.029257297349230414,"166":0.14966740383170807,"167":0.043873933843399125,"168":0.01332467182902798,"169":0.13248793469323428,"170":-0.08854502722573883,"171":-0.012804969226485248,"172":0.1649189727132093,"173":-0.10443685495588267,"174":0.11520281859431719,"175":-0.20376437226922872,"176":0.003785697314355545,"177":0.2098790569167775,"178":-0.04798874206709852,"179":-0.13016690527181618,"180":0.15642357208627886,"181":-0.1880543271750086,"182":-0.21704078789929285,"183":-0.0799922516291114,"184":-0.014574745959745174,"185":0.09628862555154755,"186":0.05905421164988895,"187":0.015618579042958887,"188":0.07717845914383836,"189":-0.005249097697370747,"190":-0.11021993299150606,"191":-0.11052370782226063,"192":0.06625691176755238,"193":-0.09229721675024938,"194":-0.14763429702771366,"195":0.0653442291860025,"196":0.0587609070177785,"197":0.07204207374315247,"198":-0.1884133134658689,"199":0.03315999449996422}},{"sx":5,"sy":5,"depth":8,"w":{"0":-0.02539170789751734,"1":-0.06524179072665644,"2":0.016479340403720254,"3":0.0777236205153383,"4":-0.07441713759816788,"5":0.028924193152034795,"6":0.01830499978185019,"7":0.05092970557108452,"8":-0.02843928129369461,"9":0.05861963227184093,"10":0.11428617764486702,"11":0.12376093710089327,"12":0.1087334573690917,"13":0.11762329345685639,"14":0.09870375077783464,"15":-0.15703742940875468,"16":-0.023808389441687446,"17":0.23813952168967226,"18":0.3005400584052637,"19":0.021256847763178818,"20":0.0797876039480872,"21":0.1418801853081011,"22":-0.13614408548906815,"23":-0.07239555931032599,"24":0.08166247310467047,"25":-0.10494221597751394,"26":-0.01191569852720161,"27":-0.036427446250094524,"28":0.015671088353218163,"29":-0.12236429430712255,"30":-0.0745079161796787,"31":-0.1765993298160729,"32":0.06836375614776789,"33":-0.18771191682637425,"34":-0.14443868328149892,"35":-0.16669950293741428,"36":-0.16540521386385787,"37":-0.17785377059118637,"38":0.10384610926240474,"39":-0.07321719068969694,"40":-0.07558975780699269,"41":-0.15840057359833692,"42":-0.08408704159590731,"43":0.13995718509103683,"44":0.0035662822607354845,"45":-0.05483044202065514,"46":-0.13695469729180063,"47":-0.02581386435282235,"48":0.06567466506576576,"49":0.06557321230578365,"50":0.03415300148404096,"51":0.14606520444650617,"52":0.0598149952071772,"53":0.14636773666787667,"54":-0.1819139154686211,"55":-0.13524949140897605,"56":-0.1734144800664701,"57":0.16847905419500714,"58":0.12987376569336814,"59":-0.10864786348540767,"60":0.01800401482169926,"61":0.06583759651699225,"62":-0.04970525314232837,"63":-0.1596222011445231,"64":0.040650069633703025,"65":-0.02953265479419215,"66":-0.32384516967811955,"67":0.11298109475060361,"68":-0.2849349034770669,"69":-0.060479389660067884,"70":0.15890702932700174,"71":0.0438442152949559,"72":0.13649145859383122,"73":-0.21692014506760393,"74":-0.21806521159608602,"75":-0.008025535938340983,"76":0.02070085730697468,"77":-0.1135078152971586,"78":-0.05913787381248957,"79":-0.12612873203655406,"80":-0.2006786675285349,"81":-0.008078356519496706,"82":-0.06820601547271955,"83":0.06936501883915375,"84":0.11541373191654344,"85":0.05589877515847412,"86":-0.12156349732626133,"87":-0.19553035130050903,"88":-0.11866099162018175,"89":0.14368327563838298,"90":0.1733287275288306,"91":0.0596508312064208,"92":0.10000579957273374,"93":0.04786576462970505,"94":-0.17096265621622234,"95":-0.0660935818979885,"96":-0.03636264950620601,"97":0.16197476795382068,"98":0.1329103943823878,"99":0.006349639913725593,"100":-0.012829935000314648,"101":0.08173655978012488,"102":0.08323481360528065,"103":0.08190203220272521,"104":0.17085881951580817,"105":-0.120283619221084,"106":-0.3501773094772596,"107":0.08851337962629317,"108":-0.18947315893844383,"109":-0.23871792708010606,"110":0.21919016909124356,"111":0.11565406142804603,"112":-0.08064098082322395,"113":-0.0017796693912077543,"114":-0.024362702581300865,"115":-0.1046536992507408,"116":-0.039743557714693185,"117":-0.21767947744069732,"118":-0.03490168588132264,"119":-0.12816731408342463,"120":-0.08614802141307719,"121":0.06475604591782577,"122":-0.012428942503523034,"123":-0.030408939690412445,"124":0.09975677274242277,"125":0.030864209266947638,"126":-0.04954372375326472,"127":-0.19614966809297824,"128":-0.2596643783529777,"129":0.08414475835795703,"130":-0.02824427534923016,"131":-0.058192503010071055,"132":0.07327627658685601,"133":0.08706954290475359,"134":0.05950254834926963,"135":0.038893520348248965,"136":-0.02405943178063563,"137":-0.017045754868684534,"138":-0.09101759849977069,"139":-0.05852282376248336,"140":-0.044569213195356075,"141":0.005659461161840516,"142":0.29618339030629864,"143":0.07227785383300162,"144":0.08761936589975783,"145":-0.15046785390111367,"146":-0.14399850841237272,"147":-0.10222867036849985,"148":-0.04331167883216427,"149":-0.11901235190105892,"150":0.17856127853217355,"151":-0.009015660421594145,"152":-0.148834222540833,"153":0.04018590605233015,"154":0.08734899897506422,"155":0.008266693592554967,"156":0.043773045238796354,"157":0.12395407333952425,"158":-0.07378134172697193,"159":-0.2170905126451312,"160":-0.09261611166473918,"161":0.029164192457304804,"162":0.1767428896100342,"163":-0.000964232106662,"164":0.07111928569575539,"165":-0.058006705057230185,"166":-0.30568903436261313,"167":-0.11917493921985577,"168":0.03857064253163739,"169":0.1568175652199459,"170":-0.052458226793993305,"171":-0.07301819484153803,"172":0.0028457444317031362,"173":0.03807727260209232,"174":0.04826256223498906,"175":0.008794779629484,"176":0.08022566232321597,"177":-0.030864825685160767,"178":0.00018562489614954212,"179":0.15971299110296958,"180":0.09200241302489796,"181":-0.004881510777726486,"182":0.08994092545610256,"183":-0.104305480351835,"184":0.013890925681039073,"185":-0.10315143814110278,"186":-0.026020257751535436,"187":0.007249717818050588,"188":-0.008219800042964624,"189":-0.04391007611210943,"190":-0.18924968028346575,"191":-0.13111603268497912,"192":-0.07105203068523111,"193":0.13129355311110213,"194":-0.03959612735215208,"195":0.10342520553685036,"196":0.057910746137931006,"197":-0.023550473818283943,"198":-0.17163901648053892,"199":-0.030980131637102802}},{"sx":5,"sy":5,"depth":8,"w":{"0":-0.019175703964362717,"1":-0.04450833455083688,"2":-0.16200211498789102,"3":-0.042809122600545604,"4":-0.011107026000916459,"5":-0.07133722000502445,"6":0.10162838698557188,"7":0.17044888339433484,"8":0.024669040553782096,"9":-0.12399981907584279,"10":0.022864595949095748,"11":0.011185061625585245,"12":-0.09763804362242251,"13":0.022485184753191587,"14":0.07992407257260352,"15":0.1167668445141329,"16":-0.01651852231237304,"17":-0.04765485165544052,"18":0.05667698194806786,"19":-0.019550662753796758,"20":-0.05287932275105465,"21":0.16354993102579385,"22":-0.1622984558801217,"23":-0.03436564810984211,"24":-0.017056138941751727,"25":-0.08424345632565258,"26":0.14579873703823382,"27":0.06966473772413183,"28":-0.039896771379421214,"29":0.04693391852825689,"30":-0.05855277766581747,"31":-0.19508733717381305,"32":-0.0026196750182413335,"33":0.0752060248881209,"34":0.006713490065856938,"35":-0.1311730887086394,"36":0.11877493599447758,"37":-0.01493832235729634,"38":-0.07288868266433153,"39":-0.30507219604701935,"40":0.09986467306665496,"41":-0.10196359631200229,"42":-0.033163628435820894,"43":0.03008482686442914,"44":-0.07426521252337592,"45":-0.010877515530936953,"46":0.0373231718671266,"47":-0.04404168411018873,"48":-0.12566294436995507,"49":-0.058786553357159745,"50":-0.052584683283352515,"51":-0.0018430845592000194,"52":0.03146801032519774,"53":-0.14782873801849195,"54":0.11242990811778984,"55":0.06441685916251814,"56":0.13482215543072895,"57":0.07388837464240441,"58":0.0759019243743976,"59":0.08391412897519716,"60":0.15585105527285473,"61":0.03312436786935007,"62":0.007605767389982727,"63":-0.2307241954118949,"64":0.18775393804962184,"65":-0.04966292009657952,"66":0.01290974551768936,"67":-0.22065403226006727,"68":0.1425350517843726,"69":0.05841918195396212,"70":0.023947509519258215,"71":-0.10311234734377461,"72":-0.0920250702494087,"73":-0.08068881597168905,"74":0.009960924191091198,"75":0.11073422256456159,"76":0.10301775316289742,"77":-0.034047333726037826,"78":0.01160645575672335,"79":-0.12249992090836309,"80":0.16284044064065456,"81":-0.11598803463918418,"82":-0.01590078974044742,"83":-0.038342557727589203,"84":-0.07428203414763898,"85":-0.1250257822414642,"86":0.04300138848266765,"87":0.07602031657865875,"88":-0.011196605212000395,"89":-0.050970718533317715,"90":0.11337013423473177,"91":0.28078395398777295,"92":0.029156635056640855,"93":-0.044246715065248146,"94":-0.06364380998755821,"95":-0.059378402839269206,"96":0.06265361412805263,"97":0.05047569763978789,"98":0.2284814190672942,"99":0.1957845035386517,"100":0.20115340444295687,"101":0.14811474143512038,"102":-0.12805979711003962,"103":-0.17719159148196664,"104":-0.11431033662495302,"105":0.10960286214688135,"106":0.1479052768672155,"107":-0.23698220146620597,"108":0.08445696442657927,"109":0.14574128302495126,"110":-0.02128692805289507,"111":0.05758974909708971,"112":-0.12573554639506904,"113":-0.014897850418744094,"114":-0.1067655888311315,"115":0.05317651022134516,"116":-0.2581175726976815,"117":0.0018408654498509988,"118":0.052693794755941215,"119":0.06465634251139149,"120":0.16903518560540487,"121":-0.24213288812989078,"122":-0.09022219445700722,"123":-0.06951983084360021,"124":-0.28105141672512934,"125":-0.13482700816563373,"126":0.27754770409548174,"127":0.0064145610498931895,"128":-0.19463165389731193,"129":-0.18195686943313763,"130":-0.06882841087378008,"131":0.12955507127930507,"132":0.06793789050818771,"133":0.12156701853704348,"134":0.12246102755660976,"135":-0.16791914767103838,"136":-0.17800811759436608,"137":0.33010378889521147,"138":0.2972361072094696,"139":0.031645772786964524,"140":0.3283603003049702,"141":0.32072822499154385,"142":-0.18133290806020536,"143":-0.2876817617250895,"144":0.013492722877420042,"145":0.05192165974264384,"146":-0.03836849868865482,"147":-0.12991777486564762,"148":-0.03192325316651054,"149":-0.0003375053327978974,"150":-0.06133016870125122,"151":-0.22260214114206048,"152":0.14615961710823927,"153":-0.14531218113923702,"154":-0.029080393792920003,"155":-0.06724788041264788,"156":-0.011413411921064641,"157":-0.25058987570360414,"158":-0.030615896553175537,"159":-0.19226143805305643,"160":0.2144880841175792,"161":-0.44049255810718224,"162":-0.2622133500410193,"163":0.025848330545770945,"164":-0.1277821331312745,"165":-0.1692023744915971,"166":0.11119413912296815,"167":-0.0018276840350453355,"168":-0.08360582865002815,"169":-0.040743608670658404,"170":0.060281744687391885,"171":-0.06458038968621753,"172":0.09501837128925786,"173":0.2739791523486376,"174":0.05584833039878221,"175":-0.23655194773714514,"176":-0.19866722833687483,"177":0.28236744716475753,"178":0.24572096628745257,"179":-0.23425020796796328,"180":0.30323344794724777,"181":0.25314291222109586,"182":-0.06291668228667038,"183":-0.12659475168918413,"184":-0.0622086887356891,"185":-0.013856981820209877,"186":0.14099452118587,"187":-0.10262555658344083,"188":-0.17851958897845227,"189":-0.09096761260145765,"190":-0.024672654319642245,"191":-0.07770109159666998,"192":0.033981940402562895,"193":-0.2280714604467789,"194":0.003913949023112129,"195":0.039933483117562785,"196":-0.10592272497963123,"197":-0.13729844019720303,"198":-0.015004672910244998,"199":0.029591015876094365}}],"biases":{"sx":1,"sy":1,"depth":16,"w":{"0":0.061729355497343784,"1":0.04494533572230339,"2":0.06102932166241725,"3":0.07157291161646029,"4":0.019724138407457847,"5":0.02618850664810029,"6":0.06999976614756767,"7":0.08663215296500629,"8":0.02742455513537723,"9":0.035891494495344796,"10":0.053317100144562056,"11":0.06081522252978666,"12":0.03956546205466138,"13":0.042788445302812415,"14":0.05941475310314536,"15":0.11532512022464123}}},{"out_depth":16,"out_sx":14,"out_sy":14,"layer_type":"relu"},{"sx":3,"sy":3,"stride":3,"in_depth":16,"out_depth":16,"out_sx":4,"out_sy":4,"layer_type":"pool","pad":0},{"out_depth":10,"out_sx":1,"out_sy":1,"layer_type":"fc","num_inputs":256,"l1_decay_mul":0,"l2_decay_mul":1,"filters":[{"sx":1,"sy":1,"depth":256,"w":{"0":-0.13194459889021357,"1":-0.1718652325765013,"2":0.022150791214019784,"3":-0.02105677692335086,"4":-0.061170023600612904,"5":0.0397978594503934,"6":0.12764925468680496,"7":-0.0791079231754099,"8":-0.13016911701125167,"9":-0.09759269366756716,"10":-0.07648581853639967,"11":-0.13418620519187444,"12":-0.08927099462656884,"13":0.02936125980024102,"14":-0.0385016202936922,"15":0.004436218498438919,"16":-0.020256617242439393,"17":0.09670774410489028,"18":-0.017068379449450298,"19":-0.12264101457645764,"20":-0.08351451470363518,"21":-0.02108338648450441,"22":-0.07048941537210263,"23":-0.07895417890593703,"24":-0.024993222030651994,"25":0.006974846216766672,"26":-0.10069185533786862,"27":-0.09529767264988497,"28":-0.013060574956946618,"29":-0.13400813777313247,"30":-0.011278647537070313,"31":-0.13792104822342915,"32":-0.041210639749587864,"33":-0.007252107213515564,"34":-0.21397206541132738,"35":-0.009972909463127675,"36":-0.16163228305939875,"37":-0.00952625210639299,"38":-0.09105497046002425,"39":0.07681702060152956,"40":-0.040547044343295785,"41":-0.08490346899117235,"42":-0.05436561156173668,"43":-0.1527535241516653,"44":-0.1746193591145884,"45":-0.07616288021856536,"46":0.028258727106340354,"47":0.027219309175871526,"48":-0.09941428476953877,"49":0.041707806855970794,"50":-0.0713771608429586,"51":0.04693340921837676,"52":-0.009019271900914179,"53":0.0014244319770560605,"54":-0.1182798525938946,"55":-0.03606435359736773,"56":-0.08814356409993417,"57":-0.14000739075731133,"58":-0.016905277603345287,"59":-0.12520125541243546,"60":-0.2555735663623238,"61":-0.05625905761239932,"62":-0.15217321237643427,"63":-0.13584137872826768,"64":-0.050482990864112905,"65":-0.06671486843711016,"66":-0.06616871887686882,"67":0.04051179081911332,"68":-0.11748130507461291,"69":-0.024679164682043654,"70":-0.023706531851283366,"71":0.10587568965227258,"72":-0.09150595568360198,"73":0.014852646021466194,"74":0.04712961528693395,"75":-0.0885736769565374,"76":-0.1317914983779569,"77":-0.04855480712584937,"78":-0.03838650760908385,"79":-0.035501852179960006,"80":-0.03292078306576474,"81":-0.07852632884819419,"82":-0.007997306482467043,"83":0.0567508882426731,"84":0.14219570971503354,"85":-0.014384712400159871,"86":-0.04695446378967954,"87":0.003240615399115646,"88":-0.003279471648013982,"89":0.023707585033177648,"90":0.05956475012009219,"91":-0.07011652012418247,"92":-0.05210693595399136,"93":-0.1661546554594266,"94":-0.12146000678179406,"95":0.08878291267797775,"96":0.02527697685311212,"97":0.1154826590516711,"98":-0.19125922187665687,"99":-0.1408757792592761,"100":0.0617042023223341,"101":0.0887894668575987,"102":-0.02847459735310615,"103":-0.08908938673689214,"104":0.07842284692349494,"105":-0.013863639923053351,"106":-0.0829185358505293,"107":-0.02451745511030357,"108":-0.02450299392781795,"109":-0.12240487079939377,"110":-0.14304468171143225,"111":-0.06411789171946475,"112":0.12451043109126005,"113":0.04491560544234003,"114":-0.19410884237535606,"115":0.04752641827132873,"116":-0.21194755210142485,"117":0.07902167943103988,"118":-0.19362591222461323,"119":-0.12410313870167836,"120":0.09420253462850108,"121":-0.08000128693015834,"122":0.015235668609319927,"123":0.064988001360052,"124":-0.095413798869975,"125":-0.10763169661113053,"126":-0.09792439616847072,"127":0.13095408925831628,"128":0.1624371143919376,"129":0.09756034459239524,"130":-0.025632873902734558,"131":0.07250339577378373,"132":-0.02938611994027103,"133":0.04187291657794499,"134":-0.05221635691258361,"135":0.011938724641470146,"136":0.051773353225092654,"137":-0.31501424268655026,"138":0.013582291566807934,"139":-0.09883814892086272,"140":-0.09916573175319236,"141":0.0229229924475038,"142":-0.054365287739770785,"143":-0.008876627252269923,"144":-0.016880756165523602,"145":-0.19024452949627077,"146":0.22714483555368478,"147":-0.06746820817722178,"148":0.027270956527129714,"149":-0.10613680109986108,"150":0.10080350064136341,"151":0.09020211009066581,"152":-0.11396482581165802,"153":-0.03841275628651886,"154":-0.17359752951652496,"155":-0.022430806276821987,"156":-0.27064081406016094,"157":0.02230574851055698,"158":0.0995356536515824,"159":0.02098224611801115,"160":-0.061029407811849935,"161":0.004567123109671051,"162":-0.17259228754760098,"163":-0.09061350247450672,"164":-0.15487422026357944,"165":-0.25869932285397207,"166":0.10518205063820932,"167":-0.19716306237742193,"168":-0.0970060496686222,"169":-0.013587407766601944,"170":-0.24066162118810563,"171":-0.11977240976261115,"172":-0.07263457857902408,"173":0.05959700947656322,"174":0.0020174129732974887,"175":-0.1758485120718765,"176":-0.11837995272425816,"177":0.003325914356990394,"178":0.09262396691908092,"179":-0.2063503654461559,"180":0.03237766469461572,"181":0.003103318895499597,"182":-0.13457495699841832,"183":0.03824066516341144,"184":0.016586271518194588,"185":-0.1293966461432191,"186":0.03421736130903391,"187":-0.1902774706244836,"188":-0.02145678258634525,"189":-0.05170096626342877,"190":0.0537485660834393,"191":0.010853664849114776,"192":-0.1246780185187756,"193":0.1323156345181768,"194":0.1305872047614809,"195":0.023613419001338027,"196":-0.05060075979005425,"197":-0.2305101480433638,"198":-0.02241820991932114,"199":-0.05432185834061494,"200":-0.03174191991847271,"201":-0.06746465620852084,"202":-0.23123634701602996,"203":-0.15702747580059348,"204":0.01713339301083769,"205":-0.09674536633874393,"206":-0.06164858212067401,"207":0.03707289154692018,"208":-0.14352206617090918,"209":0.04488744308982948,"210":0.01927418724500878,"211":-0.0115276891349958,"212":-0.030926906351950563,"213":0.14000342762984247,"214":0.1418201374563172,"215":-0.19099752992438312,"216":-0.06718658908112717,"217":-0.12116626715040417,"218":-0.10787257394912222,"219":0.23154946477426494,"220":-0.05984838981033875,"221":-0.0004890629299228986,"222":0.08483332093334546,"223":0.011558285262366855,"224":0.025167506440162635,"225":-0.13079741984859752,"226":-0.03434151184850313,"227":0.17430003616156473,"228":0.12836443545627207,"229":-0.038743984088685464,"230":0.10862288170116681,"231":0.1378075502583582,"232":-0.20794720452817717,"233":-0.15980112702451693,"234":0.09778856342541313,"235":0.00903239566467173,"236":0.14761465801358545,"237":-0.13155745746532246,"238":-0.1659828463698356,"239":-0.16214326664173062,"240":-0.10734832343695283,"241":-0.07816281716884499,"242":0.05972903528429714,"243":-0.2630720992056934,"244":-0.07981301142599356,"245":-0.2073757776650684,"246":-0.08406293430481618,"247":-0.08546808089256684,"248":-0.0554406270690844,"249":0.03968040787685487,"250":0.04674613350503961,"251":-0.11833521099542044,"252":-0.012890744456415902,"253":0.028807216912809967,"254":0.06450454124608221,"255":-0.1261205771871872}},{"sx":1,"sy":1,"depth":256,"w":{"0":0.0006584953863138112,"1":-0.0008945779924233661,"2":-0.03382513889596151,"3":0.005767803743842049,"4":0.011991702467515245,"5":0.024343336314339922,"6":-0.004180733381672213,"7":-0.039065475288128454,"8":0.021860034403987958,"9":-0.040367063289626755,"10":0.039348280737825495,"11":-0.12002456758125125,"12":0.0398457246871437,"13":-0.08910467227478004,"14":-0.08697399152204456,"15":-0.05433647563051985,"16":-0.08116827151979583,"17":0.11966851330911159,"18":-0.09478757733258278,"19":-0.033808717706674755,"20":-0.0653303845994094,"21":-0.0001537385803707743,"22":-0.06284531504943766,"23":-0.03778115541099777,"24":-0.0021951364170361295,"25":-0.05947829398128703,"26":-0.036350342250862255,"27":-0.08309734461145259,"28":-0.10792625459976181,"29":-0.07292284659223476,"30":-0.026879910458752498,"31":-0.003283933318854348,"32":-0.044230533685002266,"33":0.04030042823594643,"34":-0.09096617892466004,"35":0.07002909418431048,"36":-0.04553035154825926,"37":-0.03564902214571749,"38":-0.22928225134641625,"39":0.02049516609124649,"40":0.14236981982787564,"41":-0.0367903975161445,"42":-0.014244912418081826,"43":-0.0618179274506492,"44":-0.13155799643142305,"45":-0.060943111408546434,"46":0.03683575728004654,"47":0.18776440816871987,"48":-0.1493288846452851,"49":-0.028646690698188586,"50":-0.06454162539103912,"51":-0.12906392191219795,"52":-0.12174704031285327,"53":-0.03141699956580319,"54":-0.03330826171798101,"55":0.10501031841835314,"56":0.0040587412396245704,"57":-0.14674889871539545,"58":-0.04858629689142362,"59":-0.016596347289494415,"60":0.005491567404619288,"61":-0.1532123992948881,"62":-0.14634503350129674,"63":0.1502210500684058,"64":-0.15226974278119232,"65":-0.10166863301815035,"66":0.024967799304615974,"67":0.027554332510445683,"68":-0.025527446146121072,"69":-0.05305214246540635,"70":-0.03608134027673442,"71":-0.17072556978858464,"72":-0.2516770599349097,"73":-0.0513727563285063,"74":-0.08135844614944751,"75":-0.08234312790332413,"76":0.04327517167706285,"77":0.11144231987183321,"78":-0.045377404307109515,"79":-0.056101382316352186,"80":0.041356757954934986,"81":-0.03841870923089498,"82":-0.1251290131342827,"83":-0.21350246148248947,"84":-0.060624342960691774,"85":-0.1511143842107899,"86":-0.030336056753618047,"87":0.004855119944684496,"88":-0.05320861663312636,"89":-0.22372931526249923,"90":0.06465204539873945,"91":-0.15506623882861564,"92":-0.12986607529162936,"93":0.1294099194467886,"94":-0.18884258916155028,"95":-0.4847547091268528,