{
    "net": {
        "layers": [
            {
                "out_depth": 1,
                "out_sx": 28,
                "out_sy": 28,
                "layer_type": "input"
            },
            {
                "sx": 5,
                "sy": 5,
                "stride": 1,
                "in_depth": 1,
                "out_depth": 8,
                "out_sx": 28,
                "out_sy": 28,
                "layer_type": "conv",
                "l1_decay_mul": 0,
                "l2_decay_mul": 1,
                "pad": 2,
                "filters": [
                    {
                        "sx": 5,
                        "sy": 5,
                        "depth": 1,
                        "w": {
                            "0": 0.03550473391390477,
                            "1": 0.30086933124258197,
                            "2": 0.31318469267407495,
                            "3": 0.43751449457502206,
                            "4": -0.1574824117760807,
                            "5": 0.018019056326586846,
                            "6": -0.023370081997020103,
                            "7": 0.08518923687758251,
                            "8": 0.19703985011172673,
                            "9": 0.4518725641727051,
                            "10": -0.37033909288310196,
                            "11": -0.021669006243613263,
                            "12": -0.18439848184786187,
                            "13": 0.21871240887757556,
                            "14": -0.15935907111062783,
                            "15": 0.026440431810865837,
                            "16": -0.16657215076117707,
                            "17": 0.41054518515435817,
                            "18": -0.10608541693753568,
                            "19": -0.06522855809979203,
                            "20": -0.3904965496321269,
                            "21": -0.012956324664844494,
                            "22": 0.2891430364274399,
                            "23": 0.008620008472463823,
                            "24": -0.3087992188052342
                        }
                    },
                    {
                        "sx": 5,
                        "sy": 5,
                        "depth": 1,
                        "w": {
                            "0": -0.28888883755065065,
                            "1": 0.013954991435459696,
                            "2": -0.0939705322632759,
                            "3": 0.3874133982920347,
                            "4": -0.01319007134524836,
                            "5": -0.40547917869479033,
                            "6": -0.07734626247369354,
                            "7": -0.06736436262556866,
                            "8": -0.24197046019241686,
                            "9": 0.1298947181591329,
                            "10": -0.15267615038526908,
                            "11": -0.24985382693828653,
                            "12": -0.2658526708184024,
                            "13": 0.21767377415766387,
                            "14": 0.19798820650397692,
                            "15": 0.03415959535927298,
                            "16": -0.38261113039087263,
                            "17": 0.34589277724241985,
                            "18": 0.30791277391496785,
                            "19": 0.05424619003859516,
                            "20": -0.1963556306023751,
                            "21": -0.11536074591112072,
                            "22": 0.22967908703117643,
                            "23": 0.23895262630981187,
                            "24": 0.47955006807283845
                        }
                    },
                    {
                        "sx": 5,
                        "sy": 5,
                        "depth": 1,
                        "w": {
                            "0": -0.4504575121105466,
                            "1": 0.019058983674149526,
                            "2": 0.006989711397722331,
                            "3": -0.22788569133387743,
                            "4": 0.4615851177328152,
                            "5": -0.31439482781828737,
                            "6": -0.32120337474153293,
                            "7": 0.08191528900033013,
                            "8": -0.09021763387705956,
                            "9": 0.2277389617330036,
                            "10": -0.02267692276216723,
                            "11": -0.1251885993587169,
                            "12": -0.14395463486771426,
                            "13": -0.17302655920185994,
                            "14": 0.034247263715909707,
                            "15": 0.014884633088586719,
                            "16": 0.07532433376120666,
                            "17": 0.3567423082842878,
                            "18": 0.1998579593566302,
                            "19": 0.3349474231761864,
                            "20": -0.02849120462193406,
                            "21": 0.0636274698452886,
                            "22": -0.05604159424681004,
                            "23": 0.17950975539749034,
                            "24": -0.34446556488937946
                        }
                    },
                    {
                        "sx": 5,
                        "sy": 5,
                        "depth": 1,
                        "w": {
                            "0": 0.07134959932264101,
                            "1": 0.006560157907390962,
                            "2": -0.024219586918203757,
                            "3": 0.08102144094404001,
                            "4": 0.08893586658398239,
                            "5": -0.11155296992333223,
                            "6": -0.11696240505081117,
                            "7": 0.1600103997910427,
                            "8": -0.08577935719916398,
                            "9": -0.1235865298625338,
                            "10": 0.1554560510652488,
                            "11": 0.3797268636254571,
                            "12": 0.15049819545241577,
                            "13": -0.29695076755102595,
                            "14": -0.103130954750912,
                            "15": 0.08890444047199376,
                            "16": -0.010517391348599194,
                            "17": -0.43995729533000355,
                            "18": 0.019781281282082643,
                            "19": -0.44561789212108915,
                            "20": -0.03507533368249472,
                            "21": 0.1671817529648264,
                            "22": -0.027937479483736066,
                            "23": -0.2936751912268928,
                            "24": 0.20266063659032882
                        }
                    },
                    {
                        "sx": 5,
                        "sy": 5,
                        "depth": 1,
                        "w": {
                            "0": 0.1705276809603507,
                            "1": 0.16430188787156133,
                            "2": -0.15229775394864165,
                            "3": 0.04820701395663397,
                            "4": 0.12485432388957467,
                            "5": -0.34172940840602933,
                            "6": 0.10735367865390073,
                            "7": -0.017235472441113106,
                            "8": 0.0330590823405967,
                            "9": 0.2989862021799124,
                            "10": 0.4552988431860223,
                            "11": -0.3466363621073052,
                            "12": 0.48126544499458823,
                            "13": 0.4519546684687286,
                            "14": -0.04485935146990123,
                            "15": 0.08107237912970808,
                            "16": 0.08616318775349915,
                            "17": 0.10832865193275411,
                            "18": -0.005576180789385969,
                            "19": 0.266395715842993,
                            "20": 0.027682249523669763,
                            "21": 0.0652807718117758,
                            "22": 0.29250404223707577,
                            "23": -0.24261228204622284,
                            "24": -0.04924096625132197
                        }
                    },
                    {
                        "sx": 5,
                        "sy": 5,
                        "depth": 1,
                        "w": {
                            "0": -0.03677113848478691,
                            "1": 0.5206193305982533,
                            "2": 0.004341799660548218,
                            "3": -0.07878619310824786,
                            "4": -0.09290526297751599,
                            "5": 0.24343280907988862,
                            "6": -0.08741587281620837,
                            "7": -0.5944210903944882,
                            "8": 0.2782599979561173,
                            "9": 0.03557572659360037,
                            "10": -0.2442015034391321,
                            "11": -0.29722482423072105,
                            "12": 0.17581291172998656,
                            "13": 0.17336387805113218,
                            "14": -0.28166390586907025,
                            "15": 0.014239567216689534,
                            "16": -0.1370998659304561,
                            "17": 0.161772552134549,
                            "18": -0.09437630119154922,
                            "19": -0.2519209271942544,
                            "20": 0.17935537250182443,
                            "21": -0.38275240209397415,
                            "22": 0.021335239157379737,
                            "23": -0.06288821990254129,
                            "24": 0.1809731502092984
                        }
                    },
                    {
                        "sx": 5,
                        "sy": 5,
                        "depth": 1,
                        "w": {
                            "0": -0.28833420795570297,
                            "1": 0.13944311498701345,
                            "2": 0.26892562810888637,
                            "3": 0.21866376254163486,
                            "4": -0.10812511159960991,
                            "5": -0.15844726900044592,
                            "6": 0.3262618606563439,
                            "7": -0.24233606176665035,
                            "8": -0.29404923564871643,
                            "9": -0.03933681451227971,
                            "10": 0.0846064833045911,
                            "11": -0.15986688369304572,
                            "12": -0.16676686738217472,
                            "13": 0.1396526306164246,
                            "14": -0.25191597666355126,
                            "15": 0.5026267883851592,
                            "16": -0.025820107981241725,
                            "17": 0.028698167247307723,
                            "18": 0.12387694225159916,
                            "19": -0.12724040729554692,
                            "20": 0.006385940214677314,
                            "21": 0.10510667893676867,
                            "22": -0.29832549214420523,
                            "23": 0.026342813247978866,
                            "24": -0.39648860504928635
                        }
                    },
                    {
                        "sx": 5,
                        "sy": 5,
                        "depth": 1,
                        "w": {
                            "0": 0.02357307578014794,
                            "1": 0.3090158931111053,
                            "2": 0.1809732904239356,
                            "3": 0.2911578884115726,
                            "4": 0.24248633737724345,
                            "5": -0.09111500243665119,
                            "6": 0.2749177411321115,
                            "7": 0.21155988370139425,
                            "8": 0.20310114355564948,
                            "9": 0.7849552774530805,
                            "10": -0.012837120409220984,
                            "11": -0.0889074805273873,
                            "12": 0.042602656269141656,
                            "13": -0.20698641474005583,
                            "14": -0.20503100153698745,
                            "15": -0.3565651541713897,
                            "16": -0.2879605219017917,
                            "17": -0.4549432500093342,
                            "18": -0.007157232422053931,
                            "19": 0.25622231756439084,
                            "20": -0.5597248303330759,
                            "21": -0.30789658263771497,
                            "22": -0.18296367450622136,
                            "23": -0.3260240852212107,
                            "24": -0.37434260946821246
                        }
                    }
                ],
                "biases": {
                    "sx": 1,
                    "sy": 1,
                    "depth": 8,
                    "w": {
                        "0": 0.0704252306738392,
                        "1": 0.06154130442984625,
                        "2": 0.055315116664207145,
                        "3": 0.0880258426080175,
                        "4": -0.013453531772398301,
                        "5": 0.10690152660639059,
                        "6": 0.142042760672382,
                        "7": 0.14764165839108162
                    }
                }
            },
            {
                "out_depth": 8,
                "out_sx": 28,
                "out_sy": 28,
                "layer_type": "relu"
            },
            {
                "sx": 2,
                "sy": 2,
                "stride": 2,
                "in_depth": 8,
                "out_depth": 8,
                "out_sx": 14,
                "out_sy": 14,
                "layer_type": "pool",
                "pad": 0
            },
            {
                "sx": 5,
                "sy": 5,
                "stride": 1,
                "in_depth": 8,
                "out_depth": 16,
                "out_sx": 14,
                "out_sy": 14,
                "layer_type": "conv",
                "l1_decay_mul": 0,
                "l2_decay_mul": 1,
                "pad": 2,
                "filters": [
                    {
                        "sx": 5,
                        "sy": 5,
                        "depth": 8,
                        "w": {
                            "0": 0.04627631112489586,
                            "1": 0.16537116132380167,
                            "2": 0.007806873924282211,
                            "3": -0.012656081311575983,
                            "4": 0.006533388624127932,
                            "5": 0.08198508270550323,
                            "6": -0.22470889004307532,
                            "7": 0.22273820144166542,
                            "8": 0.13751001474542085,
                            "9": 0.04379097293002967,
                            "10": -0.02654231589099865,
                            "11": -0.08700987276695542,
                            "12": -0.07173023476759664,
                            "13": -0.05516636534536455,
                            "14": 0.09160806059692982,
                            "15": 0.05901647713049761,
                            "16": 0.004121261075315843,
                            "17": -0.07067424997841593,
                            "18": 0.04256638468251001,
                            "19": 0.06836170266130412,
                            "20": -0.03167678817798296,
                            "21": 0.038818577446905964,
                            "22": 0.009860533349320466,
                            "23": 0.019556115990538532,
                            "24": 0.025291181837230954,
                            "25": -0.07362209701583411,
                            "26": -0.027489501968756457,
                            "27": -0.030848778410055525,
                            "28": -0.0439837199663885,
                            "29": 0.055114170977219455,
                            "30": 0.022106087741944145,
                            "31": -0.006980602814293345,
                            "32": -0.06738955336986673,
                            "33": 0.22844832926961944,
                            "34": 0.10531009770181181,
                            "35": 0.0819322878280711,
                            "36": -0.10814316021387763,
                            "37": 0.09059841244723672,
                            "38": -0.14938007318878627,
                            "39": 0.02238315397236025,
                            "40": 0.16243664197633165,
                            "41": -0.004907364863655681,
                            "42": 0.12319058983506209,
                            "43": 0.09538789537060731,
                            "44": 0.0537880680085054,
                            "45": -0.05802798433896763,
                            "46": 0.16302929180711087,
                            "47": -0.0033564391774449035,
                            "48": -0.02720668430158292,
                            "49": 0.017677947687571274,
                            "50": 0.08579223431429846,
                            "51": 0.02157394177958327,
                            "52": 0.10668681999925103,
                            "53": -0.06894990115536648,
                            "54": 0.10116376772376788,
                            "55": -0.04678486500144445,
                            "56": 0.0010033360455852264,
                            "57": -0.020718775717280567,
                            "58": -0.021617482643919727,
                            "59": -0.1029592005880249,
                            "60": -0.04278523147965351,
                            "61": 0.0013829691933940594,
                            "62": -0.14578327567626156,
                            "63": -0.06864696995972704,
                            "64": -0.0596712881987824,
                            "65": 0.0087309851307548,
                            "66": 0.038211315740062014,
                            "67": 0.04511076477416671,
                            "68": -0.08577214030819735,
                            "69": -0.11424336415361618,
                            "70": -0.1438362623404559,
                            "71": -0.08081829014265124,
                            "72": 0.0032726678622546942,
                            "73": 0.2162386682864012,
                            "74": 0.17349711417422564,
                            "75": -0.08524934007843828,
                            "76": 0.10512845011271343,
                            "77": -0.0802689298449379,
                            "78": -0.07140052635020464,
                            "79": -0.010065310287414937,
                            "80": -0.036466363476417,
                            "81": 0.08220399905587047,
                            "82": 0.12313094792047065,
                            "83": 0.025973272328386254,
                            "84": -0.020933599788752335,
                            "85": -0.01731188041618268,
                            "86": 0.06496410250375792,
                            "87": 0.023549771353033804,
                            "88": -0.04408898380132401,
                            "89": -0.10081290375209136,
                            "90": -0.013271834620590029,
                            "91": 0.12035352335383966,
                            "92": 0.026276386202107597,
                            "93": -0.016561907570889236,
                            "94": -0.003646851930021307,
                            "95": -0.030807598932181858,
                            "96": -0.1837496640191055,
                            "97": -0.10033220476934751,
                            "98": -0.09092826897736746,
                            "99": -0.0803105403831581,
                            "100": -0.09036451635444823,
                            "101": -0.0245873618393423,
                            "102": 0.059584955706471605,
                            "103": -0.056127017094271814,
                            "104": -0.043205864263039497,
                            "105": 0.05992227335467802,
                            "106": -0.10263027295054662,
                            "107": -0.11147089039250412,
                            "108": -0.06428452445936074,
                            "109": 0.11123666813258146,
                            "110": 0.006776849270899847,
                            "111": -0.1944270703102182,
                            "112": 0.051818117769374,
                            "113": 0.031856681119468024,
                            "114": 0.09121785516226764,
                            "115": -0.0906488548052335,
                            "116": 0.031117524022374225,
                            "117": -0.0385890839101648,
                            "118": -0.10633921820970058,
                            "119": -0.09472971248131933,
                            "120": 0.057781384055572295,
                            "121": 0.019244622372491613,
                            "122": -0.004148441574348215,
                            "123": -0.038782518718526865,
                            "124": 0.037306136941579374,
                            "125": 0.06661117598104058,
                            "126": 0.00702634174536133,
                            "127": 0.03006205459891398,
                            "128": 0.04045886658282209,
                            "129": 0.06515630007156566,
                            "130": -0.03372888063761231,
                            "131": 0.10337131649076459,
                            "132": -0.04430470196644871,
                            "133": -0.061967648403268294,
                            "134": -0.020840443155243114,
                            "135": 0.000017444634258122725,
                            "136": -0.07172052717779837,
                            "137": -0.07612582680389214,
                            "138": -0.06214563920365698,
                            "139": -0.07664443834115588,
                            "140": -0.03496918964745328,
                            "141": -0.05320916437677097,
                            "142": -0.09777743497371919,
                            "143": 0.0024511076079172262,
                            "144": -0.18907942786162918,
                            "145": 0.014755070138755735,
                            "146": 0.08605675745500896,
                            "147": -0.0009507531549449058,
                            "148": 0.07484025644891285,
                            "149": -0.013716181635404529,
                            "150": 0.033358356561513085,
                            "151": 0.005129883151055123,
                            "152": 0.004559833363432827,
                            "153": 0.050341935900209,
                            "154": 0.015595679228514054,
                            "155": -0.18423231948059854,
                            "156": -0.0973440304589496,
                            "157": -0.016655836454170434,
                            "158": -0.03374126052612314,
                            "159": 0.12239458575332668,
                            "160": -0.017499718556955056,
                            "161": 0.02633013056772384,
                            "162": 0.07164356265415414,
                            "163": 0.02416939395997856,
                            "164": -0.000014403938336364193,
                            "165": 0.06641682039102507,
                            "166": -0.10373410333502533,
                            "167": -0.21625177928474143,
                            "168": 0.11257249918287189,
                            "169": 0.04465686541332371,
                            "170": -0.04335346591255463,
                            "171": -0.01234819477506759,
                            "172": 0.11406692714849154,
                            "173": -0.06635859371459006,
                            "174": -0.07372823117303824,
                            "175": -0.09625833615187289,
                            "176": -0.17308116892049893,
                            "177": 0.042909325765073794,
                            "178": -0.06698772178557603,
                            "179": 0.018814125711758205,
                            "180": 0.009318956171084518,
                            "181": -0.11761123145937029,
                            "182": 0.04523432195359077,
                            "183": -0.10053212440806228,
                            "184": -0.0934553239171742,
                            "185": -0.051873405715723166,
                            "186": 0.04802233434449417,
                            "187": -0.16162840889094476,
                            "188": -0.0288260837850146,
                            "189": -0.047692739797452866,
                            "190": -0.02162584764132658,
                            "191": -0.016036968606586786,
                            "192": 0.1509652528709993,
                            "193": -0.06377360656166219,
                            "194": 0.11799804118543425,
                            "195": -0.021280414958900498,
                            "196": 0.012937642011414646,
                            "197": -0.021512880530989043,
                            "198": -0.01359320225222046,
                            "199": 0.08351779441299412
                        }
                    },
                    {
                        "sx": 5,
                        "sy": 5,
                        "depth": 8,
                        "w": {
                            "0": -0.0764068051315066,
                            "1": -0.1206242113505246,
                            "2": 0.05333642422736611,
                            "3": -0.02150956169987355,
                            "4": -0.0334557321110743,
                            "5": -0.10478785018227446,
                            "6": 0.031216584054574874,
                            "7": -0.0014091942959647908,
                            "8": -0.04151313561297278,
                            "9": -0.047686101076687276,
                            "10": -0.18445405733825646,
                            "11": -0.03943982052067928,
                            "12": 0.02029480335918426,
                            "13": 0.06783145086164291,
                            "14": 0.07569544789631985,
                            "15": -0.03804750973468624,
                            "16": 0.04930396745582156,
                            "17": -0.09043721198167669,
                            "18": -0.06610242716337522,
                            "19": 0.059838481617099565,
                            "20": 0.12904093702779484,
                            "21": -0.0578210183272443,
                            "22": -0.11806524563087292,
                            "23": -0.1042982997371987,
                            "24": -0.06764506904972022,
                            "25": 0.029474031742184912,
                            "26": 0.14865960198180933,
                            "27": -0.07565586178464395,
                            "28": 0.04101187220484348,
                            "29": -0.06309020362283867,
                            "30": -0.06196663179118604,
                            "31": -0.05707870387338758,
                            "32": 0.01096902992008036,
                            "33": 0.16070935313347137,
                            "34": 0.047819568728655094,
                            "35": 0.002970454763273844,
                            "36": -0.04570242093694471,
                            "37": 0.033846630536966626,
                            "38": -0.05637033363003672,
                            "39": -0.23432260482190553,
                            "40": 0.07454023429284828,
                            "41": -0.14093980412344734,
                            "42": 0.005523042786466549,
                            "43": -0.022996474335079075,
                            "44": 0.058265066399405145,
                            "45": -0.09424999538300544,
                            "46": -0.02103890276832779,
                            "47": 0.014329448629171009,
                            "48": 0.028600277334023122,
                            "49": -0.014051034476500827,
                            "50": -0.014932750455596958,
                            "51": -0.1321719714108949,
                            "52": -0.01222717360552221,
                            "53": 0.07379367532701366,
                            "54": 0.07397089884360505,
                            "55": -0.010940036241620562,
                            "56": 0.004989257568244684,
                            "57": -0.031356369693152565,
                            "58": 0.019197715285969717,
                            "59": 0.06382346132876986,
                            "60": 0.029053071930552708,
                            "61": 0.02336685030562981,
                            "62": -0.08584862625287414,
                            "63": -0.09586953141211588,
                            "64": -0.07869863427341359,
                            "65": 0.13854856761772946,
                            "66": 0.10735208862107933,
                            "67": -0.04864404177966046,
                            "68": 0.07630237569835747,
                            "69": -0.01211302754167281,
                            "70": -0.03242619249855702,
                            "71": -0.06848349071440843,
                            "72": -0.006300445902752843,
                            "73": 0.15684880525736158,
                            "74": 0.12958631211933738,
                            "75": -0.09668139463430049,
                            "76": 0.09245025259484863,
                            "77": 0.015392607087590994,
                            "78": 0.05765250255138472,
                            "79": -0.15015372378502184,
                            "80": -0.10458723030794237,
                            "81": -0.14423522217569384,
                            "82": -0.13985450058906704,
                            "83": -0.07468296749618841,
                            "84": -0.12529684267547092,
                            "85": -0.0554609517386069,
                            "86": -0.002024508144748192,
                            "87": -0.08408224928927992,
                            "88": 0.0032668295145323765,
                            "89": -0.1080610035947455,
                            "90": -0.010395019073424076,
                            "91": -0.024733506311879445,
                            "92": 0.03404981002259357,
                            "93": -0.09450861811200265,
                            "94": 0.08950170196976447,
                            "95": 0.028132897081442097,
                            "96": -0.13065262909452335,
                            "97": 0.16162495641210162,
                            "98": 0.04551001165285164,
                            "99": -0.07143165251004026,
                            "100": -0.0034903917237770763,
                            "101": 0.13975758417740938,
                            "102": 0.0049797733232675835,
                            "103": -0.09114089562063002,
                            "104": 0.17733294074845415,
                            "105": 0.1373728591561483,
                            "106": 0.09191129934124143,
                            "107": -0.1454427287893509,
                            "108": 0.060813726760706246,
                            "109": -0.1015640206645233,
                            "110": -0.1017192167677683,
                            "111": -0.17770115710610654,
                            "112": -0.042899336292276824,
                            "113": -0.06084143327172328,
                            "114": -0.04880319591516083,
                            "115": 0.19787238763574183,
                            "116": 0.2177557644281588,
                            "117": 0.022038145173371198,
                            "118": 0.055403381009566155,
                            "119": -0.22533423903699104,
                            "120": -0.029066119950807007,
                            "121": -0.012044125522080052,
                            "122": 0.06583629074300379,
                            "123": 0.09637347743169068,
                            "124": -0.049828642074887464,
                            "125": -0.04991197118883969,
                            "126": 0.024885020650113658,
                            "127": -0.062384512999498806,
                            "128": -0.12757122164830398,
                            "129": 0.04579422538052763,
                            "130": -0.10477218846414828,
                            "131": 0.06457030000450671,
                            "132": -0.038726798722426986,
                            "133": -0.04442856765375191,
                            "134": -0.05867601494647625,
                            "135": -0.12689244333394123,
                            "136": -0.12787345077107418,
                            "137": -0.05910994431715221,
                            "138": 0.13757781147964884,
                            "139": -0.11816466251941954,
                            "140": -0.03733971618329595,
                            "141": -0.09026859674807756,
                            "142": -0.1542139999129309,
                            "143": -0.1033425484731079,
                            "144": 0.14688784032991922,
                            "145": 0.11807899368685934,
                            "146": 0.03384589213288834,
                            "147": -0.022594198302021827,
                            "148": 0.030407406083309278,
                            "149": -0.07902105341829127,
                            "150": 0.008336734785588348,
                            "151": -0.12193984064258985,
                            "152": 0.08423033902858398,
                            "153": -0.10291296554579987,
                            "154": -0.16045036377060518,
                            "155": 0.020879239142610827,
                            "156": 0.04804131541274188,
                            "157": -0.03222030413472937,
                            "158": 0.24398861511399209,
                            "159": -0.18849905540164758,
                            "160": -0.15129474709805119,
                            "161": -0.08976189887450134,
                            "162": -0.16655448524607394,
                            "163": -0.06494538010228122,
                            "164": -0.06412601057124835,
                            "165": -0.09121524796879708,
                            "166": 0.07826447156949407,
                            "167": -0.09292141025012715,
                            "168": -0.1722729906046026,
                            "169": 0.02692577172895253,
                            "170": -0.13686524120738264,
                            "171": 0.0025314551207114852,
                            "172": 0.06238952230244428,
                            "173": -0.013430131845355466,
                            "174": 0.013247483777941823,
                            "175": 0.03085640764067995,
                            "176": 0.17804032667258565,
                            "177": 0.22363095783871853,
                            "178": 0.06642317137247472,
                            "179": -0.08938686263737033,
                            "180": 0.0544565166622731,
                            "181": -0.027603701277697276,
                            "182": -0.12834632541290047,
                            "183": 0.038852641723851986,
                            "184": 0.22717284474523716,
                            "185": -0.046788189247702734,
                            "186": 0.07497809172887193,
                            "187": 0.15248956328747418,
                            "188": 0.07879383165929005,
                            "189": -0.10027742376765338,
                            "190": 0.021194074742124994,
                            "191": -0.29158810217780623,
                            "192": -0.09803550620970568,
                            "193": -0.13977141679938,
                            "194": -0.13558551439474342,
                            "195": 0.12728838823499689,
                            "196": 0.04758646466843514,
                            "197": 0.12693454517370703,
                            "198": 0.08537096983556974,
                            "199": -0.1736395476730382
                        }
                    },
                    {
                        "sx": 5,
                        "sy": 5,
                        "depth": 8,
                        "w": {
                            "0": 0.09351107625266555,
                            "1": -0.14244525004381156,
                            "2": -0.13238387193773224,
                            "3": 0.13569428277069576,
                            "4": 0.10764447385805251,
                            "5": 0.05478843453890197,
                            "6": 0.07660011405985953,
                            "7": 0.15339517198279595,
                            "8": 0.14957365944463394,
                            "9": -0.05317765481105404,
                            "10": 0.0996279910651412,
                            "11": -0.10638045094802638,
                            "12": -0.013277780422722252,
                            "13": -0.10745496931058762,
                            "14": -0.0773730982308227,
                            "15": 0.1706789124301533,
                            "16": 0.25926314381714516,
                            "17": -0.08763178688947934,
                            "18": -0.07285310102375533,
                            "19": -0.12566318700675727,
                            "20": -0.020655889799746384,
                            "21": 0.0181716179507285,
                            "22": -0.06359665504550018,
                            "23": 0.12494813015899327,
                            "24": 0.07201366687963098,
                            "25": 0.01947329628719697,
                            "26": -0.07487402749199681,
                            "27": -0.011682821377699644,
                            "28": -0.04733815080538742,
                            "29": -0.02863602183664021,
                            "30": -0.06817899793796713,
                            "31": 0.015059927708593938,
                            "32": 0.010062777664178289,
                            "33": -0.03316165203842435,
                            "34": 0.07592872629956163,
                            "35": -0.07182965543933989,
                            "36": 0.1547822883724034,
                            "37": 0.0052172956156016645,
                            "38": -0.008763561387475825,
                            "39": -0.07147349862495875,
                            "40": -0.045499446490460005,
                            "41": -0.049916960411432246,
                            "42": -0.1487586497710456,
                            "43": 0.06971634577948477,
                            "44": -0.015133536828623614,
                            "45": -0.014381166390063226,
                            "46": 0.08742972161636654,
                            "47": -0.08489878471960252,
                            "48": -0.04639983891721289,
                            "49": 0.02387783832302104,
                            "50": 0.034128706303447214,
                            "51": -0.008192683739873426,
                            "52": -0.09781566066798712,
                            "53": -0.03189382579587737,
                            "54": -0.1409502581445925,
                            "55": 0.031760349838102414,
                            "56": 0.05377739024667667,
                            "57": 0.014711970788007667,
                            "58": -0.05006056086375973,
                            "59": 0.027129727917480945,
                            "60": 0.05717923513380988,
                            "61": -0.026246533560099716,
                            "62": -0.03246453932303033,
                            "63": -0.05393363586365571,
                            "64": -0.050166608173137645,
                            "65": -0.06051408037948815,
                            "66": -0.008744106047115442,
                            "67": 0.16689142183400943,
                            "68": -0.11264190463378841,
                            "69": -0.1179161063668119,
                            "70": -0.10274227856936494,
                            "71": -0.10684738363973868,
                            "72": -0.043703058706427406,
                            "73": -0.0006941903177582623,
                            "74": 0.005930090768875531,
                            "75": 0.11010732823774769,
                            "76": -0.0338551661083066,
                            "77": 0.04544787953740181,
                            "78": -0.005178786933923772,
                            "79": 0.11692940374659136,
                            "80": -0.11655406140052758,
                            "81": -0.08099105068819797,
                            "82": -0.1229475600047858,
                            "83": -0.04584830613255593,
                            "84": -0.07065306492849212,
                            "85": -0.13336213141561984,
                            "86": 0.05002545215862683,
                            "87": -0.0010953733146495076,
                            "88": -0.05615057682684304,
                            "89": -0.11109795711145785,
                            "90": 0.038030616976977835,
                            "91": -0.012159338631817868,
                            "92": 0.02607208585859087,
                            "93": -0.02705244527014287,
                            "94": -0.02194224777955782,
                            "95": 0.05298909632888008,
                            "96": -0.026960835844276863,
                            "97": 0.10040930116964822,
                            "98": -0.0059021694326077435,
                            "99": -0.16601051483045864,
                            "100": -0.048504800053223385,
                            "101": -0.027576621986764117,
                            "102": 0.029354311474775057,
                            "103": -0.049105706023831845,
                            "104": 0.11099197613303155,
                            "105": -0.07594402813323466,
                            "106": -0.10305224311299913,
                            "107": -0.005155821872378339,
                            "108": 0.057892709704112234,
                            "109": -0.10757115260783734,
                            "110": -0.13727744016389157,
                            "111": -0.21053045519112748,
                            "112": -0.14694169840056465,
                            "113": 0.020764226293085865,
                            "114": -0.09286656942131444,
                            "115": 0.07067344296804237,
                            "116": -0.13137649291329917,
                            "117": 0.05351139017481775,
                            "118": -0.04184668258036,
                            "119": -0.0337533035185074,
                            "120": -0.02414154992836653,
                            "121": 0.00023719197297939962,
                            "122": -0.13586106582881108,
                            "123": 0.10718026044528899,
                            "124": 0.0017255594200619138,
                            "125": -0.018602399115565244,
                            "126": -0.18254767203839073,
                            "127": -0.09287734432583826,
                            "128": -0.029921453076354125,
                            "129": -0.0058750202925720064,
                            "130": -0.05844749833049247,
                            "131": 0.005905402444273638,
                            "132": -0.12543655310707943,
                            "133": -0.015664984489682607,
                            "134": -0.15337828181848678,
                            "135": -0.03748071355468506,
                            "136": 0.021343389659162684,
                            "137": -0.07641599511973153,
                            "138": 0.02980431081403334,
                            "139": -0.16772120828591386,
                            "140": -0.02255095943020546,
                            "141": -0.06330654940778684,
                            "142": 0.007899826663055396,
                            "143": 0.15465021641028287,
                            "144": -0.041004163330071626,
                            "145": 0.0157749287437113,
                            "146": -0.1504427180532455,
                            "147": -0.025173000127497975,
                            "148": -0.03723844109594383,
                            "149": 0.009433511570802399,
                            "150": -0.17009829301037208,
                            "151": 0.013633137292565833,
                            "152": 0.051356885226732735,
                            "153": -0.043475800853061145,
                            "154": 0.05664771412014596,
                            "155": -0.12516884306949044,
                            "156": -0.11783300417168,
                            "157": 0.03399478072020252,
                            "158": -0.04663623694931928,
                            "159": 0.0011519532195107432,
                            "160": -0.044162413651878944,
                            "161": 0.12300805021822749,
                            "162": 0.02240890493329019,
                            "163": -0.1261336653235826,
                            "164": -0.0027944372452741923,
                            "165": -0.06671800149548772,
                            "166": 0.05367794404527328,
                            "167": -0.1952236478772453,
                            "168": -0.14541171492948995,
                            "169": 0.01557090854235003,
                            "170": 0.11976490725682024,
                            "171": -0.12394755389257353,
                            "172": 0.052098664007876654,
                            "173": -0.0715319238690584,
                            "174": 0.007288524598104912,
                            "175": 0.05004585222658615,
                            "176": -0.13295829945567672,
                            "177": -0.028154807135241117,
                            "178": 0.006458556407397164,
                            "179": 0.011409184471331043,
                            "180": 0.0023626314903272775,
                            "181": -0.02805081828523561,
                            "182": -0.06834759294098813,
                            "183": -0.025159645433905694,
                            "184": 0.06593890917150784,
                            "185": -0.154425414389116,
                            "186": -0.047030685826329285,
                            "187": 0.0235455816358465,
                            "188": -0.11223150894007351,
                            "189": -0.03733764793053038,
                            "190": -0.08871149198893667,
                            "191": 0.08724830463258346,
                            "192": -0.001679096701661427,
                            "193": -0.15311843169966302,
                            "194": -0.07166320710749896,
                            "195": -0.1677699474297136,
                            "196": -0.0251109766208047,
                            "197": -0.008731436665337974,
                            "198": 0.08437213740873553,
                            "199": -0.03295313802551538
                        }
                    },
                    {
                        "sx": 5,
                        "sy": 5,
                        "depth": 8,
                        "w": {
                            "0": 0.1237577316959426,
                            "1": -0.11632939079539309,
                            "2": -0.08771437723726061,
                            "3": 0.20429700300429102,
                            "4": 0.013662906531374962,
                            "5": -0.026355815150345924,
                            "6": 0.057520651788418344,
                            "7": 0.10069434758138478,
                            "8": 0.04004259584179995,
                            "9": -0.03179074584876453,
                            "10": 0.019318328632494344,
                            "11": 0.1320239742035446,
                            "12": 0.08750905492088151,
                            "13": 0.1301714131168659,
                            "14": 0.07613656562164636,
                            "15": 0.13409145809136117,
                            "16": -0.025165029444016062,
                            "17": -0.02110594690451804,
                            "18": -0.07806245067763216,
                            "19": 0.08606455403299938,
                            "20": -0.08513296061441653,
                            "21": 0.037558838922995094,
                            "22": 0.12025566574413739,
                            "23": 0.06928842181467129,
                            "24": 0.05449994923288147,
                            "25": 0.02510837625965515,
                            "26": 0.0250276429742089,
                            "27": -0.078687815316255,
                            "28": -0.06707282713257846,
                            "29": -0.015330885516008001,
                            "30": 0.0373926410586084,
                            "31": 0.078893670922739,
                            "32": 0.1682284582162492,
                            "33": -0.05556097778138841,
                            "34": -0.03569997168856962,
                            "35": 0.05039614896418635,
                            "36": -0.021812047651772925,
                            "37": -0.022679337744055325,
                            "38": 0.06772463858077857,
                            "39": 0.2076325437558339,
                            "40": -0.0077723952402940465,
                            "41": -0.06714853128702862,
                            "42": -0.1437047610911925,
                            "43": 0.15139475717628667,
                            "44": -0.11108547213426463,
                            "45": 0.10298618743381045,
                            "46": 0.18468152139239952,
                            "47": 0.04636385750964952,
                            "48": 0.10033203304227233,
                            "49": -0.07877374369180114,
                            "50": -0.033409076041456875,
                            "51": 0.02895901963098991,
                            "52": -0.06901380552905931,
                            "53": 0.3334238013604412,
                            "54": -0.010034124779974573,
                            "55": 0.0033542040187867347,
                            "56": 0.04105984594202226,
                            "57": 0.03680205508620401,
                            "58": 0.03595895037070675,
                            "59": -0.045486515437821604,
                            "60": -0.03108716979839074,
                            "61": 0.04337571758556608,
                            "62": 0.06977337718894056,
                            "63": -0.09023016355271873,
                            "64": -0.1769220557197838,
                            "65": -0.06762706450650285,
                            "66": -0.21245367092377834,
                            "67": -0.08844422649682747,
                            "68": -0.028344063667323643,
                            "69": 0.042514478680525616,
                            "70": 0.03861230026083669,
                            "71": -0.07076776382999878,
                            "72": -0.14193296697308494,
                            "73": -0.06013732813004494,
                            "74": -0.08480729433301935,
                            "75": -0.10701241877454265,
                            "76": -0.21851047808499802,
                            "77": -0.058840032068543956,
                            "78": 0.08317650109527704,
                            "79": -0.11158275400083702,
                            "80": -0.031140683605481008,
                            "81": 0.0683512034460483,
                            "82": 0.05769018171245655,
                            "83": -0.10272789489008538,
                            "84": -0.032562575827661436,
                            "85": -0.01507267210471324,
                            "86": 0.006651664337594948,
                            "87": 0.007196469623336442,
                            "88": -0.15884572131484828,
                            "89": 0.032776083047469554,
                            "90": -0.01731878615672986,
                            "91": -0.13647454798341765,
                            "92": -0.11398587373912086,
                            "93": -0.09736926593334969,
                            "94": -0.06743315611683366,
                            "95": 0.03499778581926274,
                            "96": -0.10634148726548515,
                            "97": 0.010904972750861374,
                            "98": -0.022017454311241212,
                            "99": -0.0021068198826169017,
                            "100": -0.011307012247754643,
                            "101": -0.1785516869721718,
                            "102": -0.019413693318818533,
                            "103": 0.0016786773214924212,
                            "104": -0.05808414125933774,
                            "105": -0.11101993564481726,
                            "106": -0.1369361198238438,
                            "107": 0.05577508515944666,
                            "108": -0.029216624620053505,
                            "109": -0.0018981258380421282,
                            "110": -0.018644795838062327,
                            "111": -0.13302914220533865,
                            "112": 0.005206804432015182,
                            "113": -0.07789865685893521,
                            "114": -0.013768476577642444,
                            "115": -0.17634968108605534,
                            "116": -0.14901964760244238,
                            "117": -0.07879683569780856,
                            "118": 0.023379595309521706,
                            "119": -0.02111172796582923,
                            "120": -0.14846009277692265,
                            "121": 0.03690467891753186,
                            "122": -0.0745466604140639,
                            "123": 0.030929145863651638,
                            "124": -0.0665142492418958,
                            "125": 0.007881480288364407,
                            "126": 0.045258490500116426,
                            "127": 0.06567524824174284,
                            "128": -0.003591011947067479,
                            "129": -0.10084276168931432,
                            "130": 0.023820250355379352,
                            "131": 0.0357422631941842,
                            "132": -0.09275363054183161,
                            "133": 0.00457456127596214,
                            "134": 0.06323945383487051,
                            "135": 0.1464099829928,
                            "136": -0.24375756734725812,
                            "137": 0.04855778643568765,
                            "138": 0.020199904611263222,
                            "139": -0.1387982873918956,
                            "140": -0.011516969837172207,
                            "141": 0.08975599151063156,
                            "142": -0.07364394348255648,
                            "143": -0.0700920703996548,
                            "144": -0.0037620266056207,
                            "145": -0.1679286938550965,
                            "146": -0.10908623974106547,
                            "147": 0.12106196774930142,
                            "148": -0.15260782292691097,
                            "149": -0.14142504070761122,
                            "150": -0.03138936712839867,
                            "151": 0.06439852524157795,
                            "152": -0.022202846057477948,
                            "153": -0.0861352881774562,
                            "154": -0.04873924069745313,
                            "155": -0.07050667826520972,
                            "156": -0.15262505062213466,
                            "157": -0.06418855376590563,
                            "158": -0.16162418772910903,
                            "159": -0.09890713930399615,
                            "160": -0.006099122329659423,
                            "161": -0.051508503646676536,
                            "162": -0.07429749099200099,
                            "163": -0.07855665262240473,
                            "164": -0.09765528272243577,
                            "165": 0.01762330963879737,
                            "166": -0.04247971370089941,
                            "167": 0.013280804085102205,
                            "168": -0.058544933454581824,
                            "169": -0.009178746093754719,
                            "170": -0.1603632069070842,
                            "171": 0.08850107995491034,
                            "172": 0.04280624197643489,
                            "173": -0.08321789487311274,
                            "174": -0.037842628585193,
                            "175": 0.12227595683774584,
                            "176": 0.150261461817103,
                            "177": -0.09205054564962585,
                            "178": 0.02116346215320725,
                            "179": -0.11397762671942539,
                            "180": 0.04360895540607417,
                            "181": 0.08429967304684252,
                            "182": -0.021223702265746273,
                            "183": 0.07678624822737949,
                            "184": -0.0235174988720585,
                            "185": 0.08799015598126583,
                            "186": -0.17110399027448445,
                            "187": 0.1471615222758914,
                            "188": -0.17663128371231474,
                            "189": 0.030313740724955008,
                            "190": -0.023755338021070438,
                            "191": -0.062118757495547516,
                            "192": -0.22599942072992707,
                            "193": 0.1096757624630751,
                            "194": -0.018823771202841136,
                            "195": 0.013486898453580703,
                            "196": -0.05971745618514392,
                            "197": 0.03721489532734929,
                            "198": -0.04798622987355252,
                            "199": -0.07913580750403525
                        }
                    },
                    {
                        "sx": 5,
                        "sy": 5,
                        "depth": 8,
                        "w": {
                            "0": -0.016750160300005743,
                            "1": 0.018382583973495924,
                            "2": 0.01971802173926413,
                            "3": -0.06767056373129211,
                            "4": 0.049283013777441806,
                            "5": 0.005938764294322253,
                            "6": -0.023995608427828472,
                            "7": 0.011258979443476496,
                            "8": -0.015905481868375176,
                            "9": 0.042555182543620895,
                            "10": 0.10264885202902173,
                            "11": 0.048419486400157835,
                            "12": 0.03684962177968209,
                            "13": -0.023012752153537236,
                            "14": 0.05834179322704383,
                            "15": 0.009223883904018503,
                            "16": -0.03857525870391923,
                            "17": -0.13616613938869132,
                            "18": 0.00244035056592064,
                            "19": 0.052166509482519774,
                            "20": 0.06069742871871099,
                            "21": 0.06175100847045581,
                            "22": -0.04994004232277547,
                            "23": -0.020842211070241458,
                            "24": -0.034853798120799695,
                            "25": -0.08302332868746398,
                            "26": 0.021718159941145804,
                            "27": -0.009968406559511362,
                            "28": 0.06104896469113003,
                            "29": 0.08410707553900745,
                            "30": -0.056551037606824096,
                            "31": -0.07682426505647293,
                            "32": 0.043732916526680155,
                            "33": -0.07622651312852335,
                            "34": 0.03372576278150815,
                            "35": -0.19414377674196265,
                            "36": -0.07763682209901374,
                            "37": -0.03947997421022643,
                            "38": -0.09628641097740541,
                            "39": -0.032041462158934754,
                            "40": 0.06383814119614684,
                            "41": -0.05123077101728295,
                            "42": -0.06619103611452296,
                            "43": 0.013858147334821037,
                            "44": 0.03512618296989318,
                            "45": 0.08994943417924336,
                            "46": -0.06731334660807674,
                            "47": -0.12163413028331359,
                            "48": -0.01583091847949697,
                            "49": -0.13474650074346314,
                            "50": -0.014560812438749607,
                            "51": -0.04949236492510404,
                            "52": -0.06718386774314057,
                            "53": -0.11468050964638073,
                            "54": 0.14962057433296083,
                            "55": -0.042959858384851966,
                            "56": 0.12030516646150713,
                            "57": -0.028781273950592826,
                            "58": 0.02905492013403071,
                            "59": 0.03521887465451122,
                            "60": 0.0003539873902238537,
                            "61": 0.14076956863620346,
                            "62": -0.059192112384518145,
                            "63": 0.029343398923750628,
                            "64": -0.10636728999451295,
                            "65": -0.044972980857257025,
                            "66": -0.037525901341755305,
                            "67": 0.05491600207804044,
                            "68": -0.02527317586203252,
                            "69": 0.026072319614418214,
                            "70": 0.06290728188693094,
                            "71": 0.022039622381179062,
                            "72": -0.021140252444700112,
                            "73": 0.0411333775078368,
                            "74": -0.13000526608964,
                            "75": -0.05109919708832421,
                            "76": 0.06487344802227425,
                            "77": 0.014481922155873565,
                            "78": -0.03725579436465673,
                            "79": -0.05275275774659738,
                            "80": 0.0612046499882468,
                            "81": -0.17768480614348298,
                            "82": -0.04373384481517551,
                            "83": 0.08380995772352275,
                            "84": 0.029676514025224292,
                            "85": -0.0009061363748967416,
                            "86": -0.0897395308075205,
                            "87": -0.10349217984680528,
                            "88": 0.028861019609123875,
                            "89": -0.12010699582739297,
                            "90": 0.01646406751727052,
                            "91": -0.041868545894999665,
                            "92": 0.1125716524274954,
                            "93": -0.006114232811002001,
                            "94": -0.04636438344144547,
                            "95": 0.06616463494232071,
                            "96": -0.04649545251867955,
                            "97": -0.05942508514987439,
                            "98": 0.04043846582285046,
                            "99": 0.04785131790644642,
                            "100": -0.03762625198896481,
                            "101": -0.09137002567766335,
                            "102": 0.06184884758106173,
                            "103": -0.11330211313812127,
                            "104": 0.016849721696669925,
                            "105": -0.04794065256906858,
                            "106": 0.008025207924749988,
                            "107": -0.13516595369235304,
                            "108": -0.0776810925914402,
                            "109": -0.16039966181884652,
                            "110": 0.005137123336128925,
                            "111": -0.010853933921447921,
                            "112": -0.025509261667906978,
                            "113": -0.04596291045061514,
                            "114": -0.06470967521381861,
                            "115": 0.02915019897985442,
                            "116": -0.022609184312284137,
                            "117": -0.0236859192969124,
                            "118": -0.1006474958635323,
                            "119": -0.02827743600937425,
                            "120": 0.03587351094467655,
                            "121": 0.024315526628765176,
                            "122": -0.22577435475102864,
                            "123": -0.005899497668539072,
                            "124": -0.07939838626454467,
                            "125": 0.11563349021700896,
                            "126": -0.15268894596807422,
                            "127": -0.016692974515712125,
                            "128": -0.12190541905097793,
                            "129": -0.01050941661444923,
                            "130": -0.08960892154866455,
                            "131": -0.0012319451222124462,
                            "132": -0.0814001123920823,
                            "133": -0.06513948884913491,
                            "134": 0.003929393328411608,
                            "135": 0.018064557711293984,
                            "136": -0.03050715736956702,
                            "137": 0.02574831181924869,
                            "138": -0.06481957045955823,
                            "139": -0.07604091287939045,
                            "140": -0.14200096811981366,
                            "141": -0.11648046470918952,
                            "142": -0.022118654078044423,
                            "143": -0.02378350846397838,
                            "144": -0.10855369127089766,
                            "145": -0.04433471707945832,
                            "146": -0.1265005897640084,
                            "147": -0.020152859541135118,
                            "148": -0.005416169461391788,
                            "149": -0.11785012265072822,
                            "150": 0.0396493746644589,
                            "151": 0.010305111266500258,
                            "152": 0.08371260820623544,
                            "153": 0.010764130830548058,
                            "154": 0.08485275417487403,
                            "155": -0.05313430217544293,
                            "156": -0.09225431693863756,
                            "157": 0.12104142984871409,
                            "158": -0.04343162350442397,
                            "159": -0.06230436749147583,
                            "160": 0.09416878934942435,
                            "161": 0.05475186839822151,
                            "162": 0.00789933816631279,
                            "163": 0.0708391180659548,
                            "164": 0.01661593131983258,
                            "165": 0.022086102769222356,
                            "166": 0.009088155557972667,
                            "167": -0.0965972008247185,
                            "168": 0.07613165221243026,
                            "169": -0.057676743083962895,
                            "170": -0.05921667264211586,
                            "171": -0.01993693842889867,
                            "172": 0.13626686004184063,
                            "173": -0.026528839578076356,
                            "174": -0.002394035126384339,
                            "175": -0.010541398511690277,
                            "176": -0.06773585660158855,
                            "177": 0.009243461285574784,
                            "178": 0.01591453419129293,
                            "179": 0.05366072712159032,
                            "180": -0.022683059750761996,
                            "181": 0.08892528017430833,
                            "182": 0.14205375047647215,
                            "183": -0.11662701832396628,
                            "184": 0.1045729506505422,
                            "185": 0.002240678143720268,
                            "186": 0.0712909599873428,
                            "187": 0.10306074205898005,
                            "188": 0.06645369628057661,
                            "189": 0.1415788444710422,
                            "190": -0.09693348797426433,
                            "191": -0.0039000237213612085,
                            "192": 0.051109059126843506,
                            "193": -0.04119935511276506,
                            "194": 0.010549680295141781,
                            "195": 0.1128258399750572,
                            "196": -0.08238186599369804,
                            "197": -0.1466335121049402,
                            "198": -0.01761929875201628,
                            "199": -0.043114068869612665
                        }
                    },
                    {
                        "sx": 5,
                        "sy": 5,
                        "depth": 8,
                        "w": {
                            "0": 0.11273629667230041,
                            "1": -0.024592044068682414,
                            "2": -0.1303266368270659,
                            "3": -0.032948439731249675,
                            "4": 0.0108275870636284,
                            "5": -0.046460166062746486,
                            "6": -0.13670759807423788,
                            "7": -0.07908817218085154,
                            "8": -0.03287137100047414,
                            "9": 0.0010767737631741338,
                            "10": 0.06697756248615172,
                            "11": -0.031214602951500373,
                            "12": 0.118915799311996,
                            "13": -0.009929927204164989,
                            "14": 0.026307618706534315,
                            "15": -0.05520358337546152,
                            "16": -0.16390900484956478,
                            "17": 0.12053799106708481,
                            "18": -0.006629084161844247,
                            "19": -0.22308391506305267,
                            "20": 0.09798356372614818,
                            "21": -0.049485033584960716,
                            "22": 0.02441378697846063,
                            "23": -0.17753045626645872,
                            "24": -0.2062406646548981,
                            "25": -0.05667653531590361,
                            "26": -0.008348234988015072,
                            "27": -0.06024167252599131,
                            "28": 0.08638621864772453,
                            "29": -0.028390575931879148,
                            "30": 0.07368627909247684,
                            "31": -0.027754047300036392,
                            "32": -0.18810475400591642,
                            "33": -0.0453384685184617,
                            "34": 0.07811428213054204,
                            "35": 0.06966707309696306,
                            "36": 0.007295633300429764,
                            "37": 0.0077207831693855335,
                            "38": -0.0004457687979516902,
                            "39": -0.10602051149891141,
                            "40": 0.020415310900845602,
                            "41": -0.08211608644651355,
                            "42": -0.06258017820762654,
                            "43": -0.05150966956739861,
                            "44": 0.009019911764658665,
                            "45": -0.15405294812857867,
                            "46": -0.1679390619362659,
                            "47": 0.18697175714897893,
                            "48": 0.23179416700931188,
                            "49": -0.0007991962285031581,
                            "50": -0.10535683024752818,
                            "51": 0.02374810202873908,
                            "52": 0.08116693897043663,
                            "53": -0.009096965860093904,
                            "54": -0.0840892770578304,
                            "55": 0.14393159748672837,
                            "56": -0.0001740623422555956,
                            "57": -0.09013782851498776,
                            "58": -0.14102651421304782,
                            "59": 0.10227421209055443,
                            "60": 0.08140801450235867,
                            "61": -0.10389614206866762,
                            "62": -0.1420421051198672,
                            "63": 0.22797654865073722,
                            "64": 0.07616567308433528,
                            "65": -0.022851672878662972,
                            "66": -0.11706724368883098,
                            "67": 0.0029654680771142835,
                            "68": -0.038486545152895735,
                            "69": 0.05011192851189705,
                            "70": -0.0037433908522454544,
                            "71": 0.09562140302532483,
                            "72": 0.08704322060486287,
                            "73": -0.13765488925701805,
                            "74": 0.00428604202369166,
                            "75": 0.05123612216594711,
                            "76": -0.023313220443150845,
                            "77": 0.12126105093012306,
                            "78": -0.10361916969221419,
                            "79": 0.021426340982845685,
                            "80": 0.00741650132992069,
                            "81": 0.0822084425296921,
                            "82": -0.054485943065345654,
                            "83": -0.1393165089892769,
                            "84": -0.03924569788268213,
                            "85": 0.031737862230541126,
                            "86": -0.02758411054044967,
                            "87": 0.18616580546590525,
                            "88": -0.017431128540550605,
                            "89": -0.06754077407783943,
                            "90": -0.08728477545342982,
                            "91": -0.1707897069180729,
                            "92": -0.09178875780092755,
                            "93": -0.13823169066817648,
                            "94": 0.04268534324295302,
                            "95": 0.18954720193056931,
                            "96": 0.09922657294608238,
                            "97": 0.016067720236217185,
                            "98": 0.11353039711188573,
                            "99": 0.004844287646660791,
                            "100": -0.08346363071746041,
                            "101": 0.02190489007344756,
                            "102": -0.011725740182619489,
                            "103": 0.24886473714975255,
                            "104": -0.13309319269653375,
                            "105": -0.024783079290043107,
                            "106": 0.1965793715087785,
                            "107": -0.18910326489425605,
                            "108": 0.17505186123026437,
                            "109": 0.012518866206177702,
                            "110": 0.1652924069862447,
                            "111": 0.0845571780535903,
                            "112": 0.08705317366295352,
                            "113": -0.01469384442320908,
                            "114": 0.17159514602834192,
                            "115": -0.0731646214977237,
                            "116": 0.10754813054156713,
                            "117": -0.042400908573791495,
                            "118": 0.012988860355704221,
                            "119": -0.08272412390295446,
                            "120": -0.027198554365405428,
                            "121": -0.07308698499522745,
                            "122": 0.027837652650962517,
                            "123": -0.0708529120816236,
                            "124": -0.10911600567633664,
                            "125": 0.05226438536147217,
                            "126": 0.0535851813183807,
                            "127": -0.08019565602055546,
                            "128": -0.10499129005975702,
                            "129": 0.0636632159730612,
                            "130": -0.0505469461987087,
                            "131": -0.12193517470962043,
                            "132": -0.1311292180625368,
                            "133": -0.07830118230061676,
                            "134": -0.15418798453503035,
                            "135": -0.07998885087317996,
                            "136": -0.08345938442568258,
                            "137": 0.01227038280368847,
                            "138": 0.09957601419928572,
                            "139": -0.1609631082912573,
                            "140": 0.06424999249904105,
                            "141": 0.05056439659514553,
                            "142": -0.11609035903463392,
                            "143": -0.09582226345583827,
                            "144": -0.08112666870520563,
                            "145": -0.050109970734178964,
                            "146": 0.12889212502949787,
                            "147": 0.004808730194365537,
                            "148": 0.023465402599156714,
                            "149": 0.15638387908959134,
                            "150": -0.08353184185776018,
                            "151": -0.08305769522599313,
                            "152": -0.08227341802641505,
                            "153": -0.16323687779068818,
                            "154": 0.11896021625993525,
                            "155": -0.00869493787696967,
                            "156": 0.16131088164547217,
                            "157": 0.030963257155490878,
                            "158": 0.018227022517234615,
                            "159": -0.08877584824724977,
                            "160": -0.05166145402160089,
                            "161": -0.02830845478194431,
                            "162": 0.06914751229202544,
                            "163": -0.05273676823243373,
                            "164": -0.08002620714654132,
                            "165": -0.1302003892366112,
                            "166": 0.019038013545503097,
                            "167": -0.034139754734713874,
                            "168": 0.004496624020645457,
                            "169": 0.01648692159847741,
                            "170": 0.059315370775557257,
                            "171": -0.06526929235716777,
                            "172": -0.023539793607380365,
                            "173": -0.08794338498511478,
                            "174": 0.054747497734937145,
                            "175": -0.20131345272424758,
                            "176": -0.08696701216153419,
                            "177": -0.13824456598936577,
                            "178": 0.0008043527236305638,
                            "179": 0.1196007078306428,
                            "180": -0.038742348739543506,
                            "181": -0.10279238735665552,
                            "182": -0.1756494497785104,
                            "183": -0.15100754773956365,
                            "184": 0.005629589336134774,
                            "185": -0.12451966055322657,
                            "186": -0.01394365985768269,
                            "187": 0.07356778969448034,
                            "188": 0.09447625914337641,
                            "189": 0.06934732873354152,
                            "190": -0.055216129864811975,
                            "191": -0.002705408846926335,
                            "192": -0.05724255285334254,
                            "193": 0.0392855420901074,
                            "194": -0.15774203993114586,
                            "195": -0.038836426734428456,
                            "196": -0.13012087591887833,
                            "197": 0.009349251095119939,
                            "198": 0.012002517105566584,
                            "199": -0.02273145950396907
                        }
                    },
                    {
                        "sx": 5,
                        "sy": 5,
                        "depth": 8,
                        "w": {
                            "0": -0.01639127481964452,
                            "1": -0.08564680511107099,
                            "2": -0.001808078499079966,
                            "3": 0.09670988650677913,
                            "4": -0.010398813073249502,
                            "5": -0.07904010230133672,
                            "6": -0.03094499222134447,
                            "7": -0.01993081872399979,
                            "8": 0.09669982962002044,
                            "9": -0.06398861220211119,
                            "10": -0.034891562289059076,
                            "11": 0.06149261368661843,
                            "12": 0.03522621990271612,
                            "13": 0.02196260352078987,
                            "14": -0.13484262930597998,
                            "15": -0.011993565188596535,
                            "16": 0.012595829088884526,
                            "17": 0.11216300837368647,
                            "18": 0.06846487634623317,
                            "19": 0.028006817505904526,
                            "20": -0.04072750508206299,
                            "21": 0.05645538454329391,
                            "22": -0.08740488564289069,
                            "23": -0.061358072905324613,
                            "24": 0.016299901000096973,
                            "25": 0.05688729242768383,
                            "26": -0.02566759094783697,
                            "27": 0.07045109209494005,
                            "28": 0.01869892579850843,
                            "29": 0.013440986161019746,
                            "30": 0.02939786191870515,
                            "31": -0.04625188944946496,
                            "32": -0.07935819772458039,
                            "33": 0.011704135555936756,
                            "34": -0.14499196969442862,
                            "35": 0.006414604328149245,
                            "36": 0.023299094144698405,
                            "37": 0.1259928092579497,
                            "38": -0.07617157142073568,
                            "39": -0.05231014479068497,
                            "40": 0.03080339052311523,
                            "41": 0.012890186715347524,
                            "42": -0.017698421857050155,
                            "43": 0.05807513184811878,
                            "44": -0.03432764552677919,
                            "45": 0.016636898714539765,
                            "46": -0.20254162628535363,
                            "47": -0.044083932490356185,
                            "48": 0.04913128744381521,
                            "49": 0.08454723673673742,
                            "50": -0.13389387259110638,
                            "51": 0.17375209994359447,
                            "52": 0.05055386549041529,
                            "53": 0.0828074897360895,
                            "54": -0.0013144332483984989,
                            "55": 0.06713240455687007,
                            "56": -0.040817227642019366,
                            "57": 0.1498458949148029,
                            "58": -0.020243810008267644,
                            "59": -0.011131975382537643,
                            "60": 0.12671698287191588,
                            "61": 0.1528833610387964,
                            "62": -0.07458344828270909,
                            "63": 0.018704647392253908,
                            "64": 0.0033905823598100043,
                            "65": 0.04943129148044619,
                            "66": 0.027711175807916103,
                            "67": -0.009307494064195098,
                            "68": -0.018270546716337342,
                            "69": -0.04362363664538103,
                            "70": 0.017577186031681576,
                            "71": -0.0036651218767111303,
                            "72": 0.05167345521213045,
                            "73": -0.043072990792170834,
                            "74": -0.005186594757033755,
                            "75": -0.13368429673280705,
                            "76": -0.1411123340975383,
                            "77": -0.1360385846944631,
                            "78": 0.015679051793478907,
                            "79": 0.020705877631230045,
                            "80": -0.2571268160298658,
                            "81": -0.11289523721788612,
                            "82": 0.030318086197860587,
                            "83": -0.12769740794779394,
                            "84": -0.09912320789838845,
                            "85": -0.049810875071629075,
                            "86": -0.022210676670100245,
                            "87": -0.016897054752120645,
                            "88": -0.03687134725005386,
                            "89": 0.05866645644319844,
                            "90": 0.060925925847124716,
                            "91": 0.12196363478276522,
                            "92": -0.008085215432573865,
                            "93": -0.05871230498115819,
                            "94": -0.10593186509542958,
                            "95": 0.10388104340449454,
                            "96": 0.09697306847181963,
                            "97": 0.0368309003625121,
                            "98": 0.06332001771683048,
                            "99": -0.11727447286088101,
                            "100": -0.08096126037226518,
                            "101": 0.033893612410578845,
                            "102": -0.07448905400959709,
                            "103": 0.007068614635457238,
                            "104": -0.005710804372201813,
                            "105": -0.18573291373191567,
                            "106": -0.05487514360980709,
                            "107": 0.02886474194240011,
                            "108": -0.09810223982067556,
                            "109": -0.09056335532964384,
                            "110": -0.03836735615946635,
                            "111": -0.07650308221314811,
                            "112": -0.0550213241836383,
                            "113": 0.04172593543073241,
                            "114": 0.013977934439023086,
                            "115": -0.021248808745331183,
                            "116": -0.00892463793296329,
                            "117": -0.0998020192183567,
                            "118": -0.15007125115605838,
                            "119": -0.001908593740385304,
                            "120": -0.035541274302676076,
                            "121": 0.0536504196510094,
                            "122": -0.05679063994949507,
                            "123": -0.1549094363730377,
                            "124": -0.11991523964793079,
                            "125": 0.0034689342114992616,
                            "126": 0.011915055565530618,
                            "127": -0.001330751769227489,
                            "128": -0.11664309617926487,
                            "129": 0.037676537489960055,
                            "130": -0.02829206060214739,
                            "131": -0.017865335544230674,
                            "132": -0.01605663442355604,
                            "133": 0.025456343523412056,
                            "134": -0.04279285006280804,
                            "135": 0.1661507000511017,
                            "136": -0.002777494759042904,
                            "137": -0.044214279056499294,
                            "138": -0.044375581938453174,
                            "139": -0.11228260209828794,
                            "140": -0.04918694312558135,
                            "141": 0.008190693279079987,
                            "142": -0.030045730810696367,
                            "143": -0.10588583381014567,
                            "144": 0.010000791060248121,
                            "145": 0.026725601506689838,
                            "146": 0.029033282320074398,
                            "147": 0.03412284870767491,
                            "148": -0.02859000805267474,
                            "149": -0.04044898660529261,
                            "150": -0.03157246708285894,
                            "151": -0.023029588683447483,
                            "152": -0.049160141117346984,
                            "153": -0.17288243713959012,
                            "154": -0.12217904419903465,
                            "155": 0.017958422697470815,
                            "156": 0.06929742824172912,
                            "157": -0.014650684211962615,
                            "158": 0.09366703676117663,
                            "159": -0.22064161823125664,
                            "160": 0.08347946186234716,
                            "161": -0.0400492749494964,
                            "162": -0.012482317397322843,
                            "163": 0.09134376913492094,
                            "164": -0.14630007554902852,
                            "165": 0.12935672216138658,
                            "166": -0.14942712957766655,
                            "167": 0.04779055290811751,
                            "168": -0.12488146223355445,
                            "169": -0.08125404347818581,
                            "170": -0.017518274748594166,
                            "171": 0.002861321300261557,
                            "172": -0.11526562575130758,
                            "173": -0.027389355964142922,
                            "174": -0.10149793472709535,
                            "175": 0.021485450872882013,
                            "176": 0.04898171606406648,
                            "177": 0.11473620493129048,
                            "178": -0.024588610540041467,
                            "179": -0.020192609783957843,
                            "180": 0.05354239443841925,
                            "181": -0.1206103372942923,
                            "182": -0.02571621606968144,
                            "183": -0.13191781794211327,
                            "184": 0.0576804501390129,
                            "185": 0.05393127960146396,
                            "186": -0.016922941349673683,
                            "187": 0.01963337011485874,
                            "188": 0.06775877221001736,
                            "189": -0.156619070455759,
                            "190": 0.019461590457610645,
                            "191": 0.038949851829817084,
                            "192": -0.06271572199926428,
                            "193": 0.010864296327537779,
                            "194": 0.03829720714871993,
                            "195": 0.16841664504773504,
                            "196": -0.014527466679715356,
                            "197": -0.03237096654149005,
                            "198": -0.052445690476414016,
                            "199": 0.06380163962809506
                        }
                    },
                    {
                        "sx": 5,
                        "sy": 5,
                        "depth": 8,
                        "w": {
                            "0": -0.048755588760313905,
                            "1": 0.05844500252764872,
                            "2": -0.03464050720395124,
                            "3": -0.11437914758112928,
                            "4": 0.042958459500466784,
                            "5": -0.022708267171275772,
                            "6": -0.004113402311700733,
                            "7": 0.05688354593349413,
                            "8": 0.1283740134127154,
                            "9": -0.13387197428256514,
                            "10": -0.07482666053778785,
                            "11": -0.14620512573919253,
                            "12": -0.0013734080301594435,
                            "13": 0.10498953338364661,
                            "14": -0.10326455501631587,
                            "15": 0.22446092385650934,
                            "16": 0.00570693757484357,
                            "17": -0.17248412867147142,
                            "18": 0.03255173683063872,
                            "19": 0.08410411212484475,
                            "20": -0.022867300153205237,
                            "21": 0.029307459456941392,
                            "22": 0.04607707766476527,
                            "23": 0.24808603643121968,
                            "24": 0.22029675596241458,
                            "25": -0.11129323931694507,
                            "26": -0.1497816201444329,
                            "27": 0.038385113353525034,
                            "28": 0.000711967160488115,
                            "29": 0.011220367772058487,
                            "30": -0.11217154096328326,
                            "31": 0.22640851950324156,
                            "32": 0.10866985120101699,
                            "33": -0.15051311995801409,
                            "34": -0.2412763543188218,
                            "35": -0.015564694333158116,
                            "36": 0.11363338060146073,
                            "37": 0.026955189350043932,
                            "38": -0.07636184591143702,
                            "39": 0.13938460264549862,
                            "40": 0.08486629375326449,
                            "41": -0.14128058487269676,
                            "42": 0.05305404815441707,
                            "43": 0.023891087399676852,
                            "44": -0.10084321208522395,
                            "45": -0.14389182676218126,
                            "46": -0.026249435966549144,
                            "47": 0.1377885368231216,
                            "48": -0.10400418048763196,
                            "49": -0.044639644046287404,
                            "50": 0.05245097226291612,
                            "51": 0.06748996734250685,
                            "52": -0.09036991504673532,
                            "53": 0.036476414835903366,
                            "54": 0.09489823543665847,
                            "55": 0.1394470287844225,
                            "56": 0.009841209432902436,
                            "57": -0.02272739492839754,
                            "58": -0.0642625783961982,
                            "59": -0.04495217251137487,
                            "60": -0.1255396506131761,
                            "61": 0.010896351066466236,
                            "62": 0.10439742573543007,
                            "63": 0.04714666956957497,
                            "64": 0.03767228494214562,
                            "65": 0.0017465361229662883,
                            "66": 0.06168058280912438,
                            "67": 0.020056057352066076,
                            "68": -0.038089548342708175,
                            "69": 0.027319673420067067,
                            "70": 0.016185491022259267,
                            "71": -0.11348980194896933,
                            "72": 0.04356451790277123,
                            "73": 0.006346692272492746,
                            "74": -0.06545376548210313,
                            "75": 0.0665667115434265,
                            "76": 0.13758783474955022,
                            "77": 0.00006723167824750423,
                            "78": -0.044806838541454244,
                            "79": 0.03448784297114462,
                            "80": -0.00066722696910402,
                            "81": -0.036202242566214946,
                            "82": -0.042982669979463935,
                            "83": -0.14358182534482036,
                            "84": -0.09350489633955035,
                            "85": 0.0307963440508551,
                            "86": 0.06048548652523217,
                            "87": -0.1439697754704659,
                            "88": 0.0230378796713989,
                            "89": 0.1511561380162661,
